{"id": "0_1400", "meta": {"time": 1638574514.447599, "refresh_model_graph": false}, "step_info": {"epoch": 0, "iter": 1400}, "additional_info": {"pred": {"type": "Tensor", "value": [[1], [1], [3], [8], [7], [2], [5], [2], [9], [5]]}, "loss": {"type": "Tensor", "value": 0.36891621351242065}, "class_label": {"type": "Tensor", "value": [1, 1, 3, 8, 7, 2, 5, 2, 8, 5]}, "test_acc": {"type": "float", "value": 90.92}}, "graph_id": [0, 0], "data": {"conv1.weight": {"id": "conv1.weight", "data_group_type": "PARAM", "type": "Parameter", "value": {"tensor": "NOT SERIALIZED, Too large 288", "grad": "NOT SERIALIZED, Too large 288", "first_delta": "NOT SERIALIZED, Too large 288", "tensor__stats": {"min": -0.3343242406845093, "max": 0.36891743540763855, "mean": 0.018083589151501656, "variance": 0.04056496173143387, "nobs": 288, "histogram_bins": 16, "histogram": [[24, 13, 24, 11, 14, 19, 12, 19, 17, 26, 15, 27, 23, 11, 18, 15], [-0.3343242406845093, -0.2903716266155243, -0.2464190274477005, -0.2024664282798767, -0.15851381421089172, -0.11456121504306793, -0.07060861587524414, -0.026656007394194603, 0.017296597361564636, 0.061249203979969025, 0.10520181059837341, 0.1491544097661972, 0.193107008934021, 0.23705962300300598, 0.28101223707199097, 0.32496482133865356, 0.36891743540763855]]}, "grad__stats": {"min": -0.05542878061532974, "max": 0.012599143199622631, "mean": -0.009385552257299423, "variance": 0.00012230478751007468, "nobs": 288, "histogram_bins": 16, "histogram": [[2, 1, 0, 2, 6, 3, 14, 11, 17, 22, 49, 55, 52, 36, 13, 5], [-0.05542878061532974, -0.05117703601717949, -0.046925291419029236, -0.042673543095588684, -0.03842179849743843, -0.03417005389928818, -0.029918309301137924, -0.02566656470298767, -0.02141481824219227, -0.017163073644042015, -0.012911328114569187, -0.00865958258509636, -0.004407837986946106, -0.00015609251568093896, 0.0040956526063382626, 0.008347397670149803, 0.012599143199622631]]}, "first_delta__stats": {"min": -0.011914268136024475, "max": 0.05930827558040619, "mean": 0.015589062124490738, "variance": 0.0002867712755687535, "nobs": 288, "histogram_bins": 16, "histogram": [[5, 47, 30, 18, 24, 22, 24, 26, 19, 21, 18, 11, 11, 4, 6, 2], [-0.011914268136024475, -0.007462859153747559, -0.003011450171470642, 0.0014399588108062744, 0.005891367793083191, 0.010342776775360107, 0.014794185757637024, 0.01924559473991394, 0.023697003722190857, 0.028148412704467773, 0.03259982168674469, 0.037051230669021606, 0.04150263965129852, 0.04595404863357544, 0.050405457615852356, 0.05485686659812927, 0.05930827558040619]]}}, "shape": [32, 1, 3, 3]}, "conv1.bias": {"id": "conv1.bias", "data_group_type": "PARAM", "type": "Parameter", "value": {"tensor": [0.057646628469228745, 0.34687015414237976, -0.01705821044743061, -0.14607492089271545, -0.2815884053707123, 0.0010938106570392847, 0.1349283903837204, 0.028811149299144745, 0.09572655707597733, 0.12829677760601044, 0.1975754350423813, 0.3118223547935486, 0.05972108989953995, -0.2282188981771469, 0.03999907523393631, -0.1069045215845108, 0.2006225436925888, 0.12860752642154694, 0.11797287315130234, 0.15939973294734955, -0.24681808054447174, -0.09123676270246506, 0.22416776418685913, -0.15213137865066528, 0.12093620747327805, 0.26765766739845276, 0.28270599246025085, -0.24326394498348236, 0.16010189056396484, -0.007043211720883846, 0.11479002237319946, 0.31721699237823486], "grad": [-0.015798982232809067, -0.013429720886051655, 0.024706672877073288, 0.0010656914673745632, -0.020728884264826775, -0.003111131489276886, -0.022724922746419907, -0.0013624264393001795, 0.026957863941788673, 0.010499197989702225, 0.009769858792424202, -0.01828303001821041, 0.00028650672174990177, 0.0026438257191330194, 0.01750989444553852, 0.0038846065290272236, -0.00040403989260084927, 0.010046963579952717, 0.01907905377447605, -0.009392849169671535, -0.01874828338623047, -0.013524374924600124, 0.007168221287429333, -0.0007204027497209609, 0.008778159506618977, -0.027177754789590836, -0.029942205175757408, 0.0009810602059587836, -0.024597402662038803, 0.010516747832298279, -0.0008686439832672477, -0.014210258610546589], "first_delta": [0.021558519452810287, 0.019535303115844727, 0.005904797464609146, 0.02757236361503601, 0.035368770360946655, -0.0015551389660686255, 0.012669287621974945, 0.020019900053739548, 0.005155228078365326, 0.008676290512084961, 0.009139195084571838, 0.023663222789764404, 0.03376080095767975, 0.013539612293243408, 0.008166536688804626, 0.008115679025650024, 0.009603604674339294, 0.008648447692394257, 0.0025196298956871033, 0.006694614887237549, 0.04163239896297455, 0.02443721890449524, 0.012435048818588257, 0.005568847060203552, 0.006037719547748566, 0.033039629459381104, 0.03402993083000183, 0.0066226571798324585, 0.017589092254638672, 0.006389251910150051, 0.01727459579706192, 0.016572415828704834], "tensor__stats": {"min": -0.2815884053707123, "max": 0.34687015414237976, "mean": 0.06176038086414337, "variance": 0.030829617753624916, "nobs": 32, "histogram_bins": 5, "histogram": [[4, 4, 7, 11, 6], [-0.2815884053707123, -0.15589669346809387, -0.030204981565475464, 0.09548673033714294, 0.22117844223976135, 0.34687015414237976]]}, "grad__stats": {"min": -0.029942205175757408, "max": 0.026957863941788673, "mean": -0.0025353434029966593, "variance": 0.00023096974473446608, "nobs": 32, "histogram_bins": 5, "histogram": [[6, 6, 10, 6, 4], [-0.029942205175757408, -0.01856219209730625, -0.007182177621871233, 0.004197836387902498, 0.015577849932014942, 0.026957863941788673]]}, "first_delta__stats": {"min": -0.0015551389660686255, "max": 0.04163239896297455, "mean": 0.015637047588825226, "variance": 0.0001232294162036851, "nobs": 32, "histogram_bins": 5, "histogram": [[9, 9, 7, 2, 5], [-0.0015551389660686255, 0.007082368712872267, 0.015719875693321228, 0.02435738407075405, 0.032994892448186874, 0.04163239896297455]]}}, "shape": [32]}, "conv2.weight": {"id": "conv2.weight", "data_group_type": "PARAM", "type": "Parameter", "value": {"tensor": "NOT SERIALIZED, Too large 18432", "grad": "NOT SERIALIZED, Too large 18432", "first_delta": "NOT SERIALIZED, Too large 18432", "tensor__stats": {"min": -0.06879730522632599, "max": 0.08576542884111404, "mean": 0.0043686446733772755, "variance": 0.0012251120060682297, "nobs": 18432, "histogram_bins": 100, "histogram": [[1, 1, 8, 10, 20, 45, 86, 113, 133, 166, 169, 188, 206, 224, 202, 203, 218, 212, 237, 246, 246, 234, 234, 232, 254, 248, 254, 218, 239, 260, 211, 235, 221, 221, 249, 232, 218, 239, 260, 252, 243, 253, 250, 229, 233, 249, 239, 241, 229, 214, 213, 248, 242, 249, 239, 218, 256, 250, 245, 254, 238, 246, 269, 247, 233, 218, 249, 264, 236, 223, 235, 229, 254, 268, 234, 221, 220, 229, 229, 238, 205, 216, 183, 180, 121, 109, 80, 56, 73, 48, 38, 39, 25, 15, 14, 4, 3, 2, 0, 2], [-0.06879730522632599, -0.06725167483091354, -0.0657060518860817, -0.06416042149066925, -0.0626147985458374, -0.06106916815042496, -0.05952354148030281, -0.057977914810180664, -0.05643228814005852, -0.05488665774464607, -0.053341031074523926, -0.05179540440440178, -0.05024977773427963, -0.048704151064157486, -0.04715852066874504, -0.045612893998622894, -0.04406726732850075, -0.0425216406583786, -0.040976013988256454, -0.03943038731813431, -0.03788475692272186, -0.036339130252599716, -0.03479350358247757, -0.03324787691235542, -0.031702250242233276, -0.03015662170946598, -0.028610995039343834, -0.027065366506576538, -0.02551973983645439, -0.023974113166332245, -0.02242848463356495, -0.020882857963442802, -0.019337229430675507, -0.01779160276055336, -0.016245976090431213, -0.014700348488986492, -0.013154720887541771, -0.01160909328609705, -0.010063466615974903, -0.008517839014530182, -0.006972211413085461, -0.005426584277302027, -0.003880956908687949, -0.0023353295400738716, -0.000789702229667455, 0.0007559250807389617, 0.0023015523329377174, 0.003847179701551795, 0.005392807070165873, 0.006938434671610594, 0.008484061807394028, 0.010029689408838749, 0.011575316078960896, 0.013120943680405617, 0.014666571281850338, 0.01621219888329506, 0.017757825553417206, 0.0193034540861845, 0.020849080756306648, 0.022394707426428795, 0.02394033595919609, 0.025485962629318237, 0.027031589299440384, 0.02857721783220768, 0.030122844502329826, 0.03166847303509712, 0.03321409970521927, 0.034759726375341415, 0.03630535304546356, 0.03785097971558571, 0.039396610110998154, 0.0409422367811203, 0.04248786345124245, 0.044033490121364594, 0.04557911679148674, 0.04712474346160889, 0.04867037385702133, 0.05021600052714348, 0.051761627197265625, 0.05330725386738777, 0.05485288053750992, 0.05639851093292236, 0.05794413760304451, 0.059489764273166656, 0.0610353909432888, 0.06258101761341095, 0.0641266480088234, 0.06567227095365524, 0.06721790134906769, 0.06876353174448013, 0.07030915468931198, 0.07185478508472443, 0.07340040802955627, 0.07494603842496872, 0.07649166136980057, 0.07803729176521301, 0.07958292216062546, 0.0811285451054573, 0.08267417550086975, 0.0842197984457016, 0.08576542884111404]]}, "grad__stats": {"min": -0.024596020579338074, "max": 0.02063816785812378, "mean": -0.0008317495812661946, "variance": 1.6911757484194823e-05, "nobs": 18432, "histogram_bins": 100, "histogram": [[1, 1, 2, 0, 1, 2, 1, 4, 2, 1, 5, 2, 7, 6, 7, 11, 6, 14, 9, 7, 10, 13, 12, 25, 30, 20, 30, 35, 53, 49, 47, 59, 71, 76, 82, 128, 117, 149, 161, 180, 180, 243, 271, 317, 370, 442, 502, 561, 635, 733, 880, 1011, 1266, 1476, 1600, 1169, 901, 714, 605, 488, 375, 345, 306, 245, 222, 167, 152, 123, 96, 74, 83, 60, 47, 40, 33, 36, 32, 33, 26, 20, 12, 10, 17, 11, 7, 10, 7, 4, 11, 1, 5, 6, 4, 4, 0, 1, 2, 3, 0, 2], [-0.024596020579338074, -0.024143679067492485, -0.023691337555646896, -0.02323899418115616, -0.02278665266931057, -0.02233431115746498, -0.021881969645619392, -0.021429628133773804, -0.020977284759283066, -0.020524943247437477, -0.02007260173559189, -0.0196202602237463, -0.01916791871190071, -0.018715575337409973, -0.018263233825564384, -0.017810892313718796, -0.017358550801873207, -0.01690620929002762, -0.01645386591553688, -0.016001524403691292, -0.015549182891845703, -0.015096841380000114, -0.014644498936831951, -0.014192157424986362, -0.0137398149818182, -0.01328747346997261, -0.012835131958127022, -0.012382789514958858, -0.01193044800311327, -0.011478105559945107, -0.011025764048099518, -0.01057342253625393, -0.010121080093085766, -0.009668738581240177, -0.009216396138072014, -0.008764054626226425, -0.008311713114380836, -0.007859370671212673, -0.0074070291593670845, -0.0069546871818602085, -0.0065023452043533325, -0.0060500032268464565, -0.0055976612493395805, -0.005145319737493992, -0.004692977759987116, -0.00424063578248024, -0.003788293804973364, -0.0033359520602971315, -0.0028836100827902555, -0.002431268338114023, -0.001978926360607147, -0.001526584499515593, -0.0010742426384240389, -0.0006219007191248238, -0.0001695588289294392, 0.00028278306126594543, 0.0007351249223574996, 0.0011874667834490538, 0.0016398087609559298, 0.002092150505632162, 0.002544492483139038, 0.002996834460645914, 0.0034491762053221464, 0.0039015181828290224, 0.004353859927505255, 0.004806201905012131, 0.005258543882519007, 0.005710885860025883, 0.006163227371871471, 0.006615569349378347, 0.007067911326885223, 0.007520253304392099, 0.007972595281898975, 0.008424936793744564, 0.008877279236912727, 0.009329620748758316, 0.009781962260603905, 0.010234304703772068, 0.010686646215617657, 0.01113898865878582, 0.011591330170631409, 0.012043671682476997, 0.01249601412564516, 0.01294835563749075, 0.013400698080658913, 0.013853039592504501, 0.01430538110435009, 0.014757723547518253, 0.015210065059363842, 0.015662407502532005, 0.016114749014377594, 0.016567090526223183, 0.01701943203806877, 0.01747177541255951, 0.017924116924405098, 0.018376458436250687, 0.018828799948096275, 0.019281141459941864, 0.019733484834432602, 0.02018582634627819, 0.02063816785812378]]}, "first_delta__stats": {"min": -0.011933861300349236, "max": 0.032675933092832565, "mean": 0.004270121455192566, "variance": 4.0691960748517886e-05, "nobs": 18432, "histogram_bins": 100, "histogram": [[2, 0, 1, 4, 5, 8, 9, 17, 26, 45, 61, 93, 99, 116, 131, 150, 178, 222, 241, 295, 340, 349, 437, 517, 524, 646, 745, 759, 661, 596, 576, 511, 517, 484, 543, 444, 467, 460, 459, 391, 410, 352, 349, 314, 285, 284, 271, 295, 272, 261, 223, 217, 185, 185, 184, 195, 190, 154, 167, 151, 127, 127, 121, 123, 99, 107, 82, 75, 56, 51, 38, 43, 41, 40, 24, 29, 27, 31, 14, 15, 10, 6, 12, 11, 10, 7, 1, 5, 7, 7, 5, 2, 1, 2, 0, 0, 1, 1, 0, 1], [-0.011933861300349236, -0.011487763375043869, -0.011041665449738503, -0.010595567524433136, -0.01014946959912777, -0.009703371673822403, -0.009257273748517036, -0.00881117582321167, -0.008365077897906303, -0.007918979972600937, -0.00747288204729557, -0.007026784121990204, -0.006580686196684837, -0.0061345878057181835, -0.005688489880412817, -0.0052423919551074505, -0.004796294029802084, -0.0043501961044967175, -0.0039040984120219946, -0.0034580002538859844, -0.003011902328580618, -0.0025658044032752514, -0.002119706477969885, -0.0016736085526645184, -0.0012275106273591518, -0.0007814127020537853, -0.00033531474764458835, 0.00011078318493673578, 0.0005568811320699751, 0.0010029791155830026, 0.001449077040888369, 0.0018951749661937356, 0.002341273007914424, 0.0027873709332197905, 0.003233468858525157, 0.0036795667838305235, 0.004125664476305246, 0.004571762401610613, 0.005017860792577267, 0.005463958717882633, 0.005910056643188, 0.006356154568493366, 0.006802252493798733, 0.007248350419104099, 0.007694448344409466, 0.008140546269714832, 0.008586644195020199, 0.009032742120325565, 0.009478840045630932, 0.009924937970936298, 0.010371035896241665, 0.010817133821547031, 0.011263231746852398, 0.011709329672157764, 0.012155427597463131, 0.012601525522768497, 0.013047623448073864, 0.01349372137337923, 0.013939819298684597, 0.014385917223989964, 0.01483201514929533, 0.015278113074600697, 0.015724211931228638, 0.016170309856534004, 0.01661640778183937, 0.017062505707144737, 0.017508603632450104, 0.01795470155775547, 0.018400799483060837, 0.018846897408366203, 0.01929299533367157, 0.019739093258976936, 0.020185191184282303, 0.02063128910958767, 0.021077387034893036, 0.021523484960198402, 0.02196958288550377, 0.022415680810809135, 0.022861778736114502, 0.02330787666141987, 0.023753974586725235, 0.0242000725120306, 0.024646170437335968, 0.025092268362641335, 0.0255383662879467, 0.025984464213252068, 0.026430562138557434, 0.0268766600638628, 0.027322757989168167, 0.027768855914473534, 0.0282149538397789, 0.028661051765084267, 0.029107149690389633, 0.029553247615695, 0.029999345541000366, 0.030445443466305733, 0.0308915413916111, 0.031337637454271317, 0.03178373724222183, 0.03222983330488205, 0.032675933092832565]]}}, "shape": [64, 32, 3, 3]}, "conv2.bias": {"id": "conv2.bias", "data_group_type": "PARAM", "type": "Parameter", "value": {"tensor": [-0.034254997968673706, 0.05969654396176338, -0.0047021484933793545, 0.0046656630001962185, -0.004237442277371883, -0.006597353145480156, 0.03175292909145355, 0.011111058294773102, -0.021099243313074112, 0.010158517397940159, 0.005220535211265087, -0.03446447104215622, 0.027566011995077133, 0.04339273273944855, -0.020688453689217567, -0.04423888027667999, 0.0029256141278892756, -0.04643617197871208, 0.05883580446243286, -0.044497065246105194, 0.050409357994794846, -0.025608794763684273, -0.001550563843920827, -0.0010162177495658398, 0.04568035155534744, 0.03787750005722046, -0.05023448169231415, -0.036555420607328415, 0.059753432869911194, 0.07051613926887512, 0.009221603162586689, -0.022401386871933937, 0.008981989696621895, 0.05349059775471687, -0.04321033135056496, -0.03428959846496582, 0.005559273064136505, 0.030481256544589996, 0.03599949926137924, -0.018600882962346077, -0.019672060385346413, 0.05915204435586929, -0.03937258943915367, -0.021302741020917892, 0.04656974598765373, 0.039652999490499496, -0.02495642937719822, 0.011926170438528061, -0.027380062267184258, -0.010119451209902763, 0.047994766384363174, -0.040260691195726395, 0.019585639238357544, -0.03371085971593857, 0.010039864107966423, 0.05523369833827019, 0.06140930578112602, 0.054931603372097015, -0.0334567092359066, -0.013992083258926868, -0.0068113175220787525, 0.0435950867831707, 0.024585088714957237, 0.05218122527003288], "grad": [0.013934028334915638, 0.010578534565865993, 0.00720519945025444, -0.009427695535123348, 0.00375003507360816, -0.006879739463329315, 0.0012600033078342676, 0.006259093061089516, -0.00789112038910389, 0.013649913482367992, -0.00818944163620472, 0.006773549132049084, 0.004431854002177715, 0.022730737924575806, 0.0013279878767207265, -0.00910678505897522, 0.0027365253772586584, -0.005590127315372229, 0.0036797006614506245, -0.008610371500253677, -0.01260535791516304, 0.01153441984206438, -0.008344663307070732, -0.014371148310601711, 0.026516422629356384, 0.024148719385266304, -0.0036176647990942, -0.009316922165453434, 0.016992272809147835, -0.0018141380278393626, -0.011742609553039074, 0.008402747102081776, -0.006728590466082096, -0.006704258732497692, -0.013755504041910172, -0.006532508879899979, -0.00025465674116276205, -0.00904763676226139, -0.006223000586032867, 0.001664836541749537, -0.0031804763711988926, 0.0010523097589612007, -0.004392664879560471, -0.011296384036540985, -0.010314775630831718, -0.003276788629591465, -0.0018245924729853868, -0.0017616645200178027, 0.0002239018358523026, -0.0002084872976411134, 0.01962699554860592, -0.006005969364196062, -0.001650950056500733, -0.003627941943705082, -0.0140798045322299, -0.0001852326386142522, -0.002942661987617612, -0.005514729768037796, 0.005815754644572735, 0.015922311693429947, -0.003795984899625182, 0.018324708566069603, 0.004902188666164875, -0.007132797501981258], "first_delta": [0.0075598470866680145, 0.003982998430728912, 0.0011717313900589943, 0.0022059939801692963, 0.003378205467015505, 0.005176004022359848, 0.015698576346039772, 0.0033408300951123238, 0.007208077237010002, 0.00768826249986887, 0.003101623384281993, 0.006078500300645828, 0.002801036462187767, 0.008708201348781586, 0.0017457585781812668, 0.009913098067045212, 0.002541916212067008, 0.011924304068088531, 0.002417098730802536, 0.005953021347522736, 0.007846463471651077, 0.0031027626246213913, 0.0014848241116851568, 0.004090821370482445, 0.006495442241430283, 0.00502559170126915, 0.0032956674695014954, 0.00689331442117691, 0.004937559366226196, 0.014352057129144669, 0.010720956139266491, 0.005073849111795425, 0.004785884637385607, 0.0031692758202552795, 0.007608272135257721, 0.008056782186031342, 0.0031476232688874006, 0.006302382797002792, 0.009645363315939903, 0.005096260458230972, 0.004621397703886032, 0.0027498528361320496, 0.012765519320964813, 0.013581223785877228, 0.003975734114646912, 0.008438508957624435, 0.016980381682515144, 0.005367088131606579, 0.004006555303931236, 0.00898689590394497, 0.005440596491098404, 0.010508924722671509, 0.0018345043063163757, 0.0010614283382892609, 0.0060034254565835, 0.00654911994934082, 0.006177209317684174, 0.00985729694366455, 0.006202414631843567, 0.005451845936477184, 0.008746609091758728, 0.007324252277612686, 0.0019022095948457718, 0.015914704650640488], "tensor__stats": {"min": -0.05023448169231415, "max": 0.07051613926887512, "mean": 0.006631792522966862, "variance": 0.0012551996624097228, "nobs": 64, "histogram_bins": 8, "histogram": [[8, 12, 6, 11, 5, 6, 10, 6], [-0.05023448169231415, -0.03514065593481064, -0.02004682645201683, -0.004952998831868172, 0.010140828788280487, 0.025234656408429146, 0.040328484028577805, 0.05542231351137161, 0.07051613926887512]]}, "grad__stats": {"min": -0.014371148310601711, "max": 0.026516422629356384, "mean": 8.592021185904741e-05, "variance": 9.883520397124812e-05, "nobs": 64, "histogram_bins": 8, "histogram": [[9, 16, 14, 10, 5, 4, 3, 3], [-0.014371148310601711, -0.009260201826691628, -0.004149255342781544, 0.0009616907918825746, 0.0060726371593773365, 0.011183583177626133, 0.016294529661536217, 0.021405477076768875, 0.026516422629356384]]}, "first_delta__stats": {"min": 0.0010614283382892609, "max": 0.016980381682515144, "mean": 0.006377717945724726, "variance": 1.4398587154573761e-05, "nobs": 64, "histogram_bins": 8, "histogram": [[11, 15, 15, 11, 5, 2, 2, 3], [0.0010614283382892609, 0.0030512975063174963, 0.005041166674345732, 0.0070310356095433235, 0.009020905010402203, 0.011010774411261082, 0.013000642880797386, 0.014990512281656265, 0.016980381682515144]]}}, "shape": [64]}, "fc1.weight": {"id": "fc1.weight", "data_group_type": "PARAM", "type": "Parameter", "value": {"tensor": "NOT SERIALIZED, Too large 1179648", "grad": "NOT SERIALIZED, Too large 1179648", "first_delta": "NOT SERIALIZED, Too large 1179648", "tensor__stats": {"min": -0.018405938521027565, "max": 0.018938686698675156, "mean": 0.00023785662779118866, "variance": 3.793216455960646e-05, "nobs": 1179648, "histogram_bins": 100, "histogram": [[1, 1, 1, 1, 5, 5, 8, 20, 30, 49, 92, 141, 208, 276, 464, 732, 1001, 1526, 2369, 3448, 5410, 10024, 13622, 15528, 17055, 18257, 18943, 19614, 20262, 20481, 20726, 20821, 20873, 21062, 21273, 21181, 21266, 21263, 21069, 21228, 21286, 21133, 21083, 21189, 21286, 21104, 21010, 20994, 21329, 21054, 21141, 21084, 21351, 20945, 21017, 21093, 21011, 21016, 21163, 21092, 21376, 21011, 21287, 21191, 21154, 20969, 20780, 21236, 20942, 20659, 20667, 20426, 19933, 19425, 18332, 17283, 15242, 9918, 7090, 5167, 3874, 2740, 1925, 1306, 962, 720, 464, 310, 205, 123, 91, 47, 34, 17, 12, 3, 3, 3, 2, 2], [-0.018405938521027565, -0.018032493069767952, -0.01765904575586319, -0.017285600304603577, -0.016912152990698814, -0.0165387075394392, -0.01616526022553444, -0.015791814774274826, -0.015418368391692638, -0.01504492200911045, -0.014671475626528263, -0.01429803017526865, -0.013924583792686462, -0.013551137410104275, -0.013177691027522087, -0.0128042446449399, -0.012430798262357712, -0.012057351879775524, -0.011683906428515911, -0.011310460045933723, -0.010937013663351536, -0.010563567280769348, -0.01019012089818716, -0.009816674515604973, -0.009443228133022785, -0.009069781750440598, -0.008696336299180984, -0.008322889916598797, -0.00794944353401661, -0.0075759971514344215, -0.007202550768852234, -0.0068291048519313335, -0.006455658469349146, -0.006082212086766958, -0.005708766169846058, -0.00533531978726387, -0.004961873404681683, -0.004588427022099495, -0.004214981105178595, -0.003841534722596407, -0.0034680883400142193, -0.0030946421902626753, -0.0027211960405111313, -0.0023477496579289436, -0.0019743035081773996, -0.001600857125595212, -0.001227410975843668, -0.0008539646514691412, -0.0004805184144061059, -0.00010707216279115528, 0.0002663740888237953, 0.0006398203549906611, 0.001013266621157527, 0.0013867128873243928, 0.0017601591534912586, 0.0021336053032428026, 0.0025070516858249903, 0.0028804978355765343, 0.003253944218158722, 0.003627390367910266, 0.00400083651766181, 0.004374282900243998, 0.004747729282826185, 0.005121175199747086, 0.005494621582329273, 0.005868067964911461, 0.0062415143474936485, 0.006614960264414549, 0.0069884066469967365, 0.007361853029578924, 0.0077352989464998245, 0.008108745329082012, 0.0084821917116642, 0.008855638094246387, 0.009229084476828575, 0.009602529928088188, 0.009975976310670376, 0.010349422693252563, 0.010722869075834751, 0.011096315458416939, 0.011469761840999126, 0.011843208223581314, 0.012216654606163502, 0.012590100057423115, 0.012963546440005302, 0.01333699282258749, 0.013710439205169678, 0.014083885587751865, 0.014457331970334053, 0.01483077835291624, 0.015204223804175854, 0.015577670186758041, 0.015951117500662804, 0.016324562951922417, 0.01669800840318203, 0.017071455717086792, 0.017444901168346405, 0.017818348482251167, 0.01819179393351078, 0.018565241247415543, 0.018938686698675156]]}, "grad__stats": {"min": -0.06999970227479935, "max": 0.06548404693603516, "mean": -0.00010374491102993488, "variance": 2.4893408408388495e-05, "nobs": 1179648, "histogram_bins": 100, "histogram": [[1, 1, 2, 2, 6, 4, 11, 6, 13, 12, 7, 12, 11, 13, 15, 29, 18, 32, 44, 52, 88, 96, 106, 154, 164, 212, 238, 240, 317, 390, 476, 579, 727, 870, 1036, 1311, 1497, 1992, 2304, 2776, 3405, 4173, 5028, 6341, 7567, 10050, 12782, 17198, 25611, 48261, 103998, 606447, 139817, 59629, 30693, 19402, 13666, 10240, 7771, 6080, 4870, 3888, 2993, 2527, 2005, 1711, 1416, 1107, 867, 728, 607, 524, 444, 352, 276, 221, 196, 126, 148, 107, 109, 85, 75, 57, 50, 28, 23, 10, 15, 12, 9, 8, 7, 4, 5, 5, 5, 3, 1, 1], [-0.06999970227479935, -0.06864486634731293, -0.06729003041982651, -0.06593518704175949, -0.06458035111427307, -0.06322551518678665, -0.061870675534009933, -0.060515839606523514, -0.059161003679037094, -0.057806164026260376, -0.056451328098773956, -0.05509648844599724, -0.05374165251851082, -0.0523868165910244, -0.05103197693824768, -0.04967714101076126, -0.04832230135798454, -0.04696746543049812, -0.045612625777721405, -0.044257789850234985, -0.042902953922748566, -0.04154811426997185, -0.04019327834248543, -0.03883843868970871, -0.03748360276222229, -0.03612876683473587, -0.03477392718195915, -0.03341909125447273, -0.032064251601696014, -0.030709415674209595, -0.029354577884078026, -0.027999740093946457, -0.026644902303814888, -0.02529006451368332, -0.02393522672355175, -0.02258039079606533, -0.02122555300593376, -0.019870715215802193, -0.018515877425670624, -0.017161039635539055, -0.015806201845407486, -0.014451364986598492, -0.013096527196466923, -0.011741690337657928, -0.01038685254752636, -0.00903201475739479, -0.007677177432924509, -0.0063223401084542274, -0.004967502783983946, -0.0036126652266830206, -0.0022578276693820953, -0.000902990170288831, 0.00045184732880443335, 0.0018066847696900368, 0.003161522326990962, 0.004516359884291887, 0.005871197208762169, 0.007226034998893738, 0.008580871857702732, 0.009935709647834301, 0.01129054743796587, 0.012645384296774864, 0.014000222086906433, 0.015355059877038002, 0.01670989766716957, 0.01806473545730114, 0.01941957138478756, 0.02077440917491913, 0.022129246965050697, 0.023484084755182266, 0.024838922545313835, 0.026193760335445404, 0.027548596262931824, 0.028903434053063393, 0.03025827184319496, 0.03161311149597168, 0.0329679474234581, 0.03432278335094452, 0.03567762300372124, 0.03703245893120766, 0.038387298583984375, 0.039742134511470795, 0.041096970438957214, 0.04245181009173393, 0.04380664601922035, 0.04516148567199707, 0.04651632159948349, 0.04787116125226021, 0.04922599717974663, 0.05058083310723305, 0.051935672760009766, 0.053290508687496185, 0.0546453483402729, 0.05600018426775932, 0.05735502019524574, 0.05870985984802246, 0.06006469577550888, 0.0614195354282856, 0.06277437508106232, 0.06412921100854874, 0.06548404693603516]]}, "first_delta__stats": {"min": -0.011417480185627937, "max": 0.010669900104403496, "mean": 0.00023999038967303932, "variance": 1.7568640942045022e-06, "nobs": 1179648, "histogram_bins": 100, "histogram": [[1, 1, 0, 2, 0, 0, 1, 0, 1, 0, 1, 3, 0, 7, 9, 14, 10, 18, 25, 16, 14, 32, 51, 64, 114, 142, 190, 241, 362, 451, 655, 788, 1117, 1357, 1676, 2069, 2720, 3408, 4277, 5446, 7193, 8892, 11397, 14151, 17579, 22223, 28118, 35830, 44867, 61981, 102825, 235965, 97597, 76631, 65312, 56316, 47206, 39345, 32746, 27144, 22489, 18333, 15248, 12363, 10173, 8415, 6793, 5522, 4519, 3670, 2883, 2297, 1834, 1421, 1236, 918, 722, 545, 431, 329, 235, 192, 156, 95, 78, 43, 36, 23, 16, 9, 6, 5, 3, 5, 1, 0, 0, 1, 1, 1], [-0.011417480185627937, -0.011196606792509556, -0.0109757324680686, -0.010754859074950218, -0.010533984750509262, -0.01031311135739088, -0.010092237032949924, -0.009871363639831543, -0.009650489315390587, -0.009429615922272205, -0.009208742529153824, -0.008987868204712868, -0.008766994811594486, -0.00854612048715353, -0.008325247094035149, -0.008104372769594193, -0.007883499376475811, -0.007662625517696142, -0.007441751658916473, -0.007220877800136805, -0.007000003941357136, -0.006779130548238754, -0.0065582566894590855, -0.006337382830679417, -0.006116508971899748, -0.005895635113120079, -0.00567476125434041, -0.005453887395560741, -0.005233013536781073, -0.005012139678001404, -0.004791266284883022, -0.0045703924261033535, -0.004349518567323685, -0.004128644708544016, -0.003907770849764347, -0.0036868969909846783, -0.003466023365035653, -0.0032451495062559843, -0.0030242756474763155, -0.0028034017886966467, -0.0025825281627476215, -0.0023616543039679527, -0.002140780445188284, -0.001919906702823937, -0.0016990328440442681, -0.0014781591016799212, -0.0012572852429002523, -0.0010364115005359054, -0.0008155376417562366, -0.0005946638411842287, -0.00037379004061222076, -0.00015291624004021287, 6.795756780775264e-05, 0.0002888313611038029, 0.0005097051616758108, 0.0007305789622478187, 0.0009514527628198266, 0.0011723266215994954, 0.0013932003639638424, 0.0016140742227435112, 0.0018349479651078582, 0.002055821707472205, 0.002276695566251874, 0.0024975694250315428, 0.0027184432838112116, 0.0029393169097602367, 0.0031601907685399055, 0.0033810646273195744, 0.003601938486099243, 0.0038228121120482683, 0.004043686203658581, 0.004264559596776962, 0.004485433455556631, 0.0047063073143363, 0.004927181173115969, 0.0051480550318956375, 0.005368928890675306, 0.005589802749454975, 0.005810676608234644, 0.006031550467014313, 0.006252423860132694, 0.006473297718912363, 0.006694171577692032, 0.006915045436471701, 0.0071359192952513695, 0.007356793154031038, 0.007577667012810707, 0.007798540871590376, 0.008019414730370045, 0.008240288123488426, 0.008461162447929382, 0.008682035841047764, 0.008902909234166145, 0.009123783558607101, 0.009344656951725483, 0.009565531276166439, 0.00978640466928482, 0.010007278993725777, 0.010228152386844158, 0.010449026711285114, 0.010669900104403496]]}}, "shape": [128, 9216]}, "fc1.bias": {"id": "fc1.bias", "data_group_type": "PARAM", "type": "Parameter", "value": {"tensor": [-0.005487223621457815, 0.01075027883052826, -0.0027892370708286762, -0.0020979593973606825, -0.0002466326404828578, 0.004615931771695614, 4.681935752159916e-05, -0.005724435206502676, 0.001072369166649878, 0.0010657774982973933, 0.005947854369878769, 0.003872521920129657, 0.009599506855010986, 0.007657667621970177, -0.001364336465485394, -0.004037023056298494, 0.008035199716687202, 0.008382713422179222, -0.005911482963711023, -0.002516751177608967, -0.009564012289047241, 0.0029561782721430063, 0.0024162963964045048, -0.0011423263931646943, 0.003159093903377652, -0.0013659832766279578, -0.005040399264544249, -0.009571070782840252, 0.0076696863397955894, 0.0006070432718843222, -0.00918132159858942, 0.012187961488962173, -0.00010386600479250774, -0.004650048911571503, 0.002137694973498583, -0.00997919961810112, 1.3778943866782356e-05, -0.0008879030938260257, -0.005001602694392204, 0.010988523252308369, 0.0017537364037707448, -0.005639767274260521, -0.007476583123207092, 0.008564300835132599, -0.004734850488603115, -0.003525741398334503, 0.007720089051872492, 0.010644872672855854, 0.004459366202354431, -0.000920256192330271, 0.003966120537370443, 0.0018381725531071424, 0.00878872536122799, -0.007261509541422129, 0.0018320996314287186, -0.0006923588225618005, -0.008956975303590298, 0.008605373091995716, 0.001055156346410513, 0.00041959082591347396, 0.00014837738126516342, 0.0009911946253851056, -0.0049778372049331665, 0.004591920413076878, 0.0062648821622133255, -0.008772952482104301, 0.008061775006353855, 0.010255764238536358, -0.005457197781652212, 0.008138797245919704, 0.006554831750690937, 0.007143525406718254, 0.0026069788727909327, -0.008801417425274849, 0.006414648145437241, 0.007682411931455135, -0.0008718338795006275, -0.0073721567168831825, 9.819900878937915e-05, -0.0078740818426013, 0.0031045377254486084, -0.00394331943243742, 0.00511913001537323, 3.347977326484397e-05, -0.007446441799402237, -0.006145065184682608, 0.009714022278785706, 0.001961661735549569, 0.0027404502034187317, 0.004960000514984131, 0.0020064187701791525, 0.0031724823638796806, -0.0064442832954227924, 0.0074028936214745045, -0.00354959350079298, 0.0021879514679312706, -0.0013134954497218132, -0.009906193241477013, -0.0014268207596614957, -0.003802644554525614, -0.0024467625189572573, 0.006563231814652681, -0.005978480912744999, -0.0017274440033361316, -0.000720932031981647, -0.0003962857590522617, -0.0008492348133586347, -0.0021737630013376474, -0.0031146130058914423, -0.005763400811702013, 0.0069469064474105835, 0.004714509472250938, -0.008186140097677708, -0.010225234553217888, -0.0028544082306325436, 0.010278869420289993, -0.003477197838947177, -0.002625055145472288, -0.010525185614824295, 0.004560193978250027, 0.005697180051356554, 0.004190587904304266, -0.002290818141773343, -0.007659829221665859, -0.006059822626411915, 0.011478803120553493, -0.0027687684632837772, -0.0030701414216309786], "grad": [-0.007042561657726765, 0.0048057097010314465, 0.0008896626532077789, -0.0018381451955065131, -0.003005986101925373, 0.0009015080868266523, -0.003973750863224268, -0.0003517534933052957, -0.0026923902332782745, 0.0, -0.0018663819646462798, 0.0002729967818595469, 0.0, -0.005240302532911301, 0.010326539166271687, -0.00014646491035819054, -0.006625635549426079, -0.0002915862714871764, 0.00310888746753335, -0.0023662762250751257, -0.012150181457400322, 0.0, -0.00028569018468260765, -0.0018436484970152378, 0.0025626164861023426, -0.00406039459630847, 0.008164484053850174, -0.00027972832322120667, 0.00885473657399416, -0.012211328372359276, 0.0013323278399184346, 0.008450178429484367, 0.0005747000686824322, -0.0016072127036750317, -0.006890904624015093, 0.0, 0.007833372801542282, -0.007571121212095022, -0.007297402713447809, 0.00633805338293314, 0.0016113938763737679, 0.004588608630001545, 0.00207895552739501, -0.001965493196621537, 0.0007977702771313488, 0.0012585930526256561, -0.007444563787430525, 0.006127641070634127, 0.002841802779585123, -0.009141466580331326, 0.0, 0.0014231367968022823, -0.0034579485654830933, 0.005423903465270996, -0.007362487260252237, 0.0010711043141782284, -0.0020471930038183928, 0.0, -0.002357733901590109, -0.005401337519288063, 0.0029795884620398283, 0.0018894111271947622, 0.0022350067738443613, -0.006128240376710892, 0.0, -0.005335717927664518, -0.0026895194314420223, 0.011533782817423344, 0.0, 0.0015525261405855417, -0.00048132624942809343, 0.0, -0.007915487512946129, 0.0, -0.0070009902119636536, -0.0007163682021200657, -0.0057711368426680565, 0.0025365978945046663, 0.0050592501647770405, -0.0005173070821911097, -0.0023362142965197563, 0.006253816653043032, 0.0038264186587184668, -0.0075032333843410015, 0.00846167467534542, -0.0040078372694551945, 0.0006879244465380907, 0.00230894866399467, 0.0, 0.002814874053001404, 0.00288792559877038, -0.0073151541873812675, -0.0008672647527419031, 0.0016681392444297671, 0.0, 0.006617240607738495, -0.0021147369407117367, 0.0, -0.009047865867614746, -0.00021413381909951568, -0.004372477065771818, 0.00577046163380146, 0.0, 6.935133569641039e-05, 0.0, 0.008341608569025993, -0.004112456925213337, -0.00030824283021502197, 0.0, -0.003169839736074209, 0.003944577649235725, -0.005036413669586182, 0.0, -0.004081495106220245, 0.0, 0.004273490980267525, -0.003001812845468521, -0.0035572308115661144, 0.003710503689944744, 0.0008646345231682062, -0.002212150488048792, 0.006962580606341362, 0.002446305239573121, -0.0005303125362843275, 0.0021636357996612787, 0.0014240685850381851, 0.0033352442551404238, 0.0005743905785493553], "first_delta": [-5.8416277170181274e-05, 0.0024699317291378975, 0.0007084580138325691, -0.0003784684231504798, -0.00010112154996022582, 0.0006597093306481838, -0.0006545261712744832, -0.001272149384021759, 0.0031633907929062843, -0.000229818862862885, -0.0006064027547836304, -0.00022881687618792057, -0.0004967935383319855, 0.0005761776119470596, 0.0014604307943955064, 0.0008809301070868969, 0.0011292984709143639, 0.0003676004707813263, 0.0001885807141661644, 0.0026331571862101555, 0.0004394529387354851, -0.00039770943112671375, 0.0002554242964833975, 0.0031622168608009815, -0.0011588602792471647, 0.0025543831288814545, 0.002649236936122179, -0.0015897033736109734, 0.000725907739251852, -0.0007308550411835313, 0.0009440509602427483, 0.001927853561937809, -0.0006714711198583245, -0.0012418292462825775, -0.0005809711292386055, -0.0004113921895623207, 0.0012668337440118194, 0.002500665606930852, 0.0012021344155073166, 0.0012198667973279953, 0.0011703770142048597, 0.0016870778053998947, 0.0015268474817276, 0.0010718749836087227, 0.0005431408062577248, 0.0016144081018865108, 0.00010552117601037025, 0.003142845816910267, -0.00016442080959677696, 0.0009558906895108521, -0.0002913549542427063, 0.0007321661105379462, 0.00016135629266500473, 0.0013605072163045406, 0.00045768602285534143, 6.149342516437173e-05, -7.81891867518425e-05, -0.00015645939856767654, 0.0008076157537288964, 0.0002240751637145877, 0.0008890532772056758, -0.0005190219962969422, 0.0014878986403346062, 0.0006208205595612526, -8.939672261476517e-05, 0.0005171531811356544, 0.0014057466760277748, 0.0015397882089018822, -0.0004862821660935879, 0.00047537311911582947, 1.918058842420578e-06, -0.0003288658335804939, -0.001028125872835517, 0.0003128955140709877, -0.0004909848794341087, -0.0008949600160121918, -0.0011558984406292439, 0.002134481444954872, 0.0025414929259568453, 0.0004372820258140564, 0.00020770356059074402, 0.0006316760554909706, 0.0022817240096628666, 0.000527920201420784, 0.0013955868780612946, 0.0010574422776699066, -5.4080039262771606e-05, 0.0013064241502434015, -0.0002806149423122406, 0.00032128114253282547, -0.0004232653882354498, -0.00116319814696908, -0.00013910746201872826, 0.0009582182392477989, -0.00013464083895087242, 0.0014885306591168046, 0.0017751080449670553, -0.0004976373165845871, 0.0002845242852345109, 0.0005042902193963528, 0.001738948980346322, 0.001097553875297308, -0.0004608849994838238, 0.0002793351886793971, -0.0005767421680502594, 0.0028214785270392895, -0.001684228889644146, 0.0018868197221308947, -0.00017674220725893974, 0.00024361629039049149, 0.000662593636661768, -0.0001400122418999672, -0.0001756381243467331, -0.0005057696253061295, -9.417673572897911e-05, 0.0011654878035187721, -0.0004994191695004702, -0.0009821138810366392, -0.00020769797265529633, 0.001385449431836605, 0.001927982084453106, 4.591653123497963e-05, 0.002308226888999343, 0.0006011230871081352, 0.0013254662044346333, 0.0011460855603218079, 2.7074478566646576e-05, 0.0006776261143386364], "tensor__stats": {"min": -0.010525185614824295, "max": 0.012187961488962173, "mean": 0.00024787039728835225, "variance": 3.456868580542505e-05, "nobs": 128, "histogram_bins": 11, "histogram": [[10, 8, 14, 15, 16, 15, 12, 11, 12, 8, 7], [-0.010525185614824295, -0.008460354059934616, -0.006395522505044937, -0.004330690950155258, -0.0022658593952655792, -0.00020102784037590027, 0.0018638037145137787, 0.003928635269403458, 0.005993466824293137, 0.008058298379182816, 0.010123129934072495, 0.012187961488962173]]}, "grad__stats": {"min": -0.012211328372359276, "max": 0.011533782817423344, "mean": -0.00023694828269071877, "variance": 2.059502548945602e-05, "nobs": 128, "histogram_bins": 11, "histogram": [[2, 3, 12, 10, 18, 35, 23, 9, 8, 6, 2], [-0.012211328372359276, -0.010052681900560856, -0.007894035428762436, -0.005735388956964016, -0.003576742485165596, -0.001418096013367176, 0.0007405504584312439, 0.002899196930229664, 0.005057843402028084, 0.007216489873826504, 0.009375136345624924, 0.011533782817423344]]}, "first_delta__stats": {"min": -0.001684228889644146, "max": 0.0031633907929062843, "mean": 0.0005348785780370235, "variance": 1.158035274784197e-06, "nobs": 128, "histogram_bins": 11, "histogram": [[3, 7, 18, 23, 18, 18, 15, 10, 5, 7, 4], [-0.001684228889644146, -0.0012435362441465259, -0.0008028434822335839, -0.00036215080763213336, 7.854190334910527e-05, 0.0005192346288822591, 0.0009599272743798792, 0.0014006199780851603, 0.0018413127399981022, 0.002282005501911044, 0.0027226980309933424, 0.0031633907929062843]]}}, "shape": [128]}, "fc2.weight": {"id": "fc2.weight", "data_group_type": "PARAM", "type": "Parameter", "value": {"tensor": "NOT SERIALIZED, Too large 1280", "grad": "NOT SERIALIZED, Too large 1280", "first_delta": "NOT SERIALIZED, Too large 1280", "tensor__stats": {"min": -0.10580530762672424, "max": 0.09348762780427933, "mean": -0.002480197697877884, "variance": 0.0029431928414851427, "nobs": 1280, "histogram_bins": 35, "histogram": [[5, 15, 25, 48, 37, 39, 38, 36, 36, 38, 42, 36, 47, 43, 32, 32, 42, 48, 46, 32, 33, 36, 42, 40, 26, 44, 46, 39, 31, 43, 41, 44, 38, 41, 19], [-0.10580530762672424, -0.100111223757267, -0.09441713988780975, -0.08872305601835251, -0.08302897214889526, -0.07733488827943802, -0.07164080440998077, -0.06594672054052353, -0.060252636671066284, -0.05455855280160904, -0.048864468932151794, -0.04317038506269455, -0.037476301193237305, -0.03178221732378006, -0.026088133454322815, -0.02039404958486557, -0.014699965715408325, -0.00900588184595108, -0.0033117979764938354, 0.0023822858929634094, 0.008076369762420654, 0.0137704536318779, 0.019464537501335144, 0.02515862137079239, 0.030852705240249634, 0.03654678910970688, 0.042240872979164124, 0.04793495684862137, 0.05362904071807861, 0.05932312458753586, 0.0650172084569931, 0.07071129232645035, 0.07640537619590759, 0.08209946006536484, 0.08779354393482208, 0.09348762780427933]]}, "grad__stats": {"min": -0.6195676326751709, "max": 0.5584601163864136, "mean": 5.587935447692871e-09, "variance": 0.010414761491119862, "nobs": 1280, "histogram_bins": 35, "histogram": [[1, 2, 1, 0, 2, 3, 1, 3, 3, 4, 9, 11, 17, 24, 36, 36, 31, 83, 693, 151, 57, 29, 22, 15, 14, 9, 5, 5, 2, 3, 2, 2, 0, 3, 1], [-0.6195676326751709, -0.5859097242355347, -0.5522517561912537, -0.5185938477516174, -0.4849358797073364, -0.4512779414653778, -0.4176200330257416, -0.38396209478378296, -0.35030415654182434, -0.3166462182998657, -0.2829882800579071, -0.2493303418159485, -0.21567240357398987, -0.18201446533203125, -0.14835652709007263, -0.11469859629869461, -0.08104065805673599, -0.04738272726535797, -0.013724789954721928, 0.019933145493268967, 0.053591080009937286, 0.0872490182518959, 0.12090694904327393, 0.15456488728523254, 0.18822282552719116, 0.22188076376914978, 0.2555387020111084, 0.289196640253067, 0.32285457849502563, 0.35651251673698425, 0.3901704251766205, 0.4238283634185791, 0.4574863016605377, 0.49114423990249634, 0.5248022079467773, 0.5584601163864136]]}, "first_delta__stats": {"min": -0.027859646826982498, "max": 0.008894376456737518, "mean": -0.0020839981734752655, "variance": 2.283620779053308e-05, "nobs": 1280, "histogram_bins": 35, "histogram": [[2, 0, 0, 0, 0, 1, 2, 5, 3, 3, 1, 6, 9, 14, 19, 13, 13, 33, 28, 41, 31, 55, 64, 79, 110, 124, 278, 110, 107, 63, 39, 15, 7, 2, 3], [-0.027859646826982498, -0.026809532195329666, -0.025759417563676834, -0.024709301069378853, -0.02365918643772602, -0.02260907180607319, -0.021558957174420357, -0.020508842542767525, -0.019458727911114693, -0.01840861141681671, -0.01735849678516388, -0.016308382153511047, -0.015258267521858215, -0.014208152890205383, -0.013158037327229977, -0.012107922695577145, -0.011057808063924313, -0.010007692500948906, -0.008957577869296074, -0.007907462306320667, -0.006857347674667835, -0.005807233043015003, -0.004757117945700884, -0.0037070028483867645, -0.002656887983903289, -0.0016067730030044913, -0.0005566580803133547, 0.0004934568423777819, 0.0015435718232765794, 0.002593686804175377, 0.0036438016686588526, 0.004693916533142328, 0.005744031630456448, 0.006794146727770567, 0.007844261825084686, 0.008894376456737518]]}}, "shape": [10, 128]}, "fc2.bias": {"id": "fc2.bias", "data_group_type": "PARAM", "type": "Parameter", "value": {"tensor": [0.04849422723054886, 0.04065175727009773, -0.023825526237487793, 0.02398872934281826, 0.05649229884147644, 0.03600216656923294, -0.04625614732503891, 0.02316618338227272, -0.0815628170967102, 0.027668947353959084], "grad": [0.0020149066112935543, -0.0005080834962427616, -0.021187355741858482, 0.0069692605175077915, 0.029971875250339508, 0.006261400878429413, 0.0011356660397723317, -0.012691647745668888, -0.07018037140369415, 0.058214373886585236], "first_delta": [-0.002362433820962906, 0.0006372667849063873, -0.00028286688029766083, -0.001344233751296997, -0.001488320529460907, 0.0006081610918045044, -0.0023394152522087097, 0.0017971526831388474, -0.002527005970478058, -0.00012076646089553833], "tensor__stats": {"min": -0.0815628170967102, "max": 0.05649229884147644, "mean": 0.010481982491910458, "variance": 0.002070061396807432, "nobs": 10, "histogram_bins": 5, "histogram": [[1, 1, 1, 3, 4], [-0.0815628170967102, -0.05395179241895676, -0.026340771466493607, 0.001270252512767911, 0.02888127602636814, 0.05649229884147644]]}, "grad__stats": {"min": -0.07018037140369415, "max": 0.058214373886585236, "mean": 2.607703164514419e-09, "variance": 0.001101764035411179, "nobs": 10, "histogram_bins": 5, "histogram": [[1, 1, 5, 2, 1], [-0.07018037140369415, -0.044501423835754395, -0.018822472542524338, 0.006856475956737995, 0.03253542631864548, 0.058214373886585236]]}, "first_delta__stats": {"min": -0.002527005970478058, "max": 0.0017971526831388474, "mean": -0.0007422462222166359, "variance": 2.2280898974713637e-06, "nobs": 10, "histogram_bins": 5, "histogram": [[3, 2, 2, 2, 1], [-0.002527005970478058, -0.0016621742397546768, -0.0007973425090312958, 6.748922169208527e-05, 0.0009323209524154663, 0.0017971526831388474]]}}, "shape": [10]}, "input.1": {"id": "input.1", "data_group_type": "INPUT", "type": "Tensor", "value": {"tensor": "NOT SERIALIZED, Too large 7840", "tensor__stats": {"min": -0.4242129623889923, "max": 2.821486711502075, "mean": -0.07718349993228912, "variance": 0.8207138776779175, "nobs": 7840, "histogram_bins": 88, "histogram": [[6550, 27, 16, 20, 13, 17, 14, 14, 12, 7, 18, 14, 7, 6, 12, 14, 19, 9, 10, 2, 5, 7, 5, 7, 8, 13, 5, 14, 10, 2, 7, 1, 13, 17, 6, 5, 9, 6, 6, 7, 10, 14, 8, 8, 10, 8, 12, 19, 7, 2, 6, 17, 3, 10, 7, 6, 3, 8, 11, 5, 15, 10, 4, 9, 9, 7, 6, 5, 3, 8, 17, 16, 16, 10, 6, 8, 13, 10, 11, 25, 20, 17, 9, 16, 23, 22, 42, 355], [-0.4242129623889923, -0.387330025434494, -0.35044705867767334, -0.31356412172317505, -0.27668115496635437, -0.23979820311069489, -0.2029152512550354, -0.16603229939937592, -0.12914936244487762, -0.09226640313863754, -0.055383455008268356, -0.01850050315260887, 0.018382446840405464, 0.0552653968334198, 0.09214834868907928, 0.12903130054473877, 0.16591425240039825, 0.20279720425605774, 0.23968015611171722, 0.2765631079673767, 0.313446044921875, 0.3503290116786957, 0.38721194863319397, 0.42409491539001465, 0.46097785234451294, 0.4978608191013336, 0.5347437858581543, 0.5716267228126526, 0.6085096597671509, 0.6453925967216492, 0.6822755336761475, 0.7191585302352905, 0.7560414671897888, 0.7929244041442871, 0.8298073410987854, 0.8666903376579285, 0.9035732746124268, 0.940456211566925, 0.9773391485214233, 1.0142221450805664, 1.05110502243042, 1.087988018989563, 1.124871015548706, 1.1617538928985596, 1.1986368894577026, 1.2355197668075562, 1.2724027633666992, 1.3092857599258423, 1.3461686372756958, 1.3830516338348389, 1.419934630393982, 1.4568175077438354, 1.4937005043029785, 1.530583381652832, 1.567466378211975, 1.6043493747711182, 1.6412322521209717, 1.6781152486801147, 1.7149982452392578, 1.7518811225891113, 1.7887641191482544, 1.825646996498108, 1.862529993057251, 1.899412989616394, 1.9362958669662476, 1.9731788635253906, 2.010061740875244, 2.0469448566436768, 2.0838277339935303, 2.120710611343384, 2.1575934886932373, 2.19447660446167, 2.2313594818115234, 2.268242359161377, 2.3051254749298096, 2.342008352279663, 2.3788912296295166, 2.415774345397949, 2.4526572227478027, 2.4895401000976562, 2.526423215866089, 2.5633060932159424, 2.600188970565796, 2.6370718479156494, 2.673954963684082, 2.7108378410339355, 2.747720718383789, 2.7846038341522217, 2.821486711502075]]}}, "shape": [10, 1, 28, 28]}, "output.1": {"id": "output.1", "data_group_type": "OUTPUT", "type": "Tensor", "value": {"tensor": [[-9.727741241455078, -0.01800689660012722, -6.60561466217041, -5.2451629638671875, -7.486770153045654, -6.475051403045654, -6.563313961029053, -6.390862941741943, -5.5107550621032715, -6.251564979553223], [-9.085038185119629, -0.13466639816761017, -2.6791510581970215, -4.603573799133301, -4.782738208770752, -5.872447967529297, -7.570777416229248, -5.81520938873291, -3.4621331691741943, -6.731274604797363], [-5.014867782592773, -7.025532245635986, -6.948663711547852, -0.11313793808221817, -9.34127426147461, -2.644697904586792, -7.9857096672058105, -5.200007438659668, -4.024213790893555, -5.616785049438477], [-5.60775089263916, -3.8833136558532715, -4.440927028656006, -6.516186714172363, -8.820802688598633, -3.490776538848877, -7.221176624298096, -8.631484985351562, -0.07584154605865479, -5.524814605712891], [-8.165754318237305, -13.658628463745117, -5.796081066131592, -5.898204803466797, -5.560433864593506, -11.766748428344727, -8.430753707885742, -0.29936763644218445, -5.0485100746154785, -1.418189287185669], [-11.825983047485352, -7.714808940887451, -0.004165425896644592, -6.1388444900512695, -13.889333724975586, -10.538910865783691, -7.286773204803467, -16.785696029663086, -7.0894269943237305, -16.610719680786133], [-5.373305797576904, -10.002118110656738, -9.73477840423584, -2.9082329273223877, -9.451210975646973, -0.10030266642570496, -8.747519493103027, -6.9799418449401855, -3.6711490154266357, -4.655829906463623], [-5.75628662109375, -3.109372854232788, -0.3565783202648163, -2.418139696121216, -12.689066886901855, -5.59555721282959, -6.546735763549805, -10.01438045501709, -1.8465197086334229, -9.55029296875], [-7.402239799499512, -4.846263408660889, -6.48057222366333, -6.014211654663086, -1.2665103673934937, -1.740578532218933, -5.299339771270752, -2.120906352996826, -2.4513001441955566, -1.1418613195419312], [-6.943110466003418, -2.7440900802612305, -5.325699806213379, -4.722596168518066, -5.337709903717041, -0.13579507172107697, -7.04954195022583, -7.514718055725098, -3.187302350997925, -7.713571071624756]], "tensor__stats": {"min": -16.785696029663086, "max": -0.004165425896644592, "mean": -5.920124053955078, "variance": 12.168930053710938, "nobs": 100, "histogram_bins": 10, "histogram": [[2, 2, 3, 1, 12, 17, 28, 12, 11, 12], [-16.785696029663086, -15.107542991638184, -13.429389953613281, -11.751236915588379, -10.073083877563477, -8.394930839538574, -6.716777801513672, -5.0386247634887695, -3.360471487045288, -1.6823184490203857, -0.004165425896644592]]}}, "shape": [10, 10]}}, "graph": {"nodes": [{"data": {"id": "input.1", "label": "INPUT", "component_ids": ["input.1"]}}, {"data": {"id": 9, "label": "Conv", "component_ids": ["conv1.weight", "conv1.bias"]}}, {"data": {"id": 10, "label": "Relu", "component_ids": []}}, {"data": {"id": 11, "label": "Conv", "component_ids": ["conv2.weight", "conv2.bias"]}}, {"data": {"id": 12, "label": "Relu", "component_ids": []}}, {"data": {"id": 13, "label": "MaxPool", "component_ids": []}}, {"data": {"id": 14, "label": "Flatten", "component_ids": []}}, {"data": {"id": 15, "label": "Gemm", "component_ids": ["fc1.weight", "fc1.bias"]}}, {"data": {"id": 16, "label": "Relu", "component_ids": []}}, {"data": {"id": 17, "label": "Gemm", "component_ids": ["fc2.weight", "fc2.bias"]}}, {"data": {"id": 18, "label": "LogSoftmax", "component_ids": []}}, {"data": {"id": "output.1", "label": "OUTPUT", "component_ids": ["output.1"]}}], "edges": [{"data": {"id": "input.1_9", "source": "input.1", "target": 9}}, {"data": {"id": "9_10", "source": 9, "target": 10}}, {"data": {"id": "10_11", "source": 10, "target": 11}}, {"data": {"id": "11_12", "source": 11, "target": 12}}, {"data": {"id": "12_13", "source": 12, "target": 13}}, {"data": {"id": "13_14", "source": 13, "target": 14}}, {"data": {"id": "14_15", "source": 14, "target": 15}}, {"data": {"id": "15_16", "source": 15, "target": 16}}, {"data": {"id": "16_17", "source": 16, "target": 17}}, {"data": {"id": "17_18", "source": 17, "target": 18}}, {"data": {"id": "18_output.1", "source": "18", "target": "output.1"}}]}}