{"id": "0_1500", "meta": {"time": 1638574522.6581721, "refresh_model_graph": false}, "step_info": {"epoch": 0, "iter": 1500}, "additional_info": {"pred": {"type": "Tensor", "value": [[5], [1], [1], [3], [6], [2], [6], [3], [3], [1]]}, "loss": {"type": "Tensor", "value": 0.052996926009655}, "class_label": {"type": "Tensor", "value": [5, 1, 1, 3, 6, 2, 6, 3, 3, 1]}, "test_acc": {"type": "float", "value": 91.72}}, "graph_id": [0, 0], "data": {"conv1.weight": {"id": "conv1.weight", "data_group_type": "PARAM", "type": "Parameter", "value": {"tensor": "NOT SERIALIZED, Too large 288", "grad": "NOT SERIALIZED, Too large 288", "first_delta": "NOT SERIALIZED, Too large 288", "tensor__stats": {"min": -0.33426952362060547, "max": 0.36916086077690125, "mean": 0.01819809339940548, "variance": 0.040596891194581985, "nobs": 288, "histogram_bins": 16, "histogram": [[24, 13, 23, 12, 14, 19, 12, 19, 17, 26, 15, 27, 23, 11, 18, 15], [-0.33426952362060547, -0.29030513763427734, -0.24634072184562683, -0.2023763209581375, -0.1584119200706482, -0.11444752663373947, -0.07048313319683075, -0.02651873044669628, 0.017445668578147888, 0.06141006946563721, 0.10537447035312653, 0.14933887124061584, 0.19330325722694397, 0.2372676581144333, 0.2812320590019226, 0.3251964747905731, 0.36916086077690125]]}, "grad__stats": {"min": -0.019451981410384178, "max": 0.006268381141126156, "mean": -0.003108401782810688, "variance": 2.845048948074691e-05, "nobs": 288, "histogram_bins": 16, "histogram": [[5, 1, 6, 4, 9, 6, 22, 19, 13, 32, 30, 40, 42, 42, 10, 7], [-0.019451981410384178, -0.017844459041953087, -0.016236936673521996, -0.01462941337376833, -0.013021891005337238, -0.011414367705583572, -0.009806845337152481, -0.00819932296872139, -0.006591800134629011, -0.0049842773005366325, -0.0033767549321055412, -0.0017692320980131626, -0.00016170949675142765, 0.0014458131045103073, 0.003053335938602686, 0.004660858307033777, 0.006268381141126156]]}, "first_delta__stats": {"min": -0.012242041528224945, "max": 0.059581466019153595, "mean": 0.015703564509749413, "variance": 0.00028959097107872367, "nobs": 288, "histogram_bins": 16, "histogram": [[5, 47, 27, 21, 24, 17, 28, 26, 18, 23, 18, 11, 11, 4, 6, 2], [-0.012242041528224945, -0.007753072306513786, -0.0032641030848026276, 0.0012248661369085312, 0.00571383535861969, 0.010202804580330849, 0.014691773802042007, 0.019180743023753166, 0.023669712245464325, 0.028158681467175484, 0.03264765068888664, 0.03713662177324295, 0.04162558913230896, 0.04611455649137497, 0.05060352757573128, 0.055092498660087585, 0.059581466019153595]]}}, "shape": [32, 1, 3, 3]}, "conv1.bias": {"id": "conv1.bias", "data_group_type": "PARAM", "type": "Parameter", "value": {"tensor": [0.05800923332571983, 0.34689220786094666, -0.017072103917598724, -0.14592193067073822, -0.2812354266643524, 0.0009491273667663336, 0.13505952060222626, 0.02895192615687847, 0.0956660658121109, 0.12823650240898132, 0.1974930763244629, 0.3121306300163269, 0.05997040495276451, -0.22814057767391205, 0.04004564881324768, -0.10663694888353348, 0.20057104527950287, 0.12855492532253265, 0.11804350465536118, 0.15914864838123322, -0.24663719534873962, -0.0910130962729454, 0.2240518480539322, -0.15168650448322296, 0.12088414281606674, 0.2678188979625702, 0.28293824195861816, -0.2431233823299408, 0.16020567715168, -0.006892750505357981, 0.11495555192232132, 0.3174249529838562], "grad": [-0.0037073439452797174, -0.009622389450669289, -0.014328038319945335, -0.0018379057291895151, -0.004942217841744423, -0.0059003885835409164, -0.003193848766386509, -0.0018333063926547766, -0.009584661573171616, -0.004581987392157316, -0.01014639064669609, -0.002704781945794821, -0.001647688914090395, -0.0010265195742249489, -0.006739241536706686, -0.0020835758186876774, -0.012669410556554794, -0.005510303657501936, -0.00415086792781949, -0.005387315526604652, -0.0032819064799696207, -0.0027671358548104763, -0.0076806931756436825, -0.00019681034609675407, -0.005848927889019251, -0.004090314731001854, -0.006046880967915058, 0.00020063435658812523, -0.0008131342474371195, -0.0037254621274769306, -0.0017154829110950232, -0.004177161492407322], "first_delta": [0.021921124309301376, 0.01955735683441162, 0.005890903994441032, 0.027725353837013245, 0.03572174906730652, -0.0016998222563415766, 0.012800417840480804, 0.020160678774118423, 0.005094736814498901, 0.008616015315055847, 0.009056836366653442, 0.023971498012542725, 0.03401011973619461, 0.013617932796478271, 0.008213110268115997, 0.00838325172662735, 0.009552106261253357, 0.008595846593379974, 0.002590261399745941, 0.006443530321121216, 0.041813284158706665, 0.024660885334014893, 0.012319132685661316, 0.006013721227645874, 0.005985654890537262, 0.033200860023498535, 0.03426218032836914, 0.0067632198333740234, 0.01769287884235382, 0.006539713125675917, 0.017440125346183777, 0.016780376434326172], "tensor__stats": {"min": -0.2812354266643524, "max": 0.34689220786094666, "mean": 0.06186380982398987, "variance": 0.030811719596385956, "nobs": 32, "histogram_bins": 5, "histogram": [[4, 4, 7, 11, 6], [-0.2812354266643524, -0.15560990571975708, -0.029984373599290848, 0.09564115107059479, 0.22126668691635132, 0.34689220786094666]]}, "grad__stats": {"min": -0.014328038319945335, "max": 0.00020063435658812523, "mean": -0.004741921089589596, "variance": 1.2321979738771915e-05, "nobs": 32, "histogram_bins": 5, "histogram": [[2, 3, 5, 12, 10], [-0.014328038319945335, -0.011422303505241871, -0.008516569621860981, -0.0056108348071575165, -0.0027051002252846956, 0.00020063435658812523]]}, "first_delta__stats": {"min": -0.0016998222563415766, "max": 0.041813284158706665, "mean": 0.015740470960736275, "variance": 0.00012519641313701868, "nobs": 32, "histogram_bins": 5, "histogram": [[9, 9, 7, 2, 5], [-0.0016998222563415766, 0.007002798840403557, 0.015705419704318047, 0.024408042430877686, 0.033110663294792175, 0.041813284158706665]]}}, "shape": [32]}, "conv2.weight": {"id": "conv2.weight", "data_group_type": "PARAM", "type": "Parameter", "value": {"tensor": "NOT SERIALIZED, Too large 18432", "grad": "NOT SERIALIZED, Too large 18432", "first_delta": "NOT SERIALIZED, Too large 18432", "tensor__stats": {"min": -0.0694599598646164, "max": 0.08593132346868515, "mean": 0.004354280885308981, "variance": 0.0012269860599189997, "nobs": 18432, "histogram_bins": 100, "histogram": [[1, 1, 5, 8, 19, 39, 60, 114, 125, 158, 156, 200, 180, 240, 212, 196, 226, 215, 205, 251, 256, 239, 239, 212, 256, 249, 256, 236, 241, 240, 225, 240, 224, 219, 258, 222, 223, 239, 254, 258, 239, 260, 250, 236, 238, 239, 242, 233, 238, 221, 216, 241, 254, 251, 233, 229, 245, 249, 243, 263, 242, 243, 267, 242, 245, 222, 250, 268, 229, 234, 234, 220, 251, 283, 223, 233, 212, 241, 232, 238, 191, 221, 187, 173, 117, 116, 79, 60, 63, 56, 39, 40, 24, 16, 13, 5, 2, 2, 0, 2], [-0.0694599598646164, -0.06790604442358017, -0.06635213643312454, -0.06479822099208832, -0.0632443055510521, -0.061690397560596466, -0.06013648211956024, -0.058582570403814316, -0.05702865868806839, -0.055474743247032166, -0.05392083153128624, -0.052366919815540314, -0.05081300437450409, -0.04925909265875816, -0.04770518094301224, -0.04615126550197601, -0.04459735378623009, -0.04304344207048416, -0.041489530354738235, -0.03993561491370201, -0.038381703197956085, -0.03682779148221016, -0.035273876041173935, -0.03371996432542801, -0.03216605260968208, -0.030612139031291008, -0.029058225452899933, -0.027504313737154007, -0.025950400158762932, -0.024396488443017006, -0.02284257486462593, -0.021288661286234856, -0.01973474957048893, -0.018180835992097855, -0.01662692427635193, -0.015073010697960854, -0.013519098050892353, -0.011965185403823853, -0.010411271825432777, -0.008857359178364277, -0.007303446531295776, -0.005749533884227276, -0.004195620771497488, -0.0026417081244289875, -0.0010877952445298433, 0.00046611763536930084, 0.002020030515268445, 0.003573943395167589, 0.00512785604223609, 0.0066817691549658775, 0.008235681802034378, 0.009789594449102879, 0.011343507096171379, 0.012897420674562454, 0.014451333321630955, 0.016005245968699455, 0.01755915954709053, 0.019113071262836456, 0.02066698484122753, 0.022220896556973457, 0.023774810135364532, 0.025328723713755608, 0.026882635429501534, 0.02843654900789261, 0.029990460723638535, 0.03154437243938446, 0.033098287880420685, 0.03465219959616661, 0.03620611131191254, 0.03776002675294876, 0.03931393846869469, 0.04086785018444061, 0.04242176562547684, 0.04397567734122276, 0.04552958905696869, 0.04708350449800491, 0.04863741621375084, 0.050191327929496765, 0.05174523964524269, 0.053299155086278915, 0.05485306680202484, 0.05640697851777077, 0.05796089395880699, 0.05951480567455292, 0.06106871739029884, 0.06262262910604477, 0.064176544547081, 0.06573045998811722, 0.06728436797857285, 0.06883828341960907, 0.0703921914100647, 0.07194610685110092, 0.07350002229213715, 0.07505393028259277, 0.076607845723629, 0.07816176116466522, 0.07971566915512085, 0.08126958459615707, 0.0828235000371933, 0.08437740802764893, 0.08593132346868515]]}, "grad__stats": {"min": -0.009699331596493721, "max": 0.004619530402123928, "mean": -0.0007455599261447787, "variance": 1.7960293234864366e-06, "nobs": 18432, "histogram_bins": 100, "histogram": [[1, 0, 1, 2, 2, 0, 1, 3, 2, 3, 2, 1, 1, 2, 1, 3, 2, 2, 3, 4, 1, 4, 10, 4, 7, 12, 13, 9, 20, 18, 18, 22, 22, 27, 33, 41, 41, 46, 60, 67, 61, 84, 108, 103, 114, 130, 124, 177, 209, 182, 222, 278, 293, 296, 345, 364, 442, 462, 548, 592, 609, 688, 778, 811, 924, 1056, 1314, 1699, 1274, 873, 669, 485, 374, 265, 224, 148, 137, 96, 82, 62, 55, 46, 20, 24, 16, 8, 18, 10, 5, 4, 5, 1, 2, 2, 1, 1, 0, 0, 0, 1], [-0.009699331596493721, -0.00955614261329174, -0.009412954561412334, -0.009269765578210354, -0.009126577526330948, -0.008983388543128967, -0.008840199559926987, -0.00869701150804758, -0.0085538225248456, -0.008410634472966194, -0.008267445489764214, -0.008124256506562233, -0.007981068454682827, -0.007837879471480846, -0.007694690953940153, -0.00755150243639946, -0.007408313453197479, -0.007265124935656786, -0.007121936418116093, -0.006978747900575399, -0.006835559383034706, -0.0066923703998327255, -0.006549181882292032, -0.006405993364751339, -0.006262804847210646, -0.006119616329669952, -0.005976427346467972, -0.0058332388289272785, -0.005690050311386585, -0.005546861793845892, -0.005403672810643911, -0.005260484293103218, -0.005117295775562525, -0.0049741072580218315, -0.004830918740481138, -0.004687729757279158, -0.004544541239738464, -0.004401352722197771, -0.004258164204657078, -0.004114975221455097, -0.003971786703914404, -0.0038285981863737106, -0.0036854096688330173, -0.0035422209184616804, -0.003399032400920987, -0.00325584365054965, -0.003112655133008957, -0.00296946638263762, -0.0028262778650969267, -0.0026830891147255898, -0.0025399005971848965, -0.002396712079644203, -0.0022535233292728662, -0.002110334811732173, -0.001967146061360836, -0.0018239575438201427, -0.0016807689098641276, -0.0015375802759081125, -0.0013943916419520974, -0.0012512030079960823, -0.0011080143740400672, -0.000964825798291713, -0.0008216371643356979, -0.0006784485303796828, -0.0005352598964236677, -0.000392071291571483, -0.00024888268671929836, -0.00010569406003924087, 3.749456300283782e-05, 0.0001806831860449165, 0.00032387179089710116, 0.0004670604248531163, 0.0006102490588091314, 0.0007534376345574856, 0.0008966262685135007, 0.0010398149024695158, 0.001183003536425531, 0.001326192170381546, 0.0014693808043375611, 0.0016125694382935762, 0.0017557579558342695, 0.0018989465897902846, 0.0020421352237462997, 0.0021853239741176367, 0.00232851249165833, 0.0024717010091990232, 0.00261488975957036, 0.0027580782771110535, 0.0029012670274823904, 0.0030444555450230837, 0.0031876442953944206, 0.003330832812935114, 0.003474021330475807, 0.003617210080847144, 0.0037603985983878374, 0.0039035873487591743, 0.004046775866299868, 0.004189964383840561, 0.0043331533670425415, 0.004476341884583235, 0.004619530402123928]]}, "first_delta__stats": {"min": -0.012453138828277588, "max": 0.03263155743479729, "mean": 0.004255757667124271, "variance": 4.186886508250609e-05, "nobs": 18432, "histogram_bins": 100, "histogram": [[2, 0, 3, 3, 6, 4, 9, 22, 23, 36, 47, 78, 91, 109, 128, 134, 158, 194, 229, 265, 323, 335, 363, 481, 474, 576, 632, 751, 719, 647, 580, 542, 507, 499, 499, 503, 465, 437, 448, 454, 417, 386, 347, 342, 327, 268, 286, 285, 291, 268, 263, 227, 201, 191, 192, 187, 199, 182, 172, 151, 150, 126, 123, 131, 120, 92, 106, 78, 69, 58, 45, 43, 45, 42, 33, 26, 28, 30, 18, 19, 9, 8, 12, 10, 12, 8, 2, 3, 5, 10, 5, 1, 2, 2, 0, 1, 0, 1, 0, 1], [-0.012453138828277588, -0.012002292089164257, -0.011551445350050926, -0.01110059767961502, -0.01064975094050169, -0.010198904201388359, -0.009748057462275028, -0.009297209791839123, -0.008846363052725792, -0.008395516313612461, -0.00794466957449913, -0.007493822369724512, -0.007042975164949894, -0.006592128425836563, -0.006141281221061945, -0.005690434481948614, -0.005239587277173996, -0.004788740538060665, -0.004337893333286047, -0.003887046594172716, -0.0034361996222287416, -0.002985352650284767, -0.0025345056783407927, -0.002083658706396818, -0.0016328117344528437, -0.0011819647625088692, -0.0007311177905648947, -0.00028027084772475064, 0.00017057612421922386, 0.0006214230670593679, 0.0010722700972110033, 0.0015231170691549778, 0.0019739640410989523, 0.002424811013042927, 0.0028756579849869013, 0.0033265049569308758, 0.0037773519288748503, 0.004228198900818825, 0.004679045639932156, 0.005129892844706774, 0.005580739583820105, 0.006031586788594723, 0.006482433527708054, 0.006933280732482672, 0.007384127471596003, 0.00783497467637062, 0.008285821415483952, 0.008736668154597282, 0.009187515825033188, 0.009638362564146519, 0.01008920930325985, 0.01054005604237318, 0.010990902781486511, 0.011441750451922417, 0.011892597191035748, 0.012343443930149078, 0.01279429066926241, 0.013245138339698315, 0.013695985078811646, 0.014146831817924976, 0.014597678557038307, 0.015048526227474213, 0.015499372966587543, 0.015950219705700874, 0.01640106737613678, 0.016851913183927536, 0.01730276085436344, 0.017753608524799347, 0.018204454332590103, 0.01865530200302601, 0.019106147810816765, 0.01955699548125267, 0.020007843151688576, 0.020458688959479332, 0.020909536629915237, 0.021360382437705994, 0.0218112301081419, 0.022262077778577805, 0.02271292358636856, 0.023163771256804466, 0.02361461892724037, 0.024065464735031128, 0.024516312405467033, 0.02496715821325779, 0.025418005883693695, 0.0258688535541296, 0.026319699361920357, 0.026770547032356262, 0.027221394702792168, 0.027672240510582924, 0.02812308818101883, 0.028573933988809586, 0.02902478165924549, 0.029475629329681396, 0.029926475137472153, 0.030377322807908058, 0.030828170478343964, 0.03127901628613472, 0.031729862093925476, 0.03218071162700653, 0.03263155743479729]]}}, "shape": [64, 32, 3, 3]}, "conv2.bias": {"id": "conv2.bias", "data_group_type": "PARAM", "type": "Parameter", "value": {"tensor": [-0.03429694473743439, 0.059460077434778214, -0.004771904554218054, 0.004821686074137688, -0.0043734656646847725, -0.006579891312867403, 0.031936775892972946, 0.011019532568752766, -0.02117326110601425, 0.01013242918998003, 0.005184904672205448, -0.03456908464431763, 0.027516083791851997, 0.043310631066560745, -0.020833777263760567, -0.04425578564405441, 0.0027717335615307093, -0.04647177830338478, 0.05873742699623108, -0.044441837817430496, 0.05037952587008476, -0.02566748857498169, -0.0016313738888129592, -0.0011429835576564074, 0.04572063684463501, 0.03776564076542854, -0.05031286180019379, -0.036557506769895554, 0.059769608080387115, 0.07056191563606262, 0.009182114154100418, -0.022532274946570396, 0.008851478807628155, 0.053480084985494614, -0.04317218065261841, -0.034243758767843246, 0.005440966691821814, 0.030403578653931618, 0.03610587865114212, -0.018857654184103012, -0.01997312717139721, 0.05909087508916855, -0.03948123753070831, -0.02131834253668785, 0.046669282019138336, 0.039847251027822495, -0.024796567857265472, 0.01195954717695713, -0.02754332683980465, -0.010190166532993317, 0.04794886335730553, -0.04029844328761101, 0.01959463208913803, -0.033849362283945084, 0.010199339129030704, 0.05524924769997597, 0.06131745129823685, 0.054961372166872025, -0.03356211632490158, -0.014048606157302856, -0.006946302019059658, 0.04360121116042137, 0.024596719071269035, 0.05233887583017349], "grad": [-0.006949500646442175, -0.007120922673493624, -0.0010562321403995156, -0.00020430708536878228, -0.003589967032894492, 0.0019854677375406027, -0.001093982718884945, -0.005044848192483187, 0.0004321200540289283, -0.004017882980406284, 0.001085759955458343, -0.005880802404135466, -0.0012904241448268294, -0.00946503784507513, -0.0031762339640408754, -0.0019026774680241942, -0.002967634703963995, 0.00015574131975881755, -0.00244702585041523, -0.0010818662121891975, 0.0014969886979088187, -0.006864700000733137, -0.0035286154597997665, 0.0001048724734573625, -0.0054580336436629295, -0.011534459888935089, 0.0008982782019302249, -0.0016437906306236982, -0.0043833195231854916, -0.0016248725587502122, -0.0036185940261930227, -0.008036005310714245, -9.087674698093906e-05, 0.001460669795051217, 0.0008858579094521701, 0.00032332190312445164, -0.005987387616187334, -0.0016023429343476892, 0.00027188233798369765, -0.0029752482660114765, -0.00170367700047791, -0.0023978231474757195, -0.00041391156264580786, -0.0006759557290934026, -0.00011434253974584863, -0.00010756358096841723, 5.22321424796246e-05, 0.001037347363308072, -0.0037574416492134333, 0.0018092948012053967, -0.00820783618837595, 0.0014666527276858687, -0.002200901275500655, -0.0033751290757209063, -0.00040187090053223073, -0.004347484093159437, 0.0013214738573879004, -0.001843844074755907, -0.006309017073363066, -0.013076143339276314, -0.002163809258490801, -0.006010552402585745, -0.00108605925925076, -0.0008536599925719202], "first_delta": [0.007517900317907333, 0.003746531903743744, 0.001101975329220295, 0.0023620170541107655, 0.0032421820797026157, 0.005193465854972601, 0.015882423147559166, 0.0032493043690919876, 0.007134059444069862, 0.007662174291908741, 0.003065992845222354, 0.005973886698484421, 0.0027511082589626312, 0.008626099675893784, 0.0016004350036382675, 0.009896192699670792, 0.0023880356457084417, 0.011888697743415833, 0.002318721264600754, 0.0060082487761974335, 0.007816631346940994, 0.0030440688133239746, 0.0014040140667930245, 0.0039640553295612335, 0.00653572753071785, 0.004913732409477234, 0.0032172873616218567, 0.006891228258609772, 0.004953734576702118, 0.014397833496332169, 0.01068146713078022, 0.004942961037158966, 0.004655373748391867, 0.00315876305103302, 0.007646422833204269, 0.008102621883153915, 0.003029316896572709, 0.006224704906344414, 0.009751742705702782, 0.004839489236474037, 0.004320330917835236, 0.002688683569431305, 0.012656871229410172, 0.01356562227010727, 0.0040752701461315155, 0.008632760494947433, 0.01714024320244789, 0.005400464870035648, 0.0038432907313108444, 0.008916180580854416, 0.005394693464040756, 0.010471172630786896, 0.0018434971570968628, 0.0009229257702827454, 0.006162900477647781, 0.0065646693110466, 0.006085354834794998, 0.00988706573843956, 0.006097007542848587, 0.005395323038101196, 0.008611624129116535, 0.0073303766548633575, 0.0019138399511575699, 0.016072355210781097], "tensor__stats": {"min": -0.05031286180019379, "max": 0.07056191563606262, "mean": 0.006594281177967787, "variance": 0.0012568864040076733, "nobs": 64, "histogram_bins": 8, "histogram": [[8, 12, 6, 10, 6, 6, 10, 6], [-0.05031286180019379, -0.035203516483306885, -0.020094167441129684, -0.004984820261597633, 0.010124526917934418, 0.02523387409746647, 0.04034322127699852, 0.05545257031917572, 0.07056191563606262]]}, "grad__stats": {"min": -0.013076143339276314, "max": 0.0019854677375406027, "mean": -0.0024827602319419384, "variance": 1.0976072189805564e-05, "nobs": 64, "histogram_bins": 8, "histogram": [[2, 1, 2, 7, 6, 13, 18, 15], [-0.013076143339276314, -0.011193442158401012, -0.009310740977525711, -0.007428039330989122, -0.005545337684452534, -0.0036626365035772324, -0.0017799350898712873, 0.00010276635293848813, 0.0019854677375406027]]}, "first_delta__stats": {"min": 0.0009229257702827454, "max": 0.01714024320244789, "mean": 0.006340205669403076, "variance": 1.4753347386431415e-05, "nobs": 64, "histogram_bins": 8, "histogram": [[11, 17, 13, 11, 5, 2, 2, 3], [0.0009229257702827454, 0.0029500904493033886, 0.004977255128324032, 0.007004419807344675, 0.009031584486365318, 0.011058749631047249, 0.013085913844406605, 0.01511307805776596, 0.01714024320244789]]}}, "shape": [64]}, "fc1.weight": {"id": "fc1.weight", "data_group_type": "PARAM", "type": "Parameter", "value": {"tensor": "NOT SERIALIZED, Too large 1179648", "grad": "NOT SERIALIZED, Too large 1179648", "first_delta": "NOT SERIALIZED, Too large 1179648", "tensor__stats": {"min": -0.018556417897343636, "max": 0.019172891974449158, "mean": 0.00023882310779299587, "variance": 3.798707984969951e-05, "nobs": 1179648, "histogram_bins": 100, "histogram": [[1, 2, 0, 2, 6, 4, 8, 18, 25, 45, 83, 131, 197, 280, 433, 721, 921, 1478, 2202, 3368, 4996, 9252, 13247, 15272, 16972, 18278, 19053, 19640, 20242, 20901, 20840, 21082, 20983, 21305, 21380, 21452, 21330, 21560, 21443, 21220, 21653, 21344, 21365, 21291, 21526, 21239, 21328, 21154, 21566, 21268, 21443, 21267, 21340, 21375, 21274, 21233, 21082, 21401, 21401, 21425, 21380, 21316, 21642, 21272, 21379, 21173, 20905, 21410, 21064, 20966, 20817, 20367, 19833, 19283, 18211, 16637, 13585, 8649, 6322, 4768, 3364, 2483, 1661, 1218, 858, 607, 407, 255, 168, 111, 82, 40, 27, 23, 6, 0, 4, 4, 2, 1], [-0.018556417897343636, -0.01817912422120571, -0.017801832407712936, -0.017424538731575012, -0.017047245055437088, -0.016669953241944313, -0.01629265956580639, -0.015915365889668465, -0.015538073144853115, -0.015160780400037766, -0.014783486723899841, -0.014406193979084492, -0.014028900302946568, -0.013651607558131218, -0.013274314813315868, -0.012897021137177944, -0.012519728392362595, -0.012142435647547245, -0.01176514197140932, -0.011387849226593971, -0.011010555550456047, -0.010633262805640697, -0.010255970060825348, -0.009878676384687424, -0.009501383639872074, -0.009124090895056725, -0.0087467972189188, -0.00836950447410345, -0.007992210797965527, -0.007614918053150177, -0.00723762484267354, -0.006860331632196903, -0.006483038887381554, -0.006105745676904917, -0.00572845246642828, -0.005351159255951643, -0.004973866511136293, -0.0045965733006596565, -0.00421928009018302, -0.0038419871125370264, -0.0034646939020603895, -0.0030874009244143963, -0.0027101077139377594, -0.002332814736291766, -0.0019555215258151293, -0.0015782284317538142, -0.0012009353376924992, -0.0008236422436311841, -0.00044634914956986904, -6.90560627845116e-05, 0.0003082370385527611, 0.0006855301326140761, 0.0010628232266753912, 0.0014401163207367063, 0.0018174094147980213, 0.002194702625274658, 0.0025719956029206514, 0.0029492888133972883, 0.0033265817910432816, 0.0037038750015199184, 0.004081168211996555, 0.004458460956811905, 0.004835754167288542, 0.005213047377765179, 0.005590340588241816, 0.005967633333057165, 0.006344926543533802, 0.006722219754010439, 0.007099512964487076, 0.007476805709302425, 0.00785409938544035, 0.0082313921302557, 0.008608684875071049, 0.008985978551208973, 0.009363271296024323, 0.009740564972162247, 0.010117857716977596, 0.010495150461792946, 0.01087244413793087, 0.01124973688274622, 0.01162702962756157, 0.012004323303699493, 0.012381616048514843, 0.012758909724652767, 0.013136202469468117, 0.013513495214283466, 0.01389078889042139, 0.01426808163523674, 0.01464537438005209, 0.015022668056190014, 0.015399960801005363, 0.015777254477143288, 0.016154546290636063, 0.016531839966773987, 0.01690913364291191, 0.017286427319049835, 0.01766371913254261, 0.018041012808680534, 0.01841830648481846, 0.018795598298311234, 0.019172891974449158]]}, "grad__stats": {"min": -0.019142063334584236, "max": 0.02180853858590126, "mean": -5.6673998187761754e-05, "variance": 3.181238525939989e-06, "nobs": 1179648, "histogram_bins": 100, "histogram": [[1, 0, 1, 2, 3, 8, 12, 14, 21, 33, 37, 46, 57, 78, 82, 101, 118, 143, 189, 237, 319, 340, 404, 474, 607, 738, 834, 999, 1216, 1463, 1789, 2197, 2686, 3119, 3773, 4494, 5402, 6560, 8043, 9943, 12117, 15521, 20678, 29488, 49204, 97578, 582821, 124991, 58138, 30981, 20481, 14922, 11828, 9168, 7393, 5922, 5039, 4242, 3606, 2952, 2546, 2152, 1862, 1591, 1364, 1082, 896, 766, 678, 566, 456, 356, 277, 253, 198, 171, 133, 128, 86, 77, 74, 56, 35, 35, 22, 20, 10, 16, 7, 12, 12, 13, 14, 8, 5, 6, 4, 4, 3, 1], [-0.019142063334584236, -0.018732557073235512, -0.018323050811886787, -0.017913544550538063, -0.017504040151834488, -0.017094533890485764, -0.01668502762913704, -0.016275521367788315, -0.01586601510643959, -0.015456508845090866, -0.015047003515064716, -0.014637497253715992, -0.014227990992367268, -0.013818484731018543, -0.013408979400992393, -0.012999473139643669, -0.012589966878294945, -0.01218046061694622, -0.01177095528692007, -0.011361449025571346, -0.010951942764222622, -0.010542436502873898, -0.010132931172847748, -0.009723424911499023, -0.009313918650150299, -0.008904412388801575, -0.008494907058775425, -0.0080854007974267, -0.0076758950017392635, -0.007266388740390539, -0.006856882944703102, -0.006447376683354378, -0.006037870887666941, -0.005628364626318216, -0.005218858830630779, -0.004809352569282055, -0.004399846773594618, -0.0039903405122458935, -0.0035808347165584564, -0.0031713286880403757, -0.002761822659522295, -0.0023523166310042143, -0.0019428104860708117, -0.001533304457552731, -0.0011237985454499722, -0.0007142924587242305, -0.0003047864593099803, 0.00010471956920810044, 0.0005142255686223507, 0.0009237315971404314, 0.0013332376256585121, 0.0017427436541765928, 0.0021522496826946735, 0.0025617557112127542, 0.002971261739730835, 0.0033807677682489157, 0.0037902737967669964, 0.0041997795924544334, 0.004609285853803158, 0.005018791649490595, 0.005428297910839319, 0.005837803706526756, 0.006247309967875481, 0.006656815763562918, 0.007066322024911642, 0.007475827820599079, 0.007885334081947803, 0.008294840343296528, 0.008704345673322678, 0.009113851934671402, 0.009523358196020126, 0.00993286445736885, 0.010342369787395, 0.010751876048743725, 0.01116138231009245, 0.011570887640118599, 0.011980393901467323, 0.012389900162816048, 0.012799406424164772, 0.013208911754190922, 0.013618418015539646, 0.01402792427688837, 0.014437430538237095, 0.014846935868263245, 0.015256442129611969, 0.015665948390960693, 0.016075454652309418, 0.016484960913658142, 0.016894467175006866, 0.01730397157371044, 0.017713477835059166, 0.01812298409640789, 0.018532490357756615, 0.01894199661910534, 0.019351502880454063, 0.019761009141802788, 0.020170515403151512, 0.020580019801855087, 0.02098952606320381, 0.021399032324552536, 0.02180853858590126]]}, "first_delta__stats": {"min": -0.01181594468653202, "max": 0.01091434434056282, "mean": 0.0002409569569863379, "variance": 1.8122109395335428e-06, "nobs": 1179648, "histogram_bins": 100, "histogram": [[1, 1, 1, 1, 0, 0, 0, 1, 1, 0, 1, 0, 1, 7, 6, 9, 13, 13, 20, 22, 18, 22, 43, 58, 90, 124, 158, 209, 280, 403, 528, 732, 946, 1189, 1462, 1959, 2406, 3110, 3823, 4968, 6550, 8344, 10541, 13171, 16417, 20804, 26558, 33903, 42816, 57003, 86335, 224603, 118609, 82044, 69276, 59320, 49900, 41799, 34986, 28637, 23765, 19499, 15720, 12898, 10540, 8642, 6913, 5632, 4653, 3672, 2959, 2262, 1807, 1477, 1174, 930, 689, 558, 427, 315, 224, 182, 142, 103, 68, 48, 33, 22, 19, 11, 3, 6, 4, 4, 2, 0, 0, 2, 0, 1], [-0.01181594468653202, -0.011588641442358494, -0.011361339129507542, -0.011134035885334015, -0.010906733572483063, -0.010679430328309536, -0.01045212708413601, -0.010224824771285057, -0.00999752152711153, -0.009770218282938004, -0.009542915970087051, -0.009315612725913525, -0.009088310413062572, -0.008861007168889046, -0.008633703924715519, -0.008406401611864567, -0.00817909836769104, -0.007951795123517513, -0.007724492810666561, -0.007497189566493034, -0.007269886787980795, -0.0070425840094685555, -0.006815281230956316, -0.006587977986782789, -0.00636067520827055, -0.00613337242975831, -0.005906069651246071, -0.005678766872733831, -0.005451463628560305, -0.005224160850048065, -0.004996858071535826, -0.004769555293023586, -0.0045422520488500595, -0.00431494927033782, -0.004087646491825581, -0.0038603434804826975, -0.003633040701970458, -0.003405737690627575, -0.0031784349121153355, -0.0029511319007724524, -0.002723829122260213, -0.00249652611091733, -0.0022692233324050903, -0.0020419203210622072, -0.0018146175425499678, -0.0015873146476224065, -0.0013600117526948452, -0.001132708857767284, -0.0009054059628397226, -0.0006781030679121614, -0.00045080017298460007, -0.00022349727805703878, 3.805607548201806e-06, 0.00023110849724616855, 0.0004584113776218146, 0.0006857143016532063, 0.0009130171965807676, 0.001140320091508329, 0.0013676229864358902, 0.0015949258813634515, 0.0018222287762910128, 0.0020495315548032522, 0.0022768345661461353, 0.002504137344658375, 0.002731440356001258, 0.0029587431345134974, 0.0031860461458563805, 0.00341334892436862, 0.003640651935711503, 0.0038679547142237425, 0.004095257725566626, 0.004322560504078865, 0.0045498632825911045, 0.004777166526764631, 0.005004469305276871, 0.00523177208378911, 0.00545907486230135, 0.005686377640813589, 0.005913680884987116, 0.006140983663499355, 0.006368286442011595, 0.006595589220523834, 0.006822892464697361, 0.0070501952432096004, 0.00727749802172184, 0.007504800800234079, 0.007732104044407606, 0.007959406822919846, 0.008186710067093372, 0.008414012379944324, 0.008641315624117851, 0.008868617936968803, 0.00909592118114233, 0.009323224425315857, 0.009550526738166809, 0.009777829982340336, 0.010005133226513863, 0.010232435539364815, 0.010459738783538342, 0.010687041096389294, 0.01091434434056282]]}}, "shape": [128, 9216]}, "fc1.bias": {"id": "fc1.bias", "data_group_type": "PARAM", "type": "Parameter", "value": {"tensor": [-0.005572999361902475, 0.010827155783772469, -0.0027688026893883944, -0.0022024139761924744, -6.768316234229133e-05, 0.004586785100400448, 0.00015322255785577, -0.005706761963665485, 0.0010045699309557676, 0.0010657774982973933, 0.0059603177942335606, 0.0037310398183763027, 0.009599506855010986, 0.007712420076131821, -0.001209283946081996, -0.003934264183044434, 0.008064961060881615, 0.008249088190495968, -0.005979055538773537, -0.002165344310924411, -0.009634013287723064, 0.0029561782721430063, 0.002547698561102152, -0.001187112065963447, 0.0029891375452280045, -0.0012780663091689348, -0.0051024057902395725, -0.009541187435388565, 0.007712324149906635, 0.000590468873269856, -0.009208694100379944, 0.012103425338864326, -0.0002241123147541657, -0.004556336440145969, 0.002140084281563759, -0.009987403638660908, 8.795886242296547e-05, -0.0009132670238614082, -0.005202759988605976, 0.010908837430179119, 0.0018616855377331376, -0.005730348639190197, -0.007559876888990402, 0.008625407703220844, -0.004735766910016537, -0.003245772561058402, 0.007904871366918087, 0.010537512600421906, 0.004384562373161316, -0.0009758058004081249, 0.003966120537370443, 0.0018639167537912726, 0.008603401482105255, -0.0072480724193155766, 0.0018517299322411418, -0.000575463694985956, -0.008959311060607433, 0.008786478079855442, 0.0009424298768863082, 0.0003729981544893235, -2.666899308678694e-05, 0.000870900577865541, -0.004953301511704922, 0.004592122044414282, 0.0062648821622133255, -0.008698736317455769, 0.007887144573032856, 0.010116745717823505, -0.005457197781652212, 0.008183200843632221, 0.006624867673963308, 0.007209669332951307, 0.0026767391245812178, -0.00880623608827591, 0.006541586946696043, 0.007681387942284346, -0.000859447754919529, -0.007217546459287405, 7.494977126043523e-06, -0.007652480620890856, 0.003068729303777218, -0.0038090029265731573, 0.00511142099276185, 0.0002363341918680817, -0.007545986212790012, -0.0063840835355222225, 0.009722765535116196, 0.0019819217268377542, 0.002723834477365017, 0.004857628606259823, 0.0019231061451137066, 0.0031153184827417135, -0.006401979364454746, 0.00727801863104105, -0.0035275446716696024, 0.0020931970793753862, -0.0013757534325122833, -0.009907708503305912, -0.001394656952470541, -0.0037145912647247314, -0.0024169443640857935, 0.006610207259654999, -0.005978480912744999, -0.0017520375549793243, -0.0007095496403053403, -0.00036095050745643675, -0.0006602732464671135, -0.00205729971639812, -0.0031146130058914423, -0.005828515626490116, 0.006914901081472635, 0.004648509901016951, -0.008186140097677708, -0.010310065001249313, -0.0028544082306325436, 0.0103885093703866, -0.0034768476616591215, -0.002623323816806078, -0.010346041060984135, 0.0045617385767400265, 0.005726528819650412, 0.004166558850556612, -0.0022974296007305384, -0.007608300074934959, -0.005973304156213999, 0.011519355699419975, -0.0030089812353253365, -0.0029037129133939743], "grad": [0.0006852321675978601, -0.00018492799426894635, 0.0036121916491538286, 0.000514229410327971, 0.0007055960013531148, -0.002521747024729848, -0.00017137598479166627, 0.0017692161491140723, -0.00046586847747676075, 0.0, -0.000992815475910902, 0.0004886477836407721, 0.0, -0.0005211548414081335, 0.001523382030427456, 0.0019807263743132353, -0.0013846688671037555, -0.0021347568836063147, -0.0004911038558930159, -0.0003596256719902158, 0.001990203745663166, 0.0, 0.0025516110472381115, -0.0029197861440479755, 0.002438889117911458, -0.0005760517087765038, -0.0016733629163354635, 0.0024879786651581526, 0.0005633080727420747, 0.0004627997986972332, -0.0012840627459809184, -0.0010126285487785935, 1.2356156730675139e-05, 0.0010275628883391619, 0.0001994172780541703, 0.0, -5.5657263146713376e-05, -0.0018322195392102003, -0.0033619762398302555, -0.0001465571258449927, -0.0027185138314962387, 0.00045510809286497533, 0.00135367875918746, -0.0018675781320780516, 0.0014349538832902908, -2.150917862309143e-05, 0.0005196137353777885, -0.001912802690640092, -0.0015360071556642652, -0.0004259379056748003, 0.0, -0.0012153274146839976, -0.000398996431613341, 0.0013060752535238862, -0.0008147280314005911, 0.0009470396325923502, 0.0025228094309568405, 0.00048775493633002043, -0.0005843578255735338, 0.0006632145959883928, -0.0025724219158291817, -0.0018721341621130705, -0.0013921702047809958, 0.0025745946913957596, 0.0, 0.00149979826528579, -0.0016865429934114218, -0.0012645029928535223, 0.0, -0.0016805215273052454, -0.001082211616449058, 0.0, 0.0012234365567564964, 0.0, 0.0018847754690796137, -0.00011635723785730079, 0.002685901476070285, 0.0019059571204707026, -0.0006883250898681581, -0.003619841765612364, 0.003064136253669858, -0.00034762732684612274, -0.0004912466974928975, 0.002148092957213521, -0.001617196248844266, -0.00013908674009144306, -0.0005759756895713508, -0.0002053201460512355, -3.7177142075961456e-05, -0.0032796873711049557, 0.0007731133373454213, -0.0003311706241220236, 7.398142770398408e-06, -0.0013603388797491789, 0.0, -0.0012507516657933593, -0.0014593865489587188, 0.0, -8.527033787686378e-05, -0.0026280602905899286, -0.0007568471482954919, -0.0025720258709043264, 0.0, -0.0020282769110053778, 0.0, -0.002982494654133916, 0.004729222506284714, 4.824006464332342e-05, 0.0, 0.002646215260028839, -0.0018535786075517535, 0.0007538526551797986, 0.0, -0.001863999292254448, 0.0, -7.129606092348695e-05, 0.0003435351827647537, 0.0017531511839479208, 0.0020423417445272207, -0.0001108725045924075, 0.000810744590125978, -0.0015093038091436028, 0.0005705703515559435, -0.0013424452627077699, -0.0006736741634085774, 0.002105690771713853, 0.0, 0.0012904544128105044], "first_delta": [-0.00014419201761484146, 0.0025468086823821068, 0.000728892395272851, -0.00048292300198227167, 7.782792818034068e-05, 0.0006305626593530178, -0.0005481229163706303, -0.0012544761411845684, 0.0030955916736274958, -0.000229818862862885, -0.0005939393304288387, -0.00037029897794127464, -0.0004967935383319855, 0.0006309300661087036, 0.0016154833137989044, 0.0009836889803409576, 0.001159059815108776, 0.00023397523909807205, 0.00012100813910365105, 0.0029845640528947115, 0.00036945194005966187, -0.00039770943112671375, 0.0003868264611810446, 0.003117430955171585, -0.0013288166373968124, 0.0026423002127557993, 0.002587230410426855, -0.0015598200261592865, 0.0007685455493628979, -0.0007474294397979975, 0.0009166784584522247, 0.001843317411839962, -0.0007917174370959401, -0.0011481167748570442, -0.0005785818211734295, -0.00041959621012210846, 0.001341013703495264, 0.0024753017351031303, 0.0010009771212935448, 0.0011401809751987457, 0.0012783261481672525, 0.0015964964404702187, 0.0014435537159442902, 0.001132981851696968, 0.0005422243848443031, 0.001894376939162612, 0.0002903034910559654, 0.0030354857444763184, -0.0002392246387898922, 0.0009003410814329982, -0.0002913549542427063, 0.0007579103112220764, -2.396758645772934e-05, 0.0013739443384110928, 0.00047731632366776466, 0.00017838855274021626, -8.052494376897812e-05, 2.4645589292049408e-05, 0.0006948892842046916, 0.00017748249229043722, 0.0007140068919397891, -0.0006393160438165069, 0.001512434333562851, 0.0006210221908986568, -8.939672261476517e-05, 0.0005913693457841873, 0.0012311162427067757, 0.0014007696881890297, -0.0004862821660935879, 0.0005197767168283463, 7.195398211479187e-05, -0.0002627219073474407, -0.0009583656210452318, 0.0003080768510699272, -0.0003640460781753063, -0.0008959840051829815, -0.0011435123160481453, 0.0022890917025506496, 0.0024507888592779636, 0.0006588832475244999, 0.00017189513891935349, 0.0007659925613552332, 0.002274014987051487, 0.0007307745981961489, 0.0012960424646735191, 0.0008184239268302917, -4.5336782932281494e-05, 0.0013266841415315866, -0.00029723066836595535, 0.00021890923380851746, -0.0005065780133008957, -0.001220362028107047, -9.680353105068207e-05, 0.0008333432488143444, -0.00011259200982749462, 0.0013937762705609202, 0.0017128500621765852, -0.0004991525784134865, 0.0003166880924254656, 0.0005923435091972351, 0.0017687671352177858, 0.0011445293202996254, -0.0004608849994838238, 0.00025474163703620434, -0.0005653597763739526, 0.0028568136040121317, -0.0014952672645449638, 0.002003283007070422, -0.00017674220725893974, 0.00017850147560238838, 0.0006305882707238197, -0.000206011813133955, -0.0001756381243467331, -0.0005906000733375549, -9.417673572897911e-05, 0.0012751277536153793, -0.0004990689922124147, -0.000980382552370429, -2.8553418815135956e-05, 0.0013869940303266048, 0.0019573308527469635, 2.188747748732567e-05, 0.0023016154300421476, 0.000652652233839035, 0.0014119846746325493, 0.0011866381391882896, -0.00021313829347491264, 0.0008440546225756407], "tensor__stats": {"min": -0.010346041060984135, "max": 0.012103425338864326, "mean": 0.0002525380114093423, "variance": 3.447657582000829e-05, "nobs": 128, "histogram_bins": 11, "histogram": [[10, 9, 13, 15, 16, 15, 12, 11, 12, 8, 7], [-0.010346041060984135, -0.008305180817842484, -0.006264320109039545, -0.004223459400236607, -0.002182598691433668, -0.00014173815725371242, 0.0018991223769262433, 0.00393998296931386, 0.005980843678116798, 0.00802170392125845, 0.010062565095722675, 0.012103425338864326]]}, "grad__stats": {"min": -0.003619841765612364, "max": 0.004729222506284714, "mean": -9.038613643497229e-05, "variance": 2.3683392100792844e-06, "nobs": 128, "histogram_bins": 11, "histogram": [[5, 6, 17, 13, 43, 16, 9, 10, 7, 1, 1], [-0.003619841765612364, -0.002860835986211896, -0.0021018299739807844, -0.0013428241945803165, -0.0005838184151798487, 0.00017518745153211057, 0.0009341933182440698, 0.0016931991558521986, 0.0024522049352526665, 0.0032112107146531343, 0.003970216494053602, 0.004729222506284714]]}, "first_delta__stats": {"min": -0.0015598200261592865, "max": 0.003117430955171585, "mean": 0.0005395462503656745, "variance": 1.1681682963171625e-06, "nobs": 128, "histogram_bins": 11, "histogram": [[7, 5, 19, 21, 15, 21, 17, 6, 4, 8, 5], [-0.0015598200261592865, -0.0011346153914928436, -0.0007094107568264008, -0.0002842061221599579, 0.00014099851250648499, 0.0005662031471729279, 0.0009914077818393707, 0.0014166124165058136, 0.0018418170511722565, 0.0022670216858386993, 0.002692226320505142, 0.003117430955171585]]}}, "shape": [128]}, "fc2.weight": {"id": "fc2.weight", "data_group_type": "PARAM", "type": "Parameter", "value": {"tensor": "NOT SERIALIZED, Too large 1280", "grad": "NOT SERIALIZED, Too large 1280", "first_delta": "NOT SERIALIZED, Too large 1280", "tensor__stats": {"min": -0.10602214932441711, "max": 0.09338842332363129, "mean": -0.0025285605806857347, "variance": 0.002947717672213912, "nobs": 1280, "histogram_bins": 35, "histogram": [[7, 13, 25, 49, 34, 41, 38, 36, 34, 39, 42, 37, 47, 43, 32, 33, 40, 49, 45, 32, 33, 37, 40, 40, 28, 43, 47, 38, 31, 42, 43, 44, 37, 42, 19], [-0.10602214932441711, -0.10032470524311066, -0.0946272611618042, -0.08892981708049774, -0.08323237299919128, -0.07753492146730423, -0.07183747738599777, -0.06614003330469131, -0.06044258922338486, -0.0547451451420784, -0.04904770106077194, -0.043350253254175186, -0.03765280917286873, -0.03195536509156227, -0.026257921010255814, -0.020560475066304207, -0.014863030053675175, -0.009165585041046143, -0.0034681404940783978, 0.0022293042857199907, 0.00792674906551838, 0.013624194078147411, 0.019321639090776443, 0.02501908503472805, 0.030716529116034508, 0.036413975059986115, 0.04211141914129257, 0.04780886322259903, 0.05350630730390549, 0.05920375511050224, 0.0649011954665184, 0.07059864699840546, 0.07629609107971191, 0.08199353516101837, 0.08769097924232483, 0.09338842332363129]]}, "grad__stats": {"min": -0.12889528274536133, "max": 0.10101700574159622, "mean": 3.725290298461914e-09, "variance": 0.0011124329175800085, "nobs": 1280, "histogram_bins": 35, "histogram": [[4, 3, 2, 7, 7, 5, 8, 7, 6, 23, 15, 22, 18, 17, 22, 31, 35, 46, 53, 453, 160, 63, 50, 40, 29, 31, 36, 25, 16, 10, 17, 5, 9, 1, 4], [-0.12889528274536133, -0.12232635915279388, -0.11575743556022644, -0.109188511967659, -0.10261959582567215, -0.0960506722331047, -0.08948174864053726, -0.08291282504796982, -0.07634390145540237, -0.06977497786283493, -0.06320605427026749, -0.05663713440299034, -0.0500682108104229, -0.04349929094314575, -0.03693036735057831, -0.030361445620656013, -0.02379252202808857, -0.017223600298166275, -0.010654677636921406, -0.004085754510015249, 0.0024831679183989763, 0.009052090346813202, 0.015621013008058071, 0.02218993566930294, 0.028758857399225235, 0.03532778099179268, 0.04189670458436012, 0.04846562445163727, 0.05503454804420471, 0.061603471636772156, 0.0681723952293396, 0.07474131882190704, 0.08131023496389389, 0.08787915855646133, 0.09444808214902878, 0.10101700574159622]]}, "first_delta__stats": {"min": -0.02837293967604637, "max": 0.008795171976089478, "mean": -0.0021323610562831163, "variance": 2.3337222955888137e-05, "nobs": 1280, "histogram_bins": 35, "histogram": [[1, 1, 0, 0, 0, 1, 2, 4, 3, 4, 0, 7, 6, 15, 19, 13, 11, 32, 27, 42, 28, 52, 66, 72, 107, 122, 276, 120, 108, 68, 38, 20, 9, 3, 3], [-0.02837293967604637, -0.027310993522405624, -0.026249047368764877, -0.02518710121512413, -0.024125155061483383, -0.023063208907842636, -0.02200126275420189, -0.020939316600561142, -0.019877370446920395, -0.018815426155924797, -0.01775348000228405, -0.016691533848643303, -0.015629587695002556, -0.014567640610039234, -0.013505695387721062, -0.012443749234080315, -0.011381803080439568, -0.01031985692679882, -0.009257910773158073, -0.008195964619517326, -0.007134018931537867, -0.0060720727778971195, -0.0050101266242563725, -0.003948180470615625, -0.002886234549805522, -0.0018242885125800967, -0.0007623424753546715, 0.0002996035909745842, 0.001361549599096179, 0.002423495752736926, 0.0034854416735470295, 0.0045473878271877766, 0.005609333980828524, 0.006671279668807983, 0.0077332258224487305, 0.008795171976089478]]}}, "shape": [10, 128]}, "fc2.bias": {"id": "fc2.bias", "data_group_type": "PARAM", "type": "Parameter", "value": {"tensor": [0.04843772202730179, 0.04065330699086189, -0.02376764826476574, 0.023922353982925415, 0.056520454585552216, 0.03581494837999344, -0.046310365200042725, 0.023251598700881004, -0.08160309493541718, 0.027614759281277657], "grad": [0.0010989067377522588, -0.0031242237892001867, 0.01180693693459034, -0.016294457018375397, 0.003688221797347069, -0.0138747813180089, -0.007161912973970175, 0.00028261059196665883, 0.013932905159890652, 0.009645800106227398], "first_delta": [-0.002418939024209976, 0.0006388165056705475, -0.0002249889075756073, -0.0014106091111898422, -0.0014601647853851318, 0.00042094290256500244, -0.0023936331272125244, 0.0018825680017471313, -0.002567283809185028, -0.00017495453357696533], "tensor__stats": {"min": -0.08160309493541718, "max": 0.056520454585552216, "mean": 0.010453402996063232, "variance": 0.0020697275176644325, "nobs": 10, "histogram_bins": 5, "histogram": [[1, 1, 1, 3, 4], [-0.08160309493541718, -0.05397838354110718, -0.02635367587208748, 0.001271034823730588, 0.028895745053887367, 0.056520454585552216]]}, "grad__stats": {"min": -0.016294457018375397, "max": 0.013932905159890652, "mean": 5.587935669737476e-10, "variance": 0.0001067260091076605, "nobs": 10, "histogram_bins": 5, "histogram": [[2, 1, 3, 1, 3], [-0.016294457018375397, -0.010248984210193157, -0.004203512333333492, 0.0018419602420181036, 0.007887432351708412, 0.013932905159890652]]}, "first_delta__stats": {"min": -0.002567283809185028, "max": 0.0018825680017471313, "mean": -0.0007708246121183038, "variance": 2.284717083966825e-06, "nobs": 10, "histogram_bins": 5, "histogram": [[3, 2, 2, 2, 1], [-0.002567283809185028, -0.0016773134702816606, -0.0007873430731706321, 0.00010262728028465062, 0.0009925976628437638, 0.0018825680017471313]]}}, "shape": [10]}, "input.1": {"id": "input.1", "data_group_type": "INPUT", "type": "Tensor", "value": {"tensor": "NOT SERIALIZED, Too large 7840", "tensor__stats": {"min": -0.4242129623889923, "max": 2.821486711502075, "mean": -0.02985687181353569, "variance": 0.9561613202095032, "nobs": 7840, "histogram_bins": 88, "histogram": [[6511, 14, 8, 11, 5, 9, 10, 13, 10, 2, 14, 12, 15, 4, 5, 14, 5, 7, 13, 2, 5, 8, 17, 11, 19, 12, 17, 7, 11, 2, 2, 3, 5, 11, 10, 1, 5, 8, 6, 4, 8, 6, 4, 3, 33, 5, 6, 11, 1, 14, 3, 10, 5, 10, 9, 8, 4, 4, 4, 5, 5, 5, 3, 8, 6, 21, 5, 2, 4, 7, 3, 8, 27, 10, 2, 19, 17, 11, 8, 18, 6, 19, 9, 16, 13, 18, 239, 330], [-0.4242129623889923, -0.387330025434494, -0.35044705867767334, -0.31356412172317505, -0.27668115496635437, -0.23979820311069489, -0.2029152512550354, -0.16603229939937592, -0.12914936244487762, -0.09226640313863754, -0.055383455008268356, -0.01850050315260887, 0.018382446840405464, 0.0552653968334198, 0.09214834868907928, 0.12903130054473877, 0.16591425240039825, 0.20279720425605774, 0.23968015611171722, 0.2765631079673767, 0.313446044921875, 0.3503290116786957, 0.38721194863319397, 0.42409491539001465, 0.46097785234451294, 0.4978608191013336, 0.5347437858581543, 0.5716267228126526, 0.6085096597671509, 0.6453925967216492, 0.6822755336761475, 0.7191585302352905, 0.7560414671897888, 0.7929244041442871, 0.8298073410987854, 0.8666903376579285, 0.9035732746124268, 0.940456211566925, 0.9773391485214233, 1.0142221450805664, 1.05110502243042, 1.087988018989563, 1.124871015548706, 1.1617538928985596, 1.1986368894577026, 1.2355197668075562, 1.2724027633666992, 1.3092857599258423, 1.3461686372756958, 1.3830516338348389, 1.419934630393982, 1.4568175077438354, 1.4937005043029785, 1.530583381652832, 1.567466378211975, 1.6043493747711182, 1.6412322521209717, 1.6781152486801147, 1.7149982452392578, 1.7518811225891113, 1.7887641191482544, 1.825646996498108, 1.862529993057251, 1.899412989616394, 1.9362958669662476, 1.9731788635253906, 2.010061740875244, 2.0469448566436768, 2.0838277339935303, 2.120710611343384, 2.1575934886932373, 2.19447660446167, 2.2313594818115234, 2.268242359161377, 2.3051254749298096, 2.342008352279663, 2.3788912296295166, 2.415774345397949, 2.4526572227478027, 2.4895401000976562, 2.526423215866089, 2.5633060932159424, 2.600188970565796, 2.6370718479156494, 2.673954963684082, 2.7108378410339355, 2.747720718383789, 2.7846038341522217, 2.821486711502075]]}}, "shape": [10, 1, 28, 28]}, "output.1": {"id": "output.1", "data_group_type": "OUTPUT", "type": "Tensor", "value": {"tensor": [[-4.848093509674072, -11.95885181427002, -6.417056560516357, -4.897192001342773, -3.5062639713287354, -0.20027217268943787, -5.82022762298584, -10.1286039352417, -3.2787084579467773, -2.3660695552825928], [-9.592172622680664, -0.01125793531537056, -6.21258020401001, -6.584145545959473, -10.045876502990723, -7.688968658447266, -6.343010425567627, -8.2527437210083, -5.288654804229736, -8.673571586608887], [-10.982075691223145, -0.024060405790805817, -5.374708652496338, -5.557997226715088, -10.87897777557373, -7.186369895935059, -5.695161819458008, -10.857315063476562, -4.50445556640625, -9.889129638671875], [-5.990869522094727, -9.631028175354004, -7.470701217651367, -0.01660303771495819, -12.012734413146973, -4.551488876342773, -11.417858123779297, -6.140161991119385, -8.513372421264648, -7.810705661773682], [-11.852896690368652, -11.115264892578125, -7.119311332702637, -9.758078575134277, -9.02680492401123, -9.130419731140137, -0.0017213303362950683, -16.876171112060547, -7.5439958572387695, -9.526185989379883], [-12.768635749816895, -12.338179588317871, -0.003306400263682008, -5.902997970581055, -10.488362312316895, -11.687274932861328, -11.296929359436035, -10.41746997833252, -8.28969955444336, -8.36484432220459], [-11.683090209960938, -14.359336853027344, -2.5709421634674072, -10.03872299194336, -5.252413749694824, -10.984891891479492, -0.08531937748193741, -12.682064056396484, -12.81624698638916, -11.834961891174316], [-9.681885719299316, -10.92386245727539, -9.270771980285645, -0.006650102324783802, -12.648638725280762, -5.252376556396484, -15.25393009185791, -9.534032821655273, -6.860955238342285, -9.264172554016113], [-7.7072529792785645, -4.280005931854248, -3.430215835571289, -0.17049914598464966, -6.581862449645996, -3.6749680042266846, -6.051467418670654, -9.150677680969238, -2.532686233520508, -6.5412445068359375], [-10.460789680480957, -0.010279332287609577, -5.883815288543701, -6.59532356262207, -10.296086311340332, -8.258004188537598, -6.560235500335693, -8.872079849243164, -5.504866600036621, -8.936772346496582]], "tensor__stats": {"min": -16.876171112060547, "max": -0.0017213303362950683, "mean": -7.526330471038818, "variance": 14.5712251663208, "nobs": 100, "histogram_bins": 10, "histogram": [[2, 1, 9, 15, 18, 12, 21, 8, 4, 10], [-16.876171112060547, -15.188726425170898, -13.501280784606934, -11.813836097717285, -10.126391410827637, -8.438945770263672, -6.751501083374023, -5.064056396484375, -3.3766112327575684, -1.6891663074493408, -0.0017213303362950683]]}}, "shape": [10, 10]}}, "graph": {"nodes": [{"data": {"id": "input.1", "label": "INPUT", "component_ids": ["input.1"]}}, {"data": {"id": 9, "label": "Conv", "component_ids": ["conv1.weight", "conv1.bias"]}}, {"data": {"id": 10, "label": "Relu", "component_ids": []}}, {"data": {"id": 11, "label": "Conv", "component_ids": ["conv2.weight", "conv2.bias"]}}, {"data": {"id": 12, "label": "Relu", "component_ids": []}}, {"data": {"id": 13, "label": "MaxPool", "component_ids": []}}, {"data": {"id": 14, "label": "Flatten", "component_ids": []}}, {"data": {"id": 15, "label": "Gemm", "component_ids": ["fc1.weight", "fc1.bias"]}}, {"data": {"id": 16, "label": "Relu", "component_ids": []}}, {"data": {"id": 17, "label": "Gemm", "component_ids": ["fc2.weight", "fc2.bias"]}}, {"data": {"id": 18, "label": "LogSoftmax", "component_ids": []}}, {"data": {"id": "output.1", "label": "OUTPUT", "component_ids": ["output.1"]}}], "edges": [{"data": {"id": "input.1_9", "source": "input.1", "target": 9}}, {"data": {"id": "9_10", "source": 9, "target": 10}}, {"data": {"id": "10_11", "source": 10, "target": 11}}, {"data": {"id": "11_12", "source": 11, "target": 12}}, {"data": {"id": "12_13", "source": 12, "target": 13}}, {"data": {"id": "13_14", "source": 13, "target": 14}}, {"data": {"id": "14_15", "source": 14, "target": 15}}, {"data": {"id": "15_16", "source": 15, "target": 16}}, {"data": {"id": "16_17", "source": 16, "target": 17}}, {"data": {"id": "17_18", "source": 17, "target": 18}}, {"data": {"id": "18_output.1", "source": "18", "target": "output.1"}}]}}