{"id": "0_300", "meta": {"time": 1638574418.9354048, "refresh_model_graph": false}, "step_info": {"epoch": 0, "iter": 300}, "additional_info": {"pred": {"type": "Tensor", "value": [[0], [8], [9], [8], [1], [3], [2], [5], [7], [4]]}, "loss": {"type": "Tensor", "value": 0.6253668069839478}, "class_label": {"type": "Tensor", "value": [9, 0, 8, 8, 1, 3, 2, 5, 7, 4]}, "test_acc": {"type": "float", "value": 84.99}}, "graph_id": [0, 0], "data": {"conv1.weight": {"id": "conv1.weight", "data_group_type": "PARAM", "type": "Parameter", "value": {"tensor": "NOT SERIALIZED, Too large 288", "grad": "NOT SERIALIZED, Too large 288", "first_delta": "NOT SERIALIZED, Too large 288", "tensor__stats": {"min": -0.33184871077537537, "max": 0.3572172224521637, "mean": 0.012203956954181194, "variance": 0.03925934061408043, "nobs": 288, "histogram_bins": 16, "histogram": [[24, 16, 22, 10, 15, 18, 12, 23, 13, 28, 14, 25, 21, 14, 17, 16], [-0.33184871077537537, -0.2887820899486542, -0.24571546912193298, -0.2026488482952118, -0.1595822274684906, -0.11651560664176941, -0.07344898581504822, -0.030382364988327026, 0.012684255838394165, 0.055750876665115356, 0.09881749749183655, 0.14188411831855774, 0.18495073914527893, 0.22801735997200012, 0.2710839807987213, 0.3141506016254425, 0.3572172224521637]]}, "grad__stats": {"min": -0.07180135697126389, "max": 0.018775297328829765, "mean": -0.015103103592991829, "variance": 0.00034297400270588696, "nobs": 288, "histogram_bins": 16, "histogram": [[6, 3, 4, 6, 11, 11, 15, 15, 21, 19, 24, 34, 94, 22, 2, 1], [-0.07180135697126389, -0.066140316426754, -0.06047927588224411, -0.05481823533773422, -0.049157194793224335, -0.04349615424871445, -0.03783510997891426, -0.03217406943440437, -0.026513028889894485, -0.020851988345384598, -0.01519094780087471, -0.009529907256364822, -0.0038688662461936474, 0.0017921746475622058, 0.007453215308487415, 0.013114256784319878, 0.018775297328829765]]}, "first_delta__stats": {"min": -0.006672456860542297, "max": 0.03938387334346771, "mean": 0.009709428064525127, "variance": 0.0001209647161886096, "nobs": 288, "histogram_bins": 16, "histogram": [[9, 56, 29, 25, 31, 16, 15, 22, 25, 14, 15, 8, 9, 7, 5, 2], [-0.006672456860542297, -0.0037939362227916718, -0.0009154155850410461, 0.0019631050527095795, 0.004841625690460205, 0.007720146328210831, 0.010598666965961456, 0.013477187603712082, 0.016355708241462708, 0.019234228879213333, 0.02211274951696396, 0.024991270154714584, 0.02786979079246521, 0.030748311430215836, 0.03362683206796646, 0.03650535270571709, 0.03938387334346771]]}}, "shape": [32, 1, 3, 3]}, "conv1.bias": {"id": "conv1.bias", "data_group_type": "PARAM", "type": "Parameter", "value": {"tensor": [0.04769100993871689, 0.33890804648399353, -0.019820550456643105, -0.1590532660484314, -0.2973763346672058, 0.0003821630380116403, 0.128127783536911, 0.01951366290450096, 0.09320353716611862, 0.12532661855220795, 0.19405841827392578, 0.30028069019317627, 0.046705156564712524, -0.2356470227241516, 0.03578893467783928, -0.11151991784572601, 0.1967557817697525, 0.12464073300361633, 0.11605063825845718, 0.1560252606868744, -0.2610248625278473, -0.10219448804855347, 0.2194957286119461, -0.15593741834163666, 0.11785483360290527, 0.2567421793937683, 0.2705148458480835, -0.24583421647548676, 0.15292929112911224, -0.011473733931779861, 0.10586830973625183, 0.30722033977508545], "grad": [-0.01583375781774521, -0.010879161767661572, 0.007715775165706873, -0.010870908387005329, -0.018613696098327637, 0.0005725801456719637, -0.01271851733326912, -0.010293271392583847, 0.005255699157714844, 0.002100606681779027, 0.0021348632872104645, -0.025352349504828453, -0.013285709545016289, -0.0009737207437865436, 0.004099033307284117, -0.0005782946245744824, -0.003557806136086583, -9.059270814759657e-05, 0.008068041875958443, -0.007383411750197411, -0.025576982647180557, -0.009247218258678913, -0.003994006663560867, -0.0020369149278849363, -0.000447598664322868, -0.03188410773873329, -0.030156098306179047, 0.002029776107519865, -0.017273880541324615, -0.004499747883528471, -0.008513743989169598, -0.01638057641685009], "first_delta": [0.011602900922298431, 0.011573195457458496, 0.0031424574553966522, 0.014594018459320068, 0.019580841064453125, -0.002266786526888609, 0.005868680775165558, 0.010722414590418339, 0.0026322081685066223, 0.005706131458282471, 0.005622178316116333, 0.01212155818939209, 0.020744869485497475, 0.0061114877462387085, 0.003956396132707596, 0.0035002827644348145, 0.005736842751502991, 0.0046816542744636536, 0.0005973950028419495, 0.00332014262676239, 0.027425616979599, 0.01347949355840683, 0.007763013243675232, 0.0017628073692321777, 0.0029563456773757935, 0.022124141454696655, 0.021838784217834473, 0.004052385687828064, 0.010416492819786072, 0.001958729699254036, 0.008352883160114288, 0.00657576322555542], "tensor__stats": {"min": -0.2973763346672058, "max": 0.33890804648399353, "mean": 0.05481882020831108, "variance": 0.031006548553705215, "nobs": 32, "histogram_bins": 5, "histogram": [[4, 4, 7, 11, 6], [-0.2973763346672058, -0.17011946439743042, -0.042862582951784134, 0.08439429104328156, 0.21165117621421814, 0.33890804648399353]]}, "grad__stats": {"min": -0.03188410773873329, "max": 0.008068041875958443, "mean": -0.007764553651213646, "variance": 0.00011573563097044826, "nobs": 32, "histogram_bins": 5, "histogram": [[4, 3, 8, 9, 8], [-0.03188410773873329, -0.023893678560853004, -0.015903247520327568, -0.007912818342447281, 7.761195593047887e-05, 0.008068041875958443]]}, "first_delta__stats": {"min": -0.002266786526888609, "max": 0.027425616979599, "mean": 0.008695479482412338, "variance": 5.1736216846620664e-05, "nobs": 32, "histogram_bins": 5, "histogram": [[9, 11, 7, 2, 3], [-0.002266786526888609, 0.003671694081276655, 0.009610175155103207, 0.01554865576326847, 0.02148713544011116, 0.027425616979599]]}}, "shape": [32]}, "conv2.weight": {"id": "conv2.weight", "data_group_type": "PARAM", "type": "Parameter", "value": {"tensor": "NOT SERIALIZED, Too large 18432", "grad": "NOT SERIALIZED, Too large 18432", "first_delta": "NOT SERIALIZED, Too large 18432", "tensor__stats": {"min": -0.06299498677253723, "max": 0.0759194940328598, "mean": 0.0029681555461138487, "variance": 0.0011827198322862387, "nobs": 18432, "histogram_bins": 100, "histogram": [[4, 10, 37, 72, 135, 149, 174, 185, 185, 236, 184, 198, 209, 207, 210, 224, 223, 211, 197, 200, 213, 230, 226, 247, 215, 223, 222, 194, 205, 192, 209, 206, 218, 202, 224, 203, 229, 238, 206, 217, 221, 235, 205, 226, 213, 208, 235, 204, 229, 197, 216, 205, 201, 229, 206, 214, 215, 240, 216, 208, 232, 244, 222, 202, 217, 256, 216, 187, 214, 226, 210, 231, 211, 254, 199, 214, 214, 234, 187, 205, 204, 223, 198, 225, 240, 207, 188, 176, 132, 95, 81, 59, 45, 39, 24, 16, 7, 3, 1, 2], [-0.06299498677253723, -0.06160584092140198, -0.06021669879555702, -0.05882755294442177, -0.057438407093286514, -0.05604926124215126, -0.054660119116306305, -0.05327097326517105, -0.0518818274140358, -0.05049268528819084, -0.04910353943705559, -0.047714393585920334, -0.04632524773478508, -0.044936105608940125, -0.04354695975780487, -0.04215781390666962, -0.04076866805553436, -0.03937952592968941, -0.03799038007855415, -0.0366012342274189, -0.035212092101573944, -0.03382294625043869, -0.032433800399303436, -0.03104465641081333, -0.029655510559678078, -0.028266366571187973, -0.02687722258269787, -0.025488076731562614, -0.02409893274307251, -0.022709786891937256, -0.02132064290344715, -0.019931497052311897, -0.018542353063821793, -0.01715320721268654, -0.015764063224196434, -0.014374918304383755, -0.012985773384571075, -0.011596628464758396, -0.010207484476268291, -0.008818339556455612, -0.007429194636642933, -0.006040049716830254, -0.004650904797017574, -0.0032617601100355387, -0.0018726151902228594, -0.0004834704159293324, 0.0009056744165718555, 0.002294819103553891, 0.0036839640233665705, 0.005073108710348606, 0.006462253630161285, 0.007851398549973965, 0.009240543469786644, 0.010629688389599323, 0.012018833309412003, 0.013407977297902107, 0.014797122217714787, 0.016186267137527466, 0.01757541298866272, 0.018964556977152824, 0.02035370096564293, 0.021742846816778183, 0.023131990805268288, 0.02452113665640354, 0.025910280644893646, 0.0272994264960289, 0.028688570484519005, 0.03007771447300911, 0.03146686032414436, 0.03285600617527962, 0.03424514830112457, 0.03563429415225983, 0.03702344000339508, 0.038412585854530334, 0.03980172798037529, 0.041190873831510544, 0.0425800196826458, 0.04396916180849075, 0.04535830765962601, 0.04674745351076126, 0.048136599361896515, 0.04952574148774147, 0.050914887338876724, 0.05230403319001198, 0.053693175315856934, 0.05508232116699219, 0.05647146701812744, 0.057860612869262695, 0.05924975499510765, 0.060638900846242905, 0.06202804669737816, 0.06341718882322311, 0.06480633467435837, 0.06619548052549362, 0.06758462637662888, 0.06897377222776413, 0.07036291807889938, 0.07175205647945404, 0.0731412023305893, 0.07453034818172455, 0.0759194940328598]]}, "grad__stats": {"min": -0.029914258047938347, "max": 0.016452115029096603, "mean": -0.0013594880001619458, "variance": 2.284645233885385e-05, "nobs": 18432, "histogram_bins": 100, "histogram": [[1, 1, 0, 0, 3, 1, 5, 6, 2, 5, 8, 9, 4, 6, 8, 11, 9, 13, 11, 17, 9, 15, 31, 21, 14, 15, 27, 25, 28, 15, 23, 33, 37, 44, 41, 51, 61, 69, 66, 68, 80, 96, 97, 114, 124, 137, 150, 150, 165, 193, 202, 214, 251, 275, 278, 309, 356, 417, 460, 524, 651, 844, 983, 1378, 1936, 1561, 1195, 947, 685, 590, 427, 345, 298, 224, 172, 160, 124, 80, 76, 54, 52, 45, 37, 39, 25, 22, 11, 14, 14, 8, 6, 6, 4, 1, 3, 5, 2, 0, 2, 1], [-0.029914258047938347, -0.029450593516230583, -0.02898693084716797, -0.028523266315460205, -0.02805960364639759, -0.027595939114689827, -0.027132276445627213, -0.02666861191391945, -0.026204947382211685, -0.02574128471314907, -0.025277620181441307, -0.024813957512378693, -0.02435029298067093, -0.023886630311608315, -0.02342296577990055, -0.022959301248192787, -0.022495638579130173, -0.02203197404742241, -0.021568311378359795, -0.02110464684665203, -0.020640984177589417, -0.020177319645881653, -0.01971365511417389, -0.019249992445111275, -0.01878632791340351, -0.018322665244340897, -0.017859000712633133, -0.01739533804357052, -0.016931673511862755, -0.01646800898015499, -0.016004346311092377, -0.015540682710707188, -0.015077019110321999, -0.014613354578614235, -0.014149690978229046, -0.013686027377843857, -0.013222363777458668, -0.012758700177073479, -0.01229503657668829, -0.0118313729763031, -0.011367708444595337, -0.010904044844210148, -0.010440381243824959, -0.00997671764343977, -0.00951305404305458, -0.009049390442669392, -0.008585726842284203, -0.008122062310576439, -0.007658399175852537, -0.007194735109806061, -0.006731071509420872, -0.006267407909035683, -0.005803743842989206, -0.005340080242604017, -0.004876416642218828, -0.004412753041833639, -0.003949088975787163, -0.0034854253754019737, -0.0030217617750167847, -0.002558097941800952, -0.0020944341085851192, -0.0016307705081999302, -0.0011671067913994193, -0.0007034430163912475, -0.0002397792850388214, 0.0002238844463136047, 0.000687548192217946, 0.001151211909018457, 0.0016148756258189678, 0.0020785394590348005, 0.0025422030594199896, 0.0030058668926358223, 0.0034695304930210114, 0.0039331940934062, 0.004396858159452677, 0.004860521759837866, 0.005324185360223055, 0.005787849426269531, 0.00625151302665472, 0.006715176627039909, 0.007178840227425098, 0.007642504293471575, 0.008106167428195477, 0.00856983195990324, 0.00903349556028843, 0.009497159160673618, 0.009960822761058807, 0.010424486361443996, 0.010888149961829185, 0.011351813562214375, 0.011815478093922138, 0.012279141694307327, 0.012742805294692516, 0.013206468895077705, 0.013670132495462894, 0.014133796095848083, 0.014597459696233273, 0.015061124227941036, 0.015524787828326225, 0.01598845049738884, 0.016452115029096603]]}, "first_delta__stats": {"min": -0.006500609219074249, "max": 0.02239217236638069, "mean": 0.002869632327929139, "variance": 1.4850553270662203e-05, "nobs": 18432, "histogram_bins": 100, "histogram": [[2, 3, 1, 7, 10, 17, 27, 37, 64, 54, 100, 118, 117, 125, 168, 194, 210, 228, 303, 364, 494, 802, 1113, 977, 847, 731, 700, 653, 666, 621, 594, 486, 475, 435, 406, 445, 381, 306, 315, 297, 278, 279, 269, 297, 234, 240, 235, 200, 203, 208, 177, 152, 157, 151, 144, 136, 108, 106, 103, 91, 73, 69, 73, 51, 58, 51, 47, 37, 32, 40, 22, 22, 29, 20, 19, 19, 14, 15, 11, 11, 3, 11, 7, 4, 6, 1, 2, 2, 4, 5, 3, 3, 2, 2, 0, 1, 1, 0, 0, 1], [-0.006500609219074249, -0.006211681291460991, -0.0059227533638477325, -0.0056338259018957615, -0.005344897974282503, -0.005055970046669245, -0.004767042119055986, -0.004478114657104015, -0.004189186729490757, -0.0039002588018774986, -0.003611331107094884, -0.0033224031794816256, -0.003033475484699011, -0.0027445475570857525, -0.0024556198623031378, -0.0021666919346898794, -0.0018777641234919429, -0.0015888363122940063, -0.0012999085010960698, -0.0010109806898981333, -0.0007220528787001967, -0.00043312509660609066, -0.0001441972708562389, 0.00014473054034169763, 0.0004336583660915494, 0.0007225861772894859, 0.0010115139884874225, 0.001300441799685359, 0.0015893696108832955, 0.001878297422081232, 0.0021672253496944904, 0.002456153044477105, 0.0027450809720903635, 0.003034008666872978, 0.0033229365944862366, 0.0036118642892688513, 0.0039007922168821096, 0.004189719911664724, 0.004478647839277983, 0.004767575766891241, 0.005056503228843212, 0.0053454311564564705, 0.005634359084069729, 0.005923287011682987, 0.006212214473634958, 0.006501142401248217, 0.006790070328861475, 0.007078998256474733, 0.007367925718426704, 0.007656853646039963, 0.007945781573653221, 0.00823470950126648, 0.008523637428879738, 0.008812565356492996, 0.009101493284106255, 0.009390420280396938, 0.009679348208010197, 0.009968276135623455, 0.010257204063236713, 0.010546131990849972, 0.01083505991846323, 0.011123987846076488, 0.011412915773689747, 0.01170184276998043, 0.011990770697593689, 0.012279698625206947, 0.012568626552820206, 0.012857554480433464, 0.013146482408046722, 0.01343541033565998, 0.01372433826327324, 0.014013265259563923, 0.014302193187177181, 0.01459112111479044, 0.014880049042403698, 0.015168976970016956, 0.015457904897630215, 0.0157468318939209, 0.016035759821534157, 0.016324687749147415, 0.016613615676760674, 0.016902543604373932, 0.01719147153198719, 0.01748039945960045, 0.017769327387213707, 0.018058255314826965, 0.018347183242440224, 0.018636111170053482, 0.01892503909766674, 0.01921396702528, 0.019502894952893257, 0.019791822880506516, 0.020080748945474625, 0.020369676873087883, 0.02065860480070114, 0.0209475327283144, 0.021236460655927658, 0.021525388583540916, 0.021814316511154175, 0.022103244438767433, 0.02239217236638069]]}}, "shape": [64, 32, 3, 3]}, "conv2.bias": {"id": "conv2.bias", "data_group_type": "PARAM", "type": "Parameter", "value": {"tensor": [-0.0374993197619915, 0.05903110280632973, -0.004254390485584736, 0.00388940772973001, -0.005209492985159159, -0.00833942461758852, 0.026685066521167755, 0.010223391465842724, -0.02269379422068596, 0.007273497525602579, 0.0034106012899428606, -0.03763825073838234, 0.02743121050298214, 0.04054680094122887, -0.02110688015818596, -0.04767807200551033, 0.002976167481392622, -0.050492968410253525, 0.058508362621068954, -0.046493664383888245, 0.04851071909070015, -0.026757439598441124, -0.0011731800623238087, -0.0014666711213067174, 0.044039927423000336, 0.03617480397224426, -0.05134915933012962, -0.03902200609445572, 0.057955559343099594, 0.0658349096775055, 0.007543650455772877, -0.023620305582880974, 0.00481164176017046, 0.05166850611567497, -0.04765349626541138, -0.036657243967056274, 0.005080670118331909, 0.027127167209982872, 0.03211650624871254, -0.0205587986856699, -0.02049299143254757, 0.058122046291828156, -0.0439850389957428, -0.024844137951731682, 0.04426616057753563, 0.03598552569746971, -0.030742982402443886, 0.008102171123027802, -0.02826974354684353, -0.012025509960949421, 0.04631635919213295, -0.04282210394740105, 0.020080575719475746, -0.03377114608883858, 0.008005376905202866, 0.05129464343190193, 0.0585707388818264, 0.05100700631737709, -0.03558193892240524, -0.016596196219325066, -0.009508687071502209, 0.0406009815633297, 0.024813566356897354, 0.04766082391142845], "grad": [-0.0007625946309417486, 0.0049873883835971355, 0.0004916265606880188, -0.001740965060889721, 0.0033058831468224525, -0.0073338961228728294, -0.0029072477482259274, 0.008655580691993237, -0.00968004111200571, 0.0019497107714414597, -0.005266602151095867, 0.002499016933143139, 0.002798947971314192, 0.0026650018990039825, 0.002781195566058159, -0.0035255206748843193, 0.0015215742168948054, -0.005806509405374527, 0.00491941487416625, -0.00818122923374176, -0.002839246764779091, 0.008169218897819519, 0.001622275449335575, -0.0032206883188337088, 0.007339288480579853, 0.0101022245362401, -0.0036597363650798798, -0.0053141298703849316, 0.006965084932744503, -0.004012557212263346, -0.005715858656913042, 0.006077572237700224, -0.0048943147994577885, -0.0019873150158673525, -0.007834281772375107, -0.004115657415241003, 0.0008893536287359893, -0.006615892983973026, -0.009980532340705395, -0.0065307412296533585, -0.0005529978079721332, 0.0058387513272464275, -0.0030839722603559494, -0.006869944743812084, -6.409313209587708e-05, -0.007544106338173151, -0.007804805412888527, 0.0009413924999535084, -0.004274959210306406, -0.008875043131411076, 0.010142208077013493, -0.0074404566548764706, 0.0031745294108986855, 0.0024485483299940825, -0.005010272841900587, 0.0005486347945407033, -0.004458689130842686, -0.005634810775518417, 0.00902930460870266, 0.0010424281936138868, -0.011647039093077183, 0.005315076559782028, 0.0019682764541357756, -0.012376464903354645], "first_delta": [0.00431552529335022, 0.0033175572752952576, 0.001619489397853613, 0.0014297387097030878, 0.0024061547592282295, 0.003433932550251484, 0.010630713775753975, 0.002453163266181946, 0.005613526329398155, 0.00480324262753129, 0.0012916894629597664, 0.0029047206044197083, 0.0026662349700927734, 0.005862269550561905, 0.0013273321092128754, 0.006473906338214874, 0.0025924695655703545, 0.007867507636547089, 0.002089656889438629, 0.003956422209739685, 0.005947824567556381, 0.00195411778986454, 0.001862207893282175, 0.003640368115156889, 0.004855018109083176, 0.0033228956162929535, 0.00218098983168602, 0.004426728934049606, 0.0031396858394145966, 0.00967082753777504, 0.009043003432452679, 0.0038549304008483887, 0.0006155367009341717, 0.001347184181213379, 0.0031651072204113007, 0.0056891366839408875, 0.0026690203230828047, 0.002948293462395668, 0.005762370303273201, 0.0031383447349071503, 0.0038004666566848755, 0.0017198547720909119, 0.008153069764375687, 0.010039826855063438, 0.0016721487045288086, 0.00477103516459465, 0.011193828657269478, 0.0015430888161063194, 0.003116874024271965, 0.007080837152898312, 0.0037621892988681793, 0.007947511970996857, 0.002329440787434578, 0.0010011419653892517, 0.0039689382538199425, 0.0026100650429725647, 0.003338642418384552, 0.005932699888944626, 0.004077184945344925, 0.002847732976078987, 0.0060492390766739845, 0.004330147057771683, 0.0021306872367858887, 0.011394303292036057], "tensor__stats": {"min": -0.05134915933012962, "max": 0.0658349096775055, "mean": 0.004490009509027004, "variance": 0.0012553991982713342, "nobs": 64, "histogram_bins": 8, "histogram": [[10, 9, 7, 9, 6, 7, 8, 8], [-0.05134915933012962, -0.03670115023851395, -0.02205314114689827, -0.007405133452266455, 0.007242875173687935, 0.021890884265303612, 0.03653889149427414, 0.051186900585889816, 0.0658349096775055]]}, "grad__stats": {"min": -0.012376464903354645, "max": 0.010142208077013493, "mean": -0.0012402141001075506, "variance": 3.24842803820502e-05, "nobs": 64, "histogram_bins": 8, "histogram": [[4, 8, 13, 8, 10, 9, 6, 6], [-0.012376464903354645, -0.00956163089722395, -0.006746796891093254, -0.0039319624193012714, -0.001117128413170576, 0.001697705709375441, 0.004512540064752102, 0.007327374070882797, 0.010142208077013493]]}, "first_delta__stats": {"min": 0.0006155367009341717, "max": 0.011394303292036057, "mean": 0.004235934466123581, "variance": 7.051401553326286e-06, "nobs": 64, "histogram_bins": 8, "histogram": [[12, 17, 14, 9, 3, 3, 3, 3], [0.0006155367009341717, 0.0019628824666142464, 0.003310228232294321, 0.004657573997974396, 0.006004920229315758, 0.0073522659949958324, 0.008699611760675907, 0.010046957060694695, 0.011394303292036057]]}}, "shape": [64]}, "fc1.weight": {"id": "fc1.weight", "data_group_type": "PARAM", "type": "Parameter", "value": {"tensor": "NOT SERIALIZED, Too large 1179648", "grad": "NOT SERIALIZED, Too large 1179648", "first_delta": "NOT SERIALIZED, Too large 1179648", "tensor__stats": {"min": -0.01471831277012825, "max": 0.016372157260775566, "mean": 0.00019609957234933972, "variance": 3.6956447729608044e-05, "nobs": 1179648, "histogram_bins": 100, "histogram": [[5, 3, 17, 18, 45, 95, 151, 238, 427, 688, 943, 1611, 2572, 5551, 10778, 12974, 14487, 15357, 16160, 16723, 16941, 17104, 17459, 17358, 17610, 17431, 17534, 17703, 17564, 17788, 17700, 17760, 17643, 17524, 17504, 17767, 17655, 17686, 17674, 17602, 17657, 17902, 17652, 17635, 17361, 17546, 17525, 17514, 17746, 17702, 17494, 17602, 17602, 17388, 17566, 17517, 17426, 17675, 17438, 17532, 17648, 17734, 17669, 17622, 17598, 17816, 17482, 17531, 17480, 17635, 17699, 17421, 17465, 17577, 17334, 17081, 16926, 16553, 16008, 14889, 12178, 6863, 4560, 3092, 2094, 1476, 1017, 666, 440, 264, 201, 121, 83, 42, 23, 11, 7, 7, 3, 2], [-0.01471831277012825, -0.01440740842372179, -0.014096503145992756, -0.013785598799586296, -0.013474693521857262, -0.013163789175450802, -0.012852884829044342, -0.012541979551315308, -0.012231075204908848, -0.011920170858502388, -0.011609265580773354, -0.011298361234366894, -0.01098745595663786, -0.0106765516102314, -0.01036564726382494, -0.010054741986095905, -0.009743837639689445, -0.009432933293282986, -0.009122028015553951, -0.008811123669147491, -0.008500218391418457, -0.008189314045011997, -0.007878409698605537, -0.00756750488653779, -0.007256600074470043, -0.006945695262402296, -0.006634790450334549, -0.006323885638266802, -0.006012981291860342, -0.005702076479792595, -0.005391171667724848, -0.005080266855657101, -0.004769362509250641, -0.004458457697182894, -0.004147552885115147, -0.003836648305878043, -0.003525743493810296, -0.0032148389145731926, -0.0029039341025054455, -0.002593029523268342, -0.002282124711200595, -0.0019712201319634914, -0.0016603153198957443, -0.001349410624243319, -0.0010385059285908937, -0.0007276012329384685, -0.0004166965663898736, -0.0001057918561855331, 0.00020511283946689218, 0.0005160175496712327, 0.000826922245323658, 0.0011378269409760833, 0.0014487316366285086, 0.0017596363322809339, 0.002070541027933359, 0.0023814458400011063, 0.0026923504192382097, 0.003003255231305957, 0.0033141598105430603, 0.0036250646226108074, 0.0039359694346785545, 0.004246873781085014, 0.0045577785931527615, 0.004868683405220509, 0.005179588217288256, 0.0054904925636947155, 0.005801397375762463, 0.00611230218783021, 0.006423206999897957, 0.006734111346304417, 0.007045016158372164, 0.007355920970439911, 0.007666825782507658, 0.007977730594575405, 0.008288634940981865, 0.0085995402187109, 0.00891044456511736, 0.009221348911523819, 0.009532254189252853, 0.009843158535659313, 0.010154062882065773, 0.010464968159794807, 0.010775872506201267, 0.011086777783930302, 0.011397682130336761, 0.011708586476743221, 0.012019491754472256, 0.012330396100878716, 0.012641300447285175, 0.01295220572501421, 0.01326311007142067, 0.013574015349149704, 0.013884919695556164, 0.014195824041962624, 0.014506729319691658, 0.014817633666098118, 0.015128538012504578, 0.015439443290233612, 0.015750348567962646, 0.01606125198304653, 0.016372157260775566]]}, "grad__stats": {"min": -0.051689889281988144, "max": 0.05175430327653885, "mean": -2.429845517326612e-05, "variance": 1.6821939425426535e-05, "nobs": 1179648, "histogram_bins": 100, "histogram": [[1, 2, 0, 0, 1, 6, 4, 2, 6, 5, 7, 13, 7, 21, 22, 31, 37, 49, 54, 50, 99, 104, 147, 169, 231, 268, 386, 448, 562, 599, 815, 909, 1128, 1501, 1775, 2207, 2578, 3194, 4043, 4786, 5653, 7150, 8746, 10893, 13838, 18575, 25619, 39718, 74402, 526341, 194827, 72787, 39416, 26213, 19254, 14507, 11121, 8878, 7082, 5694, 4447, 3510, 2928, 2400, 1872, 1466, 1255, 995, 844, 647, 501, 378, 311, 247, 192, 165, 120, 93, 62, 47, 48, 43, 23, 18, 13, 12, 5, 2, 9, 3, 4, 2, 1, 1, 0, 1, 1, 0, 0, 1], [-0.051689889281988144, -0.05065544694662094, -0.04962100461125374, -0.048586562275886536, -0.04755211994051933, -0.04651768133044243, -0.045483238995075226, -0.04444879665970802, -0.04341435432434082, -0.04237991198897362, -0.041345469653606415, -0.04031102731823921, -0.03927658498287201, -0.038242142647504807, -0.0372077040374279, -0.0361732617020607, -0.0351388193666935, -0.034104377031326294, -0.03306993469595909, -0.03203549236059189, -0.031001050025224686, -0.029966609552502632, -0.02893216721713543, -0.027897724881768227, -0.026863282546401024, -0.02582884207367897, -0.024794399738311768, -0.023759957402944565, -0.022725515067577362, -0.02169107273221016, -0.020656632259488106, -0.019622189924120903, -0.0185877475887537, -0.017553305253386497, -0.016518862918019295, -0.015484421513974667, -0.014449980109930038, -0.013415537774562836, -0.012381096370518208, -0.011346654035151005, -0.010312212631106377, -0.009277770295739174, -0.008243327960371971, -0.007208886556327343, -0.0061744446866214275, -0.005140002816915512, -0.004105560481548309, -0.0030711188446730375, -0.0020366767421364784, -0.001002234872430563, 3.220699727535248e-05, 0.001066648866981268, 0.0021010907366871834, 0.0031355328392237425, 0.004169974476099014, 0.005204416811466217, 0.0062388586811721325, 0.007273300550878048, 0.008307741954922676, 0.009342184290289879, 0.010376626625657082, 0.01141106802970171, 0.012445510365068913, 0.01347995176911354, 0.014514394104480743, 0.015548835508525372, 0.01658327691257, 0.017617719247937202, 0.018652161583304405, 0.019686603918671608, 0.02072104625403881, 0.021755486726760864, 0.022789929062128067, 0.02382437139749527, 0.024858813732862473, 0.025893256068229675, 0.02692769654095173, 0.02796213887631893, 0.028996581211686134, 0.030031023547053337, 0.03106546401977539, 0.03209990635514259, 0.033134348690509796, 0.034168791025877, 0.0352032333612442, 0.036237675696611404, 0.03727211803197861, 0.03830655664205551, 0.039340998977422714, 0.04037544131278992, 0.04140988364815712, 0.04244432598352432, 0.043478768318891525, 0.04451321065425873, 0.04554765298962593, 0.046582095324993134, 0.04761653393507004, 0.04865097627043724, 0.04968541860580444, 0.050719860941171646, 0.05175430327653885]]}, "first_delta__stats": {"min": -0.006101960316300392, "max": 0.006913315504789352, "mean": 0.00019823343609459698, "variance": 7.95798143826687e-07, "nobs": 1179648, "histogram_bins": 100, "histogram": [[3, 1, 2, 4, 4, 2, 5, 9, 9, 11, 16, 20, 30, 49, 66, 73, 120, 119, 169, 233, 312, 355, 483, 581, 790, 950, 1203, 1496, 1829, 2213, 2662, 3198, 3998, 4863, 5842, 7149, 8585, 9939, 12267, 14744, 17511, 20877, 25678, 34199, 49342, 89919, 267039, 101094, 74589, 63547, 53537, 45509, 38339, 32634, 27777, 22840, 19514, 16737, 14209, 11974, 10441, 8780, 7495, 6382, 5574, 4668, 4007, 3477, 2908, 2514, 2002, 1736, 1476, 1237, 1087, 867, 730, 544, 471, 385, 336, 258, 235, 193, 121, 127, 72, 52, 48, 49, 28, 26, 14, 11, 8, 6, 7, 2, 3, 2], [-0.006101960316300392, -0.005971807520836592, -0.005841654725372791, -0.005711501929908991, -0.00558134913444519, -0.00545119633898139, -0.00532104354351759, -0.0051908912137150764, -0.005060738418251276, -0.004930585622787476, -0.004800432827323675, -0.004670280031859875, -0.004540127236396074, -0.004409974440932274, -0.0042798216454684734, -0.004149668850004673, -0.004019516054540873, -0.003889363491907716, -0.0037592106964439154, -0.003629057900980115, -0.0034989051055163145, -0.003368752310052514, -0.0032385997474193573, -0.003108446951955557, -0.0029782941564917564, -0.002848141361027956, -0.0027179885655641556, -0.002587835770100355, -0.0024576829746365547, -0.002327530412003398, -0.0021973776165395975, -0.002067224821075797, -0.0019370720256119967, -0.001806919346563518, -0.0016767665510997176, -0.0015466137556359172, -0.0014164610765874386, -0.0012863082811236382, -0.0011561554856598377, -0.0010260026901960373, -0.0008958500111475587, -0.0007656972156837583, -0.0006355444784276187, -0.0005053917411714792, -0.0003752389457076788, -0.0002450862084515393, -0.0001149334420915693, 1.521931972092716e-05, 0.00014537207607645541, 0.00027552482788451016, 0.00040567759424448013, 0.0005358303315006196, 0.0006659831269644201, 0.0007961358642205596, 0.0009262886014766991, 0.0010564413387328386, 0.001186594134196639, 0.0013167469296604395, 0.001446899608708918, 0.0015770524041727185, 0.001707205199636519, 0.0018373578786849976, 0.001967510674148798, 0.0020976634696125984, 0.002227816265076399, 0.0023579690605401993, 0.002488121623173356, 0.0026182744186371565, 0.002748427214100957, 0.0028785800095647573, 0.0030087328050285578, 0.003138885600492358, 0.003269038163125515, 0.0033991909585893154, 0.003529343754053116, 0.0036594965495169163, 0.0037896493449807167, 0.003919802140444517, 0.0040499549359083176, 0.004180107731372118, 0.004310260526835918, 0.004440413322299719, 0.004570565652102232, 0.004700718447566032, 0.004830871243029833, 0.004961024038493633, 0.005091176833957434, 0.005221329629421234, 0.0053514824248850346, 0.005481635220348835, 0.005611788015812635, 0.005741940811276436, 0.005872093606740236, 0.006002246402204037, 0.00613239873200655, 0.00626255152747035, 0.006392704322934151, 0.006522857118397951, 0.0066530099138617516, 0.006783162709325552, 0.006913315504789352]]}}, "shape": [128, 9216]}, "fc1.bias": {"id": "fc1.bias", "data_group_type": "PARAM", "type": "Parameter", "value": {"tensor": [-0.005479228682816029, 0.010299463756382465, -0.0027824549470096827, -0.001362683018669486, -2.6015486582764424e-05, 0.004518650937825441, 0.000790220801718533, -0.0046346005983650684, -3.459555273366277e-06, 0.0010959341889247298, 0.006440985016524792, 0.004472267348319292, 0.009663085453212261, 0.007738834246993065, -0.001501928549259901, -0.004170284140855074, 0.007645146921277046, 0.00833286251872778, -0.005766202695667744, -0.0030720310751348734, -0.01013393048197031, 0.0029573021456599236, 0.002899530343711376, -0.002856678329408169, 0.004126253537833691, -0.0025268406607210636, -0.006094035692512989, -0.008514026179909706, 0.007539754267781973, 0.0015763017581775784, -0.009674686938524246, 0.011183773167431355, 0.0007788045331835747, -0.003582374658435583, 0.0028184535913169384, -0.009946194477379322, -0.00018909372738562524, -0.0022408755030483007, -0.005366195924580097, 0.010459758341312408, 0.0011763188522309065, -0.005866704974323511, -0.0080628776922822, 0.008203103207051754, -0.004942379891872406, -0.003709139535203576, 0.007461202796548605, 0.009161888621747494, 0.0042472900822758675, -0.0011176010593771935, 0.003966865595430136, 0.0015548693481832743, 0.009032036177814007, -0.007524508982896805, 0.002287528710439801, -0.0002695379080250859, -0.00825841911137104, 0.0084456168115139, 0.0007398923044092953, 0.0007077970658428967, -0.0001021591669996269, 0.0018015468958765268, -0.005473308730870485, 0.004819303750991821, 0.006295027211308479, -0.008226405829191208, 0.007465208414942026, 0.009594978764653206, -0.005427875090390444, 0.007944808341562748, 0.006735542323440313, 0.007227608468383551, 0.0035772472620010376, -0.00915202870965004, 0.0070028360933065414, 0.008052917197346687, 0.00017341531929560006, -0.00758897140622139, -0.0008950907504186034, -0.007669045589864254, 0.0032056591007858515, -0.0039755296893417835, 0.004036257974803448, 0.00015081521996762604, -0.008142013102769852, -0.006709209177643061, 0.009800288826227188, 0.0017144391313195229, 0.0027353381738066673, 0.00460716662928462, 0.0024681263603270054, 0.0037505312357097864, -0.0064591639675199986, 0.006939674261957407, -0.0035233411472290754, 0.0011626658961176872, -0.001857249764725566, -0.009874082170426846, -0.0009124838397838175, -0.0037341376300901175, -0.0035652269143611193, 0.006027373485267162, -0.00593906082212925, -0.0016160727245733142, -0.0005068961763754487, -0.0015772520564496517, 0.0006083528278395534, -0.0027901306748390198, -0.0031264391727745533, -0.005613080225884914, 0.006827068515121937, 0.004950788337737322, -0.008166233077645302, -0.009847866371273994, -0.002788543701171875, 0.009595298208296299, -0.003145139664411545, -0.0019686254672706127, -0.009780406020581722, 0.003624475095421076, 0.005224396008998156, 0.004493015352636576, -0.0030513314995914698, -0.007626841776072979, -0.0064531550742685795, 0.011084930039942265, -0.002862384309992194, -0.0029522490222007036], "grad": [-0.004656594712287188, 0.00544025469571352, 0.003507740795612335, -0.010972526855766773, 0.0005424101836979389, -0.0003752360353246331, -0.002366746310144663, 7.75633379817009e-05, -0.0033618947491049767, 0.0, 0.001911003259010613, -0.0005912301130592823, 0.0, -0.003347961697727442, 0.0068245637230575085, 0.0003451984084676951, 0.0003306141006760299, 0.002037166152149439, 0.004337260499596596, 0.004188655875623226, 0.0, 0.0, 0.0045581418089568615, 0.0039119720458984375, -0.00528549263253808, 0.00466363038867712, 0.002387263113632798, -0.005055424757301807, -0.0003255476476624608, -0.006294969469308853, 0.0022562036756426096, 0.0030358380172401667, -0.006249382626265287, -0.00033805915154516697, 0.0016243119025602937, 0.0, -0.0006770895561203361, 4.700286081060767e-05, -0.004969360772520304, 0.0024145902134478092, -0.0047875032760202885, 0.0010471693240106106, 0.0033684256486594677, -0.0005226446082815528, 0.001651944825425744, 0.001544533297419548, 0.0, -0.0016408441588282585, -0.00019805226475000381, -0.002286934992298484, 0.0, 0.0011557808611541986, -0.006688665132969618, 0.006120681297034025, -0.0003561011981219053, 0.004232263658195734, -0.0015734060434624553, 0.0, -0.0007537083001807332, -0.005827387794852257, -0.002726953011006117, -0.007696780376136303, 0.005230130162090063, 0.0007725207833573222, 0.0, 0.0005076895467936993, 0.003159123472869396, -0.0009338014060631394, 0.0, 0.003147792536765337, -0.0007892551366239786, 0.0, -0.006327665410935879, 0.0, -0.0034051856491714716, 0.0, -0.0023373300209641457, 0.005895327311009169, 0.002756275236606598, 0.0009805213194340467, -0.0014971924247220159, 0.006303387228399515, 0.0024093531537801027, -0.002345440909266472, 0.0019227873999625444, -0.0017224692273885012, 0.0, 0.0001359564485028386, 0.0, 0.004572875797748566, -0.006552757695317268, -0.006109277717769146, 0.0, -0.004010390490293503, 0.0, 0.0023764665238559246, 0.0002310445997864008, 0.0, -0.0036888900212943554, 8.63510649651289e-06, 0.0007748664356768131, -0.0052253007888793945, 0.0, 0.0053566028364002705, 0.0, 0.005166415590792894, -0.004853264428675175, 0.0025764249730855227, 0.0, -0.004415477626025677, 0.0018868658225983381, -0.0014971945201978087, 0.0, 0.0009531519608572125, 0.0, 0.0008534665685147047, 0.002901486586779356, -0.004562972113490105, 0.004204427823424339, -0.0017159110866487026, -0.0037982214707881212, -0.0003798744874075055, -0.0016751433722674847, 0.003908602055162191, 0.006051050033420324, 0.004470861051231623, 0.0, 0.0004933727323077619], "first_delta": [-5.04213385283947e-05, 0.0020191166549921036, 0.0007152401376515627, 0.00035680795554071665, 0.00011949560575885698, 0.0005624284967780113, 8.887529838830233e-05, -0.00018231477588415146, 0.0020875621121376753, -0.0001996621722355485, -0.00011327210813760757, 0.0003709285520017147, -0.0004332149401307106, 0.0006573442369699478, 0.0013228387106209993, 0.0007476690225303173, 0.0007392456755042076, 0.0003177495673298836, 0.00033386098220944405, 0.002077877288684249, -0.00013046525418758392, -0.0003965855576097965, 0.0007386582437902689, 0.0014478648081421852, -0.00019170064479112625, 0.0013935258612036705, 0.0015956005081534386, -0.0005326587706804276, 0.0005959756672382355, 0.000238403445109725, 0.00045068562030792236, 0.00092366524040699, 0.00021119939628988504, -0.00017415499314665794, 9.978748857975006e-05, -0.00037838704884052277, 0.0010639610700309277, 0.0011476932559162378, 0.0008375411853194237, 0.0006911018863320351, 0.0005929594626650214, 0.0014601401053369045, 0.0009405529126524925, 0.0007106773555278778, 0.00033561140298843384, 0.001431009965017438, -0.00015336507931351662, 0.0016598617658019066, -0.00037649692967534065, 0.0007585458224639297, -0.0002906098961830139, 0.00044886290561407804, 0.00040466710925102234, 0.0010975077748298645, 0.0009131151018664241, 0.0004843143397010863, 0.0006203670054674149, -0.0003162156790494919, 0.0004923517117276788, 0.0005122814327478409, 0.0006385167362168431, 0.000291330274194479, 0.0009924271143972874, 0.0008482038974761963, -5.925167351961136e-05, 0.001063699834048748, 0.0008091800846159458, 0.0008790027350187302, -0.00045695947483181953, 0.000281384214758873, 0.00018262863159179688, -0.00024478277191519737, -5.785748362541199e-05, -3.7715770304203033e-05, 9.720306843519211e-05, -0.0005244547501206398, -0.00011064924183301628, 0.0019176667556166649, 0.0015482030576094985, 0.0006423182785511017, 0.0003088249359279871, 0.000599465798586607, 0.0011988519690930843, 0.0006452556699514389, 0.0007000155746936798, 0.0004932982847094536, 3.218650817871094e-05, 0.0010592015460133553, -0.00028572697192430496, -3.1552743166685104e-05, 3.844220191240311e-05, -0.0005851492751389742, -0.00015398813411593437, 0.0004949988797307014, -0.00010838848538696766, 0.0004632450873032212, 0.0012313537299633026, -0.00046552624553442, 0.0007988612051121891, 0.0005727971438318491, 0.0006204845849424601, 0.0005616955459117889, -0.0004214649088680744, 0.0003907064674422145, -0.00036270631244406104, 0.001640512142330408, -0.00022664119023829699, 0.0012704520486295223, -0.00018856837414205074, 0.0003939368762075901, 0.0005427557043731213, 9.626662358641624e-05, -0.00015573110431432724, -0.00012840144336223602, -2.8312206268310547e-05, 0.0004819165915250778, -0.00016736099496483803, -0.0003256842028349638, 0.0005370816215872765, 0.0004497305490076542, 0.0014551980420947075, 0.00034834397956728935, 0.0015477135311812162, 0.0006341105327010155, 0.0009321337565779686, 0.0007522124797105789, -6.654136814177036e-05, 0.0007955185137689114], "tensor__stats": {"min": -0.01013393048197031, "max": 0.011183773167431355, "mean": 0.00018160053878091276, "variance": 3.3883708965731785e-05, "nobs": 128, "histogram_bins": 11, "histogram": [[10, 10, 11, 18, 11, 15, 11, 14, 8, 12, 8], [-0.01013393048197031, -0.00819595716893673, -0.006257984321564436, -0.0043200114741921425, -0.0023820381611585617, -0.0004440651973709464, 0.0014939078828319907, 0.003431880846619606, 0.005369854159653187, 0.00730782700702548, 0.009245799854397774, 0.011183773167431355]]}, "grad__stats": {"min": -0.010972526855766773, "max": 0.0068245637230575085, "mean": -3.281133831478655e-05, "variance": 1.1242834261793178e-05, "nobs": 128, "histogram_bins": 11, "histogram": [[1, 0, 6, 10, 7, 12, 43, 16, 14, 11, 8], [-0.010972526855766773, -0.009354609996080399, -0.007736692205071449, -0.006118774879723787, -0.004500857554376125, -0.0028829402290284634, -0.0012650229036808014, 0.0003528944216668606, 0.0019708117470145226, 0.0035887290723621845, 0.0052066463977098465, 0.0068245637230575085]]}, "first_delta__stats": {"min": -0.0005851492751389742, "max": 0.0020875621121376753, "mean": 0.00046860877773724496, "variance": 3.894605242749094e-07, "nobs": 128, "histogram_bins": 11, "histogram": [[11, 20, 14, 12, 23, 19, 10, 5, 8, 2, 4], [-0.0005851492751389742, -0.000342175510013476, -9.920175216393545e-05, 0.0001437720056856051, 0.0003867457853630185, 0.0006297195213846862, 0.0008726933156140149, 0.0011156670516356826, 0.0013586408458650112, 0.0016016146400943398, 0.0018445883179083467, 0.0020875621121376753]]}}, "shape": [128]}, "fc2.weight": {"id": "fc2.weight", "data_group_type": "PARAM", "type": "Parameter", "value": {"tensor": "NOT SERIALIZED, Too large 1280", "grad": "NOT SERIALIZED, Too large 1280", "first_delta": "NOT SERIALIZED, Too large 1280", "tensor__stats": {"min": -0.101625956594944, "max": 0.0920068696141243, "mean": -0.0017204690957441926, "variance": 0.002864433452486992, "nobs": 1280, "histogram_bins": 35, "histogram": [[7, 18, 35, 39, 43, 41, 34, 38, 31, 44, 38, 41, 39, 47, 24, 36, 44, 40, 49, 34, 33, 33, 41, 39, 24, 44, 47, 38, 32, 38, 40, 44, 37, 44, 24], [-0.101625956594944, -0.09609358757734299, -0.09056122601032257, -0.08502885699272156, -0.07949648797512054, -0.07396412640810013, -0.06843175739049911, -0.0628993883728981, -0.05736702308058739, -0.05183465778827667, -0.04630229249596596, -0.04076992720365524, -0.03523755818605423, -0.029705192893743515, -0.02417282573878765, -0.018640460446476936, -0.013108093291521072, -0.007575726602226496, -0.0020433601457625628, 0.0034890063107013702, 0.00902137253433466, 0.014553738757967949, 0.020086105912923813, 0.025618471205234528, 0.03115083836019039, 0.036683205515146255, 0.04221557080745697, 0.047747936099767685, 0.0532803051173687, 0.05881267040967941, 0.06434503942728043, 0.06987740099430084, 0.07540977001190186, 0.08094213902950287, 0.08647450059652328, 0.0920068696141243]]}, "grad__stats": {"min": -0.2544994652271271, "max": 0.16776610910892487, "mean": 2.607703164514419e-09, "variance": 0.002820352790877223, "nobs": 1280, "histogram_bins": 35, "histogram": [[2, 2, 3, 5, 3, 3, 7, 6, 3, 9, 7, 13, 9, 13, 25, 22, 30, 25, 30, 72, 99, 386, 141, 120, 85, 63, 39, 19, 14, 8, 8, 7, 0, 1, 1], [-0.2544994652271271, -0.24243474006652832, -0.23037000000476837, -0.21830527484416962, -0.20624054968357086, -0.1941758096218109, -0.18211108446121216, -0.1700463443994522, -0.15798161923885345, -0.1459168940782547, -0.13385215401649475, -0.121787428855896, -0.10972269624471664, -0.09765796363353729, -0.08559323847293854, -0.07352850586175919, -0.061463773250579834, -0.04939904436469078, -0.03733431175351143, -0.025269582867622375, -0.013204851187765598, -0.0011401206720620394, 0.010924610309302807, 0.022989340126514435, 0.03505407273769379, 0.04711880162358284, 0.05918353423476219, 0.07124826312065125, 0.0833129957318306, 0.09537772834300995, 0.1074424535036087, 0.11950718611478806, 0.1315719187259674, 0.14363664388656616, 0.1557013839483261, 0.16776610910892487]]}, "first_delta__stats": {"min": -0.022724267095327377, "max": 0.0065288543701171875, "mean": -0.0013242695713415742, "variance": 1.4610642210755032e-05, "nobs": 1280, "histogram_bins": 35, "histogram": [[1, 0, 1, 1, 0, 0, 5, 1, 2, 4, 3, 2, 6, 10, 12, 13, 20, 15, 23, 27, 39, 34, 43, 59, 67, 107, 155, 289, 107, 94, 71, 40, 17, 8, 4], [-0.022724267095327377, -0.02188846282660961, -0.021052660420536995, -0.02021685615181923, -0.019381053745746613, -0.018545249477028847, -0.01770944707095623, -0.016873642802238464, -0.0160378385335207, -0.015202036127448082, -0.01436623279005289, -0.013530428521335125, -0.012694625183939934, -0.011858821846544743, -0.011023018509149551, -0.01018721517175436, -0.009351411834359169, -0.008515608496963978, -0.007679804693907499, -0.006844001356512308, -0.00600819755345583, -0.005172394216060638, -0.004336590878665447, -0.0035007873084396124, -0.0026649837382137775, -0.0018291802844032645, -0.0009933768305927515, -0.0001575733913341537, 0.0006782300770282745, 0.0015140335308387876, 0.0023498369846493006, 0.0031856405548751354, 0.004021443892270327, 0.004857247229665518, 0.005693051032721996, 0.0065288543701171875]]}}, "shape": [10, 128]}, "fc2.bias": {"id": "fc2.bias", "data_group_type": "PARAM", "type": "Parameter", "value": {"tensor": [0.04943714290857315, 0.04057595878839493, -0.023372365161776543, 0.024752331897616386, 0.0573679655790329, 0.03558511286973953, -0.04514116048812866, 0.022630561143159866, -0.07975153625011444, 0.028076021000742912], "grad": [-0.03756646066904068, -0.0005964189767837524, 0.003481249324977398, -0.004656823351979256, 0.03191373497247696, 0.010966882109642029, 0.0212966650724411, 0.011800633743405342, -0.030830180272459984, -0.0058092642575502396], "first_delta": [-0.001419518142938614, 0.0005614683032035828, 0.00017029419541358948, -0.0005806311964988708, -0.0006126537919044495, 0.0001911073923110962, -0.001224428415298462, 0.0012615304440259933, -0.0007157251238822937, 0.0002863071858882904], "tensor__stats": {"min": -0.07975153625011444, "max": 0.0573679655790329, "mean": 0.011016003787517548, "variance": 0.0020324094220995903, "nobs": 10, "histogram_bins": 5, "histogram": [[1, 1, 1, 3, 4], [-0.07975153625011444, -0.05232763662934303, -0.024903735145926476, 0.00252016494050622, 0.02994406595826149, 0.0573679655790329]]}, "grad__stats": {"min": -0.03756646066904068, "max": 0.03191373497247696, "mean": 1.4901161415892261e-09, "variance": 0.00046235654735937715, "nobs": 10, "histogram_bins": 5, "histogram": [[2, 0, 4, 2, 2], [-0.03756646066904068, -0.023670421913266182, -0.00977438222616911, 0.004121656529605389, 0.01801769621670246, 0.03191373497247696]]}, "first_delta__stats": {"min": -0.001419518142938614, "max": 0.0012615304440259933, "mean": -0.00020822491205763072, "variance": 7.066244620546058e-07, "nobs": 10, "histogram_bins": 5, "histogram": [[2, 3, 1, 3, 1], [-0.001419518142938614, -0.0008833084139041603, -0.0003470987139735371, 0.00018911101506091654, 0.0007253207149915397, 0.0012615304440259933]]}}, "shape": [10]}, "input.1": {"id": "input.1", "data_group_type": "INPUT", "type": "Tensor", "value": {"tensor": "NOT SERIALIZED, Too large 7840", "tensor__stats": {"min": -0.4242129623889923, "max": 2.821486711502075, "mean": -0.04373291879892349, "variance": 0.8838825821876526, "nobs": 7840, "histogram_bins": 88, "histogram": [[6430, 22, 21, 27, 10, 15, 20, 15, 20, 6, 9, 9, 8, 9, 19, 8, 9, 13, 9, 23, 6, 7, 4, 7, 8, 4, 11, 6, 13, 9, 8, 27, 8, 9, 10, 6, 8, 7, 8, 4, 5, 6, 10, 10, 10, 11, 12, 2, 14, 9, 8, 4, 13, 14, 17, 5, 10, 15, 10, 9, 9, 14, 8, 10, 6, 6, 6, 14, 11, 10, 16, 11, 9, 16, 21, 18, 12, 13, 9, 17, 21, 11, 12, 16, 22, 22, 118, 316], [-0.4242129623889923, -0.387330025434494, -0.35044705867767334, -0.31356412172317505, -0.27668115496635437, -0.23979820311069489, -0.2029152512550354, -0.16603229939937592, -0.12914936244487762, -0.09226640313863754, -0.055383455008268356, -0.01850050315260887, 0.018382446840405464, 0.0552653968334198, 0.09214834868907928, 0.12903130054473877, 0.16591425240039825, 0.20279720425605774, 0.23968015611171722, 0.2765631079673767, 0.313446044921875, 0.3503290116786957, 0.38721194863319397, 0.42409491539001465, 0.46097785234451294, 0.4978608191013336, 0.5347437858581543, 0.5716267228126526, 0.6085096597671509, 0.6453925967216492, 0.6822755336761475, 0.7191585302352905, 0.7560414671897888, 0.7929244041442871, 0.8298073410987854, 0.8666903376579285, 0.9035732746124268, 0.940456211566925, 0.9773391485214233, 1.0142221450805664, 1.05110502243042, 1.087988018989563, 1.124871015548706, 1.1617538928985596, 1.1986368894577026, 1.2355197668075562, 1.2724027633666992, 1.3092857599258423, 1.3461686372756958, 1.3830516338348389, 1.419934630393982, 1.4568175077438354, 1.4937005043029785, 1.530583381652832, 1.567466378211975, 1.6043493747711182, 1.6412322521209717, 1.6781152486801147, 1.7149982452392578, 1.7518811225891113, 1.7887641191482544, 1.825646996498108, 1.862529993057251, 1.899412989616394, 1.9362958669662476, 1.9731788635253906, 2.010061740875244, 2.0469448566436768, 2.0838277339935303, 2.120710611343384, 2.1575934886932373, 2.19447660446167, 2.2313594818115234, 2.268242359161377, 2.3051254749298096, 2.342008352279663, 2.3788912296295166, 2.415774345397949, 2.4526572227478027, 2.4895401000976562, 2.526423215866089, 2.5633060932159424, 2.600188970565796, 2.6370718479156494, 2.673954963684082, 2.7108378410339355, 2.747720718383789, 2.7846038341522217, 2.821486711502075]]}}, "shape": [10, 1, 28, 28]}, "output.1": {"id": "output.1", "data_group_type": "OUTPUT", "type": "Tensor", "value": {"tensor": [[-1.1564362049102783, -7.9004011154174805, -3.3528783321380615, -5.815593719482422, -1.407658338546753, -2.7632055282592773, -2.8935718536376953, -3.5664217472076416, -2.9970171451568604, -1.5814127922058105], [-1.4890961647033691, -4.087035655975342, -3.822923183441162, -2.672297954559326, -3.7601470947265625, -1.9746356010437012, -2.806393623352051, -4.37202787399292, -1.0073570013046265, -2.7127459049224854], [-4.806166172027588, -4.138856410980225, -3.562112808227539, -3.7064974308013916, -1.8951722383499146, -2.4595932960510254, -4.355069637298584, -2.450730323791504, -1.6188023090362549, -0.9416921734809875], [-5.496485233306885, -3.0896971225738525, -5.039762020111084, -4.551064491271973, -5.140059947967529, -3.219904661178589, -6.529149532318115, -5.70756721496582, -0.14869555830955505, -3.8668901920318604], [-6.623574256896973, -0.1360580325126648, -4.801258087158203, -3.3997251987457275, -5.339066982269287, -4.589787006378174, -3.809380531311035, -4.6675310134887695, -3.7293245792388916, -4.286306858062744], [-4.961086273193359, -4.535201072692871, -5.029306411743164, -0.31091809272766113, -5.43160343170166, -1.875, -7.937005043029785, -6.134634017944336, -2.589799165725708, -4.871386528015137], [-3.570371150970459, -7.564838886260986, -0.12308947741985321, -3.135220766067505, -5.286501884460449, -4.801520824432373, -4.473404407501221, -7.8924880027771, -4.035794734954834, -6.978875637054443], [-3.5476131439208984, -3.6769461631774902, -3.2673661708831787, -3.4028780460357666, -2.3080496788024902, -0.536010205745697, -3.4414291381835938, -3.9418134689331055, -2.6270179748535156, -2.714108467102051], [-6.613856315612793, -5.443351745605469, -8.221343994140625, -6.188881874084473, -5.119263172149658, -6.0447187423706055, -8.199726104736328, -0.05510672554373741, -5.053480625152588, -3.48624324798584], [-5.247829437255859, -6.3428473472595215, -5.151919364929199, -6.674709796905518, -0.2544790804386139, -3.7651734352111816, -4.095761299133301, -4.621298313140869, -3.8530168533325195, -1.9679104089736938]], "tensor__stats": {"min": -8.221343994140625, "max": -0.05510672554373741, "mean": -3.936474323272705, "variance": 3.788530111312866, "nobs": 100, "histogram_bins": 10, "histogram": [[6, 4, 6, 14, 14, 22, 13, 7, 7, 7], [-8.221343994140625, -7.404720306396484, -6.588096618652344, -5.771472930908203, -4.9548492431640625, -4.138225555419922, -3.321601629257202, -2.5049779415130615, -1.6883541345596313, -0.8717304468154907, -0.05510672554373741]]}}, "shape": [10, 10]}}, "graph": {"nodes": [{"data": {"id": "input.1", "label": "INPUT", "component_ids": ["input.1"]}}, {"data": {"id": 9, "label": "Conv", "component_ids": ["conv1.weight", "conv1.bias"]}}, {"data": {"id": 10, "label": "Relu", "component_ids": []}}, {"data": {"id": 11, "label": "Conv", "component_ids": ["conv2.weight", "conv2.bias"]}}, {"data": {"id": 12, "label": "Relu", "component_ids": []}}, {"data": {"id": 13, "label": "MaxPool", "component_ids": []}}, {"data": {"id": 14, "label": "Flatten", "component_ids": []}}, {"data": {"id": 15, "label": "Gemm", "component_ids": ["fc1.weight", "fc1.bias"]}}, {"data": {"id": 16, "label": "Relu", "component_ids": []}}, {"data": {"id": 17, "label": "Gemm", "component_ids": ["fc2.weight", "fc2.bias"]}}, {"data": {"id": 18, "label": "LogSoftmax", "component_ids": []}}, {"data": {"id": "output.1", "label": "OUTPUT", "component_ids": ["output.1"]}}], "edges": [{"data": {"id": "input.1_9", "source": "input.1", "target": 9}}, {"data": {"id": "9_10", "source": 9, "target": 10}}, {"data": {"id": "10_11", "source": 10, "target": 11}}, {"data": {"id": "11_12", "source": 11, "target": 12}}, {"data": {"id": "12_13", "source": 12, "target": 13}}, {"data": {"id": "13_14", "source": 13, "target": 14}}, {"data": {"id": "14_15", "source": 14, "target": 15}}, {"data": {"id": "15_16", "source": 15, "target": 16}}, {"data": {"id": "16_17", "source": 16, "target": 17}}, {"data": {"id": "17_18", "source": 17, "target": 18}}, {"data": {"id": "18_output.1", "source": "18", "target": "output.1"}}]}}