{"id": "0_1800", "meta": {"time": 1638574548.2759354, "refresh_model_graph": false}, "step_info": {"epoch": 0, "iter": 1800}, "additional_info": {"pred": {"type": "Tensor", "value": [[4], [8], [7], [3], [3], [5], [7], [3], [4], [9]]}, "loss": {"type": "Tensor", "value": 0.776134192943573}, "class_label": {"type": "Tensor", "value": [4, 3, 7, 2, 3, 5, 7, 3, 4, 9]}, "test_acc": {"type": "float", "value": 92.04}}, "graph_id": [0, 0], "data": {"conv1.weight": {"id": "conv1.weight", "data_group_type": "PARAM", "type": "Parameter", "value": {"tensor": "NOT SERIALIZED, Too large 288", "grad": "NOT SERIALIZED, Too large 288", "first_delta": "NOT SERIALIZED, Too large 288", "tensor__stats": {"min": -0.3346048593521118, "max": 0.3701505959033966, "mean": 0.01881503500044346, "variance": 0.04077612981200218, "nobs": 288, "histogram_bins": 16, "histogram": [[24, 13, 23, 12, 14, 19, 12, 19, 16, 27, 15, 27, 23, 11, 18, 15], [-0.3346048593521118, -0.2905576527118683, -0.24651043117046356, -0.20246320962905884, -0.1584160029888153, -0.11436878144741058, -0.07032155990600586, -0.02627434767782688, 0.017772868275642395, 0.06182008236646652, 0.10586729645729065, 0.14991451799869537, 0.1939617395401001, 0.23800894618034363, 0.28205615282058716, 0.3261033892631531, 0.3701505959033966]]}, "grad__stats": {"min": -0.06900801509618759, "max": 0.11921653896570206, "mean": 0.00616881437599659, "variance": 0.000860427098814398, "nobs": 288, "histogram_bins": 16, "histogram": [[4, 5, 11, 16, 16, 92, 66, 23, 19, 14, 8, 4, 2, 1, 4, 3], [-0.06900801509618759, -0.05724398046731949, -0.045479945838451385, -0.03371591120958328, -0.02195187658071518, -0.010187841951847076, 0.0015761926770210266, 0.01334022730588913, 0.025104261934757233, 0.036868296563625336, 0.04863233119249344, 0.06039636582136154, 0.07216040045022964, 0.08392443507909775, 0.09568846970796585, 0.10745250433683395, 0.11921653896570206]]}, "first_delta__stats": {"min": -0.013588249683380127, "max": 0.06137716770172119, "mean": 0.01632050983607769, "variance": 0.0003124005743302405, "nobs": 288, "histogram_bins": 16, "histogram": [[5, 42, 27, 22, 23, 20, 28, 21, 23, 22, 20, 11, 11, 5, 6, 2], [-0.013588249683380127, -0.008902911096811295, -0.004217572510242462, 0.00046776607632637024, 0.005153104662895203, 0.009838443249464035, 0.014523781836032867, 0.0192091204226017, 0.023894459009170532, 0.028579797595739365, 0.0332651361823082, 0.03795047476887703, 0.04263581335544586, 0.047321151942014694, 0.05200649052858353, 0.05669182911515236, 0.06137716770172119]]}}, "shape": [32, 1, 3, 3]}, "conv1.bias": {"id": "conv1.bias", "data_group_type": "PARAM", "type": "Parameter", "value": {"tensor": [0.05957522615790367, 0.34783583879470825, -0.016828516498208046, -0.14413923025131226, -0.27940964698791504, 0.001194358104839921, 0.13641898334026337, 0.030098164454102516, 0.09600277990102768, 0.12848660349845886, 0.19786657392978668, 0.31344518065452576, 0.0614628903567791, -0.22696223855018616, 0.04059045389294624, -0.10541769862174988, 0.20082060992717743, 0.12902076542377472, 0.11834193766117096, 0.1593390703201294, -0.24529200792312622, -0.08967824280261993, 0.2244998812675476, -0.15090875327587128, 0.12108489125967026, 0.26877450942993164, 0.28428006172180176, -0.24237151443958282, 0.160913348197937, -0.006348490249365568, 0.11625682562589645, 0.319131076335907], "grad": [-0.00359210348688066, -0.011167018674314022, -0.016454406082630157, 0.0045605809427797794, 0.0035458076745271683, -0.010906074196100235, 0.013396631926298141, -0.006944380700588226, -0.004936113487929106, 0.0016816849820315838, -0.015133789740502834, 0.007205603178590536, 0.0003782107087317854, 0.0016735699027776718, -0.0019500949420034885, -0.004335697274655104, -0.03890266269445419, -0.0020662560127675533, 0.0014609777135774493, -0.01960037648677826, 0.006818413268774748, 0.013953364454209805, -0.0117031866684556, 0.00014782033395022154, -0.004536558408290148, 0.015454504638910294, -0.0013336035190150142, 0.00463063595816493, -0.0034738308750092983, -0.006539964582771063, 0.003912221174687147, -0.012299306690692902], "first_delta": [0.023487117141485214, 0.020500987768173218, 0.006134491413831711, 0.02950805425643921, 0.037547528743743896, -0.0014545915182679892, 0.014159880578517914, 0.021306917071342468, 0.00543145090341568, 0.008866116404533386, 0.009430333971977234, 0.025286048650741577, 0.0355026051402092, 0.014796271920204163, 0.00875791534781456, 0.00960250198841095, 0.009801670908927917, 0.00906168669462204, 0.002888694405555725, 0.006633952260017395, 0.04315847158432007, 0.025995738804340363, 0.012767165899276733, 0.006791472434997559, 0.006186403334140778, 0.034156471490859985, 0.035604000091552734, 0.007515087723731995, 0.01840054988861084, 0.007083973381668329, 0.01874139904975891, 0.018486499786376953], "tensor__stats": {"min": -0.27940964698791504, "max": 0.34783583879470825, "mean": 0.0627526193857193, "variance": 0.030769504606723785, "nobs": 32, "histogram_bins": 5, "histogram": [[4, 4, 8, 10, 6], [-0.27940964698791504, -0.15396055579185486, -0.028511453419923782, 0.0969376415014267, 0.22238674759864807, 0.34783583879470825]]}, "grad__stats": {"min": -0.03890266269445419, "max": 0.015454504638910294, "mean": -0.0030329811852425337, "variance": 0.00011657788854790851, "nobs": 32, "histogram_bins": 5, "histogram": [[1, 1, 8, 16, 6], [-0.03890266269445419, -0.028031229972839355, -0.01715979538857937, -0.006288362201303244, 0.004583070985972881, 0.015454504638910294]]}, "first_delta__stats": {"min": -0.0014545915182679892, "max": 0.04315847158432007, "mean": 0.016629276797175407, "variance": 0.0001345570053672418, "nobs": 32, "histogram_bins": 5, "histogram": [[8, 10, 7, 3, 4], [-0.0014545915182679892, 0.007468021009117365, 0.016390632838010788, 0.025313246995210648, 0.03423585742712021, 0.04315847158432007]]}}, "shape": [32]}, "conv2.weight": {"id": "conv2.weight", "data_group_type": "PARAM", "type": "Parameter", "value": {"tensor": "NOT SERIALIZED, Too large 18432", "grad": "NOT SERIALIZED, Too large 18432", "first_delta": "NOT SERIALIZED, Too large 18432", "tensor__stats": {"min": -0.0706089586019516, "max": 0.08677622675895691, "mean": 0.0044757891446352005, "variance": 0.0012342749396339059, "nobs": 18432, "histogram_bins": 100, "histogram": [[1, 1, 5, 6, 14, 33, 45, 91, 118, 129, 160, 185, 174, 220, 209, 219, 202, 228, 197, 253, 247, 250, 237, 230, 232, 260, 250, 260, 225, 248, 240, 243, 225, 226, 255, 237, 215, 232, 262, 259, 240, 271, 243, 243, 261, 235, 235, 244, 236, 225, 214, 238, 265, 237, 259, 231, 231, 266, 240, 266, 243, 243, 276, 245, 230, 246, 250, 268, 227, 230, 239, 230, 265, 269, 226, 232, 227, 246, 231, 233, 185, 211, 182, 165, 112, 114, 85, 59, 61, 57, 39, 35, 28, 15, 15, 4, 2, 2, 0, 2], [-0.0706089586019516, -0.069035105407238, -0.06746125221252441, -0.06588740646839142, -0.06431355327367783, -0.06273970007896423, -0.06116584688425064, -0.05959199741482735, -0.058018144220113754, -0.05644429102540016, -0.05487044155597687, -0.053296588361263275, -0.05172273516654968, -0.05014888569712639, -0.048575032502412796, -0.047001179307699203, -0.04542732983827591, -0.04385347664356232, -0.042279623448848724, -0.04070577397942543, -0.03913192078471184, -0.037558071315288544, -0.03598421812057495, -0.03441036492586136, -0.032836515456438065, -0.03126266226172447, -0.02968881092965603, -0.028114957734942436, -0.026541106402873993, -0.02496725507080555, -0.023393403738737106, -0.021819550544023514, -0.02024569921195507, -0.018671847879886627, -0.017097994685173035, -0.015524143353104591, -0.013950292021036148, -0.01237643975764513, -0.010802588425576687, -0.009228736162185669, -0.007654884364455938, -0.006081032566726208, -0.004507180768996477, -0.0029333289712667465, -0.001359477057121694, 0.00021437481336761266, 0.001788226654753089, 0.0033620784524828196, 0.004935930483043194, 0.006509782280772924, 0.008083634078502655, 0.009657486341893673, 0.011231337673962116, 0.012805189937353134, 0.014379041269421577, 0.01595289260149002, 0.017526745796203613, 0.019100597128272057, 0.0206744484603405, 0.022248301655054092, 0.023822152987122536, 0.02539600431919098, 0.026969855651259422, 0.028543708845973015, 0.030117560178041458, 0.03169141337275505, 0.033265262842178345, 0.03483911603689194, 0.03641296923160553, 0.037986818701028824, 0.039560671895742416, 0.04113452136516571, 0.0427083745598793, 0.044282227754592896, 0.04585607722401619, 0.04742993041872978, 0.049003783613443375, 0.05057763308286667, 0.05215148627758026, 0.053725339472293854, 0.05529918894171715, 0.05687304213643074, 0.058446891605854034, 0.06002074480056763, 0.06159459799528122, 0.06316845118999481, 0.0647423043847084, 0.0663161501288414, 0.06789000332355499, 0.06946385651826859, 0.07103770971298218, 0.07261156290769577, 0.07418540865182877, 0.07575926184654236, 0.07733311504125595, 0.07890696823596954, 0.08048082143068314, 0.08205467462539673, 0.08362852036952972, 0.08520237356424332, 0.08677622675895691]]}, "grad__stats": {"min": -0.051681242883205414, "max": 0.0495138056576252, "mean": -0.00012286537094041705, "variance": 5.7928911701310426e-05, "nobs": 18432, "histogram_bins": 100, "histogram": [[1, 1, 0, 0, 0, 0, 0, 3, 0, 0, 2, 2, 2, 3, 4, 3, 8, 5, 5, 3, 8, 12, 5, 14, 12, 17, 17, 16, 24, 15, 30, 46, 35, 43, 59, 73, 105, 118, 146, 173, 207, 273, 296, 396, 453, 572, 687, 854, 1148, 1619, 2272, 2103, 1303, 948, 733, 562, 464, 403, 311, 263, 206, 184, 160, 140, 114, 97, 86, 71, 56, 55, 41, 48, 39, 39, 33, 24, 25, 18, 28, 12, 11, 13, 13, 12, 2, 4, 3, 1, 2, 4, 5, 1, 2, 2, 0, 1, 0, 1, 0, 2], [-0.051681242883205414, -0.050669293850660324, -0.049657341092824936, -0.048645392060279846, -0.04763343930244446, -0.04662149026989937, -0.04560954123735428, -0.04459758847951889, -0.0435856394469738, -0.04257368668913841, -0.04156173765659332, -0.04054978862404823, -0.039537835866212845, -0.038525886833667755, -0.037513937801122665, -0.03650198504328728, -0.03549003601074219, -0.0344780832529068, -0.03346613422036171, -0.03245418518781662, -0.03144223242998123, -0.030430283397436142, -0.029418332502245903, -0.028406381607055664, -0.027394430711865425, -0.026382479816675186, -0.025370530784130096, -0.024358579888939857, -0.02334662899374962, -0.02233467809855938, -0.02132272906601429, -0.02031077817082405, -0.019298827275633812, -0.018286876380443573, -0.017274925485253334, -0.016262976452708244, -0.015251025557518005, -0.014239074662327766, -0.013227124698460102, -0.012215173803269863, -0.011203223839402199, -0.01019127294421196, -0.009179322049021721, -0.008167372085154057, -0.007155421655625105, -0.006143471226096153, -0.005131520330905914, -0.004119569901376963, -0.003107619471848011, -0.0020956690423190594, -0.0010837186127901077, -7.176812505349517e-05, 0.0009401823626831174, 0.001952132792212069, 0.0029640833381563425, 0.003976034000515938, 0.0049879844300448895, 0.005999934859573841, 0.007011885289102793, 0.008023835718631744, 0.009035786613821983, 0.010047736577689648, 0.011059687472879887, 0.012071637436747551, 0.01308358833193779, 0.014095538295805454, 0.015107489190995693, 0.016119439154863358, 0.017131390050053596, 0.018143340945243835, 0.019155291840434074, 0.020167240872979164, 0.021179191768169403, 0.022191142663359642, 0.02320309355854988, 0.02421504259109497, 0.02522699348628521, 0.02623894438147545, 0.027250895276665688, 0.028262846171855927, 0.029274795204401016, 0.030286746099591255, 0.031298696994781494, 0.032310646027326584, 0.03332259878516197, 0.03433454781770706, 0.03534650057554245, 0.03635844960808754, 0.03737039864063263, 0.03838235139846802, 0.03939430043101311, 0.0404062494635582, 0.041418202221393585, 0.042430151253938675, 0.04344210401177406, 0.04445405304431915, 0.04546600207686424, 0.04647795483469963, 0.04748990386724472, 0.04850185662508011, 0.0495138056576252]]}, "first_delta__stats": {"min": -0.013781435787677765, "max": 0.033895108848810196, "mean": 0.004377266392111778, "variance": 4.6617940824944526e-05, "nobs": 18432, "histogram_bins": 100, "histogram": [[2, 2, 3, 3, 4, 6, 12, 13, 30, 22, 39, 56, 78, 83, 121, 107, 155, 173, 171, 251, 266, 310, 360, 371, 421, 505, 522, 619, 702, 699, 653, 591, 539, 496, 477, 507, 479, 465, 431, 420, 450, 454, 405, 358, 339, 327, 302, 319, 287, 296, 264, 259, 248, 212, 204, 211, 184, 180, 197, 158, 158, 147, 149, 126, 142, 101, 107, 104, 67, 63, 56, 51, 47, 43, 33, 30, 39, 23, 18, 16, 11, 12, 10, 12, 11, 5, 3, 2, 10, 6, 4, 2, 2, 1, 0, 1, 0, 0, 1, 1], [-0.013781435787677765, -0.013304670341312885, -0.012827904894948006, -0.012351139448583126, -0.011874374002218246, -0.011397608555853367, -0.010920843109488487, -0.010444077663123608, -0.009967312216758728, -0.009490546770393848, -0.009013781324028969, -0.00853701587766409, -0.00806025043129921, -0.00758348498493433, -0.00710671953856945, -0.006629954092204571, -0.006153188645839691, -0.0056764231994748116, -0.005199657753109932, -0.004722892306745052, -0.004246126860380173, -0.003769361414015293, -0.0032925959676504135, -0.002815830521285534, -0.0023390650749206543, -0.0018622996285557747, -0.001385534182190895, -0.0009087687358260155, -0.00043200328946113586, 4.4762156903743744e-05, 0.0005215276032686234, 0.000998293049633503, 0.0014750584959983826, 0.0019518239423632622, 0.002428589388728142, 0.0029053548350930214, 0.003382120281457901, 0.0038588857278227806, 0.00433565117418766, 0.00481241662055254, 0.005289182066917419, 0.005765947513282299, 0.006242712959647179, 0.006719478406012058, 0.007196243852376938, 0.0076730092987418175, 0.008149774745106697, 0.008626540191471577, 0.009103305637836456, 0.009580071084201336, 0.010056836530566216, 0.010533601976931095, 0.011010367423295975, 0.011487132869660854, 0.011963898316025734, 0.012440663762390614, 0.012917429208755493, 0.013394194655120373, 0.013870960101485252, 0.014347725547850132, 0.014824490994215012, 0.015301256440579891, 0.01577802188694477, 0.016254786401987076, 0.01673155277967453, 0.017208319157361984, 0.01768508367240429, 0.018161848187446594, 0.01863861456513405, 0.019115380942821503, 0.019592145457863808, 0.020068909972906113, 0.020545676350593567, 0.02102244272828102, 0.021499207243323326, 0.02197597175836563, 0.022452738136053085, 0.02292950451374054, 0.023406269028782845, 0.02388303354382515, 0.024359799921512604, 0.024836566299200058, 0.025313330814242363, 0.025790095329284668, 0.026266861706972122, 0.026743628084659576, 0.02722039259970188, 0.027697157114744186, 0.02817392349243164, 0.028650689870119095, 0.0291274543851614, 0.029604218900203705, 0.03008098527789116, 0.030557751655578613, 0.03103451617062092, 0.03151128068566322, 0.03198804706335068, 0.03246481344103813, 0.032941579818725586, 0.03341834247112274, 0.033895108848810196]]}}, "shape": [64, 32, 3, 3]}, "conv2.bias": {"id": "conv2.bias", "data_group_type": "PARAM", "type": "Parameter", "value": {"tensor": [-0.03393354266881943, 0.059167277067899704, -0.005057332571595907, 0.005148169584572315, -0.004382158163934946, -0.00648283027112484, 0.03283563256263733, 0.010978487320244312, -0.021225865930318832, 0.0106110954657197, 0.005278325639665127, -0.03419752046465874, 0.027316812425851822, 0.04358667507767677, -0.02097458206117153, -0.0438409261405468, 0.002672286471351981, -0.045872271060943604, 0.05879957228899002, -0.04434898495674133, 0.050275541841983795, -0.025656629353761673, -0.0019765456672757864, -0.0012949369847774506, 0.04588588699698448, 0.037914127111434937, -0.05016835406422615, -0.03628066927194595, 0.05996062979102135, 0.07143452018499374, 0.009206554852426052, -0.022516146302223206, 0.009463902562856674, 0.05349866300821304, -0.042353685945272446, -0.033851947635412216, 0.005363574251532555, 0.030612021684646606, 0.036977872252464294, -0.01844022609293461, -0.020185839384794235, 0.05895631015300751, -0.039000801742076874, -0.02102835662662983, 0.047018907964229584, 0.04054230451583862, -0.024266317486763, 0.012405160814523697, -0.02741001732647419, -0.010121702216565609, 0.04799959063529968, -0.039832085371017456, 0.019374476745724678, -0.03407653793692589, 0.010250010527670383, 0.05576063320040703, 0.06191866472363472, 0.055498480796813965, -0.03350936621427536, -0.013853396289050579, -0.006505090277642012, 0.043901216238737106, 0.024393809959292412, 0.05304741859436035], "grad": [-0.007353336084634066, -0.006674840580672026, 0.004405982792377472, -0.011235925368964672, -0.026834506541490555, 0.003549617249518633, -0.0050203572027385235, -0.016626503318548203, 0.005446664057672024, -0.0007889808621257544, 0.0013830476673319936, -0.014079688116908073, -0.004684686195105314, -0.003313027787953615, -0.014772804453969002, 0.004222361370921135, -0.01306832954287529, 0.005171214696019888, -0.012957239523530006, -0.0037480820901691914, 0.014617257751524448, -0.027829675003886223, -0.01843947358429432, -0.003689014818519354, 0.019984310492873192, -0.003659552428871393, -0.008929811418056488, -0.0003698908258229494, -0.006386902648955584, 0.0024234603624790907, -0.011303169652819633, -0.004913099575787783, 0.0019965781830251217, 0.008767920546233654, 0.005921718664467335, 0.003277746494859457, -0.013702454045414925, 0.0005564088351093233, -0.0039080409333109856, -0.010731042362749577, 0.007684419862926006, 0.009289955720305443, 0.0034392608795315027, -0.004471879452466965, -0.0005765656242147088, -0.0016657214146107435, 0.005839449819177389, 0.014646551571786404, -0.025656551122665405, 0.004005336202681065, 0.0041425819508731365, 0.0048743803054094315, -0.02178202010691166, -0.02359365113079548, -0.007859519682824612, -0.013778137043118477, -0.005466303788125515, -0.007702268194407225, 0.005677511915564537, -0.019172033295035362, 0.0030117002315819263, 0.002462039003148675, 0.010067316703498363, -0.006325331516563892], "first_delta": [0.007881302386522293, 0.0034537315368652344, 0.0008165473118424416, 0.002688500564545393, 0.003233489580452442, 0.005290526896715164, 0.01678127981722355, 0.0032082591205835342, 0.007081454619765282, 0.00814084056764841, 0.0031594138126820326, 0.0063454508781433105, 0.0025518368929624557, 0.008902143687009811, 0.0014596302062273026, 0.010311052203178406, 0.0022885885555297136, 0.01248820498585701, 0.0023808665573596954, 0.006101101636886597, 0.007712647318840027, 0.003054928034543991, 0.0010588422883301973, 0.003812102135270834, 0.006700977683067322, 0.005062218755483627, 0.003361795097589493, 0.007168065756559372, 0.0051447562873363495, 0.01527043804526329, 0.010705907829105854, 0.004959089681506157, 0.005267797503620386, 0.0031773410737514496, 0.008464917540550232, 0.008494433015584946, 0.00295192445628345, 0.0064331479370594025, 0.010623736307024956, 0.005256917327642441, 0.0041076187044382095, 0.0025541186332702637, 0.01313730701804161, 0.01385560818016529, 0.004424896091222763, 0.009327813982963562, 0.017670493572950363, 0.005846078507602215, 0.003976600244641304, 0.008984644897282124, 0.005445420742034912, 0.010937530547380447, 0.0016233418136835098, 0.0006957501173019409, 0.00621357187628746, 0.007076054811477661, 0.006686568260192871, 0.0104241743683815, 0.006149757653474808, 0.005590532906353474, 0.009052835404872894, 0.007630381733179092, 0.0017109308391809464, 0.016780897974967957], "tensor__stats": {"min": -0.05016835406422615, "max": 0.07143452018499374, "mean": 0.006803279742598534, "variance": 0.0012583310017362237, "nobs": 64, "histogram_bins": 8, "histogram": [[8, 13, 6, 11, 4, 6, 10, 6], [-0.05016835406422615, -0.034967996180057526, -0.019767634570598602, -0.00456727622076869, 0.010633083060383797, 0.02583344280719757, 0.041033800691366196, 0.05623416230082512, 0.07143452018499374]]}, "grad__stats": {"min": -0.027829675003886223, "max": 0.019984310492873192, "mean": -0.0036907128524035215, "variance": 0.00010851187107618898, "nobs": 64, "histogram_bins": 8, "histogram": [[4, 4, 9, 12, 12, 17, 3, 3], [-0.027829675003886223, -0.021852927282452583, -0.015876177698373795, -0.009899429976940155, -0.0039226822555065155, 0.0020540659315884113, 0.008030814118683338, 0.014007562771439552, 0.019984310492873192]]}, "first_delta__stats": {"min": 0.0006957501173019409, "max": 0.017670493572950363, "mean": 0.00654920469969511, "variance": 1.6614205378573388e-05, "nobs": 64, "histogram_bins": 8, "histogram": [[11, 12, 16, 12, 6, 2, 2, 3], [0.0006957501173019409, 0.0028175930492579937, 0.0049394359812140465, 0.007061278913170099, 0.009183121845126152, 0.011304965242743492, 0.013426807709038258, 0.015548650175333023, 0.017670493572950363]]}}, "shape": [64]}, "fc1.weight": {"id": "fc1.weight", "data_group_type": "PARAM", "type": "Parameter", "value": {"tensor": "NOT SERIALIZED, Too large 1179648", "grad": "NOT SERIALIZED, Too large 1179648", "first_delta": "NOT SERIALIZED, Too large 1179648", "tensor__stats": {"min": -0.01954183354973793, "max": 0.019750824198126793, "mean": 0.00025306662428192794, "variance": 3.818126060650684e-05, "nobs": 1179648, "histogram_bins": 100, "histogram": [[1, 1, 0, 2, 1, 8, 4, 6, 11, 22, 36, 67, 111, 159, 248, 362, 536, 828, 1132, 1829, 2836, 4008, 6380, 11291, 14674, 16470, 18134, 19096, 20019, 20823, 21375, 21644, 21676, 21946, 21989, 22242, 22269, 22370, 22450, 22178, 22474, 22322, 22097, 22315, 22142, 22384, 22183, 22205, 22120, 22406, 22237, 22099, 22230, 22110, 22304, 22025, 22167, 22359, 22150, 22270, 22317, 22228, 22602, 21934, 22229, 21994, 21950, 22083, 21896, 21701, 21492, 20924, 20293, 19595, 18077, 15996, 10938, 7728, 5718, 4239, 3030, 2128, 1479, 1053, 783, 480, 329, 210, 143, 97, 58, 37, 30, 8, 4, 7, 1, 0, 3, 1], [-0.01954183354973793, -0.01914890669286251, -0.01875597983598709, -0.01836305297911167, -0.0179701279848814, -0.01757720112800598, -0.017184274271130562, -0.016791347414255142, -0.016398420557379723, -0.016005493700504303, -0.015612567774951458, -0.015219640918076038, -0.014826714992523193, -0.014433788135647774, -0.014040861278772354, -0.013647934421896935, -0.01325500849634409, -0.01286208163946867, -0.01246915478259325, -0.012076228857040405, -0.011683302000164986, -0.011290375143289566, -0.010897449217736721, -0.010504522360861301, -0.010111595503985882, -0.009718669578433037, -0.009325742721557617, -0.008932815864682198, -0.008539889007806778, -0.008146963082253933, -0.007754036225378513, -0.007361109834164381, -0.006968182977288961, -0.006575256586074829, -0.0061823297291994095, -0.005789403337985277, -0.005396476946771145, -0.005003550089895725, -0.004610623698681593, -0.004217696841806173, -0.003824770450592041, -0.003431843826547265, -0.003038917202502489, -0.0026459908112883568, -0.002253064187243581, -0.0018601375631988049, -0.001467210939154029, -0.0010742844315245748, -0.0006813578074797988, -0.00028843124164268374, 0.0001044953241944313, 0.0004974218900315464, 0.0008903484558686614, 0.0012832750799134374, 0.0016762015875428915, 0.0020691282115876675, 0.0024620548356324434, 0.0028549814596772194, 0.0032479078508913517, 0.0036408344749361277, 0.004033761098980904, 0.004426687490195036, 0.0048196143470704556, 0.005212540738284588, 0.0056054675951600075, 0.00599839398637414, 0.006391320377588272, 0.006784247234463692, 0.007177173625677824, 0.007570100482553244, 0.007963026873767376, 0.008355953730642796, 0.00874887965619564, 0.00914180651307106, 0.00953473336994648, 0.0099276602268219, 0.010320586152374744, 0.010713513009250164, 0.011106439866125584, 0.011499365791678429, 0.011892292648553848, 0.012285219505429268, 0.012678145430982113, 0.013071072287857533, 0.013463999144732952, 0.013856925070285797, 0.014249851927161217, 0.014642778784036636, 0.015035705640912056, 0.015428631566464901, 0.015821557492017746, 0.016214484348893166, 0.016607411205768585, 0.017000338062644005, 0.017393264919519424, 0.017786191776394844, 0.018179118633270264, 0.018572043627500534, 0.018964970484375954, 0.019357897341251373, 0.019750824198126793]]}, "grad__stats": {"min": -0.13452193140983582, "max": 0.14164219796657562, "mean": 0.00012041548325214535, "variance": 0.000145546582643874, "nobs": 1179648, "histogram_bins": 100, "histogram": [[3, 3, 2, 8, 8, 8, 12, 16, 14, 31, 31, 36, 47, 46, 62, 82, 99, 123, 151, 184, 228, 243, 283, 360, 389, 461, 509, 663, 828, 1040, 1216, 1363, 1659, 1990, 2389, 2900, 3326, 4085, 4857, 5795, 7017, 8631, 10541, 13446, 17741, 24281, 39736, 86258, 613685, 131962, 54937, 29914, 20189, 15287, 11880, 9845, 7942, 6606, 5290, 4618, 3803, 3173, 2721, 2387, 1926, 1695, 1357, 1187, 956, 831, 720, 578, 524, 437, 377, 292, 234, 203, 159, 141, 145, 100, 84, 59, 39, 33, 26, 26, 16, 15, 10, 11, 7, 5, 3, 6, 4, 0, 1, 1], [-0.13452193140983582, -0.13176028430461884, -0.12899865210056305, -0.12623700499534607, -0.12347536534070969, -0.1207137256860733, -0.11795208603143692, -0.11519043892621994, -0.11242879927158356, -0.10966715961694717, -0.10690551996231079, -0.10414388030767441, -0.10138223320245743, -0.09862059354782104, -0.09585895389318466, -0.09309731423854828, -0.0903356671333313, -0.08757402747869492, -0.08481238782405853, -0.08205074816942215, -0.07928910851478577, -0.07652746140956879, -0.0737658217549324, -0.07100418210029602, -0.06824254244565964, -0.06548090279102325, -0.06271925568580627, -0.05995761603116989, -0.05719597637653351, -0.05443433299660683, -0.051672693341970444, -0.04891104996204376, -0.04614941030740738, -0.0433877669274807, -0.040626127272844315, -0.03786448761820793, -0.03510284423828125, -0.03234120458364487, -0.029579563066363335, -0.026817921549081802, -0.02405628003180027, -0.021294638514518738, -0.018532996997237206, -0.015771355479955673, -0.013009714893996716, -0.010248073376715183, -0.007486431859433651, -0.004724790807813406, -0.0019631492905318737, 0.0007984919939190149, 0.0035601332783699036, 0.006321774795651436, 0.009083416312932968, 0.011845056898891926, 0.014606698416173458, 0.017368339002132416, 0.020129980519413948, 0.02289162203669548, 0.025653263553977013, 0.028414905071258545, 0.031176546588540077, 0.03393818810582161, 0.03669982776045799, 0.039461471140384674, 0.04222311079502106, 0.04498475417494774, 0.04774639382958412, 0.050508033484220505, 0.053269676864147186, 0.05603131651878357, 0.05879295989871025, 0.061554599553346634, 0.06431624293327332, 0.0670778825879097, 0.06983952224254608, 0.07260116189718246, 0.07536280900239944, 0.07812444865703583, 0.08088608831167221, 0.0836477279663086, 0.08640937507152557, 0.08917101472616196, 0.09193265438079834, 0.09469429403543472, 0.0974559336900711, 0.10021758079528809, 0.10297922044992447, 0.10574086010456085, 0.10850249975919724, 0.11126414686441422, 0.1140257865190506, 0.11678742617368698, 0.11954906582832336, 0.12231070548295975, 0.12507234513759613, 0.1278339922428131, 0.1305956393480301, 0.13335727155208588, 0.13611891865730286, 0.13888055086135864, 0.14164219796657562]]}, "first_delta__stats": {"min": -0.013055599294602871, "max": 0.012043222784996033, "mean": 0.0002552004880271852, "variance": 2.003956524276873e-06, "nobs": 1179648, "histogram_bins": 100, "histogram": [[1, 1, 1, 1, 0, 0, 0, 1, 1, 1, 0, 0, 2, 3, 2, 8, 11, 10, 21, 11, 15, 27, 35, 38, 57, 93, 115, 159, 207, 312, 394, 567, 721, 987, 1256, 1665, 2087, 2597, 3490, 4425, 5723, 7569, 9824, 12707, 16015, 20510, 26431, 34304, 43639, 57150, 83723, 205638, 140198, 86701, 72929, 61550, 52066, 42838, 35491, 28833, 23491, 19045, 15213, 12191, 9731, 7859, 6381, 5054, 3886, 3148, 2491, 1816, 1555, 1184, 860, 667, 545, 364, 280, 201, 159, 114, 74, 58, 36, 27, 20, 11, 4, 5, 8, 1, 4, 0, 1, 0, 0, 1, 1, 1], [-0.013055599294602871, -0.012804610654711723, -0.01255362294614315, -0.012302634306252003, -0.01205164659768343, -0.011800657957792282, -0.011549670249223709, -0.011298681609332561, -0.011047693900763988, -0.010796705260872841, -0.010545717552304268, -0.01029472891241312, -0.010043740272521973, -0.0097927525639534, -0.009541763924062252, -0.009290776215493679, -0.009039787575602531, -0.008788799867033958, -0.00853781122714281, -0.008286823518574238, -0.00803583487868309, -0.00778484670445323, -0.00753385853022337, -0.007282870355993509, -0.007031882181763649, -0.006780893541872501, -0.006529905367642641, -0.006278917193412781, -0.0060279290191829205, -0.00577694084495306, -0.0055259526707232, -0.0052749644964933395, -0.005023976322263479, -0.004772988148033619, -0.004521999973803759, -0.004271011799573898, -0.004020023159682751, -0.003769035218283534, -0.00351804681122303, -0.00326705863699317, -0.0030160704627633095, -0.002765082288533449, -0.002514094114303589, -0.002263105707243085, -0.0020121175330132246, -0.0017611293587833643, -0.001510141184553504, -0.0012591528939083219, -0.0010081647196784616, -0.0007571764872409403, -0.0005061882548034191, -0.0002552000223658979, -4.21181312049157e-06, 0.0002467764134053141, 0.0004977646167390049, 0.0007487528491765261, 0.0009997410234063864, 0.0012507293140515685, 0.0015017174882814288, 0.001752705778926611, 0.0020036939531564713, 0.0022546821273863316, 0.002505670301616192, 0.002756658708676696, 0.003007646882906556, 0.0032586350571364164, 0.0035096232313662767, 0.003760611405596137, 0.004011599812656641, 0.004262587986886501, 0.004513576161116362, 0.004764564335346222, 0.005015552509576082, 0.0052665406838059425, 0.005517528858035803, 0.005768517032265663, 0.006019505672156811, 0.006270493846386671, 0.006521482020616531, 0.006772470194846392, 0.007023458369076252, 0.007274446543306112, 0.007525434717535973, 0.007776422891765833, 0.008027411065995693, 0.00827839970588684, 0.008529387414455414, 0.008780376054346561, 0.009031363762915134, 0.009282352402806282, 0.009533340111374855, 0.009784328751266003, 0.01003531739115715, 0.010286305099725723, 0.010537293739616871, 0.010788281448185444, 0.011039270088076591, 0.011290257796645164, 0.011541246436536312, 0.011792234145104885, 0.012043222784996033]]}}, "shape": [128, 9216]}, "fc1.bias": {"id": "fc1.bias", "data_group_type": "PARAM", "type": "Parameter", "value": {"tensor": [-0.005609347019344568, 0.010698525235056877, -0.0026257203426212072, -0.0022351304069161415, -0.00010780134471133351, 0.004685770254582167, -0.00011472031474113464, -0.005828993860632181, 0.0011826513800770044, 0.001057776273228228, 0.005959334783256054, 0.003789191134274006, 0.009599506855010986, 0.007694724481552839, -0.001178308972157538, -0.0038622438441962004, 0.008011804893612862, 0.008222857490181923, -0.0059630912728607655, -0.002083122031763196, -0.009670753963291645, 0.0029561782721430063, 0.0025614381302148104, -0.001163446344435215, 0.0028392630629241467, -0.0011542915599420667, -0.005027974024415016, -0.009577516466379166, 0.007910466752946377, 0.0002380867808824405, -0.009037327952682972, 0.012213831767439842, -0.00020191364455968142, -0.004578320309519768, 0.00206308183260262, -0.01000717468559742, 0.00018492818344384432, -0.0009351324988529086, -0.005316231399774551, 0.011019918136298656, 0.0018762443214654922, -0.00578347546979785, -0.007326496299356222, 0.008622688241302967, -0.004716172814369202, -0.0032690917141735554, 0.007962639443576336, 0.010868208482861519, 0.0045738075859844685, -0.0012382157146930695, 0.003965457435697317, 0.0018324151169508696, 0.008596351370215416, -0.007037447299808264, 0.0015485852491110563, -0.00039045893936417997, -0.00906569603830576, 0.008881336078047752, 0.0011383469682186842, 0.00016850241809152067, 0.00016230088658630848, 0.0008594467071816325, -0.0049889227375388145, 0.0044977436773478985, 0.0062648821622133255, -0.009003087878227234, 0.007870692759752274, 0.01037417072802782, -0.005468711722642183, 0.008273661136627197, 0.006595052313059568, 0.00725550064817071, 0.0024436810053884983, -0.00858174916356802, 0.006322345230728388, 0.007568782195448875, -0.0011212874669581652, -0.007135870400816202, 0.00027079752180725336, -0.00788536760956049, 0.0030678233597427607, -0.0037408359348773956, 0.005324096418917179, 0.00026760424952954054, -0.00762535072863102, -0.006024166941642761, 0.009747023694217205, 0.0019898468162864447, 0.002753846114501357, 0.005113010760396719, 0.002176453359425068, 0.003144132439047098, -0.00634743832051754, 0.007346454542130232, -0.003528736298903823, 0.002255326369777322, -0.0014236436691135168, -0.009917916730046272, -0.0016714794328436255, -0.0038374823052436113, -0.0023787172976881266, 0.006411639507859945, -0.005978480912744999, -0.001555151306092739, -0.0006375139346346259, -0.00021922390442341566, -0.0007231835625134408, -0.0019139643991366029, -0.00314309005625546, -0.0058498382568359375, 0.00693040806800127, 0.0046050273813307285, -0.008213919587433338, -0.010304671712219715, -0.0028544082306325436, 0.0104959886521101, -0.0034280961845070124, -0.002544461051002145, -0.010482007637619972, 0.004709063097834587, 0.005853225011378527, 0.004322068300098181, -0.00217440421693027, -0.007498735096305609, -0.005865639541298151, 0.011686987243592739, -0.002886733040213585, -0.002842407440766692], "grad": [0.0020961055997759104, -0.00022012233966961503, -0.004255050327628851, 0.008121563121676445, -0.014380204491317272, -0.014716604724526405, -0.0076401797123253345, 0.0003634345775935799, 0.016982335597276688, 0.0, -0.0020364015363156796, 0.00829064380377531, 0.0, -0.005421730689704418, -0.005084853619337082, -0.0052387346513569355, 0.007951208390295506, 0.0013208657037466764, -0.008118384517729282, -0.004015086684376001, -0.0005065821460448205, 0.0, 0.005270645022392273, -0.004479014314711094, 0.01580001413822174, -0.013743657618761063, 0.005743138492107391, 0.012797447852790356, 0.006937680300325155, 0.0002808384597301483, -0.016297034919261932, 0.015247154049575329, 0.002433176850900054, -0.011438000947237015, -0.0053098490461707115, 0.0, -0.0017264343332499266, -0.005989140830934048, -0.005098762921988964, 0.005690305959433317, 0.003929757513105869, -0.0002523057337384671, 0.007324176840484142, 0.00771036371588707, 0.017181862145662308, 0.010359218344092369, 0.005324658006429672, 0.01356317289173603, -0.01062422152608633, 0.005330516956746578, 0.0, -0.0191094558686018, 0.02175194025039673, -0.00015026345499791205, -0.00961550697684288, -0.011013100855052471, -0.0060744318179786205, 0.0005968923214823008, 0.009143883362412453, 0.010207001119852066, 0.0049010394141077995, -0.00463696476072073, -0.004500566516071558, 0.008552665822207928, 0.0, -0.01546698808670044, 0.0001294304383918643, 0.0022150916047394276, 0.0, -0.015214686281979084, -0.009217305108904839, 0.0013858559541404247, 0.006345667410641909, -0.001073429943062365, 0.00652582012116909, -0.0055176387540996075, 0.003939400892704725, 0.001179890357889235, 0.013550152070820332, 0.005179358180612326, 0.002113043563440442, -0.005010159220546484, 0.0025427634827792645, -0.005682023707777262, 0.0014335939195007086, 0.01797519251704216, 0.00039379188092425466, 0.013796371407806873, 0.0, -0.02152390591800213, -0.0018625768134370446, 0.006905436050146818, 0.0, 0.007900679484009743, 0.0, 0.007141868583858013, 0.012417635880410671, 0.0, -0.007656491827219725, -0.010104703716933727, -0.011458644643425941, 0.0004932025913149118, 0.0, -0.010640216991305351, 0.0, -0.00701908627524972, 0.003428420517593622, -0.010627114214003086, 0.0, 0.016071943566203117, -0.017125634476542473, 0.006737818010151386, 0.0, -0.0008208213839679956, 0.0, -0.0037263210397213697, -0.008846736513078213, 0.015057111158967018, -0.000892548356205225, -0.005679618567228317, 0.012650675140321255, -0.016110187396407127, -0.003377060405910015, -0.01127149723470211, -0.0014590081991627812, -0.001883748802356422, 0.011442428454756737, 0.000547564122825861], "first_delta": [-0.00018053967505693436, 0.0024181781336665154, 0.0008719747420400381, -0.0005156394327059388, 3.770974581129849e-05, 0.0007295478135347366, -0.0008160658180713654, -0.0013767080381512642, 0.0032736731227487326, -0.00023782008793205023, -0.0005949223414063454, -0.00031214766204357147, -0.0004967935383319855, 0.0006132344715297222, 0.0016464582877233624, 0.0010557093191891909, 0.001105903647840023, 0.0002077445387840271, 0.00013697240501642227, 0.0030667863320559263, 0.00033271126449108124, -0.00039770943112671375, 0.0004005660302937031, 0.003141096793115139, -0.0014786911197006702, 0.0027660750783979893, 0.0026616621762514114, -0.001596149057149887, 0.0009666881524026394, -0.0010998115176334977, 0.0010880446061491966, 0.0019537238404154778, -0.000769518781453371, -0.0011701006442308426, -0.0006555842701345682, -0.00043936725705862045, 0.0014379830099642277, 0.002453436143696308, 0.0008875057101249695, 0.001251261681318283, 0.0012928849318996072, 0.001543369609862566, 0.0016769343055784702, 0.0011302623897790909, 0.0005618184804916382, 0.0018710577860474586, 0.0003480715677142143, 0.0033661816269159317, -4.9979425966739655e-05, 0.0006379311671480536, -0.0002920180559158325, 0.0007264086743816733, -3.101769834756851e-05, 0.0015845694579184055, 0.0001741716405376792, 0.00036339330836199224, -0.00018690992146730423, 0.00011950358748435974, 0.0008908063755370677, -2.7013244107365608e-05, 0.0009029767825268209, -0.0006507699145004153, 0.0014768131077289581, 0.0005266438238322735, -8.939672261476517e-05, 0.000287017785012722, 0.0012146644294261932, 0.0016581946983933449, -0.000497796107083559, 0.0006102370098233223, 4.213862121105194e-05, -0.0002168905921280384, -0.0011914237402379513, 0.0005325637757778168, -0.0005832877941429615, -0.0010085897520184517, -0.0014053520280867815, 0.0023707677610218525, 0.002714091446250677, 0.00042599625885486603, 0.00017098919488489628, 0.0008341595530509949, 0.0024866904132068157, 0.0007620446849614382, 0.001216677948832512, 0.001178340520709753, -2.1078623831272125e-05, 0.001334609230980277, -0.0002672190312296152, 0.0004742913879454136, -0.0002532307989895344, -0.0011915480718016624, -4.22624871134758e-05, 0.0009017791599035263, -0.00011378363706171513, 0.0015559055609628558, 0.0016649598255753517, -0.0005093608051538467, 3.986561205238104e-05, 0.0004694524686783552, 0.0018069942016154528, 0.0009459615685045719, -0.0004608849994838238, 0.0004516278859227896, -0.0004933240707032382, 0.0029985401779413223, -0.001558177638798952, 0.002146618440747261, -0.00020521925762295723, 0.000157178845256567, 0.0006460952572524548, -0.0002494943328201771, -0.00020341761410236359, -0.0005852067843079567, -9.417673572897911e-05, 0.0013826070353388786, -0.0004503175150603056, -0.0009015197865664959, -0.0001645199954509735, 0.0015343185514211655, 0.0020840270444750786, 0.00017739692702889442, 0.002424640813842416, 0.0007622172124683857, 0.001519649289548397, 0.0013542696833610535, -9.089009836316109e-05, 0.0009053600952029228], "tensor__stats": {"min": -0.010482007637619972, "max": 0.012213831767439842, "mean": 0.0002732866851147264, "variance": 3.4666823921725154e-05, "nobs": 128, "histogram_bins": 11, "histogram": [[10, 7, 15, 14, 17, 15, 12, 11, 13, 7, 7], [-0.010482007637619972, -0.008418749086558819, -0.00635549146682024, -0.004292233381420374, -0.002228975063189864, -0.00016571699234191328, 0.001897541107609868, 0.003960799425840378, 0.006024057511240244, 0.00808731559664011, 0.010150573216378689, 0.012213831767439842]]}, "grad__stats": {"min": -0.02152390591800213, "max": 0.02175194025039673, "mean": 7.611799810547382e-05, "variance": 7.439011824317276e-05, "nobs": 128, "histogram_bins": 11, "histogram": [[2, 8, 8, 9, 19, 36, 15, 14, 9, 6, 2], [-0.02152390591800213, -0.017589738592505455, -0.013655570335686207, -0.009721402078866959, -0.005787234753370285, -0.0018530667293816805, 0.0020811010617762804, 0.006015269085764885, 0.009949436411261559, 0.013883604668080807, 0.017817772924900055, 0.02175194025039673]]}, "first_delta__stats": {"min": -0.001596149057149887, "max": 0.0033661816269159317, "mean": 0.0005602948367595673, "variance": 1.2935191762153408e-06, "nobs": 128, "histogram_bins": 11, "histogram": [[8, 5, 19, 26, 16, 16, 15, 8, 6, 4, 5], [-0.001596149057149887, -0.001145028043538332, -0.0006939070881344378, -0.00024278614728245884, 0.00020833482267335057, 0.0006594557780772448, 0.0011105767916887999, 0.0015616976888850331, 0.00201281881891191, 0.0024639395996928215, 0.0029150606133043766, 0.0033661816269159317]]}}, "shape": [128]}, "fc2.weight": {"id": "fc2.weight", "data_group_type": "PARAM", "type": "Parameter", "value": {"tensor": "NOT SERIALIZED, Too large 1280", "grad": "NOT SERIALIZED, Too large 1280", "first_delta": "NOT SERIALIZED, Too large 1280", "tensor__stats": {"min": -0.10639068484306335, "max": 0.09350711852312088, "mean": -0.002685153391212225, "variance": 0.002960338955745101, "nobs": 1280, "histogram_bins": 35, "histogram": [[8, 12, 25, 47, 37, 40, 37, 38, 33, 36, 45, 37, 47, 43, 33, 32, 42, 47, 45, 31, 35, 36, 40, 38, 30, 43, 47, 38, 31, 44, 40, 46, 38, 40, 19], [-0.10639068484306335, -0.10067931562662125, -0.09496795386075974, -0.08925658464431763, -0.08354522287845612, -0.07783385366201401, -0.0721224918961525, -0.06641112267971039, -0.06069975718855858, -0.05498839169740677, -0.04927702620625496, -0.04356566071510315, -0.03785429522395134, -0.03214292973279953, -0.02643156424164772, -0.02072019688785076, -0.015008832328021526, -0.009297465905547142, -0.0035861001815646887, 0.0021252655424177647, 0.007836631499230862, 0.013547996990382671, 0.019259363412857056, 0.024970728904008865, 0.030682094395160675, 0.036393459886312485, 0.042104825377464294, 0.047816190868616104, 0.053527556359767914, 0.059238921850919724, 0.06495028734207153, 0.07066165655851364, 0.07637301832437515, 0.08208438754081726, 0.08779574930667877, 0.09350711852312088]]}, "grad__stats": {"min": -1.1348787546157837, "max": 0.7399335503578186, "mean": 5.9604645663569045e-09, "variance": 0.0477597676217556, "nobs": 1280, "histogram_bins": 35, "histogram": [[2, 4, 1, 3, 2, 2, 5, 3, 2, 10, 7, 5, 12, 12, 20, 22, 16, 29, 52, 50, 42, 566, 131, 72, 63, 51, 31, 29, 10, 7, 9, 4, 3, 2, 1], [-1.1348787546157837, -1.081312656402588, -1.0277466773986816, -0.9741805791854858, -0.92061448097229, -0.867048442363739, -0.8134823441505432, -0.7599163055419922, -0.7063502073287964, -0.6527841687202454, -0.5992180705070496, -0.5456520318984985, -0.4920859634876251, -0.4385198950767517, -0.3849538266658783, -0.3313877582550049, -0.27782168984413147, -0.22425563633441925, -0.17068956792354584, -0.11712350696325302, -0.06355743855237961, -0.009991372004151344, 0.04357469454407692, 0.09714075922966003, 0.15070682764053345, 0.20427289605140686, 0.2578389644622803, 0.3114050328731537, 0.3649711012840271, 0.4185371696949005, 0.47210320830345154, 0.525669276714325, 0.5792353749275208, 0.6328014135360718, 0.6863675117492676, 0.7399335503578186]]}, "first_delta__stats": {"min": -0.028872091323137283, "max": 0.008913867175579071, "mean": -0.0022889538668096066, "variance": 2.461304575263057e-05, "nobs": 1280, "histogram_bins": 35, "histogram": [[1, 1, 0, 0, 0, 2, 2, 4, 2, 4, 1, 6, 8, 14, 18, 15, 18, 26, 33, 39, 28, 54, 66, 83, 107, 117, 267, 122, 101, 70, 38, 18, 9, 3, 3], [-0.028872091323137283, -0.027792492881417274, -0.026712894439697266, -0.025633294135332108, -0.0245536956936121, -0.02347409725189209, -0.02239449881017208, -0.021314900368452072, -0.020235300064086914, -0.019155701622366905, -0.018076103180646896, -0.016996504738926888, -0.01591690629720688, -0.014837306924164295, -0.013757707551121712, -0.012678109109401703, -0.011598510667681694, -0.01051891129463911, -0.009439312852919102, -0.008359713479876518, -0.007280115038156509, -0.006200516130775213, -0.005120917223393917, -0.004041318781673908, -0.002961719874292612, -0.001882120966911316, -0.0008025221759453416, 0.00027707667322829366, 0.001356675522401929, 0.0024362741969525814, 0.0035158731043338776, 0.004595472011715174, 0.00567507091909647, 0.006754669360816479, 0.007834268733859062, 0.008913867175579071]]}}, "shape": [10, 128]}, "fc2.bias": {"id": "fc2.bias", "data_group_type": "PARAM", "type": "Parameter", "value": {"tensor": [0.04827136546373367, 0.04046085104346275, -0.023965077474713326, 0.023897409439086914, 0.05644751712679863, 0.03578903526067734, -0.046584200114011765, 0.02326825074851513, -0.08197833597660065, 0.02768518775701523], "grad": [0.04774182662367821, 0.009891972877085209, -0.0974486917257309, -0.07809038460254669, -0.04336642473936081, 0.012529219500720501, 0.002391185611486435, 0.030830565840005875, 0.05049889162182808, 0.06502186506986618], "first_delta": [-0.0025852955877780914, 0.0004463605582714081, -0.00042241811752319336, -0.0014355536550283432, -0.0015331022441387177, 0.00039502978324890137, -0.0026674680411815643, 0.001899220049381256, -0.0029425248503684998, -0.00010452605783939362], "tensor__stats": {"min": -0.08197833597660065, "max": 0.05644751712679863, "mean": 0.010329199954867363, "variance": 0.0020790318958461285, "nobs": 10, "histogram_bins": 5, "histogram": [[1, 1, 1, 3, 4], [-0.08197833597660065, -0.05429316684603691, -0.026607993990182877, 0.0010771758388727903, 0.028762346133589745, 0.05644751712679863]]}, "grad__stats": {"min": -0.0974486917257309, "max": 0.06502186506986618, "mean": 2.2351742678949904e-09, "variance": 0.0030825932044535875, "nobs": 10, "histogram_bins": 5, "histogram": [[2, 1, 0, 4, 3], [-0.0974486917257309, -0.06495457887649536, -0.032460469752550125, 3.364235089975409e-05, 0.032527752220630646, 0.06502186506986618]]}, "first_delta__stats": {"min": -0.0029425248503684998, "max": 0.001899220049381256, "mean": -0.000895027827937156, "variance": 2.556638719397597e-06, "nobs": 10, "histogram_bins": 5, "histogram": [[3, 2, 2, 2, 1], [-0.0029425248503684998, -0.0019741759169846773, -0.001005826867185533, -3.747791197383776e-05, 0.0009308710577897727, 0.001899220049381256]]}}, "shape": [10]}, "input.1": {"id": "input.1", "data_group_type": "INPUT", "type": "Tensor", "value": {"tensor": "NOT SERIALIZED, Too large 7840", "tensor__stats": {"min": -0.4242129623889923, "max": 2.821486711502075, "mean": -0.03672914206981659, "variance": 0.9159523844718933, "nobs": 7840, "histogram_bins": 88, "histogram": [[6426, 19, 23, 25, 24, 18, 10, 15, 23, 2, 14, 17, 9, 8, 11, 16, 13, 9, 7, 3, 10, 5, 4, 16, 10, 8, 9, 14, 3, 9, 6, 6, 13, 13, 7, 7, 12, 4, 12, 5, 17, 5, 3, 5, 10, 6, 11, 12, 5, 9, 5, 6, 9, 10, 8, 8, 10, 11, 4, 5, 16, 7, 13, 15, 13, 12, 11, 16, 5, 8, 10, 15, 12, 16, 7, 9, 10, 6, 7, 11, 16, 6, 13, 21, 14, 18, 93, 416], [-0.4242129623889923, -0.387330025434494, -0.35044705867767334, -0.31356412172317505, -0.27668115496635437, -0.23979820311069489, -0.2029152512550354, -0.16603229939937592, -0.12914936244487762, -0.09226640313863754, -0.055383455008268356, -0.01850050315260887, 0.018382446840405464, 0.0552653968334198, 0.09214834868907928, 0.12903130054473877, 0.16591425240039825, 0.20279720425605774, 0.23968015611171722, 0.2765631079673767, 0.313446044921875, 0.3503290116786957, 0.38721194863319397, 0.42409491539001465, 0.46097785234451294, 0.4978608191013336, 0.5347437858581543, 0.5716267228126526, 0.6085096597671509, 0.6453925967216492, 0.6822755336761475, 0.7191585302352905, 0.7560414671897888, 0.7929244041442871, 0.8298073410987854, 0.8666903376579285, 0.9035732746124268, 0.940456211566925, 0.9773391485214233, 1.0142221450805664, 1.05110502243042, 1.087988018989563, 1.124871015548706, 1.1617538928985596, 1.1986368894577026, 1.2355197668075562, 1.2724027633666992, 1.3092857599258423, 1.3461686372756958, 1.3830516338348389, 1.419934630393982, 1.4568175077438354, 1.4937005043029785, 1.530583381652832, 1.567466378211975, 1.6043493747711182, 1.6412322521209717, 1.6781152486801147, 1.7149982452392578, 1.7518811225891113, 1.7887641191482544, 1.825646996498108, 1.862529993057251, 1.899412989616394, 1.9362958669662476, 1.9731788635253906, 2.010061740875244, 2.0469448566436768, 2.0838277339935303, 2.120710611343384, 2.1575934886932373, 2.19447660446167, 2.2313594818115234, 2.268242359161377, 2.3051254749298096, 2.342008352279663, 2.3788912296295166, 2.415774345397949, 2.4526572227478027, 2.4895401000976562, 2.526423215866089, 2.5633060932159424, 2.600188970565796, 2.6370718479156494, 2.673954963684082, 2.7108378410339355, 2.747720718383789, 2.7846038341522217, 2.821486711502075]]}}, "shape": [10, 1, 28, 28]}, "output.1": {"id": "output.1", "data_group_type": "OUTPUT", "type": "Tensor", "value": {"tensor": [[-8.551116943359375, -15.551209449768066, -9.944990158081055, -9.633954048156738, -0.1959386169910431, -10.457493782043457, -7.203159809112549, -6.023258209228516, -8.831568717956543, -1.7470369338989258], [-4.5181756019592285, -6.906350612640381, -4.52498197555542, -1.0885018110275269, -5.7754082679748535, -5.757334232330322, -9.874720573425293, -1.98521888256073, -0.9993025064468384, -2.0500102043151855], [-13.157316207885742, -10.721634864807129, -10.240028381347656, -8.58597183227539, -7.205070495605469, -11.899286270141602, -13.858221054077148, -0.04723885655403137, -6.6893534660339355, -3.125854969024658], [-0.9035188555717468, -8.610990524291992, -4.960663795471191, -0.820473849773407, -11.516072273254395, -6.810588359832764, -9.197426795959473, -1.928649663925171, -7.363254070281982, -8.28054141998291], [-2.853701114654541, -8.330324172973633, -9.046849250793457, -0.40318912267684937, -7.884464263916016, -1.3981735706329346, -8.556617736816406, -4.690421104431152, -5.219338893890381, -4.455498695373535], [-6.205576419830322, -8.201061248779297, -8.248560905456543, -1.9658207893371582, -7.50313663482666, -0.15992170572280884, -10.809466361999512, -7.824160575866699, -5.6790947914123535, -7.123075485229492], [-6.785346984863281, -9.992483139038086, -6.150193214416504, -6.372812271118164, -8.497771263122559, -8.169179916381836, -9.676422119140625, -0.017163200303912163, -7.003767013549805, -4.552384376525879], [-8.969913482666016, -6.61454963684082, -5.9191203117370605, -0.4794468581676483, -4.469596862792969, -5.401830673217773, -10.910845756530762, -2.7170772552490234, -2.341841220855713, -1.616854190826416], [-8.41586685180664, -2.3453946113586426, -6.047650337219238, -4.355347156524658, -0.36429598927497864, -4.078914642333984, -3.7866287231445312, -6.927584171295166, -3.576932907104492, -2.0751073360443115], [-10.00682258605957, -12.830492973327637, -10.687203407287598, -12.835674285888672, -3.406773090362549, -10.849040985107422, -9.933539390563965, -4.634027481079102, -6.927213668823242, -0.04498203098773956]], "tensor__stats": {"min": -15.551209449768066, "max": -0.017163200303912163, "mean": -6.2488837242126465, "variance": 13.540850639343262, "nobs": 100, "histogram_bins": 10, "histogram": [[1, 4, 3, 13, 17, 14, 12, 12, 11, 13], [-15.551209449768066, -13.997804641723633, -12.4443998336792, -10.890995979309082, -9.337591171264648, -7.784186363220215, -6.230781555175781, -4.677377223968506, -3.1239724159240723, -1.5705678462982178, -0.017163200303912163]]}}, "shape": [10, 10]}}, "graph": {"nodes": [{"data": {"id": "input.1", "label": "INPUT", "component_ids": ["input.1"]}}, {"data": {"id": 9, "label": "Conv", "component_ids": ["conv1.weight", "conv1.bias"]}}, {"data": {"id": 10, "label": "Relu", "component_ids": []}}, {"data": {"id": 11, "label": "Conv", "component_ids": ["conv2.weight", "conv2.bias"]}}, {"data": {"id": 12, "label": "Relu", "component_ids": []}}, {"data": {"id": 13, "label": "MaxPool", "component_ids": []}}, {"data": {"id": 14, "label": "Flatten", "component_ids": []}}, {"data": {"id": 15, "label": "Gemm", "component_ids": ["fc1.weight", "fc1.bias"]}}, {"data": {"id": 16, "label": "Relu", "component_ids": []}}, {"data": {"id": 17, "label": "Gemm", "component_ids": ["fc2.weight", "fc2.bias"]}}, {"data": {"id": 18, "label": "LogSoftmax", "component_ids": []}}, {"data": {"id": "output.1", "label": "OUTPUT", "component_ids": ["output.1"]}}], "edges": [{"data": {"id": "input.1_9", "source": "input.1", "target": 9}}, {"data": {"id": "9_10", "source": 9, "target": 10}}, {"data": {"id": "10_11", "source": 10, "target": 11}}, {"data": {"id": "11_12", "source": 11, "target": 12}}, {"data": {"id": "12_13", "source": 12, "target": 13}}, {"data": {"id": "13_14", "source": 13, "target": 14}}, {"data": {"id": "14_15", "source": 14, "target": 15}}, {"data": {"id": "15_16", "source": 15, "target": 16}}, {"data": {"id": "16_17", "source": 16, "target": 17}}, {"data": {"id": "17_18", "source": 17, "target": 18}}, {"data": {"id": "18_output.1", "source": "18", "target": "output.1"}}]}}