{"id": "0_800", "meta": {"time": 1638574462.33912, "refresh_model_graph": false}, "step_info": {"epoch": 0, "iter": 800}, "additional_info": {"pred": {"type": "Tensor", "value": [[0], [6], [2], [0], [6], [9], [4], [2], [8], [0]]}, "loss": {"type": "Tensor", "value": 0.24563857913017273}, "class_label": {"type": "Tensor", "value": [0, 6, 2, 0, 6, 9, 4, 2, 8, 6]}, "test_acc": {"type": "float", "value": 89.56}}, "graph_id": [0, 0], "data": {"conv1.weight": {"id": "conv1.weight", "data_group_type": "PARAM", "type": "Parameter", "value": {"tensor": "NOT SERIALIZED, Too large 288", "grad": "NOT SERIALIZED, Too large 288", "first_delta": "NOT SERIALIZED, Too large 288", "tensor__stats": {"min": -0.33363667130470276, "max": 0.3673499822616577, "mean": 0.01706022396683693, "variance": 0.04025884345173836, "nobs": 288, "histogram_bins": 16, "histogram": [[24, 13, 24, 12, 13, 19, 12, 20, 16, 26, 15, 28, 22, 11, 19, 14], [-0.33363667130470276, -0.2898249924182892, -0.246013343334198, -0.20220167934894562, -0.15839001536369324, -0.11457834392786026, -0.07076667249202728, -0.02695501036942005, 0.016856655478477478, 0.06066831946372986, 0.10447998344898224, 0.14829164743423462, 0.1921033263206482, 0.23591499030590057, 0.27972665429115295, 0.32353830337524414, 0.3673499822616577]]}, "grad__stats": {"min": -0.0780627578496933, "max": 0.07955076545476913, "mean": -0.004206995479762554, "variance": 0.0006037088460288942, "nobs": 288, "histogram_bins": 16, "histogram": [[2, 5, 9, 7, 14, 21, 37, 87, 57, 12, 12, 11, 6, 1, 5, 2], [-0.0780627578496933, -0.06821191310882568, -0.05836106836795807, -0.048510223627090454, -0.03865937888622284, -0.028808532282710075, -0.01895768567919731, -0.009106840938329697, 0.0007440038025379181, 0.010594848543405533, 0.020445693284273148, 0.03029653988778591, 0.040147386491298676, 0.04999823123216629, 0.059849075973033905, 0.06969992071390152, 0.07955076545476913]]}, "first_delta__stats": {"min": -0.009574472904205322, "max": 0.05610853433609009, "mean": 0.014565696008503437, "variance": 0.000248933385591954, "nobs": 288, "histogram_bins": 16, "histogram": [[12, 47, 31, 25, 16, 30, 14, 24, 26, 17, 15, 7, 13, 4, 5, 2], [-0.009574472904205322, -0.005469284951686859, -0.001364096999168396, 0.002741090953350067, 0.00684627890586853, 0.010951466858386993, 0.015056654810905457, 0.01916184276342392, 0.023267030715942383, 0.027372218668460846, 0.03147740662097931, 0.03558259457349777, 0.039687782526016235, 0.0437929704785347, 0.04789815843105316, 0.052003346383571625, 0.05610853433609009]]}}, "shape": [32, 1, 3, 3]}, "conv1.bias": {"id": "conv1.bias", "data_group_type": "PARAM", "type": "Parameter", "value": {"tensor": [0.05517412722110748, 0.3457314968109131, -0.017696447670459747, -0.14871051907539368, -0.2849511504173279, 0.0007975570042617619, 0.1325361281633377, 0.027615481987595558, 0.09506416320800781, 0.12819930911064148, 0.19687007367610931, 0.30943718552589417, 0.0577680878341198, -0.23000922799110413, 0.038838353008031845, -0.10831599682569504, 0.19992899894714355, 0.12758997082710266, 0.11728274077177048, 0.1590956598520279, -0.24933503568172455, -0.09437662363052368, 0.22326593101024628, -0.15387985110282898, 0.12029024213552475, 0.265524685382843, 0.2803592085838318, -0.24430039525032043, 0.158735454082489, -0.008405434899032116, 0.11261847615242004, 0.31482091546058655], "grad": [-0.005233712960034609, -0.008421403355896473, -0.006994461175054312, -0.0036844084970653057, 0.003978201188147068, 0.011904026381671429, 0.005615842528641224, 0.005970427766442299, -0.004131496883928776, -0.004032047465443611, 0.004181030672043562, 0.0021559414453804493, 0.002310520736500621, -0.001603466342203319, 0.0028070579282939434, -0.0030485999304801226, 0.012101254425942898, 0.004723176825791597, -0.008323166519403458, -0.00023934038472361863, 0.0028359992429614067, 0.00765566760674119, -0.009227917529642582, -0.003119886387139559, -0.0018464097520336509, 0.0007434384897351265, 0.002767653437331319, 0.0005945895682089031, 0.0023170236963778734, -0.006252194754779339, -0.0024225814267992973, -0.006025147624313831], "first_delta": [0.019086018204689026, 0.018396645784378052, 0.0052665602415800095, 0.024936765432357788, 0.032006025314331055, -0.0018513926770538092, 0.010277025401592255, 0.01882423460483551, 0.004492834210395813, 0.008578822016716003, 0.008433833718299866, 0.021278053522109985, 0.031807802617549896, 0.011749282479286194, 0.007005814462900162, 0.00670420378446579, 0.008910059928894043, 0.007630892097949982, 0.001829497516155243, 0.0063905417919158936, 0.03911544382572174, 0.021297357976436615, 0.011533215641975403, 0.003820374608039856, 0.00539175420999527, 0.030906647443771362, 0.031683146953582764, 0.005586206912994385, 0.016222655773162842, 0.0050270287320017815, 0.015103049576282501, 0.014176338911056519], "tensor__stats": {"min": -0.2849511504173279, "max": 0.3457314968109131, "mean": 0.060236360877752304, "variance": 0.030907154083251953, "nobs": 32, "histogram_bins": 5, "histogram": [[4, 4, 7, 11, 6], [-0.2849511504173279, -0.15881462395191193, -0.032678090035915375, 0.09345843642950058, 0.21959497034549713, 0.3457314968109131]]}, "grad__stats": {"min": -0.009227917529642582, "max": 0.012101254425942898, "mean": -6.076224963180721e-05, "variance": 3.1102328648557886e-05, "nobs": 32, "histogram_bins": 5, "histogram": [[7, 8, 9, 6, 2], [-0.009227917529642582, -0.004962082952260971, -0.0006962487241253257, 0.0035695857368409634, 0.007835419848561287, 0.012101254425942898]]}, "first_delta__stats": {"min": -0.0018513926770538092, "max": 0.03911544382572174, "mean": 0.01411302387714386, "variance": 0.00010895871673710644, "nobs": 32, "histogram_bins": 5, "histogram": [[8, 11, 7, 2, 4], [-0.0018513926770538092, 0.006341974716633558, 0.01453534234315157, 0.022728709504008293, 0.030922075733542442, 0.03911544382572174]]}}, "shape": [32]}, "conv2.weight": {"id": "conv2.weight", "data_group_type": "PARAM", "type": "Parameter", "value": {"tensor": "NOT SERIALIZED, Too large 18432", "grad": "NOT SERIALIZED, Too large 18432", "first_delta": "NOT SERIALIZED, Too large 18432", "tensor__stats": {"min": -0.06634502112865448, "max": 0.08401045948266983, "mean": 0.00421654200181365, "variance": 0.001211505732499063, "nobs": 18432, "histogram_bins": 100, "histogram": [[1, 2, 12, 22, 38, 98, 121, 138, 174, 174, 201, 211, 205, 202, 217, 216, 227, 217, 243, 230, 229, 226, 235, 249, 234, 242, 253, 210, 242, 212, 223, 227, 193, 251, 223, 229, 211, 275, 255, 210, 240, 255, 227, 237, 207, 254, 255, 214, 224, 198, 233, 237, 227, 241, 227, 237, 244, 229, 248, 241, 257, 233, 239, 247, 250, 188, 236, 260, 229, 244, 212, 253, 227, 253, 251, 195, 221, 203, 237, 239, 225, 212, 224, 174, 135, 122, 85, 66, 64, 46, 49, 36, 24, 17, 16, 2, 4, 2, 0, 2], [-0.06634502112865448, -0.06484146416187286, -0.06333791464567184, -0.06183435767889023, -0.06033080071210861, -0.058827247470617294, -0.05732369050383568, -0.05582013726234436, -0.05431658402085304, -0.052813027054071426, -0.05130947381258011, -0.04980591684579849, -0.048302363604307175, -0.04679881036281586, -0.04529525339603424, -0.04379170015454292, -0.04228814318776131, -0.04078458994626999, -0.03928103297948837, -0.037777479737997055, -0.03627392649650574, -0.03477036952972412, -0.0332668162882328, -0.03176325932145119, -0.03025970607995987, -0.028756150975823402, -0.027252595871686935, -0.02574904076755047, -0.024245485663414, -0.022741932421922684, -0.021238377317786217, -0.01973482221364975, -0.018231267109513283, -0.016727712005376816, -0.015224157832562923, -0.013720602728426456, -0.012217048555612564, -0.010713493451476097, -0.00920993834733963, -0.0077063837088644505, -0.006202829070389271, -0.004699273966252804, -0.003195719327777624, -0.0016921644564718008, -0.00018860965792555362, 0.001314945169724524, 0.0028184999246150255, 0.004322054795920849, 0.0058256094343960285, 0.0073291645385324955, 0.008832719177007675, 0.010336274281144142, 0.011839828453958035, 0.013343383558094501, 0.014846938662230968, 0.01635049283504486, 0.017854047939181328, 0.019357603043317795, 0.020861158147454262, 0.02236471325159073, 0.023868266493082047, 0.025371821597218513, 0.02687537670135498, 0.028378931805491447, 0.029882486909627914, 0.03138604015111923, 0.03288959711790085, 0.034393150359392166, 0.03589670732617378, 0.0374002605676651, 0.03890381380915642, 0.040407370775938034, 0.04191092401742935, 0.04341448098421097, 0.044918034225702286, 0.046421587467193604, 0.04792514443397522, 0.04942869767546654, 0.050932254642248154, 0.05243580788373947, 0.05393936485052109, 0.055442918092012405, 0.05694647133350372, 0.05845002830028534, 0.05995358154177666, 0.06145713850855827, 0.06296069175004959, 0.06446424871683121, 0.06596779823303223, 0.06747135519981384, 0.06897491216659546, 0.07047846913337708, 0.0719820186495781, 0.07348557561635971, 0.07498913258314133, 0.07649268209934235, 0.07799623906612396, 0.07949979603290558, 0.0810033529996872, 0.08250690251588821, 0.08401045948266983]]}, "grad__stats": {"min": -0.037289563566446304, "max": 0.03236859664320946, "mean": -0.00044846482342109084, "variance": 4.332211392465979e-05, "nobs": 18432, "histogram_bins": 100, "histogram": [[1, 0, 0, 0, 1, 0, 0, 1, 1, 7, 4, 5, 6, 6, 7, 16, 11, 15, 25, 9, 23, 26, 30, 29, 27, 46, 30, 51, 42, 47, 51, 50, 69, 67, 75, 80, 99, 119, 142, 150, 182, 214, 211, 248, 277, 326, 392, 448, 476, 613, 771, 1045, 1677, 2479, 1607, 1132, 806, 683, 534, 458, 349, 266, 247, 199, 190, 134, 115, 123, 85, 85, 68, 59, 55, 70, 32, 47, 40, 33, 31, 29, 20, 31, 24, 24, 21, 12, 13, 14, 14, 10, 12, 2, 8, 9, 3, 3, 4, 2, 1, 1], [-0.037289563566446304, -0.036592982709407806, -0.03589640185236931, -0.03519981727004051, -0.034503236413002014, -0.033806655555963516, -0.03311007469892502, -0.03241349384188652, -0.031716909259557724, -0.031020328402519226, -0.030323747545480728, -0.02962716668844223, -0.028930583968758583, -0.028234003111720085, -0.027537420392036438, -0.02684083953499794, -0.026144258677959442, -0.025447675958275795, -0.024751095101237297, -0.02405451238155365, -0.023357931524515152, -0.022661350667476654, -0.021964767947793007, -0.02126818709075451, -0.020571604371070862, -0.019875023514032364, -0.019178442656993866, -0.01848185993731022, -0.01778527908027172, -0.017088696360588074, -0.016392115503549576, -0.015695534646511078, -0.01499895192682743, -0.014302371069788933, -0.01360578928142786, -0.012909207493066788, -0.012212625704705715, -0.011516043916344643, -0.010819463059306145, -0.010122881270945072, -0.009426299482584, -0.008729717694222927, -0.008033135905861855, -0.007336554583162069, -0.006639973260462284, -0.0059433914721012115, -0.005246809683740139, -0.004550228361040354, -0.0038536465726792812, -0.0031570650171488523, -0.0024604834616184235, -0.0017639019060879946, -0.0010673202341422439, -0.0003707386495079845, 0.0003258429351262748, 0.0010224245488643646, 0.0017190061043947935, 0.0024155876599252224, 0.003112169448286295, 0.003808751003816724, 0.004505332559347153, 0.005201914347708225, 0.0058984956704080105, 0.006595077458769083, 0.007291658781468868, 0.00798824056982994, 0.008684822358191013, 0.009381404146552086, 0.010077985003590584, 0.010774566791951656, 0.011471148580312729, 0.012167730368673801, 0.012864312157034874, 0.013560893014073372, 0.014257474802434444, 0.014954056590795517, 0.015650637447834015, 0.016347220167517662, 0.01704380102455616, 0.017740383744239807, 0.018436964601278305, 0.019133545458316803, 0.01983012817800045, 0.020526709035038948, 0.021223291754722595, 0.021919872611761093, 0.02261645346879959, 0.023313036188483238, 0.024009617045521736, 0.024706199765205383, 0.02540278062224388, 0.02609936147928238, 0.026795944198966026, 0.027492525056004524, 0.02818910777568817, 0.02888568863272667, 0.029582269489765167, 0.030278852209448814, 0.030975433066487312, 0.03167201578617096, 0.03236859664320946]]}, "first_delta__stats": {"min": -0.00885741412639618, "max": 0.031129341572523117, "mean": 0.004118019249290228, "variance": 3.247332278988324e-05, "nobs": 18432, "histogram_bins": 100, "histogram": [[6, 1, 10, 8, 13, 26, 45, 67, 88, 124, 105, 125, 172, 186, 224, 259, 274, 318, 450, 521, 632, 717, 886, 773, 651, 641, 561, 597, 519, 528, 526, 524, 446, 454, 427, 395, 387, 346, 325, 282, 295, 243, 279, 252, 266, 235, 227, 225, 207, 189, 180, 157, 156, 172, 162, 134, 146, 130, 104, 109, 104, 107, 81, 75, 68, 60, 41, 34, 36, 28, 45, 29, 32, 22, 22, 19, 18, 14, 6, 14, 9, 10, 8, 6, 6, 2, 1, 8, 5, 4, 4, 2, 1, 1, 0, 1, 0, 1, 0, 1], [-0.00885741412639618, -0.00845754612237215, -0.008057679049670696, -0.007657811511307955, -0.007257943972945213, -0.006858076434582472, -0.00645820889621973, -0.006058341357856989, -0.0056584738194942474, -0.005258606281131506, -0.0048587387427687645, -0.004458871204406023, -0.0040590036660432816, -0.0036591358948498964, -0.003259268356487155, -0.0028594008181244135, -0.002459533279761672, -0.0020596657413989305, -0.0016597980866208673, -0.0012599305482581258, -0.0008600630098953843, -0.0004601954424288124, -6.032787132426165e-05, 0.00033953969250433147, 0.0007394072599709034, 0.0011392747983336449, 0.0015391423366963863, 0.0019390098750591278, 0.0023388774134218693, 0.0027387449517846107, 0.0031386124901473522, 0.0035384800285100937, 0.003938347566872835, 0.004338215105235577, 0.004738082643598318, 0.00513795018196106, 0.005537817720323801, 0.0059376852586865425, 0.006337553262710571, 0.006737420801073313, 0.007137288339436054, 0.007537155877798796, 0.007937023416161537, 0.008336890488862991, 0.00873675849288702, 0.009136625565588474, 0.009536493569612503, 0.009936360642313957, 0.010336228646337986, 0.01073609571903944, 0.011135963723063469, 0.011535831727087498, 0.011935698799788952, 0.01233556680381298, 0.012735433876514435, 0.013135301880538464, 0.013535168953239918, 0.013935036957263947, 0.0143349040299654, 0.01473477203398943, 0.015134639106690884, 0.015534507110714912, 0.015934374183416367, 0.01633424125611782, 0.016734110191464424, 0.01713397726416588, 0.017533844336867332, 0.017933711409568787, 0.01833358034491539, 0.018733447417616844, 0.0191333144903183, 0.019533181563019753, 0.019933050498366356, 0.02033291757106781, 0.020732784643769264, 0.02113265171647072, 0.021532520651817322, 0.021932387724518776, 0.02233225479722023, 0.022732123732566833, 0.023131990805268288, 0.023531857877969742, 0.023931724950671196, 0.0243315938860178, 0.024731460958719254, 0.025131328031420708, 0.025531195104122162, 0.025931064039468765, 0.02633093111217022, 0.026730798184871674, 0.027130665257573128, 0.02753053419291973, 0.027930401265621185, 0.02833026833832264, 0.028730135411024094, 0.029130004346370697, 0.02952987141907215, 0.029929738491773605, 0.03032960556447506, 0.030729474499821663, 0.031129341572523117]]}}, "shape": [64, 32, 3, 3]}, "conv2.bias": {"id": "conv2.bias", "data_group_type": "PARAM", "type": "Parameter", "value": {"tensor": [-0.03503803163766861, 0.060039639472961426, -0.003876633010804653, 0.004145354498177767, -0.004298488609492779, -0.006858446169644594, 0.03058631718158722, 0.011231952346861362, -0.02122684009373188, 0.009658354334533215, 0.00470728287473321, -0.03529323264956474, 0.02824033424258232, 0.04285937175154686, -0.020504841580986977, -0.044901154935359955, 0.003651041304692626, -0.04756898060441017, 0.05932322517037392, -0.044838640838861465, 0.05007639154791832, -0.025589291006326675, -0.0009436749969609082, -0.0005977393011562526, 0.045524924993515015, 0.037625085562467575, -0.05030594393610954, -0.037065185606479645, 0.05949552729725838, 0.06973528861999512, 0.009434007108211517, -0.022364571690559387, 0.00787150114774704, 0.053185541182756424, -0.04439951851963997, -0.03471161797642708, 0.005975787062197924, 0.029920026659965515, 0.035010214895009995, -0.019419893622398376, -0.019312767311930656, 0.059163447469472885, -0.04023996368050575, -0.021950075402855873, 0.046151578426361084, 0.03897927328944206, -0.02617264911532402, 0.010252667590975761, -0.027334371581673622, -0.010231171734631062, 0.04779994487762451, -0.04062987118959427, 0.02027706988155842, -0.03340786322951317, 0.009613565169274807, 0.053915925323963165, 0.060886211693286896, 0.05412894859910011, -0.03384694457054138, -0.014534370973706245, -0.007388410624116659, 0.043114207684993744, 0.02518397383391857, 0.05127929523587227], "grad": [0.006253881845623255, -0.004863591864705086, 0.00503544881939888, 0.0003233051102142781, -0.007753927260637283, 0.004876430612057447, 0.0012394128134474158, -0.008678452111780643, -0.0053588952869176865, -0.0031334536615759134, 0.005494223907589912, -0.0034966347739100456, -0.009576370939612389, 0.008207898586988449, 0.0029597722459584475, 0.004138055723160505, -0.0010981394443660975, 0.004388449713587761, -0.004352220334112644, 0.007177648134529591, -0.0021419324912130833, -0.009391983970999718, -0.004875716753304005, 0.00910052377730608, -0.007667161989957094, 0.00831199437379837, -0.004085264168679714, -2.698364551179111e-05, -0.008138694800436497, -0.00028534335433505476, 0.009187418967485428, -0.0019692950882017612, 0.0006331636104732752, 0.002236418891698122, 0.003296367824077606, 0.0007408611127175391, 0.002687999280169606, 0.01154869794845581, 0.006238781847059727, 0.004188239574432373, 0.010801656171679497, -0.011868749745190144, -0.0002876336220651865, 0.0015684810932725668, -0.003807916073128581, -0.00496123218908906, 0.0015637101605534554, 0.0027118276339024305, 0.0057885535061359406, 0.003827308304607868, -0.007287884131073952, 0.001691121724434197, -0.00849703699350357, -0.0012110404204577208, 0.0009812262142077088, -0.0011158895213156939, -0.003982676658779383, -0.0007628201856277883, -0.005065552890300751, -0.0033081986475735903, 0.009791740216314793, 0.0011056442745029926, -0.0003230542642995715, 0.005935217719525099], "first_delta": [0.006776813417673111, 0.004326093941926956, 0.0019972468726336956, 0.0016856854781508446, 0.0033171591348946095, 0.00491491099819541, 0.014531964436173439, 0.0034617241472005844, 0.007080480456352234, 0.0071880994364619255, 0.0025883710477501154, 0.005249738693237305, 0.003475358709692955, 0.008174840360879898, 0.0019293706864118576, 0.00925082340836525, 0.0032673433888703585, 0.010791495442390442, 0.0029045194387435913, 0.005611445754766464, 0.007513497024774551, 0.0031222663819789886, 0.0020917130168527365, 0.004509299993515015, 0.006340015679597855, 0.004773177206516266, 0.0032242052257061005, 0.0063835494220256805, 0.0046796537935733795, 0.013571206480264664, 0.01093336008489132, 0.005110664293169975, 0.0036753960885107517, 0.0028642192482948303, 0.006419084966182709, 0.007634762674570084, 0.003564137266948819, 0.005741152912378311, 0.008656078949570656, 0.004277249798178673, 0.004980690777301788, 0.0027612559497356415, 0.011898145079612732, 0.012933889403939247, 0.0035575665533542633, 0.007764782756567001, 0.015764161944389343, 0.0036935852840542793, 0.004052245989441872, 0.008875175379216671, 0.005245774984359741, 0.010139744728803635, 0.00252593494951725, 0.0013644248247146606, 0.005577126517891884, 0.005231346935033798, 0.005654115229845047, 0.009054642170667648, 0.005812179297208786, 0.004909558221697807, 0.008169515058398247, 0.00684337317943573, 0.002501094713807106, 0.015012774616479874], "tensor__stats": {"min": -0.05030594393610954, "max": 0.06973528861999512, "mean": 0.006315501406788826, "variance": 0.0012567564845085144, "nobs": 64, "histogram_bins": 8, "histogram": [[8, 12, 6, 12, 3, 7, 10, 6], [-0.05030594393610954, -0.03530079126358032, -0.020295634865760803, -0.005290481727570295, 0.009714672341942787, 0.024719826877117157, 0.03972497954964638, 0.0547301359474659, 0.06973528861999512]]}, "grad__stats": {"min": -0.011868749745190144, "max": 0.01154869794845581, "mean": 0.0002290271659148857, "variance": 3.157744504278526e-05, "nobs": 64, "histogram_bins": 8, "histogram": [[3, 6, 12, 9, 13, 9, 7, 5], [-0.011868749745190144, -0.008941568434238434, -0.006014388054609299, -0.003087206743657589, -0.00016002589836716652, 0.002767154946923256, 0.005694336257874966, 0.0086215166375041, 0.01154869794845581]]}, "first_delta__stats": {"min": 0.0013644248247146606, "max": 0.015764161944389343, "mean": 0.006061426363885403, "variance": 1.1940182957914658e-05, "nobs": 64, "histogram_bins": 8, "histogram": [[12, 17, 13, 9, 5, 3, 2, 3], [0.0013644248247146606, 0.003164391964673996, 0.004964359104633331, 0.006764326244592667, 0.008564293384552002, 0.010364260524511337, 0.012164227664470673, 0.013964194804430008, 0.015764161944389343]]}}, "shape": [64]}, "fc1.weight": {"id": "fc1.weight", "data_group_type": "PARAM", "type": "Parameter", "value": {"tensor": "NOT SERIALIZED, Too large 1179648", "grad": "NOT SERIALIZED, Too large 1179648", "first_delta": "NOT SERIALIZED, Too large 1179648", "tensor__stats": {"min": -0.017131593078374863, "max": 0.018073473125696182, "mean": 0.00024031029897741973, "variance": 3.756744263228029e-05, "nobs": 1179648, "histogram_bins": 100, "histogram": [[1, 0, 0, 3, 4, 11, 27, 37, 61, 110, 204, 258, 396, 633, 947, 1446, 2094, 3360, 5604, 11016, 13474, 15353, 16504, 17741, 18171, 18970, 19108, 19461, 19800, 19584, 19701, 19759, 20096, 20079, 19856, 20298, 19745, 19954, 20142, 19898, 19830, 20077, 20019, 20174, 19790, 19882, 19772, 19840, 20015, 19796, 20154, 19953, 19986, 19772, 19959, 19724, 19534, 20062, 19929, 19771, 20118, 19915, 20100, 20082, 20028, 19736, 19868, 19885, 19644, 19847, 19582, 19689, 19262, 18869, 18530, 17823, 16763, 15243, 9728, 6608, 4940, 3484, 2474, 1701, 1188, 875, 609, 394, 252, 181, 103, 79, 43, 26, 17, 9, 2, 2, 2, 2], [-0.017131593078374863, -0.016779541969299316, -0.01642749086022377, -0.016075441613793373, -0.015723390504717827, -0.01537133939564228, -0.015019289217889309, -0.014667238108813763, -0.014315187931060791, -0.013963136821985245, -0.013611086644232273, -0.013259035535156727, -0.012906985357403755, -0.012554934248328209, -0.012202884070575237, -0.011850832961499691, -0.01149878278374672, -0.011146731674671173, -0.010794681496918201, -0.010442630387842655, -0.010090580210089684, -0.009738529101014137, -0.009386478923261166, -0.00903442781418562, -0.008682377636432648, -0.008330326527357101, -0.007978275418281555, -0.0076262252405285835, -0.007274174597114325, -0.006922123953700066, -0.006570073310285807, -0.006218022666871548, -0.005865972023457289, -0.00551392138004303, -0.005161870736628771, -0.004809820093214512, -0.004457769449800253, -0.004105718806385994, -0.0037536679301410913, -0.0034016172867268324, -0.0030495666433125734, -0.0026975159998983145, -0.0023454653564840555, -0.0019934147130697966, -0.0016413639532402158, -0.0012893133098259568, -0.000937262608204037, -0.000585211964789778, -0.0002331613068236038, 0.00011888935841852799, 0.0004709400236606598, 0.0008229906670749187, 0.0011750413104891777, 0.0015270919539034367, 0.0018791427137330174, 0.0022311932407319546, 0.0025832438841462135, 0.002935294760391116, 0.003287345403805375, 0.003639396047219634, 0.003991446457803249, 0.004343497101217508, 0.004695547744631767, 0.0050475988537073135, 0.0053996494971215725, 0.0057517001405358315, 0.00610375078395009, 0.006455801427364349, 0.006807852070778608, 0.007159902714192867, 0.007511953357607126, 0.007864004001021385, 0.008216054178774357, 0.008568105287849903, 0.008920155465602875, 0.009272206574678421, 0.009624257683753967, 0.009976307861506939, 0.010328358970582485, 0.010680409148335457, 0.011032460257411003, 0.011384510435163975, 0.011736561544239521, 0.012088611721992493, 0.012440662831068039, 0.01279271300882101, 0.013144764117896557, 0.013496814295649529, 0.013848865404725075, 0.014200915582478046, 0.014552966691553593, 0.014905016869306564, 0.01525706797838211, 0.015609118156135082, 0.015961168333888054, 0.0163132194429636, 0.016665270552039146, 0.017017321661114693, 0.01736937090754509, 0.017721422016620636, 0.018073473125696182]]}, "grad__stats": {"min": -0.09930688887834549, "max": 0.09064258635044098, "mean": -0.00034813431557267904, "variance": 0.0001024874291033484, "nobs": 1179648, "histogram_bins": 100, "histogram": [[1, 6, 8, 9, 19, 34, 47, 58, 86, 81, 114, 112, 107, 114, 98, 122, 139, 126, 144, 175, 229, 321, 427, 518, 617, 736, 766, 847, 912, 1030, 1130, 1417, 1597, 1819, 2154, 2370, 2647, 3033, 3436, 4137, 4570, 5247, 5923, 7014, 8193, 9997, 12602, 16342, 21323, 31285, 56006, 145294, 597246, 73885, 34716, 21504, 15135, 12003, 9549, 7858, 6607, 5668, 5161, 4373, 3856, 3509, 3051, 2576, 2231, 1963, 1793, 1689, 1316, 1231, 1044, 903, 748, 604, 568, 530, 409, 368, 320, 298, 235, 228, 179, 141, 135, 96, 76, 77, 83, 54, 30, 23, 20, 12, 5, 3], [-0.09930688887834549, -0.09740739315748215, -0.0955078974366188, -0.09360840171575546, -0.09170891344547272, -0.08980941772460938, -0.08790992200374603, -0.08601042628288269, -0.08411093056201935, -0.082211434841156, -0.08031193912029266, -0.07841244339942932, -0.07651295512914658, -0.07461345940828323, -0.07271396368741989, -0.07081446796655655, -0.0689149722456932, -0.06701547652482986, -0.06511598080396652, -0.06321648508310318, -0.061316993087530136, -0.059417497366666794, -0.05751800537109375, -0.05561850965023041, -0.053719013929367065, -0.05181951820850372, -0.04992002621293068, -0.04802053049206734, -0.046121034771203995, -0.04422154277563095, -0.04232204705476761, -0.040422551333904266, -0.038523055613040924, -0.03662356361746788, -0.03472406789660454, -0.032824572175741196, -0.030925078317523003, -0.02902558259665966, -0.027126088738441467, -0.025226593017578125, -0.023327099159359932, -0.02142760343849659, -0.019528109580278397, -0.017628613859415054, -0.01572912000119686, -0.013829625211656094, -0.011930130422115326, -0.010030635632574558, -0.00813114084303379, -0.006231646053493023, -0.004332151263952255, -0.0024326564744114876, -0.0005331617430783808, 0.001366332988254726, 0.0032658276613801718, 0.005165322683751583, 0.007064817473292351, 0.008964312262833118, 0.010863807052373886, 0.012763301841914654, 0.014662796631455421, 0.016562290489673615, 0.018461786210536957, 0.02036128006875515, 0.022260775789618492, 0.024160269647836685, 0.026059765368700027, 0.02795925922691822, 0.029858754947781563, 0.031758248805999756, 0.0336577445268631, 0.03555724024772644, 0.037456732243299484, 0.03935622796416283, 0.04125572368502617, 0.04315521568059921, 0.045054711401462555, 0.0469542071223259, 0.04885370284318924, 0.05075319483876228, 0.052652690559625626, 0.05455218628048897, 0.05645168200135231, 0.058351173996925354, 0.060250669717788696, 0.06215016543865204, 0.06404966115951538, 0.06594915688037872, 0.06784865260124207, 0.06974814087152481, 0.07164763659238815, 0.0735471323132515, 0.07544662803411484, 0.07734612375497818, 0.07924561947584152, 0.08114511519670486, 0.0830446109175682, 0.08494409918785095, 0.0868435949087143, 0.08874309062957764, 0.09064258635044098]]}, "first_delta__stats": {"min": -0.008455020375549793, "max": 0.008673111908137798, "mean": 0.00024244408996310085, "variance": 1.3963423270979547e-06, "nobs": 1179648, "histogram_bins": 100, "histogram": [[1, 1, 1, 1, 0, 5, 2, 3, 4, 7, 11, 16, 20, 17, 23, 37, 32, 52, 81, 101, 147, 234, 291, 390, 441, 571, 768, 913, 1151, 1368, 1755, 2104, 2525, 3154, 3833, 4796, 5828, 7237, 8756, 10448, 12575, 15207, 18490, 22570, 27635, 33876, 44495, 65034, 135461, 207477, 80538, 66637, 58259, 50272, 43617, 36901, 31516, 26866, 22981, 19315, 16389, 13959, 11596, 9910, 8294, 7004, 6074, 5084, 4232, 3591, 3037, 2514, 2065, 1660, 1411, 1219, 964, 779, 631, 498, 435, 335, 218, 209, 168, 135, 132, 72, 62, 36, 32, 15, 14, 6, 5, 5, 4, 2, 3, 2], [-0.008455020375549793, -0.008283738978207111, -0.00811245758086443, -0.007941176183521748, -0.007769895251840353, -0.007598613854497671, -0.007427332457154989, -0.007256051059812307, -0.0070847696624696255, -0.006913488265126944, -0.006742207333445549, -0.006570925936102867, -0.006399644538760185, -0.006228363141417503, -0.0060570817440748215, -0.00588580034673214, -0.005714519415050745, -0.005543238017708063, -0.005371956620365381, -0.005200675223022699, -0.0050293938256800175, -0.004858112428337336, -0.004686831496655941, -0.004515550099313259, -0.004344268701970577, -0.004172987304627895, -0.0040017059072852135, -0.0038304247427731752, -0.0036591433454304934, -0.0034878619480878115, -0.0033165807835757732, -0.0031452993862330914, -0.0029740179888904095, -0.0028027368243783712, -0.0026314554270356894, -0.0024601740296930075, -0.0022888928651809692, -0.0021176114678382874, -0.0019463300704956055, -0.0017750487895682454, -0.0016037675086408854, -0.0014324861112982035, -0.0012612048303708434, -0.0010899235494434834, -0.0009186421521008015, -0.0007473608711734414, -0.0005760795320384204, -0.00040479819290339947, -0.00023351688287220895, -6.223555828910321e-05, 0.00010904576629400253, 0.00028032707632519305, 0.000451608415460214, 0.0006228897254914045, 0.0007941710646264255, 0.0009654524037614465, 0.0011367336846888065, 0.0013080150820314884, 0.0014792963629588485, 0.0016505776438862085, 0.0018218590412288904, 0.0019931402057409286, 0.0021644216030836105, 0.0023357030004262924, 0.0025069843977689743, 0.0026782655622810125, 0.0028495469596236944, 0.0030208283569663763, 0.0031921095214784145, 0.0033633909188210964, 0.0035346723161637783, 0.0037059534806758165, 0.0038772348780184984, 0.004048516042530537, 0.0042197974398732185, 0.0043910788372159, 0.004562360234558582, 0.004733641631901264, 0.004904923029243946, 0.005076203960925341, 0.0052474853582680225, 0.005418766755610704, 0.005590048152953386, 0.005761329550296068, 0.00593261094763875, 0.006103891879320145, 0.0062751732766628265, 0.006446454674005508, 0.00661773607134819, 0.006789017468690872, 0.006960298866033554, 0.007131579797714949, 0.0073028611950576305, 0.007474142592400312, 0.007645423989742994, 0.007816704921424389, 0.00798798631876707, 0.008159267716109753, 0.008330549113452435, 0.008501830510795116, 0.008673111908137798]]}}, "shape": [128, 9216]}, "fc1.bias": {"id": "fc1.bias", "data_group_type": "PARAM", "type": "Parameter", "value": {"tensor": [-0.00551502825692296, 0.010598273947834969, -0.002735893242061138, -0.0019221750553697348, -0.00012988962407689542, 0.004646697081625462, 0.00023150876222644, -0.00525498203933239, 0.0006315059727057815, 0.0010959341889247298, 0.006202543154358864, 0.004029120784252882, 0.009633342735469341, 0.00774369528517127, -0.0011415090411901474, -0.0041704787872731686, 0.00782048050314188, 0.008277591317892075, -0.005928900558501482, -0.0025467697996646166, -0.009788209572434425, 0.002937373472377658, 0.0025639128871262074, -0.001727683120407164, 0.003626300720497966, -0.0017737409798428416, -0.005214373115450144, -0.009125987067818642, 0.007891244255006313, 0.0008799369679763913, -0.009354195557534695, 0.011870366521179676, 0.00028537368052639067, -0.0041558509692549706, 0.0025019824970513582, -0.00995895266532898, 7.698702393099666e-05, -0.0014170135837048292, -0.0051717148162424564, 0.010900202207267284, 0.0015419845003634691, -0.005716186016798019, -0.007544827181845903, 0.008473487570881844, -0.004801809787750244, -0.0033213926944881678, 0.007738554384559393, 0.010096387937664986, 0.004285616800189018, -0.0010355454869568348, 0.003966865595430136, 0.0016948954435065389, 0.008976572193205357, -0.007352237123996019, 0.0020690124947577715, -0.000501887989230454, -0.008719010278582573, 0.008456475101411343, 0.0008241196628659964, 0.00045909389154985547, 0.00012088860967196524, 0.001536520547233522, -0.004980874247848988, 0.00477700075134635, 0.0062648821622133255, -0.008452991023659706, 0.008025185205042362, 0.010087675414979458, -0.005457197781652212, 0.007949084974825382, 0.0067613329738378525, 0.0072336867451667786, 0.0029886900447309017, -0.008565982803702354, 0.006650964729487896, 0.00784450862556696, -0.00048632489051669836, -0.0072072832845151424, -0.00024594555725343525, -0.007538625039160252, 0.0031959079205989838, -0.0036682053469121456, 0.004918456077575684, 7.245645974762738e-05, -0.007662744726985693, -0.006239708047360182, 0.009735184721648693, 0.0019168966682627797, 0.0027324273250997066, 0.005077587440609932, 0.0020941735710948706, 0.003252221504226327, -0.0065008969977498055, 0.007263310253620148, -0.003532059956341982, 0.0019349863287061453, -0.0015800853725522757, -0.009891942143440247, -0.001297655631788075, -0.0037011292297393084, -0.0028019866440445185, 0.006483044475317001, -0.005942243151366711, -0.0015170491533353925, -0.0006267002318054438, -0.0007251988863572478, -0.00022810063092038035, -0.0023874258622527122, -0.0031264391727745533, -0.005726212169975042, 0.007133150938898325, 0.0047543710097670555, -0.008186140097677708, -0.01010793074965477, -0.0028434291016310453, 0.010266787372529507, -0.0032841560896486044, -0.002583092777058482, -0.009916075505316257, 0.004267097916454077, 0.005474722012877464, 0.004682358354330063, -0.0024532750248908997, -0.007552641443908215, -0.006040328182280064, 0.01129043847322464, -0.0027996839489787817, -0.0031160188373178244], "grad": [0.006643727887421846, -0.002561063040047884, -0.0025023871567100286, 0.013082622550427914, -0.001456721918657422, 0.004318260122090578, -0.0009390785708092153, -0.008949289098381996, 0.009068621322512627, 0.0, -0.006318580824881792, -0.0049435910768806934, 0.0, 0.009403710253536701, -0.009160681627690792, 0.0021836059167981148, -0.0028162577655166388, -0.013075442984700203, -0.013280339539051056, 0.0007277577533386648, 0.004709495231509209, 0.0, -0.01308460719883442, -0.0007181281689554453, 0.002657221397385001, 0.0013596854405477643, -0.0018371196929365396, 0.003054751781746745, 0.006174125708639622, 0.0007330307853408158, -0.002957978518679738, 0.00021971770911477506, 0.008915317244827747, -0.001932036248035729, -0.006640988402068615, 0.0, -0.0003477165009826422, 0.005262518301606178, 0.006872364319860935, -0.004035022109746933, 0.009333036839962006, -0.006990065798163414, -0.002059369580820203, -0.003995864652097225, -0.004216865636408329, -0.0005294298171065748, -0.0001140804379247129, 0.011667479760944843, -0.0012407797621563077, -0.00598888611420989, 0.0, -0.008258730173110962, 0.005316334776580334, -0.0105769457295537, -0.009071934968233109, -0.009760797955095768, -0.006267750635743141, 0.0, 0.0034000847954303026, 0.0019680631812661886, 0.009171265177428722, -0.0006256518536247313, -0.0092840027064085, -0.004132892936468124, 0.0, -0.0020784768275916576, 0.0049187601543962955, 0.009207229129970074, 0.0, -0.007915324531495571, -9.542117186356336e-05, 0.0, 0.00024670118000358343, -0.00113657396286726, 0.005710180848836899, 0.0011044219136238098, -0.0013792067766189575, -0.0027817729860544205, 0.0005195370176807046, -0.0074484883807599545, 0.0034196546766906977, -0.011144054122269154, 0.005952376872301102, 0.010369953699409962, -0.003137099090963602, 0.003256789641454816, -0.0014672268880531192, -0.003543376922607422, 0.0, -0.0037969343829900026, 0.012896965257823467, 0.00787624716758728, 0.0, 0.007326539605855942, 0.0, 0.0033197649754583836, -0.0073694754391908646, 0.0, -0.003400983288884163, 0.0008164463797584176, 0.0072593409568071365, -0.0039375098422169685, 0.0, -0.008582109585404396, 4.248824916430749e-05, -0.0002332956064492464, 0.0012318105436861515, 0.00036905985325574875, 0.0, 0.003941775299608707, -0.005407664924860001, 0.00125999771989882, 0.0, -0.00545102171599865, 0.0, -0.0006307958392426372, 0.007719194982200861, -3.70517373085022e-05, -0.009617818519473076, 0.012709984555840492, 0.0074371956288814545, 0.008484086021780968, -0.0018744972767308354, -0.007276932243257761, -0.014481204561889172, -0.0066226329654455185, -2.0178104023216292e-05, -0.003363854018971324], "first_delta": [-8.622091263532639e-05, 0.0023179268464446068, 0.0007618018426001072, -0.00020268408115953207, 1.5621466445736587e-05, 0.0006904746405780315, -0.00046983675565570593, -0.0008026962168514729, 0.0027225278317928314, -0.0001996621722355485, -0.00035171397030353546, -7.221801206469536e-05, -0.0004629576578736305, 0.0006622052751481533, 0.001683258218690753, 0.0007474743761122227, 0.0009145792573690414, 0.00026247836649417877, 0.00017116311937570572, 0.0026031385641545057, 0.00021525565534830093, -0.0004165142308920622, 0.00040304078720510006, 0.0025768601335585117, -0.0006916534621268511, 0.0021466254256665707, 0.002475263085216284, -0.001144619658589363, 0.0009474656544625759, -0.00045796134509146214, 0.0007711770012974739, 0.0016102585941553116, -0.00028223145636729896, -0.0007476313039660454, -0.00021668360568583012, -0.0003911452367901802, 0.001330041792243719, 0.0019715551752597094, 0.0010320222936570644, 0.001131545752286911, 0.0009586251107975841, 0.0016106590628623962, 0.001458603423088789, 0.0009810617193579674, 0.0004761815071105957, 0.0018187568057328463, 0.00012398650869727135, 0.0025943610817193985, -0.00033817021176218987, 0.0008406013948842883, -0.0002906098961830139, 0.0005888890009373426, 0.00034920312464237213, 0.00126977963373065, 0.0006945988861843944, 0.00025196425849571824, 0.00015977583825588226, -0.00030535738915205, 0.0005765790701843798, 0.0002635782293509692, 0.0008615645347163081, 2.6303925551474094e-05, 0.001484861597418785, 0.0008059008978307247, -8.939672261476517e-05, 0.0008371146395802498, 0.0013691568747162819, 0.0013716993853449821, -0.0004862821660935879, 0.00028566084802150726, 0.00020841928198933601, -0.00023870449513196945, -0.0006464147008955479, 0.0005483301356434822, -0.00025466829538345337, -0.0007328633219003677, -0.0007703894516453147, 0.002299354877322912, 0.002197348279878497, 0.0007727388292551041, 0.0002990737557411194, 0.0009067901410162449, 0.00208105007186532, 0.0005668968660756946, 0.0011792839504778385, 0.0009627994149923325, -3.291759639978409e-05, 0.0012616590829566121, -0.00028863782063126564, 0.00043886806815862656, -0.0003355105873197317, -0.0010834590066224337, -0.00019572116434574127, 0.0008186348713934422, -0.00011710729449987411, 0.0012355655198916793, 0.0015085181221365929, -0.00048338621854782104, 0.0004136894131079316, 0.0006058055441826582, 0.0013837248552590609, 0.001017366535961628, -0.0004246472381055355, 0.0004897300386801362, -0.0004825103678740561, 0.00249256519600749, -0.0010630947072058916, 0.0016731568612158298, -0.00018856837414205074, 0.00028080493211746216, 0.0008488381281495094, -0.0001001507043838501, -0.0001756381243467331, -0.0003884658217430115, -8.319760672748089e-05, 0.0011534057557582855, -0.0003063774202018976, -0.0009401515126228333, 0.00040141213685274124, 0.0010923533700406551, 0.0017055240459740162, 0.0005376869812607765, 0.0021457700058817863, 0.0007083108648657799, 0.0013449606485664845, 0.0009577209129929543, -3.841007128357887e-06, 0.0006317486986517906], "tensor__stats": {"min": -0.01010793074965477, "max": 0.011870366521179676, "mean": 0.00027197980671189725, "variance": 3.415943865547888e-05, "nobs": 128, "histogram_bins": 11, "histogram": [[11, 8, 14, 15, 16, 13, 12, 11, 12, 9, 7], [-0.01010793074965477, -0.008109903894364834, -0.0061118765734136105, -0.004113849718123674, -0.0021158226300030947, -0.00011779562919400632, 0.001880231429822743, 0.003878258401528001, 0.0058762854896485806, 0.007874312810599804, 0.00987233966588974, 0.011870366521179676]]}, "grad__stats": {"min": -0.014481204561889172, "max": 0.013082622550427914, "mean": -0.00040049030212685466, "variance": 3.459466097410768e-05, "nobs": 128, "histogram_bins": 11, "histogram": [[4, 4, 11, 8, 17, 41, 11, 10, 10, 8, 4], [-0.014481204561889172, -0.011975402012467384, -0.009469599463045597, -0.006963797379285097, -0.00445799482986331, -0.0019521922804415226, 0.0005536102107726038, 0.0030594125855714083, 0.005565215367823839, 0.00807101745158434, 0.010576820001006126, 0.013082622550427914]]}, "first_delta__stats": {"min": -0.001144619658589363, "max": 0.0027225278317928314, "mean": 0.000558988016564399, "variance": 8.473502930428367e-07, "nobs": 128, "histogram_bins": 11, "histogram": [[5, 11, 22, 14, 18, 21, 10, 10, 5, 6, 6], [-0.001144619658589363, -0.000793060811702162, -0.0004415019357111305, -8.994306699605659e-05, 0.0002616157871671021, 0.0006131746340543032, 0.0009647335391491652, 0.0013162923278287053, 0.0016678512329235673, 0.0020194100216031075, 0.0023709689266979694, 0.0027225278317928314]]}}, "shape": [128]}, "fc2.weight": {"id": "fc2.weight", "data_group_type": "PARAM", "type": "Parameter", "value": {"tensor": "NOT SERIALIZED, Too large 1280", "grad": "NOT SERIALIZED, Too large 1280", "first_delta": "NOT SERIALIZED, Too large 1280", "tensor__stats": {"min": -0.10440294444561005, "max": 0.09261012822389603, "mean": -0.0021693394519388676, "variance": 0.002917240606620908, "nobs": 1280, "histogram_bins": 35, "histogram": [[5, 17, 27, 43, 41, 39, 37, 36, 32, 45, 39, 39, 44, 42, 32, 33, 41, 47, 46, 32, 31, 36, 41, 40, 27, 39, 50, 41, 28, 41, 40, 45, 39, 41, 24], [-0.10440294444561005, -0.0987740010023117, -0.09314505755901337, -0.08751610666513443, -0.08188716322183609, -0.07625821977853775, -0.07062927633523941, -0.06500033289194107, -0.05937138572335243, -0.053742438554763794, -0.048113495111465454, -0.042484551668167114, -0.036855604499578476, -0.031226661056280136, -0.025597715750336647, -0.019968770444393158, -0.014339825138449669, -0.008710880763828754, -0.003081935690715909, 0.0025470093823969364, 0.008175954222679138, 0.013804899528622627, 0.019433844834566116, 0.025062788277864456, 0.030691733583807945, 0.036320678889751434, 0.041949622333049774, 0.04757856950163841, 0.05320751294493675, 0.05883646011352539, 0.06446540355682373, 0.07009434700012207, 0.07572329044342041, 0.08135224133729935, 0.08698118478059769, 0.09261012822389603]]}, "grad__stats": {"min": -1.4276007413864136, "max": 1.395719051361084, "mean": 5.9604645663569045e-09, "variance": 0.043120771646499634, "nobs": 1280, "histogram_bins": 35, "histogram": [[1, 1, 0, 1, 1, 3, 2, 2, 9, 6, 5, 10, 1, 15, 12, 23, 82, 852, 156, 25, 13, 9, 10, 9, 4, 5, 11, 3, 2, 3, 1, 1, 0, 1, 1], [-1.4276007413864136, -1.34693443775177, -1.2662681341171265, -1.1856019496917725, -1.104935646057129, -1.0242693424224854, -0.9436030387878418, -0.862936794757843, -0.7822704911231995, -0.7016042470932007, -0.6209379434585571, -0.5402716398239136, -0.4596053957939148, -0.37893909215927124, -0.2982728183269501, -0.2176065444946289, -0.13694027066230774, -0.05627398565411568, 0.024392295628786087, 0.10505857318639755, 0.18572485446929932, 0.2663911283016205, 0.34705740213394165, 0.4277237057685852, 0.508389949798584, 0.5890562534332275, 0.6697225570678711, 0.7503888010978699, 0.8310551047325134, 0.9117213487625122, 0.9923876523971558, 1.0730539560317993, 1.1537202596664429, 1.2343864440917969, 1.3150527477264404, 1.395719051361084]]}, "first_delta__stats": {"min": -0.026092279702425003, "max": 0.007900640368461609, "mean": -0.0017731401603668928, "variance": 2.0194627722958103e-05, "nobs": 1280, "histogram_bins": 35, "histogram": [[2, 0, 0, 0, 1, 0, 4, 1, 7, 1, 1, 5, 4, 15, 19, 10, 20, 19, 27, 38, 33, 42, 57, 62, 95, 108, 299, 121, 104, 84, 51, 31, 13, 3, 3], [-0.026092279702425003, -0.02512105368077755, -0.024149827659130096, -0.023178601637482643, -0.02220737375319004, -0.021236147731542587, -0.020264921709895134, -0.01929369568824768, -0.018322469666600227, -0.017351243644952774, -0.01638001762330532, -0.015408790670335293, -0.01443756464868784, -0.013466337695717812, -0.012495111674070358, -0.011523885652422905, -0.010552658699452877, -0.009581432677805424, -0.00861020665615797, -0.00763898016884923, -0.0066677541472017765, -0.005696527659893036, -0.004725301172584295, -0.003754075150936842, -0.002782848896458745, -0.0018116225255653262, -0.0008403962128795683, 0.00013083007070235908, 0.0011020563542842865, 0.0020732826087623835, 0.0030445088632404804, 0.004015735350549221, 0.004986961372196674, 0.005958187859505415, 0.006929413881152868, 0.007900640368461609]]}}, "shape": [10, 128]}, "fc2.bias": {"id": "fc2.bias", "data_group_type": "PARAM", "type": "Parameter", "value": {"tensor": [0.04882783815264702, 0.040752608329057693, -0.02357732504606247, 0.024292821064591408, 0.05699886009097099, 0.035963885486125946, -0.0458977185189724, 0.023005083203315735, -0.08089012652635574, 0.027825117111206055], "grad": [0.08452758938074112, 0.0004031048156321049, 0.002522572409361601, 0.000749554019421339, -0.020755264908075333, 0.009918004274368286, -0.08484271913766861, 0.015977909788489342, -0.0009894843678921461, -0.007511251140385866], "first_delta": [-0.002028822898864746, 0.0007381178438663483, -3.466568887233734e-05, -0.0010401420295238495, -0.0009817592799663544, 0.0005698800086975098, -0.0019809864461421967, 0.0016360525041818619, -0.0018543154001235962, 3.54032963514328e-05], "tensor__stats": {"min": -0.08089012652635574, "max": 0.05699886009097099, "mean": 0.010730103589594364, "variance": 0.0020594631787389517, "nobs": 10, "histogram_bins": 5, "histogram": [[1, 1, 1, 3, 4], [-0.08089012652635574, -0.05331232771277428, -0.02573453262448311, 0.0018432654906064272, 0.029421063140034676, 0.05699886009097099]]}, "grad__stats": {"min": -0.08484271913766861, "max": 0.08452758938074112, "mean": 1.90921123355281e-09, "variance": 0.0016880142502486706, "nobs": 10, "histogram_bins": 5, "histogram": [[1, 1, 7, 0, 1], [-0.08484271913766861, -0.050968658179044724, -0.017094595357775688, 0.016779465600848198, 0.05065352842211723, 0.08452758938074112]]}, "first_delta__stats": {"min": -0.002028822898864746, "max": 0.0016360525041818619, "mean": -0.0004941237857565284, "variance": 1.625753725420509e-06, "nobs": 10, "histogram_bins": 5, "histogram": [[3, 2, 2, 2, 1], [-0.002028822898864746, -0.0012958478182554245, -0.0005628727376461029, 0.0001701023429632187, 0.0009030774235725403, 0.0016360525041818619]]}}, "shape": [10]}, "input.1": {"id": "input.1", "data_group_type": "INPUT", "type": "Tensor", "value": {"tensor": "NOT SERIALIZED, Too large 7840", "tensor__stats": {"min": -0.4242129623889923, "max": 2.821486711502075, "mean": 0.20042185485363007, "variance": 1.4208766222000122, "nobs": 7840, "histogram_bins": 88, "histogram": [[5827, 24, 16, 13, 11, 21, 22, 7, 14, 3, 17, 13, 19, 12, 12, 11, 19, 9, 6, 9, 15, 18, 10, 7, 14, 11, 11, 5, 7, 5, 8, 9, 6, 8, 6, 7, 8, 37, 15, 6, 8, 9, 7, 14, 13, 10, 9, 8, 12, 9, 4, 15, 4, 3, 12, 7, 11, 7, 6, 5, 9, 2, 10, 8, 8, 11, 2, 16, 7, 7, 20, 17, 13, 9, 10, 13, 27, 13, 11, 11, 21, 17, 24, 22, 8, 17, 339, 697], [-0.4242129623889923, -0.387330025434494, -0.35044705867767334, -0.31356412172317505, -0.27668115496635437, -0.23979820311069489, -0.2029152512550354, -0.16603229939937592, -0.12914936244487762, -0.09226640313863754, -0.055383455008268356, -0.01850050315260887, 0.018382446840405464, 0.0552653968334198, 0.09214834868907928, 0.12903130054473877, 0.16591425240039825, 0.20279720425605774, 0.23968015611171722, 0.2765631079673767, 0.313446044921875, 0.3503290116786957, 0.38721194863319397, 0.42409491539001465, 0.46097785234451294, 0.4978608191013336, 0.5347437858581543, 0.5716267228126526, 0.6085096597671509, 0.6453925967216492, 0.6822755336761475, 0.7191585302352905, 0.7560414671897888, 0.7929244041442871, 0.8298073410987854, 0.8666903376579285, 0.9035732746124268, 0.940456211566925, 0.9773391485214233, 1.0142221450805664, 1.05110502243042, 1.087988018989563, 1.124871015548706, 1.1617538928985596, 1.1986368894577026, 1.2355197668075562, 1.2724027633666992, 1.3092857599258423, 1.3461686372756958, 1.3830516338348389, 1.419934630393982, 1.4568175077438354, 1.4937005043029785, 1.530583381652832, 1.567466378211975, 1.6043493747711182, 1.6412322521209717, 1.6781152486801147, 1.7149982452392578, 1.7518811225891113, 1.7887641191482544, 1.825646996498108, 1.862529993057251, 1.899412989616394, 1.9362958669662476, 1.9731788635253906, 2.010061740875244, 2.0469448566436768, 2.0838277339935303, 2.120710611343384, 2.1575934886932373, 2.19447660446167, 2.2313594818115234, 2.268242359161377, 2.3051254749298096, 2.342008352279663, 2.3788912296295166, 2.415774345397949, 2.4526572227478027, 2.4895401000976562, 2.526423215866089, 2.5633060932159424, 2.600188970565796, 2.6370718479156494, 2.673954963684082, 2.7108378410339355, 2.747720718383789, 2.7846038341522217, 2.821486711502075]]}}, "shape": [10, 1, 28, 28]}, "output.1": {"id": "output.1", "data_group_type": "OUTPUT", "type": "Tensor", "value": {"tensor": [[-0.001122083282098174, -19.390697479248047, -9.659944534301758, -10.61047077178955, -12.616222381591797, -7.457366466522217, -9.198434829711914, -10.071510314941406, -8.302563667297363, -9.703277587890625], [-8.016603469848633, -18.691909790039062, -4.736996173858643, -12.796308517456055, -7.075280666351318, -7.607693672180176, -0.010517054237425327, -14.13969612121582, -11.65697956085205, -11.289430618286133], [-14.15786361694336, -8.5058012008667, -0.005517610814422369, -7.884159088134766, -6.995650291442871, -9.571558952331543, -5.585037708282471, -15.11957836151123, -9.00361442565918, -9.713737487792969], [-0.0023859862703830004, -19.287324905395508, -7.2453155517578125, -9.23856258392334, -14.62865161895752, -7.5507001876831055, -9.846851348876953, -7.497352600097656, -7.746458053588867, -11.964398384094238], [-9.274799346923828, -11.986061096191406, -4.224387168884277, -9.671608924865723, -4.7808051109313965, -6.630085468292236, -0.027129627764225006, -12.762455940246582, -6.226813316345215, -8.181771278381348], [-5.507266044616699, -16.331422805786133, -12.357075691223145, -10.164437294006348, -3.202834129333496, -5.64284610748291, -11.076865196228027, -2.415648937225342, -3.4151451587677, -0.1869152933359146], [-3.8218417167663574, -12.655988693237305, -5.722026824951172, -9.66586971282959, -0.3011403977870941, -2.656463623046875, -3.671971082687378, -3.813525676727295, -3.3273119926452637, -2.5106310844421387], [-14.837257385253906, -20.34951400756836, -1.3232143828645349e-05, -11.466605186462402, -18.327552795410156, -17.391674041748047, -13.199018478393555, -23.26650047302246, -14.668960571289062, -22.87803840637207], [-9.768106460571289, -5.567709922790527, -5.968175411224365, -4.992960453033447, -6.395348072052002, -5.307980060577393, -9.215582847595215, -3.040757417678833, -0.0849849209189415, -4.28790283203125], [-0.19558459520339966, -17.570188522338867, -7.224452972412109, -10.311863899230957, -12.826194763183594, -4.0455522537231445, -1.8366596698760986, -15.71009349822998, -10.413469314575195, -12.822920799255371]], "tensor__stats": {"min": -23.26650047302246, "max": -1.3232143828645349e-05, "mean": -8.707682609558105, "variance": 29.755447387695312, "nobs": 100, "histogram_bins": 10, "histogram": [[2, 4, 4, 7, 11, 16, 19, 13, 13, 11], [-23.26650047302246, -20.939851760864258, -18.613203048706055, -16.28655433654785, -13.959905624389648, -11.633256912231445, -9.306608200073242, -6.979959487915039, -4.653310775756836, -2.326662063598633, -1.3232143828645349e-05]]}}, "shape": [10, 10]}}, "graph": {"nodes": [{"data": {"id": "input.1", "label": "INPUT", "component_ids": ["input.1"]}}, {"data": {"id": 9, "label": "Conv", "component_ids": ["conv1.weight", "conv1.bias"]}}, {"data": {"id": 10, "label": "Relu", "component_ids": []}}, {"data": {"id": 11, "label": "Conv", "component_ids": ["conv2.weight", "conv2.bias"]}}, {"data": {"id": 12, "label": "Relu", "component_ids": []}}, {"data": {"id": 13, "label": "MaxPool", "component_ids": []}}, {"data": {"id": 14, "label": "Flatten", "component_ids": []}}, {"data": {"id": 15, "label": "Gemm", "component_ids": ["fc1.weight", "fc1.bias"]}}, {"data": {"id": 16, "label": "Relu", "component_ids": []}}, {"data": {"id": 17, "label": "Gemm", "component_ids": ["fc2.weight", "fc2.bias"]}}, {"data": {"id": 18, "label": "LogSoftmax", "component_ids": []}}, {"data": {"id": "output.1", "label": "OUTPUT", "component_ids": ["output.1"]}}], "edges": [{"data": {"id": "input.1_9", "source": "input.1", "target": 9}}, {"data": {"id": "9_10", "source": 9, "target": 10}}, {"data": {"id": "10_11", "source": 10, "target": 11}}, {"data": {"id": "11_12", "source": 11, "target": 12}}, {"data": {"id": "12_13", "source": 12, "target": 13}}, {"data": {"id": "13_14", "source": 13, "target": 14}}, {"data": {"id": "14_15", "source": 14, "target": 15}}, {"data": {"id": "15_16", "source": 15, "target": 16}}, {"data": {"id": "16_17", "source": 16, "target": 17}}, {"data": {"id": "17_18", "source": 17, "target": 18}}, {"data": {"id": "18_output.1", "source": "18", "target": "output.1"}}]}}