{"id": "0_200", "meta": {"time": 1638574409.8588564, "refresh_model_graph": false}, "step_info": {"epoch": 0, "iter": 200}, "additional_info": {"pred": {"type": "Tensor", "value": [[6], [8], [9], [4], [2], [6], [9], [7], [1], [0]]}, "loss": {"type": "Tensor", "value": 0.8070308566093445}, "class_label": {"type": "Tensor", "value": [5, 8, 8, 4, 2, 6, 9, 7, 1, 0]}, "test_acc": {"type": "float", "value": 80.63}}, "graph_id": [0, 0], "data": {"conv1.weight": {"id": "conv1.weight", "data_group_type": "PARAM", "type": "Parameter", "value": {"tensor": "NOT SERIALIZED, Too large 288", "grad": "NOT SERIALIZED, Too large 288", "first_delta": "NOT SERIALIZED, Too large 288", "tensor__stats": {"min": -0.3309382200241089, "max": 0.34697479009628296, "mean": 0.008755767717957497, "variance": 0.038620222359895706, "nobs": 288, "histogram_bins": 16, "histogram": [[24, 17, 20, 11, 13, 20, 9, 26, 13, 25, 17, 22, 23, 15, 14, 19], [-0.3309382200241089, -0.2885686457157135, -0.2461991012096405, -0.20382952690124512, -0.16145996749401093, -0.11909040808677673, -0.07672084122896194, -0.034351278096437454, 0.008018285036087036, 0.050387848168611526, 0.09275741130113602, 0.1351269781589508, 0.177496537566185, 0.2198660969734192, 0.2622356712818146, 0.3046052157878876, 0.34697479009628296]]}, "grad__stats": {"min": -0.10277661681175232, "max": 0.011728689074516296, "mean": -0.018667351454496384, "variance": 0.000590220675803721, "nobs": 288, "histogram_bins": 16, "histogram": [[1, 1, 2, 5, 9, 3, 13, 11, 18, 12, 26, 20, 17, 30, 102, 18], [-0.10277661681175232, -0.0956200361251831, -0.08846345543861389, -0.08130687475204468, -0.07415029406547546, -0.06699370592832565, -0.05983712524175644, -0.052680544555187225, -0.04552396386861801, -0.0383673831820488, -0.031210800632834435, -0.02405421808362007, -0.016897637397050858, -0.009741055779159069, -0.0025844741612672806, 0.004572107456624508, 0.011728689074516296]]}, "first_delta__stats": {"min": -0.005555078387260437, "max": 0.026715949177742004, "mean": 0.00626123882830143, "variance": 5.59979525860399e-05, "nobs": 288, "histogram_bins": 16, "histogram": [[7, 36, 36, 38, 32, 14, 22, 22, 21, 15, 15, 6, 9, 8, 5, 2], [-0.005555078387260437, -0.0035381391644477844, -0.0015211999416351318, 0.0004957392811775208, 0.0025126785039901733, 0.004529617726802826, 0.0065465569496154785, 0.008563496172428131, 0.010580435395240784, 0.012597374618053436, 0.014614313840866089, 0.01663125306367874, 0.018648192286491394, 0.020665131509304047, 0.0226820707321167, 0.024699009954929352, 0.026715949177742004]]}}, "shape": [32, 1, 3, 3]}, "conv1.bias": {"id": "conv1.bias", "data_group_type": "PARAM", "type": "Parameter", "value": {"tensor": [0.043348003178834915, 0.33502843976020813, -0.02084989659488201, -0.1644410490989685, -0.3049885928630829, 0.0002694428258109838, 0.125929594039917, 0.014715229161083698, 0.09212581068277359, 0.12358339130878448, 0.19215916097164154, 0.29484522342681885, 0.03959708288311958, -0.23849228024482727, 0.0340072438120842, -0.1125725656747818, 0.19467881321907043, 0.12335862219333649, 0.11567986756563187, 0.15436911582946777, -0.27000540494918823, -0.10651450604200363, 0.2172721028327942, -0.15679827332496643, 0.1165132224559784, 0.24987156689167023, 0.26322847604751587, -0.24697041511535645, 0.14888405799865723, -0.012387615628540516, 0.1027081087231636, 0.3041229844093323], "grad": [-0.013378802686929703, -0.015506643801927567, -0.004159041680395603, -0.010569906793534756, -0.015896620228886604, 0.0016926729585975409, -0.01055500004440546, -0.012133465148508549, -0.0013807155191898346, -0.005874413065612316, -0.0026829317212104797, -0.021927785128355026, -0.01816706173121929, -0.0048477910459041595, -0.005289157386869192, 0.0009154098224826157, -0.0022449770476669073, -0.0013648405438289046, 0.0006330830510705709, -0.001390031073242426, -0.029944458976387978, -0.012475896626710892, -0.005601075943559408, -0.0014911177568137646, -0.00582963926717639, -0.04142625257372856, -0.029930096119642258, -0.0015414509689435363, -0.01465421263128519, 0.002297867089509964, -0.005664851516485214, -0.008342143148183823], "first_delta": [0.007259894162416458, 0.007693588733673096, 0.0021131113171577454, 0.009206235408782959, 0.01196858286857605, -0.002379506826400757, 0.0036704912781715393, 0.005923980847001076, 0.0015544816851615906, 0.003962904214859009, 0.0037229210138320923, 0.006686091423034668, 0.013636795803904533, 0.0032662302255630493, 0.0021747052669525146, 0.0024476349353790283, 0.003659874200820923, 0.0033995434641838074, 0.00022662431001663208, 0.001663997769355774, 0.018445074558258057, 0.009159475564956665, 0.005539387464523315, 0.0009019523859024048, 0.0016147345304489136, 0.015253528952598572, 0.014552414417266846, 0.002916187047958374, 0.006371259689331055, 0.0010448480024933815, 0.005192682147026062, 0.003478407859802246], "tensor__stats": {"min": -0.3049885928630829, "max": 0.33502843976020813, "mean": 0.05163358896970749, "variance": 0.03107411414384842, "nobs": 32, "histogram_bins": 5, "histogram": [[4, 4, 7, 11, 6], [-0.3049885928630829, -0.17698518931865692, -0.04898177832365036, 0.0790216252207756, 0.20702503621578217, 0.33502843976020813]]}, "grad__stats": {"min": -0.04142625257372856, "max": 0.002297867089509964, "mean": -0.009335353970527649, "variance": 0.00010470527922734618, "nobs": 32, "histogram_bins": 5, "histogram": [[1, 2, 4, 7, 18], [-0.04142625257372856, -0.0326814278960228, -0.02393660508096218, -0.015191780403256416, -0.006446956656873226, 0.002297867089509964]]}, "first_delta__stats": {"min": -0.002379506826400757, "max": 0.018445074558258057, "mean": 0.005510253831744194, "variance": 2.357111770834308e-05, "nobs": 32, "histogram_bins": 5, "histogram": [[7, 14, 6, 2, 3], [-0.002379506826400757, 0.0017854094039648771, 0.005950325634330511, 0.010115241631865501, 0.014280158095061779, 0.018445074558258057]]}}, "shape": [32]}, "conv2.weight": {"id": "conv2.weight", "data_group_type": "PARAM", "type": "Parameter", "value": {"tensor": "NOT SERIALIZED, Too large 18432", "grad": "NOT SERIALIZED, Too large 18432", "first_delta": "NOT SERIALIZED, Too large 18432", "tensor__stats": {"min": -0.06161818280816078, "max": 0.07127957046031952, "mean": 0.0021827344316989183, "variance": 0.0011706501245498657, "nobs": 18432, "histogram_bins": 100, "histogram": [[7, 15, 81, 138, 160, 189, 176, 194, 231, 172, 202, 188, 216, 205, 222, 212, 209, 180, 195, 192, 208, 242, 204, 217, 213, 231, 203, 167, 203, 187, 210, 185, 211, 209, 230, 181, 202, 210, 228, 194, 222, 230, 191, 198, 224, 206, 204, 208, 201, 210, 214, 207, 179, 211, 199, 202, 203, 218, 223, 225, 197, 203, 231, 217, 210, 197, 213, 240, 199, 187, 210, 220, 210, 212, 209, 211, 180, 257, 194, 190, 191, 201, 206, 220, 184, 224, 222, 195, 195, 190, 168, 122, 84, 50, 44, 33, 12, 6, 3, 1], [-0.06161818280816078, -0.060289204120635986, -0.05896022915840149, -0.057631250470876694, -0.0563022717833519, -0.0549732968211174, -0.053644318133592606, -0.05231533944606781, -0.050986360758543015, -0.04965738579630852, -0.04832840710878372, -0.046999428421258926, -0.04567045345902443, -0.044341474771499634, -0.04301249608397484, -0.04168352112174034, -0.040354542434215546, -0.03902556374669075, -0.03769658878445625, -0.03636761009693146, -0.03503863140940666, -0.033709656447172165, -0.03238067775964737, -0.031051699072122574, -0.029722722247242928, -0.02839374542236328, -0.027064766734838486, -0.02573578990995884, -0.024406811222434044, -0.023077834397554398, -0.02174885757267475, -0.020419878885149956, -0.01909090206027031, -0.017761923372745514, -0.016432946547865868, -0.015103968791663647, -0.013774991966784, -0.01244601421058178, -0.011117036454379559, -0.009788058698177338, -0.008459081873297691, -0.00713010411709547, -0.0058011263608932495, -0.004472149070352316, -0.003143171314150095, -0.0018141937907785177, -0.0004852162965107709, 0.0008437612559646368, 0.002172738779336214, 0.0035017163027077913, 0.004830693826079369, 0.0061596715822815895, 0.007488648872822523, 0.008817626163363457, 0.010146603919565678, 0.011475581675767899, 0.01280455943197012, 0.014133536256849766, 0.015462514013051987, 0.016791490837931633, 0.01812046952545643, 0.019449446350336075, 0.02077842503786087, 0.022107401862740517, 0.023436378687620163, 0.02476535737514496, 0.026094334200024605, 0.02742331102490425, 0.028752289712429047, 0.030081266537308693, 0.03141024336218834, 0.032739222049713135, 0.03406820073723793, 0.03539717569947243, 0.03672615438699722, 0.03805513307452202, 0.039384108036756516, 0.04071308672428131, 0.04204206541180611, 0.0433710440993309, 0.0447000190615654, 0.046028997749090195, 0.04735797643661499, 0.04868695139884949, 0.05001593008637428, 0.05134490877389908, 0.052673883736133575, 0.05400286242365837, 0.055331841111183167, 0.056660816073417664, 0.05798979476094246, 0.059318773448467255, 0.06064774841070175, 0.06197672709822655, 0.06330570578575134, 0.06463468074798584, 0.06596366316080093, 0.06729263812303543, 0.06862161308526993, 0.06995059549808502, 0.07127957046031952]]}, "grad__stats": {"min": -0.0390750877559185, "max": 0.024730736389756203, "mean": -0.0022845526691526175, "variance": 4.331106538302265e-05, "nobs": 18432, "histogram_bins": 100, "histogram": [[3, 2, 1, 1, 0, 1, 1, 1, 4, 7, 10, 7, 9, 17, 12, 17, 24, 12, 28, 29, 34, 27, 30, 29, 40, 32, 41, 48, 49, 48, 59, 51, 55, 52, 70, 63, 73, 89, 100, 90, 95, 107, 124, 159, 153, 176, 149, 185, 188, 232, 240, 295, 299, 384, 438, 558, 584, 720, 956, 1348, 1850, 2283, 1582, 1068, 711, 527, 338, 315, 212, 158, 130, 107, 62, 82, 53, 28, 27, 16, 24, 19, 23, 13, 11, 11, 8, 15, 10, 14, 14, 18, 6, 9, 10, 4, 6, 2, 6, 3, 0, 1], [-0.0390750877559185, -0.03843703120946884, -0.03779897093772888, -0.03716091439127922, -0.03652285411953926, -0.0358847975730896, -0.03524673730134964, -0.03460868075489998, -0.03397062048316002, -0.03333256393671036, -0.0326945036649704, -0.03205644711852074, -0.031418390572071075, -0.030780330300331116, -0.030142271891236305, -0.029504213482141495, -0.028866155073046684, -0.028228098526597023, -0.027590040117502213, -0.026951981708407402, -0.02631392329931259, -0.02567586489021778, -0.02503780648112297, -0.02439974807202816, -0.02376168966293335, -0.02312363125383854, -0.02248557284474373, -0.021847514435648918, -0.021209457889199257, -0.020571399480104446, -0.019933341071009636, -0.019295282661914825, -0.018657224252820015, -0.018019165843725204, -0.017381107434630394, -0.016743049025535583, -0.016104990616440773, -0.015466933138668537, -0.014828874729573727, -0.014190816320478916, -0.013552757911384106, -0.012914699502289295, -0.01227664202451706, -0.011638583615422249, -0.011000525206327438, -0.010362466797232628, -0.009724408388137817, -0.009086349979043007, -0.008448292501270771, -0.0078102340921759605, -0.00717217568308115, -0.00653411727398634, -0.005896059330552816, -0.005258000921458006, -0.004619942512363195, -0.003981884568929672, -0.0033438261598348618, -0.002705767983570695, -0.002067709807306528, -0.0014296515146270394, -0.0007915932801552117, -0.0001535350311314687, 0.00048452321789227426, 0.0011225814232602715, 0.0017606397159397602, 0.002398697892203927, 0.003036756068468094, 0.0036748144775629044, 0.004312872886657715, 0.004950930830091238, 0.0055889892391860485, 0.006227047182619572, 0.006865105591714382, 0.007503164000809193, 0.008141222409904003, 0.008779279887676239, 0.00941733829677105, 0.01005539670586586, 0.01069345511496067, 0.011331513524055481, 0.011969571933150291, 0.012607629410922527, 0.013245687820017338, 0.013883746229112148, 0.014521804638206959, 0.01515986304730177, 0.015797920525074005, 0.016435978934168816, 0.017074037343263626, 0.017712095752358437, 0.018350154161453247, 0.018988212570548058, 0.019626270979642868, 0.02026432938873768, 0.02090238779783249, 0.02154044434428215, 0.02217850275337696, 0.02281656116247177, 0.02345461957156658, 0.024092677980661392, 0.024730736389756203]]}, "first_delta__stats": {"min": -0.005649924278259277, "max": 0.01634236052632332, "mean": 0.002084211213514209, "variance": 7.865489351388533e-06, "nobs": 18432, "histogram_bins": 100, "histogram": [[2, 1, 1, 5, 4, 4, 11, 9, 19, 26, 32, 43, 54, 55, 89, 104, 147, 160, 148, 208, 203, 267, 333, 420, 686, 1167, 1092, 959, 810, 747, 721, 728, 649, 592, 526, 486, 454, 464, 412, 361, 320, 303, 330, 296, 280, 283, 266, 248, 226, 200, 189, 213, 204, 146, 151, 155, 147, 123, 114, 108, 78, 96, 67, 79, 64, 56, 64, 36, 52, 36, 42, 25, 29, 24, 24, 18, 24, 16, 16, 12, 13, 6, 7, 9, 7, 2, 4, 2, 3, 5, 2, 3, 3, 1, 2, 1, 1, 1, 0, 1], [-0.005649924278259277, -0.005430001299828291, -0.005210078787058592, -0.0049901558086276054, -0.004770232830196619, -0.004550309851765633, -0.0043303873389959335, -0.004110464360564947, -0.0038905413821339607, -0.003670618636533618, -0.0034506958909332752, -0.003230772912502289, -0.003010850166901946, -0.0027909271884709597, -0.002571004442870617, -0.0023510814644396305, -0.0021311587188392878, -0.0019112358568236232, -0.0016913129948079586, -0.001471390132792294, -0.0012514672707766294, -0.0010315445251762867, -0.0008116216049529612, -0.0005916988011449575, -0.00037177593912929296, -0.0001518530771136284, 6.806977035012096e-05, 0.0002879926178138703, 0.0005079154507257044, 0.000727838312741369, 0.0009477611747570336, 0.0011676839785650373, 0.0013876068405807018, 0.0016075297025963664, 0.001827452564612031, 0.0020473753102123737, 0.00226729828864336, 0.002487221034243703, 0.0027071440126746893, 0.002927066758275032, 0.0031469897367060184, 0.003366912482306361, 0.003586835227906704, 0.0038067582063376904, 0.004026681184768677, 0.004246603697538376, 0.004466526675969362, 0.004686449654400349, 0.004906372632831335, 0.005126295145601034, 0.005346218124032021, 0.005566141102463007, 0.005786063615232706, 0.0060059865936636925, 0.006225909572094679, 0.006445832550525665, 0.006665755063295364, 0.006885678041726351, 0.007105601020157337, 0.007325523532927036, 0.007545446511358023, 0.007765369489789009, 0.007985292002558708, 0.008205215446650982, 0.008425137959420681, 0.00864506047219038, 0.008864983916282654, 0.009084906429052353, 0.009304828941822052, 0.009524752385914326, 0.009744674898684025, 0.009964598342776299, 0.010184520855545998, 0.010404443368315697, 0.01062436681240797, 0.01084428932517767, 0.011064211837947369, 0.011284135282039642, 0.011504057794809341, 0.01172398030757904, 0.011943903751671314, 0.012163826264441013, 0.012383749708533287, 0.012603672221302986, 0.012823594734072685, 0.013043518178164959, 0.013263440690934658, 0.013483363203704357, 0.01370328664779663, 0.01392320916056633, 0.014143131673336029, 0.014363055117428303, 0.014582977630198002, 0.014802900142967701, 0.015022823587059975, 0.015242746099829674, 0.015462669543921947, 0.015682591125369072, 0.01590251550078392, 0.01612243801355362, 0.01634236052632332]]}}, "shape": [64, 32, 3, 3]}, "conv2.bias": {"id": "conv2.bias", "data_group_type": "PARAM", "type": "Parameter", "value": {"tensor": [-0.03874907270073891, 0.05811774358153343, -0.004778025671839714, 0.003688564756885171, -0.005783194210380316, -0.009803516790270805, 0.024158811196684837, 0.009674524888396263, -0.023931771516799927, 0.005983331240713596, 0.0025947887916117907, -0.038693662732839584, 0.02675621397793293, 0.039229437708854675, -0.02138409949839115, -0.049346212297677994, 0.002379528945311904, -0.05231447517871857, 0.05803398787975311, -0.04767322167754173, 0.047261226922273636, -0.027309289202094078, -0.0014764659572392702, -0.002124122576788068, 0.04298148676753044, 0.035413507372140884, -0.05205361545085907, -0.040205251425504684, 0.0571344830095768, 0.0633881464600563, 0.005696907173842192, -0.024398230016231537, 0.004709149245172739, 0.05130838602781296, -0.049181949347257614, -0.03809385001659393, 0.004455841612070799, 0.025510180741548538, 0.030196188017725945, -0.021058794111013412, -0.021422186866402626, 0.0575467050075531, -0.0458764024078846, -0.026952380314469337, 0.043734632432460785, 0.034594710916280746, -0.03361191228032112, 0.007255509030073881, -0.02910851687192917, -0.013649350963532925, 0.04555492103099823, -0.044591233134269714, 0.019722741097211838, -0.0339929424226284, 0.006992490030825138, 0.050538647919893265, 0.05735951289534569, 0.04925213381648064, -0.03656570240855217, -0.017651770263910294, -0.01078464649617672, 0.03933199122548103, 0.024226760491728783, 0.04534654691815376], "grad": [0.0025916683953255415, -0.0013766539050266147, -0.004578504711389542, 0.0008029071614146233, 0.004153105895966291, -0.01016729511320591, 0.0019088895060122013, 0.0075874971225857735, -0.011739865876734257, -0.005420431960374117, -0.003562489990144968, 0.0023069498129189014, -0.003008422674611211, -0.005167659837752581, 0.009236002340912819, -0.00966592226177454, 4.023742803838104e-06, -0.006723595783114433, 0.011295180767774582, -0.00826603639870882, -0.004857546184211969, 0.009985140524804592, -0.0029510403983294964, -0.005807779263705015, -0.009664712473750114, -0.0009749491582624614, 0.005968188866972923, -0.007972238585352898, -0.007316179107874632, 0.0011822367087006569, -0.0007779899169690907, 0.003018162678927183, 0.0005225191125646234, 0.00176325929351151, -0.0036622213665395975, -0.00967608205974102, 0.0035091417375952005, -0.009086539968848228, -0.009306288324296474, 0.001441186643205583, -0.0028906967490911484, -0.00618465943261981, -0.003120911307632923, -0.01361576747149229, 0.0020891970489174128, -0.001824349514208734, -0.007509833201766014, -0.003924958407878876, -0.0013993928441777825, -0.01735200360417366, -0.000698117830324918, -0.011937521398067474, 0.006788009312003851, 0.008794991299510002, -0.003623189637437463, 0.0021263041999191046, -0.003974094521254301, -0.010163823142647743, -0.004061514046043158, -0.013132368214428425, -0.0037496122531592846, 0.0054011717438697815, -0.004723176825791597, -0.00602035503834486], "first_delta": [0.0030657723546028137, 0.0024041980504989624, 0.0010958542115986347, 0.0012288957368582487, 0.0018324535340070724, 0.0019698403775691986, 0.008104458451271057, 0.001904296688735485, 0.004375549033284187, 0.0035130763426423073, 0.00047587696462869644, 0.0018493086099624634, 0.001991238445043564, 0.004544906318187714, 0.0010501127690076828, 0.004805766046047211, 0.0019958310294896364, 0.0060460008680820465, 0.0016152821481227875, 0.002776864916086197, 0.0046983323991298676, 0.001402268186211586, 0.0015589219983667135, 0.0029829165432602167, 0.0037965774536132812, 0.002561599016189575, 0.0014765337109565735, 0.003243483603000641, 0.0023186095058918, 0.0072240643203258514, 0.007196260150521994, 0.0030770059674978256, 0.000513044185936451, 0.0009870640933513641, 0.0016366541385650635, 0.004252530634403229, 0.0020441918168216944, 0.0013313069939613342, 0.003842052072286606, 0.0026383493095636368, 0.0028712712228298187, 0.001144513487815857, 0.006261706352233887, 0.007931584492325783, 0.0011406205594539642, 0.0033802203834056854, 0.008324898779392242, 0.0006964267231523991, 0.002278100699186325, 0.005456996150314808, 0.0030007511377334595, 0.006178382784128189, 0.0019716061651706696, 0.0007793456315994263, 0.002956051379442215, 0.0018540695309638977, 0.002127416431903839, 0.004177827388048172, 0.003093421459197998, 0.0017921589314937592, 0.004773279651999474, 0.0030611567199230194, 0.0015438813716173172, 0.009080026298761368], "tensor__stats": {"min": -0.05231447517871857, "max": 0.0633881464600563, "mean": 0.0033994349651038647, "variance": 0.0012588800163939595, "nobs": 64, "histogram_bins": 8, "histogram": [[11, 8, 7, 9, 6, 5, 9, 9], [-0.05231447517871857, -0.03785164654254913, -0.02338881976902485, -0.00892599206417799, 0.005536835640668869, 0.019999664276838303, 0.03446248918771744, 0.04892531782388687, 0.0633881464600563]]}, "grad__stats": {"min": -0.01735200360417366, "max": 0.011295180767774582, "mean": -0.0026431414298713207, "variance": 3.8759419112466276e-05, "nobs": 64, "histogram_bins": 8, "histogram": [[1, 4, 12, 16, 11, 11, 5, 4], [-0.01735200360417366, -0.01377110555768013, -0.0101902075111866, -0.0066093094646930695, -0.003028411418199539, 0.0005524866282939911, 0.004133384674787521, 0.007714282721281052, 0.011295180767774582]]}, "first_delta__stats": {"min": 0.00047587696462869644, "max": 0.009080026298761368, "mean": 0.0031453603878617287, "variance": 4.418471689859871e-06, "nobs": 64, "histogram_bins": 8, "histogram": [[14, 18, 13, 8, 2, 3, 3, 3], [0.00047587696462869644, 0.0015513956313952804, 0.0026269142981618643, 0.0037024328485131264, 0.004777951631695032, 0.005853470414876938, 0.006928988732397556, 0.00800450798124075, 0.009080026298761368]]}}, "shape": [64]}, "fc1.weight": {"id": "fc1.weight", "data_group_type": "PARAM", "type": "Parameter", "value": {"tensor": "NOT SERIALIZED, Too large 1179648", "grad": "NOT SERIALIZED, Too large 1179648", "first_delta": "NOT SERIALIZED, Too large 1179648", "tensor__stats": {"min": -0.014121629297733307, "max": 0.015404109843075275, "mean": 0.00015916320262476802, "variance": 3.6675730370916426e-05, "nobs": 1179648, "histogram_bins": 100, "histogram": [[3, 3, 10, 20, 37, 105, 157, 296, 527, 852, 1337, 2538, 6832, 11317, 13431, 14594, 15273, 15767, 16130, 16307, 16548, 16581, 16770, 16620, 16784, 16833, 16577, 16726, 16780, 16819, 16866, 16729, 16834, 16630, 16786, 16834, 16733, 16739, 16819, 16748, 16743, 16887, 16899, 16833, 16545, 16597, 16556, 16804, 16628, 16867, 16670, 16871, 16427, 16659, 16573, 16761, 16757, 16382, 16676, 16647, 16735, 16696, 16712, 16750, 17001, 16664, 16675, 16783, 16678, 16691, 16892, 16503, 16747, 16643, 16758, 16709, 16673, 16237, 16448, 16017, 15640, 14920, 13104, 7119, 4284, 2665, 1774, 1174, 724, 449, 294, 169, 110, 65, 37, 11, 13, 4, 4, 2], [-0.014121629297733307, -0.013826372101902962, -0.013531114906072617, -0.013235856778919697, -0.012940599583089352, -0.012645342387259007, -0.012350085191428661, -0.012054827995598316, -0.011759569868445396, -0.011464312672615051, -0.011169055476784706, -0.010873798280954361, -0.010578540153801441, -0.010283282957971096, -0.009988025762140751, -0.009692768566310406, -0.00939751137048006, -0.00910225324332714, -0.008806996047496796, -0.00851173885166645, -0.008216481655836105, -0.00792122446000576, -0.007625966798514128, -0.007330709137022495, -0.00703545194119215, -0.006740194279700518, -0.0064449370838701725, -0.006149679888039827, -0.005854422226548195, -0.00555916503071785, -0.005263907369226217, -0.004968650173395872, -0.004673392977565527, -0.0043781353160738945, -0.004082878120243549, -0.0037876206915825605, -0.0034923632629215717, -0.003197105834260583, -0.002901848405599594, -0.0026065909769386053, -0.0023113335482776165, -0.0020160763524472713, -0.0017208188073709607, -0.0014255614951252937, -0.001130304066464305, -0.000835046696010977, -0.0005397892673499882, -0.00024453189689666033, 5.0725488108582795e-05, 0.0003459828731138259, 0.0006412402726709843, 0.0009364976431243122, 0.00123175501357764, 0.0015270124422386289, 0.0018222698708996177, 0.0021175271831452847, 0.0024127846118062735, 0.0027080420404672623, 0.003003299469128251, 0.00329855689778924, 0.003593814093619585, 0.003889071522280574, 0.004184328950941563, 0.004479586146771908, 0.00477484380826354, 0.005070101004093885, 0.005365358665585518, 0.005660615861415863, 0.0059558735229074955, 0.006251130718737841, 0.006546387914568186, 0.006841645576059818, 0.007136902771890163, 0.007432160433381796, 0.007727417629212141, 0.008022675290703773, 0.008317932486534119, 0.008613189682364464, 0.008908446878194809, 0.009203705005347729, 0.009498962201178074, 0.009794219397008419, 0.010089476592838764, 0.01038473378866911, 0.010679991915822029, 0.010975249111652374, 0.01127050630748272, 0.011565763503313065, 0.01186102069914341, 0.01215627882629633, 0.012451536022126675, 0.01274679321795702, 0.013042050413787365, 0.013337308540940285, 0.01363256573677063, 0.013927822932600975, 0.01422308012843132, 0.014518337324261665, 0.014813595451414585, 0.01510885264724493, 0.015404109843075275]]}, "grad__stats": {"min": -0.07480800896883011, "max": 0.0707649514079094, "mean": -0.00017317288438789546, "variance": 2.7021998903364874e-05, "nobs": 1179648, "histogram_bins": 100, "histogram": [[1, 0, 2, 4, 1, 2, 1, 5, 7, 2, 4, 12, 10, 11, 16, 23, 23, 36, 44, 63, 68, 80, 94, 124, 127, 170, 194, 272, 324, 363, 465, 565, 716, 826, 1053, 1291, 1608, 1920, 2433, 3021, 3839, 4507, 5806, 7139, 9035, 11353, 15167, 20656, 31929, 59853, 136987, 598547, 108609, 47712, 26628, 17422, 12589, 9613, 7479, 5850, 4655, 3823, 2938, 2378, 1900, 1454, 1146, 976, 727, 642, 495, 403, 304, 222, 198, 146, 113, 81, 73, 62, 45, 34, 40, 22, 8, 13, 9, 8, 7, 9, 6, 1, 0, 2, 2, 3, 0, 1, 0, 1], [-0.07480800896883011, -0.07335227727890015, -0.07189655303955078, -0.07044082134962082, -0.06898508965969086, -0.0675293579697609, -0.06607363373041153, -0.06461790204048157, -0.0631621703505516, -0.06170644238591194, -0.06025071442127228, -0.058794982731342316, -0.05733925476670265, -0.05588352307677269, -0.054427795112133026, -0.052972063422203064, -0.0515163354575634, -0.05006060749292374, -0.048604875802993774, -0.04714914783835411, -0.04569341614842415, -0.044237688183784485, -0.04278195649385452, -0.04132622852921486, -0.0398704968392849, -0.03841476887464523, -0.03695904091000557, -0.03550330922007561, -0.034047581255435944, -0.03259184956550598, -0.031136121600866318, -0.029680391773581505, -0.028224661946296692, -0.02676893211901188, -0.025313202291727066, -0.023857472464442253, -0.02240174263715744, -0.020946012809872627, -0.019490284845232964, -0.01803455501794815, -0.016578825190663338, -0.015123095363378525, -0.013667365536093712, -0.012211635708808899, -0.01075590681284666, -0.009300176985561848, -0.007844447158277035, -0.006388717796653509, -0.004932987969368696, -0.003477258374914527, -0.0020215287804603577, -0.0005657991860061884, 0.0008899304084479809, 0.00234566000290215, 0.0038013895973563194, 0.005257119424641132, 0.006712848786264658, 0.008168578147888184, 0.009624307975172997, 0.01108003780245781, 0.012535767629742622, 0.01399149652570486, 0.015447226352989674, 0.016902955248951912, 0.018358685076236725, 0.019814414903521538, 0.02127014473080635, 0.022725874558091164, 0.024181604385375977, 0.02563733421266079, 0.027093064039945602, 0.028548792004585266, 0.03000452183187008, 0.03146025165915489, 0.032915983349084854, 0.03437171131372452, 0.03582743927836418, 0.037283170968294144, 0.03873889893293381, 0.04019463062286377, 0.04165035858750343, 0.043106090277433395, 0.04456181824207306, 0.04601754993200302, 0.047473277896642685, 0.04892900586128235, 0.05038473755121231, 0.051840465515851974, 0.05329619720578194, 0.0547519251704216, 0.05620765686035156, 0.057663384824991226, 0.05911911278963089, 0.06057484447956085, 0.062030572444200516, 0.06348630040884018, 0.06494203209877014, 0.0663977637887001, 0.06785349547863007, 0.06930921971797943, 0.0707649514079094]]}, "first_delta__stats": {"min": -0.005531325936317444, "max": 0.006048779934644699, "mean": 0.00016129693540278822, "variance": 5.203260684538691e-07, "nobs": 1179648, "histogram_bins": 100, "histogram": [[1, 0, 1, 1, 0, 3, 5, 4, 2, 3, 4, 5, 11, 20, 17, 36, 63, 62, 80, 108, 151, 201, 237, 332, 402, 524, 653, 849, 1082, 1405, 1695, 2120, 2791, 3368, 4007, 5019, 6226, 7469, 9057, 11021, 13620, 16473, 20455, 25943, 35101, 52907, 99618, 290376, 102647, 77039, 64937, 54031, 44997, 36967, 30345, 25032, 20742, 17267, 14876, 12414, 10431, 8861, 7499, 6295, 5241, 4544, 3697, 3213, 2677, 2190, 1870, 1518, 1336, 1054, 852, 721, 607, 452, 355, 306, 237, 194, 139, 115, 114, 70, 56, 46, 37, 30, 21, 11, 11, 7, 5, 7, 1, 3, 2, 1], [-0.005531325936317444, -0.005415524821728468, -0.005299723707139492, -0.005183922592550516, -0.00506812147796154, -0.004952320829033852, -0.004836519714444876, -0.0047207185998559, -0.004604917485266924, -0.004489116370677948, -0.004373315256088972, -0.004257514141499996, -0.00414171302691102, -0.004025912377983332, -0.003910111263394356, -0.00379431014880538, -0.003678509034216404, -0.003562707919627428, -0.003446906805038452, -0.00333110592328012, -0.003215304808691144, -0.003099503694102168, -0.002983702579513192, -0.00286790169775486, -0.002752100583165884, -0.002636299468576908, -0.002520498353987932, -0.0024046972393989563, -0.002288896357640624, -0.002173095243051648, -0.0020572941284626722, -0.0019414931302890182, -0.0018256920157000422, -0.0017098910175263882, -0.0015940899029374123, -0.0014782889047637582, -0.0013624877901747823, -0.0012466867920011282, -0.0011308856774121523, -0.0010150846792384982, -0.0008992835646495223, -0.0007834825082682073, -0.0006676814518868923, -0.0005518803955055773, -0.00043607933912426233, -0.00032027828274294734, -0.00020447724091354758, -8.867617725627497e-05, 2.7124880944029428e-05, 0.00014292594278231263, 0.0002587269991636276, 0.0003745280555449426, 0.0004903291119262576, 0.0006061301683075726, 0.0007219312246888876, 0.0008377322810702026, 0.0009535333374515176, 0.0010693344520404935, 0.0011851354502141476, 0.0013009365648031235, 0.0014167375629767776, 0.0015325386775657535, 0.0016483396757394075, 0.0017641407903283834, 0.0018799417885020375, 0.0019957427866756916, 0.0021115439012646675, 0.0022273450158536434, 0.0023431461304426193, 0.0024589470122009516, 0.0025747481267899275, 0.0026905492413789034, 0.0028063503559678793, 0.0029221512377262115, 0.0030379523523151875, 0.0031537534669041634, 0.0032695545814931393, 0.003385355696082115, 0.0035011565778404474, 0.0036169576924294233, 0.0037327588070183992, 0.003848559921607375, 0.003964360803365707, 0.004080161917954683, 0.004195963032543659, 0.004311764147132635, 0.004427565261721611, 0.004543366376310587, 0.0046591670252382755, 0.0047749681398272514, 0.004890769254416227, 0.005006570369005203, 0.005122371483594179, 0.005238172598183155, 0.005353973712772131, 0.005469774827361107, 0.0055855754762887955, 0.005701376590877771, 0.005817177705466747, 0.005932978820055723, 0.006048779934644699]]}}, "shape": [128, 9216]}, "fc1.bias": {"id": "fc1.bias", "data_group_type": "PARAM", "type": "Parameter", "value": {"tensor": [-0.005426354706287384, 0.009952472522854805, -0.002729005180299282, -0.0013702614232897758, -1.3416217370831873e-05, 0.0044131772592663765, 0.0007685540476813912, -0.004583633504807949, -0.0002958006225526333, 0.0011165268952026963, 0.006428213324397802, 0.004524643067270517, 0.009683987125754356, 0.007685523014515638, -0.0016417424194514751, -0.0041707949712872505, 0.007425467949360609, 0.008359445258975029, -0.005662455689162016, -0.003374342340976, -0.01013393048197031, 0.0030104992911219597, 0.0029117316007614136, -0.003248341381549835, 0.004089871421456337, -0.002712966175749898, -0.006451332941651344, -0.00849738996475935, 0.007365659344941378, 0.0015703660901635885, -0.00962018221616745, 0.010977338068187237, 0.0007992817554622889, -0.0034369577188044786, 0.0028910927940160036, -0.009946194477379322, -0.0004997946671210229, -0.0025298993568867445, -0.005527630914002657, 0.010310846380889416, 0.001078975503332913, -0.006089622620493174, -0.008231289684772491, 0.008053773082792759, -0.005009710323065519, -0.004011805169284344, 0.007501654326915741, 0.008779365569353104, 0.004374231677502394, -0.0012414020020514727, 0.003966865595430136, 0.0015044581377878785, 0.00888192281126976, -0.007645571604371071, 0.0021687389817088842, -0.000173288892256096, -0.008180593140423298, 0.0084456168115139, 0.0006117847515270114, 0.0005946092423982918, -0.0001291017106268555, 0.0017101612174883485, -0.005874695256352425, 0.004739105235785246, 0.006312595214694738, -0.008313617669045925, 0.007316058035939932, 0.009478168562054634, -0.005427875090390444, 0.007990963757038116, 0.006813735235482454, 0.00720778526738286, 0.0036503085866570473, -0.009161463007330894, 0.006968873552978039, 0.008059746585786343, 0.00017235141422133893, -0.007829888723790646, -0.001336029963567853, -0.007766670547425747, 0.0032586853485554457, -0.004035204648971558, 0.003830584930256009, 0.00010945569374598563, -0.00836762972176075, -0.007151265628635883, 0.009748268872499466, 0.0014768034452572465, 0.0028129934798926115, 0.004643458407372236, 0.0026266465429216623, 0.003939827438443899, -0.006434848997741938, 0.0067524295300245285, -0.0035155699588358402, 0.001012830645777285, -0.0020527092274278402, -0.009785239584743977, -0.0009730867459438741, -0.0038493264000862837, -0.003745775204151869, 0.005944523960351944, -0.005884330719709396, -0.001713464385829866, -0.0004879141051787883, -0.0019359522266313434, 0.0007029625121504068, -0.00293872132897377, -0.0030993500258773565, -0.0055524506606161594, 0.006833670195192099, 0.005031407345086336, -0.008166233077645302, -0.009859503246843815, -0.002810586243867874, 0.009462747722864151, -0.0031303069554269314, -0.001797346631065011, -0.009811832569539547, 0.0035268787760287523, 0.004990508779883385, 0.0043968623504042625, -0.0034979511983692646, -0.007639532908797264, -0.006621073931455612, 0.011129532009363174, -0.002845977433025837, -0.0030855305958539248], "grad": [-0.0055268569849431515, -0.005635651759803295, 0.001726137357763946, -0.008734943345189095, 0.000186216551810503, 0.007263572420924902, -0.01568867824971676, -0.011153507977724075, -0.009248190559446812, 0.0, -0.0025220753159374, -0.003282430348917842, 0.0, -0.005385864991694689, 0.01066122017800808, 0.012052848003804684, -0.0077330865897238255, 0.0039980425499379635, 0.009199448861181736, -0.0023444141261279583, 0.0, 0.0, -0.003778982674703002, 0.0075608170591294765, -0.01025628112256527, 0.005749262869358063, 0.007123157382011414, -0.010422063060104847, 0.0019494129810482264, -0.016246039420366287, 0.008965836837887764, 0.008204983547329903, -0.010629389435052872, -0.0017315325094386935, -0.007045660633593798, 0.0, -0.0037988631520420313, -0.0014667017385363579, -0.00782857183367014, 0.002870112657546997, 0.0020236335694789886, -0.0013288954505696893, 0.0035805762745440006, 0.002472452586516738, -0.004547344986349344, -0.0010506934486329556, 0.0, 0.00048781646182760596, 0.011419461108744144, -0.009355888701975346, 0.0, 0.009003501385450363, -0.010778880678117275, 0.0030703700613230467, -0.006837035529315472, 0.0034594503231346607, -0.005660519003868103, 0.0, 0.006346604321151972, -0.008927219547331333, -0.0006465704645961523, -0.010787120088934898, 0.001049388200044632, -0.009171999990940094, 0.0, -0.0061476328410208225, -0.0005691575352102518, 0.005480047781020403, 0.0, 0.014831479638814926, 0.0016570724546909332, 0.0, -0.013972466811537743, 0.0, -0.01070514414459467, 0.0004167557926848531, -0.007370236795395613, -0.0012591539416462183, -0.006136247422546148, 0.006187408696860075, -0.007308050058782101, 0.008630530908703804, 0.003203711938112974, -0.0035745101049542427, -0.0001933642488438636, 0.0028518391773104668, 0.00010083604865940288, -0.011056019924581051, 0.0, 0.010461983270943165, 0.0028994118329137564, -0.00308397994376719, 0.0, -0.0003588901599869132, 0.0, 0.006972171366214752, -0.005308877676725388, 0.0, -0.008888112381100655, -0.0021987261716276407, 0.0013773697428405285, 0.004527600482106209, 0.0, -0.0036332153249531984, 0.0, 0.0058911824598908424, -0.007695427630096674, 0.004062348511070013, 0.0, -0.009223124012351036, 0.005811335518956184, -0.006754865404218435, 0.0, 0.0021083084866404533, 0.0, 0.009839992970228195, 0.0, -0.0007019748445600271, 0.010025101713836193, 0.014490186236798763, -0.006998568307608366, 0.0015832525677978992, -0.004059209022670984, 0.010357138700783253, 0.005863255821168423, 0.004831214901059866, 0.0, 0.0037176297046244144], "first_delta": [2.4526380002498627e-06, 0.0016721254214644432, 0.0007686899043619633, 0.00034922955092042685, 0.00013209487951826304, 0.00045695481821894646, 6.720854435116053e-05, -0.0001313476823270321, 0.0017952211201190948, -0.000179069465957582, -0.00012604380026459694, 0.00042330427095294, -0.0004123132675886154, 0.0006040330044925213, 0.0011830248404294252, 0.0007471581920981407, 0.0005195667035877705, 0.0003443323075771332, 0.0004376079887151718, 0.0017755660228431225, -0.00013046525418758392, -0.0003433884121477604, 0.0007508595008403063, 0.0010562017560005188, -0.00022808276116847992, 0.0012074003461748362, 0.0012383032590150833, -0.0005160225555300713, 0.00042188074439764023, 0.00023246777709573507, 0.0005051903426647186, 0.0007172301411628723, 0.00023167661856859922, -2.8738053515553474e-05, 0.00017242669127881527, -0.00037838704884052277, 0.0007532601593993604, 0.0008586694020777941, 0.0006761061958968639, 0.0005421899259090424, 0.0004956161137670279, 0.001237222459167242, 0.0007721409201622009, 0.0005613472312688828, 0.0002682809717953205, 0.0011283443309366703, -0.00011291354894638062, 0.0012773387134075165, -0.0002495553344488144, 0.0006347448797896504, -0.0002906098961830139, 0.0003984516952186823, 0.00025455374270677567, 0.0009764451533555984, 0.0007943253731355071, 0.0005805633263662457, 0.0006981929764151573, -0.0003162156790494919, 0.00036424415884539485, 0.00039909358019940555, 0.0006115741562098265, 0.00019994459580630064, 0.000591040588915348, 0.0007680053822696209, -4.168367013335228e-05, 0.0009764879941940308, 0.0006600297056138515, 0.0007621925324201584, -0.00045695947483181953, 0.0003275396302342415, 0.00026082154363393784, -0.00026460597291588783, 1.5203841030597687e-05, -4.715006798505783e-05, 6.324052810668945e-05, -0.0005176253616809845, -0.0001117131469072774, 0.001676749438047409, 0.001107263844460249, 0.0005446933209896088, 0.0003618511836975813, 0.0005397908389568329, 0.0009931789245456457, 0.0006038961000740528, 0.0004743989557027817, 5.1241833716630936e-05, -1.983344554901123e-05, 0.0008215658599510789, -0.00020807166583836079, 4.7390349209308624e-06, 0.00019696238450706005, -0.00039585307240486145, -0.00012967316433787346, 0.00030775414779782295, -0.00010061729699373245, 0.0003134098369628191, 0.0010358942672610283, -0.00037668365985155106, 0.0007382582989521325, 0.00045760837383568287, 0.0004399362951517105, 0.0004788460209965706, -0.0003667348064482212, 0.00029331480618566275, -0.0003437242703512311, 0.0012818119721487164, -0.0001320315059274435, 0.001121861394494772, -0.00016147922724485397, 0.00045456644147634506, 0.0005493573844432831, 0.00017688563093543053, -0.00015573110431432724, -0.00014003831893205643, -5.035474896430969e-05, 0.00034936610609292984, -0.0001525282859802246, -0.0001544053666293621, 0.0005056550726294518, 0.0003521342296153307, 0.0012213108129799366, 0.0002521909773349762, 0.0011010938324034214, 0.0006214193999767303, 0.0007642148993909359, 0.0007968144491314888, -5.013449117541313e-05, 0.0006622369401156902], "tensor__stats": {"min": -0.01013393048197031, "max": 0.011129532009363174, "mean": 0.00010792070679599419, "variance": 3.3942276786547154e-05, "nobs": 128, "histogram_bins": 11, "histogram": [[11, 10, 10, 19, 11, 14, 11, 14, 8, 12, 8], [-0.01013393048197031, -0.008200888521969318, -0.006267846561968327, -0.0043348041363060474, -0.0024017624091356993, -0.00046872024540789425, 0.001464321743696928, 0.0033973639365285635, 0.005330405663698912, 0.007263448089361191, 0.009196490049362183, 0.011129532009363174]]}, "grad__stats": {"min": -0.016246039420366287, "max": 0.014831479638814926, "mean": -0.000532386067789048, "variance": 4.155293936491944e-05, "nobs": 128, "histogram_bins": 11, "histogram": [[3, 6, 10, 15, 11, 37, 15, 13, 8, 7, 3], [-0.016246039420366287, -0.013420809991657734, -0.010595581494271755, -0.007770352531224489, -0.004945123568177223, -0.0021198943722993135, 0.0007053345907479525, 0.0035305635537952185, 0.006355792749673128, 0.009181021712720394, 0.012006250210106373, 0.014831479638814926]]}, "first_delta__stats": {"min": -0.0005176253616809845, "max": 0.0017952211201190948, "mean": 0.00039492896758019924, "variance": 2.699853212106973e-07, "nobs": 128, "histogram_bins": 11, "histogram": [[11, 19, 12, 14, 22, 18, 12, 9, 7, 0, 4], [-0.0005176253616809845, -0.0003073666011914611, -9.710781887406483e-05, 0.00011315094889141619, 0.0003234097093809396, 0.0005336684989742935, 0.0007439272594638169, 0.0009541860199533403, 0.0011644448386505246, 0.001374703599140048, 0.0015849623596295714, 0.0017952211201190948]]}}, "shape": [128]}, "fc2.weight": {"id": "fc2.weight", "data_group_type": "PARAM", "type": "Parameter", "value": {"tensor": "NOT SERIALIZED, Too large 1280", "grad": "NOT SERIALIZED, Too large 1280", "first_delta": "NOT SERIALIZED, Too large 1280", "tensor__stats": {"min": -0.09799231588840485, "max": 0.09119898080825806, "mean": -0.0013843815540894866, "variance": 0.002809317549690604, "nobs": 1280, "histogram_bins": 35, "histogram": [[10, 28, 42, 32, 45, 37, 30, 38, 37, 38, 39, 42, 43, 43, 22, 40, 43, 45, 45, 29, 31, 37, 38, 36, 33, 38, 46, 35, 30, 39, 40, 41, 38, 43, 27], [-0.09799231588840485, -0.09258685261011124, -0.08718138188123703, -0.08177591860294342, -0.07637045532464981, -0.0709649845957756, -0.065559521317482, -0.060154058039188385, -0.05474859103560448, -0.04934312403202057, -0.04393766075372696, -0.03853219375014305, -0.03312672674655914, -0.027721263468265533, -0.022315796464681625, -0.016910331323742867, -0.011504866182804108, -0.0060994005762040615, -0.0006939347367733717, 0.004711531102657318, 0.010116996243596077, 0.01552246231585741, 0.020927928388118744, 0.026333393529057503, 0.03173885866999626, 0.03714432567358017, 0.04254978895187378, 0.04795525595545769, 0.053360722959041595, 0.058766186237335205, 0.06417164951562881, 0.06957712024450302, 0.07498258352279663, 0.08038804680109024, 0.08579351752996445, 0.09119898080825806]]}, "grad__stats": {"min": -0.43248605728149414, "max": 0.2175663560628891, "mean": 7.450580707946131e-10, "variance": 0.004696570802479982, "nobs": 1280, "histogram_bins": 35, "histogram": [[2, 1, 1, 1, 1, 2, 5, 3, 1, 7, 3, 4, 6, 10, 6, 4, 11, 12, 16, 36, 39, 62, 88, 445, 196, 133, 84, 45, 30, 15, 4, 5, 1, 0, 1], [-0.43248605728149414, -0.41391313076019287, -0.3953402042388916, -0.37676727771759033, -0.35819435119628906, -0.3396214246749878, -0.3210484981536865, -0.30247557163238525, -0.283902645111084, -0.2653297185897827, -0.24675679206848145, -0.22818386554718018, -0.2096109390258789, -0.19103801250457764, -0.17246508598327637, -0.1538921594619751, -0.13531923294067383, -0.11674631386995316, -0.09817338734865189, -0.07960046082735062, -0.06102753430604935, -0.04245460778474808, -0.023881683126091957, -0.005308757070451975, 0.013264168985188007, 0.0318370945751667, 0.05041002109646797, 0.06898294389247894, 0.08755587041378021, 0.10612879693508148, 0.12470172345638275, 0.14327464997768402, 0.1618475764989853, 0.18042050302028656, 0.19899342954158783, 0.2175663560628891]]}, "first_delta__stats": {"min": -0.01796240732073784, "max": 0.005703262984752655, "mean": -0.0009881819132715464, "variance": 9.361987395095639e-06, "nobs": 1280, "histogram_bins": 35, "histogram": [[1, 0, 0, 1, 1, 3, 4, 2, 0, 3, 3, 6, 6, 9, 14, 14, 13, 22, 21, 33, 41, 42, 51, 52, 90, 112, 360, 95, 97, 81, 59, 19, 17, 6, 2], [-0.01796240732073784, -0.01728624477982521, -0.01661008410155773, -0.015933921560645103, -0.015257759019732475, -0.014581597410142422, -0.013905434869229794, -0.01322927325963974, -0.012553111650049686, -0.011876949109137058, -0.011200787499547005, -0.010524624958634377, -0.009848463349044323, -0.009172300808131695, -0.008496139198541641, -0.007819977588951588, -0.0071438150480389595, -0.006467652972787619, -0.005791491363197565, -0.005115329287946224, -0.004439167212694883, -0.0037630051374435425, -0.0030868430621922016, -0.0024106812197715044, -0.0017345191445201635, -0.0010583570692688227, -0.0003821950813289732, 0.0002939669066108763, 0.0009701289236545563, 0.0016462908824905753, 0.0023224528413265944, 0.0029986149165779352, 0.003674776991829276, 0.004350938834249973, 0.005027100909501314, 0.005703262984752655]]}}, "shape": [10, 128]}, "fc2.bias": {"id": "fc2.bias", "data_group_type": "PARAM", "type": "Parameter", "value": {"tensor": [0.04971286654472351, 0.04027260094881058, -0.023234888911247253, 0.02485930174589157, 0.05748078227043152, 0.03547745943069458, -0.044906046241521835, 0.022472061216831207, -0.0795283392071724, 0.028124187141656876], "grad": [-0.0009931849781423807, -0.04095492884516716, 0.04512941837310791, 0.027686508372426033, -0.001476868987083435, 0.016943972557783127, 0.020638357847929, 0.02102528139948845, -0.10784514248371124, 0.019846588373184204], "first_delta": [-0.0011437945067882538, 0.0002581104636192322, 0.0003077704459428787, -0.0004736613482236862, -0.0004998371005058289, 8.34539532661438e-05, -0.0009893141686916351, 0.0011030305176973343, -0.0004925280809402466, 0.0003344733268022537], "tensor__stats": {"min": -0.0795283392071724, "max": 0.05748078227043152, "mean": 0.011072998866438866, "variance": 0.002024993998929858, "nobs": 10, "histogram_bins": 5, "histogram": [[1, 1, 1, 3, 4], [-0.0795283392071724, -0.05212651565670967, -0.0247246902436018, 0.002677133772522211, 0.030078958719968796, 0.05748078227043152]]}, "grad__stats": {"min": -0.10784514248371124, "max": 0.04512941837310791, "mean": 0.0, "variance": 0.001962582813575864, "nobs": 10, "histogram_bins": 5, "histogram": [[1, 0, 1, 2, 6], [-0.10784514248371124, -0.07725022733211517, -0.0466553196310997, -0.01606040634214878, 0.014534506015479565, 0.04512941837310791]]}, "first_delta__stats": {"min": -0.0011437945067882538, "max": 0.0011030305176973343, "mean": -0.0001512296439614147, "variance": 4.746597142002429e-07, "nobs": 10, "histogram_bins": 5, "histogram": [[2, 3, 1, 3, 1], [-0.0011437945067882538, -0.0006944295018911362, -0.00024506449699401855, 0.00020430050790309906, 0.0006536655128002167, 0.0011030305176973343]]}}, "shape": [10]}, "input.1": {"id": "input.1", "data_group_type": "INPUT", "type": "Tensor", "value": {"tensor": "NOT SERIALIZED, Too large 7840", "tensor__stats": {"min": -0.4242129623889923, "max": 2.821486711502075, "mean": 0.12663382291793823, "variance": 1.2917662858963013, "nobs": 7840, "histogram_bins": 88, "histogram": [[6079, 15, 14, 13, 20, 10, 12, 13, 6, 11, 6, 8, 8, 4, 8, 5, 12, 8, 10, 13, 9, 6, 25, 20, 14, 6, 4, 4, 18, 10, 11, 11, 7, 3, 3, 1, 13, 7, 3, 10, 10, 5, 5, 6, 38, 4, 10, 12, 5, 3, 4, 5, 5, 2, 13, 6, 7, 9, 10, 10, 6, 15, 8, 25, 9, 36, 6, 18, 5, 7, 4, 9, 3, 5, 4, 6, 6, 11, 7, 9, 6, 8, 7, 11, 13, 18, 331, 618], [-0.4242129623889923, -0.387330025434494, -0.35044705867767334, -0.31356412172317505, -0.27668115496635437, -0.23979820311069489, -0.2029152512550354, -0.16603229939937592, -0.12914936244487762, -0.09226640313863754, -0.055383455008268356, -0.01850050315260887, 0.018382446840405464, 0.0552653968334198, 0.09214834868907928, 0.12903130054473877, 0.16591425240039825, 0.20279720425605774, 0.23968015611171722, 0.2765631079673767, 0.313446044921875, 0.3503290116786957, 0.38721194863319397, 0.42409491539001465, 0.46097785234451294, 0.4978608191013336, 0.5347437858581543, 0.5716267228126526, 0.6085096597671509, 0.6453925967216492, 0.6822755336761475, 0.7191585302352905, 0.7560414671897888, 0.7929244041442871, 0.8298073410987854, 0.8666903376579285, 0.9035732746124268, 0.940456211566925, 0.9773391485214233, 1.0142221450805664, 1.05110502243042, 1.087988018989563, 1.124871015548706, 1.1617538928985596, 1.1986368894577026, 1.2355197668075562, 1.2724027633666992, 1.3092857599258423, 1.3461686372756958, 1.3830516338348389, 1.419934630393982, 1.4568175077438354, 1.4937005043029785, 1.530583381652832, 1.567466378211975, 1.6043493747711182, 1.6412322521209717, 1.6781152486801147, 1.7149982452392578, 1.7518811225891113, 1.7887641191482544, 1.825646996498108, 1.862529993057251, 1.899412989616394, 1.9362958669662476, 1.9731788635253906, 2.010061740875244, 2.0469448566436768, 2.0838277339935303, 2.120710611343384, 2.1575934886932373, 2.19447660446167, 2.2313594818115234, 2.268242359161377, 2.3051254749298096, 2.342008352279663, 2.3788912296295166, 2.415774345397949, 2.4526572227478027, 2.4895401000976562, 2.526423215866089, 2.5633060932159424, 2.600188970565796, 2.6370718479156494, 2.673954963684082, 2.7108378410339355, 2.747720718383789, 2.7846038341522217, 2.821486711502075]]}}, "shape": [10, 1, 28, 28]}, "output.1": {"id": "output.1", "data_group_type": "OUTPUT", "type": "Tensor", "value": {"tensor": [[-2.8639237880706787, -4.824721336364746, -1.8244619369506836, -3.94181489944458, -2.1790108680725098, -1.6163270473480225, -1.603896141052246, -5.229897499084473, -2.7234396934509277, -1.7701056003570557], [-3.8673782348632812, -3.240656852722168, -3.5288052558898926, -3.055673599243164, -4.5181379318237305, -1.1543818712234497, -4.227804660797119, -5.102019309997559, -0.7465204000473022, -3.154160499572754], [-4.020205497741699, -4.292140483856201, -1.576227068901062, -3.2203431129455566, -1.703729510307312, -1.8883540630340576, -3.242793083190918, -4.086462497711182, -2.115654468536377, -1.5514129400253296], [-4.459664821624756, -5.1792073249816895, -4.358146667480469, -4.602530002593994, -0.9850065112113953, -2.507293701171875, -4.072235584259033, -2.106829881668091, -3.1437811851501465, -1.1292803287506104], [-4.1901960372924805, -7.249207019805908, -0.14736123383045197, -4.792785167694092, -3.1339969635009766, -4.475561141967773, -3.224940061569214, -7.60691499710083, -4.689822673797607, -4.767243385314941], [-4.324626922607422, -5.934446334838867, -2.448383331298828, -4.6031270027160645, -3.829164743423462, -3.265301465988159, -0.24600893259048462, -6.959698677062988, -4.472702980041504, -3.39719557762146], [-3.74141788482666, -3.1611618995666504, -3.437199592590332, -3.102837085723877, -1.6258046627044678, -1.9508249759674072, -3.3979477882385254, -2.367262840270996, -2.5151243209838867, -1.1715530157089233], [-4.589713096618652, -6.785388469696045, -7.062195301055908, -4.711276531219482, -4.588360786437988, -4.146231174468994, -6.2055559158325195, -0.08641775697469711, -5.280968189239502, -3.5559680461883545], [-4.299173831939697, -0.7407271265983582, -3.1330792903900146, -2.630280017852783, -3.5750772953033447, -2.4731247425079346, -2.664388656616211, -3.045362949371338, -2.328995943069458, -2.702126979827881], [-0.21473254263401031, -7.97343111038208, -4.194136619567871, -4.128290176391602, -5.199175834655762, -2.03347110748291, -4.851257801055908, -7.776527404785156, -4.249274253845215, -5.881707668304443]], "tensor__stats": {"min": -7.97343111038208, "max": -0.08641775697469711, "mean": -3.5275063514709473, "variance": 3.0004870891571045, "nobs": 100, "histogram_bins": 10, "histogram": [[4, 3, 3, 7, 24, 13, 19, 12, 9, 6], [-7.97343111038208, -7.18472957611084, -6.396028518676758, -5.607326984405518, -4.8186259269714355, -4.029924392700195, -3.241223096847534, -2.452521800994873, -1.6638203859329224, -0.8751190900802612, -0.08641775697469711]]}}, "shape": [10, 10]}}, "graph": {"nodes": [{"data": {"id": "input.1", "label": "INPUT", "component_ids": ["input.1"]}}, {"data": {"id": 9, "label": "Conv", "component_ids": ["conv1.weight", "conv1.bias"]}}, {"data": {"id": 10, "label": "Relu", "component_ids": []}}, {"data": {"id": 11, "label": "Conv", "component_ids": ["conv2.weight", "conv2.bias"]}}, {"data": {"id": 12, "label": "Relu", "component_ids": []}}, {"data": {"id": 13, "label": "MaxPool", "component_ids": []}}, {"data": {"id": 14, "label": "Flatten", "component_ids": []}}, {"data": {"id": 15, "label": "Gemm", "component_ids": ["fc1.weight", "fc1.bias"]}}, {"data": {"id": 16, "label": "Relu", "component_ids": []}}, {"data": {"id": 17, "label": "Gemm", "component_ids": ["fc2.weight", "fc2.bias"]}}, {"data": {"id": 18, "label": "LogSoftmax", "component_ids": []}}, {"data": {"id": "output.1", "label": "OUTPUT", "component_ids": ["output.1"]}}], "edges": [{"data": {"id": "input.1_9", "source": "input.1", "target": 9}}, {"data": {"id": "9_10", "source": 9, "target": 10}}, {"data": {"id": "10_11", "source": 10, "target": 11}}, {"data": {"id": "11_12", "source": 11, "target": 12}}, {"data": {"id": "12_13", "source": 12, "target": 13}}, {"data": {"id": "13_14", "source": 13, "target": 14}}, {"data": {"id": "14_15", "source": 14, "target": 15}}, {"data": {"id": "15_16", "source": 15, "target": 16}}, {"data": {"id": "16_17", "source": 16, "target": 17}}, {"data": {"id": "17_18", "source": 17, "target": 18}}, {"data": {"id": "18_output.1", "source": "18", "target": "output.1"}}]}}