{"id": "0_1700", "meta": {"time": 1638574539.8895497, "refresh_model_graph": false}, "step_info": {"epoch": 0, "iter": 1700}, "additional_info": {"pred": {"type": "Tensor", "value": [[3], [6], [9], [0], [6], [1], [5], [7], [6], [0]]}, "loss": {"type": "Tensor", "value": 0.10520180314779282}, "class_label": {"type": "Tensor", "value": [3, 6, 9, 0, 6, 1, 5, 7, 6, 0]}, "test_acc": {"type": "float", "value": 91.68}}, "graph_id": [0, 0], "data": {"conv1.weight": {"id": "conv1.weight", "data_group_type": "PARAM", "type": "Parameter", "value": {"tensor": "NOT SERIALIZED, Too large 288", "grad": "NOT SERIALIZED, Too large 288", "first_delta": "NOT SERIALIZED, Too large 288", "tensor__stats": {"min": -0.33456000685691833, "max": 0.37008562684059143, "mean": 0.018688099458813667, "variance": 0.040731508284807205, "nobs": 288, "histogram_bins": 16, "histogram": [[24, 13, 23, 12, 14, 19, 12, 19, 16, 27, 15, 27, 23, 11, 18, 15], [-0.33456000685691833, -0.290519654750824, -0.24647930264472961, -0.20243895053863525, -0.1583985984325409, -0.11435824632644653, -0.07031789422035217, -0.026277542114257812, 0.017762809991836548, 0.06180316209793091, 0.10584351420402527, 0.14988386631011963, 0.193924218416214, 0.23796457052230835, 0.2820049226284027, 0.32604527473449707, 0.37008562684059143]]}, "grad__stats": {"min": -0.04368702322244644, "max": 0.014202812686562538, "mean": -0.004237968008965254, "variance": 0.00011635426199063659, "nobs": 288, "histogram_bins": 16, "histogram": [[2, 2, 2, 5, 6, 6, 10, 12, 20, 27, 25, 30, 70, 44, 23, 4], [-0.04368702322244644, -0.04006890952587128, -0.036450792104005814, -0.03283267840743065, -0.029214564710855484, -0.02559644915163517, -0.021978335455060005, -0.01836021989583969, -0.014742105267941952, -0.011123990640044212, -0.007505876012146473, -0.003887760918587446, -0.0002696462906897068, 0.0033484683372080326, 0.006966583430767059, 0.010584698058664799, 0.014202812686562538]]}, "first_delta__stats": {"min": -0.01306256651878357, "max": 0.06096576154232025, "mean": 0.0161935705691576, "variance": 0.0003074865380767733, "nobs": 288, "histogram_bins": 16, "histogram": [[5, 45, 25, 22, 24, 18, 28, 23, 21, 24, 18, 12, 11, 4, 6, 2], [-0.01306256651878357, -0.00843579601496458, -0.0038090255111455917, 0.0008177449926733971, 0.005444515496492386, 0.010071286000311375, 0.014698056504130363, 0.019324827939271927, 0.02395159751176834, 0.028578367084264755, 0.03320513665676117, 0.03783190995454788, 0.042458679527044296, 0.04708544909954071, 0.05171222239732742, 0.05633899196982384, 0.06096576154232025]]}}, "shape": [32, 1, 3, 3]}, "conv1.bias": {"id": "conv1.bias", "data_group_type": "PARAM", "type": "Parameter", "value": {"tensor": [0.05926142632961273, 0.34752780199050903, -0.016843652352690697, -0.14463256299495697, -0.2797546684741974, 0.0011099283583462238, 0.13606280088424683, 0.029783962294459343, 0.09596432745456696, 0.12846510112285614, 0.19775249063968658, 0.31315135955810547, 0.06095990911126137, -0.2271561175584793, 0.040532972663640976, -0.1057647094130516, 0.20071379840373993, 0.12889835238456726, 0.11827081441879272, 0.15926751494407654, -0.24562087655067444, -0.09003053605556488, 0.2243921458721161, -0.15125778317451477, 0.12111227959394455, 0.2685513496398926, 0.2839343547821045, -0.24262987077236176, 0.16076737642288208, -0.006536681670695543, 0.11590465903282166, 0.3185326159000397], "grad": [0.009981590323150158, -0.007119839545339346, -0.02245534583926201, -0.0057268403470516205, 0.006369250360876322, 0.0057341111823916435, 0.015435309149324894, -0.005685947835445404, -0.021073710173368454, -0.012595025822520256, -0.004606849979609251, -0.0013228441821411252, -0.008222614414989948, -0.00146659673191607, -0.011112167499959469, -0.000898511556442827, 0.006651676259934902, -0.0029852469451725483, -0.022068236023187637, 0.007018283475190401, 0.0012320932000875473, 0.005445970222353935, -0.004788271151483059, -0.0007018675096333027, -0.0039438484236598015, 0.0008695934666320682, 0.009228425100445747, -0.0019420988392084837, 0.010532096028327942, -0.008711624890565872, -0.0026114124339073896, -0.0013422064948827028], "first_delta": [0.023173317313194275, 0.020192950963974, 0.00611935555934906, 0.029014721512794495, 0.03720250725746155, -0.0015390212647616863, 0.013803698122501373, 0.020992714911699295, 0.005392998456954956, 0.008844614028930664, 0.009316250681877136, 0.02499222755432129, 0.03499962389469147, 0.01460239291191101, 0.008700434118509293, 0.009255491197109222, 0.009694859385490417, 0.008939273655414581, 0.0028175711631774902, 0.006562396883964539, 0.04282960295677185, 0.025643445551395416, 0.012659430503845215, 0.006442442536354065, 0.00621379166841507, 0.03393331170082092, 0.03525829315185547, 0.007256731390953064, 0.018254578113555908, 0.006895781960338354, 0.018389232456684113, 0.017888039350509644], "tensor__stats": {"min": -0.2797546684741974, "max": 0.34752780199050903, "mean": 0.0625215619802475, "variance": 0.030776694416999817, "nobs": 32, "histogram_bins": 5, "histogram": [[4, 4, 8, 10, 6], [-0.2797546684741974, -0.15429817140102386, -0.02884167991578579, 0.09661481529474258, 0.2220713049173355, 0.34752780199050903]]}, "grad__stats": {"min": -0.02245534583926201, "max": 0.015435309149324894, "mean": -0.002277584746479988, "variance": 8.483396231895313e-05, "nobs": 32, "histogram_bins": 5, "histogram": [[3, 4, 14, 7, 4], [-0.02245534583926201, -0.014877215027809143, -0.00729908375069499, 0.0002790471480693668, 0.007857178337872028, 0.015435309149324894]]}, "first_delta__stats": {"min": -0.0015390212647616863, "max": 0.04282960295677185, "mean": 0.016398221254348755, "variance": 0.00013221180415712297, "nobs": 32, "histogram_bins": 5, "histogram": [[9, 9, 7, 3, 4], [-0.0015390212647616863, 0.007334703579545021, 0.016208428889513016, 0.02508215233683586, 0.033955879509449005, 0.04282960295677185]]}}, "shape": [32]}, "conv2.weight": {"id": "conv2.weight", "data_group_type": "PARAM", "type": "Parameter", "value": {"tensor": "NOT SERIALIZED, Too large 18432", "grad": "NOT SERIALIZED, Too large 18432", "first_delta": "NOT SERIALIZED, Too large 18432", "tensor__stats": {"min": -0.07025294005870819, "max": 0.08672712743282318, "mean": 0.0044576507061719894, "variance": 0.0012324023991823196, "nobs": 18432, "histogram_bins": 100, "histogram": [[1, 1, 5, 6, 17, 33, 49, 101, 116, 136, 164, 187, 185, 218, 210, 214, 218, 219, 206, 247, 251, 246, 248, 215, 230, 260, 254, 261, 229, 239, 243, 238, 227, 233, 246, 221, 241, 220, 264, 252, 258, 256, 232, 249, 249, 244, 237, 244, 233, 231, 217, 237, 260, 237, 250, 231, 243, 261, 246, 262, 244, 237, 273, 245, 237, 244, 239, 279, 220, 228, 239, 230, 277, 268, 213, 235, 233, 237, 232, 231, 194, 204, 183, 165, 111, 111, 82, 60, 58, 58, 37, 35, 27, 15, 13, 4, 2, 2, 0, 2], [-0.07025294005870819, -0.06868313997983932, -0.06711333990097046, -0.06554353982210159, -0.06397373974323273, -0.06240393593907356, -0.0608341358602047, -0.05926433578133583, -0.057694535702466965, -0.0561247356235981, -0.054554931819438934, -0.05298513174057007, -0.0514153316617012, -0.049845531582832336, -0.04827573150396347, -0.046705931425094604, -0.04513612762093544, -0.043566327542066574, -0.04199652746319771, -0.04042672738432884, -0.038856927305459976, -0.03728712722659111, -0.035717323422431946, -0.03414752334356308, -0.032577723264694214, -0.031007923185825348, -0.029438123106956482, -0.027868321165442467, -0.0262985210865736, -0.024728721007704735, -0.02315891906619072, -0.021589118987321854, -0.020019318908452988, -0.018449516966938972, -0.016879716888070107, -0.01530991680920124, -0.0137401157990098, -0.01217031478881836, -0.010600514709949493, -0.009030713699758053, -0.0074609131552278996, -0.005891112610697746, -0.004321311600506306, -0.0027515110559761524, -0.0011817103950306773, 0.0003880903241224587, 0.0019578910432755947, 0.003527691587805748, 0.005097492132335901, 0.006667293142527342, 0.008237093687057495, 0.009806894697248936, 0.011376694776117802, 0.012946495786309242, 0.014516296796500683, 0.016086097806692123, 0.01765589788556099, 0.019225697964429855, 0.02079549990594387, 0.022365299984812737, 0.023935100063681602, 0.025504902005195618, 0.027074702084064484, 0.02864450216293335, 0.030214302241802216, 0.03178410232067108, 0.033353906124830246, 0.03492370620369911, 0.03649350628256798, 0.038063306361436844, 0.03963310644030571, 0.041202906519174576, 0.04277271032333374, 0.044342510402202606, 0.04591231048107147, 0.04748211055994034, 0.049051910638809204, 0.05062171071767807, 0.052191510796546936, 0.0537613146007061, 0.055331114679574966, 0.05690091475844383, 0.0584707148373127, 0.060040514916181564, 0.06161031499505043, 0.0631801187992096, 0.06474991887807846, 0.06631971895694733, 0.06788951903581619, 0.06945931911468506, 0.07102911919355392, 0.07259891927242279, 0.07416871935129166, 0.07573851943016052, 0.07730832695960999, 0.07887812703847885, 0.08044792711734772, 0.08201772719621658, 0.08358752727508545, 0.08515732735395432, 0.08672712743282318]]}, "grad__stats": {"min": -0.03601515665650368, "max": 0.023262538015842438, "mean": -0.0003118573222309351, "variance": 1.5960264136083424e-05, "nobs": 18432, "histogram_bins": 100, "histogram": [[1, 2, 1, 0, 2, 2, 2, 0, 1, 3, 1, 2, 1, 2, 0, 1, 2, 2, 2, 1, 2, 3, 1, 2, 1, 1, 1, 2, 3, 4, 5, 9, 4, 7, 8, 12, 17, 11, 26, 33, 27, 41, 51, 55, 80, 89, 102, 114, 134, 183, 218, 256, 266, 377, 468, 570, 684, 841, 1087, 1522, 2879, 2213, 1484, 1036, 847, 586, 465, 332, 231, 178, 138, 108, 82, 74, 77, 60, 36, 38, 29, 20, 21, 23, 13, 14, 7, 12, 16, 5, 4, 10, 2, 3, 5, 8, 9, 3, 3, 3, 6, 7], [-0.03601515665650368, -0.03542238101363182, -0.034829601645469666, -0.03423682600259781, -0.03364405035972595, -0.0330512709915638, -0.03245849534869194, -0.031865719705820084, -0.03127294033765793, -0.030680164694786072, -0.030087387189269066, -0.02949460968375206, -0.028901834040880203, -0.028309056535363197, -0.02771627902984619, -0.027123503386974335, -0.02653072588145733, -0.025937948375940323, -0.025345170870423317, -0.02475239522755146, -0.024159617722034454, -0.02356684021651745, -0.022974064573645592, -0.022381287068128586, -0.02178850956261158, -0.021195732057094574, -0.020602956414222717, -0.02001017890870571, -0.019417401403188705, -0.01882462576031685, -0.018231848254799843, -0.017639070749282837, -0.01704629510641098, -0.016453517600893974, -0.01586074009537697, -0.015267963521182537, -0.014675186946988106, -0.0140824094414711, -0.013489632867276669, -0.012896855361759663, -0.012304078787565231, -0.0117113022133708, -0.011118524707853794, -0.010525748133659363, -0.009932970628142357, -0.009340194053947926, -0.008747417479753494, -0.008154639974236488, -0.007561863400042057, -0.006969086360186338, -0.00637630932033062, -0.005783532280474901, -0.005190755240619183, -0.004597978666424751, -0.004005201626569033, -0.003412424586713314, -0.0028196475468575954, -0.0022268707398325205, -0.0016340936999768019, -0.001041316776536405, -0.0004485398530960083, 0.00014423709944821894, 0.0007370140519924462, 0.0013297910336405039, 0.0019225679570809007, 0.0025153448805212975, 0.003108121920377016, 0.003700898727402091, 0.004293675534427166, 0.004886452574282885, 0.005479229614138603, 0.006072006653994322, 0.0066647836938500404, 0.007257560268044472, 0.007850337773561478, 0.008443114347755909, 0.00903589092195034, 0.009628668427467346, 0.010221445001661777, 0.010814222507178783, 0.011406999081373215, 0.011999775655567646, 0.012592553161084652, 0.013185329735279083, 0.01377810724079609, 0.01437088381499052, 0.014963660389184952, 0.015556437894701958, 0.016149215400218964, 0.01674199104309082, 0.017334768548607826, 0.017927546054124832, 0.01852032169699669, 0.019113099202513695, 0.0197058767080307, 0.020298652350902557, 0.020891429856419563, 0.02148420736193657, 0.022076984867453575, 0.022669760510325432, 0.023262538015842438]]}, "first_delta__stats": {"min": -0.013452813029289246, "max": 0.03384600952267647, "mean": 0.004359127953648567, "variance": 4.5454191422322765e-05, "nobs": 18432, "histogram_bins": 100, "histogram": [[1, 2, 3, 3, 4, 6, 11, 10, 30, 27, 45, 64, 74, 88, 131, 127, 145, 185, 184, 249, 301, 319, 342, 390, 494, 508, 570, 650, 742, 685, 624, 565, 544, 491, 481, 493, 486, 465, 438, 433, 462, 416, 387, 350, 332, 311, 284, 299, 311, 284, 268, 247, 229, 200, 195, 199, 177, 216, 171, 163, 147, 145, 132, 121, 130, 108, 92, 91, 68, 60, 50, 47, 50, 32, 39, 31, 30, 28, 15, 17, 7, 12, 10, 11, 12, 4, 2, 3, 11, 4, 4, 2, 2, 1, 0, 1, 0, 0, 1, 1], [-0.013452813029289246, -0.012979825027287006, -0.012506837025284767, -0.012033848091959953, -0.011560860089957714, -0.011087872087955475, -0.010614884085953236, -0.010141895152628422, -0.009668907150626183, -0.009195919148623943, -0.008722931146621704, -0.00824994221329689, -0.007776954211294651, -0.007303966209292412, -0.006830977741628885, -0.006357989739626646, -0.0058850012719631195, -0.00541201326996088, -0.004939024802297354, -0.0044660368002951145, -0.003993048332631588, -0.0035200603306293488, -0.003047072095796466, -0.002574083860963583, -0.0021010956261307, -0.0016281073912978172, -0.0011551191564649343, -0.0006821309216320515, -0.00020914271590299904, 0.00026384551892988384, 0.0007368337246589363, 0.00120982201769948, 0.0016828101361170411, 0.002155798487365246, 0.0026287867221981287, 0.0031017749570310116, 0.0035747631918638945, 0.004047751426696777, 0.004520739428699017, 0.004993727896362543, 0.005466715898364782, 0.005939704366028309, 0.006412692368030548, 0.006885680835694075, 0.007358668837696314, 0.00783165730535984, 0.00830464530736208, 0.008777633309364319, 0.009250622242689133, 0.009723610244691372, 0.010196598246693611, 0.01066958624869585, 0.01114257425069809, 0.011615563184022903, 0.012088551186025143, 0.012561539188027382, 0.013034527190029621, 0.013507516123354435, 0.013980504125356674, 0.014453492127358913, 0.014926480129361153, 0.015399469062685966, 0.01587245613336563, 0.016345445066690445, 0.01681843400001526, 0.017291421070694923, 0.017764410004019737, 0.01823739893734455, 0.018710386008024216, 0.01918337494134903, 0.019656362012028694, 0.020129350945353508, 0.020602339878678322, 0.021075326949357986, 0.0215483158826828, 0.022021304816007614, 0.02249429188668728, 0.022967280820012093, 0.023440267890691757, 0.02391325682401657, 0.024386245757341385, 0.02485923282802105, 0.025332221761345863, 0.025805208832025528, 0.026278197765350342, 0.026751186698675156, 0.02722417376935482, 0.027697162702679634, 0.028170151636004448, 0.028643138706684113, 0.029116127640008926, 0.02958911471068859, 0.030062103644013405, 0.03053509257733822, 0.031008079648017883, 0.0314810685813427, 0.03195405751466751, 0.032427046447992325, 0.03290003165602684, 0.033373020589351654, 0.03384600952267647]]}}, "shape": [64, 32, 3, 3]}, "conv2.bias": {"id": "conv2.bias", "data_group_type": "PARAM", "type": "Parameter", "value": {"tensor": [-0.03399363532662392, 0.0592765249311924, -0.004789656959474087, 0.005061846226453781, -0.00450122868642211, -0.0064753638580441475, 0.0324992872774601, 0.01098319236189127, -0.021238047629594803, 0.01053039450198412, 0.005188502836972475, -0.03426172211766243, 0.027285635471343994, 0.04356686398386955, -0.020952366292476654, -0.0438830591738224, 0.0026247715577483177, -0.04596594721078873, 0.05869351327419281, -0.04430404305458069, 0.05042262002825737, -0.025683807209134102, -0.001980104949325323, -0.0011733747087419033, 0.04596461355686188, 0.03794125095009804, -0.05040127784013748, -0.03634351119399071, 0.05995439365506172, 0.07115093618631363, 0.009163528680801392, -0.022485271096229553, 0.009324723854660988, 0.053568098694086075, -0.04270095378160477, -0.034019585698843, 0.005354295484721661, 0.03064841963350773, 0.036559026688337326, -0.018522227182984352, -0.019934093579649925, 0.0590120293200016, -0.0391855351626873, -0.021203873679041862, 0.04678838327527046, 0.0403568334877491, -0.024391625076532364, 0.012231720611453056, -0.02747218869626522, -0.010173870250582695, 0.04810403287410736, -0.04002686217427254, 0.01930692046880722, -0.034034669399261475, 0.010225087404251099, 0.0554773174226284, 0.061672747135162354, 0.05536052584648132, -0.033506378531455994, -0.01389405783265829, -0.006546231918036938, 0.04387494921684265, 0.024480683729052544, 0.05291200801730156], "grad": [-0.006742361467331648, -0.001014966401271522, -0.006575154140591621, 0.003530628979206085, 0.0011688800295814872, 0.0002252009726362303, 0.003501021536067128, -0.006821638438850641, 0.0015571259427815676, -0.008015921339392662, 0.007373842876404524, -0.007811224088072777, -0.008534046821296215, -0.011608666740357876, -0.00047702231677249074, 0.007898332551121712, -0.002516577485948801, 0.009435500018298626, -0.0006967901717871428, 0.007164927665144205, 0.005664326250553131, -0.00601673498749733, -0.0018429321935400367, 0.011445176787674427, -0.028034187853336334, -0.014397140592336655, 0.002465906785801053, 0.003773796372115612, -0.01531098410487175, 0.004160330165177584, 0.011012790724635124, -0.007839222438633442, 0.0015245811082422733, -0.0022154313046485186, 0.002124530728906393, 0.0013767603086307645, -0.005365653894841671, 0.004503856413066387, 0.0016138688661158085, 0.011318697594106197, 0.0019242677371948957, -0.010499127209186554, -0.00021473586093634367, 0.0009148195385932922, 0.0067373658530414104, 0.0013113153399899602, 0.003332518506795168, 0.00430286256596446, 0.00784286204725504, -0.002006735885515809, -0.014067868702113628, 0.0036093685775995255, -0.004414628725498915, 0.00484167505055666, 0.00901125743985176, -0.0006231953157112002, 0.0034659835509955883, -0.0011083509307354689, -0.004373413510620594, -0.017748571932315826, 0.0006323452689684927, -0.012163132429122925, -0.011111498810350895, 0.0042688618414103985], "first_delta": [0.007821209728717804, 0.0035629794001579285, 0.001084222923964262, 0.002602177206426859, 0.0031144190579652786, 0.0052979933097958565, 0.016444934532046318, 0.0032129641622304916, 0.007069272920489311, 0.00806013960391283, 0.003069591009989381, 0.006281249225139618, 0.002520659938454628, 0.008882332593202591, 0.0014818459749221802, 0.010268919169902802, 0.00224107364192605, 0.012394528836011887, 0.0022748075425624847, 0.006146043539047241, 0.007859725505113602, 0.003027750179171562, 0.0010552830062806606, 0.003933664411306381, 0.006779704242944717, 0.0050893425941467285, 0.0031288713216781616, 0.007105223834514618, 0.005138520151376724, 0.014986854046583176, 0.010662881657481194, 0.004989964887499809, 0.0051286187954247, 0.003246776759624481, 0.00811764970421791, 0.00832679495215416, 0.002942645689472556, 0.006469545885920525, 0.010204890742897987, 0.005174916237592697, 0.0043593645095825195, 0.0026098378002643585, 0.012952573597431183, 0.013680091127753258, 0.004194371402263641, 0.009142342954874039, 0.017545185983181, 0.005672638304531574, 0.003914428874850273, 0.008932476863265038, 0.00554986298084259, 0.010742753744125366, 0.0015557855367660522, 0.0007376186549663544, 0.0061886487528681755, 0.006792739033699036, 0.006440650671720505, 0.010286219418048859, 0.006152745336294174, 0.005549871362745762, 0.009011694230139256, 0.0076041147112846375, 0.0017978046089410782, 0.016645487397909164], "tensor__stats": {"min": -0.05040127784013748, "max": 0.07115093618631363, "mean": 0.006742517463862896, "variance": 0.0012581433402374387, "nobs": 64, "histogram_bins": 8, "histogram": [[8, 12, 6, 11, 5, 6, 10, 6], [-0.05040127784013748, -0.035207249224185944, -0.020013224333524704, -0.004819197580218315, 0.010374829173088074, 0.025568855926394463, 0.04076288267970085, 0.05595690757036209, 0.07115093618631363]]}, "grad__stats": {"min": -0.028034187853336334, "max": 0.011445176787674427, "mean": -0.001017692731693387, "variance": 5.983509618090466e-05, "nobs": 64, "histogram_bins": 8, "histogram": [[1, 0, 4, 5, 10, 18, 16, 10], [-0.028034187853336334, -0.023099267855286598, -0.018164345994591713, -0.013229425996541977, -0.008294505998492241, -0.0033595850691199303, 0.0015753356274217367, 0.006510256323963404, 0.011445176787674427]]}, "first_delta__stats": {"min": 0.0007376186549663544, "max": 0.017545185983181, "mean": 0.006488441955298185, "variance": 1.6078854969237e-05, "nobs": 64, "histogram_bins": 8, "histogram": [[11, 12, 17, 11, 6, 2, 2, 3], [0.0007376186549663544, 0.002838564570993185, 0.004939510487020016, 0.007040456403046846, 0.009141402319073677, 0.011242348700761795, 0.013343294151127338, 0.015444239601492882, 0.017545185983181]]}}, "shape": [64]}, "fc1.weight": {"id": "fc1.weight", "data_group_type": "PARAM", "type": "Parameter", "value": {"tensor": "NOT SERIALIZED, Too large 1179648", "grad": "NOT SERIALIZED, Too large 1179648", "first_delta": "NOT SERIALIZED, Too large 1179648", "tensor__stats": {"min": -0.0194193497300148, "max": 0.019360367208719254, "mean": 0.00024444382870569825, "variance": 3.812292197835632e-05, "nobs": 1179648, "histogram_bins": 100, "histogram": [[1, 1, 0, 1, 1, 8, 4, 4, 14, 18, 39, 62, 104, 156, 247, 337, 567, 803, 1144, 1786, 2753, 3987, 6348, 11343, 14542, 16298, 18003, 18880, 19695, 20603, 21007, 21431, 21489, 21513, 21799, 21928, 22054, 21979, 22195, 21990, 22049, 21957, 21872, 22043, 21770, 22161, 22008, 21813, 21924, 22047, 21815, 21972, 21842, 21982, 21938, 21827, 21842, 21848, 22028, 21944, 21836, 22096, 22062, 22099, 21874, 21916, 21453, 21921, 21806, 21410, 21442, 21006, 20349, 20009, 18794, 17412, 14480, 9461, 6772, 5187, 3718, 2669, 1895, 1320, 928, 682, 431, 293, 179, 133, 76, 51, 31, 19, 8, 4, 5, 1, 1, 3], [-0.0194193497300148, -0.019031552597880363, -0.018643755465745926, -0.01825595833361149, -0.01786816120147705, -0.017480364069342613, -0.017092566937208176, -0.016704769805073738, -0.0163169726729393, -0.015929175540804863, -0.015541378408670425, -0.015153581276535988, -0.01476578414440155, -0.014377986080944538, -0.0139901889488101, -0.013602391816675663, -0.013214594684541225, -0.012826797552406788, -0.01243900042027235, -0.012051203288137913, -0.011663406156003475, -0.011275609023869038, -0.0108878118917346, -0.010500014759600163, -0.010112217627465725, -0.009724420495331287, -0.00933662336319685, -0.008948826231062412, -0.008561029098927975, -0.008173231966793537, -0.0077854348346591, -0.007397637702524662, -0.007009840104728937, -0.0066220429725945, -0.006234245840460062, -0.0058464487083256245, -0.005458651576191187, -0.005070854444056749, -0.004683057311922312, -0.004295260179787874, -0.003907463047653437, -0.0035196656826883554, -0.003131868550553918, -0.0027440714184194803, -0.0023562742862850428, -0.001968477154150605, -0.0015806799056008458, -0.0011928827734664083, -0.0008050855831243098, -0.00041728842188604176, -2.9491260647773743e-05, 0.0003583059005904943, 0.0007461030618287623, 0.0011339002521708608, 0.0015216973843052983, 0.0019094946328550577, 0.0022972917649894953, 0.002685088897123933, 0.0030728860292583704, 0.003460683161392808, 0.003848480526357889, 0.004236277658492327, 0.004624074790626764, 0.005011871922761202, 0.005399669054895639, 0.005787466187030077, 0.0061752633191645145, 0.006563060451298952, 0.00695085758343339, 0.0073386551812291145, 0.007726452313363552, 0.00811424944549799, 0.008502046577632427, 0.008889843709766865, 0.009277640841901302, 0.00966543797403574, 0.010053235106170177, 0.010441032238304615, 0.010828829370439053, 0.01121662650257349, 0.011604423634707928, 0.011992220766842365, 0.012380017898976803, 0.01276781503111124, 0.013155612163245678, 0.013543409295380116, 0.013931206427514553, 0.01431900355964899, 0.014706801623106003, 0.01509459875524044, 0.015482395887374878, 0.015870193019509315, 0.016257990151643753, 0.01664578728377819, 0.017033584415912628, 0.017421381548047066, 0.017809178680181503, 0.01819697581231594, 0.01858477294445038, 0.018972570076584816, 0.019360367208719254]]}, "grad__stats": {"min": -0.050079453736543655, "max": 0.04980240762233734, "mean": -0.0001774150296114385, "variance": 1.9190245438949205e-05, "nobs": 1179648, "histogram_bins": 100, "histogram": [[2, 0, 5, 2, 7, 17, 13, 18, 26, 49, 66, 71, 86, 93, 94, 118, 130, 144, 182, 226, 266, 309, 362, 441, 502, 551, 698, 796, 928, 1082, 1248, 1454, 1521, 1689, 2122, 2311, 2585, 3036, 3522, 3931, 4455, 5333, 6089, 7308, 9044, 11837, 16982, 30371, 69182, 201933, 603991, 67607, 30430, 17406, 11626, 8596, 7169, 5776, 4948, 4139, 3517, 3028, 2502, 2145, 1874, 1569, 1405, 1114, 968, 875, 752, 663, 602, 499, 441, 417, 293, 286, 226, 216, 168, 144, 136, 110, 120, 117, 109, 100, 92, 81, 43, 28, 28, 16, 13, 9, 8, 2, 2, 5], [-0.050079453736543655, -0.049080636352300644, -0.048081815242767334, -0.04708299785852432, -0.04608418047428131, -0.045085359364748, -0.04408654198050499, -0.04308772459626198, -0.04208890348672867, -0.04109008610248566, -0.040091268718242645, -0.039092447608709335, -0.038093630224466324, -0.03709481284022331, -0.03609599173069, -0.03509717434644699, -0.03409835696220398, -0.03309953585267067, -0.03210071846842766, -0.031101899221539497, -0.030103081837296486, -0.029104262590408325, -0.028105443343520164, -0.027106625959277153, -0.026107806712388992, -0.02510898932814598, -0.02411017008125782, -0.02311135083436966, -0.022112533450126648, -0.021113714203238487, -0.020114894956350327, -0.019116077572107315, -0.018117258325219154, -0.017118439078330994, -0.016119621694087982, -0.015120802447199821, -0.01412198320031166, -0.013123164884746075, -0.012124346569180489, -0.011125528253614902, -0.010126709006726742, -0.009127890691161156, -0.00812907237559557, -0.007130253128707409, -0.006131434813141823, -0.005132616031914949, -0.004133797716349363, -0.00313497893512249, -0.00213616038672626, -0.0011373417219147086, -0.00013852305710315704, 0.0008602955495007336, 0.0018591141561046243, 0.002857932820916176, 0.0038567513693124056, 0.004855569917708635, 0.005854388698935509, 0.006853207014501095, 0.007852026261389256, 0.008850844576954842, 0.009849662892520428, 0.010848482139408588, 0.011847300454974174, 0.01284611877053976, 0.013844937086105347, 0.014843756332993507, 0.015842575579881668, 0.01684139296412468, 0.01784021221101284, 0.018839031457901, 0.019837848842144012, 0.020836668089032173, 0.021835487335920334, 0.022834304720163345, 0.023833123967051506, 0.024831943213939667, 0.025830760598182678, 0.02682957984507084, 0.02782839722931385, 0.02882721647620201, 0.029826035723090172, 0.030824853107333183, 0.031823672354221344, 0.032822489738464355, 0.033821310847997665, 0.03482012823224068, 0.03581894561648369, 0.036817766726017, 0.03781658411026001, 0.03881540149450302, 0.03981422260403633, 0.04081303998827934, 0.041811857372522354, 0.042810678482055664, 0.043809495866298676, 0.04480831325054169, 0.045807134360075, 0.04680595174431801, 0.04780476912856102, 0.04880359023809433, 0.04980240762233734]]}, "first_delta__stats": {"min": -0.012660814449191093, "max": 0.011611903086304665, "mean": 0.00024657772155478597, "variance": 1.9460981093288865e-06, "nobs": 1179648, "histogram_bins": 100, "histogram": [[1, 1, 1, 0, 1, 0, 0, 1, 1, 0, 1, 0, 1, 4, 4, 11, 5, 14, 19, 16, 16, 22, 36, 39, 61, 99, 126, 162, 218, 320, 417, 592, 772, 986, 1273, 1721, 2160, 2630, 3523, 4442, 5789, 7547, 9931, 12394, 15519, 20091, 25754, 33009, 42513, 54885, 78978, 168117, 178343, 87159, 72873, 61766, 52054, 43268, 36053, 29802, 24272, 19871, 15967, 13021, 10379, 8487, 6814, 5539, 4322, 3408, 2795, 2111, 1628, 1383, 1018, 814, 553, 490, 331, 249, 190, 137, 105, 70, 46, 34, 21, 20, 8, 7, 3, 5, 5, 1, 0, 0, 0, 0, 1, 2], [-0.012660814449191093, -0.01241808757185936, -0.012175359763205051, -0.011932632885873318, -0.011689906008541584, -0.011447178199887276, -0.011204451322555542, -0.010961724445223808, -0.0107189966365695, -0.010476269759237766, -0.010233542881906033, -0.009990815073251724, -0.00974808819591999, -0.009505361318588257, -0.009262634441256523, -0.009019906632602215, -0.008777179755270481, -0.008534452877938747, -0.008291725069284439, -0.008048998191952705, -0.007806270848959684, -0.007563543971627951, -0.00732081662863493, -0.007078089285641909, -0.006835362408310175, -0.006592635065317154, -0.006349907722324133, -0.006107180844992399, -0.005864453501999378, -0.005621726159006357, -0.0053789992816746235, -0.0051362719386816025, -0.004893545061349869, -0.004650817718356848, -0.004408090375363827, -0.004165363498032093, -0.003922636155039072, -0.0036799090448766947, -0.0034371817018836737, -0.0031944545917212963, -0.002951727481558919, -0.0027090003713965416, -0.0024662730284035206, -0.0022235459182411432, -0.001980818808078766, -0.0017380915815010667, -0.0014953643549233675, -0.0012526372447609901, -0.001009910018183291, -0.0007671828498132527, -0.0005244556814432144, -0.00028172851307317615, -3.9001330151222646e-05, 0.00020372583821881562, 0.0004464530211407691, 0.0006891802186146379, 0.0009319073869846761, 0.0011746345553547144, 0.0014173616655170918, 0.001660088892094791, 0.0019028161186724901, 0.0021455432288348675, 0.002388270338997245, 0.002630997681990266, 0.002873724792152643, 0.0031164519023150206, 0.003359179012477398, 0.003601906355470419, 0.0038446334656327963, 0.004087360575795174, 0.004330087918788195, 0.004572814796119928, 0.004815542139112949, 0.00505826948210597, 0.005300996359437704, 0.005543723702430725, 0.005786451045423746, 0.00602917792275548, 0.006271905265748501, 0.006514632608741522, 0.0067573594860732555, 0.0070000868290662766, 0.00724281370639801, 0.007485541049391031, 0.007728268392384052, 0.007970995269715786, 0.008213723078370094, 0.008456449955701828, 0.008699176833033562, 0.008941903710365295, 0.009184631519019604, 0.009427358396351337, 0.009670085273683071, 0.00991281308233738, 0.010155539959669113, 0.010398266837000847, 0.010640994645655155, 0.010883721522986889, 0.011126448400318623, 0.011369176208972931, 0.011611903086304665]]}}, "shape": [128, 9216]}, "fc1.bias": {"id": "fc1.bias", "data_group_type": "PARAM", "type": "Parameter", "value": {"tensor": [-0.005597040057182312, 0.010702589526772499, -0.0027154290582984686, -0.002203709678724408, -0.00023769102699588984, 0.004658827092498541, 6.026063419994898e-05, -0.005799928680062294, 0.0012789192842319608, 0.0010657774982973933, 0.005863479804247618, 0.003766997717320919, 0.009599506855010986, 0.007703492417931557, -0.0012171512935310602, -0.003929675091058016, 0.008025447838008404, 0.00815435592085123, -0.006132583133876324, -0.002096678363159299, -0.009902255609631538, 0.0029561782721430063, 0.002499378053471446, -0.0011387575650587678, 0.0030061439611017704, -0.0012280266964808106, -0.004889339208602905, -0.009537575766444206, 0.007911047898232937, 0.0003135389997623861, -0.009174244478344917, 0.01223981473594904, -0.00010517850751057267, -0.004676865413784981, 0.001924285083077848, -0.009987403638660908, 0.0001780958118615672, -0.0009359379182569683, -0.005322498269379139, 0.010969545692205429, 0.0019322058651596308, -0.005797624588012695, -0.007441761903464794, 0.008563954383134842, -0.004653694573789835, -0.0031655433122068644, 0.007992726750671864, 0.010991295799612999, 0.004441800992935896, -0.0012049025390297174, 0.003966120537370443, 0.0017187015619128942, 0.008614400401711464, -0.007126370910555124, 0.0014874374028295279, -0.0005925741861574352, -0.009147035889327526, 0.008773659355938435, 0.0010084327077493072, 0.000242874666582793, 0.00021097429271321744, 0.0008660495514050126, -0.005045730620622635, 0.004466106649488211, 0.0062648821622133255, -0.009021718055009842, 0.007793278433382511, 0.010408411733806133, -0.005468711722642183, 0.008136131800711155, 0.006471135653555393, 0.007152697071433067, 0.0024806594010442495, -0.008579512126743793, 0.006442369893193245, 0.007508676964789629, -0.0010643723653629422, -0.007265744265168905, 0.0004840515030082315, -0.0077045694924890995, 0.003069191239774227, -0.00385887804441154, 0.005323589313775301, 0.00023503934789914638, -0.007503465749323368, -0.006231637671589851, 0.009647341445088387, 0.002031260635703802, 0.0027396823279559612, 0.005015973933041096, 0.002122023841366172, 0.0031570354476571083, -0.006251069717109203, 0.007574314717203379, -0.003528736298903823, 0.002252530073747039, -0.001394826453179121, -0.009917916730046272, -0.0017254026606678963, -0.003838479984551668, -0.0023810267448425293, 0.0065437862649559975, -0.005978480912744999, -0.0016648644814267755, -0.0006947229849174619, -0.00022884615464136004, -0.0007225493900477886, -0.0019512847065925598, -0.00314309005625546, -0.00577141810208559, 0.006840190384536982, 0.004606757313013077, -0.008213919587433338, -0.010314381681382656, -0.0028544082306325436, 0.010461780242621899, -0.003385003423318267, -0.0025578441563993692, -0.010507043451070786, 0.004690687172114849, 0.005851591471582651, 0.004358587320894003, -0.0022585815750062466, -0.0076285661198198795, -0.006082650274038315, 0.011588833294808865, -0.002968840766698122, -0.0028679778333753347], "grad": [0.006509957369416952, -0.005914958659559488, 0.006789531093090773, 0.0028200943488627672, -0.0015460767317563295, -0.003773343050852418, -0.00362606905400753, 0.002874671248719096, 0.004834639839828014, 0.0, -0.0010056920582428575, 0.0039306385442614555, 0.0, 0.0018143898341804743, -9.845579188549891e-05, -0.0019377514254301786, -0.0007358716684393585, -0.0021652760915458202, -0.0020322385244071484, -0.005263787694275379, -0.0004996245843358338, 0.0, 0.0007906872197054327, -0.005914202891290188, -0.00018614121654536575, 0.0026553927455097437, -0.0067025902681052685, 0.0016600290546193719, 0.00014115085650701076, 0.0007736395346000791, 0.0004898835904896259, -0.002032685559242964, 0.0009744285489432514, 0.00259766704402864, 0.003643978852778673, 0.0, -0.005129176191985607, 0.00018859146803151816, 0.0021703646052628756, 0.0006364064174704254, -0.0013756969710811973, -0.002755367662757635, -0.0023906549904495478, -0.004050262738019228, 0.0018999865278601646, -0.006583044305443764, 0.0013209653552621603, 0.0013156154891476035, -0.000841291097458452, -0.001162137952633202, 0.0, -0.007031659595668316, -0.0046130032278597355, 0.0013220126274973154, -0.0041008018888533115, 0.001968648750334978, 0.0024863160215318203, 0.0003598515468183905, -0.0008824954857118428, -0.0004904200322926044, 0.006582879461348057, -0.0029666717164218426, -0.005747213028371334, 0.0041262744925916195, 0.0, 0.0007666127639822662, 0.002526904921978712, 0.0015861820429563522, 0.0, -0.004182903561741114, -0.0003932796244043857, -4.157863077125512e-05, 0.0031376536935567856, 0.00025928471586667, 0.0024965074844658375, 0.0005846733110956848, -0.0012381946435198188, -0.004449032247066498, -0.0044450764544308186, -0.005603989586234093, 0.005966021679341793, -0.002161502605304122, 0.0021896667312830687, 0.0029908346477895975, -0.003115560859441757, 0.0016968143172562122, -0.0008703872445039451, -0.002184582408517599, 0.0, 0.0007371888495981693, 0.0070370398461818695, 0.00645060371607542, -0.003474578494206071, 0.0003497066209092736, 0.0, 0.001738046295940876, -0.002400163561105728, 0.0, -0.003242547856643796, -0.005233935546129942, 0.0018038824200630188, -0.00695180706679821, 0.0, -0.0029400428757071495, 0.0, -0.004037266597151756, 0.0036523875314742327, 0.0006454628310166299, 0.0, 0.007011820562183857, -0.0025975301396101713, 0.005823835264891386, 0.0, 0.0031748211476951838, 0.0, -0.0019081227947026491, 0.0005702156340703368, 0.002643435727804899, -0.0045510586351156235, 0.0027095796540379524, 0.002864939160645008, 0.0021427099127322435, -0.0028206489514559507, -0.0006212468724697828, -0.007210001349449158, 0.002546111587435007, -0.00019088736735284328, -0.003928988240659237], "first_delta": [-0.00016823271289467812, 0.0024222424253821373, 0.0007822660263627768, -0.00048421870451420546, -9.217993647325784e-05, 0.0007026046514511108, -0.0006410848582163453, -0.001347642857581377, 0.003369940910488367, -0.000229818862862885, -0.0006907773204147816, -0.0003343410789966583, -0.0004967935383319855, 0.0006220024079084396, 0.0016076159663498402, 0.0009882780723273754, 0.0011195465922355652, 0.0001392429694533348, -3.251945599913597e-05, 0.0030532300006598234, 0.0001012096181511879, -0.00039770943112671375, 0.00033850595355033875, 0.003165785688906908, -0.0013118102215230465, 0.0026923399418592453, 0.0028002969920635223, -0.0015562083572149277, 0.0009672692976891994, -0.0010243593715131283, 0.0009511280804872513, 0.001979706808924675, -0.0006727836444042623, -0.0012686457484960556, -0.0007943810196593404, -0.00041959621012210846, 0.0014311505947262049, 0.0024526307824999094, 0.0008812388405203819, 0.0012008892372250557, 0.0013488464755937457, 0.0015292204916477203, 0.0015616687014698982, 0.0010715285316109657, 0.0006242967210710049, 0.0019746061880141497, 0.000378158874809742, 0.003489268943667412, -0.0001819860190153122, 0.0006712443428114057, -0.0002913549542427063, 0.000612695119343698, -1.2968666851520538e-05, 0.001495645847171545, 0.00011302379425615072, 0.00016127806156873703, -0.0002682497724890709, 1.1826865375041962e-05, 0.0007608921150676906, 4.735900438390672e-05, 0.0009516502032056451, -0.0006441670702770352, 0.0014200052246451378, 0.0004950067959725857, -8.939672261476517e-05, 0.000268387608230114, 0.0011372501030564308, 0.0016924357041716576, -0.000497796107083559, 0.00047270767390727997, -8.177803829312325e-05, -0.0003196941688656807, -0.0011544453445822, 0.0005348008126020432, -0.0004632631316781044, -0.0010686949826776981, -0.0013484369264915586, 0.0022408938966691494, 0.002927345223724842, 0.0006067943759262562, 0.00017235707491636276, 0.0007161174435168505, 0.0024861833080649376, 0.0007294797687791288, 0.0013385629281401634, 0.0009708697907626629, -0.00012076087296009064, 0.0013760230503976345, -0.00028138281777501106, 0.00037725456058979034, -0.00030766031704843044, -0.0011786450631916523, 5.410611629486084e-05, 0.0011296393349766731, -0.00011378363706171513, 0.0015531092649325728, 0.0016937770415097475, -0.0005093608051538467, -1.4057615771889687e-05, 0.0004684547893702984, 0.00180468475446105, 0.001078108325600624, -0.0004608849994838238, 0.0003419147105887532, -0.0005505331209860742, 0.002988917985931039, -0.001557543408125639, 0.0021092980168759823, -0.00020521925762295723, 0.00023559900000691414, 0.000555877573788166, -0.0002477644011378288, -0.00020341761410236359, -0.0005949167534708977, -9.417673572897911e-05, 0.0013483986258506775, -0.0004072247538715601, -0.0009149028919637203, -0.0001895558089017868, 0.0015159426257014275, 0.002082393504679203, 0.00021391594782471657, 0.0023404634557664394, 0.0006323861889541149, 0.0013026385568082333, 0.001256115734577179, -0.0001729978248476982, 0.0008797897025942802], "tensor__stats": {"min": -0.010507043451070786, "max": 0.01223981473594904, "mean": 0.00025682157138362527, "variance": 3.47307650372386e-05, "nobs": 128, "histogram_bins": 11, "histogram": [[10, 7, 15, 14, 17, 14, 14, 10, 13, 7, 7], [-0.010507043451070786, -0.008439146913588047, -0.006371250841766596, -0.004303354769945145, -0.0022354586981236935, -0.00016756245167925954, 0.0019003337947651744, 0.003968229983001947, 0.006036126054823399, 0.008104022592306137, 0.010171918198466301, 0.01223981473594904]]}, "grad__stats": {"min": -0.007210001349449158, "max": 0.0070370398461818695, "mean": -0.00023881206288933754, "variance": 1.0582763934507966e-05, "nobs": 128, "histogram_bins": 11, "histogram": [[6, 6, 12, 14, 11, 29, 18, 18, 5, 1, 8], [-0.007210001349449158, -0.005914815701544285, -0.004619630053639412, -0.0033244446385651827, -0.00202925899066031, -0.0007340735173784196, 0.0005611120141111314, 0.0018562976038083434, 0.0031514831352978945, 0.004446668550372124, 0.005741854198276997, 0.0070370398461818695]]}, "first_delta__stats": {"min": -0.001557543408125639, "max": 0.003489268943667412, "mean": 0.0005438298103399575, "variance": 1.3004886341150268e-06, "nobs": 128, "histogram_bins": 11, "histogram": [[8, 8, 23, 22, 18, 14, 15, 7, 5, 4, 4], [-0.001557543408125639, -0.0010987422429025173, -0.0006399411358870566, -0.0001811400434235111, 0.00027766107814386487, 0.0007364621851593256, 0.0011952633503824472, 0.001654064399190247, 0.0021128656808286905, 0.0025716666132211685, 0.00303046777844429, 0.003489268943667412]]}}, "shape": [128]}, "fc2.weight": {"id": "fc2.weight", "data_group_type": "PARAM", "type": "Parameter", "value": {"tensor": "NOT SERIALIZED, Too large 1280", "grad": "NOT SERIALIZED, Too large 1280", "first_delta": "NOT SERIALIZED, Too large 1280", "tensor__stats": {"min": -0.10632707178592682, "max": 0.09342853724956512, "mean": -0.002639725338667631, "variance": 0.0029564648866653442, "nobs": 1280, "histogram_bins": 35, "histogram": [[7, 13, 25, 48, 35, 41, 37, 37, 34, 36, 45, 36, 48, 42, 34, 30, 42, 49, 45, 31, 35, 36, 39, 39, 30, 43, 47, 38, 31, 43, 41, 46, 38, 40, 19], [-0.10632707178592682, -0.10061977058649063, -0.09491246193647385, -0.08920516073703766, -0.08349785953760147, -0.07779055833816528, -0.0720832496881485, -0.06637594848871231, -0.06066864728927612, -0.05496134236454964, -0.04925404116511345, -0.04354673624038696, -0.037839435040950775, -0.03213213011622429, -0.0264248289167881, -0.020717525854706764, -0.015010221861302853, -0.009302918799221516, -0.0035956157371401787, 0.0021116873249411583, 0.007818990387022495, 0.013526293449103832, 0.019233597442507744, 0.02494090050458908, 0.030648203566670418, 0.036355506628751755, 0.04206280782818794, 0.04777011275291443, 0.053477413952350616, 0.0591847188770771, 0.06489202380180359, 0.07059932500123978, 0.07630662620067596, 0.08201392740011215, 0.08772123605012894, 0.09342853724956512]]}, "grad__stats": {"min": -0.3426345884799957, "max": 0.3924837112426758, "mean": -6.705522359595761e-09, "variance": 0.005939349997788668, "nobs": 1280, "histogram_bins": 35, "histogram": [[2, 0, 3, 3, 8, 7, 9, 12, 11, 23, 22, 31, 20, 25, 41, 94, 650, 129, 41, 22, 26, 20, 22, 20, 9, 12, 5, 2, 4, 1, 3, 1, 1, 0, 1], [-0.3426345884799957, -0.32163122296333313, -0.30062782764434814, -0.27962446212768555, -0.25862106680870056, -0.23761768639087677, -0.21661430597305298, -0.1956109255552292, -0.1746075451374054, -0.1536041647195816, -0.1326007843017578, -0.11159741133451462, -0.09059403091669083, -0.06959065049886703, -0.04858727008104324, -0.027583887800574303, -0.006580508779734373, 0.014422871172428131, 0.03542625159025192, 0.056429632008075714, 0.0774330124258995, 0.0984363928437233, 0.11943977326154709, 0.14044314622879028, 0.16144652664661407, 0.18244990706443787, 0.20345328748226166, 0.22445666790008545, 0.24546004831790924, 0.26646342873573303, 0.287466824054718, 0.3084701895713806, 0.3294735848903656, 0.3504769504070282, 0.3714803457260132, 0.3924837112426758]]}, "first_delta__stats": {"min": -0.028744813054800034, "max": 0.008835285902023315, "mean": -0.0022435258142650127, "variance": 2.4275594114442356e-05, "nobs": 1280, "histogram_bins": 35, "histogram": [[1, 1, 0, 0, 0, 1, 3, 3, 3, 4, 1, 5, 9, 13, 19, 12, 17, 30, 30, 40, 27, 52, 63, 86, 103, 112, 276, 120, 104, 73, 35, 21, 10, 3, 3], [-0.028744813054800034, -0.027671096846461296, -0.02659737877547741, -0.025523662567138672, -0.024449944496154785, -0.023376228287816048, -0.02230251021683216, -0.021228794008493423, -0.020155075937509537, -0.0190813597291708, -0.018007641658186913, -0.016933925449848175, -0.01586020737886429, -0.014786490239202976, -0.013712773099541664, -0.012639055959880352, -0.01156533882021904, -0.010491621680557728, -0.00941790547221899, -0.008344188332557678, -0.007270470727235079, -0.006196753587573767, -0.005123036447912455, -0.0040493193082511425, -0.002975602401420474, -0.001901885261759162, -0.0008281681220978498, 0.0002455489884596318, 0.0013192661572247744, 0.0023929832968860865, 0.0034667004365473986, 0.004540417343378067, 0.005614134483039379, 0.006687851622700691, 0.007761568762362003, 0.008835285902023315]]}}, "shape": [10, 128]}, "fc2.bias": {"id": "fc2.bias", "data_group_type": "PARAM", "type": "Parameter", "value": {"tensor": [0.04841963201761246, 0.040527649223804474, -0.02400842308998108, 0.023860523477196693, 0.05643954873085022, 0.03582453355193138, -0.04656541720032692, 0.023326974362134933, -0.08193408697843552, 0.027735447511076927], "grad": [0.005467362701892853, -0.03304097428917885, 0.004337930120527744, -0.004163444973528385, 0.0012359784450381994, 0.017992625012993813, -0.032331958413124084, -0.0017549332696944475, 0.04015989601612091, 0.0020974937360733747], "first_delta": [-0.0024370290338993073, 0.0005131587386131287, -0.00046576373279094696, -0.0014724396169185638, -0.0015410706400871277, 0.00043052807450294495, -0.0026486851274967194, 0.0019579436630010605, -0.002898275852203369, -5.42663037776947e-05], "tensor__stats": {"min": -0.08193408697843552, "max": 0.05643954873085022, "mean": 0.010362638160586357, "variance": 0.002080288017168641, "nobs": 10, "histogram_bins": 5, "histogram": [[1, 1, 1, 3, 4], [-0.08193408697843552, -0.05425935983657837, -0.026584632694721222, 0.0010900944471359253, 0.028764821588993073, 0.05643954873085022]]}, "grad__stats": {"min": -0.03304097428917885, "max": 0.04015989601612091, "mean": -2.3515895897219252e-09, "variance": 0.00046096270671114326, "nobs": 10, "histogram_bins": 5, "histogram": [[2, 1, 5, 1, 1], [-0.03304097428917885, -0.018400799483060837, -0.0037606260739266872, 0.010879548266530037, 0.0255197212100029, 0.04015989601612091]]}, "first_delta__stats": {"min": -0.002898275852203369, "max": 0.0019579436630010605, "mean": -0.0008615899714641273, "variance": 2.5529288905090652e-06, "nobs": 10, "histogram_bins": 5, "histogram": [[3, 2, 2, 2, 1], [-0.002898275852203369, -0.0019270319025963545, -0.0009557880694046617, 1.5455856555490755e-05, 0.0009866997133940458, 0.0019579436630010605]]}}, "shape": [10]}, "input.1": {"id": "input.1", "data_group_type": "INPUT", "type": "Tensor", "value": {"tensor": "NOT SERIALIZED, Too large 7840", "tensor__stats": {"min": -0.4242129623889923, "max": 2.821486711502075, "mean": 0.06140975281596184, "variance": 1.1327317953109741, "nobs": 7840, "histogram_bins": 88, "histogram": [[6205, 15, 16, 11, 10, 15, 16, 21, 12, 3, 13, 13, 12, 20, 19, 12, 5, 9, 5, 12, 3, 8, 10, 10, 15, 4, 6, 8, 11, 4, 3, 4, 7, 4, 7, 12, 9, 12, 10, 7, 15, 4, 12, 24, 12, 11, 11, 6, 3, 15, 8, 8, 5, 17, 5, 14, 18, 9, 5, 17, 9, 5, 6, 11, 2, 18, 11, 2, 7, 6, 16, 12, 9, 14, 17, 13, 12, 21, 8, 14, 30, 26, 6, 16, 19, 17, 330, 366], [-0.4242129623889923, -0.387330025434494, -0.35044705867767334, -0.31356412172317505, -0.27668115496635437, -0.23979820311069489, -0.2029152512550354, -0.16603229939937592, -0.12914936244487762, -0.09226640313863754, -0.055383455008268356, -0.01850050315260887, 0.018382446840405464, 0.0552653968334198, 0.09214834868907928, 0.12903130054473877, 0.16591425240039825, 0.20279720425605774, 0.23968015611171722, 0.2765631079673767, 0.313446044921875, 0.3503290116786957, 0.38721194863319397, 0.42409491539001465, 0.46097785234451294, 0.4978608191013336, 0.5347437858581543, 0.5716267228126526, 0.6085096597671509, 0.6453925967216492, 0.6822755336761475, 0.7191585302352905, 0.7560414671897888, 0.7929244041442871, 0.8298073410987854, 0.8666903376579285, 0.9035732746124268, 0.940456211566925, 0.9773391485214233, 1.0142221450805664, 1.05110502243042, 1.087988018989563, 1.124871015548706, 1.1617538928985596, 1.1986368894577026, 1.2355197668075562, 1.2724027633666992, 1.3092857599258423, 1.3461686372756958, 1.3830516338348389, 1.419934630393982, 1.4568175077438354, 1.4937005043029785, 1.530583381652832, 1.567466378211975, 1.6043493747711182, 1.6412322521209717, 1.6781152486801147, 1.7149982452392578, 1.7518811225891113, 1.7887641191482544, 1.825646996498108, 1.862529993057251, 1.899412989616394, 1.9362958669662476, 1.9731788635253906, 2.010061740875244, 2.0469448566436768, 2.0838277339935303, 2.120710611343384, 2.1575934886932373, 2.19447660446167, 2.2313594818115234, 2.268242359161377, 2.3051254749298096, 2.342008352279663, 2.3788912296295166, 2.415774345397949, 2.4526572227478027, 2.4895401000976562, 2.526423215866089, 2.5633060932159424, 2.600188970565796, 2.6370718479156494, 2.673954963684082, 2.7108378410339355, 2.747720718383789, 2.7846038341522217, 2.821486711502075]]}}, "shape": [10, 1, 28, 28]}, "output.1": {"id": "output.1", "data_group_type": "OUTPUT", "type": "Tensor", "value": {"tensor": [[-4.31947660446167, -11.863188743591309, -3.8537275791168213, -0.06794219464063644, -12.608942985534668, -3.481712818145752, -8.8676118850708, -13.557549476623535, -8.218232154846191, -13.769600868225098], [-3.2593164443969727, -7.5556769371032715, -4.474306583404541, -7.809338092803955, -5.484681606292725, -1.6337207555770874, -0.41708651185035706, -10.979756355285645, -2.4138059616088867, -6.535308837890625], [-7.228186130523682, -14.739197731018066, -12.534913063049316, -7.004246711730957, -5.340484142303467, -7.32496452331543, -11.058085441589355, -4.068939208984375, -7.665265083312988, -0.024979813024401665], [-0.028889009729027748, -18.10672378540039, -10.577092170715332, -9.300264358520508, -8.094999313354492, -6.486204624176025, -7.89966344833374, -6.830554962158203, -4.0593132972717285, -4.851393222808838], [-5.534566879272461, -15.98867416381836, -6.268661975860596, -12.92253303527832, -8.93266487121582, -6.598941802978516, -0.007378351408988237, -19.09080696105957, -11.468356132507324, -13.295964241027832], [-3.749861478805542, -0.4020225405693054, -5.5060529708862305, -5.864659786224365, -8.058697700500488, -4.653084754943848, -4.945099353790283, -8.829920768737793, -1.2613799571990967, -8.345677375793457], [-6.687859058380127, -9.298218727111816, -6.088462829589844, -3.9236834049224854, -6.1874613761901855, -0.061025869101285934, -3.76936936378479, -11.804773330688477, -4.581941604614258, -7.679327487945557], [-10.093378067016602, -13.098126411437988, -11.469520568847656, -10.902491569519043, -9.416703224182129, -11.781501770019531, -14.929899215698242, -0.036571525037288666, -8.627029418945312, -3.336249351501465], [-6.061230182647705, -15.154499053955078, -5.993696689605713, -10.960210800170898, -7.56883430480957, -11.904557228088379, -0.005736436229199171, -11.8036527633667, -8.055742263793945, -10.461243629455566], [-0.00038580605178140104, -23.736148834228516, -10.776215553283691, -13.51375961303711, -11.877264976501465, -9.443718910217285, -9.496687889099121, -11.99701976776123, -9.022500038146973, -9.492424964904785]], "tensor__stats": {"min": -23.736148834228516, "max": -0.00038580605178140104, "mean": -7.872194766998291, "variance": 21.546689987182617, "nobs": 100, "histogram_bins": 10, "histogram": [[1, 1, 1, 4, 11, 15, 23, 18, 14, 12], [-23.736148834228516, -21.362571716308594, -18.988996505737305, -16.615419387817383, -14.241843223571777, -11.868267059326172, -9.494690895080566, -7.121114730834961, -4.7475385665893555, -2.373962163925171, -0.00038580605178140104]]}}, "shape": [10, 10]}}, "graph": {"nodes": [{"data": {"id": "input.1", "label": "INPUT", "component_ids": ["input.1"]}}, {"data": {"id": 9, "label": "Conv", "component_ids": ["conv1.weight", "conv1.bias"]}}, {"data": {"id": 10, "label": "Relu", "component_ids": []}}, {"data": {"id": 11, "label": "Conv", "component_ids": ["conv2.weight", "conv2.bias"]}}, {"data": {"id": 12, "label": "Relu", "component_ids": []}}, {"data": {"id": 13, "label": "MaxPool", "component_ids": []}}, {"data": {"id": 14, "label": "Flatten", "component_ids": []}}, {"data": {"id": 15, "label": "Gemm", "component_ids": ["fc1.weight", "fc1.bias"]}}, {"data": {"id": 16, "label": "Relu", "component_ids": []}}, {"data": {"id": 17, "label": "Gemm", "component_ids": ["fc2.weight", "fc2.bias"]}}, {"data": {"id": 18, "label": "LogSoftmax", "component_ids": []}}, {"data": {"id": "output.1", "label": "OUTPUT", "component_ids": ["output.1"]}}], "edges": [{"data": {"id": "input.1_9", "source": "input.1", "target": 9}}, {"data": {"id": "9_10", "source": 9, "target": 10}}, {"data": {"id": "10_11", "source": 10, "target": 11}}, {"data": {"id": "11_12", "source": 11, "target": 12}}, {"data": {"id": "12_13", "source": 12, "target": 13}}, {"data": {"id": "13_14", "source": 13, "target": 14}}, {"data": {"id": "14_15", "source": 14, "target": 15}}, {"data": {"id": "15_16", "source": 15, "target": 16}}, {"data": {"id": "16_17", "source": 16, "target": 17}}, {"data": {"id": "17_18", "source": 17, "target": 18}}, {"data": {"id": "18_output.1", "source": "18", "target": "output.1"}}]}}