{"id": "0_2200", "meta": {"time": 1638574582.2385921, "refresh_model_graph": false}, "step_info": {"epoch": 0, "iter": 2200}, "additional_info": {"pred": {"type": "Tensor", "value": [[3], [8], [2], [3], [1], [7], [6], [7], [0], [6]]}, "loss": {"type": "Tensor", "value": 0.1924898773431778}, "class_label": {"type": "Tensor", "value": [3, 8, 3, 3, 1, 7, 6, 7, 0, 6]}, "test_acc": {"type": "float", "value": 92.43}}, "graph_id": [0, 0], "data": {"conv1.weight": {"id": "conv1.weight", "data_group_type": "PARAM", "type": "Parameter", "value": {"tensor": "NOT SERIALIZED, Too large 288", "grad": "NOT SERIALIZED, Too large 288", "first_delta": "NOT SERIALIZED, Too large 288", "tensor__stats": {"min": -0.33509573340415955, "max": 0.371060311794281, "mean": 0.01929025538265705, "variance": 0.040967535227537155, "nobs": 288, "histogram_bins": 16, "histogram": [[24, 13, 23, 12, 14, 19, 12, 19, 16, 27, 15, 26, 24, 10, 19, 15], [-0.33509573340415955, -0.29096096754074097, -0.24682623147964478, -0.2026914805173874, -0.15855672955513, -0.11442197114229202, -0.07028721272945404, -0.026152463629841805, 0.01798228919506073, 0.062117040157318115, 0.1062517911195755, 0.15038654208183289, 0.19452130794525146, 0.23865605890750885, 0.28279080986976624, 0.3269255459308624, 0.371060311794281]]}, "grad__stats": {"min": -0.028137851506471634, "max": 0.02048972249031067, "mean": -0.004489954095333815, "variance": 6.344084977172315e-05, "nobs": 288, "histogram_bins": 16, "histogram": [[2, 2, 9, 11, 17, 20, 38, 52, 54, 43, 11, 14, 6, 4, 1, 4], [-0.028137851506471634, -0.02509862743318081, -0.022059405222535133, -0.01902018114924431, -0.015980958938598633, -0.012941734865307808, -0.009902510792016983, -0.006863287650048733, -0.0038240645080804825, -0.0007848411332815886, 0.0022543822415173054, 0.005293605849146843, 0.008332828991115093, 0.011372052133083344, 0.014411276206374168, 0.017450498417019844, 0.02048972249031067]]}, "first_delta__stats": {"min": -0.0150672048330307, "max": 0.06291193515062332, "mean": 0.016795728355646133, "variance": 0.00033681088825687766, "nobs": 288, "histogram_bins": 16, "histogram": [[5, 37, 26, 25, 23, 20, 24, 23, 22, 25, 20, 12, 12, 6, 5, 3], [-0.0150672048330307, -0.010193508118391037, -0.005319812335073948, -0.0004461160860955715, 0.004427580162882805, 0.009301276877522469, 0.014174972660839558, 0.019048668444156647, 0.02392236515879631, 0.028796061873435974, 0.03366975858807564, 0.0385434553027153, 0.04341714829206467, 0.04829084500670433, 0.053164541721343994, 0.05803823843598366, 0.06291193515062332]]}}, "shape": [32, 1, 3, 3]}, "conv1.bias": {"id": "conv1.bias", "data_group_type": "PARAM", "type": "Parameter", "value": {"tensor": [0.06059442460536957, 0.34844717383384705, -0.016309821978211403, -0.14271137118339539, -0.2778981328010559, 0.001510558882728219, 0.1375885009765625, 0.03091941960155964, 0.0964856818318367, 0.12859968841075897, 0.19839589297771454, 0.31430116295814514, 0.062495987862348557, -0.22618666291236877, 0.041358377784490585, -0.10433337837457657, 0.20118145644664764, 0.129564106464386, 0.11898393929004669, 0.159298837184906, -0.2444290816783905, -0.0881538838148117, 0.22510236501693726, -0.1499112993478775, 0.12146683782339096, 0.2693822383880615, 0.28506264090538025, -0.24197351932525635, 0.16124951839447021, -0.005706101655960083, 0.11725867539644241, 0.3204478323459625], "grad": [-0.0006273488397710025, -0.0017197257839143276, 0.026746394112706184, -0.005156822502613068, -0.008034201338887215, 0.007338271010667086, -0.002809337107464671, -0.011305361986160278, 0.015251195058226585, 0.00840067770332098, 0.023015819489955902, -0.014490402303636074, -0.005813234020024538, -0.0014639209257438779, 0.01575750671327114, 0.0017455853521823883, 0.034953564405441284, 0.008479664102196693, 0.01137335505336523, -0.004540703725069761, -0.014756722375750542, -0.0032001323997974396, 0.006385475397109985, 0.002047560876235366, 0.01561326440423727, -0.016974104568362236, -0.014387482777237892, -0.0009766228031367064, -0.010942939668893814, 0.012040024623274803, 0.0012565915239974856, -0.008508057333528996], "first_delta": [0.02450631558895111, 0.02111232280731201, 0.006653185933828354, 0.03093591332435608, 0.03905904293060303, -0.0011383907403796911, 0.015329398214817047, 0.02212817221879959, 0.005914352834224701, 0.008979201316833496, 0.00995965301990509, 0.026142030954360962, 0.036535702645778656, 0.015571847558021545, 0.009525839239358902, 0.010686822235584259, 0.010162517428398132, 0.009605027735233307, 0.0035306960344314575, 0.006593719124794006, 0.044021397829055786, 0.02752009779214859, 0.013369649648666382, 0.007788926362991333, 0.006568349897861481, 0.03476420044898987, 0.036386579275131226, 0.007913082838058472, 0.018736720085144043, 0.007726361975073814, 0.01974324882030487, 0.019803255796432495], "tensor__stats": {"min": -0.2778981328010559, "max": 0.34844717383384705, "mean": 0.06350256502628326, "variance": 0.030726052820682526, "nobs": 32, "histogram_bins": 5, "histogram": [[4, 4, 8, 10, 6], [-0.2778981328010559, -0.1526290774345398, -0.027360010892152786, 0.09790904819965363, 0.22317811846733093, 0.34844717383384705]]}, "grad__stats": {"min": -0.016974104568362236, "max": 0.034953564405441284, "mean": 0.0020218072459101677, "variance": 0.00016109297575894743, "nobs": 32, "histogram_bins": 5, "histogram": [[8, 12, 6, 4, 2], [-0.016974104568362236, -0.006588570773601532, 0.003796963021159172, 0.014182496815919876, 0.02456803061068058, 0.034953564405441284]]}, "first_delta__stats": {"min": -0.0011383907403796911, "max": 0.044021397829055786, "mean": 0.01737922802567482, "variance": 0.00013972845044918358, "nobs": 32, "histogram_bins": 5, "histogram": [[8, 10, 6, 4, 4], [-0.0011383907403796911, 0.007893566973507404, 0.016925524920225143, 0.025957481935620308, 0.03498943895101547, 0.044021397829055786]]}}, "shape": [32]}, "conv2.weight": {"id": "conv2.weight", "data_group_type": "PARAM", "type": "Parameter", "value": {"tensor": "NOT SERIALIZED, Too large 18432", "grad": "NOT SERIALIZED, Too large 18432", "first_delta": "NOT SERIALIZED, Too large 18432", "tensor__stats": {"min": -0.07227865606546402, "max": 0.08771396428346634, "mean": 0.004547966178506613, "variance": 0.001242367783561349, "nobs": 18432, "histogram_bins": 100, "histogram": [[1, 1, 5, 5, 6, 21, 35, 52, 101, 121, 132, 177, 164, 189, 216, 225, 208, 209, 224, 229, 236, 245, 269, 241, 234, 236, 267, 230, 266, 241, 243, 251, 245, 231, 238, 250, 211, 229, 264, 243, 263, 285, 245, 242, 257, 254, 234, 252, 229, 239, 232, 238, 251, 247, 245, 252, 239, 253, 258, 257, 262, 240, 277, 241, 254, 249, 252, 268, 231, 233, 240, 231, 281, 254, 216, 247, 235, 240, 249, 219, 190, 212, 179, 142, 121, 99, 85, 65, 60, 56, 41, 33, 28, 18, 13, 1, 3, 2, 0, 2], [-0.07227865606546402, -0.07067873328924179, -0.06907880306243896, -0.06747888028621674, -0.06587895005941391, -0.06427902728319168, -0.06267909705638885, -0.061079174280166626, -0.0594792477786541, -0.05787932127714157, -0.056279394775629044, -0.054679468274116516, -0.05307954177260399, -0.05147961527109146, -0.049879688769578934, -0.048279762268066406, -0.04667983576655388, -0.04507990926504135, -0.043479982763528824, -0.041880059987306595, -0.04028013348579407, -0.03868020698428154, -0.03708028048276901, -0.035480353981256485, -0.03388042747974396, -0.03228050097823143, -0.030680574476718903, -0.029080647975206375, -0.027480721473693848, -0.02588079683482647, -0.024280870333313942, -0.022680943831801414, -0.021081017330288887, -0.01948109082877636, -0.017881164327263832, -0.016281239688396454, -0.014681313186883926, -0.013081386685371399, -0.011481460183858871, -0.009881533682346344, -0.008281608112156391, -0.006681681610643864, -0.0050817555747926235, -0.0034818293061107397, -0.0018819031538441777, -0.00028197691426612437, 0.001317949267104268, 0.002917875535786152, 0.004517801571637392, 0.0061177280731499195, 0.00771765410900116, 0.009317580610513687, 0.01091750618070364, 0.012517432682216167, 0.014117359183728695, 0.015717284753918648, 0.017317211255431175, 0.018917137756943703, 0.02051706425845623, 0.022116990759968758, 0.023716915398836136, 0.025316841900348663, 0.02691676840186119, 0.028516694903373718, 0.030116621404886246, 0.03171654790639877, 0.0333164744079113, 0.03491640090942383, 0.036516327410936356, 0.038116250187158585, 0.03971617668867111, 0.04131610319018364, 0.04291602969169617, 0.044515956193208694, 0.04611588269472122, 0.04771580919623375, 0.04931573569774628, 0.050915662199258804, 0.05251558870077133, 0.05411551520228386, 0.05571544170379639, 0.057315368205308914, 0.05891529098153114, 0.06051521748304367, 0.0621151439845562, 0.06371507048606873, 0.06531500071287155, 0.06691492348909378, 0.06851484626531601, 0.07011477649211884, 0.07171469926834106, 0.07331462949514389, 0.07491455227136612, 0.07651448249816895, 0.07811440527439117, 0.079714335501194, 0.08131425827741623, 0.08291418850421906, 0.08451411128044128, 0.08611404150724411, 0.08771396428346634]]}, "grad__stats": {"min": -0.02014133706688881, "max": 0.025252001360058784, "mean": 0.0009588256943970919, "variance": 1.8163598724640906e-05, "nobs": 18432, "histogram_bins": 100, "histogram": [[1, 1, 0, 3, 1, 1, 3, 2, 5, 8, 6, 9, 9, 13, 10, 12, 18, 17, 29, 26, 27, 35, 33, 50, 58, 79, 77, 82, 101, 121, 118, 166, 174, 188, 197, 198, 263, 307, 348, 409, 504, 630, 872, 1152, 1559, 1451, 1140, 1004, 801, 709, 672, 587, 532, 458, 432, 394, 317, 283, 256, 222, 174, 147, 131, 120, 84, 69, 69, 53, 67, 46, 43, 36, 30, 26, 25, 30, 23, 18, 12, 9, 3, 8, 2, 3, 5, 0, 4, 5, 1, 1, 3, 0, 0, 1, 1, 1, 0, 0, 0, 2], [-0.02014133706688881, -0.019687402993440628, -0.019233470782637596, -0.018779536709189415, -0.018325602635741234, -0.017871670424938202, -0.01741773635149002, -0.01696380414068699, -0.016509870067238808, -0.016055935993790627, -0.01560200285166502, -0.015148069709539413, -0.014694136567413807, -0.0142402034252882, -0.01378626935184002, -0.013332336209714413, -0.012878403067588806, -0.0124244699254632, -0.011970535852015018, -0.011516602709889412, -0.011062669567763805, -0.010608736425638199, -0.010154802352190018, -0.009700869210064411, -0.009246936067938805, -0.008793001994490623, -0.008339068852365017, -0.00788513571023941, -0.0074312021024525166, -0.00697726896032691, -0.006523335352540016, -0.00606940221041441, -0.005615468602627516, -0.005161535460501909, -0.004707601852715015, -0.004253668710589409, -0.0037997353356331587, -0.0033458019606769085, -0.0028918683528900146, -0.0024379349779337645, -0.0019840016029775143, -0.001530068344436586, -0.0010761349694803357, -0.0006222015363164246, -0.00016826816136017442, 0.0002856652135960758, 0.000739598588552326, 0.001193532021716237, 0.0016474653966724873, 0.0021013987716287374, 0.0025553321465849876, 0.003009265521541238, 0.003463198896497488, 0.003917132504284382, 0.004371065646409988, 0.004824999254196882, 0.005278932396322489, 0.005732866004109383, 0.006186799146234989, 0.006640732754021883, 0.0070946658961474895, 0.007548599503934383, 0.00800253264605999, 0.008456465788185596, 0.008910399861633778, 0.009364333003759384, 0.00981826614588499, 0.010272199288010597, 0.010726133361458778, 0.011180066503584385, 0.011633999645709991, 0.012087932787835598, 0.01254186686128378, 0.012995800003409386, 0.013449733145534992, 0.013903666287660599, 0.01435760036110878, 0.014811533503234386, 0.015265466645359993, 0.015719400718808174, 0.016173332929611206, 0.016627267003059387, 0.01708120107650757, 0.0175351332873106, 0.01798906736075878, 0.018443001434206963, 0.018896933645009995, 0.019350867718458176, 0.019804799929261208, 0.02025873400270939, 0.02071266807615757, 0.021166600286960602, 0.021620534360408783, 0.022074468433856964, 0.022528400644659996, 0.022982334718108177, 0.02343626692891121, 0.02389020100235939, 0.02434413507580757, 0.024798067286610603, 0.025252001360058784]]}, "first_delta__stats": {"min": -0.01573691889643669, "max": 0.034832846373319626, "mean": 0.0044494434259831905, "variance": 5.175654587219469e-05, "nobs": 18432, "histogram_bins": 100, "histogram": [[3, 2, 1, 4, 7, 6, 5, 6, 20, 21, 29, 31, 43, 51, 72, 97, 117, 130, 140, 169, 227, 243, 252, 324, 362, 387, 409, 480, 553, 576, 656, 705, 651, 569, 539, 488, 475, 484, 468, 460, 433, 460, 417, 451, 411, 381, 361, 303, 310, 341, 323, 305, 264, 266, 231, 247, 192, 212, 198, 189, 169, 167, 155, 167, 140, 137, 130, 117, 81, 79, 78, 52, 55, 56, 37, 44, 30, 34, 22, 20, 15, 15, 8, 14, 10, 9, 2, 4, 6, 9, 5, 2, 3, 0, 0, 1, 0, 0, 1, 1], [-0.01573691889643669, -0.015231220982968807, -0.014725524000823498, -0.014219826087355614, -0.01371412817388773, -0.013208430260419846, -0.012702733278274536, -0.012197035364806652, -0.011691337451338768, -0.011185640469193459, -0.010679942555725574, -0.01017424464225769, -0.009668546728789806, -0.009162849746644497, -0.008657151833176613, -0.008151453919708729, -0.007645756471902132, -0.007140059024095535, -0.006634361110627651, -0.0061286636628210545, -0.00562296574935317, -0.005117268301546574, -0.00461157038807869, -0.004105872940272093, -0.0036001752596348524, -0.003094477578997612, -0.0025887798983603716, -0.002083082217723131, -0.0015773846535012126, -0.0010716869728639722, -0.0005659892922267318, -6.029166252119467e-05, 0.00044540598173625767, 0.0009511036332696676, 0.001456801313906908, 0.0019624989945441484, 0.002468196675181389, 0.0029738943558186293, 0.003479591803625226, 0.003985289484262466, 0.0044909873977303505, 0.004996684845536947, 0.005502382293343544, 0.006008080206811428, 0.006513777654618025, 0.007019475568085909, 0.007525173015892506, 0.00803087092936039, 0.008536568842828274, 0.009042265824973583, 0.009547963738441467, 0.010053661651909351, 0.01055935863405466, 0.011065056547522545, 0.011570754460990429, 0.012076452374458313, 0.012582149356603622, 0.013087847270071507, 0.01359354518353939, 0.0140992421656847, 0.014604940079152584, 0.015110637992620468, 0.015616335906088352, 0.016122033819556236, 0.016627730801701546, 0.017133427783846855, 0.017639126628637314, 0.018144823610782623, 0.018650520592927933, 0.01915621943771839, 0.0196619164198637, 0.02016761526465416, 0.02067331224679947, 0.02117900922894478, 0.021684708073735237, 0.022190405055880547, 0.022696102038025856, 0.023201800882816315, 0.023707497864961624, 0.024213194847106934, 0.024718893691897392, 0.0252245906740427, 0.02573028951883316, 0.02623598650097847, 0.02674168348312378, 0.027247382327914238, 0.027753079310059547, 0.028258776292204857, 0.028764475136995316, 0.029270172119140625, 0.029775869101285934, 0.030281567946076393, 0.030787264928221703, 0.03129296377301216, 0.03179866075515747, 0.03230435773730278, 0.03281005471944809, 0.0333157517015934, 0.03382145240902901, 0.034327149391174316, 0.034832846373319626]]}}, "shape": [64, 32, 3, 3]}, "conv2.bias": {"id": "conv2.bias", "data_group_type": "PARAM", "type": "Parameter", "value": {"tensor": [-0.03351303189992905, 0.05902860313653946, -0.0053419070318341255, 0.005288954358547926, -0.004359862767159939, -0.006512755528092384, 0.03324739634990692, 0.011102891527116299, -0.02122936211526394, 0.011129043065011501, 0.005223372485488653, -0.03372906520962715, 0.02731364220380783, 0.04394199326634407, -0.021298646926879883, -0.04353785887360573, 0.002609326271340251, -0.04564162716269493, 0.058479540050029755, -0.04446661099791527, 0.05017118528485298, -0.02551497519016266, -0.0021817684173583984, -0.001670202356763184, 0.046044375747442245, 0.03828883916139603, -0.05024496465921402, -0.03616466373205185, 0.06031264737248421, 0.07159864902496338, 0.009082779288291931, -0.0224552471190691, 0.009595119394361973, 0.053411293774843216, -0.04200708121061325, -0.03392878174781799, 0.005213387310504913, 0.0304910596460104, 0.037451084703207016, -0.01815110817551613, -0.020581351593136787, 0.05886444076895714, -0.03884387016296387, -0.020889978855848312, 0.04729366675019264, 0.040668945759534836, -0.023803340271115303, 0.012768309563398361, -0.027314193546772003, -0.010255767963826656, 0.04826081916689873, -0.03998010233044624, 0.01925055682659149, -0.03432616963982582, 0.010426362976431847, 0.05636134371161461, 0.062062278389930725, 0.05578099191188812, -0.03334716334939003, -0.013325854204595089, -0.0062173898331820965, 0.04430954530835152, 0.024067435413599014, 0.05341007933020592], "grad": [0.02120335027575493, 0.012827735394239426, -0.0017059198580682278, -0.001162453438155353, 0.022107737138867378, 0.001132463221438229, -0.002340557985007763, 0.014702766202390194, -0.0017238982254639268, 0.009777422994375229, 0.00387609307654202, 0.01994699239730835, 0.011431184597313404, 0.01298088300973177, 0.014498054049909115, 0.0034936273004859686, 0.004630028735846281, -0.005296082701534033, 0.002101078163832426, -0.00467299297451973, 0.00012107514339732006, 0.02079332247376442, 0.008035164326429367, -0.0030899138655513525, 0.012231068685650826, 0.02099546231329441, 0.005582666024565697, -0.00026114503270946443, 0.01908648945391178, -0.0037034836132079363, 0.002324408385902643, 0.01172088086605072, -0.003453930839896202, 0.0012917242711409926, 0.0013392135733738542, 0.000395592040149495, -0.0023106837179511786, -0.005210081581026316, -0.003986583556979895, 0.008700620383024216, -0.0069008804857730865, 0.01572362519800663, -0.007280763704329729, -0.005039358977228403, 0.0012496677227318287, -0.00014242279576137662, 0.000695015536621213, 0.0039647649973630905, 0.018441900610923767, -0.009616043418645859, 0.006819344591349363, -0.0007367020007222891, -0.002075933152809739, 0.008869096636772156, 0.0034896726720035076, 3.5163106076652184e-05, 0.0028696393128484488, -0.005315099377185106, 0.0235014446079731, 0.02356075681746006, -0.00955480057746172, 0.008703856728971004, -0.007333265617489815, -0.004727931227535009], "first_delta": [0.008301813155412674, 0.0033150576055049896, 0.0005319728516042233, 0.0028292853385210037, 0.0032557849772274494, 0.00526060163974762, 0.01719304360449314, 0.0033326633274555206, 0.007077958434820175, 0.008658788166940212, 0.003104460658505559, 0.006813906133174896, 0.0025486666709184647, 0.009257461875677109, 0.0011355653405189514, 0.010614119470119476, 0.0022256283555179834, 0.012718848884105682, 0.0020608343183994293, 0.005983475595712662, 0.007608290761709213, 0.0031965821981430054, 0.0008536195382475853, 0.0034368368797004223, 0.0068594664335250854, 0.005436930805444717, 0.0032851845026016235, 0.007284071296453476, 0.00549677386879921, 0.015434566885232925, 0.010582132264971733, 0.005019988864660263, 0.005399014335125685, 0.0030899718403816223, 0.008811522275209427, 0.008417598903179169, 0.002801737515255809, 0.006312185898423195, 0.011096948757767677, 0.005546035245060921, 0.0037121064960956573, 0.0024622492492198944, 0.013294238597154617, 0.013993985950946808, 0.0046996548771858215, 0.009454455226659775, 0.01813347078859806, 0.006209227256476879, 0.004072424024343491, 0.008850579150021076, 0.005706649273633957, 0.01078951358795166, 0.0014994218945503235, 0.00044611841440200806, 0.0063899243250489235, 0.007676765322685242, 0.006830181926488876, 0.010706685483455658, 0.006311960518360138, 0.006118074990808964, 0.00934053584933281, 0.008038710802793503, 0.0013845562934875488, 0.017143558710813522], "tensor__stats": {"min": -0.05024496465921402, "max": 0.07159864902496338, "mean": 0.006901800632476807, "variance": 0.0012604201911017299, "nobs": 64, "histogram_bins": 8, "histogram": [[8, 13, 6, 10, 5, 6, 10, 6], [-0.05024496465921402, -0.03501451388001442, -0.01978406123816967, -0.004553609527647495, 0.01067684218287468, 0.02590729296207428, 0.04113774746656418, 0.05636819824576378, 0.07159864902496338]]}, "grad__stats": {"min": -0.009616043418645859, "max": 0.02356075681746006, "mean": 0.004493908025324345, "variance": 8.393375901505351e-05, "nobs": 64, "histogram_bins": 8, "histogram": [[5, 15, 14, 8, 5, 7, 3, 7], [-0.009616043418645859, -0.005468943156301975, -0.001321843359619379, 0.002825256669893861, 0.006972356699407101, 0.011119456961750984, 0.015266556292772293, 0.01941365748643875, 0.02356075681746006]]}, "first_delta__stats": {"min": 0.00044611841440200806, "max": 0.01813347078859806, "mean": 0.006647725589573383, "variance": 1.774700649548322e-05, "nobs": 64, "histogram_bins": 8, "histogram": [[10, 13, 17, 10, 7, 2, 2, 3], [0.00044611841440200806, 0.0026570374611765146, 0.004867956507951021, 0.007078875787556171, 0.009289794601500034, 0.011500713415443897, 0.013711633160710335, 0.015922551974654198, 0.01813347078859806]]}}, "shape": [64]}, "fc1.weight": {"id": "fc1.weight", "data_group_type": "PARAM", "type": "Parameter", "value": {"tensor": "NOT SERIALIZED, Too large 1179648", "grad": "NOT SERIALIZED, Too large 1179648", "first_delta": "NOT SERIALIZED, Too large 1179648", "tensor__stats": {"min": -0.02073558233678341, "max": 0.020680826157331467, "mean": 0.00024911027867347, "variance": 3.8407251850003377e-05, "nobs": 1179648, "histogram_bins": 100, "histogram": [[1, 1, 1, 2, 1, 5, 7, 1, 2, 10, 23, 27, 48, 79, 127, 217, 310, 431, 651, 920, 1479, 2275, 3350, 5014, 8281, 13434, 16233, 17942, 19365, 20622, 21434, 22136, 22723, 22923, 22808, 23102, 23481, 23297, 23797, 23461, 23508, 23629, 23549, 23240, 23362, 23426, 23548, 23392, 23425, 23550, 23278, 23545, 23175, 23281, 23695, 23221, 23409, 23543, 23273, 23448, 23614, 23517, 23540, 23221, 23269, 23112, 23223, 23193, 22816, 22587, 22006, 21339, 20489, 18907, 16669, 11227, 7987, 5979, 4406, 3068, 2190, 1543, 1062, 749, 503, 331, 195, 148, 92, 54, 45, 23, 6, 9, 7, 0, 3, 0, 0, 1], [-0.02073558233678341, -0.020321417599916458, -0.019907254725694656, -0.019493089988827705, -0.019078925251960754, -0.018664762377738953, -0.018250597640872, -0.01783643290400505, -0.01742227002978325, -0.017008105292916298, -0.016593940556049347, -0.016179777681827545, -0.015765612944960594, -0.015351449139416218, -0.014937285333871841, -0.01452312059700489, -0.014108956791460514, -0.013694792985916138, -0.013280629180371761, -0.01286646444350481, -0.012452300637960434, -0.012038136832416058, -0.011623972095549107, -0.01120980829000473, -0.010795644484460354, -0.010381480678915977, -0.009967315942049026, -0.00955315213650465, -0.009138988330960274, -0.008724823594093323, -0.008310659788548946, -0.00789649598300457, -0.007482331711798906, -0.007068167440593243, -0.006654003635048866, -0.006239839363843203, -0.005825675092637539, -0.0054115112870931625, -0.004997347015887499, -0.0045831832103431225, -0.004169018939137459, -0.0037548549007624388, -0.0033406908623874187, -0.002926526591181755, -0.002512362552806735, -0.002098198514431715, -0.001684034476056695, -0.0012698703212663531, -0.0008557062828913331, -0.00044154218630865216, -2.7378089725971222e-05, 0.0003867860068567097, 0.0008009501034393907, 0.0012151141418144107, 0.0016292782966047525, 0.0020434423349797726, 0.0024576063733547926, 0.0028717704117298126, 0.0032859346829354763, 0.0037000987213104963, 0.004114262759685516, 0.00452842703089118, 0.004942590836435556, 0.00535675510764122, 0.0057709189131855965, 0.00618508318439126, 0.006599247455596924, 0.0070134112611413, 0.007427575532346964, 0.007841739803552628, 0.008255903609097004, 0.00867006741464138, 0.009084232151508331, 0.009498395957052708, 0.009912559762597084, 0.010326724499464035, 0.010740888305008411, 0.011155052110552788, 0.011569215916097164, 0.011983380652964115, 0.012397544458508492, 0.012811708264052868, 0.013225873000919819, 0.013640036806464195, 0.014054200612008572, 0.014468364417552948, 0.014882529154419899, 0.015296692959964275, 0.01571085676550865, 0.016125021502375603, 0.016539186239242554, 0.016953349113464355, 0.017367513850331306, 0.017781676724553108, 0.01819584146142006, 0.01861000619828701, 0.019024169072508812, 0.019438333809375763, 0.019852498546242714, 0.020266661420464516, 0.020680826157331467]]}, "grad__stats": {"min": -0.09494596719741821, "max": 0.09388758987188339, "mean": -0.0003773171629291028, "variance": 7.440929039148614e-05, "nobs": 1179648, "histogram_bins": 100, "histogram": [[2, 4, 3, 8, 13, 18, 19, 17, 36, 47, 50, 69, 64, 93, 112, 123, 140, 148, 190, 218, 216, 285, 324, 402, 475, 578, 634, 707, 882, 929, 1063, 1277, 1465, 1707, 2034, 2361, 2690, 3137, 3820, 4668, 5427, 6644, 8095, 10023, 13020, 17029, 23459, 34944, 59725, 140712, 605638, 76057, 39661, 24446, 16887, 12475, 9315, 7374, 6123, 4595, 3813, 3193, 2766, 2421, 1943, 1686, 1422, 1204, 1109, 972, 858, 784, 641, 518, 472, 428, 387, 349, 314, 248, 241, 191, 174, 158, 121, 112, 75, 71, 64, 52, 48, 38, 30, 25, 12, 9, 13, 2, 2, 5], [-0.09494596719741821, -0.09305763244628906, -0.09116929769515991, -0.08928096294403076, -0.08739262819290161, -0.08550428599119186, -0.08361595124006271, -0.08172761648893356, -0.07983928173780441, -0.07795094698667526, -0.07606261223554611, -0.07417427748441696, -0.07228594273328781, -0.07039760798215866, -0.06850926578044891, -0.06662093102931976, -0.06473259627819061, -0.06284426152706146, -0.06095592677593231, -0.05906759202480316, -0.05717925727367401, -0.05529091879725456, -0.05340258404612541, -0.05151424929499626, -0.04962591454386711, -0.04773757606744766, -0.04584924131631851, -0.04396090656518936, -0.04207257181406021, -0.04018423706293106, -0.03829589858651161, -0.03640756383538246, -0.03451922908425331, -0.03263089433312416, -0.03074255771934986, -0.02885422296822071, -0.02696588635444641, -0.02507755160331726, -0.02318921498954296, -0.02130088023841381, -0.01941254362463951, -0.01752420887351036, -0.01563587412238121, -0.01374753750860691, -0.011859201826155186, -0.00997086614370346, -0.00808253139257431, -0.006194195244461298, -0.00430586002767086, -0.0024175243452191353, -0.0005291886627674103, 0.001359146903268993, 0.003247482469305396, 0.005135817918926477, 0.0070241536013782024, 0.00891248881816864, 0.010800824500620365, 0.01268916018307209, 0.014577495865523815, 0.01646583154797554, 0.01835416629910469, 0.02024250291287899, 0.02213083766400814, 0.02401917427778244, 0.02590750902891159, 0.02779584564268589, 0.02968418039381504, 0.03157251700758934, 0.03346085175871849, 0.03534918650984764, 0.03723752126097679, 0.03912585973739624, 0.04101419448852539, 0.04290252923965454, 0.04479086399078369, 0.04667919874191284, 0.04856753721833229, 0.05045587196946144, 0.05234420672059059, 0.05423254147171974, 0.05612087994813919, 0.05800921469926834, 0.05989754945039749, 0.06178588420152664, 0.06367421895265579, 0.06556255370378494, 0.06745088845491409, 0.06933923065662384, 0.07122756540775299, 0.07311590015888214, 0.07500423491001129, 0.07689256966114044, 0.07878090441226959, 0.08066923916339874, 0.0825575739145279, 0.08444590866565704, 0.08633425086736679, 0.08822258561849594, 0.09011092036962509, 0.09199925512075424, 0.09388758987188339]]}, "first_delta__stats": {"min": -0.014514653943479061, "max": 0.01301739551126957, "mean": 0.0002512440551072359, "variance": 2.2251790596783394e-06, "nobs": 1179648, "histogram_bins": 100, "histogram": [[1, 2, 1, 0, 0, 0, 1, 0, 0, 2, 2, 2, 1, 1, 4, 6, 8, 11, 16, 15, 15, 17, 21, 30, 41, 63, 82, 101, 139, 198, 256, 373, 507, 660, 906, 1206, 1535, 2061, 2638, 3385, 4481, 5894, 7702, 10122, 13234, 17298, 22490, 29323, 38026, 49031, 65147, 103256, 234441, 103039, 83253, 70943, 59708, 49277, 40139, 32956, 26501, 21018, 17082, 13196, 10656, 8293, 6602, 5208, 4047, 3102, 2361, 1881, 1424, 1111, 831, 609, 490, 362, 252, 156, 117, 81, 59, 41, 37, 21, 10, 8, 8, 3, 5, 1, 2, 2, 1, 1, 0, 0, 1, 1], [-0.014514653943479061, -0.01423933357000351, -0.013964013196527958, -0.013688692823052406, -0.01341337151825428, -0.013138051144778728, -0.012862730771303177, -0.012587410397827625, -0.012312090024352074, -0.012036769650876522, -0.01176144927740097, -0.011486128903925419, -0.011210807599127293, -0.010935487225651741, -0.01066016685217619, -0.010384846478700638, -0.010109526105225086, -0.009834205731749535, -0.009558885358273983, -0.009283564984798431, -0.009008243680000305, -0.008732923306524754, -0.008457602933049202, -0.00818228255957365, -0.007906962186098099, -0.007631641812622547, -0.007356320973485708, -0.007081000600010157, -0.006805680226534605, -0.006530359387397766, -0.0062550390139222145, -0.005979718640446663, -0.005704398266971111, -0.005429077427834272, -0.005153757054358721, -0.004878436680883169, -0.004603116307407618, -0.004327795468270779, -0.004052475094795227, -0.0037771547213196754, -0.00350183411501348, -0.0032265137415379286, -0.0029511931352317333, -0.0026758727617561817, -0.0024005521554499865, -0.002125231781974435, -0.0018499111756682396, -0.0015745906857773662, -0.0012992701958864927, -0.0010239497059956193, -0.0007486292161047459, -0.00047330872621387243, -0.00019798822177108377, 7.733226811978966e-05, 0.0003526527725625783, 0.0006279732333496213, 0.0009032937232404947, 0.0011786142131313682, 0.0014539347030222416, 0.001729255192913115, 0.0020045756828039885, 0.0022798962891101837, 0.0025552166625857353, 0.0028305372688919306, 0.003105857642367482, 0.0033811782486736774, 0.003656498622149229, 0.003931818995624781, 0.00420713983476162, 0.004482460208237171, 0.004757780581712723, 0.005033100955188274, 0.005308421794325113, 0.005583742167800665, 0.0058590625412762165, 0.006134383380413055, 0.006409703753888607, 0.006685024127364159, 0.00696034450083971, 0.007235665339976549, 0.007510985713452101, 0.007786306086927652, 0.008061626926064491, 0.008336947299540043, 0.008612267673015594, 0.008887588046491146, 0.009162908419966698, 0.00943822879344225, 0.009713549166917801, 0.009988870471715927, 0.010264190845191479, 0.01053951121866703, 0.010814831592142582, 0.011090151965618134, 0.011365472339093685, 0.011640792712569237, 0.011916113086044788, 0.012191434390842915, 0.012466754764318466, 0.012742075137794018, 0.01301739551126957]]}}, "shape": [128, 9216]}, "fc1.bias": {"id": "fc1.bias", "data_group_type": "PARAM", "type": "Parameter", "value": {"tensor": [-0.0056420667096972466, 0.010896503925323486, -0.0026960575487464666, -0.002338324673473835, -0.00015921948943287134, 0.00474972790107131, -3.694654878927395e-05, -0.006091188173741102, 0.0012094862759113312, 0.001057776273228228, 0.005694049410521984, 0.0036306295078247786, 0.009599506855010986, 0.007702365983277559, -0.0010680804261937737, -0.004028204828500748, 0.008049095049500465, 0.008165701292455196, -0.005903886631131172, -0.0018570180982351303, -0.009696206077933311, 0.002956848591566086, 0.0023336473386734724, -0.0008366638794541359, 0.002753892447799444, -0.0010415883734822273, -0.004790403880178928, -0.009928974322974682, 0.0077422731555998325, 0.00031001243041828275, -0.008851584978401661, 0.012073575519025326, -0.00037808838533237576, -0.004713419824838638, 0.0019930044654756784, -0.01000717468559742, 0.00017267603834625334, -0.0006120230536907911, -0.005216262768954039, 0.011107931844890118, 0.0019107293337583542, -0.005476030986756086, -0.007387627847492695, 0.008792725391685963, -0.004823268391191959, -0.003020117525011301, 0.007947945035994053, 0.01093776524066925, 0.004563479218631983, -0.0009326972649432719, 0.003936000168323517, 0.0019184714183211327, 0.008479302749037743, -0.007010194472968578, 0.001612111576832831, -0.0004483726224862039, -0.009097503498196602, 0.008790435269474983, 0.0009020958095788956, 0.00023039909137878567, 3.186725007253699e-05, 0.0010548945283517241, -0.0047845072112977505, 0.004572502337396145, 0.0062648821622133255, -0.008917327970266342, 0.007675339933484793, 0.0103641077876091, -0.005468711722642183, 0.008221457712352276, 0.006700814701616764, 0.007128187920898199, 0.0021813996136188507, -0.008262206800282001, 0.0062353527173399925, 0.007582854945212603, -0.0013616654323413968, -0.007190206088125706, 0.0004593438352458179, -0.007505595684051514, 0.0031258543021976948, -0.0037886356003582478, 0.00517986761406064, 0.0001836607261793688, -0.007433541584759951, -0.006162479519844055, 0.0096338652074337, 0.001988577889278531, 0.002745279110968113, 0.005199531093239784, 0.001995605183765292, 0.002916288562119007, -0.0063811978325247765, 0.00743853859603405, -0.0035153510980308056, 0.0021038653794676065, -0.0013340286677703261, -0.009927589446306229, -0.0014956744853407145, -0.0039121173322200775, -0.0021637859754264355, 0.00647472869604826, -0.005983113776892424, -0.0016807441134005785, -0.0006756664370186627, -5.8529447414912283e-05, -0.0010965635301545262, -0.0019164540572091937, -0.0031713766511529684, -0.0059131961315870285, 0.0071503156796097755, 0.004449574742466211, -0.008214238099753857, -0.010429572314023972, -0.0028755334205925465, 0.010459153912961483, -0.0036395310889929533, -0.0027660015039145947, -0.010511793196201324, 0.004786405712366104, 0.005748523864895105, 0.004244294483214617, -0.002329874085262418, -0.007613044232130051, -0.005669695790857077, 0.011738281697034836, -0.003213952761143446, -0.002819731133058667], "grad": [0.006282280199229717, 0.0006077360594645143, 0.014543898403644562, -0.00870022363960743, -0.00025970031856559217, -0.007984375581145287, -0.012794594280421734, -0.004722083453088999, -0.0005625864723697305, 0.0, -0.008075680583715439, -0.0014256947906687856, 0.0, -0.005391729064285755, 0.00080080860061571, 0.004638554062694311, -0.004030364099889994, -0.0005067022866569459, 0.004640445578843355, 0.003107790369540453, 0.0007036029128357768, 0.0, 0.0024544380139559507, 0.008003883995115757, -0.003379308618605137, 0.007320121396332979, -0.0010912747820839286, -0.007931508123874664, -0.008959184400737286, -0.0027983463369309902, 0.005174864083528519, -0.0030403395649045706, -0.006472763605415821, -0.0013053282164037228, 0.0039769746363162994, 0.0, -0.0035306469071656466, 0.00459741847589612, -0.004743726458400488, 0.006975059863179922, -0.016749193891882896, 0.0046050590462982655, 0.013979661278426647, -0.001778052537702024, 6.226546975085512e-05, 0.0011659589363262057, 0.0005465815775096416, -0.006102436222136021, -0.0020499920938163996, 0.00792232621461153, 0.0, 0.00048694308497942984, -0.010891013778746128, 0.009151851758360863, -0.0027504439931362867, 0.003911998122930527, 0.007836963050067425, -0.0007357345893979073, -0.005524810869246721, 0.0008449215674772859, -0.00919424369931221, -0.006796444766223431, -0.0016460316255688667, 0.014653817750513554, 0.0, 0.0037910642568022013, 0.0026568067260086536, -0.00725132180377841, 0.0, -0.003032494569197297, -0.004332384094595909, -0.0028077424503862858, -0.005965004209429026, 0.00342881609685719, 0.0007470392738468945, -0.0026738534215837717, -0.0031349589116871357, 0.009387444704771042, 0.0010585096897557378, -0.004928978625684977, 0.013189882040023804, 0.0005471979966387153, 0.002055011922493577, 4.535726475296542e-05, -0.0018653040751814842, -0.00033808336593210697, -0.0004968693247064948, -0.007762536872178316, 0.0, -0.0006753432098776102, -0.006566235329955816, -0.00809213425964117, 0.0, -0.002742035547271371, 0.0, -4.799773887498304e-05, -0.00023107946617528796, 0.0, -0.0019454587018117309, -0.011648504994809628, 0.005936911795288324, -0.0021576147992163897, 0.0, -0.005478468257933855, 0.0, -0.009795039892196655, 0.0038555581122636795, -0.0016313858795911074, 0.0, 0.008370114490389824, 0.0006640679785050452, 0.0018244102830067277, 0.0, -0.0076566278003156185, 0.0, 0.006039520725607872, 0.003762560896575451, -0.003187829628586769, 0.0008544512093067169, 0.006905701942741871, -0.0030396936926990747, -0.011354598216712475, 1.4589910279028118e-05, -0.0007425544899888337, 0.005305805243551731, 0.012266268022358418, -0.001030665822327137, -0.0027113989926874638], "first_delta": [-0.00021325936540961266, 0.0026161568239331245, 0.0008016375359147787, -0.0006188336992636323, -1.3708398910239339e-05, 0.00079350546002388, -0.0007382920593954623, -0.0016389023512601852, 0.0033005080185830593, -0.00023782008793205023, -0.0008602077141404152, -0.0004707092884927988, -0.0004967935383319855, 0.0006208759732544422, 0.0017566868336871266, 0.0008897483348846436, 0.0011431938037276268, 0.00015058834105730057, 0.00019617704674601555, 0.003292890265583992, 0.0003072591498494148, -0.00039703911170363426, 0.0001727752387523651, 0.003467879258096218, -0.0015640617348253727, 0.002878778148442507, 0.0028992323204874992, -0.0019476069137454033, 0.0007984945550560951, -0.0010278858244419098, 0.0012737875804305077, 0.0018134675920009613, -0.0009456935222260654, -0.0013052001595497131, -0.0007256616372615099, -0.00043936725705862045, 0.001425730879418552, 0.0027765457052737474, 0.0009874743409454823, 0.0013392753899097443, 0.0013273699441924691, 0.0018508140929043293, 0.0016158027574419975, 0.0013002995401620865, 0.00045472290366888046, 0.002120031975209713, 0.0003333771601319313, 0.0034357383847236633, -6.030779331922531e-05, 0.0009434496168978512, -0.0003214753232896328, 0.0008124649757519364, -0.00014806631952524185, 0.001611822284758091, 0.00023769796825945377, 0.0003054796252399683, -0.00021871738135814667, 2.8602778911590576e-05, 0.000654555216897279, 3.4883429179899395e-05, 0.000772543135099113, -0.0004553220933303237, 0.0016812286339700222, 0.0006014024838805199, -8.939672261476517e-05, 0.00037277769297361374, 0.0010193116031587124, 0.0016481317579746246, -0.000497796107083559, 0.0005580335855484009, 0.0001479010097682476, -0.00034420331940054893, -0.0014537051320075989, 0.0008521061390638351, -0.0006702803075313568, -0.0009945170022547245, -0.0016457299934700131, 0.002316432073712349, 0.0029026377014815807, 0.000805768184363842, 0.0002290201373398304, 0.0007863598875701427, 0.002342461608350277, 0.0006781011470593512, 0.0014084870927035809, 0.001040027942508459, -0.0001342371106147766, 0.0013333403039723635, -0.00027578603476285934, 0.0005608117207884789, -0.0004340789746493101, -0.0014193919487297535, -7.602199912071228e-05, 0.0009938632138073444, -0.00010039843618869781, 0.0014044445706531405, 0.0017545748269185424, -0.0005190335214138031, 0.00021567055955529213, 0.00039481744170188904, 0.002021925523877144, 0.0010090507566928864, -0.0004655178636312485, 0.0003260350786149502, -0.000531476573087275, 0.0031592347659170628, -0.0019315575482323766, 0.0021441285498440266, -0.00023350585252046585, 9.3820970505476e-05, 0.00086600286886096, -0.0004049469716846943, -0.00020373612642288208, -0.0007101073861122131, -0.00011530192568898201, 0.0013457722961902618, -0.0006617524195462465, -0.0011230602394789457, -0.00019430555403232574, 0.0016116611659526825, 0.0019793258979916573, 9.962311014533043e-05, 0.002269170945510268, 0.0006479080766439438, 0.0017155930399894714, 0.0014055641368031502, -0.00041810981929302216, 0.0009280364029109478], "tensor__stats": {"min": -0.010511793196201324, "max": 0.012073575519025326, "mean": 0.0002654917479958385, "variance": 3.4541008062660694e-05, "nobs": 128, "histogram_bins": 11, "histogram": [[9, 8, 15, 14, 16, 14, 14, 11, 12, 8, 7], [-0.010511793196201324, -0.008458578027784824, -0.006405362393707037, -0.004352147225290537, -0.002298931824043393, -0.00024571651010774076, 0.0018074988620355725, 0.0038607141468673944, 0.005913929548114538, 0.007967145182192326, 0.010020360350608826, 0.012073575519025326]]}, "grad__stats": {"min": -0.016749193891882896, "max": 0.014653817750513554, "mean": -0.0004339487641118467, "variance": 3.1638155633118004e-05, "nobs": 128, "histogram_bins": 11, "histogram": [[1, 3, 5, 15, 18, 40, 17, 14, 8, 2, 5], [-0.016749193891882896, -0.01389437448233366, -0.011039555072784424, -0.008184736594557762, -0.0053299167193472385, -0.0024750977754592896, 0.0003797215467784554, 0.0032345408108085394, 0.006089359987527132, 0.008944178931415081, 0.011798998340964317, 0.014653817750513554]]}, "first_delta__stats": {"min": -0.0019476069137454033, "max": 0.003467879258096218, "mean": 0.0005525000160560012, "variance": 1.4787003692617873e-06, "nobs": 128, "histogram_bins": 11, "histogram": [[5, 6, 13, 24, 18, 21, 14, 11, 6, 5, 5], [-0.0019476069137454033, -0.0014552900101989508, -0.0009629730484448373, -0.0004706561448983848, 2.1660785932908766e-05, 0.0005139777204021811, 0.0010062946239486337, 0.0014986115274950862, 0.0019909285474568605, 0.002483245451003313, 0.0029755623545497656, 0.003467879258096218]]}}, "shape": [128]}, "fc2.weight": {"id": "fc2.weight", "data_group_type": "PARAM", "type": "Parameter", "value": {"tensor": "NOT SERIALIZED, Too large 1280", "grad": "NOT SERIALIZED, Too large 1280", "first_delta": "NOT SERIALIZED, Too large 1280", "tensor__stats": {"min": -0.10662708431482315, "max": 0.09389367699623108, "mean": -0.0028541593346744776, "variance": 0.00297534535638988, "nobs": 1280, "histogram_bins": 35, "histogram": [[8, 12, 25, 48, 38, 38, 39, 37, 34, 36, 45, 39, 45, 41, 34, 34, 42, 44, 47, 30, 35, 37, 43, 38, 28, 42, 46, 39, 31, 45, 38, 47, 37, 44, 14], [-0.10662708431482315, -0.10089792311191559, -0.09516875445842743, -0.08943959325551987, -0.08371042460203171, -0.07798126339912415, -0.07225209474563599, -0.06652293354272842, -0.06079376861453056, -0.0550646036863327, -0.04933543875813484, -0.04360627382993698, -0.03787710890173912, -0.03214794397354126, -0.0264187790453434, -0.020689615979790688, -0.014960450120270252, -0.009231286123394966, -0.003502121428027749, 0.002227043267339468, 0.007956207729876041, 0.013685372658073902, 0.019414536654949188, 0.02514370158314705, 0.03087286651134491, 0.03660203143954277, 0.04233119636774063, 0.04806036129593849, 0.05378952622413635, 0.05951869115233421, 0.06524785608053207, 0.07097701728343964, 0.0767061859369278, 0.08243534713983536, 0.08816451579332352, 0.09389367699623108]]}, "grad__stats": {"min": -1.0526816844940186, "max": 1.0787659883499146, "mean": 5.9604645663569045e-09, "variance": 0.03474762663245201, "nobs": 1280, "histogram_bins": 35, "histogram": [[1, 1, 1, 0, 2, 7, 7, 4, 6, 7, 11, 8, 17, 17, 21, 31, 99, 877, 38, 24, 19, 17, 13, 12, 7, 5, 6, 4, 8, 4, 3, 0, 1, 1, 1], [-1.0526816844940186, -0.9917832016944885, -0.9308846592903137, -0.8699861764907837, -0.8090876936912537, -0.7481891512870789, -0.6872906684875488, -0.626392126083374, -0.565493643283844, -0.504595160484314, -0.44369664788246155, -0.38279813528060913, -0.3218996226787567, -0.2610011100769043, -0.20010261237621307, -0.13920411467552185, -0.07830560207366943, -0.017407100647687912, 0.04349140450358391, 0.10438990592956543, 0.16528841853141785, 0.22618691623210907, 0.2870854139328003, 0.3479839265346527, 0.4088824391365051, 0.46978095173835754, 0.53067946434021, 0.59157794713974, 0.65247642993927, 0.7133749723434448, 0.7742734551429749, 0.8351719975471497, 0.8960704803466797, 0.9569689631462097, 1.0178674459457397, 1.0787659883499146]]}, "first_delta__stats": {"min": -0.029216963797807693, "max": 0.00930042564868927, "mean": -0.002457960043102503, "variance": 2.604932706162799e-05, "nobs": 1280, "histogram_bins": 35, "histogram": [[2, 0, 0, 0, 0, 2, 2, 3, 4, 4, 1, 5, 12, 15, 20, 12, 22, 33, 26, 40, 34, 60, 82, 85, 98, 126, 259, 109, 96, 64, 37, 14, 8, 3, 2], [-0.029216963797807693, -0.028116466477513313, -0.027015971019864082, -0.025915473699569702, -0.024814976379275322, -0.023714479058980942, -0.02261398360133171, -0.02151348628103733, -0.02041298896074295, -0.01931249164044857, -0.01821199618279934, -0.01711149886250496, -0.01601100154221058, -0.014910505153238773, -0.013810007832944393, -0.012709511443972588, -0.011609014123678207, -0.010508517734706402, -0.009408020414412022, -0.008307524025440216, -0.007207027170807123, -0.00610653031617403, -0.005006033461540937, -0.003905536374077201, -0.002805039519444108, -0.001704542781226337, -0.0006040459265932441, 0.0004964509280398488, 0.0015969477826729417, 0.0026974445208907127, 0.0037979413755238056, 0.0048984382301568985, 0.005998935084789991, 0.007099431939423084, 0.008199929259717464, 0.00930042564868927]]}}, "shape": [10, 128]}, "fc2.bias": {"id": "fc2.bias", "data_group_type": "PARAM", "type": "Parameter", "value": {"tensor": [0.04801804944872856, 0.04068358987569809, -0.02411774732172489, 0.023632707074284554, 0.05629140883684158, 0.0358240120112896, -0.04670341685414314, 0.023161644116044044, -0.08238274604082108, 0.027544444426894188], "grad": [-0.04182574898004532, 0.007129289209842682, 0.07429526001214981, -0.07691572606563568, 0.000349629670381546, 0.04004894569516182, -0.0006154777947813272, -8.934350626077503e-05, -0.0029950037132948637, 0.0006181859644129872], "first_delta": [-0.002838611602783203, 0.0006690993905067444, -0.0005750879645347595, -0.0017002560198307037, -0.0016892105340957642, 0.0004300065338611603, -0.0027866847813129425, 0.0017926134169101715, -0.0033469349145889282, -0.00024526938796043396], "tensor__stats": {"min": -0.08238274604082108, "max": 0.05629140883684158, "mean": 0.010195193812251091, "variance": 0.002086333930492401, "nobs": 10, "histogram_bins": 5, "histogram": [[1, 1, 1, 3, 4], [-0.08238274604082108, -0.054647915065288544, -0.026913084089756012, 0.0008217468857765198, 0.02855657786130905, 0.05629140883684158]]}, "grad__stats": {"min": -0.07691572606563568, "max": 0.07429526001214981, "mean": 1.0593794730340278e-09, "variance": 0.001649979269132018, "nobs": 10, "histogram_bins": 5, "histogram": [[1, 1, 6, 1, 1], [-0.07691572606563568, -0.04667352885007858, -0.016431331634521484, 0.013810865581035614, 0.04405306279659271, 0.07429526001214981]]}, "first_delta__stats": {"min": -0.0033469349145889282, "max": 0.0017926134169101715, "mean": -0.0010290335630998015, "variance": 2.9352718229347374e-06, "nobs": 10, "histogram_bins": 5, "histogram": [[3, 2, 1, 3, 1], [-0.0033469349145889282, -0.0023190253414213657, -0.0012911155354231596, -0.0002632059040479362, 0.0007647037273272872, 0.0017926134169101715]]}}, "shape": [10]}, "input.1": {"id": "input.1", "data_group_type": "INPUT", "type": "Tensor", "value": {"tensor": "NOT SERIALIZED, Too large 7840", "tensor__stats": {"min": -0.4242129623889923, "max": 2.821486711502075, "mean": 0.03480222448706627, "variance": 1.0908647775650024, "nobs": 7840, "histogram_bins": 88, "histogram": [[6291, 16, 15, 21, 7, 10, 10, 15, 13, 4, 29, 12, 7, 20, 9, 8, 9, 8, 6, 25, 3, 7, 16, 4, 7, 5, 6, 7, 11, 20, 3, 3, 4, 16, 5, 6, 3, 5, 6, 16, 6, 7, 9, 9, 14, 11, 4, 3, 17, 3, 8, 8, 5, 14, 8, 4, 7, 3, 25, 11, 9, 6, 9, 7, 6, 15, 7, 10, 18, 7, 10, 8, 5, 14, 5, 9, 14, 25, 8, 16, 7, 17, 15, 22, 15, 17, 127, 548], [-0.4242129623889923, -0.387330025434494, -0.35044705867767334, -0.31356412172317505, -0.27668115496635437, -0.23979820311069489, -0.2029152512550354, -0.16603229939937592, -0.12914936244487762, -0.09226640313863754, -0.055383455008268356, -0.01850050315260887, 0.018382446840405464, 0.0552653968334198, 0.09214834868907928, 0.12903130054473877, 0.16591425240039825, 0.20279720425605774, 0.23968015611171722, 0.2765631079673767, 0.313446044921875, 0.3503290116786957, 0.38721194863319397, 0.42409491539001465, 0.46097785234451294, 0.4978608191013336, 0.5347437858581543, 0.5716267228126526, 0.6085096597671509, 0.6453925967216492, 0.6822755336761475, 0.7191585302352905, 0.7560414671897888, 0.7929244041442871, 0.8298073410987854, 0.8666903376579285, 0.9035732746124268, 0.940456211566925, 0.9773391485214233, 1.0142221450805664, 1.05110502243042, 1.087988018989563, 1.124871015548706, 1.1617538928985596, 1.1986368894577026, 1.2355197668075562, 1.2724027633666992, 1.3092857599258423, 1.3461686372756958, 1.3830516338348389, 1.419934630393982, 1.4568175077438354, 1.4937005043029785, 1.530583381652832, 1.567466378211975, 1.6043493747711182, 1.6412322521209717, 1.6781152486801147, 1.7149982452392578, 1.7518811225891113, 1.7887641191482544, 1.825646996498108, 1.862529993057251, 1.899412989616394, 1.9362958669662476, 1.9731788635253906, 2.010061740875244, 2.0469448566436768, 2.0838277339935303, 2.120710611343384, 2.1575934886932373, 2.19447660446167, 2.2313594818115234, 2.268242359161377, 2.3051254749298096, 2.342008352279663, 2.3788912296295166, 2.415774345397949, 2.4526572227478027, 2.4895401000976562, 2.526423215866089, 2.5633060932159424, 2.600188970565796, 2.6370718479156494, 2.673954963684082, 2.7108378410339355, 2.747720718383789, 2.7846038341522217, 2.821486711502075]]}}, "shape": [10, 1, 28, 28]}, "output.1": {"id": "output.1", "data_group_type": "OUTPUT", "type": "Tensor", "value": {"tensor": [[-7.654992580413818, -2.629261016845703, -6.571756839752197, -0.09575020521879196, -8.741790771484375, -5.379416465759277, -9.261942863464355, -7.608872413635254, -4.687630653381348, -5.901818752288818], [-8.06697940826416, -11.207612037658691, -2.920966863632202, -4.4674763679504395, -9.358126640319824, -7.020226001739502, -7.868510723114014, -14.558859825134277, -0.06952653080224991, -9.056852340698242], [-6.945003032684326, -7.3829121589660645, -0.3844602406024933, -1.203561544418335, -11.635296821594238, -7.491451740264893, -8.372992515563965, -15.990348815917969, -4.093921661376953, -13.206119537353516], [-15.0828857421875, -15.324498176574707, -8.160497665405273, -0.00030012393835932016, -18.078920364379883, -11.367942810058594, -18.033769607543945, -23.30647087097168, -12.991012573242188, -19.262331008911133], [-12.250332832336426, -0.0020761380437761545, -8.269704818725586, -7.684776306152344, -9.619518280029297, -10.525744438171387, -9.16807746887207, -8.813488006591797, -7.0079121589660645, -9.188023567199707], [-13.8881196975708, -17.962146759033203, -19.39876937866211, -11.134471893310547, -10.555935859680176, -11.61599349975586, -18.684144973754883, -0.0017715488793328404, -11.444195747375488, -6.3720245361328125], [-11.90427303314209, -7.46305513381958, -6.367218494415283, -9.089427947998047, -5.834287643432617, -8.818666458129883, -0.0065834298729896545, -12.374136924743652, -7.936112403869629, -7.241763114929199], [-17.03876495361328, -15.8074951171875, -13.802407264709473, -12.291022300720215, -14.94352912902832, -17.010107040405273, -19.719152450561523, -0.00011681827891152352, -12.884726524353027, -9.132009506225586], [-0.5447641611099243, -10.57706356048584, -5.439949989318848, -4.579476833343506, -10.094070434570312, -0.9308162927627563, -10.074353218078613, -7.975481033325195, -4.60060453414917, -7.277062892913818], [-14.92805290222168, -17.906251907348633, -8.27756118774414, -16.10798454284668, -8.612638473510742, -15.08874225616455, -0.0004481264913920313, -22.118886947631836, -11.641602516174316, -12.860841751098633]], "tensor__stats": {"min": -23.30647087097168, "max": -0.00011681827891152352, "mean": -9.543317794799805, "variance": 30.159135818481445, "nobs": 100, "histogram_bins": 10, "histogram": [[2, 4, 6, 9, 10, 14, 28, 9, 6, 12], [-23.30647087097168, -20.9758358001709, -18.645200729370117, -16.314563751220703, -13.983929634094238, -11.65329360961914, -9.32265853881836, -6.99202299118042, -4.6613874435424805, -2.33075213432312, -0.00011681827891152352]]}}, "shape": [10, 10]}}, "graph": {"nodes": [{"data": {"id": "input.1", "label": "INPUT", "component_ids": ["input.1"]}}, {"data": {"id": 9, "label": "Conv", "component_ids": ["conv1.weight", "conv1.bias"]}}, {"data": {"id": 10, "label": "Relu", "component_ids": []}}, {"data": {"id": 11, "label": "Conv", "component_ids": ["conv2.weight", "conv2.bias"]}}, {"data": {"id": 12, "label": "Relu", "component_ids": []}}, {"data": {"id": 13, "label": "MaxPool", "component_ids": []}}, {"data": {"id": 14, "label": "Flatten", "component_ids": []}}, {"data": {"id": 15, "label": "Gemm", "component_ids": ["fc1.weight", "fc1.bias"]}}, {"data": {"id": 16, "label": "Relu", "component_ids": []}}, {"data": {"id": 17, "label": "Gemm", "component_ids": ["fc2.weight", "fc2.bias"]}}, {"data": {"id": 18, "label": "LogSoftmax", "component_ids": []}}, {"data": {"id": "output.1", "label": "OUTPUT", "component_ids": ["output.1"]}}], "edges": [{"data": {"id": "input.1_9", "source": "input.1", "target": 9}}, {"data": {"id": "9_10", "source": 9, "target": 10}}, {"data": {"id": "10_11", "source": 10, "target": 11}}, {"data": {"id": "11_12", "source": 11, "target": 12}}, {"data": {"id": "12_13", "source": 12, "target": 13}}, {"data": {"id": "13_14", "source": 13, "target": 14}}, {"data": {"id": "14_15", "source": 14, "target": 15}}, {"data": {"id": "15_16", "source": 15, "target": 16}}, {"data": {"id": "16_17", "source": 16, "target": 17}}, {"data": {"id": "17_18", "source": 17, "target": 18}}, {"data": {"id": "18_output.1", "source": "18", "target": "output.1"}}]}}