{"id": "0_600", "meta": {"time": 1638574444.765249, "refresh_model_graph": false}, "step_info": {"epoch": 0, "iter": 600}, "additional_info": {"pred": {"type": "Tensor", "value": [[6], [0], [1], [1], [5], [2], [8], [3], [0], [4]]}, "loss": {"type": "Tensor", "value": 0.21879835426807404}, "class_label": {"type": "Tensor", "value": [6, 0, 1, 1, 5, 2, 8, 3, 0, 4]}, "test_acc": {"type": "float", "value": 88.8}}, "graph_id": [0, 0], "data": {"conv1.weight": {"id": "conv1.weight", "data_group_type": "PARAM", "type": "Parameter", "value": {"tensor": "NOT SERIALIZED, Too large 288", "grad": "NOT SERIALIZED, Too large 288", "first_delta": "NOT SERIALIZED, Too large 288", "tensor__stats": {"min": -0.3331098258495331, "max": 0.36548683047294617, "mean": 0.016044186428189278, "variance": 0.040009960532188416, "nobs": 288, "histogram_bins": 16, "histogram": [[24, 13, 24, 13, 12, 20, 11, 20, 16, 28, 14, 27, 21, 12, 19, 14], [-0.3331098258495331, -0.289447546005249, -0.24578523635864258, -0.20212295651435852, -0.15846066176891327, -0.11479836702346802, -0.07113607972860336, -0.02747378870844841, 0.016188502311706543, 0.059850793331861496, 0.10351308435201645, 0.1471753716468811, 0.19083766639232635, 0.2344999611377716, 0.27816224098205566, 0.3218245506286621, 0.36548683047294617]]}, "grad__stats": {"min": -0.04484185576438904, "max": 0.01049577072262764, "mean": -0.008374880999326706, "variance": 0.0001608656602911651, "nobs": 288, "histogram_bins": 16, "histogram": [[2, 6, 1, 7, 12, 14, 16, 13, 21, 16, 21, 21, 49, 42, 34, 13], [-0.04484185576438904, -0.041383255273103714, -0.03792465105652809, -0.03446605056524277, -0.031007450073957443, -0.02754884772002697, -0.024090245366096497, -0.020631644874811172, -0.0171730425208807, -0.0137144410982728, -0.010255839675664902, -0.006797237321734428, -0.0033386358991265297, 0.00011996575631201267, 0.003578567411750555, 0.007037169300019741, 0.01049577072262764]]}, "first_delta__stats": {"min": -0.008369781076908112, "max": 0.052802130579948425, "mean": 0.01354965753853321, "variance": 0.00021581543842330575, "nobs": 288, "histogram_bins": 16, "histogram": [[18, 47, 29, 23, 21, 27, 15, 21, 28, 14, 15, 7, 11, 5, 5, 2], [-0.008369781076908112, -0.004546536598354578, -0.0007232921198010445, 0.003099952358752489, 0.006923196837306023, 0.010746441781520844, 0.01456968579441309, 0.018392929807305336, 0.022216174751520157, 0.026039419695734978, 0.0298626646399498, 0.03368590772151947, 0.03750915080308914, 0.04133239760994911, 0.045155640691518784, 0.048978887498378754, 0.052802130579948425]]}}, "shape": [32, 1, 3, 3]}, "conv1.bias": {"id": "conv1.bias", "data_group_type": "PARAM", "type": "Parameter", "value": {"tensor": [0.05341750755906105, 0.34376347064971924, -0.018241722136735916, -0.15145030617713928, -0.2878924310207367, 0.0004060578066855669, 0.13090606033802032, 0.025459827855229378, 0.09453584253787994, 0.12744392454624176, 0.1961057335138321, 0.3071304261684418, 0.055126529186964035, -0.23135210573673248, 0.03798871114850044, -0.10933507233858109, 0.19916199147701263, 0.1267654448747635, 0.11691927164793015, 0.15855000913143158, -0.25175243616104126, -0.09687231481075287, 0.22238986194133759, -0.15473267436027527, 0.11951980739831924, 0.2635956406593323, 0.2782348096370697, -0.24487853050231934, 0.15748311579227448, -0.009246635250747204, 0.11043868213891983, 0.312639057636261], "grad": [-0.003933931700885296, -0.015015920624136925, -0.02416137419641018, -0.002219539601355791, -0.006278441287577152, -0.004637218080461025, -0.0031950436532497406, -0.0035526901483535767, -0.017525911331176758, -0.012176820077002048, -0.018834702670574188, -0.008335656486451626, -0.005188091192394495, -0.002433245535939932, -0.01613328978419304, -0.0008782473742030561, -0.011006436310708523, -0.009055734612047672, -0.01518398430198431, 0.004082255531102419, -0.005956222768872976, -0.008159996941685677, -0.008062017150223255, -0.002054676879197359, -0.011013567447662354, -0.011362385004758835, -0.009525266475975513, 0.001286891638301313, -0.003500822000205517, -0.006297231651842594, -0.004516699351370335, -0.007854158990085125], "first_delta": [0.017329398542642593, 0.016428619623184204, 0.004721285775303841, 0.022196978330612183, 0.02906474471092224, -0.0022428918164223433, 0.008646957576274872, 0.01666858047246933, 0.003964513540267944, 0.007823437452316284, 0.007669493556022644, 0.018971294164657593, 0.029166242107748985, 0.010406404733657837, 0.006156172603368759, 0.005685128271579742, 0.008143052458763123, 0.006806366145610809, 0.0014660283923149109, 0.00584489107131958, 0.03669804334640503, 0.018801666796207428, 0.010657146573066711, 0.002967551350593567, 0.004621319472789764, 0.02897760272026062, 0.02955874800682068, 0.005008071660995483, 0.014970317482948303, 0.004185828380286694, 0.012923255562782288, 0.011994481086730957], "tensor__stats": {"min": -0.2878924310207367, "max": 0.34376347064971924, "mean": 0.05881960690021515, "variance": 0.030930886045098305, "nobs": 32, "histogram_bins": 5, "histogram": [[4, 4, 7, 11, 6], [-0.2878924310207367, -0.1615612506866455, -0.03523007035255432, 0.09110110998153687, 0.21743229031562805, 0.34376347064971924]]}, "grad__stats": {"min": -0.02416137419641018, "max": 0.004082255531102419, "mean": -0.00789625570178032, "variance": 3.8392419810406864e-05, "nobs": 32, "histogram_bins": 5, "histogram": [[2, 4, 10, 13, 3], [-0.02416137419641018, -0.018512647598981857, -0.01286392193287611, -0.007215196266770363, -0.001566470367833972, 0.004082255531102419]]}, "first_delta__stats": {"min": -0.0022428918164223433, "max": 0.03669804334640503, "mean": 0.012696271762251854, "variance": 9.47786247706972e-05, "nobs": 32, "histogram_bins": 5, "histogram": [[8, 12, 6, 1, 5], [-0.0022428918164223433, 0.005545295309275389, 0.013333482667803764, 0.021121669560670853, 0.02890985645353794, 0.03669804334640503]]}}, "shape": [32]}, "conv2.weight": {"id": "conv2.weight", "data_group_type": "PARAM", "type": "Parameter", "value": {"tensor": "NOT SERIALIZED, Too large 18432", "grad": "NOT SERIALIZED, Too large 18432", "first_delta": "NOT SERIALIZED, Too large 18432", "tensor__stats": {"min": -0.06521547585725784, "max": 0.08197261393070221, "mean": 0.0039043063297867775, "variance": 0.0012029625941067934, "nobs": 18432, "histogram_bins": 100, "histogram": [[1, 5, 15, 33, 68, 120, 136, 153, 171, 193, 216, 195, 211, 212, 219, 210, 222, 233, 221, 226, 221, 217, 237, 253, 227, 247, 228, 225, 227, 197, 231, 201, 219, 236, 219, 219, 216, 282, 232, 202, 241, 246, 221, 230, 221, 244, 236, 226, 201, 216, 230, 230, 213, 242, 220, 222, 235, 226, 240, 251, 257, 222, 228, 248, 248, 204, 215, 247, 221, 221, 227, 253, 237, 211, 251, 229, 204, 209, 213, 232, 227, 226, 224, 203, 178, 137, 108, 70, 73, 55, 47, 37, 38, 12, 21, 4, 4, 2, 0, 2], [-0.06521547585725784, -0.06374359130859375, -0.062271714210510254, -0.06079983338713646, -0.059327952563762665, -0.05785607174038887, -0.056384190917015076, -0.05491231009364128, -0.05344042927026749, -0.05196854844689369, -0.0504966676235199, -0.0490247868001461, -0.04755290597677231, -0.046081025153398514, -0.04460914433002472, -0.043137263506650925, -0.04166538268327713, -0.040193501859903336, -0.03872162103652954, -0.037249740213155746, -0.03577785938978195, -0.03430597856640816, -0.03283409774303436, -0.03136221691966057, -0.029890334233641624, -0.02841845341026783, -0.026946572586894035, -0.02547469176352024, -0.024002810940146446, -0.02253093011677265, -0.021059049293398857, -0.019587168470025063, -0.018115287646651268, -0.016643406823277473, -0.015171525068581104, -0.01369964424520731, -0.012227763421833515, -0.01075588259845972, -0.009284001775085926, -0.0078121209517121315, -0.006340240128338337, -0.004868358839303255, -0.003396478248760104, -0.001924597192555666, -0.00045271634007804096, 0.001019164570607245, 0.0024910455103963614, 0.0039629265666007996, 0.005434807389974594, 0.006906688213348389, 0.008378569036722183, 0.009850449860095978, 0.011322330683469772, 0.012794211506843567, 0.014266092330217361, 0.015737973153591156, 0.01720985397696495, 0.018681734800338745, 0.02015361562371254, 0.021625496447086334, 0.02309737727046013, 0.024569258093833923, 0.026041138917207718, 0.02751302160322666, 0.028984902426600456, 0.03045678324997425, 0.031928662210702896, 0.03340054303407669, 0.034872423857450485, 0.03634430468082428, 0.037816185504198074, 0.03928806632757187, 0.04075994715094566, 0.04223182797431946, 0.04370370879769325, 0.04517558962106705, 0.04664747416973114, 0.048119354993104935, 0.04959123581647873, 0.051063116639852524, 0.05253499746322632, 0.05400687828660011, 0.05547875910997391, 0.0569506399333477, 0.0584225207567215, 0.05989440158009529, 0.061366282403469086, 0.06283815950155258, 0.06431004405021667, 0.06578192114830017, 0.06725380569696426, 0.06872568279504776, 0.07019756734371185, 0.07166944444179535, 0.07314132899045944, 0.07461320608854294, 0.07608509063720703, 0.07755696773529053, 0.07902885228395462, 0.08050072938203812, 0.08197261393070221]]}, "grad__stats": {"min": -0.021471865475177765, "max": 0.012427075766026974, "mean": -0.001442521344870329, "variance": 1.0159206794924103e-05, "nobs": 18432, "histogram_bins": 100, "histogram": [[1, 0, 2, 2, 1, 2, 1, 0, 2, 1, 2, 4, 2, 3, 2, 6, 3, 5, 6, 13, 10, 9, 17, 23, 24, 19, 20, 35, 40, 43, 41, 46, 49, 40, 60, 53, 62, 66, 77, 90, 89, 114, 125, 136, 127, 150, 160, 221, 215, 254, 289, 357, 391, 423, 471, 535, 613, 627, 793, 841, 1023, 1161, 1622, 1788, 1246, 879, 660, 499, 376, 283, 258, 159, 133, 115, 84, 72, 60, 44, 25, 30, 19, 9, 13, 17, 11, 6, 1, 7, 2, 1, 3, 2, 1, 6, 1, 0, 1, 0, 1, 1], [-0.021471865475177765, -0.021132875233888626, -0.020793886855244637, -0.020454896613955498, -0.020115908235311508, -0.01977691799402237, -0.01943792961537838, -0.01909893937408924, -0.01875995099544525, -0.018420960754156113, -0.018081970512866974, -0.017742982134222984, -0.017403991892933846, -0.017065003514289856, -0.016726013273000717, -0.016387024894356728, -0.01604803465306759, -0.0157090462744236, -0.01537005603313446, -0.015031066723167896, -0.014692077413201332, -0.014353088103234768, -0.014014098793268204, -0.013675108551979065, -0.0133361192420125, -0.012997129932045937, -0.012658140622079372, -0.012319151312112808, -0.011980162002146244, -0.01164117269217968, -0.011302183382213116, -0.010963194072246552, -0.010624203830957413, -0.010285214520990849, -0.009946225211024284, -0.00960723590105772, -0.009268246591091156, -0.008929257281124592, -0.008590267971158028, -0.008251278661191463, -0.0079122893512249, -0.007573299575597048, -0.007234310265630484, -0.0068953209556639194, -0.006556331180036068, -0.006217341870069504, -0.00587835256010294, -0.005539363250136375, -0.005200373474508524, -0.00486138416454196, -0.004522394854575396, -0.004183405544608831, -0.0038444160018116236, -0.0035054266918450594, -0.0031664371490478516, -0.0028274478390812874, -0.0024884582962840796, -0.0021494689863175154, -0.0018104795599356294, -0.0014714901335537434, -0.0011325007071718574, -0.0007935113389976323, -0.00045452191261574626, -0.00011553249350981787, 0.00022345692559611052, 0.0005624463083222508, 0.0009014357347041368, 0.0012404251610860229, 0.0015794145874679089, 0.0019184040138497949, 0.002257393440231681, 0.002596382750198245, 0.002935372292995453, 0.003274361602962017, 0.003613351145759225, 0.003952340222895145, 0.004291329998522997, 0.004630319308489561, 0.004969308618456125, 0.0053082979284226894, 0.005647287704050541, 0.005986277014017105, 0.006325266323983669, 0.0066642556339502335, 0.007003244943916798, 0.007342234719544649, 0.007681224029511213, 0.008020213805139065, 0.008359203115105629, 0.008698192425072193, 0.009037181735038757, 0.009376171045005322, 0.009715160354971886, 0.01005414966493845, 0.010393138974905014, 0.010732128284871578, 0.011071118526160717, 0.011410107836127281, 0.011749097146093845, 0.01208808645606041, 0.012427075766026974]]}, "first_delta__stats": {"min": -0.008208561688661575, "max": 0.028992783278226852, "mean": 0.003805783111602068, "variance": 2.723151192185469e-05, "nobs": 18432, "histogram_bins": 100, "histogram": [[4, 2, 10, 8, 18, 22, 40, 51, 97, 92, 120, 110, 166, 165, 201, 253, 270, 307, 406, 519, 650, 825, 948, 761, 677, 672, 601, 577, 550, 560, 540, 500, 468, 432, 417, 376, 400, 350, 302, 275, 282, 261, 277, 255, 249, 244, 241, 209, 202, 194, 170, 159, 157, 157, 145, 163, 125, 119, 107, 106, 86, 85, 92, 69, 64, 58, 46, 25, 36, 33, 41, 30, 25, 24, 18, 21, 13, 16, 4, 17, 7, 9, 5, 9, 5, 1, 3, 5, 3, 7, 4, 1, 2, 1, 0, 1, 0, 1, 0, 1], [-0.008208561688661575, -0.007836548611521721, -0.007464534603059292, -0.007092521525919437, -0.006720507983118296, -0.006348494440317154, -0.005976480897516012, -0.0056044673547148705, -0.005232454277575016, -0.004860440734773874, -0.0044884271919727325, -0.004116413649171591, -0.0037444003392010927, -0.003372386796399951, -0.003000373486429453, -0.002628359943628311, -0.0022563464008271694, -0.0018843330908566713, -0.0015123195480555296, -0.0011403061216697097, -0.0007682926952838898, -0.0003962792397942394, -2.4265795218525454e-05, 0.0003477476420812309, 0.0007197611266747117, 0.0010917745530605316, 0.0014637879794463515, 0.0018358014058321714, 0.002207814948633313, 0.0025798282586038113, 0.002951841801404953, 0.0033238553442060947, 0.003695868654176593, 0.004067881964147091, 0.004439895506948233, 0.004811909049749374, 0.005183922592550516, 0.005555936135351658, 0.005927949212491512, 0.006299962755292654, 0.006671976298093796, 0.0070439898408949375, 0.007416003383696079, 0.007788016460835934, 0.008160030469298363, 0.008532043546438217, 0.008904056623578072, 0.0092760706320405, 0.009648083709180355, 0.010020097717642784, 0.010392110794782639, 0.010764123871922493, 0.011136137880384922, 0.011508150957524776, 0.011880164965987206, 0.01225217804312706, 0.012624191120266914, 0.012996205128729343, 0.013368218205869198, 0.013740232214331627, 0.014112245291471481, 0.014484258368611336, 0.014856272377073765, 0.01522828545421362, 0.015600299462676048, 0.015972312539815903, 0.016344325616955757, 0.01671633869409561, 0.017088353633880615, 0.01746036671102047, 0.017832379788160324, 0.01820439286530018, 0.018576405942440033, 0.018948420882225037, 0.01932043395936489, 0.019692447036504745, 0.0200644601136446, 0.020436473190784454, 0.020808488130569458, 0.021180501207709312, 0.021552514284849167, 0.02192452736198902, 0.022296540439128876, 0.02266855537891388, 0.023040568456053734, 0.023412581533193588, 0.023784594610333443, 0.024156607687473297, 0.0245286226272583, 0.024900635704398155, 0.02527264878153801, 0.025644661858677864, 0.02601667493581772, 0.026388689875602722, 0.026760702952742577, 0.02713271602988243, 0.027504729107022285, 0.02787674218416214, 0.028248757123947144, 0.028620770201086998, 0.028992783278226852]]}}, "shape": [64, 32, 3, 3]}, "conv2.bias": {"id": "conv2.bias", "data_group_type": "PARAM", "type": "Parameter", "value": {"tensor": [-0.03568214178085327, 0.059802621603012085, -0.003906444646418095, 0.0034970189444720745, -0.004463305231183767, -0.007182323839515448, 0.02924591302871704, 0.01094831246882677, -0.0215435903519392, 0.008981469087302685, 0.00437447614967823, -0.03596741706132889, 0.02808697149157524, 0.04227011650800705, -0.02063777670264244, -0.0455164760351181, 0.003542668418958783, -0.04829227551817894, 0.05908000469207764, -0.04529847577214241, 0.049754731357097626, -0.025895489379763603, -0.0010224748402833939, -0.0008544583106413484, 0.04511494189500809, 0.03721402585506439, -0.05049639195203781, -0.0376472994685173, 0.05903427675366402, 0.0686701238155365, 0.009081021882593632, -0.02265404723584652, 0.006807493045926094, 0.05274751037359238, -0.04519892856478691, -0.03528226539492607, 0.005730550270527601, 0.029155438765883446, 0.03437115624547005, -0.019734129309654236, -0.01954890787601471, 0.058883145451545715, -0.041319698095321655, -0.022689105942845345, 0.04541805759072304, 0.03802556172013283, -0.02751561440527439, 0.009458601474761963, -0.02743072435259819, -0.010600486770272255, 0.04735482856631279, -0.04123980924487114, 0.02041631191968918, -0.033519305288791656, 0.009313322603702545, 0.053099825978279114, 0.06013861298561096, 0.05336540937423706, -0.03429076448082924, -0.01510944589972496, -0.007986552082002163, 0.0424492210149765, 0.025110464543104172, 0.05041749030351639], "grad": [-0.008410075679421425, -0.006834372878074646, -0.005996802821755409, -0.0017204184550791979, 0.002118453849107027, -0.0013622012920677662, 0.0021311917807906866, -0.00801236554980278, -0.00013485283125191927, -0.007651079446077347, -0.0037547654937952757, -0.006423805374652147, -0.008843154646456242, -0.01928291656076908, -0.004282938316464424, -0.0037301944103091955, -0.0035406146198511124, 0.0032304672058671713, 0.002282695844769478, -0.004533014725893736, -0.001688727643340826, -0.0017122328281402588, -0.008380292914807796, -0.00015735483611933887, -0.022186417132616043, -0.024138648062944412, 0.0046700770035386086, 0.00021633417054545134, -0.01949639618396759, 0.002398321870714426, -0.0010263834847137332, -0.007094598840922117, 0.0018414539517834783, -0.005113629158586264, -0.0003350708866491914, -0.0012020380236208439, -0.003555375849828124, 0.0016015225555747747, -0.0026702210307121277, 0.005319812335073948, -0.0015121411997824907, -0.014951879158616066, 0.0032452289015054703, -0.00122410140465945, 0.0015528943622484803, 0.0009644412202760577, -0.0004190744075458497, -0.0023416648618876934, 0.001534316223114729, -0.0019760937429964542, -0.012808607891201973, 0.002643315587192774, -0.00022290449123829603, -0.0026181302964687347, -0.004333403892815113, 0.0003544357605278492, -0.00010458192264195532, -0.0017387119587510824, -0.01723249815404415, -0.021327214315533638, 0.0022219219245016575, -0.009917760267853737, -0.005171761382371187, 0.0013290105853229761], "first_delta": [0.006132703274488449, 0.004089076071977615, 0.001967435237020254, 0.0010373499244451523, 0.003152342513203621, 0.004591033328324556, 0.01319156028330326, 0.0031780842691659927, 0.006763730198144913, 0.006511214189231396, 0.002255564322695136, 0.00457555428147316, 0.003321995958685875, 0.007585585117340088, 0.0017964355647563934, 0.008635502308607101, 0.0031589705031365156, 0.010068200528621674, 0.0026612989604473114, 0.005151610821485519, 0.007191836833953857, 0.002816068008542061, 0.00201291311532259, 0.004252580925822258, 0.005930032581090927, 0.004362117499113083, 0.003033757209777832, 0.005801435559988022, 0.004218403249979019, 0.012506041675806046, 0.010580374859273434, 0.004821188747882843, 0.002611387986689806, 0.002426188439130783, 0.005619674921035767, 0.007064115256071091, 0.0033189004752784967, 0.004976565018296242, 0.008017020300030708, 0.003963014110922813, 0.004744550213217735, 0.0024809539318084717, 0.01081841066479683, 0.012194858863949776, 0.002824045717716217, 0.006811071187257767, 0.014421196654438972, 0.002899519167840481, 0.0039558932185173035, 0.008505860343575478, 0.004800658673048019, 0.009529806673526764, 0.0026651769876480103, 0.0012529827654361725, 0.005276883952319622, 0.004415247589349747, 0.004906516522169113, 0.008291102945804596, 0.005368359386920929, 0.004334483295679092, 0.00757137406617403, 0.0061783865094184875, 0.0024275854229927063, 0.014150969684123993], "tensor__stats": {"min": -0.05049639195203781, "max": 0.0686701238155365, "mean": 0.005819305777549744, "variance": 0.0012549929087981582, "nobs": 64, "histogram_bins": 8, "histogram": [[10, 9, 7, 11, 4, 7, 10, 6], [-0.05049639195203781, -0.03560057654976845, -0.020704763010144234, -0.005808948539197445, 0.009086865931749344, 0.023982681334018707, 0.03887849301099777, 0.053774308413267136, 0.0686701238155365]]}, "grad__stats": {"min": -0.024138648062944412, "max": 0.005319812335073948, "mean": -0.003929931204766035, "variance": 4.629172326531261e-05, "nobs": 64, "histogram_bins": 8, "histogram": [[3, 3, 1, 2, 9, 12, 23, 11], [-0.024138648062944412, -0.02045634016394615, -0.01677403226494789, -0.013091725297272205, -0.00940941832959652, -0.005727110430598259, -0.002044802764430642, 0.0016375047853216529, 0.005319812335073948]]}, "first_delta__stats": {"min": 0.0010373499244451523, "max": 0.014421196654438972, "mean": 0.00556523073464632, "variance": 1.04921364254551e-05, "nobs": 64, "histogram_bins": 8, "histogram": [[12, 16, 14, 9, 4, 4, 2, 3], [0.0010373499244451523, 0.00271033076569438, 0.004383311606943607, 0.006056292448192835, 0.007729273289442062, 0.009402254596352577, 0.011075234971940517, 0.012748215347528458, 0.014421196654438972]]}}, "shape": [64]}, "fc1.weight": {"id": "fc1.weight", "data_group_type": "PARAM", "type": "Parameter", "value": {"tensor": "NOT SERIALIZED, Too large 1179648", "grad": "NOT SERIALIZED, Too large 1179648", "first_delta": "NOT SERIALIZED, Too large 1179648", "tensor__stats": {"min": -0.0161556676030159, "max": 0.017544761300086975, "mean": 0.00023049917945172638, "variance": 3.738226951099932e-05, "nobs": 1179648, "histogram_bins": 100, "histogram": [[1, 1, 2, 8, 17, 38, 44, 88, 154, 265, 357, 565, 867, 1359, 1956, 3021, 5411, 10760, 13163, 14946, 15887, 16965, 17588, 18163, 18371, 18588, 19110, 18671, 18715, 18977, 19254, 19204, 19185, 19077, 19286, 19005, 19215, 19139, 19163, 18898, 19318, 19128, 19157, 19158, 19021, 18972, 18965, 19074, 18965, 19239, 19241, 19002, 19044, 18878, 19150, 18808, 18840, 19178, 19171, 18897, 19216, 19038, 19323, 19014, 19274, 19092, 18899, 18968, 19031, 19010, 18811, 18904, 18613, 18508, 17920, 17531, 16917, 15779, 12795, 7721, 5530, 3951, 2818, 1968, 1349, 987, 691, 478, 277, 199, 139, 83, 51, 35, 16, 7, 7, 4, 3, 1], [-0.0161556676030159, -0.01581866294145584, -0.015481659211218357, -0.015144654549658298, -0.014807650819420815, -0.014470646157860756, -0.014133641496300697, -0.013796637766063213, -0.013459633104503155, -0.01312262937426567, -0.012785624712705612, -0.012448620051145554, -0.01211161632090807, -0.011774611659348011, -0.011437607929110527, -0.011100603267550468, -0.01076359860599041, -0.010426594875752926, -0.010089590214192867, -0.009752586483955383, -0.009415581822395325, -0.009078577160835266, -0.008741573430597782, -0.008404568769037724, -0.00806756503880024, -0.007730560377240181, -0.00739355618134141, -0.007056551985442638, -0.00671954732388258, -0.0063825431279838085, -0.006045538932085037, -0.005708534736186266, -0.005371530540287495, -0.005034525878727436, -0.004697521682828665, -0.0043605174869298935, -0.004023513291031122, -0.0036865088623017073, -0.003349504666402936, -0.003012500237673521, -0.0026754960417747498, -0.0023384918458759785, -0.0020014874171465635, -0.0016644832212477922, -0.0013274789089336991, -0.000990474596619606, -0.0006534702843055129, -0.0003164660301990807, 2.0538271201075986e-05, 0.00035754256532527506, 0.0006945468485355377, 0.0010315511608496308, 0.001368555473163724, 0.0017055596690624952, 0.00204256409779191, 0.0023795682936906815, 0.0027165724895894527, 0.0030535769183188677, 0.003390581114217639, 0.003727585542947054, 0.004064589738845825, 0.0044015939347445965, 0.004738598130643368, 0.005075602792203426, 0.005412606988102198, 0.005749611184000969, 0.00608661537989974, 0.0064236195757985115, 0.00676062423735857, 0.007097628433257341, 0.007434632629156113, 0.007771636825054884, 0.008108641020953655, 0.008445645682513714, 0.008782649412751198, 0.009119654074311256, 0.009456658735871315, 0.009793662466108799, 0.010130667127668858, 0.010467670857906342, 0.0108046755194664, 0.011141680181026459, 0.011478683911263943, 0.011815688572824001, 0.012152692303061485, 0.012489696964621544, 0.012826701626181602, 0.013163705356419086, 0.013500710017979145, 0.013837713748216629, 0.014174718409776688, 0.014511723071336746, 0.01484872680157423, 0.015185731463134289, 0.015522735193371773, 0.01585973985493183, 0.01619674451649189, 0.01653374917805195, 0.016870751976966858, 0.017207756638526917, 0.017544761300086975]]}, "grad__stats": {"min": -0.05579603090882301, "max": 0.05070819333195686, "mean": 1.259463624592172e-05, "variance": 1.996086211875081e-05, "nobs": 1179648, "histogram_bins": 100, "histogram": [[2, 2, 3, 5, 6, 6, 11, 10, 12, 21, 24, 22, 27, 36, 46, 46, 46, 61, 91, 97, 106, 148, 162, 215, 226, 249, 296, 333, 386, 450, 609, 619, 773, 973, 1131, 1299, 1592, 1875, 2261, 2679, 3259, 3919, 4748, 5965, 7223, 8990, 11570, 15097, 20655, 32365, 60940, 132995, 563422, 113090, 51965, 29315, 19882, 15114, 11588, 9203, 7524, 6001, 4838, 3957, 3223, 2775, 2218, 1907, 1605, 1316, 1057, 843, 664, 626, 461, 405, 336, 243, 221, 208, 184, 135, 118, 111, 91, 53, 67, 53, 39, 21, 20, 18, 14, 10, 10, 4, 2, 3, 3, 3], [-0.05579603090882301, -0.054730989038944244, -0.053665947169065475, -0.05260090529918671, -0.05153586342930794, -0.05047082155942917, -0.0494057759642601, -0.04834073409438133, -0.047275692224502563, -0.046210650354623795, -0.045145608484745026, -0.04408056661486626, -0.04301552474498749, -0.04195048287510872, -0.04088544100522995, -0.03982039541006088, -0.038755353540182114, -0.037690311670303345, -0.036625269800424576, -0.03556022793054581, -0.03449518606066704, -0.03343014419078827, -0.0323651023209095, -0.03130006045103073, -0.030235016718506813, -0.029169974848628044, -0.028104932978749275, -0.027039891108870506, -0.025974847376346588, -0.02490980550646782, -0.02384476363658905, -0.02277972176671028, -0.021714679896831512, -0.020649636164307594, -0.019584594294428825, -0.018519552424550056, -0.017454510554671288, -0.01638946868479252, -0.015324425883591175, -0.014259383082389832, -0.013194341212511063, -0.012129299342632294, -0.01106425654143095, -0.009999214671552181, -0.008934171870350838, -0.007869130000472069, -0.0068040876649320126, -0.005739045329391956, -0.004674003459513187, -0.003608961123973131, -0.002543918788433075, -0.0014788765693083405, -0.00041383429197594523, 0.0006512079271487892, 0.0017162502044811845, 0.002781292423605919, 0.003846334759145975, 0.004911377094686031, 0.0059764189645648, 0.0070414613001048565, 0.008106503635644913, 0.009171545505523682, 0.010236588306725025, 0.011301630176603794, 0.012366672977805138, 0.013431714847683907, 0.014496756717562675, 0.015561799518764019, 0.016626842319965363, 0.01769188418984413, 0.0187569260597229, 0.01982196792960167, 0.020887009799480438, 0.021952053532004356, 0.023017095401883125, 0.024082137271761894, 0.025147179141640663, 0.026212221011519432, 0.02727726474404335, 0.02834230661392212, 0.029407348483800888, 0.030472390353679657, 0.031537432223558426, 0.032602474093437195, 0.033667515963315964, 0.03473255783319473, 0.0357976034283638, 0.03686264529824257, 0.03792768716812134, 0.03899272903800011, 0.040057770907878876, 0.041122812777757645, 0.042187854647636414, 0.04325289651751518, 0.04431793838739395, 0.04538298025727272, 0.04644802585244179, 0.04751306772232056, 0.048578109592199326, 0.049643151462078094, 0.05070819333195686]]}, "first_delta__stats": {"min": -0.00724015012383461, "max": 0.00802465807646513, "mean": 0.0002326329704374075, "variance": 1.2154002888564719e-06, "nobs": 1179648, "histogram_bins": 100, "histogram": [[1, 1, 3, 5, 6, 4, 13, 8, 5, 19, 16, 29, 32, 32, 71, 86, 104, 179, 212, 299, 336, 440, 534, 705, 872, 1115, 1273, 1536, 1851, 2333, 2798, 3389, 4161, 5041, 6071, 7139, 8880, 10495, 12364, 14906, 17696, 21577, 25847, 31988, 42277, 62305, 126950, 217995, 79416, 64666, 57459, 49860, 42959, 36547, 31417, 26738, 23232, 19906, 16920, 14491, 12351, 10547, 8963, 7815, 6602, 5730, 4873, 4178, 3447, 2955, 2489, 2064, 1778, 1475, 1233, 1040, 883, 681, 576, 490, 396, 277, 257, 207, 161, 128, 137, 85, 57, 51, 36, 24, 13, 13, 7, 8, 5, 2, 2, 2], [-0.00724015012383461, -0.007087502162903547, -0.006934853736311197, -0.006782205775380135, -0.006629557814449072, -0.006476909853518009, -0.006324261426925659, -0.0061716134659945965, -0.006018965505063534, -0.005866317544132471, -0.005713669117540121, -0.005561021156609058, -0.005408373195677996, -0.005255725234746933, -0.005103076808154583, -0.00495042884722352, -0.004797780886292458, -0.004645132925361395, -0.004492484498769045, -0.004339836537837982, -0.0041871885769069195, -0.004034540615975857, -0.0038818924222141504, -0.003729244228452444, -0.0035765962675213814, -0.003423948073759675, -0.0032712998799979687, -0.003118651919066906, -0.0029660037253051996, -0.002813355764374137, -0.0026607075706124306, -0.002508059609681368, -0.0023554114159196615, -0.002202763454988599, -0.0020501152612268925, -0.0018974673002958298, -0.0017448192229494452, -0.0015921711456030607, -0.0014395229518413544, -0.0012868748744949698, -0.0011342267971485853, -0.0009815787198022008, -0.0008289307006634772, -0.0006762826233170927, -0.0005236344877630472, -0.00037098643952049315, -0.0002183383476221934, -6.569027027580887e-05, 8.695781434653327e-05, 0.0002396058989688754, 0.00039225397631525993, 0.0005449020536616445, 0.000697550131008029, 0.0008501982083544135, 0.001002846285700798, 0.0011554943630471826, 0.001308142440393567, 0.0014607905177399516, 0.0016134385950863361, 0.0017660866724327207, 0.0019187347497791052, 0.0020713829435408115, 0.0022240309044718742, 0.0023766790982335806, 0.0025293270591646433, 0.0026819752529263496, 0.0028346232138574123, 0.0029872714076191187, 0.0031399193685501814, 0.0032925675623118877, 0.0034452155232429504, 0.003597863717004657, 0.0037505116779357195, 0.003903159871697426, 0.0040558078326284885, 0.004208455793559551, 0.004361104220151901, 0.004513752181082964, 0.004666400142014027, 0.004819048568606377, 0.004971696529537439, 0.005124344490468502, 0.005276992451399565, 0.005429640877991915, 0.0055822888389229774, 0.00573493679985404, 0.005887584760785103, 0.006040233187377453, 0.0061928811483085155, 0.006345529109239578, 0.006498177070170641, 0.006650825496762991, 0.006803473457694054, 0.006956121418625116, 0.007108769379556179, 0.007261417806148529, 0.007414065767079592, 0.0075667137280106544, 0.007719361688941717, 0.00787200964987278, 0.00802465807646513]]}}, "shape": [128, 9216]}, "fc1.bias": {"id": "fc1.bias", "data_group_type": "PARAM", "type": "Parameter", "value": {"tensor": [-0.0055465674959123135, 0.010533004999160767, -0.002840716391801834, -0.0016549251740798354, -7.283314334927127e-05, 0.004587587434798479, 0.00034849299117922783, -0.005122693721204996, 0.00039779464714229107, 0.0010959341889247298, 0.006261694245040417, 0.004175536800175905, 0.009633342735469341, 0.007753170561045408, -0.001254901522770524, -0.004078737925738096, 0.007793752010911703, 0.008312582969665527, -0.005875748116523027, -0.0027401833795011044, -0.009992050938308239, 0.002937373472377658, 0.002690778346732259, -0.0020844372920691967, 0.0037612745072692633, -0.002125806175172329, -0.005445613991469145, -0.008901126682758331, 0.007797727826982737, 0.0011393253225833178, -0.009483150206506252, 0.011681200936436653, 0.0005595356342382729, -0.004026099108159542, 0.0025322898291051388, -0.009921767748892307, 1.9830544260912575e-05, -0.0017661291640251875, -0.005255469121038914, 0.010784553363919258, 0.0015035724500194192, -0.005663833115249872, -0.00766188558191061, 0.008504655212163925, -0.004848052281886339, -0.003429049625992775, 0.007578345946967602, 0.00980992242693901, 0.004243618343025446, -0.0010605078423395753, 0.003966865595430136, 0.0017313614953309298, 0.00908010546118021, -0.007385827135294676, 0.002151553751900792, -0.00048030464677140117, -0.00854509323835373, 0.008470065891742706, 0.0009985457872971892, 0.0006274482584558427, 7.262671715579927e-05, 0.0016848393715918064, -0.005088602192699909, 0.004751959349960089, 0.0062648821622133255, -0.008286409080028534, 0.007705786731094122, 0.009903172962367535, -0.005457197781652212, 0.007982654497027397, 0.006719938013702631, 0.007209486328065395, 0.003191847587004304, -0.00889618881046772, 0.006840675137937069, 0.008015050552785397, -0.00023498706286773086, -0.007343625649809837, -0.0004837564192712307, -0.007704565767198801, 0.003106526331976056, -0.003760225372388959, 0.0046127489767968655, 4.2738724005175754e-05, -0.007743904832750559, -0.00644198153167963, 0.00992670375853777, 0.0019403756596148014, 0.0027605663053691387, 0.004824393894523382, 0.0021917051635682583, 0.0033899713307619095, -0.0065008969977498055, 0.007153796963393688, -0.0035209825728088617, 0.0016905746888369322, -0.0016444395296275616, -0.009890132583677769, -0.0011179862776771188, -0.003582719247788191, -0.0031514265574514866, 0.006409925874322653, -0.005949575453996658, -0.0014780295314267278, -0.00046499865129590034, -0.0010152304312214255, 0.00015695177717134356, -0.00254430016502738, -0.0031264391727745533, -0.005751677323132753, 0.00705683371052146, 0.004772321321070194, -0.008186140097677708, -0.010069533251225948, -0.0028434291016310453, 0.010005466639995575, -0.0032801672350615263, -0.002341016661375761, -0.009790550917387009, 0.00405075354501605, 0.005453613121062517, 0.00458970433101058, -0.002557686297222972, -0.007550342008471489, -0.006166017614305019, 0.011159590445458889, -0.0027869741898030043, -0.0030446031596511602], "grad": [-4.2885403672698885e-05, -0.007637227885425091, 0.0025137816555798054, -0.001925308140926063, 0.004854443483054638, 0.0018529517110437155, -0.0076860226690769196, 0.002531001577153802, -0.004914714489132166, 0.0, 0.0031267767772078514, 0.0037121071945875883, 0.0, -0.0030483680311590433, 0.003814262803643942, 0.0064385696314275265, -0.002906438894569874, 0.003982615657150745, 0.004877618979662657, -0.002314812270924449, 0.0, 0.0, 0.0037947751116007566, -0.006555134430527687, 0.0025967746041715145, -0.00029060704400762916, -0.0009509460651315749, 0.002591123105958104, 0.0048196688294410706, -0.006036692298948765, 0.0013918961631134152, 0.006402451545000076, -0.004174188710749149, 0.006693974602967501, -0.0026941956020891666, 0.0, -0.001085380557924509, -0.006685313768684864, -0.00736945029348135, 0.000818672007881105, 0.0012429708149284124, -0.004511096514761448, -0.007735515478998423, 0.0002289582771481946, 0.003244066843762994, -0.004409094341099262, -0.003470416646450758, -0.0014884829288348556, 0.006337212398648262, -0.008469093590974808, 0.0, 0.0011417592177167535, -0.0026208660565316677, 0.0015276126796379685, -0.006850282661616802, 0.00379986222833395, -0.003150662872940302, 0.0, 0.004445860628038645, -0.005087690893560648, 0.004373299423605204, -0.0038569788448512554, -0.00613207696005702, -0.007005739491432905, 0.0, -0.005578886717557907, 0.000294680503429845, 0.003766977693885565, 0.0, 0.0072272764518857, 0.0038329504895955324, 0.0, 0.0007451415294781327, -0.0003842231526505202, -0.00112860684748739, -0.002078246558085084, 0.0017423215322196484, -0.006672571878880262, -0.009135577827692032, -0.002978958422318101, -0.004658772610127926, 0.0037607820704579353, 0.0005450757453218102, -0.0014097420498728752, -0.0008662605541758239, -0.005414051469415426, 0.002939522499218583, -0.002913505071774125, 0.0, 0.004134451504796743, 0.00703611271455884, 0.007298829033970833, 0.0, -0.0010904923547059298, 0.0, 0.006309505086392164, -0.0024948869831860065, 0.0, -0.005039289593696594, -0.0017815108876675367, -0.004589971620589495, -0.00037442080792970955, 0.0, 0.0032786934170871973, 0.0, 0.0011825094697996974, 0.0024060849100351334, 0.0007274929666891694, 0.0, -0.0017353994771838188, 0.00027449597837403417, 0.0004769244114868343, 0.0, 0.00540589215233922, 0.0, 0.004826518706977367, 0.0074663301929831505, 0.00820490438491106, 0.0038850309792906046, 0.0045119477435946465, -0.0024487641640007496, 0.008608592674136162, -0.010576654225587845, 0.004351405892521143, -0.0027142437174916267, 0.002826256211847067, -7.531869414378889e-06, 0.0019831154495477676], "first_delta": [-0.00011776015162467957, 0.002252657897770405, 0.0006569786928594112, 6.456580013036728e-05, 7.267794717336074e-05, 0.000631364993751049, -0.0003528525121510029, -0.0006704078987240791, 0.002488816389814019, -0.0001996621722355485, -0.0002925628796219826, 7.419800385832787e-05, -0.0004629576578736305, 0.0006716805510222912, 0.0015698657371103764, 0.000839215237647295, 0.0008878507651388645, 0.00029747001826763153, 0.0002243155613541603, 0.002409724984318018, 1.1414289474487305e-05, -0.0004165142308920622, 0.0005299062468111515, 0.0022201058454811573, -0.0005566796753555536, 0.0017945603467524052, 0.002244022209197283, -0.0009197592735290527, 0.0008539492264389992, -0.0001985729904845357, 0.0006422223523259163, 0.0014210930094122887, -8.069502655416727e-06, -0.0006178794428706169, -0.00018637627363204956, -0.000353960320353508, 0.001272885361686349, 0.001622439594939351, 0.0009482679888606071, 0.0010158969089388847, 0.0009202130604535341, 0.0016630119644105434, 0.0013415450230240822, 0.001012229360640049, 0.00042993901297450066, 0.001711099874228239, -3.6221928894519806e-05, 0.0023078955709934235, -0.0003801686689257622, 0.0008156390395015478, -0.0002906098961830139, 0.0006253550527617335, 0.00045273639261722565, 0.0012361896224319935, 0.000777140143327415, 0.00027354760095477104, 0.00033369287848472595, -0.00029176659882068634, 0.0007510051946155727, 0.00043193259625695646, 0.0008133025839924812, 0.00017462274990975857, 0.0013771336525678635, 0.0007808594964444637, -8.939672261476517e-05, 0.001003696583211422, 0.0010497584007680416, 0.001187196932733059, -0.0004862821660935879, 0.0003192303702235222, 0.00016702432185411453, -0.00026290491223335266, -0.00044325715862214565, 0.0002181241288781166, -6.49578869342804e-05, -0.0005623213946819305, -0.0005190516239963472, 0.0021630125120282173, 0.0019595373887568712, 0.0006067981012165546, 0.00020969216711819172, 0.0008147701155394316, 0.001775342971086502, 0.0005371791776269674, 0.0010981238447129726, 0.000760525930672884, 0.00015860144048929214, 0.0012851380743086338, -0.00026049884036183357, 0.0001856745220720768, -0.000237978994846344, -0.0009457091800868511, -0.00019572116434574127, 0.0007091215811669827, -0.00010602991096675396, 0.0009911538800224662, 0.001444163965061307, -0.00048157665878534317, 0.0005933587672188878, 0.0007242155261337757, 0.0010342849418520927, 0.0009442479349672794, -0.00043197954073548317, 0.0005287496605888009, -0.0003208087873645127, 0.0022025336511433125, -0.0006780422409065068, 0.0015162825584411621, -0.00018856837414205074, 0.00025533977895975113, 0.000772520899772644, -8.220039308071136e-05, -0.0001756381243467331, -0.0003500683233141899, -8.319760672748089e-05, 0.0008920850232243538, -0.0003023885656148195, -0.0006980753969401121, 0.00052693672478199, 0.0008760089986026287, 0.001684415154159069, 0.0004450329579412937, 0.002041358733549714, 0.0007106103003025055, 0.0012192712165415287, 0.0008268728852272034, 8.868752047419548e-06, 0.0007031643763184547], "tensor__stats": {"min": -0.010069533251225948, "max": 0.011681200936436653, "mean": 0.0002503186115063727, "variance": 3.40868609782774e-05, "nobs": 128, "histogram_bins": 11, "histogram": [[11, 9, 11, 17, 14, 16, 11, 11, 10, 10, 8], [-0.010069533251225948, -0.008092193864285946, -0.0061148544773459435, -0.004137514624744654, -0.002160175470635295, -0.0001828358945203945, 0.0017945035360753536, 0.0037718431558459997, 0.0057491823099553585, 0.007726522162556648, 0.00970386154949665, 0.011681200936436653]]}, "grad__stats": {"min": -0.010576654225587845, "max": 0.008608592674136162, "mean": -3.1041923648444936e-05, "variance": 1.7178612324642017e-05, "nobs": 128, "histogram_bins": 11, "histogram": [[2, 5, 9, 9, 14, 12, 34, 13, 18, 6, 6], [-0.010576654225587845, -0.008832541294395924, -0.007088427431881428, -0.005344314035028219, -0.0036002008710056543, -0.0018560874741524458, -0.0001119740991271101, 0.0016321392031386495, 0.00337625271640718, 0.005120365880429745, 0.006864479277282953, 0.008608592674136162]]}, "first_delta__stats": {"min": -0.0009457091800868511, "max": 0.002488816389814019, "mean": 0.000537326792255044, "variance": 6.673336656604079e-07, "nobs": 128, "histogram_bins": 11, "histogram": [[5, 14, 21, 16, 12, 24, 12, 7, 7, 3, 7], [-0.0009457091800868511, -0.0006334795616567135, -0.0003212499723304063, -9.020388461067341e-06, 0.00030320920632220805, 0.0006154387956485152, 0.0009276684140786529, 0.0012398980325087905, 0.0015521276509389281, 0.001864357152953744, 0.0021765867713838816, 0.002488816389814019]]}}, "shape": [128]}, "fc2.weight": {"id": "fc2.weight", "data_group_type": "PARAM", "type": "Parameter", "value": {"tensor": "NOT SERIALIZED, Too large 1280", "grad": "NOT SERIALIZED, Too large 1280", "first_delta": "NOT SERIALIZED, Too large 1280", "tensor__stats": {"min": -0.10393880307674408, "max": 0.09258617460727692, "mean": -0.0020239378791302443, "variance": 0.0029045906849205494, "nobs": 1280, "histogram_bins": 35, "histogram": [[5, 17, 29, 42, 40, 40, 38, 35, 32, 43, 42, 37, 43, 42, 33, 34, 40, 48, 46, 31, 31, 38, 39, 42, 25, 39, 50, 41, 29, 40, 39, 48, 36, 42, 24], [-0.10393880307674408, -0.09832380712032318, -0.09270880371332169, -0.08709380775690079, -0.08147880434989929, -0.0758638083934784, -0.0702488049864769, -0.064633809030056, -0.0590188093483448, -0.053403809666633606, -0.04778880998492241, -0.04217381030321121, -0.036558810621500015, -0.03094381093978882, -0.02532881125807762, -0.019713813439011574, -0.014098812825977802, -0.00848381407558918, -0.0028688146267086267, 0.0027461848221719265, 0.008361184038221836, 0.013976183719933033, 0.019591182470321655, 0.025206182152032852, 0.03082118183374405, 0.036436181515455246, 0.04205118119716644, 0.04766618087887764, 0.05328118056058884, 0.058896180242300034, 0.06451117992401123, 0.07012617588043213, 0.07574117928743362, 0.08135617524385452, 0.08697117865085602, 0.09258617460727692]]}, "grad__stats": {"min": -0.460910439491272, "max": 0.16336840391159058, "mean": 2.9802322831784522e-09, "variance": 0.0049888319335877895, "nobs": 1280, "histogram_bins": 35, "histogram": [[1, 1, 0, 0, 0, 1, 2, 1, 3, 4, 3, 2, 6, 7, 3, 7, 7, 14, 8, 11, 21, 34, 57, 48, 70, 314, 232, 119, 94, 84, 62, 39, 9, 9, 7], [-0.460910439491272, -0.44307389855384827, -0.42523735761642456, -0.40740081667900085, -0.38956427574157715, -0.37172773480415344, -0.3538912236690521, -0.3360546827316284, -0.3182181417942047, -0.300381600856781, -0.2825450599193573, -0.2647085189819336, -0.2468719780445099, -0.22903543710708618, -0.21119889616966248, -0.19336237013339996, -0.17552582919597626, -0.15768928825855255, -0.13985274732112885, -0.12201621383428574, -0.10417967289686203, -0.08634313195943832, -0.06850659847259521, -0.05067005753517151, -0.0328335165977478, -0.01499698031693697, 0.0028395585250109434, 0.02067609690129757, 0.038512635976076126, 0.056349173188209534, 0.07418571412563324, 0.09202224761247635, 0.10985878854990005, 0.12769532203674316, 0.14553186297416687, 0.16336840391159058]]}, "first_delta__stats": {"min": -0.025257762521505356, "max": 0.007424868643283844, "mean": -0.0016277383547276258, "variance": 1.8761253159027547e-05, "nobs": 1280, "histogram_bins": 35, "histogram": [[2, 0, 0, 0, 1, 0, 4, 1, 5, 3, 2, 3, 4, 14, 16, 13, 19, 12, 27, 37, 35, 39, 50, 64, 76, 110, 219, 203, 105, 91, 66, 35, 14, 6, 4], [-0.025257762521505356, -0.024323973804712296, -0.023390183225274086, -0.022456394508481026, -0.021522603929042816, -0.020588815212249756, -0.019655026495456696, -0.018721235916018486, -0.017787447199225426, -0.016853656619787216, -0.015919867902994156, -0.014986078254878521, -0.014052288606762886, -0.013118499889969826, -0.01218471024185419, -0.011250920593738556, -0.010317130945622921, -0.009383341297507286, -0.008449552580714226, -0.007515762932598591, -0.006581973284482956, -0.005648183636367321, -0.004714394453912973, -0.0037806048057973385, -0.0028468153905123472, -0.001913025975227356, -0.0009792365599423647, -4.5447050069924444e-05, 0.0008883423870429397, 0.0018221319187432528, 0.002755921334028244, 0.0036897107493132353, 0.0046235001645982265, 0.0055572898127138615, 0.006491078995168209, 0.007424868643283844]]}}, "shape": [10, 128]}, "fc2.bias": {"id": "fc2.bias", "data_group_type": "PARAM", "type": "Parameter", "value": {"tensor": [0.049091242253780365, 0.04079117625951767, -0.02354910969734192, 0.024460293352603912, 0.057110585272312164, 0.035862479358911514, -0.045585017651319504, 0.02290084958076477, -0.08049942553043365, 0.027940979227423668], "grad": [0.016276568174362183, -0.06918070465326309, -0.0012660175561904907, 0.02538716048002243, 0.004445668309926987, -0.010494260117411613, 0.016202624887228012, 0.008735571056604385, -0.012986828573048115, 0.022880233824253082], "first_delta": [-0.0017654187977313995, 0.0007766857743263245, -6.450340151786804e-06, -0.0008726697415113449, -0.0008700340986251831, 0.000468473881483078, -0.0016682855784893036, 0.0015318188816308975, -0.0014636144042015076, 0.00015126541256904602], "tensor__stats": {"min": -0.08049942553043365, "max": 0.057110585272312164, "mean": 0.010852405801415443, "variance": 0.0020511141046881676, "nobs": 10, "histogram_bins": 5, "histogram": [[1, 1, 1, 3, 4], [-0.08049942553043365, -0.05297742411494255, -0.025455420836806297, 0.002066581044346094, 0.02958858385682106, 0.057110585272312164]]}, "grad__stats": {"min": -0.06918070465326309, "max": 0.02538716048002243, "mean": 1.4901161415892261e-09, "variance": 0.0007619888056069613, "nobs": 10, "histogram_bins": 5, "histogram": [[1, 0, 1, 3, 5], [-0.06918070465326309, -0.05026713013648987, -0.03135355934500694, -0.012439985759556293, 0.0064735873602330685, 0.02538716048002243]]}, "first_delta__stats": {"min": -0.0017654187977313995, "max": 0.0015318188816308975, "mean": -0.00037182291271165013, "variance": 1.2633486221602652e-06, "nobs": 10, "histogram_bins": 5, "histogram": [[3, 2, 2, 2, 1], [-0.0017654187977313995, -0.0011059712851420045, -0.00044652371434494853, 0.00021292381279636174, 0.0008723713690415025, 0.0015318188816308975]]}}, "shape": [10]}, "input.1": {"id": "input.1", "data_group_type": "INPUT", "type": "Tensor", "value": {"tensor": "NOT SERIALIZED, Too large 7840", "tensor__stats": {"min": -0.4242129623889923, "max": 2.821486711502075, "mean": 0.0803137794137001, "variance": 1.1783275604248047, "nobs": 7840, "histogram_bins": 88, "histogram": [[6141, 26, 15, 17, 20, 11, 17, 10, 12, 10, 19, 7, 5, 10, 10, 16, 8, 12, 10, 4, 12, 15, 9, 14, 7, 11, 10, 7, 16, 4, 10, 9, 5, 23, 8, 9, 10, 7, 11, 6, 9, 13, 15, 7, 14, 4, 9, 7, 5, 6, 7, 6, 5, 7, 2, 9, 13, 8, 15, 4, 11, 17, 7, 7, 22, 11, 12, 11, 8, 10, 5, 7, 9, 20, 6, 12, 13, 15, 5, 17, 15, 14, 27, 23, 14, 18, 200, 556], [-0.4242129623889923, -0.387330025434494, -0.35044705867767334, -0.31356412172317505, -0.27668115496635437, -0.23979820311069489, -0.2029152512550354, -0.16603229939937592, -0.12914936244487762, -0.09226640313863754, -0.055383455008268356, -0.01850050315260887, 0.018382446840405464, 0.0552653968334198, 0.09214834868907928, 0.12903130054473877, 0.16591425240039825, 0.20279720425605774, 0.23968015611171722, 0.2765631079673767, 0.313446044921875, 0.3503290116786957, 0.38721194863319397, 0.42409491539001465, 0.46097785234451294, 0.4978608191013336, 0.5347437858581543, 0.5716267228126526, 0.6085096597671509, 0.6453925967216492, 0.6822755336761475, 0.7191585302352905, 0.7560414671897888, 0.7929244041442871, 0.8298073410987854, 0.8666903376579285, 0.9035732746124268, 0.940456211566925, 0.9773391485214233, 1.0142221450805664, 1.05110502243042, 1.087988018989563, 1.124871015548706, 1.1617538928985596, 1.1986368894577026, 1.2355197668075562, 1.2724027633666992, 1.3092857599258423, 1.3461686372756958, 1.3830516338348389, 1.419934630393982, 1.4568175077438354, 1.4937005043029785, 1.530583381652832, 1.567466378211975, 1.6043493747711182, 1.6412322521209717, 1.6781152486801147, 1.7149982452392578, 1.7518811225891113, 1.7887641191482544, 1.825646996498108, 1.862529993057251, 1.899412989616394, 1.9362958669662476, 1.9731788635253906, 2.010061740875244, 2.0469448566436768, 2.0838277339935303, 2.120710611343384, 2.1575934886932373, 2.19447660446167, 2.2313594818115234, 2.268242359161377, 2.3051254749298096, 2.342008352279663, 2.3788912296295166, 2.415774345397949, 2.4526572227478027, 2.4895401000976562, 2.526423215866089, 2.5633060932159424, 2.600188970565796, 2.6370718479156494, 2.673954963684082, 2.7108378410339355, 2.747720718383789, 2.7846038341522217, 2.821486711502075]]}}, "shape": [10, 1, 28, 28]}, "output.1": {"id": "output.1", "data_group_type": "OUTPUT", "type": "Tensor", "value": {"tensor": [[-6.5065155029296875, -11.563129425048828, -7.280771255493164, -9.39551830291748, -8.623771667480469, -6.578391075134277, -0.004391550086438656, -13.180657386779785, -8.082029342651367, -8.394257545471191], [-0.0008519833791069686, -17.674705505371094, -12.722424507141113, -10.421420097351074, -13.32007884979248, -8.4988431930542, -9.583426475524902, -7.610396862030029, -11.414685249328613, -10.169069290161133], [-7.329592227935791, -0.8054447174072266, -3.6760740280151367, -1.3014063835144043, -4.562363624572754, -2.849365472793579, -4.309959411621094, -3.44693660736084, -2.14591121673584, -3.7120611667633057], [-8.009442329406738, -0.16114766895771027, -3.944761276245117, -5.1357245445251465, -8.161042213439941, -7.627593994140625, -5.736424922943115, -7.807631969451904, -2.1445019245147705, -6.358896255493164], [-3.1451056003570557, -9.079562187194824, -9.588028907775879, -7.69550895690918, -3.771463394165039, -0.21364663541316986, -7.052849292755127, -3.0327842235565186, -3.644864797592163, -2.9862375259399414], [-2.133765697479248, -12.241559028625488, -0.3408135771751404, -5.956960678100586, -4.632874011993408, -6.872838973999023, -2.542715072631836, -5.965693473815918, -3.4453859329223633, -3.124642848968506], [-6.589950084686279, -4.606359481811523, -1.5216140747070312, -4.13781213760376, -3.399517774581909, -4.431456089019775, -2.774841785430908, -5.721719264984131, -0.5682292580604553, -2.5655980110168457], [-4.265332221984863, -10.910871505737305, -4.39956521987915, -0.04436471685767174, -10.707745552062988, -5.364192008972168, -6.243009567260742, -10.754522323608398, -4.579432487487793, -9.050569534301758], [-0.015912804752588272, -14.347482681274414, -9.763934135437012, -9.030105590820312, -10.35533618927002, -4.6732683181762695, -5.173334121704102, -12.096372604370117, -7.58135986328125, -9.819695472717285], [-9.943036079406738, -13.025006294250488, -11.43504810333252, -13.114570617675781, -0.03318079933524132, -7.588247299194336, -8.55586051940918, -7.485228061676025, -7.803808212280273, -3.476840019226074]], "tensor__stats": {"min": -17.674705505371094, "max": -0.0008519833791069686, "mean": -6.356733322143555, "variance": 15.031615257263184, "nobs": 100, "histogram_bins": 10, "histogram": [[1, 1, 5, 8, 12, 17, 12, 17, 15, 12], [-17.674705505371094, -15.907320022583008, -14.139934539794922, -12.372549057006836, -10.605164527893066, -8.83777904510498, -7.0703935623168945, -5.303008079528809, -3.5356225967407227, -1.7682373523712158, -0.0008519833791069686]]}}, "shape": [10, 10]}}, "graph": {"nodes": [{"data": {"id": "input.1", "label": "INPUT", "component_ids": ["input.1"]}}, {"data": {"id": 9, "label": "Conv", "component_ids": ["conv1.weight", "conv1.bias"]}}, {"data": {"id": 10, "label": "Relu", "component_ids": []}}, {"data": {"id": 11, "label": "Conv", "component_ids": ["conv2.weight", "conv2.bias"]}}, {"data": {"id": 12, "label": "Relu", "component_ids": []}}, {"data": {"id": 13, "label": "MaxPool", "component_ids": []}}, {"data": {"id": 14, "label": "Flatten", "component_ids": []}}, {"data": {"id": 15, "label": "Gemm", "component_ids": ["fc1.weight", "fc1.bias"]}}, {"data": {"id": 16, "label": "Relu", "component_ids": []}}, {"data": {"id": 17, "label": "Gemm", "component_ids": ["fc2.weight", "fc2.bias"]}}, {"data": {"id": 18, "label": "LogSoftmax", "component_ids": []}}, {"data": {"id": "output.1", "label": "OUTPUT", "component_ids": ["output.1"]}}], "edges": [{"data": {"id": "input.1_9", "source": "input.1", "target": 9}}, {"data": {"id": "9_10", "source": 9, "target": 10}}, {"data": {"id": "10_11", "source": 10, "target": 11}}, {"data": {"id": "11_12", "source": 11, "target": 12}}, {"data": {"id": "12_13", "source": 12, "target": 13}}, {"data": {"id": "13_14", "source": 13, "target": 14}}, {"data": {"id": "14_15", "source": 14, "target": 15}}, {"data": {"id": "15_16", "source": 15, "target": 16}}, {"data": {"id": "16_17", "source": 16, "target": 17}}, {"data": {"id": "17_18", "source": 17, "target": 18}}, {"data": {"id": "18_output.1", "source": "18", "target": "output.1"}}]}}