{"id": "0_1200", "meta": {"time": 1638574496.5107229, "refresh_model_graph": false}, "step_info": {"epoch": 0, "iter": 1200}, "additional_info": {"pred": {"type": "Tensor", "value": [[7], [4], [6], [5], [0], [6], [9], [7], [0], [8]]}, "loss": {"type": "Tensor", "value": 0.06042349338531494}, "class_label": {"type": "Tensor", "value": [7, 4, 6, 5, 0, 6, 9, 7, 0, 8]}, "test_acc": {"type": "float", "value": 90.21}}, "graph_id": [0, 0], "data": {"conv1.weight": {"id": "conv1.weight", "data_group_type": "PARAM", "type": "Parameter", "value": {"tensor": "NOT SERIALIZED, Too large 288", "grad": "NOT SERIALIZED, Too large 288", "first_delta": "NOT SERIALIZED, Too large 288", "tensor__stats": {"min": -0.3338976204395294, "max": 0.36895135045051575, "mean": 0.018090395256876945, "variance": 0.04048221558332443, "nobs": 288, "histogram_bins": 16, "histogram": [[24, 13, 24, 11, 14, 19, 12, 20, 16, 26, 15, 27, 23, 11, 19, 14], [-0.3338976204395294, -0.2899695634841919, -0.24604150652885437, -0.20211343467235565, -0.15818537771701813, -0.1142573207616806, -0.07032925635576248, -0.02640119567513466, 0.017526865005493164, 0.06145492568612099, 0.10538298636674881, 0.14931105077266693, 0.19323910772800446, 0.23716716468334198, 0.2810952365398407, 0.3250232934951782, 0.36895135045051575]]}, "grad__stats": {"min": -0.01650848053395748, "max": 0.0031972923316061497, "mean": -0.004352686461061239, "variance": 2.457702430547215e-05, "nobs": 288, "histogram_bins": 16, "histogram": [[5, 7, 9, 11, 9, 15, 16, 18, 22, 21, 26, 13, 28, 42, 38, 8], [-0.01650848053395748, -0.015276869758963585, -0.014045258983969688, -0.012813648208975792, -0.011582037433981895, -0.010350426658987999, -0.009118815883994102, -0.007887205109000206, -0.0066555943340063095, -0.005423983093351126, -0.004192372318357229, -0.0029607617761939764, -0.001729150884784758, -0.0004975401097908616, 0.0007340707234106958, 0.001965681556612253, 0.0031972923316061497]]}, "first_delta__stats": {"min": -0.010689325630664825, "max": 0.0589001402258873, "mean": 0.015595866367220879, "variance": 0.0002773750456981361, "nobs": 288, "histogram_bins": 16, "histogram": [[6, 48, 31, 21, 21, 24, 22, 25, 22, 17, 18, 10, 11, 4, 6, 2], [-0.010689325630664825, -0.006339984014630318, -0.00199064239859581, 0.002358699217438698, 0.006708040833473206, 0.011057382449507713, 0.015406724065542221, 0.01975606568157673, 0.024105407297611237, 0.028454748913645744, 0.03280409052968025, 0.03715343028306961, 0.04150277376174927, 0.045852117240428925, 0.05020145699381828, 0.05455079674720764, 0.0589001402258873]]}}, "shape": [32, 1, 3, 3]}, "conv1.bias": {"id": "conv1.bias", "data_group_type": "PARAM", "type": "Parameter", "value": {"tensor": [0.057115137577056885, 0.3466784954071045, -0.017463956028223038, -0.1463564783334732, -0.28217393159866333, 0.0009030786459334195, 0.1344006508588791, 0.028935033828020096, 0.09530134499073029, 0.128109410405159, 0.19722917675971985, 0.31145814061164856, 0.05947711318731308, -0.22829130291938782, 0.03939197212457657, -0.10728419572114944, 0.2003760039806366, 0.1281874179840088, 0.11746706813573837, 0.1596759855747223, -0.2472042292356491, -0.09209050983190536, 0.2238379418849945, -0.1527245193719864, 0.12050925940275192, 0.2672743797302246, 0.28224554657936096, -0.24351486563682556, 0.15992039442062378, -0.007681851740926504, 0.11443763226270676, 0.31675273180007935], "grad": [-0.004463139455765486, -0.010188493877649307, -0.0040107243694365025, -0.0052129728719592094, -0.0076903305016458035, 0.00013021052291151136, -0.0045967670157551765, -0.004526921082288027, -0.003428931115195155, -0.0033882081042975187, -0.003784317523241043, -0.008632810786366463, -0.0060327015817165375, -0.0026479598600417376, -0.0032515130005776882, -0.0009619760094210505, -0.0024349517188966274, -0.0011095209047198296, -0.004443540703505278, -0.0014872424071654677, -0.009272371418774128, -0.004034395795315504, -0.002086181426420808, -0.0005501580308191478, -0.003302405122667551, -0.009414328262209892, -0.007381901610642672, -2.126979779859539e-05, -0.0040895878337323666, -0.0021234930027276278, -0.004267051350325346, -0.007307182997465134], "first_delta": [0.021027028560638428, 0.019343644380569458, 0.005499051883816719, 0.02729080617427826, 0.034783244132995605, -0.0017458710353821516, 0.012141548097133636, 0.0201437845826149, 0.004730015993118286, 0.00848892331123352, 0.0087929368019104, 0.02329900860786438, 0.03351682424545288, 0.013467207551002502, 0.007559433579444885, 0.007736004889011383, 0.009357064962387085, 0.00822833925485611, 0.0020138248801231384, 0.0069708675146102905, 0.04124625027179718, 0.02358347177505493, 0.012105226516723633, 0.004975706338882446, 0.005610771477222443, 0.032656341791152954, 0.03356948494911194, 0.006371736526489258, 0.017407596111297607, 0.005750611890107393, 0.016922205686569214, 0.016108155250549316], "tensor__stats": {"min": -0.28217393159866333, "max": 0.3466784954071045, "mean": 0.0614030659198761, "variance": 0.030840013176202774, "nobs": 32, "histogram_bins": 5, "histogram": [[4, 4, 7, 11, 6], [-0.28217393159866333, -0.15640345215797424, -0.03063296154141426, 0.09513752162456512, 0.2209080159664154, 0.3466784954071045]]}, "grad__stats": {"min": -0.010188493877649307, "max": 0.00013021052291151136, "mean": -0.004250410944223404, "variance": 7.726860530965496e-06, "nobs": 32, "histogram_bins": 5, "histogram": [[4, 3, 10, 9, 6], [-0.010188493877649307, -0.008124752901494503, -0.006061011925339699, -0.003997271414846182, -0.0019335303222760558, 0.00013021052291151136]]}, "first_delta__stats": {"min": -0.0017458710353821516, "max": 0.04124625027179718, "mean": 0.015279727056622505, "variance": 0.00012279771908652037, "nobs": 32, "histogram_bins": 5, "histogram": [[8, 10, 8, 1, 5], [-0.0017458710353821516, 0.006852553226053715, 0.015450977720320225, 0.02404940128326416, 0.03264782577753067, 0.04124625027179718]]}}, "shape": [32]}, "conv2.weight": {"id": "conv2.weight", "data_group_type": "PARAM", "type": "Parameter", "value": {"tensor": "NOT SERIALIZED, Too large 18432", "grad": "NOT SERIALIZED, Too large 18432", "first_delta": "NOT SERIALIZED, Too large 18432", "tensor__stats": {"min": -0.06817416101694107, "max": 0.08595841377973557, "mean": 0.004376990720629692, "variance": 0.0012218366609886289, "nobs": 18432, "histogram_bins": 100, "histogram": [[1, 0, 8, 14, 26, 50, 99, 120, 150, 160, 183, 183, 227, 212, 216, 215, 212, 206, 244, 250, 244, 216, 236, 242, 248, 254, 238, 237, 228, 249, 219, 232, 216, 230, 250, 227, 221, 248, 267, 224, 248, 262, 242, 232, 229, 251, 243, 230, 236, 204, 221, 264, 223, 251, 236, 227, 261, 238, 249, 251, 239, 252, 248, 260, 217, 230, 252, 257, 235, 224, 234, 237, 258, 263, 225, 214, 230, 214, 249, 215, 218, 214, 189, 160, 118, 102, 72, 68, 58, 50, 33, 37, 22, 16, 12, 4, 2, 2, 0, 2], [-0.06817416101694107, -0.06663283705711365, -0.06509151309728622, -0.0635501816868782, -0.06200885772705078, -0.06046753376722336, -0.05892620608210564, -0.057384882122278214, -0.05584355443716049, -0.05430223047733307, -0.05276090279221535, -0.051219578832387924, -0.0496782511472702, -0.04813692718744278, -0.04659559950232506, -0.045054275542497635, -0.04351294785737991, -0.04197162389755249, -0.04043029621243477, -0.038888972252607346, -0.037347644567489624, -0.0358063206076622, -0.03426499292254448, -0.032723668962717056, -0.031182343140244484, -0.02964101731777191, -0.02809969149529934, -0.026558365672826767, -0.025017039850354195, -0.023475714027881622, -0.02193438820540905, -0.020393062382936478, -0.018851736560463905, -0.017310410737991333, -0.01576908491551876, -0.014227760024368763, -0.01268643420189619, -0.011145108379423618, -0.009603782556951046, -0.008062456734478474, -0.006521130912005901, -0.004979805555194616, -0.0034384794998914003, -0.0018971539102494717, -0.0003558281168807298, 0.0011854976182803512, 0.0027268233243376017, 0.00426814891397953, 0.005809474736452103, 0.007350800558924675, 0.008892126381397247, 0.01043345220386982, 0.011974778026342392, 0.013516103848814964, 0.015057429671287537, 0.01659875549376011, 0.01814008131623268, 0.019681407138705254, 0.021222732961177826, 0.022764058783650398, 0.02430538460612297, 0.025846710428595543, 0.027388036251068115, 0.02892936021089554, 0.03047068603336811, 0.03201201185584068, 0.033553339540958405, 0.03509466350078583, 0.03663599118590355, 0.03817731514573097, 0.039718642830848694, 0.04125996679067612, 0.04280129447579384, 0.04434261843562126, 0.04588394612073898, 0.047425270080566406, 0.04896659404039383, 0.05050792172551155, 0.052049245685338974, 0.053590573370456696, 0.05513189733028412, 0.05667322501540184, 0.05821454897522926, 0.059755876660346985, 0.06129720062017441, 0.06283852458000183, 0.06437985599040985, 0.06592117995023727, 0.0674625039100647, 0.06900382786989212, 0.07054515928030014, 0.07208648324012756, 0.07362780719995499, 0.07516913115978241, 0.07671046257019043, 0.07825178653001785, 0.07979311048984528, 0.0813344344496727, 0.08287576586008072, 0.08441708981990814, 0.08595841377973557]]}, "grad__stats": {"min": -0.00843493640422821, "max": 0.004707354120910168, "mean": -0.0006865959148854017, "variance": 1.6003878045012243e-06, "nobs": 18432, "histogram_bins": 100, "histogram": [[1, 0, 0, 3, 0, 2, 0, 1, 1, 3, 2, 6, 4, 2, 3, 8, 9, 7, 9, 9, 14, 16, 9, 18, 16, 17, 21, 32, 26, 28, 44, 33, 46, 55, 58, 76, 68, 82, 85, 99, 104, 132, 132, 155, 168, 176, 223, 216, 249, 296, 299, 327, 343, 436, 442, 558, 576, 621, 754, 820, 942, 1102, 1375, 1673, 1565, 947, 638, 481, 355, 290, 218, 175, 159, 102, 79, 83, 58, 58, 46, 33, 26, 16, 16, 8, 9, 4, 5, 8, 3, 3, 3, 1, 2, 0, 2, 1, 1, 0, 4, 1], [-0.00843493640422821, -0.008303513750433922, -0.008172090165317059, -0.00804066751152277, -0.007909244857728481, -0.007777821738272905, -0.007646399084478617, -0.007514975965023041, -0.007383553311228752, -0.007252130191773176, -0.0071207075379788876, -0.006989284418523312, -0.006857861764729023, -0.006726438645273447, -0.006595015525817871, -0.0064635928720235825, -0.0063321697525680065, -0.006200747098773718, -0.006069323979318142, -0.005937901325523853, -0.005806478206068277, -0.005675055552273989, -0.005543632432818413, -0.005412209779024124, -0.005280786659568548, -0.005149363540112972, -0.005017940886318684, -0.004886517766863108, -0.004755095113068819, -0.004623671993613243, -0.0044922493398189545, -0.0043608262203633785, -0.00422940356656909, -0.004097980447113514, -0.003966557793319225, -0.0038351346738636494, -0.003703711787238717, -0.003572288900613785, -0.0034408660139888525, -0.00330944312736392, -0.003178020240738988, -0.0030465973541140556, -0.0029151744674891233, -0.002783751580864191, -0.002652328461408615, -0.002520905574783683, -0.0023894826881587505, -0.0022580598015338182, -0.002126636914908886, -0.0019952140282839537, -0.0018637911416590214, -0.001732368255034089, -0.0016009453684091568, -0.0014695224817842245, -0.0013380994787439704, -0.001206676592119038, -0.0010752537054941058, -0.0009438308188691735, -0.0008124078740365803, -0.000680984987411648, -0.0005495621007867157, -0.000418139185057953, -0.00028671626932919025, -0.00015529336815234274, -2.3870468794484623e-05, 0.0001075524342013523, 0.00023897533537819982, 0.00037039825110696256, 0.0005018211668357253, 0.0006332440534606576, 0.0007646669400855899, 0.0008960898849181831, 0.0010275128297507763, 0.0011589357163757086, 0.0012903586030006409, 0.0014217814896255732, 0.0015532043762505054, 0.0016846272628754377, 0.00181605014950037, 0.0019474731525406241, 0.0020788959227502346, 0.002210318809375167, 0.002341741928830743, 0.002473164815455675, 0.0026045877020806074, 0.0027360105887055397, 0.002867433475330472, 0.0029988563619554043, 0.0031302792485803366, 0.003261702135205269, 0.003393125021830201, 0.0035245479084551334, 0.0036559707950800657, 0.003787393681704998, 0.003918816801160574, 0.004050239454954863, 0.0041816625744104385, 0.004313085228204727, 0.004444508347660303, 0.004575931001454592, 0.004707354120910168]]}, "first_delta__stats": {"min": -0.01097780279815197, "max": 0.032726507633924484, "mean": 0.0042784675024449825, "variance": 3.9021859265631065e-05, "nobs": 18432, "histogram_bins": 100, "histogram": [[2, 1, 2, 3, 4, 14, 12, 28, 40, 74, 80, 108, 131, 120, 156, 197, 208, 269, 284, 332, 415, 459, 550, 591, 738, 785, 741, 651, 583, 560, 531, 500, 581, 463, 475, 456, 460, 427, 392, 355, 343, 322, 294, 258, 265, 271, 278, 271, 221, 217, 206, 200, 204, 171, 174, 162, 161, 166, 153, 117, 125, 116, 114, 104, 95, 75, 72, 64, 40, 42, 30, 48, 41, 32, 15, 32, 26, 23, 10, 13, 6, 13, 10, 11, 6, 5, 4, 2, 8, 6, 4, 2, 1, 2, 0, 1, 0, 1, 0, 1], [-0.01097780279815197, -0.01054076012223959, -0.010103716515004635, -0.009666673839092255, -0.0092296302318573, -0.00879258755594492, -0.008355543948709965, -0.007918501272797585, -0.007481458131223917, -0.0070444149896502495, -0.006607371848076582, -0.006170328706502914, -0.005733285564929247, -0.005296242423355579, -0.004859199281781912, -0.004422156140208244, -0.003985112998634577, -0.003548070089891553, -0.0031110269483178854, -0.002673983806744218, -0.0022369406651705503, -0.0017998976400122046, -0.0013628544984385371, -0.0009258114150725305, -0.000488768273498863, -5.172519013285637e-05, 0.0003853179223369807, 0.0008223610348068178, 0.0012594041181728244, 0.001696447259746492, 0.0021334902849048376, 0.002570533426478505, 0.0030075765680521727, 0.00344461970962584, 0.0038816628511995077, 0.004318705759942532, 0.004755748901516199, 0.005192792043089867, 0.005629835184663534, 0.006066878326237202, 0.006503921467810869, 0.006940964609384537, 0.007378007750958204, 0.007815050892531872, 0.008252093568444252, 0.008689137175679207, 0.009126179851591587, 0.009563223458826542, 0.010000266134738922, 0.010437309741973877, 0.010874352417886257, 0.011311395093798637, 0.011748438701033592, 0.012185481376945972, 0.012622524984180927, 0.013059567660093307, 0.013496611267328262, 0.013933653943240643, 0.014370697550475597, 0.014807740226387978, 0.015244783833622932, 0.015681827440857887, 0.016118869185447693, 0.016555912792682648, 0.016992956399917603, 0.017429998144507408, 0.017867041751742363, 0.018304085358977318, 0.018741128966212273, 0.019178170710802078, 0.019615214318037033, 0.020052257925271988, 0.020489301532506943, 0.02092634327709675, 0.021363386884331703, 0.021800430491566658, 0.022237472236156464, 0.02267451584339142, 0.023111559450626373, 0.023548603057861328, 0.023985644802451134, 0.02442268840968609, 0.024859732016921043, 0.025296775624155998, 0.025733817368745804, 0.02617086097598076, 0.026607904583215714, 0.02704494819045067, 0.027481989935040474, 0.02791903354227543, 0.028356077149510384, 0.02879311889410019, 0.029230162501335144, 0.0296672061085701, 0.030104249715805054, 0.03054129146039486, 0.030978335067629814, 0.03141537681221962, 0.031852420419454575, 0.03228946402668953, 0.032726507633924484]]}}, "shape": [64, 32, 3, 3]}, "conv2.bias": {"id": "conv2.bias", "data_group_type": "PARAM", "type": "Parameter", "value": {"tensor": [-0.03471732139587402, 0.05968555435538292, -0.0045133004896342754, 0.004606097936630249, -0.004241542425006628, -0.006611418444663286, 0.03163231909275055, 0.010998742654919624, -0.021237872540950775, 0.00987206120043993, 0.005130304489284754, -0.034806348383426666, 0.027645299211144447, 0.043042682111263275, -0.020737934857606888, -0.04433813318610191, 0.003049690742045641, -0.046792492270469666, 0.05897260457277298, -0.04450910910964012, 0.05038944259285927, -0.02573111094534397, -0.0013474652078002691, -0.0007858288590796292, 0.04535515606403351, 0.037605371326208115, -0.04996794834733009, -0.03644499182701111, 0.05937986820936203, 0.07045125216245651, 0.00938445795327425, -0.02250242605805397, 0.00870317593216896, 0.05358198285102844, -0.043515149503946304, -0.034246981143951416, 0.005666433367878199, 0.030790429562330246, 0.036052823066711426, -0.018731677904725075, -0.01967269368469715, 0.058922283351421356, -0.039408937096595764, -0.02124655805528164, 0.046692896634340286, 0.03967560455203056, -0.0251618679612875, 0.011385232210159302, -0.027278389781713486, -0.010169110260903835, 0.04771957919001579, -0.040092833340168, 0.01988203451037407, -0.03358600288629532, 0.01002341229468584, 0.05482401326298714, 0.061574120074510574, 0.054954275488853455, -0.03383048623800278, -0.014419497922062874, -0.006672505754977465, 0.04322349652647972, 0.02462209388613701, 0.05212486535310745], "grad": [-0.0021824929863214493, -0.001824956969358027, -0.0011808478739112616, -0.00024346237478312105, -0.000489365600515157, -0.001802511396817863, -0.0018709026044234633, -0.002542657544836402, -0.003711703233420849, -0.002436657901853323, -0.00032832822762429714, -0.0018362390110269189, -0.0012692018644884229, -0.0022132934536784887, -0.00034927853266708553, 0.0027870095800608397, -0.0016455380246043205, -0.0005983708542771637, -0.0011332979192957282, 0.0008362201042473316, -0.0009583453647792339, -0.0028390511870384216, 0.0008034684578888118, 0.0021939037833362818, -0.005868655163794756, -0.0031928156968206167, 0.00024057948030531406, -0.0007824854692444205, -0.0021138277370482683, -0.0010879330802708864, -3.882951568812132e-05, -0.003720048815011978, -0.0009026695624925196, -0.00022803757747169584, -0.0014954613288864493, -0.001275514136068523, -0.00226547266356647, -0.001803298364393413, -0.0015922102611511946, 0.0022447758819907904, -0.0008497806848026812, -0.004228133242577314, -0.0027015029918402433, -0.0008178612333722413, -0.00011981106217717752, -0.002480573719367385, -0.0016383406473323703, 0.001111071789637208, 0.002061349805444479, 5.890110696782358e-05, -0.003982425667345524, -0.0007563895196653903, -0.002166991587728262, 0.0008621938177384436, 0.0004247798933647573, -0.0003540489706210792, -0.00036006810842081904, -0.001873059431090951, -0.0005920103867538273, -0.003996353130787611, -0.0025921878404915333, -0.004141990095376968, -0.001815925119444728, -0.001812209957279265], "first_delta": [0.007097523659467697, 0.00397200882434845, 0.0013605793938040733, 0.002146428916603327, 0.00337410531938076, 0.005161938723176718, 0.015577966347336769, 0.0032285144552588463, 0.007069448009133339, 0.007401806302368641, 0.0030113926623016596, 0.0057366229593753815, 0.002880323678255081, 0.008358150720596313, 0.0016962774097919464, 0.009813845157623291, 0.0026659928262233734, 0.011567983776330948, 0.0025538988411426544, 0.005940977483987808, 0.0078265480697155, 0.002980446442961693, 0.0016879227478057146, 0.004321210086345673, 0.006170246750116348, 0.004753462970256805, 0.00356220081448555, 0.007003743201494217, 0.0045639947056770325, 0.014287170022726059, 0.010883810929954052, 0.004972809925675392, 0.0045070708729326725, 0.0032606609165668488, 0.007303453981876373, 0.008099399507045746, 0.003254783572629094, 0.006611555814743042, 0.009698687121272087, 0.0049654655158519745, 0.004620764404535294, 0.0025200918316841125, 0.01272917166352272, 0.013637406751513481, 0.004098884761333466, 0.008461114019155502, 0.016774943098425865, 0.00482614990323782, 0.004108227789402008, 0.008937236852943897, 0.005165409296751022, 0.010676782578229904, 0.002130899578332901, 0.0011862851679325104, 0.0059869736433029175, 0.00613943487405777, 0.006342023611068726, 0.00987996906042099, 0.005828637629747391, 0.005024431273341179, 0.008885420858860016, 0.006952662020921707, 0.0019392147660255432, 0.015858344733715057], "tensor__stats": {"min": -0.04996794834733009, "max": 0.07045125216245651, "mean": 0.006567214149981737, "variance": 0.001254900125786662, "nobs": 64, "histogram_bins": 8, "histogram": [[8, 12, 6, 12, 4, 6, 10, 6], [-0.04996794834733009, -0.03491554781794548, -0.019863147288560867, -0.004810748156160116, 0.01024165190756321, 0.025294052436947823, 0.040346451103687286, 0.0553988516330719, 0.07045125216245651]]}, "grad__stats": {"min": -0.005868655163794756, "max": 0.0027870095800608397, "mean": -0.0012731119059026241, "variance": 2.783066975098336e-06, "nobs": 64, "histogram_bins": 8, "histogram": [[1, 6, 3, 20, 15, 11, 4, 4], [-0.005868655163794756, -0.004786697216331959, -0.003704739036038518, -0.002622780855745077, -0.0015408227918669581, -0.0004588646988850087, 0.0006230933940969408, 0.0017050515161827207, 0.0027870095800608397]]}, "first_delta__stats": {"min": 0.0011862851679325104, "max": 0.016774943098425865, "mean": 0.006313139107078314, "variance": 1.4130423551250715e-05, "nobs": 64, "histogram_bins": 8, "histogram": [[13, 17, 12, 10, 5, 2, 2, 3], [0.0011862851679325104, 0.0031348674092441797, 0.005083449650555849, 0.007032032124698162, 0.008980614133179188, 0.010929196141660213, 0.012877779081463814, 0.01482636108994484, 0.016774943098425865]]}}, "shape": [64]}, "fc1.weight": {"id": "fc1.weight", "data_group_type": "PARAM", "type": "Parameter", "value": {"tensor": "NOT SERIALIZED, Too large 1179648", "grad": "NOT SERIALIZED, Too large 1179648", "first_delta": "NOT SERIALIZED, Too large 1179648", "tensor__stats": {"min": -0.017668260261416435, "max": 0.018586602061986923, "mean": 0.00024259423662442714, "variance": 3.780940460273996e-05, "nobs": 1179648, "histogram_bins": 100, "histogram": [[1, 1, 1, 8, 4, 9, 20, 33, 61, 107, 144, 223, 325, 523, 752, 1123, 1668, 2534, 3806, 6528, 11513, 13991, 15749, 16992, 18132, 18583, 19370, 19616, 20008, 20220, 20126, 20297, 20528, 20548, 20615, 20738, 20677, 20397, 20523, 20653, 20623, 20480, 20598, 20812, 20321, 20490, 20355, 20441, 20753, 20344, 20673, 20424, 20612, 20270, 20652, 20230, 20383, 20594, 20449, 20581, 20597, 20443, 20888, 20610, 20405, 20323, 20326, 20468, 20384, 20160, 20096, 20055, 19485, 18854, 18349, 17202, 15878, 11107, 7468, 5596, 4031, 2926, 2022, 1437, 1046, 771, 528, 334, 233, 149, 104, 50, 40, 23, 13, 4, 4, 3, 2, 2], [-0.017668260261416435, -0.017305711284279823, -0.01694316230714321, -0.01658061519265175, -0.016218066215515137, -0.015855517238378525, -0.015492968261241913, -0.015130420215427876, -0.014767871238291264, -0.014405322261154652, -0.014042774215340614, -0.013680225238204002, -0.013317677192389965, -0.012955128215253353, -0.012592579238116741, -0.012230031192302704, -0.011867482215166092, -0.01150493323802948, -0.011142385192215443, -0.01077983621507883, -0.010417288169264793, -0.010054739192128181, -0.00969219021499157, -0.009329642169177532, -0.00896709319204092, -0.008604545146226883, -0.008241996169090271, -0.007879447191953659, -0.007516898680478334, -0.00715435016900301, -0.006791801657527685, -0.0064292531460523605, -0.006066704168915749, -0.005704155657440424, -0.005341607145965099, -0.004979058634489775, -0.004616509657353163, -0.004253961145877838, -0.0038914126344025135, -0.0035288638900965452, -0.0031663153786212206, -0.0028037666343152523, -0.0024412181228399277, -0.0020786693785339594, -0.0017161208670586348, -0.0013535722391679883, -0.0009910236112773418, -0.0006284749833866954, -0.00026592635549604893, 9.662227967055514e-05, 0.000459170900285244, 0.0008217195281758904, 0.001184268156066537, 0.0015468167839571834, 0.0019093654118478298, 0.0022719139233231544, 0.0026344626676291227, 0.0029970111791044474, 0.0033595599234104156, 0.0037221084348857403, 0.004084656946361065, 0.004447205923497677, 0.0048097544349730015, 0.005172302946448326, 0.005534851457923651, 0.005897400435060263, 0.006259948946535587, 0.006622497458010912, 0.006985045969486237, 0.0073475949466228485, 0.007710143458098173, 0.008072691969573498, 0.00843524094671011, 0.008797788992524147, 0.009160337969660759, 0.009522886946797371, 0.009885434992611408, 0.01024798396974802, 0.010610532015562057, 0.01097308099269867, 0.011335629969835281, 0.011698178015649319, 0.01206072699278593, 0.012423275038599968, 0.01278582401573658, 0.013148372992873192, 0.01351092103868723, 0.013873470015823841, 0.014236018992960453, 0.01459856703877449, 0.014961116015911102, 0.01532366406172514, 0.015686213970184326, 0.01604876108467579, 0.0164113100618124, 0.016773859038949013, 0.017136408016085625, 0.017498956993222237, 0.0178615041077137, 0.01822405308485031, 0.018586602061986923]]}, "grad__stats": {"min": -0.020607424899935722, "max": 0.01755218394100666, "mean": -7.145074778236449e-05, "variance": 3.193741576978937e-06, "nobs": 1179648, "histogram_bins": 100, "histogram": [[1, 0, 1, 0, 2, 4, 1, 4, 13, 7, 14, 23, 37, 45, 31, 58, 65, 76, 77, 108, 131, 139, 146, 202, 236, 277, 334, 416, 488, 568, 675, 830, 917, 1034, 1291, 1514, 1795, 2171, 2444, 2766, 3344, 3860, 4640, 5429, 6495, 7492, 9208, 11479, 14227, 18313, 25709, 40039, 73047, 242932, 488076, 67873, 32293, 20486, 14961, 11543, 9081, 7445, 6254, 5300, 4514, 3857, 3229, 3026, 2510, 2137, 1857, 1551, 1364, 1198, 1052, 805, 750, 595, 473, 401, 379, 294, 263, 242, 170, 126, 83, 84, 58, 48, 28, 16, 28, 10, 9, 9, 8, 2, 3, 2], [-0.020607424899935722, -0.020225828513503075, -0.019844232127070427, -0.01946263574063778, -0.01908104121685028, -0.018699444830417633, -0.018317848443984985, -0.017936252057552338, -0.01755465567111969, -0.017173059284687042, -0.016791464760899544, -0.016409868374466896, -0.01602827198803425, -0.0156466756016016, -0.015265079215168953, -0.01488348376005888, -0.014501887373626232, -0.014120290987193584, -0.013738695532083511, -0.013357099145650864, -0.012975502759218216, -0.012593907304108143, -0.012212310917675495, -0.011830714531242847, -0.011449119076132774, -0.011067522689700127, -0.010685926303267479, -0.010304330848157406, -0.009922734461724758, -0.00954113807529211, -0.009159542620182037, -0.00877794623374939, -0.008396349847316742, -0.008014754392206669, -0.007633158005774021, -0.0072515616193413734, -0.006869965698570013, -0.006488369777798653, -0.006106773391366005, -0.0057251774705946445, -0.005343581549823284, -0.0049619851633906364, -0.004580389242619276, -0.004198793321847916, -0.003817196935415268, -0.0034356010146439075, -0.0030540048610419035, -0.0026724087074398994, -0.0022908125538378954, -0.0019092165166512132, -0.001527620479464531, -0.0011460244422778487, -0.0007644282886758447, -0.000382832222385332, -1.2361258541204734e-06, 0.0003803599684033543, 0.000761956034693867, 0.00114355213008821, 0.0015251482836902142, 0.0019067443208768964, 0.0022883403580635786, 0.0026699365116655827, 0.0030515326652675867, 0.003433128586038947, 0.003814724739640951, 0.0041963206604123116, 0.004577917046844959, 0.00495951296761632, 0.00534110888838768, 0.005722705274820328, 0.006104301195591688, 0.006485897582024336, 0.006867493502795696, 0.007249089423567057, 0.007630685809999704, 0.008012281730771065, 0.008393878117203712, 0.008775473572313786, 0.009157069958746433, 0.009538666345179081, 0.009920261800289154, 0.010301858186721802, 0.01068345457315445, 0.011065050028264523, 0.01144664641469717, 0.011828242801129818, 0.012209838256239891, 0.012591434642672539, 0.012973031029105186, 0.013354627415537834, 0.013736222870647907, 0.014117819257080555, 0.014499415643513203, 0.014881011098623276, 0.015262607485055923, 0.01564420387148857, 0.01602580025792122, 0.016407394781708717, 0.016788991168141365, 0.017170587554574013, 0.01755218394100666]]}, "first_delta__stats": {"min": -0.010627523064613342, "max": 0.010162056423723698, "mean": 0.0002447281440254301, "variance": 1.634117779758526e-06, "nobs": 1179648, "histogram_bins": 100, "histogram": [[1, 1, 1, 1, 0, 1, 0, 0, 0, 1, 2, 3, 6, 6, 10, 12, 19, 20, 20, 32, 25, 42, 72, 104, 154, 216, 257, 373, 466, 625, 808, 1015, 1303, 1599, 2040, 2510, 3136, 4079, 5085, 6338, 8361, 10292, 12653, 15828, 19582, 24419, 30879, 38958, 51292, 78777, 180599, 169038, 83299, 69336, 59486, 50664, 42374, 35659, 29537, 24610, 20338, 16863, 14025, 11438, 9359, 7908, 6484, 5321, 4432, 3544, 2897, 2346, 1824, 1447, 1234, 977, 752, 575, 433, 344, 268, 224, 150, 146, 105, 48, 46, 35, 18, 16, 6, 7, 3, 2, 3, 1, 0, 0, 1, 2], [-0.010627523064613342, -0.010419627651572227, -0.010211731307208538, -0.010003835894167423, -0.009795939549803734, -0.009588044136762619, -0.009380148723721504, -0.009172252379357815, -0.0089643569663167, -0.00875646062195301, -0.008548565208911896, -0.008340668864548206, -0.008132773451507092, -0.007924878038465977, -0.007716982159763575, -0.0075090862810611725, -0.00730119040235877, -0.007093294523656368, -0.006885398644953966, -0.006677502766251564, -0.006469607353210449, -0.006261711474508047, -0.006053815595805645, -0.005845919717103243, -0.005638023838400841, -0.005430128425359726, -0.005222232546657324, -0.005014336667954922, -0.00480644078925252, -0.0045985449105501175, -0.004390649031847715, -0.004182753618806601, -0.0039748577401041985, -0.0037669618614017963, -0.0035590659826993942, -0.0033511703368276358, -0.0031432744581252337, -0.0029353785794228315, -0.002727482933551073, -0.002519587054848671, -0.002311691176146269, -0.0021037955302745104, -0.0018958996515721083, -0.001688003889285028, -0.0014801081269979477, -0.0012722122482955456, -0.0010643164860084653, -0.000856420723721385, -0.0006485249032266438, -0.00044062911183573306, -0.0002327333204448223, -2.483752541593276e-05, 0.00018305826233699918, 0.0003909540537279099, 0.0005988498451188207, 0.0008067456656135619, 0.001014641486108303, 0.0012225372483953834, 0.0014304330106824636, 0.0016383288893848658, 0.001846224651671946, 0.0020541204139590263, 0.0022620162926614285, 0.002469911938533187, 0.002677807817235589, 0.002885703695937991, 0.0030935993418097496, 0.0033014952205121517, 0.003509391099214554, 0.0037172867450863123, 0.003925182390958071, 0.004133078269660473, 0.004340974148362875, 0.004548870027065277, 0.004756765905767679, 0.004964661784470081, 0.005172557197511196, 0.005380453076213598, 0.005588348954916, 0.0057962448336184025, 0.006004140712320805, 0.006212036125361919, 0.0064199320040643215, 0.006627827882766724, 0.006835723761469126, 0.007043619640171528, 0.00725151551887393, 0.007459410931915045, 0.007667306810617447, 0.007875202223658562, 0.008083098568022251, 0.008290993981063366, 0.008498890325427055, 0.00870678573846817, 0.00891468208283186, 0.009122577495872974, 0.00933047290891409, 0.009538369253277779, 0.009746264666318893, 0.009954161010682583, 0.010162056423723698]]}}, "shape": [128, 9216]}, "fc1.bias": {"id": "fc1.bias", "data_group_type": "PARAM", "type": "Parameter", "value": {"tensor": [-0.005502518732100725, 0.01045189332216978, -0.0027524030301719904, -0.0019971802830696106, -0.00011709166574291885, 0.004686492029577494, 0.00018169285613112152, -0.00545480428263545, 0.0008621590095572174, 0.0010963210370391607, 0.005932761821895838, 0.0040961201302707195, 0.009599506855010986, 0.007695167791098356, -0.001189551898278296, -0.004106595180928707, 0.007982036098837852, 0.00839291326701641, -0.005864980164915323, -0.0026755237486213446, -0.009738408960402012, 0.0029561782721430063, 0.0025629044976085424, -0.001532333786599338, 0.003410756355151534, -0.0015887325862422585, -0.00518065644428134, -0.009244522079825401, 0.007822494022548199, 0.000770081183873117, -0.009222513064742088, 0.012067937292158604, 2.466323712724261e-05, -0.00427717762067914, 0.0023008445277810097, -0.00996335968375206, 1.4091821867623366e-05, -0.0011752286227419972, -0.005107446573674679, 0.010950534604489803, 0.0017587841721251607, -0.005675250198692083, -0.007598255295306444, 0.008741714060306549, -0.004704722203314304, -0.0036266471724957228, 0.007771709468215704, 0.010396987199783325, 0.004485613200813532, -0.0009793114149942994, 0.003966120537370443, 0.0018397420644760132, 0.008863667026162148, -0.007288370281457901, 0.001911297906190157, -0.0004591653705574572, -0.008840769529342651, 0.00845045130699873, 0.0009157160529866815, 0.0004294157261028886, 0.00024862674763426185, 0.001332507818005979, -0.005043505225330591, 0.004605712369084358, 0.0062648821622133255, -0.0086703822016716, 0.008089580573141575, 0.010235321708023548, -0.005457197781652212, 0.008158180862665176, 0.006560632027685642, 0.0072220079600811005, 0.0029417912010103464, -0.008624750189483166, 0.00650580832734704, 0.007707660086452961, -0.0006382379215210676, -0.007469720207154751, -0.00016256461094599217, -0.007490640506148338, 0.0031151094008237123, -0.0038253834936767817, 0.005054489243775606, 1.6994761608657427e-05, -0.007555986288934946, -0.006159886717796326, 0.009612197056412697, 0.0018648585537448525, 0.002720433520153165, 0.00508597819134593, 0.0021955252159386873, 0.003415643936023116, -0.00648059556260705, 0.007348779588937759, -0.0035462751984596252, 0.0021030523348599672, -0.0014436783967539668, -0.0098982909694314, -0.0013429401442408562, -0.003834869246929884, -0.0026754147838801146, 0.006557054817676544, -0.005961284972727299, -0.0016460141632705927, -0.0007067929836921394, -0.0005765754031017423, -0.0005232808762229979, -0.002266195835545659, -0.0031264391727745533, -0.00571397366002202, 0.006995238829404116, 0.004804900847375393, -0.008186140097677708, -0.010021854192018509, -0.0028292371425777674, 0.010296845808625221, -0.003390755271539092, -0.0024629668332636356, -0.010251843370497227, 0.004435126669704914, 0.005634229630231857, 0.00440202746540308, -0.0025083080399781466, -0.007631991524249315, -0.006147360894829035, 0.011414890177547932, -0.0027501729782670736, -0.0030727102421224117], "grad": [0.001082121510989964, -0.0009375992231070995, 0.0017736160662025213, 0.0010095417965203524, -1.6725563909858465e-05, -0.0004563895345199853, -0.0006538111483678222, -0.0009067172650247812, 0.001801784965209663, 0.0, -0.0006854493985883892, -0.0004374849086161703, 0.0, 0.0027521997690200806, -0.002652579452842474, -0.0012388010509312153, 0.00020623359887395054, -0.003456589998677373, -0.0021963671315461397, -0.0006240136572159827, 0.0004161109682172537, 0.0, -0.0005761628854088485, -0.0035246845800429583, -0.0002722294593695551, 0.0022477845195680857, -0.0026723446790128946, 0.00016929031698964536, 0.00019004891510121524, 0.0016352294478565454, -0.0002700386685319245, -0.002985208062455058, 0.0016260682605206966, 0.0005357215413823724, 0.002095726551488042, 0.0, -0.0011942124692723155, 0.0015409697080031037, 0.0018146681832149625, -0.0016506724059581757, 5.125899406266399e-05, -0.0012316423235461116, -0.0007216429221443832, -0.002959464443847537, -0.0004728857020381838, -0.0025042749475687742, 0.0005378203350119293, 0.0005909313331358135, -0.0017200678121298552, -0.001261636265553534, 0.0, -0.002701359800994396, -0.0010600207606330514, -0.0005854394403286278, -0.00016220248653553426, 0.0003492726245895028, 0.0005840148078277707, 0.0, -0.00047138126683421433, -0.0007902475772425532, 0.0013635914074257016, 0.0009647110709920526, -0.00017721671611070633, 0.0021120505407452583, 0.0, 0.0025928376708179712, 0.001905063632875681, 0.0002469383180141449, 0.0, -0.0022426361683756113, 0.001099109766073525, -2.6382494979770854e-06, 8.037140651140362e-05, 0.0009882444282993674, 0.0010019406909123063, 0.0008432038594037294, 0.0006242786766961217, -0.0003424712922424078, 9.308443259214982e-05, -0.0037379234563559294, 0.002058974700048566, -0.0006150956614874303, 0.0012619621120393276, 0.0035860089119523764, -0.0019333106465637684, 0.0007695648237131536, -0.0007366933859884739, 0.00017881429812405258, 0.0, 0.00024655708693899214, 0.001563563710078597, 0.0006925789639353752, 0.0, -0.001230542198754847, 0.0, -0.0007497924962081015, -0.002056164899840951, 0.0, -0.00015626740059815347, -0.0009103071060962975, 0.0024659154005348682, -0.003315952606499195, 0.0, -0.0014642736641690135, 0.0, 0.000506841519381851, 0.0003568315878510475, 0.002392838941887021, 0.0, 0.0006543619674630463, -0.0007317725103348494, 0.001370438258163631, 0.0, 4.923398228129372e-05, 0.0, -0.0019140454242005944, 0.0005932600470259786, -0.0019353515235707164, -0.0009464192553423345, -0.00013151275925338268, 0.0015939043369144201, 0.001929562189616263, -0.0006895968108437955, -0.001629637205041945, -0.002757077105343342, -0.0003463523753453046, 0.00019238459935877472, -0.0010484129888936877], "first_delta": [-7.371138781309128e-05, 0.002171546220779419, 0.000745292054489255, -0.0002776893088594079, 2.8419424779713154e-05, 0.0007302695885300636, -0.0005196526180952787, -0.0010025184601545334, 0.0029531808104366064, -0.0001992753241211176, -0.0006214953027665615, -5.218666046857834e-06, -0.0004967935383319855, 0.0006136777810752392, 0.0016352153616026044, 0.0008113579824566841, 0.0010761348530650139, 0.000377800315618515, 0.00023508351296186447, 0.0024743846151977777, 0.0002650562673807144, -0.00039770943112671375, 0.00040203239768743515, 0.002772209234535694, -0.0009071978274732828, 0.0023316340520977974, 0.002508979756385088, -0.0012631546705961227, 0.0008787154220044613, -0.0005678171291947365, 0.0009028594940900803, 0.0018078293651342392, -0.0005429419106803834, -0.0008689579553902149, -0.00041782157495617867, -0.00039555225521326065, 0.0012671466683968902, 0.002213340252637863, 0.001096290536224842, 0.00118187814950943, 0.0011754247825592756, 0.0016515948809683323, 0.0014051753096282482, 0.0012492882087826729, 0.0005732690915465355, 0.0015135023277252913, 0.00015714159235358238, 0.002894960343837738, -0.00013817381113767624, 0.0008968354668468237, -0.0002913549542427063, 0.000733735621906817, 0.00023629795759916306, 0.0013336464762687683, 0.0005368842976167798, 0.000294686877168715, 3.801658749580383e-05, -0.00031138118356466293, 0.0006681754603050649, 0.0002339000639040023, 0.0009893026435747743, -0.00017770880367606878, 0.0014222306199371815, 0.0006346125155687332, -8.939672261476517e-05, 0.0006197234615683556, 0.0014335522428154945, 0.0015193456783890724, -0.0004862821660935879, 0.0004947567358613014, 7.718335837125778e-06, -0.00025038328021764755, -0.0006933135446161032, 0.0004895627498626709, -0.00039982469752430916, -0.0008697118610143661, -0.000922302482649684, 0.002036917954683304, 0.0022807291243225336, 0.0008207233622670174, 0.00021827523596584797, 0.0007496119942516088, 0.0022170832380652428, 0.0005114352097734809, 0.0012860423885285854, 0.0010426207445561886, -0.00015590526163578033, 0.001209620968438685, -0.0003006316255778074, 0.0004472588188946247, -0.00023415894247591496, -0.0009200365748256445, -0.00017541972920298576, 0.0009041042067110538, -0.00013132253661751747, 0.0014036315260455012, 0.0016449250979349017, -0.0004897350445389748, 0.0003684049006551504, 0.0004720655269920826, 0.0015102967154234648, 0.0010913768783211708, -0.0004436890594661236, 0.000360765028744936, -0.0005626031197607517, 0.0026411889120936394, -0.0013582748360931873, 0.001794386887922883, -0.00018856837414205074, 0.00029304344207048416, 0.0007109260186553001, -4.9620866775512695e-05, -0.0001756381243467331, -0.0003023892641067505, -6.900564767420292e-05, 0.001183464191854, -0.0004129766020923853, -0.0008200255688279867, 6.5644271671772e-05, 0.0012603821232914925, 0.0018650316633284092, 0.00025735609233379364, 0.0020907369907945395, 0.0006289607845246792, 0.0012379279360175133, 0.001082172617316246, 4.566996358335018e-05, 0.0006750572938472033], "tensor__stats": {"min": -0.010251843370497227, "max": 0.012067937292158604, "mean": 0.00026857128250412643, "variance": 3.4406846680212766e-05, "nobs": 128, "histogram_bins": 11, "histogram": [[10, 8, 14, 16, 16, 15, 10, 12, 12, 8, 7], [-0.010251843370497227, -0.008222772739827633, -0.006193701643496752, -0.004164630547165871, -0.0021355594508349895, -0.00010648852185113356, 0.0019225823925808072, 0.0039516533724963665, 0.005980724468827248, 0.008009795099496841, 0.01003886666148901, 0.012067937292158604]]}, "grad__stats": {"min": -0.0037379234563559294, "max": 0.0035860089119523764, "mean": -0.00012861230061389506, "variance": 2.0456157017179066e-06, "nobs": 128, "histogram_bins": 11, "histogram": [[4, 7, 6, 9, 22, 38, 14, 11, 12, 4, 1], [-0.0037379234563559294, -0.003072111401706934, -0.0024062993470579386, -0.001740487408824265, -0.0010746753541752696, -0.0004088632995262742, 0.0002569487551227212, 0.0009227607515640557, 0.001588572864420712, 0.0022543848026543856, 0.002920196857303381, 0.0035860089119523764]]}, "first_delta__stats": {"min": -0.0013582748360931873, "max": 0.0029531808104366064, "mean": 0.0005555794341489673, "variance": 9.437997618988447e-07, "nobs": 128, "histogram_bins": 11, "histogram": [[3, 8, 22, 17, 19, 18, 15, 10, 5, 7, 4], [-0.0013582748360931873, -0.0009663242963142693, -0.0005743738147430122, -0.0001824232895160094, 0.00020952722115907818, 0.000601477746386081, 0.000993428286164999, 0.0013853787677362561, 0.0017773292493075132, 0.002169279847294092, 0.0025612302124500275, 0.0029531808104366064]]}}, "shape": [128]}, "fc2.weight": {"id": "fc2.weight", "data_group_type": "PARAM", "type": "Parameter", "value": {"tensor": "NOT SERIALIZED, Too large 1280", "grad": "NOT SERIALIZED, Too large 1280", "first_delta": "NOT SERIALIZED, Too large 1280", "tensor__stats": {"min": -0.10544981062412262, "max": 0.09287458658218384, "mean": -0.0023858845233917236, "variance": 0.002935056807473302, "nobs": 1280, "histogram_bins": 35, "histogram": [[5, 15, 25, 48, 39, 38, 37, 38, 31, 40, 42, 37, 46, 44, 31, 33, 41, 48, 46, 31, 32, 38, 39, 39, 30, 39, 50, 39, 28, 43, 42, 46, 36, 43, 21], [-0.10544981062412262, -0.09978339821100235, -0.09411698579788208, -0.08845057338476181, -0.08278416842222214, -0.07711775600910187, -0.0714513435959816, -0.06578493118286133, -0.06011851876974106, -0.05445211008191109, -0.04878569766879082, -0.04311928525567055, -0.03745287284255028, -0.031786464154720306, -0.026120051741600037, -0.020453641191124916, -0.014787228778004646, -0.009120817296206951, -0.0034544062800705433, 0.0022120049688965082, 0.00787841621786356, 0.013544827699661255, 0.019211238250136375, 0.024877650663256645, 0.030544061213731766, 0.036210473626852036, 0.041876886039972305, 0.04754329472780228, 0.053209707140922546, 0.058876119554042816, 0.06454253196716309, 0.07020894438028336, 0.07587534934282303, 0.0815417617559433, 0.08720817416906357, 0.09287458658218384]]}, "grad__stats": {"min": -0.18032915890216827, "max": 0.1312742531299591, "mean": 1.862645149230957e-09, "variance": 0.000915295910090208, "nobs": 1280, "histogram_bins": 35, "histogram": [[1, 0, 1, 0, 0, 1, 5, 2, 4, 13, 9, 19, 12, 19, 17, 20, 20, 23, 34, 50, 601, 217, 65, 44, 35, 29, 15, 9, 4, 6, 2, 1, 1, 0, 1], [-0.18032915890216827, -0.1714262068271637, -0.16252325475215912, -0.15362028777599335, -0.14471733570098877, -0.1358143836259842, -0.12691143155097961, -0.11800847947597504, -0.10910551995038986, -0.10020256787538528, -0.0912996158003807, -0.08239665627479553, -0.07349370419979095, -0.06459075212478638, -0.0556877925992012, -0.046784840524196625, -0.03788188472390175, -0.028978930786252022, -0.020075974985957146, -0.011173021048307419, -0.002270066412165761, 0.006632888223975897, 0.015535842627286911, 0.024438798427581787, 0.033341750502586365, 0.04224470630288124, 0.05114766210317612, 0.06005061790347099, 0.06895357370376587, 0.07785652577877045, 0.08675947785377502, 0.0956624373793602, 0.10456538945436478, 0.11346834152936935, 0.12237130105495453, 0.1312742531299591]]}, "first_delta__stats": {"min": -0.02723253145813942, "max": 0.008281335234642029, "mean": -0.001989685231819749, "variance": 2.1916343030170538e-05, "nobs": 1280, "histogram_bins": 35, "histogram": [[2, 0, 0, 0, 1, 0, 4, 2, 4, 3, 1, 6, 6, 16, 15, 13, 16, 25, 32, 35, 31, 49, 57, 64, 111, 112, 282, 111, 112, 78, 47, 30, 9, 3, 3], [-0.02723253145813942, -0.026217849925160408, -0.025203168392181396, -0.024188484996557236, -0.023173803463578224, -0.022159121930599213, -0.0211444403976202, -0.02012975886464119, -0.01911507546901703, -0.018100393936038017, -0.017085712403059006, -0.016071030870079994, -0.015056348405778408, -0.014041666872799397, -0.01302698440849781, -0.012012302875518799, -0.010997621342539787, -0.009982938878238201, -0.00896825734525919, -0.007953574880957603, -0.006938893347978592, -0.005924211349338293, -0.004909529350697994, -0.003894847584888339, -0.002880165819078684, -0.001865483820438385, -0.000850801938213408, 0.0001638799876673147, 0.0011785619426518679, 0.002193243708461523, 0.003207925707101822, 0.004222607705742121, 0.00523728970438242, 0.006251971237361431, 0.00726665323600173, 0.008281335234642029]]}}, "shape": [10, 128]}, "fc2.bias": {"id": "fc2.bias", "data_group_type": "PARAM", "type": "Parameter", "value": {"tensor": [0.048663970082998276, 0.04045221582055092, -0.023755397647619247, 0.024166852235794067, 0.056659042835235596, 0.0359024815261364, -0.046128977090120316, 0.02307734452188015, -0.08121591806411743, 0.027765171602368355], "grad": [0.0007066541584208608, 0.0015993030974641442, 0.0032278504222631454, 0.0022353054955601692, 0.00931458082050085, -0.0010931044816970825, -0.021191492676734924, 0.0020697268191725016, 0.014320076443254948, -0.011188900098204613], "first_delta": [-0.0021926909685134888, 0.00043772533535957336, -0.0002127382904291153, -0.0011661108583211899, -0.0013215765357017517, 0.000508476048707962, -0.0022122450172901154, 0.0017083138227462769, -0.0021801069378852844, -2.454221248626709e-05], "tensor__stats": {"min": -0.08121591806411743, "max": 0.056659042835235596, "mean": 0.010558677837252617, "variance": 0.002062741667032242, "nobs": 10, "histogram_bins": 5, "histogram": [[1, 1, 1, 3, 4], [-0.08121591806411743, -0.05364092439413071, -0.02606593444943428, 0.0015090585220605135, 0.02908405102789402, 0.056659042835235596]]}, "grad__stats": {"min": -0.021191492676734924, "max": 0.014320076443254948, "mean": 0.0, "variance": 9.889424836728722e-05, "nobs": 10, "histogram_bins": 5, "histogram": [[1, 1, 1, 5, 2], [-0.021191492676734924, -0.01408917922526598, -0.006986864842474461, 0.00011544879816938192, 0.007217762526124716, 0.014320076443254948]]}, "first_delta__stats": {"min": -0.0022122450172901154, "max": 0.0017083138227462769, "mean": -0.0006655495380982757, "variance": 1.8384390614301083e-06, "nobs": 10, "histogram_bins": 5, "histogram": [[3, 2, 2, 2, 1], [-0.0022122450172901154, -0.0014281332259997725, -0.0006440214929170907, 0.00014009028382133693, 0.000924202031455934, 0.0017083138227462769]]}}, "shape": [10]}, "input.1": {"id": "input.1", "data_group_type": "INPUT", "type": "Tensor", "value": {"tensor": "NOT SERIALIZED, Too large 7840", "tensor__stats": {"min": -0.4242129623889923, "max": 2.821486711502075, "mean": 0.04716679826378822, "variance": 1.1051450967788696, "nobs": 7840, "histogram_bins": 88, "histogram": [[6217, 21, 25, 19, 10, 15, 24, 6, 8, 7, 16, 11, 14, 9, 12, 15, 20, 14, 10, 7, 18, 12, 12, 10, 8, 10, 7, 12, 9, 5, 1, 1, 11, 5, 5, 8, 11, 10, 8, 6, 12, 11, 14, 7, 13, 10, 8, 13, 7, 8, 6, 7, 4, 9, 5, 9, 10, 11, 11, 10, 11, 11, 11, 10, 5, 13, 10, 9, 7, 8, 11, 8, 13, 11, 14, 18, 20, 17, 7, 19, 20, 13, 14, 17, 16, 20, 73, 600], [-0.4242129623889923, -0.387330025434494, -0.35044705867767334, -0.31356412172317505, -0.27668115496635437, -0.23979820311069489, -0.2029152512550354, -0.16603229939937592, -0.12914936244487762, -0.09226640313863754, -0.055383455008268356, -0.01850050315260887, 0.018382446840405464, 0.0552653968334198, 0.09214834868907928, 0.12903130054473877, 0.16591425240039825, 0.20279720425605774, 0.23968015611171722, 0.2765631079673767, 0.313446044921875, 0.3503290116786957, 0.38721194863319397, 0.42409491539001465, 0.46097785234451294, 0.4978608191013336, 0.5347437858581543, 0.5716267228126526, 0.6085096597671509, 0.6453925967216492, 0.6822755336761475, 0.7191585302352905, 0.7560414671897888, 0.7929244041442871, 0.8298073410987854, 0.8666903376579285, 0.9035732746124268, 0.940456211566925, 0.9773391485214233, 1.0142221450805664, 1.05110502243042, 1.087988018989563, 1.124871015548706, 1.1617538928985596, 1.1986368894577026, 1.2355197668075562, 1.2724027633666992, 1.3092857599258423, 1.3461686372756958, 1.3830516338348389, 1.419934630393982, 1.4568175077438354, 1.4937005043029785, 1.530583381652832, 1.567466378211975, 1.6043493747711182, 1.6412322521209717, 1.6781152486801147, 1.7149982452392578, 1.7518811225891113, 1.7887641191482544, 1.825646996498108, 1.862529993057251, 1.899412989616394, 1.9362958669662476, 1.9731788635253906, 2.010061740875244, 2.0469448566436768, 2.0838277339935303, 2.120710611343384, 2.1575934886932373, 2.19447660446167, 2.2313594818115234, 2.268242359161377, 2.3051254749298096, 2.342008352279663, 2.3788912296295166, 2.415774345397949, 2.4526572227478027, 2.4895401000976562, 2.526423215866089, 2.5633060932159424, 2.600188970565796, 2.6370718479156494, 2.673954963684082, 2.7108378410339355, 2.747720718383789, 2.7846038341522217, 2.821486711502075]]}}, "shape": [10, 1, 28, 28]}, "output.1": {"id": "output.1", "data_group_type": "OUTPUT", "type": "Tensor", "value": {"tensor": [[-7.981145858764648, -12.660005569458008, -7.1886372566223145, -5.33761739730835, -8.63893985748291, -8.672497749328613, -13.161087036132812, -0.02543443627655506, -4.730473518371582, -4.601797103881836], [-12.036964416503906, -21.319128036499023, -18.025373458862305, -15.05864143371582, -0.0035961500834673643, -8.682645797729492, -12.437108039855957, -8.602927207946777, -7.722710132598877, -5.883929252624512], [-7.473839282989502, -8.0112886428833, -3.63584041595459, -4.564644813537598, -2.5790231227874756, -3.0914695262908936, -0.23202873766422272, -7.568138122558594, -4.3140997886657715, -3.3748457431793213], [-4.638308525085449, -4.1613054275512695, -5.462416172027588, -6.424661159515381, -7.593795299530029, -0.15099425613880157, -8.039602279663086, -9.211249351501465, -2.2249467372894287, -10.697427749633789], [-0.006645483896136284, -16.9718017578125, -8.137084007263184, -8.274955749511719, -11.438667297363281, -5.759558200836182, -6.175171852111816, -12.539338111877441, -7.200565814971924, -9.399246215820312], [-6.784129619598389, -11.882073402404785, -7.462699890136719, -8.85277271270752, -8.897072792053223, -9.731668472290039, -0.007550274487584829, -14.17066764831543, -5.319995403289795, -7.458320140838623], [-6.115040302276611, -9.671072959899902, -10.734969139099121, -5.357389450073242, -3.9095983505249023, -2.5333566665649414, -8.233833312988281, -3.0732035636901855, -4.852355480194092, -0.1753019094467163], [-11.826640129089355, -14.594522476196289, -13.419123649597168, -8.2673921585083, -11.705490112304688, -13.057616233825684, -17.074098587036133, -0.0012697261990979314, -11.236931800842285, -6.928683757781982], [-0.0004144048143643886, -21.75325584411621, -14.352904319763184, -12.292835235595703, -16.46041488647461, -7.878060817718506, -11.63770866394043, -16.639774322509766, -10.770902633666992, -14.711678504943848], [-8.70079517364502, -14.584358215332031, -10.487797737121582, -8.884944915771484, -12.952942848205566, -7.69442081451416, -14.626676559448242, -12.809159278869629, -0.0009995469590649009, -8.494039535522461]], "tensor__stats": {"min": -21.75325584411621, "max": -0.0004144048143643886, "mean": -8.411924362182617, "variance": 23.990020751953125, "nobs": 100, "histogram_bins": 10, "histogram": [[2, 1, 4, 10, 13, 11, 25, 14, 10, 10], [-21.75325584411621, -19.577972412109375, -17.402687072753906, -15.22740364074707, -13.052119255065918, -10.876834869384766, -8.70155143737793, -6.526267051696777, -4.350982666015625, -2.1756985187530518, -0.0004144048143643886]]}}, "shape": [10, 10]}}, "graph": {"nodes": [{"data": {"id": "input.1", "label": "INPUT", "component_ids": ["input.1"]}}, {"data": {"id": 9, "label": "Conv", "component_ids": ["conv1.weight", "conv1.bias"]}}, {"data": {"id": 10, "label": "Relu", "component_ids": []}}, {"data": {"id": 11, "label": "Conv", "component_ids": ["conv2.weight", "conv2.bias"]}}, {"data": {"id": 12, "label": "Relu", "component_ids": []}}, {"data": {"id": 13, "label": "MaxPool", "component_ids": []}}, {"data": {"id": 14, "label": "Flatten", "component_ids": []}}, {"data": {"id": 15, "label": "Gemm", "component_ids": ["fc1.weight", "fc1.bias"]}}, {"data": {"id": 16, "label": "Relu", "component_ids": []}}, {"data": {"id": 17, "label": "Gemm", "component_ids": ["fc2.weight", "fc2.bias"]}}, {"data": {"id": 18, "label": "LogSoftmax", "component_ids": []}}, {"data": {"id": "output.1", "label": "OUTPUT", "component_ids": ["output.1"]}}], "edges": [{"data": {"id": "input.1_9", "source": "input.1", "target": 9}}, {"data": {"id": "9_10", "source": 9, "target": 10}}, {"data": {"id": "10_11", "source": 10, "target": 11}}, {"data": {"id": "11_12", "source": 11, "target": 12}}, {"data": {"id": "12_13", "source": 12, "target": 13}}, {"data": {"id": "13_14", "source": 13, "target": 14}}, {"data": {"id": "14_15", "source": 14, "target": 15}}, {"data": {"id": "15_16", "source": 15, "target": 16}}, {"data": {"id": "16_17", "source": 16, "target": 17}}, {"data": {"id": "17_18", "source": 17, "target": 18}}, {"data": {"id": "18_output.1", "source": "18", "target": "output.1"}}]}}