{"id": "0_400", "meta": {"time": 1638574427.7579975, "refresh_model_graph": false}, "step_info": {"epoch": 0, "iter": 400}, "additional_info": {"pred": {"type": "Tensor", "value": [[7], [3], [0], [1], [3], [2], [8], [5], [0], [0]]}, "loss": {"type": "Tensor", "value": 0.47746866941452026}, "class_label": {"type": "Tensor", "value": [7, 3, 0, 1, 5, 2, 8, 5, 0, 0]}, "test_acc": {"type": "float", "value": 87.08}}, "graph_id": [0, 0], "data": {"conv1.weight": {"id": "conv1.weight", "data_group_type": "PARAM", "type": "Parameter", "value": {"tensor": "NOT SERIALIZED, Too large 288", "grad": "NOT SERIALIZED, Too large 288", "first_delta": "NOT SERIALIZED, Too large 288", "tensor__stats": {"min": -0.3323349952697754, "max": 0.36211854219436646, "mean": 0.014191784895956516, "variance": 0.03963980823755264, "nobs": 288, "histogram_bins": 16, "histogram": [[24, 14, 24, 12, 12, 19, 12, 23, 13, 29, 13, 28, 19, 14, 16, 16], [-0.3323349952697754, -0.28893163800239563, -0.24552831053733826, -0.2021249532699585, -0.15872161090373993, -0.11531826853752136, -0.0719149187207222, -0.028511572629213333, 0.014891773462295532, 0.0582951195538044, 0.10169846564531326, 0.14510181546211243, 0.188505157828331, 0.23190850019454956, 0.2753118574619293, 0.3187151849269867, 0.36211854219436646]]}, "grad__stats": {"min": -0.05046495422720909, "max": 0.012072673998773098, "mean": -0.00936189666390419, "variance": 0.0001403553324053064, "nobs": 288, "histogram_bins": 16, "histogram": [[3, 3, 2, 6, 5, 11, 8, 14, 15, 35, 35, 33, 56, 56, 4, 2], [-0.05046495422720909, -0.04655635356903076, -0.042647749185562134, -0.038739148527383804, -0.034830547869205475, -0.030921945348381996, -0.027013342827558517, -0.023104742169380188, -0.01919613964855671, -0.015287538059055805, -0.011378936469554901, -0.007470334880053997, -0.0035617330577224493, 0.0003468687064014375, 0.0042554703541100025, 0.008164072409272194, 0.012072673998773098]]}, "first_delta__stats": {"min": -0.0074563175439834595, "max": 0.04653461277484894, "mean": 0.011697257868945599, "variance": 0.00016683929425198585, "nobs": 288, "histogram_bins": 16, "histogram": [[11, 54, 31, 25, 26, 21, 13, 21, 29, 13, 14, 6, 10, 7, 5, 2], [-0.0074563175439834595, -0.004081884399056435, -0.0007074512541294098, 0.002666981890797615, 0.00604141503572464, 0.009415848180651665, 0.01279028132557869, 0.016164714470505714, 0.01953914761543274, 0.022913580760359764, 0.02628801390528679, 0.029662447050213814, 0.03303688019514084, 0.03641131520271301, 0.03978574648499489, 0.043160177767276764, 0.04653461277484894]]}}, "shape": [32, 1, 3, 3]}, "conv1.bias": {"id": "conv1.bias", "data_group_type": "PARAM", "type": "Parameter", "value": {"tensor": [0.05069248005747795, 0.34141242504119873, -0.019126614555716515, -0.1552288979291916, -0.29244959354400635, 0.0002569504431448877, 0.12963248789310455, 0.022583089768886566, 0.0937320664525032, 0.12631626427173615, 0.19500434398651123, 0.30392566323280334, 0.051238052546978, -0.23363547027111053, 0.03682447597384453, -0.11047948896884918, 0.19803304970264435, 0.12551800906658173, 0.1162823960185051, 0.1572847068309784, -0.255886435508728, -0.09965893626213074, 0.22102123498916626, -0.15516561269760132, 0.11852771788835526, 0.26046180725097656, 0.2747596204280853, -0.24534837901592255, 0.15537850558757782, -0.010591954924166203, 0.10797248035669327, 0.30987438559532166], "grad": [-0.013242955319583416, -0.016349487006664276, -0.005956635344773531, -0.004874367732554674, -0.01666209287941456, -0.003336238907650113, -0.01559356227517128, -0.0005682426271960139, 0.0022309632040560246, -0.004404639359563589, -0.011101016774773598, -0.01619282364845276, -0.005742988083511591, -0.0019342951709404588, -0.0017697721486911178, -0.002651390852406621, -0.006721983198076487, -0.005631695035845041, 0.0034427419304847717, -0.0026532807387411594, -0.016871925443410873, -0.014479012228548527, -0.00048809402505867183, -0.00202573393471539, 0.0004726446059066802, -0.020206378772854805, -0.014139330014586449, 0.0008928921306505799, -0.007184681016951799, -0.002355353208258748, -0.004790293052792549, -0.007601122371852398], "first_delta": [0.014604371041059494, 0.014077574014663696, 0.003836393356323242, 0.018418386578559875, 0.024507582187652588, -0.0023919991217553616, 0.0073733851313591, 0.013791841454803944, 0.003160737454891205, 0.006695777177810669, 0.006568104028701782, 0.015766531229019165, 0.025277765467762947, 0.008123040199279785, 0.004991937428712845, 0.0045407116413116455, 0.007014110684394836, 0.005558930337429047, 0.0008291527628898621, 0.004579588770866394, 0.03256404399871826, 0.01601504534482956, 0.009288519620895386, 0.002534613013267517, 0.003629229962825775, 0.025843769311904907, 0.026083558797836304, 0.004538223147392273, 0.012865707278251648, 0.002840508706867695, 0.010457053780555725, 0.009229809045791626], "tensor__stats": {"min": -0.29244959354400635, "max": 0.34141242504119873, "mean": 0.05684877559542656, "variance": 0.03096810355782509, "nobs": 32, "histogram_bins": 5, "histogram": [[4, 4, 7, 11, 6], [-0.29244959354400635, -0.16567718982696533, -0.038904786109924316, 0.0878676176071167, 0.21464002132415771, 0.34141242504119873]]}, "grad__stats": {"min": -0.020206378772854805, "max": 0.0034427419304847717, "mean": -0.006827817298471928, "variance": 4.3245887354714796e-05, "nobs": 32, "histogram_bins": 5, "histogram": [[6, 4, 3, 13, 6], [-0.020206378772854805, -0.01547655463218689, -0.010746730491518974, -0.006016906350851059, -0.0012870822101831436, 0.0034427419304847717]]}, "first_delta__stats": {"min": -0.0023919991217553616, "max": 0.03256404399871826, "mean": 0.010725436732172966, "variance": 7.399263267870992e-05, "nobs": 32, "histogram_bins": 5, "histogram": [[10, 10, 7, 2, 3], [-0.0023919991217553616, 0.004599209409207106, 0.01159041840583086, 0.018581626936793327, 0.02557283453643322, 0.03256404399871826]]}}, "shape": [32]}, "conv2.weight": {"id": "conv2.weight", "data_group_type": "PARAM", "type": "Parameter", "value": {"tensor": "NOT SERIALIZED, Too large 18432", "grad": "NOT SERIALIZED, Too large 18432", "first_delta": "NOT SERIALIZED, Too large 18432", "tensor__stats": {"min": -0.06369449198246002, "max": 0.07886288315057755, "mean": 0.003446919145062566, "variance": 0.001191526185721159, "nobs": 18432, "histogram_bins": 100, "histogram": [[2, 11, 19, 65, 116, 140, 147, 188, 176, 221, 203, 197, 201, 219, 202, 228, 237, 194, 230, 201, 216, 240, 220, 242, 239, 220, 235, 192, 230, 187, 208, 198, 240, 203, 224, 212, 227, 274, 204, 203, 240, 225, 222, 215, 222, 231, 223, 232, 203, 221, 208, 206, 223, 220, 231, 229, 213, 228, 223, 227, 248, 231, 220, 227, 247, 221, 205, 208, 229, 228, 212, 249, 232, 232, 188, 253, 215, 204, 184, 229, 210, 221, 232, 228, 214, 189, 152, 112, 79, 75, 51, 51, 38, 27, 16, 12, 5, 2, 1, 2], [-0.06369449198246002, -0.06226891651749611, -0.060843344777822495, -0.05941776931285858, -0.05799219757318497, -0.056566622108221054, -0.05514105036854744, -0.05371547490358353, -0.05228990316390991, -0.050864327698946, -0.049438755959272385, -0.04801318049430847, -0.04658760875463486, -0.045162033289670944, -0.04373645782470703, -0.04231088608503342, -0.040885310620069504, -0.03945973888039589, -0.038034163415431976, -0.03660859167575836, -0.03518301621079445, -0.033757444471120834, -0.03233186900615692, -0.030906295403838158, -0.029480721801519394, -0.02805514819920063, -0.026629574596881866, -0.025204000994563103, -0.02377842739224434, -0.022352853789925575, -0.02092728018760681, -0.019501706585288048, -0.018076131120324135, -0.01665055751800537, -0.015224984847009182, -0.013799410313367844, -0.01237383671104908, -0.010948263108730316, -0.009522689506411552, -0.008097115904092789, -0.006671541836112738, -0.005245968233793974, -0.0038203943986445665, -0.002394820563495159, -0.0009692469029687345, 0.00045632681576535106, 0.0018819005927070975, 0.003307474311441183, 0.004733047913759947, 0.006158621981739998, 0.007584195584058762, 0.009009769186377525, 0.010435342788696289, 0.011860916391015053, 0.013286490924656391, 0.014712064526975155, 0.016137637197971344, 0.017563212662935257, 0.01898878626525402, 0.020414359867572784, 0.021839933469891548, 0.023265507072210312, 0.024691080674529076, 0.02611665427684784, 0.027542227879166603, 0.028967801481485367, 0.03039337508380413, 0.031818948686122894, 0.03324452415108681, 0.03467009589076042, 0.036095671355724335, 0.03752124309539795, 0.03894681856036186, 0.04037239030003548, 0.04179796576499939, 0.043223537504673004, 0.04464911296963692, 0.04607468843460083, 0.047500260174274445, 0.04892583563923836, 0.05035140737891197, 0.051776982843875885, 0.0532025545835495, 0.05462813004851341, 0.05605370178818703, 0.05747927725315094, 0.058904848992824554, 0.06033042445778847, 0.06175599992275238, 0.063181571662426, 0.06460714340209961, 0.06603272259235382, 0.06745829433202744, 0.06888386607170105, 0.07030943781137466, 0.07173501700162888, 0.07316058874130249, 0.0745861604809761, 0.07601173222064972, 0.07743731141090393, 0.07886288315057755]]}, "grad__stats": {"min": -0.029530515894293785, "max": 0.01738324947655201, "mean": -0.0016987286508083344, "variance": 1.5753015759401023e-05, "nobs": 18432, "histogram_bins": 100, "histogram": [[1, 0, 1, 0, 1, 0, 0, 0, 0, 1, 0, 0, 0, 0, 1, 2, 5, 5, 6, 5, 7, 8, 11, 6, 13, 14, 10, 20, 17, 18, 23, 20, 35, 33, 44, 49, 59, 74, 76, 69, 87, 91, 110, 150, 134, 133, 174, 190, 213, 273, 287, 348, 348, 369, 456, 561, 615, 728, 916, 1052, 1282, 1518, 1812, 1577, 1136, 778, 563, 413, 285, 246, 223, 150, 118, 76, 76, 65, 37, 36, 29, 23, 15, 15, 12, 12, 8, 7, 7, 3, 9, 5, 6, 3, 3, 3, 3, 2, 1, 3, 0, 3], [-0.029530515894293785, -0.02906137891113758, -0.028592240065336227, -0.028123103082180023, -0.02765396609902382, -0.027184827253222466, -0.02671569027006626, -0.026246551424264908, -0.025777414441108704, -0.0253082774579525, -0.024839138612151146, -0.02437000162899494, -0.023900864645838737, -0.023431725800037384, -0.02296258881688118, -0.022493451833724976, -0.022024312987923622, -0.021555176004767418, -0.021086039021611214, -0.02061690017580986, -0.020147763192653656, -0.019678624346852303, -0.0192094873636961, -0.018740350380539894, -0.01827121153473854, -0.017802074551582336, -0.017332937568426132, -0.01686379872262478, -0.016394661739468575, -0.01592552475631237, -0.015456385910511017, -0.014987248927354813, -0.014518111012876034, -0.014048973098397255, -0.01357983611524105, -0.013110698200762272, -0.012641560286283493, -0.012172422371804714, -0.01170328538864851, -0.011234147474169731, -0.010765009559690952, -0.010295871645212173, -0.00982673466205597, -0.00935759674757719, -0.008888458833098412, -0.008419321849942207, -0.007950183935463428, -0.00748104602098465, -0.007011908572167158, -0.006542770657688379, -0.006073633208870888, -0.005604495760053396, -0.005135357845574617, -0.004666220396757126, -0.004197082482278347, -0.0037279450334608555, -0.0032588073518127203, -0.002789669670164585, -0.00232053198851645, -0.0018513943068683147, -0.0013822566252201796, -0.0009131190017797053, -0.000443981378339231, 2.5156288756988943e-05, 0.0004942939267493784, 0.0009634316083975136, 0.001432569231837988, 0.001901706913486123, 0.0023708445951342583, 0.0028399822767823935, 0.0033091199584305286, 0.00377825740724802, 0.004247395321726799, 0.0047165327705442905, 0.005185670685023069, 0.005654808133840561, 0.0061239455826580524, 0.006593083497136831, 0.007062220945954323, 0.007531358860433102, 0.00800049677491188, 0.008469633758068085, 0.008938771672546864, 0.009407909587025642, 0.009877046570181847, 0.010346184484660625, 0.010815322399139404, 0.011284460313618183, 0.011753597296774387, 0.012222735211253166, 0.012691873125731945, 0.013161011040210724, 0.013630148023366928, 0.014099285937845707, 0.014568423852324486, 0.01503756083548069, 0.015506698749959469, 0.015975836664438248, 0.016444973647594452, 0.016914112493395805, 0.01738324947655201]]}, "first_delta__stats": {"min": -0.007158439606428146, "max": 0.02581747993826866, "mean": 0.0033483961597085, "variance": 2.021308864641469e-05, "nobs": 18432, "histogram_bins": 100, "histogram": [[4, 1, 5, 7, 16, 31, 33, 56, 79, 94, 115, 118, 131, 172, 190, 235, 249, 299, 376, 521, 726, 996, 962, 806, 703, 653, 630, 617, 596, 597, 531, 480, 444, 417, 406, 393, 370, 321, 285, 285, 277, 291, 256, 280, 229, 238, 222, 202, 214, 198, 153, 148, 164, 162, 139, 134, 111, 105, 121, 70, 87, 69, 62, 73, 58, 37, 35, 40, 35, 34, 30, 25, 27, 24, 18, 14, 11, 9, 15, 8, 8, 7, 7, 2, 6, 0, 4, 2, 4, 6, 3, 2, 1, 2, 0, 0, 2, 0, 0, 1], [-0.007158439606428146, -0.006828680634498596, -0.006498921196907759, -0.0061691622249782085, -0.005839402787387371, -0.005509643815457821, -0.005179884377866983, -0.004850125405937433, -0.004520365968346596, -0.004190606996417046, -0.003860847558826208, -0.0035310883540660143, -0.0032013291493058205, -0.0028715701773762703, -0.0025418109726160765, -0.0022120517678558826, -0.001882292446680367, -0.0015525332419201732, -0.0012227740371599793, -0.0008930148906074464, -0.0005632556858472526, -0.000233496495638974, 9.626269456930459e-05, 0.0004260218993294984, 0.0007557810749858618, 0.0010855402797460556, 0.0014152994845062494, 0.0017450586892664433, 0.002074817894026637, 0.002404577098786831, 0.0027343363035470247, 0.0030640955083072186, 0.0033938547130674124, 0.003723613917827606, 0.004053372889757156, 0.004383132327347994, 0.004712891299277544, 0.0050426507368683815, 0.005372409708797932, 0.005702169146388769, 0.006031928118318319, 0.006361687555909157, 0.006691446527838707, 0.0070212059654295444, 0.007350964937359095, 0.007680724374949932, 0.008010483346879482, 0.008340242318809032, 0.008670002222061157, 0.008999761193990707, 0.009329520165920258, 0.009659279137849808, 0.009989038109779358, 0.010318798013031483, 0.010648556984961033, 0.010978315956890583, 0.011308074928820133, 0.011637834832072258, 0.011967593804001808, 0.012297352775931358, 0.012627111747860909, 0.012956871651113033, 0.013286630623042583, 0.013616389594972134, 0.013946148566901684, 0.014275908470153809, 0.014605667442083359, 0.014935426414012909, 0.015265185385942459, 0.015594945289194584, 0.01592470332980156, 0.01625446416437626, 0.01658422313630581, 0.01691398210823536, 0.01724374108016491, 0.01757350005209446, 0.01790325902402401, 0.01823301799595356, 0.01856277696788311, 0.01889253593981266, 0.01922229677438736, 0.01955205574631691, 0.01988181471824646, 0.02021157369017601, 0.02054133266210556, 0.02087109163403511, 0.02120085060596466, 0.02153060957789421, 0.02186037041246891, 0.02219012938439846, 0.02251988835632801, 0.02284964732825756, 0.02317940630018711, 0.02350916527211666, 0.02383892424404621, 0.02416868321597576, 0.02449844405055046, 0.02482820302248001, 0.02515796199440956, 0.02548772096633911, 0.02581747993826866]]}}, "shape": [64, 32, 3, 3]}, "conv2.bias": {"id": "conv2.bias", "data_group_type": "PARAM", "type": "Parameter", "value": {"tensor": [-0.036680422723293304, 0.05943705514073372, -0.003996030893176794, 0.003805357264354825, -0.004771754145622253, -0.0074900006875395775, 0.028092483058571815, 0.010531216859817505, -0.021935708820819855, 0.008109357208013535, 0.003907028120011091, -0.03698280453681946, 0.027687909081578255, 0.041258931159973145, -0.020907219499349594, -0.04651849344372749, 0.0032392172142863274, -0.049243081361055374, 0.05889659747481346, -0.04580390453338623, 0.049430590122938156, -0.026267139241099358, -0.0010773660615086555, -0.0010314477840438485, 0.04453305900096893, 0.036580655723810196, -0.05071046203374863, -0.03820613771677017, 0.05840318650007248, 0.06738069653511047, 0.008386493660509586, -0.023063385859131813, 0.0059025948867201805, 0.05221162736415863, -0.04647038131952286, -0.03582420200109482, 0.005408287514001131, 0.02836388535797596, 0.03323441371321678, -0.020151320844888687, -0.020009158179163933, 0.058371882885694504, -0.04246747866272926, -0.02359898015856743, 0.04496484994888306, 0.03718085587024689, -0.029281511902809143, 0.008625583723187447, -0.02779768966138363, -0.011263126507401466, 0.046749453991651535, -0.041914746165275574, 0.020322158932685852, -0.03368520364165306, 0.008704899810254574, 0.05203273147344589, 0.0595061257481575, 0.052362896502017975, -0.03498758748173714, -0.016005080193281174, -0.008480450138449669, 0.04142376035451889, 0.024956446141004562, 0.04931086301803589], "grad": [-0.007573632523417473, 0.0019997316412627697, 0.0022028477396816015, -0.0004003438516519964, -0.0013557183556258678, 0.0001017534377751872, -0.0025244122371077538, -0.004900000989437103, -0.0006831109058111906, -0.0027397230733186007, -0.008697900921106339, -0.006591248791664839, -0.005956863984465599, -0.0014900561654940248, -0.011219904758036137, -0.011428420431911945, -0.0020066972356289625, -0.0019861937034875154, 0.005003540311008692, -0.0010963426902890205, -0.01580400951206684, -0.005035854410380125, -0.009600672870874405, -0.00243874522857368, -0.001811331370845437, -0.003790115239098668, -0.004504423588514328, -0.003944872412830591, -0.0025701839476823807, -0.001227430533617735, -0.005786334164440632, -0.0027921702712774277, -0.004569141659885645, -0.009714855812489986, -0.004215926397591829, -0.011562321335077286, 0.0031736018136143684, -0.004667776636779308, -0.005260410252958536, -0.002935537602752447, -0.0005786364199593663, -0.011507905088365078, -0.002877581864595413, -0.0027082141023129225, -0.00807273481041193, -0.0028945975936949253, -0.00861911941319704, -0.004938520025461912, -0.009166368283331394, 0.006396504119038582, -0.005669263657182455, -0.008597560226917267, 0.002588606672361493, -0.006634069606661797, -0.003962845075875521, -0.0005755116580985487, -0.004115744028240442, 0.001395894680172205, -0.008172783069312572, -0.0007237005047500134, 0.003700309433043003, -0.0012443737359717488, 0.004879346117377281, -0.006606722250580788], "first_delta": [0.005134422332048416, 0.0037235096096992493, 0.0018778489902615547, 0.0013456882443279028, 0.002843893598765135, 0.0042833564803004265, 0.012038130313158035, 0.002760988660156727, 0.006371611729264259, 0.0056391023099422455, 0.001788116293027997, 0.0035601668059825897, 0.0029229335486888885, 0.006574399769306183, 0.0015269927680492401, 0.007633484899997711, 0.00285551929846406, 0.00911739468574524, 0.002477891743183136, 0.004646182060241699, 0.006867695599794388, 0.0024444181472063065, 0.001958021894097328, 0.004075591452419758, 0.005348149687051773, 0.0037287473678588867, 0.0028196871280670166, 0.005242597311735153, 0.0035873129963874817, 0.01121661439538002, 0.009885846637189388, 0.0044118501245975494, 0.0017064898274838924, 0.0018903054296970367, 0.00434822216629982, 0.006522178649902344, 0.0029966377187520266, 0.004185011610388756, 0.006880277767777443, 0.003545822575688362, 0.004284299910068512, 0.00196969136595726, 0.009670630097389221, 0.011284984648227692, 0.002370838075876236, 0.005966365337371826, 0.01265529915690422, 0.0020665014162659645, 0.003588927909731865, 0.007843220606446266, 0.0041952840983867645, 0.00885486975312233, 0.002571024000644684, 0.001087084412574768, 0.004668461158871651, 0.0033481530845165253, 0.0042740292847156525, 0.00728859007358551, 0.004671536386013031, 0.003438849002122879, 0.007077476009726524, 0.0051529258489608765, 0.002273567020893097, 0.013044342398643494], "tensor__stats": {"min": -0.05071046203374863, "max": 0.06738069653511047, "mean": 0.0051982952281832695, "variance": 0.001254479750059545, "nobs": 64, "histogram_bins": 8, "histogram": [[10, 9, 7, 10, 5, 7, 10, 6], [-0.05071046203374863, -0.035949066281318665, -0.02118767239153385, -0.006426277570426464, 0.008335117250680923, 0.023096513003110886, 0.03785790503025055, 0.05261930078268051, 0.06738069653511047]]}, "grad__stats": {"min": -0.01580400951206684, "max": 0.006396504119038582, "mean": -0.0037360438145697117, "variance": 1.9984508980996907e-05, "nobs": 64, "histogram_bins": 8, "histogram": [[1, 4, 9, 10, 19, 12, 5, 4], [-0.01580400951206684, -0.01302894577383995, -0.010253881104290485, -0.0074788169004023075, -0.00470375269651413, -0.0019286884926259518, 0.0008463757112622261, 0.003621439915150404, 0.006396504119038582]]}, "first_delta__stats": {"min": 0.001087084412574768, "max": 0.013044342398643494, "mean": 0.004944219719618559, "variance": 8.863235962053295e-06, "nobs": 64, "histogram_bins": 8, "histogram": [[15, 15, 14, 7, 4, 4, 2, 3], [0.001087084412574768, 0.0025817416608333588, 0.0040763989090919495, 0.00557105615735054, 0.007065713405609131, 0.008560370653867722, 0.010055027902126312, 0.011549685150384903, 0.013044342398643494]]}}, "shape": [64]}, "fc1.weight": {"id": "fc1.weight", "data_group_type": "PARAM", "type": "Parameter", "value": {"tensor": "NOT SERIALIZED, Too large 1179648", "grad": "NOT SERIALIZED, Too large 1179648", "first_delta": "NOT SERIALIZED, Too large 1179648", "tensor__stats": {"min": -0.015279456973075867, "max": 0.01717829518020153, "mean": 0.00021501172159332782, "variance": 3.7148009141674265e-05, "nobs": 1179648, "histogram_bins": 100, "histogram": [[2, 5, 6, 26, 40, 54, 103, 188, 286, 479, 747, 1103, 1719, 2693, 5168, 10738, 12959, 14628, 15669, 16581, 17278, 17436, 17814, 18114, 18125, 18383, 18108, 18322, 18355, 18495, 18543, 18445, 18454, 18391, 18397, 18369, 18543, 18428, 18289, 18514, 18427, 18623, 18428, 18334, 18190, 18371, 18336, 18271, 18470, 18526, 18284, 18326, 18266, 18411, 18243, 18183, 18271, 18406, 18248, 18459, 18427, 18375, 18498, 18339, 18522, 18445, 18178, 18270, 18321, 18506, 18206, 18119, 18278, 17802, 17507, 17323, 16701, 15879, 13996, 8618, 5678, 3897, 2724, 1913, 1326, 925, 635, 426, 266, 181, 120, 71, 52, 27, 7, 4, 9, 6, 0, 1], [-0.015279456973075867, -0.014954879879951477, -0.014630301855504513, -0.014305724762380123, -0.013981146737933159, -0.01365656964480877, -0.013331991620361805, -0.013007414527237415, -0.012682836502790451, -0.012358259409666061, -0.012033681385219097, -0.011709104292094707, -0.011384526267647743, -0.011059949174523354, -0.010735372081398964, -0.010410794056952, -0.01008621696382761, -0.009761638939380646, -0.009437061846256256, -0.009112483821809292, -0.008787906728684902, -0.008463328704237938, -0.008138751611113548, -0.007814173586666584, -0.007489596493542194, -0.007165018934756517, -0.0068404413759708405, -0.0065158638171851635, -0.0061912862583994865, -0.00586670869961381, -0.005542131140828133, -0.005217553582042456, -0.004892976488918066, -0.004568398930132389, -0.004243821371346712, -0.003919243812561035, -0.003594666253775358, -0.0032700886949896812, -0.0029455111362040043, -0.0026209335774183273, -0.0022963560186326504, -0.001971778692677617, -0.0016472010174766183, -0.0013226235751062632, -0.0009980460163205862, -0.0006734685157425702, -0.00034889098606072366, -2.4313461835845374e-05, 0.00030026407330296934, 0.0006248416029848158, 0.0009494191035628319, 0.0012739966623485088, 0.001598574104718864, 0.001923151663504541, 0.002247729105874896, 0.002572306664660573, 0.00289688422344625, 0.003221461782231927, 0.003546039341017604, 0.003870616899803281, 0.004195194225758314, 0.004519771784543991, 0.004844349343329668, 0.005168926902115345, 0.005493504460901022, 0.005818082019686699, 0.006142659578472376, 0.006467237137258053, 0.00679181469604373, 0.007116391789168119, 0.007440969347953796, 0.007765546906739473, 0.00809012446552515, 0.008414702489972115, 0.008739279583096504, 0.009063856676220894, 0.009388434700667858, 0.009713011793792248, 0.010037589818239212, 0.010362166911363602, 0.010686744935810566, 0.011011322028934956, 0.01133590005338192, 0.01166047714650631, 0.011985055170953274, 0.012309632264077663, 0.012634210288524628, 0.012958787381649017, 0.013283364474773407, 0.013607942499220371, 0.013932519592344761, 0.014257097616791725, 0.014581674709916115, 0.014906252734363079, 0.015230829827487469, 0.015555407851934433, 0.015879984945058823, 0.016204562038183212, 0.01652914099395275, 0.01685371808707714, 0.01717829518020153]]}, "grad__stats": {"min": -0.0697055384516716, "max": 0.07818689197301865, "mean": 0.00023040868109092116, "variance": 4.234910011291504e-05, "nobs": 1179648, "histogram_bins": 100, "histogram": [[1, 0, 0, 1, 4, 5, 11, 9, 18, 30, 28, 32, 42, 81, 85, 105, 129, 156, 190, 250, 290, 361, 391, 472, 572, 645, 819, 1005, 1152, 1320, 1577, 1897, 2129, 2609, 3074, 3640, 4449, 5147, 6329, 7831, 9730, 12274, 16520, 23463, 36176, 61789, 128448, 567608, 88785, 50141, 32016, 21878, 16219, 12591, 9825, 7877, 6388, 5345, 4350, 3568, 2960, 2403, 2149, 1633, 1333, 1233, 1069, 811, 721, 594, 498, 451, 324, 254, 229, 197, 165, 118, 104, 88, 82, 63, 58, 37, 39, 30, 25, 19, 22, 10, 11, 13, 8, 4, 3, 3, 4, 4, 0, 2], [-0.0697055384516716, -0.06822661310434341, -0.06674768775701523, -0.06526876240968704, -0.06378984451293945, -0.06231091544032097, -0.06083199381828308, -0.059353068470954895, -0.05787414312362671, -0.05639522150158882, -0.054916296154260635, -0.05343737080693245, -0.05195844545960426, -0.050479523837566376, -0.04900059849023819, -0.047521673142910004, -0.04604274779558182, -0.04456382617354393, -0.043084900826215744, -0.04160597547888756, -0.04012705385684967, -0.038648128509521484, -0.0371692031621933, -0.03569027781486511, -0.034211356192827225, -0.03273243084549904, -0.03125350549817085, -0.029774582013487816, -0.02829565852880478, -0.026816733181476593, -0.025337809696793556, -0.02385888434946537, -0.022379960864782333, -0.020901035517454147, -0.01942211203277111, -0.017943188548088074, -0.016464263200759888, -0.014985338784754276, -0.01350641530007124, -0.012027490884065628, -0.010548566468060017, -0.009069642052054405, -0.007590717636048794, -0.006111793220043182, -0.004632869269698858, -0.003153944853693247, -0.0016750204376876354, -0.00019609615264926106, 0.0012828281614929438, 0.0027617523446679115, 0.004240676760673523, 0.005719601176679134, 0.007198525592684746, 0.008677450008690357, 0.010156374424695969, 0.011635297909379005, 0.013114222325384617, 0.014593146741390228, 0.016072072088718414, 0.01755099557340145, 0.019029919058084488, 0.020508844405412674, 0.02198776789009571, 0.023466693237423897, 0.024945616722106934, 0.02642454206943512, 0.027903465554118156, 0.029382389038801193, 0.03086131438612938, 0.032340239733457565, 0.03381916135549545, 0.03529808670282364, 0.036777012050151825, 0.03825593739748001, 0.0397348590195179, 0.041213784366846085, 0.04269270971417427, 0.04417163133621216, 0.045650556683540344, 0.04712948203086853, 0.048608407378196716, 0.050087329000234604, 0.05156625434756279, 0.053045179694890976, 0.054524101316928864, 0.05600302666425705, 0.057481952011585236, 0.05896087735891342, 0.06043979898095131, 0.061918724328279495, 0.06339764595031738, 0.06487657129764557, 0.06635549664497375, 0.06783442199230194, 0.06931334733963013, 0.07079227268695831, 0.0722711980342865, 0.07375011593103409, 0.07522904127836227, 0.07670796662569046, 0.07818689197301865]]}, "first_delta__stats": {"min": -0.006848274730145931, "max": 0.007607463281601667, "mean": 0.0002171455416828394, "variance": 9.853339406618034e-07, "nobs": 1179648, "histogram_bins": 100, "histogram": [[1, 1, 1, 1, 4, 2, 9, 7, 7, 9, 9, 19, 20, 33, 41, 59, 98, 113, 164, 212, 231, 341, 414, 557, 709, 849, 1087, 1319, 1586, 2040, 2416, 2968, 3744, 4566, 5478, 6719, 8038, 9816, 11775, 13863, 16669, 19987, 24392, 30402, 41191, 64651, 136590, 233825, 78852, 68099, 58521, 49805, 42245, 35356, 30635, 25914, 21580, 18522, 15675, 13391, 11350, 9618, 8298, 7137, 6090, 5086, 4288, 3802, 3101, 2561, 2148, 1864, 1595, 1299, 1067, 913, 742, 581, 470, 423, 339, 290, 208, 179, 129, 117, 84, 59, 57, 34, 29, 17, 13, 10, 3, 9, 4, 1, 2, 3], [-0.006848274730145931, -0.006703717168420553, -0.0065591600723564625, -0.0064146025106310844, -0.006270045414566994, -0.006125487852841616, -0.005980930291116238, -0.005836373195052147, -0.005691815633326769, -0.005547258537262678, -0.0054027009755373, -0.005258143413811922, -0.005113586317747831, -0.004969028756022453, -0.004824471194297075, -0.0046799140982329845, -0.0045353565365076065, -0.004390799440443516, -0.004246241878718138, -0.00410168431699276, -0.003957127220928669, -0.003812569659203291, -0.0036680123303085566, -0.003523455001413822, -0.003378897672519088, -0.0032343403436243534, -0.0030897827818989754, -0.002945225453004241, -0.0028006681241095066, -0.0026561107952147722, -0.002511553233489394, -0.00236699590459466, -0.0022224385756999254, -0.002077881246805191, -0.0019333238014951348, -0.0017887664726004004, -0.0016442090272903442, -0.0014996516983956099, -0.0013550942530855536, -0.0012105369241908193, -0.001065979478880763, -0.0009214221499860287, -0.0007768647628836334, -0.0006323073757812381, -0.00048775001778267324, -0.00034319263068027794, -0.00019863524357788265, -5.4077863751444966e-05, 9.047951607499272e-05, 0.00023503688862547278, 0.0003795942757278681, 0.0005241516628302634, 0.0006687090499326587, 0.000813266437035054, 0.0009578238241374493, 0.0011023811530321836, 0.0012469385983422399, 0.0013914959272369742, 0.0015360533725470304, 0.0016806107014417648, 0.0018251680303364992, 0.0019697253592312336, 0.0021142829209566116, 0.002258840249851346, 0.0024033975787460804, 0.0025479549076408148, 0.002692512469366193, 0.002837069798260927, 0.0029816271271556616, 0.003126184456050396, 0.0032707417849451303, 0.0034152993466705084, 0.0035598566755652428, 0.003704414004459977, 0.0038489713333547115, 0.00399352889508009, 0.00413808599114418, 0.004282643552869558, 0.004427201114594936, 0.004571758210659027, 0.004716315772384405, 0.004860872868448496, 0.005005430430173874, 0.005149987991899252, 0.005294545087963343, 0.005439102649688721, 0.005583659745752811, 0.0057282173074781895, 0.0058727748692035675, 0.006017331965267658, 0.006161889526993036, 0.006306447088718414, 0.006451004184782505, 0.006595561746507883, 0.006740118842571974, 0.006884676404297352, 0.00702923396602273, 0.007173791062086821, 0.007318348623812199, 0.007462905719876289, 0.007607463281601667]]}}, "shape": [128, 9216]}, "fc1.bias": {"id": "fc1.bias", "data_group_type": "PARAM", "type": "Parameter", "value": {"tensor": [-0.005615023896098137, 0.010401314124464989, -0.002732807770371437, -0.001444243243895471, 1.3628507986140903e-05, 0.004600167740136385, 0.000613848795183003, -0.004806291311979294, 0.00018198690668214113, 0.0010959341889247298, 0.006455019116401672, 0.004497833549976349, 0.009643296711146832, 0.007625021040439606, -0.0012877987464889884, -0.004064647015184164, 0.007702133152633905, 0.008368567563593388, -0.005673079751431942, -0.0028393659740686417, -0.010090298019349575, 0.0029573021456599236, 0.0029642886947840452, -0.002555465791374445, 0.00396168977022171, -0.0023561096750199795, -0.005817584693431854, -0.008706043474376202, 0.007675062865018845, 0.00140096852555871, -0.009578964672982693, 0.011300338432192802, 0.0006457443232648075, -0.0037554472219198942, 0.0026696836575865746, -0.00994362123310566, -2.0169090930721723e-05, -0.0021384505089372396, -0.0054029300808906555, 0.010533099994063377, 0.0013161730021238327, -0.005738231353461742, -0.007885158993303776, 0.008275268599390984, -0.0048477440141141415, -0.003478239057585597, 0.0075084008276462555, 0.009443010203540325, 0.004287632182240486, -0.001139610423706472, 0.003966865595430136, 0.0017104767030104995, 0.00901950802654028, -0.007348217535763979, 0.002250869292765856, -0.00018936757987830788, -0.008311989717185497, 0.0084456168115139, 0.0008603191236034036, 0.000650265603326261, -9.87903058558004e-06, 0.0016920595662668347, -0.005351403262466192, 0.004750888794660568, 0.006278160493820906, -0.00826877262443304, 0.007504517212510109, 0.009713525883853436, -0.005427875090390444, 0.008054634556174278, 0.006777025293558836, 0.007214481011033058, 0.0033828518353402615, -0.009072782471776009, 0.0068829781375825405, 0.00812175590544939, -1.2465844520193059e-05, -0.007434925064444542, -0.0006007550400681794, -0.007617563009262085, 0.0031295199878513813, -0.003965877927839756, 0.004222555551677942, 0.00010984038817696273, -0.008037800900638103, -0.006637521553784609, 0.009857377037405968, 0.0018251152941957116, 0.002733222208917141, 0.004689385648816824, 0.0024389189202338457, 0.0036110724322497845, -0.006470580585300922, 0.006920237559825182, -0.0035164786968380213, 0.0012913864338770509, -0.0017729237442836165, -0.009883406572043896, -0.0009558979072608054, -0.0036575670819729567, -0.0035183136351406574, 0.0061496770940721035, -0.00593906082212925, -0.001560893259011209, -0.000488561752717942, -0.0013310671783983707, 0.00043113972060382366, -0.002653232542797923, -0.0031264391727745533, -0.005642039235681295, 0.006836794316768646, 0.004871701821684837, -0.008166233077645302, -0.009997490793466568, -0.002812954131513834, 0.009728570468723774, -0.003176586702466011, -0.0020058045629411936, -0.009695340879261494, 0.003796079196035862, 0.005416224244982004, 0.004566647578030825, -0.0029051746241748333, -0.007476327940821648, -0.006382513325661421, 0.011186671443283558, -0.002846228191629052, -0.0028067822568118572], "grad": [-0.018722202628850937, 0.0023054364137351513, -0.011321235448122025, 0.00905480608344078, 0.004645811393857002, 0.011641398072242737, 0.016190234571695328, 0.006789829581975937, -0.007680458016693592, 0.0, 0.009233755990862846, 0.0016788842622190714, 0.0, 0.0022323739249259233, 0.0044479225762188435, 0.0023402601946145296, 0.0003203525557182729, 9.092409163713455e-05, 0.002208430552855134, 0.0010655903024598956, 0.0, 0.0, 0.0005765623645856977, -0.011843079701066017, 0.009258474223315716, -0.007462720386683941, 0.0029559123795479536, 0.006318904925137758, 0.00975692830979824, 0.0038704760372638702, -0.0017112083733081818, -0.0058589777909219265, 0.003358937334269285, 0.0037308530882000923, -0.0035304927732795477, 0.0, 0.017951369285583496, -0.011019300669431686, -0.0027274030726403, -0.014009428210556507, 0.016508160158991814, 0.001079080393537879, -0.00635768286883831, -0.002790233585983515, -0.004304090514779091, 0.0002957081887871027, 0.0, -0.0009426934411749244, 0.005409818142652512, -0.012539234012365341, 0.0, 0.011893825605511665, 0.004623638466000557, -0.004744959995150566, 0.008755175396800041, 0.004197537433356047, -3.2152747735381126e-05, 0.0, 0.007187323644757271, -0.0037742992863059044, -0.0009750775643624365, 0.015086065977811813, 0.0016413957346230745, -0.013996823690831661, 0.0, 0.0022337150294333696, -0.012782026082277298, 0.003981809597462416, 0.0, 0.012669386342167854, 0.003981373272836208, 0.0, -0.0015996914589777589, 0.0, -0.0061742085963487625, 0.0017888653092086315, 0.0009993950370699167, -0.0010437967721372843, 0.0018575224094092846, 0.002833777107298374, -0.01664765179157257, 0.0017455369234085083, -0.006123201455920935, 0.0017175625544041395, -0.005273389630019665, -0.011365124955773354, 0.0, 0.0014520562253892422, 0.0, 0.0002158597344532609, 0.00728570856153965, -0.000150983571074903, 0.0, -0.006095269229263067, 0.0, -0.009006909094750881, -0.00418511126190424, 0.0, 0.007096434943377972, 0.01341231819242239, -0.009507735259830952, -0.0017333922442048788, 0.0, 0.007097779307514429, 0.0, 0.012699841521680355, -0.0015953315887600183, 0.00610913522541523, 0.0, -0.014859161339700222, 0.00011034106137230992, -0.007137901149690151, 0.0, 0.0030201119370758533, 0.0, -0.009941580705344677, 0.002300670836120844, 0.0017662224126979709, 0.0005382017698138952, -0.009266023524105549, 0.0034529606346040964, 0.012381528504192829, 0.00022621970856562257, 0.010766868479549885, 0.001304099801927805, -0.00949367880821228, -4.905253081233241e-05, 0.011428387835621834], "first_delta": [-0.000186216551810503, 0.002120967023074627, 0.0007648873142898083, 0.0002752477303147316, 0.0001591395994182676, 0.0006439452990889549, -8.749670814722776e-05, -0.00035400548949837685, 0.002273008693009615, -0.0001996621722355485, -9.923800826072693e-05, 0.0003964947536587715, -0.0004530036821961403, 0.0005435310304164886, 0.001536968513391912, 0.0008533061482012272, 0.0007962319068610668, 0.0003534546121954918, 0.00042698392644524574, 0.0023105423897504807, -8.683279156684875e-05, -0.0003965855576097965, 0.0008034165948629379, 0.001749077346175909, -0.0003562644124031067, 0.0015642568469047546, 0.0018720515072345734, -0.0007246760651469231, 0.0007312842644751072, 6.307021249085665e-05, 0.0005464078858494759, 0.001040230505168438, 7.813918637111783e-05, -0.00034722755663096905, -4.8982445150613785e-05, -0.0003758138045668602, 0.001232885755598545, 0.001250118250027299, 0.0008008070290088654, 0.000764443539083004, 0.0007328136125579476, 0.0015886137261986732, 0.0011182716116309166, 0.0007828427478671074, 0.0004302472807466984, 0.001661910442635417, -0.00010616704821586609, 0.001940983347594738, -0.00033615482971072197, 0.0007365364581346512, -0.0002906098961830139, 0.0006044702604413033, 0.0003921389579772949, 0.0012737992219626904, 0.0008764556841924787, 0.0005644846823997796, 0.0005667963996529579, -0.0003162156790494919, 0.000612778530921787, 0.00045474994112737477, 0.0007307968917302787, 0.0001818429445847869, 0.0011143325828015804, 0.0007797889411449432, -7.611839100718498e-05, 0.0010213330388069153, 0.0008484888821840286, 0.0009975498542189598, -0.00045695947483181953, 0.0003912104293704033, 0.00022411160171031952, -0.00025791022926568985, -0.0002522529102861881, 4.1530467569828033e-05, -2.2654887288808823e-05, -0.0004556160420179367, -0.0002965304011013359, 0.0020717130973935127, 0.0018425388261675835, 0.0006938008591532707, 0.00023268582299351692, 0.0006091175600886345, 0.0013851495459675789, 0.0006042808527126908, 0.000804227776825428, 0.0005649859085679054, 8.927471935749054e-05, 0.001169877708889544, -0.00028784293681383133, 5.066627636551857e-05, 9.234761819243431e-06, -0.0007246080785989761, -0.00016540475189685822, 0.0004755621775984764, -0.0001015260349959135, 0.0005919656250625849, 0.001315679750405252, -0.0004748506471514702, 0.0007554471376352012, 0.0006493676919490099, 0.0006673978641629219, 0.0006839991547167301, -0.0004214649088680744, 0.00044588593300431967, -0.00034437188878655434, 0.001886697020381689, -0.0004038542974740267, 0.001407350180670619, -0.00018856837414205074, 0.0003649778664112091, 0.0005524815060198307, 1.7180107533931732e-05, -0.00015573110431432724, -0.00027802586555480957, -5.2722636610269547e-05, 0.0006151888519525528, -0.00019880803301930428, -0.00036286329850554466, 0.000622146762907505, 0.0006213346496224403, 0.001647026278078556, 0.0004219762049615383, 0.0016938704065978527, 0.0007846243679523468, 0.0010027755051851273, 0.0008539538830518723, -5.038524977862835e-05, 0.0009409852791577578], "tensor__stats": {"min": -0.010090298019349575, "max": 0.011300338432192802, "mean": 0.00022057752357795835, "variance": 3.387167816981673e-05, "nobs": 128, "histogram_bins": 11, "histogram": [[11, 9, 11, 18, 11, 16, 11, 13, 8, 11, 9], [-0.010090298019349575, -0.008145694620907307, -0.006201091222465038, -0.004256488289684057, -0.002311884658411145, -0.00036728146369569004, 0.0015773219056427479, 0.0035219250712543726, 0.005466528702527285, 0.007411131635308266, 0.009355735033750534, 0.011300338432192802]]}, "grad__stats": {"min": -0.018722202628850937, "max": 0.017951369285583496, "mean": 0.00042813183972612023, "variance": 4.956548582413234e-05, "nobs": 128, "histogram_bins": 11, "histogram": [[2, 5, 9, 8, 8, 43, 26, 10, 6, 7, 4], [-0.018722202628850937, -0.015388241969048977, -0.012054280377924442, -0.008720319718122482, -0.005386358126997948, -0.002052397234365344, 0.0012815638910979033, 0.004615524783730507, 0.007949486374855042, 0.011283447034657001, 0.014617408625781536, 0.017951369285583496]]}, "first_delta__stats": {"min": -0.0007246760651469231, "max": 0.0023105423897504807, "mean": 0.0005075858207419515, "variance": 4.964724666933762e-07, "nobs": 128, "histogram_bins": 11, "histogram": [[6, 21, 19, 7, 25, 21, 8, 6, 7, 4, 4], [-0.0007246760651469231, -0.0004487471014726907, -0.0001728181669022888, 0.00010311078949598595, 0.0003790397313423455, 0.0006549686659127474, 0.0009308976586908102, 0.0012068265350535512, 0.001482755527831614, 0.0017586845206096768, 0.002034613396972418, 0.0023105423897504807]]}}, "shape": [128]}, "fc2.weight": {"id": "fc2.weight", "data_group_type": "PARAM", "type": "Parameter", "value": {"tensor": "NOT SERIALIZED, Too large 1280", "grad": "NOT SERIALIZED, Too large 1280", "first_delta": "NOT SERIALIZED, Too large 1280", "tensor__stats": {"min": -0.10349392890930176, "max": 0.09247283637523651, "mean": -0.0018784016137942672, "variance": 0.0028866007924079895, "nobs": 1280, "histogram_bins": 35, "histogram": [[5, 17, 30, 40, 40, 42, 35, 38, 32, 42, 40, 38, 43, 44, 31, 36, 42, 44, 47, 32, 33, 36, 39, 41, 24, 42, 49, 39, 32, 38, 40, 47, 36, 43, 23], [-0.10349392890930176, -0.09789487719535828, -0.0922958254814148, -0.08669678121805191, -0.08109772950410843, -0.07549867779016495, -0.06989962607622147, -0.06430057436227798, -0.0587015263736248, -0.05310247465968132, -0.04750342294573784, -0.041904374957084656, -0.036305323243141174, -0.030706273391842842, -0.02510722354054451, -0.01950817182660103, -0.013909121975302696, -0.00831007119268179, -0.0027110211085528135, 0.0028880294412374496, 0.008487080223858356, 0.014086130075156689, 0.019685180857777596, 0.025284230709075928, 0.03088328242301941, 0.03648233041167259, 0.042081382125616074, 0.047680433839559555, 0.05327948182821274, 0.05887853354215622, 0.0644775852560997, 0.07007663697004318, 0.07567568868398666, 0.08127473294734955, 0.08687378466129303, 0.09247283637523651]]}, "grad__stats": {"min": -0.8960250616073608, "max": 0.7687047123908997, "mean": 0.0, "variance": 0.014392944052815437, "nobs": 1280, "histogram_bins": 35, "histogram": [[1, 1, 0, 0, 1, 3, 0, 1, 0, 5, 1, 9, 9, 17, 14, 29, 46, 67, 560, 363, 58, 26, 15, 15, 10, 9, 4, 6, 2, 3, 2, 1, 0, 1, 1], [-0.8960250616073608, -0.8484613299369812, -0.8008976578712463, -0.7533339262008667, -0.7057702541351318, -0.6582065224647522, -0.6106427907943726, -0.5630791187286377, -0.5155153870582581, -0.4679516851902008, -0.42038798332214355, -0.3728242814540863, -0.32526057958602905, -0.2776968479156494, -0.23013314604759216, -0.1825694441795349, -0.13500574231147766, -0.08744202554225922, -0.03987831994891167, 0.0076853870414197445, 0.05524909496307373, 0.10281280428171158, 0.15037651360034943, 0.19794021546840668, 0.24550393223762512, 0.2930676341056824, 0.3406313359737396, 0.3881950378417969, 0.4357587695121765, 0.48332247138023376, 0.530886173248291, 0.5784499049186707, 0.6260135769844055, 0.6735773086547852, 0.72114098072052, 0.7687047123908997]]}, "first_delta__stats": {"min": -0.024753961712121964, "max": 0.006913833320140839, "mean": -0.0014822023222222924, "variance": 1.7036943972925656e-05, "nobs": 1280, "histogram_bins": 35, "histogram": [[1, 1, 0, 0, 1, 0, 3, 2, 2, 4, 2, 5, 3, 5, 16, 16, 19, 14, 22, 30, 32, 39, 40, 58, 67, 108, 113, 318, 116, 102, 68, 41, 20, 8, 4], [-0.024753961712121964, -0.023849166929721832, -0.02294437400996685, -0.02203957922756672, -0.021134784445166588, -0.020229991525411606, -0.019325196743011475, -0.018420401960611343, -0.01751560904085636, -0.01661081425845623, -0.0157060194760561, -0.014801226556301117, -0.013896431773900986, -0.012991637922823429, -0.012086844071745872, -0.011182049289345741, -0.010277255438268185, -0.009372461587190628, -0.008467666804790497, -0.00756287295371294, -0.006658078636974096, -0.00575328478589654, -0.004848490469157696, -0.003943696618080139, -0.0030389023013412952, -0.002134108217433095, -0.0012293140171095729, -0.0003245198167860508, 0.0005802743253298104, 0.0014850684674456716, 0.0023898626677691936, 0.003294656751677394, 0.004199450835585594, 0.005104245152324438, 0.006009039003401995, 0.006913833320140839]]}}, "shape": [10, 128]}, "fc2.bias": {"id": "fc2.bias", "data_group_type": "PARAM", "type": "Parameter", "value": {"tensor": [0.04917898401618004, 0.04062551632523537, -0.023436155170202255, 0.024685535579919815, 0.05722874402999878, 0.03563704341650009, -0.04530975967645645, 0.02277301624417305, -0.07999219000339508, 0.02813924476504326], "grad": [-0.0040079024620354176, 0.005361553281545639, -0.03294047713279724, 0.1067136824131012, 0.006931837182492018, -0.09995795786380768, 0.007881825789809227, 0.0014965072041377425, -0.02312016673386097, 0.031641095876693726], "first_delta": [-0.001677677035331726, 0.0006110258400440216, 0.00010650418698787689, -0.0006474275141954422, -0.0007518753409385681, 0.00024303793907165527, -0.0013930276036262512, 0.001403985545039177, -0.0009563788771629333, 0.0003495309501886368], "tensor__stats": {"min": -0.07999219000339508, "max": 0.05722874402999878, "mean": 0.010952997021377087, "variance": 0.0020372478757053614, "nobs": 10, "histogram_bins": 5, "histogram": [[1, 1, 1, 3, 4], [-0.07999219000339508, -0.05254800245165825, -0.025103816762566566, 0.002340370323508978, 0.029784556478261948, 0.05722874402999878]]}, "grad__stats": {"min": -0.09995795786380768, "max": 0.1067136824131012, "mean": 0.0, "variance": 0.0026841559447348118, "nobs": 10, "histogram_bins": 5, "histogram": [[1, 2, 5, 1, 1], [-0.09995795786380768, -0.05862363055348396, -0.0172893013805151, 0.024045025929808617, 0.06537935137748718, 0.1067136824131012]]}, "first_delta__stats": {"min": -0.001677677035331726, "max": 0.001403985545039177, "mean": -0.00027123017935082316, "variance": 9.395241704623913e-07, "nobs": 10, "histogram_bins": 5, "histogram": [[2, 3, 1, 3, 1], [-0.001677677035331726, -0.0010613445192575455, -0.00044501200318336487, 0.00017132051289081573, 0.0007876530289649963, 0.001403985545039177]]}}, "shape": [10]}, "input.1": {"id": "input.1", "data_group_type": "INPUT", "type": "Tensor", "value": {"tensor": "NOT SERIALIZED, Too large 7840", "tensor__stats": {"min": -0.4242129623889923, "max": 2.821486711502075, "mean": -0.010496644303202629, "variance": 0.9620452523231506, "nobs": 7840, "histogram_bins": 88, "histogram": [[6330, 26, 20, 24, 17, 23, 16, 19, 6, 11, 9, 12, 10, 12, 8, 16, 9, 14, 9, 5, 8, 8, 28, 10, 7, 21, 10, 14, 4, 6, 7, 11, 7, 9, 6, 13, 10, 6, 8, 4, 8, 12, 4, 12, 24, 6, 7, 8, 4, 14, 9, 6, 14, 12, 6, 8, 10, 7, 5, 7, 9, 6, 15, 14, 10, 32, 7, 7, 11, 9, 12, 11, 9, 10, 15, 16, 8, 18, 11, 14, 14, 11, 11, 27, 18, 25, 169, 345], [-0.4242129623889923, -0.387330025434494, -0.35044705867767334, -0.31356412172317505, -0.27668115496635437, -0.23979820311069489, -0.2029152512550354, -0.16603229939937592, -0.12914936244487762, -0.09226640313863754, -0.055383455008268356, -0.01850050315260887, 0.018382446840405464, 0.0552653968334198, 0.09214834868907928, 0.12903130054473877, 0.16591425240039825, 0.20279720425605774, 0.23968015611171722, 0.2765631079673767, 0.313446044921875, 0.3503290116786957, 0.38721194863319397, 0.42409491539001465, 0.46097785234451294, 0.4978608191013336, 0.5347437858581543, 0.5716267228126526, 0.6085096597671509, 0.6453925967216492, 0.6822755336761475, 0.7191585302352905, 0.7560414671897888, 0.7929244041442871, 0.8298073410987854, 0.8666903376579285, 0.9035732746124268, 0.940456211566925, 0.9773391485214233, 1.0142221450805664, 1.05110502243042, 1.087988018989563, 1.124871015548706, 1.1617538928985596, 1.1986368894577026, 1.2355197668075562, 1.2724027633666992, 1.3092857599258423, 1.3461686372756958, 1.3830516338348389, 1.419934630393982, 1.4568175077438354, 1.4937005043029785, 1.530583381652832, 1.567466378211975, 1.6043493747711182, 1.6412322521209717, 1.6781152486801147, 1.7149982452392578, 1.7518811225891113, 1.7887641191482544, 1.825646996498108, 1.862529993057251, 1.899412989616394, 1.9362958669662476, 1.9731788635253906, 2.010061740875244, 2.0469448566436768, 2.0838277339935303, 2.120710611343384, 2.1575934886932373, 2.19447660446167, 2.2313594818115234, 2.268242359161377, 2.3051254749298096, 2.342008352279663, 2.3788912296295166, 2.415774345397949, 2.4526572227478027, 2.4895401000976562, 2.526423215866089, 2.5633060932159424, 2.600188970565796, 2.6370718479156494, 2.673954963684082, 2.7108378410339355, 2.747720718383789, 2.7846038341522217, 2.821486711502075]]}}, "shape": [10, 1, 28, 28]}, "output.1": {"id": "output.1", "data_group_type": "OUTPUT", "type": "Tensor", "value": {"tensor": [[-7.184998512268066, -5.707830429077148, -4.402761936187744, -4.4966020584106445, -6.1378021240234375, -6.702268600463867, -7.908061504364014, -0.07740216702222824, -4.493427753448486, -3.4396286010742188], [-5.049680709838867, -7.652423858642578, -4.292435646057129, -0.058890122920274734, -9.241267204284668, -3.893786668777466, -8.720273971557617, -9.233965873718262, -4.170518398284912, -7.68086051940918], [-0.008467013947665691, -15.113911628723145, -8.556737899780273, -6.294159412384033, -10.955262184143066, -5.273242473602295, -7.847402095794678, -10.620052337646484, -7.206782341003418, -9.30960750579834], [-7.260295867919922, -0.061538271605968475, -4.442775726318359, -4.958573818206787, -7.600459575653076, -6.137578010559082, -4.525973320007324, -6.850599765777588, -3.7664623260498047, -5.9847412109375], [-2.0282421112060547, -7.69633674621582, -5.235515594482422, -1.1215300559997559, -4.9096198081970215, -1.702492594718933, -5.5332841873168945, -5.173325061798096, -1.1919341087341309, -3.380873441696167], [-3.882617712020874, -3.9883453845977783, -0.5717145800590515, -1.737288236618042, -7.132591247558594, -2.469034194946289, -4.189093112945557, -9.662174224853516, -2.137223243713379, -6.4080586433410645], [-4.62291145324707, -2.41103458404541, -2.989921808242798, -2.6553568840026855, -2.8724558353424072, -2.200287103652954, -3.262012004852295, -2.504128932952881, -1.3795807361602783, -1.423726201057434], [-3.8931944370269775, -7.239414215087891, -6.1223883628845215, -0.7884730696678162, -7.919812202453613, -0.6782955527305603, -7.690507888793945, -8.162848472595215, -4.436241149902344, -6.351964473724365], [-0.08474411070346832, -10.817087173461914, -5.837918281555176, -4.846171855926514, -6.846052646636963, -3.2177083492279053, -4.983773231506348, -7.770776271820068, -3.9209177494049072, -6.094204425811768], [-0.15156154334545135, -9.746841430664062, -4.9002790451049805, -2.661245346069336, -7.867068290710449, -3.071694850921631, -6.05643892288208, -9.389946937561035, -4.317455291748047, -7.149587631225586]], "tensor__stats": {"min": -15.113911628723145, "max": -0.008467013947665691, "mean": -5.128068447113037, "variance": 8.630417823791504, "nobs": 100, "histogram_bins": 10, "histogram": [[1, 0, 3, 6, 13, 17, 14, 21, 12, 13], [-15.113911628723145, -13.60336685180664, -12.092823028564453, -10.58227825164795, -9.071733474731445, -7.5611891746521, -6.050644874572754, -4.540100574493408, -3.0295560359954834, -1.5190114974975586, -0.008467013947665691]]}}, "shape": [10, 10]}}, "graph": {"nodes": [{"data": {"id": "input.1", "label": "INPUT", "component_ids": ["input.1"]}}, {"data": {"id": 9, "label": "Conv", "component_ids": ["conv1.weight", "conv1.bias"]}}, {"data": {"id": 10, "label": "Relu", "component_ids": []}}, {"data": {"id": 11, "label": "Conv", "component_ids": ["conv2.weight", "conv2.bias"]}}, {"data": {"id": 12, "label": "Relu", "component_ids": []}}, {"data": {"id": 13, "label": "MaxPool", "component_ids": []}}, {"data": {"id": 14, "label": "Flatten", "component_ids": []}}, {"data": {"id": 15, "label": "Gemm", "component_ids": ["fc1.weight", "fc1.bias"]}}, {"data": {"id": 16, "label": "Relu", "component_ids": []}}, {"data": {"id": 17, "label": "Gemm", "component_ids": ["fc2.weight", "fc2.bias"]}}, {"data": {"id": 18, "label": "LogSoftmax", "component_ids": []}}, {"data": {"id": "output.1", "label": "OUTPUT", "component_ids": ["output.1"]}}], "edges": [{"data": {"id": "input.1_9", "source": "input.1", "target": 9}}, {"data": {"id": "9_10", "source": 9, "target": 10}}, {"data": {"id": "10_11", "source": 10, "target": 11}}, {"data": {"id": "11_12", "source": 11, "target": 12}}, {"data": {"id": "12_13", "source": 12, "target": 13}}, {"data": {"id": "13_14", "source": 13, "target": 14}}, {"data": {"id": "14_15", "source": 14, "target": 15}}, {"data": {"id": "15_16", "source": 15, "target": 16}}, {"data": {"id": "16_17", "source": 16, "target": 17}}, {"data": {"id": "17_18", "source": 17, "target": 18}}, {"data": {"id": "18_output.1", "source": "18", "target": "output.1"}}]}}