{"id": "0_1000", "meta": {"time": 1638574479.0604336, "refresh_model_graph": false}, "step_info": {"epoch": 0, "iter": 1000}, "additional_info": {"pred": {"type": "Tensor", "value": [[3], [8], [7], [9], [9], [0], [1], [1], [5], [2]]}, "loss": {"type": "Tensor", "value": 0.05933588743209839}, "class_label": {"type": "Tensor", "value": [3, 8, 7, 9, 9, 0, 1, 1, 5, 2]}, "test_acc": {"type": "float", "value": 90.38}}, "graph_id": [0, 0], "data": {"conv1.weight": {"id": "conv1.weight", "data_group_type": "PARAM", "type": "Parameter", "value": {"tensor": "NOT SERIALIZED, Too large 288", "grad": "NOT SERIALIZED, Too large 288", "first_delta": "NOT SERIALIZED, Too large 288", "tensor__stats": {"min": -0.3336644172668457, "max": 0.3678226172924042, "mean": 0.017487257719039917, "variance": 0.04035390168428421, "nobs": 288, "histogram_bins": 16, "histogram": [[24, 13, 24, 11, 14, 19, 12, 20, 16, 26, 15, 27, 23, 11, 19, 14], [-0.3336644172668457, -0.28982147574424744, -0.24597853422164917, -0.2021355926990509, -0.15829265117645264, -0.11444971710443497, -0.0706067830324173, -0.02676383964717388, 0.017079100012779236, 0.0609220415353775, 0.10476498305797577, 0.14860792458057404, 0.1924508512020111, 0.23629379272460938, 0.28013673424720764, 0.3239796757698059, 0.3678226172924042]]}, "grad__stats": {"min": -0.025465786457061768, "max": 0.0009991188999265432, "mean": -0.0061036343686282635, "variance": 3.397428372409195e-05, "nobs": 288, "histogram_bins": 16, "histogram": [[2, 2, 5, 6, 6, 7, 7, 9, 12, 21, 19, 19, 35, 43, 61, 34], [-0.025465786457061768, -0.02381172962486744, -0.02215767279267311, -0.020503615960478783, -0.018849560990929604, -0.017195504158735275, -0.015541447326540947, -0.013887390494346619, -0.01223333366215229, -0.010579276829957962, -0.008925220929086208, -0.00727116409689188, -0.005617107264697552, -0.003963050898164511, -0.002308994298800826, -0.0006549376994371414, 0.0009991188999265432]]}, "first_delta__stats": {"min": -0.010288834571838379, "max": 0.05732036381959915, "mean": 0.014992730692029, "variance": 0.0002611249510664493, "nobs": 288, "histogram_bins": 16, "histogram": [[5, 49, 32, 23, 19, 29, 16, 26, 22, 19, 16, 9, 13, 3, 5, 2], [-0.010288834571838379, -0.006063259672373533, -0.0018376847729086876, 0.002387890126556158, 0.006613465026021004, 0.010839039459824562, 0.015064614824950695, 0.019290190190076828, 0.023515764623880386, 0.027741339057683945, 0.0319669134914875, 0.03619248792529106, 0.04041806608438492, 0.04464364051818848, 0.048869214951992035, 0.05309478938579559, 0.05732036381959915]]}}, "shape": [32, 1, 3, 3]}, "conv1.bias": {"id": "conv1.bias", "data_group_type": "PARAM", "type": "Parameter", "value": {"tensor": [0.056028787046670914, 0.34613293409347534, -0.017670700326561928, -0.14787833392620087, -0.28363439440727234, 0.0008304144139401615, 0.13343361020088196, 0.028038209304213524, 0.09506811201572418, 0.12802787125110626, 0.1969456970691681, 0.31043702363967896, 0.058392781764268875, -0.22953177988529205, 0.039008740335702896, -0.10796947032213211, 0.20004215836524963, 0.12769915163516998, 0.11729122698307037, 0.15925250947475433, -0.24834445118904114, -0.09305377304553986, 0.22342929244041443, -0.15331855416297913, 0.12031087279319763, 0.26637476682662964, 0.28133225440979004, -0.24417264759540558, 0.1593099683523178, -0.00808512233197689, 0.11312759667634964, 0.3156740367412567], "grad": [-0.006437967531383038, -0.00370611809194088, 0.005614961963146925, -0.00569797120988369, -0.007996761240065098, 0.0023989416658878326, -0.00448148138821125, -0.003886022139340639, 0.003046856028959155, 0.003710918128490448, 0.003808356821537018, -0.009172748774290085, -0.006241067312657833, -0.0021390565671026707, 0.0023789112456142902, -0.0007183944690041244, 0.006145822815597057, 0.0013411492109298706, 0.004076509736478329, -0.0002768515550997108, -0.011708848178386688, -0.004484163597226143, 0.00023222502204589546, -0.000568683200981468, 0.0034028070513159037, -0.01160889770835638, -0.008522314950823784, -0.0004538678622338921, -0.0069548599421978, 0.0016166731948032975, -0.004073794465512037, -0.005570938810706139], "first_delta": [0.019940678030252457, 0.018798083066940308, 0.005292307585477829, 0.025768950581550598, 0.0333227813243866, -0.0018185351509600878, 0.011174507439136505, 0.019246961921453476, 0.004496783018112183, 0.008407384157180786, 0.008509457111358643, 0.022277891635894775, 0.032432496547698975, 0.012226730585098267, 0.007176201790571213, 0.007050730288028717, 0.009023219347000122, 0.0077400729060173035, 0.0018379837274551392, 0.006547391414642334, 0.04010602831840515, 0.02262020856142044, 0.011696577072143555, 0.0043816715478897095, 0.005412384867668152, 0.03175672888755798, 0.032656192779541016, 0.005713954567909241, 0.016797170042991638, 0.005347341299057007, 0.015612170100212097, 0.015029460191726685], "tensor__stats": {"min": -0.28363439440727234, "max": 0.34613293409347534, "mean": 0.06070402264595032, "variance": 0.030884018167853355, "nobs": 32, "histogram_bins": 5, "histogram": [[4, 4, 7, 11, 6], [-0.28363439440727234, -0.1576809287071228, -0.03172746300697327, 0.09422600269317627, 0.2201794683933258, 0.34613293409347534]]}, "grad__stats": {"min": -0.011708848178386688, "max": 0.006145822815597057, "mean": -0.0020914587657898664, "variance": 2.5391384042450227e-05, "nobs": 32, "histogram_bins": 5, "histogram": [[4, 6, 6, 9, 7], [-0.011708848178386688, -0.008137914352118969, -0.004566979594528675, -0.0009960455354303122, 0.0025748885236680508, 0.006145822815597057]]}, "first_delta__stats": {"min": -0.0018185351509600878, "max": 0.04010602831840515, "mean": 0.014580687507987022, "variance": 0.00011587597691686824, "nobs": 32, "histogram_bins": 5, "histogram": [[9, 9, 8, 1, 5], [-0.0018185351509600878, 0.006566377356648445, 0.014951290562748909, 0.023336203768849373, 0.03172111511230469, 0.04010602831840515]]}}, "shape": [32]}, "conv2.weight": {"id": "conv2.weight", "data_group_type": "PARAM", "type": "Parameter", "value": {"tensor": "NOT SERIALIZED, Too large 18432", "grad": "NOT SERIALIZED, Too large 18432", "first_delta": "NOT SERIALIZED, Too large 18432", "tensor__stats": {"min": -0.06725418567657471, "max": 0.08505675196647644, "mean": 0.004241840913891792, "variance": 0.0012162483762949705, "nobs": 18432, "histogram_bins": 100, "histogram": [[1, 1, 11, 18, 31, 70, 114, 133, 162, 165, 195, 195, 224, 209, 204, 216, 215, 231, 242, 236, 233, 222, 236, 247, 235, 257, 235, 226, 251, 224, 205, 238, 202, 256, 222, 233, 218, 270, 250, 224, 237, 264, 234, 233, 214, 258, 243, 223, 234, 204, 230, 254, 214, 252, 230, 224, 256, 232, 256, 250, 231, 258, 240, 253, 231, 203, 255, 260, 228, 233, 233, 232, 240, 267, 234, 193, 242, 200, 253, 225, 223, 220, 197, 161, 126, 111, 72, 71, 59, 46, 41, 37, 20, 13, 15, 3, 3, 2, 0, 2], [-0.06725418567657471, -0.06573107838630676, -0.06420796364545822, -0.06268485635519028, -0.06116174906492233, -0.05963863804936409, -0.058115530759096146, -0.0565924197435379, -0.05506931245326996, -0.053546201437711716, -0.05202309042215347, -0.05049998313188553, -0.048976872116327286, -0.04745376482605934, -0.0459306538105011, -0.044407546520233154, -0.04288443550467491, -0.04136132448911667, -0.039838217198848724, -0.03831510618329048, -0.03679199889302254, -0.035268887877464294, -0.03374578058719635, -0.03222266957163811, -0.030699560418725014, -0.02917645126581192, -0.027653342112898827, -0.026130232959985733, -0.02460712380707264, -0.023084014654159546, -0.021560903638601303, -0.02003779448568821, -0.018514685332775116, -0.016991576179862022, -0.015468467026948929, -0.013945357874035835, -0.012422247789800167, -0.010899138636887074, -0.00937602948397398, -0.007852920331060886, -0.0063298107124865055, -0.004806701093912125, -0.003283591940999031, -0.001760482438839972, -0.0002373731113038957, 0.0012857362162321806, 0.002808845601975918, 0.004331955220550299, 0.005855064373463392, 0.007378173992037773, 0.008901283144950867, 0.01042439229786396, 0.011947501450777054, 0.013470611535012722, 0.014993720687925816, 0.016516830772161484, 0.018039939925074577, 0.01956304907798767, 0.021086158230900764, 0.022609267383813858, 0.02413237653672695, 0.025655485689640045, 0.02717859484255314, 0.02870170585811138, 0.030224815011024475, 0.03174792230129242, 0.03327103331685066, 0.034794144332408905, 0.03631725162267685, 0.03784036263823509, 0.039363469928503036, 0.04088658094406128, 0.042409688234329224, 0.043932799249887466, 0.04545590654015541, 0.046979017555713654, 0.048502128571271896, 0.05002523586153984, 0.051548346877098083, 0.05307145416736603, 0.05459456518292427, 0.056117672473192215, 0.05764078348875046, 0.0591638907790184, 0.060687001794576645, 0.06221011281013489, 0.06373322010040283, 0.06525632739067078, 0.06677944213151932, 0.06830254942178726, 0.0698256567120552, 0.07134876400232315, 0.07287187874317169, 0.07439498603343964, 0.07591809332370758, 0.07744120806455612, 0.07896431535482407, 0.08048742264509201, 0.08201052993535995, 0.0835336446762085, 0.08505675196647644]]}, "grad__stats": {"min": -0.009265756234526634, "max": 0.004671952221542597, "mean": -0.0004113793547730893, "variance": 2.0195182059978833e-06, "nobs": 18432, "histogram_bins": 100, "histogram": [[1, 0, 1, 0, 0, 3, 1, 1, 2, 2, 1, 1, 3, 3, 3, 5, 5, 7, 5, 12, 17, 14, 24, 21, 23, 23, 22, 26, 23, 28, 45, 31, 26, 32, 44, 31, 48, 62, 59, 51, 64, 77, 80, 75, 124, 101, 110, 107, 150, 135, 165, 196, 192, 185, 250, 270, 288, 339, 374, 407, 426, 562, 644, 728, 1081, 1569, 2119, 1494, 1113, 859, 699, 552, 452, 350, 282, 207, 162, 127, 115, 97, 58, 71, 38, 42, 39, 27, 22, 21, 24, 15, 8, 10, 9, 6, 0, 1, 2, 0, 5, 1], [-0.009265756234526634, -0.009126379154622555, -0.008987002074718475, -0.008847624994814396, -0.008708247914910316, -0.008568870835006237, -0.008429493755102158, -0.008290116675198078, -0.008150739595293999, -0.00801136251538992, -0.00787198543548584, -0.00773260835558176, -0.007593231275677681, -0.0074538541957736015, -0.007314477115869522, -0.007175100035965443, -0.007035722956061363, -0.006896345876157284, -0.006756968796253204, -0.006617591716349125, -0.0064782146364450455, -0.006338837556540966, -0.006199460476636887, -0.006060083396732807, -0.005920706316828728, -0.005781329236924648, -0.005641952157020569, -0.005502575077116489, -0.00536319799721241, -0.0052238209173083305, -0.005084443837404251, -0.004945066757500172, -0.004805689677596092, -0.004666312597692013, -0.004526935517787933, -0.004387558437883854, -0.0042481813579797745, -0.004108804278075695, -0.003969427198171616, -0.0038300498854368925, -0.003690672805532813, -0.0035512957256287336, -0.003411918645724654, -0.0032725415658205748, -0.0031331644859164953, -0.002993787406012416, -0.0028544103261083364, -0.002715033246204257, -0.0025756561663001776, -0.002436279086396098, -0.0022969020064920187, -0.0021575249265879393, -0.00201814784668386, -0.0018787707667797804, -0.001739393686875701, -0.0016000166069716215, -0.001460639527067542, -0.0013212624471634626, -0.0011818853672593832, -0.0010425082873553038, -0.0009031311492435634, -0.000763754069339484, -0.0006243769894354045, -0.0004849999095313251, -0.00034562282962724566, -0.000206245735171251, -6.686865526717156e-05, 7.250843191286549e-05, 0.00021188551909290254, 0.000351262598996982, 0.0004906397080048919, 0.0006300167879089713, 0.0007693938678130507, 0.0009087709477171302, 0.0010481480276212096, 0.001187525107525289, 0.0013269021874293685, 0.001466279267333448, 0.0016056563472375274, 0.0017450334271416068, 0.0018844105070456862, 0.0020237877033650875, 0.002163164783269167, 0.0023025418631732464, 0.002441918943077326, 0.0025812960229814053, 0.0027206731028854847, 0.002860050182789564, 0.0029994272626936436, 0.003138804342597723, 0.0032781814225018024, 0.003417558502405882, 0.0035569355823099613, 0.0036963126622140408, 0.00383568974211812, 0.0039750668220222, 0.004114443901926279, 0.0042538209818303585, 0.004393198061734438, 0.004532575141638517, 0.004671952221542597]]}, "first_delta__stats": {"min": -0.009801577776670456, "max": 0.0317252017557621, "mean": 0.004143317695707083, "variance": 3.54263793269638e-05, "nobs": 18432, "histogram_bins": 100, "histogram": [[2, 3, 4, 6, 8, 16, 33, 46, 71, 90, 120, 121, 124, 158, 208, 228, 262, 295, 336, 435, 512, 577, 633, 831, 794, 689, 625, 575, 565, 511, 537, 558, 465, 490, 469, 412, 398, 389, 369, 301, 315, 281, 260, 269, 260, 262, 245, 223, 204, 213, 207, 180, 164, 169, 155, 167, 146, 149, 121, 111, 118, 106, 102, 81, 93, 74, 61, 32, 41, 33, 39, 47, 21, 30, 22, 23, 26, 15, 10, 9, 13, 4, 14, 9, 5, 7, 1, 3, 8, 7, 2, 3, 1, 1, 1, 0, 1, 1, 0, 1], [-0.009801577776670456, -0.00938631035387516, -0.00897104199975729, -0.008555774576961994, -0.008140506222844124, -0.007725238800048828, -0.007309970911592245, -0.006894703023135662, -0.006479435600340366, -0.006064167711883783, -0.0056488998234272, -0.005233631934970617, -0.004818364046514034, -0.0044030966237187386, -0.0039878287352621555, -0.0035725608468055725, -0.0031572929583489895, -0.00274202530272305, -0.002326757414266467, -0.001911489642225206, -0.0014962218701839447, -0.0010809540981426835, -0.0006656862678937614, -0.0002504184958525002, 0.00016484930529259145, 0.0005801171064376831, 0.0009953848784789443, 0.0014106526505202055, 0.0018259205389767885, 0.002241188194602728, 0.002656456083059311, 0.003071723971515894, 0.0034869916271418333, 0.0039022595155984163, 0.004317527171224356, 0.004732795059680939, 0.005148062948137522, 0.005563330836594105, 0.0059785982593894005, 0.0063938661478459835, 0.0068091340363025665, 0.0072244019247591496, 0.007639669813215733, 0.008054937236011028, 0.008470205590128899, 0.008885473012924194, 0.00930074043571949, 0.00971600878983736, 0.010131276212632656, 0.010546544566750526, 0.010961811989545822, 0.011377079412341118, 0.011792347766458988, 0.012207615189254284, 0.012622883543372154, 0.01303815096616745, 0.013453418388962746, 0.013868686743080616, 0.014283954165875912, 0.014699222519993782, 0.015114489942789078, 0.015529757365584373, 0.01594502478837967, 0.016360294073820114, 0.01677556149661541, 0.017190828919410706, 0.017606096342206, 0.018021363765001297, 0.018436633050441742, 0.018851900473237038, 0.019267167896032333, 0.01968243531882763, 0.020097702741622925, 0.02051297202706337, 0.020928239449858665, 0.02134350687265396, 0.021758774295449257, 0.022174041718244553, 0.022589311003684998, 0.023004578426480293, 0.02341984584927559, 0.023835113272070885, 0.02425038069486618, 0.024665649980306625, 0.02508091740310192, 0.025496184825897217, 0.025911452248692513, 0.026326719671487808, 0.026741988956928253, 0.02715725637972355, 0.027572523802518845, 0.02798779122531414, 0.028403058648109436, 0.02881832793354988, 0.029233595356345177, 0.029648862779140472, 0.030064130201935768, 0.030479397624731064, 0.03089466691017151, 0.031309932470321655, 0.0317252017557621]]}}, "shape": [64, 32, 3, 3]}, "conv2.bias": {"id": "conv2.bias", "data_group_type": "PARAM", "type": "Parameter", "value": {"tensor": [-0.03496985137462616, 0.05973265320062637, -0.0042440989054739475, 0.004414040129631758, -0.004367596935480833, -0.00662124902009964, 0.03089519962668419, 0.011038798838853836, -0.02120175026357174, 0.009636273607611656, 0.005133474245667458, -0.0351342111825943, 0.02787114679813385, 0.04282378777861595, -0.020611897110939026, -0.044827766716480255, 0.0033831284381449223, -0.04730352759361267, 0.05905711650848389, -0.04450277239084244, 0.050315987318754196, -0.025763491168618202, -0.0011390602448955178, -0.0006601013010367751, 0.04537736624479294, 0.03745100647211075, -0.050206538289785385, -0.03677064925432205, 0.05932288616895676, 0.07002784311771393, 0.009471680037677288, -0.022512521594762802, 0.008067604154348373, 0.053530894219875336, -0.0438665971159935, -0.03450461104512215, 0.005765508394688368, 0.030280079692602158, 0.03558720648288727, -0.01916554570198059, -0.019421491771936417, 0.05901625379920006, -0.03988753259181976, -0.02160048857331276, 0.0463249571621418, 0.03930479288101196, -0.025702327489852905, 0.010962029919028282, -0.027425352483987808, -0.010217602364718914, 0.04762322083115578, -0.04035382345318794, 0.02014778181910515, -0.033498700708150864, 0.009782256558537483, 0.0545506626367569, 0.0611412338912487, 0.054633159190416336, -0.03391428291797638, -0.014585263095796108, -0.007084468845278025, 0.043026067316532135, 0.02480386570096016, 0.05172114074230194], "grad": [0.0017941006226465106, 0.0011864175321534276, -0.0003843178856186569, 0.0009043490863405168, 0.0033280288334935904, -0.003267088672146201, -0.0016656860243529081, 0.004130730405449867, -0.0018561366014182568, 0.002284353133291006, -0.0014779985649511218, 0.002350244903936982, 0.004215429536998272, 0.002969409804791212, 0.0038669246714562178, -0.0016659393440932035, 0.0015522950561717153, -0.003229125402867794, 0.0021590122487396, -0.0005953738000243902, -0.0023367430549114943, 0.004044870380312204, 0.0038363421335816383, 0.0012578580062836409, 0.00165530014783144, 0.0037054247222840786, -0.0004794784472323954, -0.0027093510143458843, 0.002661230741068721, -0.0011046082945540547, 0.0012853805674239993, 0.0004156647191848606, -0.0010915937600657344, -0.000675701186992228, -0.0018226796528324485, 0.00027119991136714816, 0.002676722127944231, -0.0025517067406326532, -0.0020823581144213676, -0.0014746780507266521, -7.385967910522595e-05, 0.004171923268586397, -0.002040986903011799, -0.0027497282717376947, 0.0008505336591042578, -7.153351907618344e-05, -0.0023384743835777044, 0.00011783868103520945, 0.0031141124200075865, -0.002529157791286707, 0.0050140973180532455, -0.0017907869769260287, 0.0027596927247941494, 0.005146302282810211, -0.0007832888513803482, 0.0009675181354396045, -3.196633770130575e-05, -0.0014931035693734884, 0.003773539559915662, 0.002075233031064272, -0.005113524384796619, 0.0015168883837759495, 0.0022719285916537046, -0.002941778628155589], "first_delta": [0.006844993680715561, 0.004019107669591904, 0.0016297809779644012, 0.0019543711096048355, 0.003248050808906555, 0.005152108147740364, 0.014840846881270409, 0.003268570639193058, 0.007105570286512375, 0.007166018709540367, 0.0030145624186843634, 0.005408760160207748, 0.003106171265244484, 0.00813925638794899, 0.0018223151564598083, 0.00932421162724495, 0.0029994305223226547, 0.011056948453187943, 0.0026384107768535614, 0.005947314202785492, 0.007753092795610428, 0.002948066219687462, 0.001896327710710466, 0.004446937702596188, 0.006192456930875778, 0.004599098116159439, 0.003323610872030258, 0.006678085774183273, 0.004507012665271759, 0.013863760977983475, 0.01097103301435709, 0.00496271438896656, 0.0038714990951120853, 0.003209572285413742, 0.006952006369829178, 0.007841769605875015, 0.0033538585994392633, 0.006101205945014954, 0.00923307053744793, 0.0045315977185964584, 0.004871966317296028, 0.0026140622794628143, 0.012250576168298721, 0.01328347623348236, 0.0037309452891349792, 0.008090302348136902, 0.01623448356986046, 0.0044029476121068, 0.0039612650871276855, 0.008888744749128819, 0.0050690509378910065, 0.010415792465209961, 0.00239664688706398, 0.0012735873460769653, 0.00574581790715456, 0.00586608424782753, 0.005909137427806854, 0.009558852761983871, 0.0057448409497737885, 0.0048586660996079445, 0.008473457768559456, 0.006755232810974121, 0.002120986580848694, 0.015454620122909546], "tensor__stats": {"min": -0.050206538289785385, "max": 0.07002784311771393, "mean": 0.006408686749637127, "variance": 0.0012556319124996662, "nobs": 64, "histogram_bins": 8, "histogram": [[8, 12, 6, 12, 4, 6, 10, 6], [-0.050206538289785385, -0.03517724201083183, -0.020147942006587982, -0.005118645261973143, 0.009910652413964272, 0.024939950555562973, 0.039969246834516525, 0.054998546838760376, 0.07002784311771393]]}, "grad__stats": {"min": -0.005113524384796619, "max": 0.005146302282810211, "mean": 0.0004984709667041898, "variance": 6.124098945292644e-06, "nobs": 64, "histogram_bins": 8, "histogram": [[1, 6, 13, 10, 9, 9, 9, 7], [-0.005113524384796619, -0.0038310461677610874, -0.0025485677178949118, -0.001266089384444058, 1.6388949006795883e-05, 0.0012988672824576497, 0.0025813456159085035, 0.003863824065774679, 0.005146302282810211]]}, "first_delta__stats": {"min": 0.0012735873460769653, "max": 0.01623448356986046, "mean": 0.006154610775411129, "variance": 1.2922649148094933e-05, "nobs": 64, "histogram_bins": 8, "histogram": [[13, 17, 13, 8, 5, 3, 2, 3], [0.0012735873460769653, 0.003143699374049902, 0.005013811402022839, 0.006883923429995775, 0.008754035457968712, 0.010624147951602936, 0.012494259513914585, 0.014364371076226234, 0.01623448356986046]]}}, "shape": [64]}, "fc1.weight": {"id": "fc1.weight", "data_group_type": "PARAM", "type": "Parameter", "value": {"tensor": "NOT SERIALIZED, Too large 1179648", "grad": "NOT SERIALIZED, Too large 1179648", "first_delta": "NOT SERIALIZED, Too large 1179648", "tensor__stats": {"min": -0.0173054039478302, "max": 0.018387801945209503, "mean": 0.00023818647605367005, "variance": 3.767739326576702e-05, "nobs": 1179648, "histogram_bins": 100, "histogram": [[1, 0, 2, 2, 9, 9, 33, 37, 65, 128, 184, 268, 427, 618, 906, 1404, 2130, 3171, 5107, 10036, 13161, 15154, 16413, 17719, 18279, 18961, 19222, 19760, 19966, 19791, 19887, 20200, 20334, 20215, 20265, 20467, 20040, 20208, 20387, 20381, 20100, 20248, 20350, 20329, 20114, 20150, 19896, 20348, 20215, 20302, 20171, 20332, 20185, 20004, 20211, 20010, 19823, 20381, 20346, 20061, 20367, 20083, 20517, 20299, 20207, 19950, 20026, 20088, 20041, 19956, 19938, 19691, 19400, 18694, 18420, 17307, 16116, 12175, 7838, 5654, 4267, 2933, 2073, 1427, 1052, 773, 504, 323, 223, 146, 90, 58, 41, 22, 11, 7, 3, 3, 1, 1], [-0.0173054039478302, -0.01694847270846367, -0.016591539606451988, -0.016234608367085457, -0.015877675265073776, -0.015520744025707245, -0.015163811855018139, -0.014806879684329033, -0.014449947513639927, -0.014093015342950821, -0.013736083172261715, -0.013379151001572609, -0.013022218830883503, -0.012665287591516972, -0.012308355420827866, -0.01195142325013876, -0.011594491079449654, -0.011237558908760548, -0.010880626738071442, -0.010523694567382336, -0.01016676239669323, -0.009809831157326698, -0.009452898986637592, -0.009095966815948486, -0.00873903464525938, -0.008382102474570274, -0.008025170303881168, -0.007668238133192062, -0.007311306428164244, -0.006954374257475138, -0.006597442086786032, -0.006240509916096926, -0.005883578211069107, -0.005526646040380001, -0.005169713869690895, -0.004812781699001789, -0.00445584999397397, -0.004098917823284864, -0.0037419856525957584, -0.003385053714737296, -0.00302812154404819, -0.002671189606189728, -0.002314257435500622, -0.0019573254976421595, -0.0016003933269530535, -0.0012434612726792693, -0.0008865292184054852, -0.000529597164131701, -0.00017266512440983206, 0.00018426694441586733, 0.0005411989986896515, 0.0008981310529634356, 0.0012550631072372198, 0.001611995161511004, 0.001968927215784788, 0.002325859386473894, 0.0026827913243323565, 0.0030397234950214624, 0.0033966554328799248, 0.0037535876035690308, 0.004110519774258137, 0.004467451479285955, 0.004824383649975061, 0.005181315820664167, 0.005538247991353273, 0.005895179696381092, 0.006252111867070198, 0.006609044037759304, 0.00696597620844841, 0.007322907913476229, 0.007679840084165335, 0.008036771789193153, 0.00839370395988226, 0.008750636130571365, 0.009107568301260471, 0.009464500471949577, 0.009821432642638683, 0.01017836481332779, 0.010535296984016895, 0.010892229154706001, 0.011249160394072533, 0.011606092564761639, 0.011963024735450745, 0.01231995690613985, 0.012676889076828957, 0.013033821247518063, 0.013390753418207169, 0.013747685588896275, 0.014104616828262806, 0.014461548998951912, 0.014818481169641018, 0.015175413340330124, 0.01553234551101923, 0.015889277681708336, 0.016246208921074867, 0.016603142023086548, 0.01696007326245308, 0.01731700636446476, 0.01767393760383129, 0.018030870705842972, 0.018387801945209503]]}, "grad__stats": {"min": -0.027302678674459457, "max": 0.02870006673038006, "mean": 5.610808511846699e-05, "variance": 3.849620497931028e-06, "nobs": 1179648, "histogram_bins": 100, "histogram": [[2, 5, 3, 7, 10, 6, 9, 10, 10, 18, 9, 17, 26, 17, 20, 30, 33, 51, 44, 55, 77, 124, 114, 163, 222, 223, 277, 322, 421, 442, 586, 788, 909, 1116, 1253, 1542, 1916, 2375, 2934, 3574, 4173, 4989, 6453, 8040, 10664, 16043, 31407, 89188, 676152, 165779, 57136, 24231, 13037, 9243, 7044, 5522, 4437, 3652, 3096, 2644, 2205, 1984, 1679, 1493, 1299, 1149, 951, 878, 728, 619, 559, 523, 437, 366, 346, 274, 259, 212, 159, 131, 104, 122, 91, 67, 61, 54, 63, 27, 28, 19, 13, 12, 9, 11, 4, 10, 5, 3, 2, 2], [-0.027302678674459457, -0.02674265205860138, -0.026182623580098152, -0.025622596964240074, -0.025062568485736847, -0.02450254186987877, -0.02394251339137554, -0.023382486775517464, -0.022822458297014236, -0.02226243168115616, -0.02170240506529808, -0.021142376586794853, -0.020582349970936775, -0.020022321492433548, -0.01946229487657547, -0.018902266398072243, -0.018342239782214165, -0.017782211303710938, -0.01722218468785286, -0.016662156209349632, -0.016102129593491554, -0.015542102046310902, -0.014982074499130249, -0.014422046951949596, -0.013862019404768944, -0.013301992788910866, -0.012741965241730213, -0.01218193769454956, -0.011621910147368908, -0.011061882600188255, -0.010501855053007603, -0.00994182750582695, -0.009381799958646297, -0.008821772411465645, -0.008261744864284992, -0.007701717782765627, -0.007141690235584974, -0.006581662688404322, -0.006021635606884956, -0.005461608059704304, -0.004901580512523651, -0.0043415529653429985, -0.0037815256509929895, -0.003221498103812337, -0.002661470789462328, -0.0021014432422816753, -0.0015414158115163445, -0.0009813883807510138, -0.00042136089177802205, 0.0001386665680911392, 0.0006986940279603004, 0.0012587214587256312, 0.001818748889490962, 0.0023787764366716146, 0.0029388037510216236, 0.0034988312982022762, 0.004058858845382929, 0.0046188863925635815, 0.005178913474082947, 0.005738941021263599, 0.006298968568444252, 0.006858996115624905, 0.007419023662805557, 0.00797905120998621, 0.008539078757166862, 0.00909910537302494, 0.009659132920205593, 0.010219160467386246, 0.010779188014566898, 0.011339215561747551, 0.011899243108928204, 0.012459270656108856, 0.013019298203289509, 0.013579325750470161, 0.014139353297650814, 0.014699380844831467, 0.015259407460689545, 0.015819435939192772, 0.01637946255505085, 0.016939491033554077, 0.017499517649412155, 0.018059544265270233, 0.01861957274377346, 0.01917959935963154, 0.019739627838134766, 0.020299654453992844, 0.02085968293249607, 0.02141970954835415, 0.021979738026857376, 0.022539764642715454, 0.023099791258573532, 0.02365981973707676, 0.024219846352934837, 0.024779874831438065, 0.025339901447296143, 0.02589992992579937, 0.026459956541657448, 0.027019985020160675, 0.027580011636018753, 0.02814004011452198, 0.02870006673038006]]}, "first_delta__stats": {"min": -0.009545319713652134, "max": 0.009488026611506939, "mean": 0.00024032036890275776, "variance": 1.5048865407152334e-06, "nobs": 1179648, "histogram_bins": 100, "histogram": [[1, 1, 0, 2, 0, 1, 0, 1, 2, 2, 4, 5, 10, 13, 17, 28, 24, 20, 35, 44, 65, 81, 164, 208, 271, 386, 456, 593, 763, 964, 1246, 1475, 1954, 2287, 2803, 3455, 4517, 5373, 6899, 8656, 10441, 12864, 15875, 19366, 23982, 29755, 37449, 49513, 75992, 172724, 172545, 81988, 68455, 58086, 50178, 42534, 35433, 30200, 25093, 21175, 17864, 14606, 12357, 10295, 8476, 7159, 5987, 4929, 4040, 3318, 2846, 2257, 1849, 1430, 1227, 995, 785, 633, 464, 377, 295, 246, 175, 175, 120, 82, 62, 40, 31, 12, 19, 5, 7, 2, 2, 2, 2, 1, 1, 1], [-0.009545319713652134, -0.009354986250400543, -0.009164652787148952, -0.008974319323897362, -0.008783985860645771, -0.00859365239739418, -0.00840331893414259, -0.008212985470890999, -0.008022652007639408, -0.007832318544387817, -0.007641985081136227, -0.007451651617884636, -0.007261318154633045, -0.0070709846913814545, -0.006880651228129864, -0.006690317764878273, -0.006499984301626682, -0.0063096508383750916, -0.006119317375123501, -0.00592898391187191, -0.005738650448620319, -0.005548316985368729, -0.005357983522117138, -0.005167650058865547, -0.0049773165956139565, -0.004786983132362366, -0.004596649669110775, -0.004406316205859184, -0.0042159827426075935, -0.004025649279356003, -0.003835315816104412, -0.0036449823528528214, -0.0034546488896012306, -0.00326431542634964, -0.003073981963098049, -0.0028836484998464584, -0.0026933150365948677, -0.002502981573343277, -0.0023126481100916862, -0.0021223146468400955, -0.0019319811835885048, -0.001741647720336914, -0.0015513142570853233, -0.0013609807938337326, -0.0011706473305821419, -0.0009803138673305511, -0.0007899804040789604, -0.0005996469408273697, -0.00040931347757577896, -0.00021898001432418823, -2.8646551072597504e-05, 0.00016168691217899323, 0.00035202037543058395, 0.0005423538386821747, 0.0007326873019337654, 0.0009230207651853561, 0.0011133542284369469, 0.0013036876916885376, 0.0014940211549401283, 0.001684354618191719, 0.0018746880814433098, 0.0020650215446949005, 0.0022553550079464912, 0.002445688471198082, 0.0026360219344496727, 0.0028263553977012634, 0.003016688860952854, 0.003207022324204445, 0.0033973557874560356, 0.0035876892507076263, 0.003778022713959217, 0.003968356177210808, 0.0041586896404623985, 0.004349023103713989, 0.00453935656696558, 0.004729690030217171, 0.0049200234934687614, 0.005110356956720352, 0.005300690419971943, 0.005491023883223534, 0.005681357346475124, 0.005871690809726715, 0.006062024272978306, 0.0062523577362298965, 0.006442691199481487, 0.006633024662733078, 0.006823358125984669, 0.0070136915892362595, 0.00720402505248785, 0.007394358515739441, 0.007584691978991032, 0.007775025442242622, 0.007965358905494213, 0.008155692368745804, 0.008346025831997395, 0.008536359295248985, 0.008726692758500576, 0.008917026221752167, 0.009107359685003757, 0.009297693148255348, 0.009488026611506939]]}}, "shape": [128, 9216]}, "fc1.bias": {"id": "fc1.bias", "data_group_type": "PARAM", "type": "Parameter", "value": {"tensor": [-0.005472367629408836, 0.010534075088799, -0.0028036709409207106, -0.0019624591805040836, -2.397983189439401e-05, 0.004744215402752161, 0.00021570941316895187, -0.005353414919227362, 0.0006500909221358597, 0.0010967504931613803, 0.005967727396637201, 0.003947264514863491, 0.009599506855010986, 0.0077596502378582954, -0.0012140333419665694, -0.004107446409761906, 0.007918997667729855, 0.008293431252241135, -0.005960127804428339, -0.0025333038065582514, -0.009503350593149662, 0.002931690774857998, 0.0025418223813176155, -0.0015742109389975667, 0.0035282722674310207, -0.0017291393596678972, -0.005310640670359135, -0.009158005006611347, 0.007785589434206486, 0.0008644434274174273, -0.009304028935730457, 0.011959666386246681, 0.0002624625922180712, -0.00414931308478117, 0.0023847203701734543, -0.009961357340216637, 5.088993566459976e-05, -0.0012788977473974228, -0.00513951200991869, 0.010856741108000278, 0.0016457954188808799, -0.005690059624612331, -0.007530551869422197, 0.008658912032842636, -0.004793817177414894, -0.0035118332598358393, 0.007757788524031639, 0.010148313827812672, 0.004334933124482632, -0.0010051875142380595, 0.003966865595430136, 0.0017943006241694093, 0.00886004138737917, -0.007370837032794952, 0.0020635491237044334, -0.0005249808309599757, -0.008768385276198387, 0.008430137299001217, 0.0009002733859233558, 0.0004870473640039563, 5.419052831712179e-05, 0.0016077766194939613, -0.004977675154805183, 0.004733515437692404, 0.0062648821622133255, -0.008513404056429863, 0.00798708200454712, 0.010089063085615635, -0.005457197781652212, 0.008053088560700417, 0.006643503904342651, 0.007321361918002367, 0.0030827969312667847, -0.00868417788296938, 0.006706386338919401, 0.007793183904141188, -0.00046676394413225353, -0.007351273205131292, -0.00043381546856835485, -0.007542955223470926, 0.0031486854422837496, -0.003914711065590382, 0.004928793758153915, 7.336577982641757e-05, -0.007598636671900749, -0.006286523304879665, 0.00975857861340046, 0.0018834631191566586, 0.002720327116549015, 0.005002938210964203, 0.002064916305243969, 0.003277679206803441, -0.0065008969977498055, 0.007248060777783394, -0.003533572657033801, 0.0019157230854034424, -0.0015664570964872837, -0.00989814754575491, -0.0012152184499427676, -0.0037076883018016815, -0.002732455264776945, 0.006412085611373186, -0.0059519619680941105, -0.0016229465836659074, -0.0006941180909052491, -0.000723363074939698, -0.00025881879264488816, -0.0023166092578321695, -0.0031264391727745533, -0.005735279526561499, 0.007079469505697489, 0.004704522900283337, -0.008186140097677708, -0.010189943946897984, -0.002846969524398446, 0.010276484303176403, -0.003310347441583872, -0.002516854554414749, -0.010288081131875515, 0.004351015202701092, 0.005495926830917597, 0.004522025119513273, -0.00242604105733335, -0.0075292508117854595, -0.006149046588689089, 0.011297986842691898, -0.0027459210250526667, -0.0030424296855926514], "grad": [0.0020543637219816446, -0.00035399870830588043, 0.0009150425321422517, -0.0053841532208025455, 0.0034577548503875732, -6.035797196091153e-05, -0.0014444049447774887, 4.3260075472062454e-05, -0.0020351558923721313, 0.0, 0.0018015071982517838, -0.0025976288598030806, 0.0, 0.0027135838754475117, -0.0014706415822729468, 0.0005542059661820531, 0.000978016876615584, -0.0016389045631513, -0.0013451434206217527, 0.0014751022681593895, 0.0001649847108637914, 0.0, 0.00039179439772851765, 0.0008831506711430848, -0.00326919206418097, 0.004636915400624275, -0.002277954015880823, -0.0014636022970080376, -0.0011656760470941663, 0.00015714627807028592, 0.00044994920608587563, 0.0003008412604685873, -0.00011004850239260122, 0.0024728227872401476, 0.0031758605036884546, 0.0, -0.0027853306382894516, 0.0032303782645612955, 0.0004585488932207227, 0.0003072945983149111, -0.000338562298566103, -0.0033497160766273737, -0.0023280074819922447, 8.064181020017713e-05, 0.0002778109919745475, -0.0024765410926193, -0.00010480273340363055, -0.002246937481686473, -0.0010597585933282971, -0.001663430710323155, 0.0, -0.0016172463074326515, -0.0025002621114253998, -0.0006569915567524731, -0.0003447357448749244, 0.000673620612360537, -0.00269596790894866, 0.0, -0.0015489317011088133, -0.003198582213371992, -0.0002215634740423411, -0.00034271657932549715, 0.003440283704549074, 0.001302794786170125, 0.0, 0.003649309277534485, 0.004437669645994902, -0.0013363343896344304, 0.0, -0.0002607308269944042, 0.0024717669002711773, -8.0878846347332e-05, 0.0017920855898410082, 0.003786747343838215, 0.00035594296059571207, 0.0002266455121571198, 0.0008039582171477377, -0.00028702407144010067, -0.0014017622452229261, -0.002427160507068038, 6.200531061040238e-05, 0.0012274759355932474, 0.0015082512982189655, 0.003175817197188735, 3.484205808490515e-05, -0.00010459833720233291, -0.00021092593669891357, -0.00011810316209448501, 0.0, 0.0035038955975323915, -0.002884357003495097, 0.000348443107213825, 0.0, -0.0025541316717863083, 0.0, 0.0018200557678937912, -0.001409933902323246, 0.0, 0.00010830436804099008, 0.0009409475023858249, 0.0038155480287969112, -6.719648081343621e-05, 0.0, 0.005056287627667189, 0.0, 0.002040368039160967, -0.0009032147354446352, 0.0029967273585498333, 0.0, -0.003151547396555543, 0.0017620411235839128, 0.00016130295989569277, 0.0, 0.0014954912476241589, 0.0, 0.0023257059510797262, 0.0010141170350834727, -0.0032405955716967583, -0.0005388816352933645, -0.0005871181492693722, -0.0029600828420370817, 0.0013076300965622067, 0.004432522691786289, 0.00041185010923072696, -0.00010867319360841066, 0.00029668162460438907, -1.8303388060303405e-05, -0.0015538526931777596], "first_delta": [-4.356028512120247e-05, 0.002253727987408638, 0.0006940241437405348, -0.00024296820629388094, 0.00012153125862823799, 0.000787992961704731, -0.00048563609016127884, -0.0009011290967464447, 0.002741112606599927, -0.00019884586799889803, -0.000586529728025198, -0.0001540742814540863, -0.0004967935383319855, 0.0006781602278351784, 0.001610733917914331, 0.0008105067536234856, 0.001013096421957016, 0.00027831830084323883, 0.00013993587344884872, 0.002616604557260871, 0.0005001146346330643, -0.0004221969284117222, 0.0003809502813965082, 0.002730332314968109, -0.0007896819151937962, 0.002191227162256837, 0.002378995530307293, -0.0011766375973820686, 0.0008418108336627483, -0.00047345488565042615, 0.0008213436231017113, 0.0016995584592223167, -0.0003051425446756184, -0.0007410934194922447, -0.00033394573256373405, -0.00039354991167783737, 0.0013039447367191315, 0.002109671011567116, 0.0010642250999808311, 0.001088084653019905, 0.0010624360293149948, 0.0016367854550480843, 0.001472878735512495, 0.00116648618131876, 0.00048417411744594574, 0.0016283162403851748, 0.00014322064816951752, 0.0026462869718670845, -0.00028885388746857643, 0.0008709593676030636, -0.0002906098961830139, 0.000688294181600213, 0.000232672318816185, 0.001251179724931717, 0.0006891355151310563, 0.0002288714167661965, 0.00011040084064006805, -0.00033169519156217575, 0.0006527327932417393, 0.00029153170180507004, 0.0007948664133436978, 9.755999781191349e-05, 0.0014880606904625893, 0.0007624155841767788, -8.939672261476517e-05, 0.0007767016068100929, 0.0013310536742210388, 0.0013730870559811592, -0.0004862821660935879, 0.0003896644338965416, 9.05902124941349e-05, -0.000151029322296381, -0.0005523078143596649, 0.0004301350563764572, -0.00019924668595194817, -0.0007841880433261395, -0.0007508285343647003, 0.0021553649567067623, 0.002009478397667408, 0.0007684086449444294, 0.0002518512774258852, 0.0006602844223380089, 0.002091387752443552, 0.0005678061861544847, 0.0012433920055627823, 0.0009159841574728489, -9.523704648017883e-06, 0.001228225533850491, -0.00030073802918195724, 0.0003642188385128975, -0.0003647678531706333, -0.0010580013040453196, -0.00019572116434574127, 0.0008033853955566883, -0.0001186199951916933, 0.0012163022765889764, 0.0015221463982015848, -0.000489591620862484, 0.000496126594953239, 0.000599246472120285, 0.0014532562345266342, 0.0009464076720178127, -0.00043436605483293533, 0.0003838326083496213, -0.0005499282269738615, 0.002494401065632701, -0.0010938127525150776, 0.0017439734656363726, -0.00018856837414205074, 0.00027173757553100586, 0.0007951566949486732, -0.00014999881386756897, -0.0001756381243467331, -0.00047047901898622513, -8.673802949488163e-05, 0.0011631026864051819, -0.00033256877213716507, -0.0008739132899791002, 2.9406510293483734e-05, 0.0011762706562876701, 0.0017267288640141487, 0.0003773537464439869, 0.002173003973439336, 0.0007317014969885349, 0.0012362422421574593, 0.0009652692824602127, 4.992191679775715e-05, 0.0007053378503769636], "tensor__stats": {"min": -0.010288081131875515, "max": 0.011959666386246681, "mean": 0.0002629962400533259, "variance": 3.423551970627159e-05, "nobs": 128, "histogram_bins": 11, "histogram": [[10, 9, 12, 17, 15, 14, 12, 11, 12, 9, 7], [-0.010288081131875515, -0.008265558630228043, -0.00624303612858057, -0.004220513626933098, -0.0021979911252856255, -0.00017546862363815308, 0.0018470538780093193, 0.0038695763796567917, 0.005892098881304264, 0.007914621382951736, 0.009937143884599209, 0.011959666386246681]]}, "grad__stats": {"min": -0.0053841532208025455, "max": 0.005056287627667189, "mean": 0.00010520125943003222, "variance": 3.662194558273768e-06, "nobs": 128, "histogram_bins": 11, "histogram": [[1, 0, 11, 10, 13, 49, 15, 11, 5, 9, 4], [-0.0053841532208025455, -0.004435022361576557, -0.003485891269519925, -0.002536760177463293, -0.0015876293182373047, -0.0006384982843883336, 0.00031063269125297666, 0.0012597637251019478, 0.002208894584327936, 0.003158025676384568, 0.0041071567684412, 0.005056287627667189]]}, "first_delta__stats": {"min": -0.0011766375973820686, "max": 0.002741112606599927, "mean": 0.0005500044208019972, "variance": 8.608252528574667e-07, "nobs": 128, "histogram_bins": 11, "histogram": [[5, 13, 21, 14, 15, 21, 14, 9, 4, 7, 5], [-0.0011766375973820686, -0.0008204784826375544, -0.0004643193678930402, -0.00010816026770044118, 0.0002479988324921578, 0.0006041579763405025, 0.0009603170328773558, 0.00131647614762187, 0.0016726353205740452, 0.0020287944935262203, 0.002384953433647752, 0.002741112606599927]]}}, "shape": [128]}, "fc2.weight": {"id": "fc2.weight", "data_group_type": "PARAM", "type": "Parameter", "value": {"tensor": "NOT SERIALIZED, Too large 1280", "grad": "NOT SERIALIZED, Too large 1280", "first_delta": "NOT SERIALIZED, Too large 1280", "tensor__stats": {"min": -0.10487132519483566, "max": 0.09274431318044662, "mean": -0.0022727882023900747, "variance": 0.00292556663043797, "nobs": 1280, "histogram_bins": 35, "histogram": [[5, 18, 25, 45, 40, 37, 39, 36, 31, 44, 40, 37, 47, 42, 32, 32, 41, 47, 47, 30, 33, 37, 41, 39, 28, 39, 50, 40, 27, 42, 41, 46, 38, 42, 22], [-0.10487132519483566, -0.09922516345977783, -0.09357900172472, -0.08793283998966217, -0.08228667825460434, -0.07664051651954651, -0.07099436223506927, -0.06534820050001144, -0.059702035039663315, -0.05405587702989578, -0.04840971529483795, -0.04276355355978012, -0.03711739182472229, -0.03147123008966446, -0.025825070217251778, -0.020178908482193947, -0.01453274767845869, -0.008886586874723434, -0.0032404253724962473, 0.0024057356640696526, 0.008051896467804909, 0.01369805820286274, 0.01934421807527542, 0.024990379810333252, 0.030636541545391083, 0.036282703280448914, 0.041928865015506744, 0.04757502302527428, 0.05322118476033211, 0.05886734649538994, 0.06451350450515747, 0.0701596662402153, 0.07580582797527313, 0.08145198971033096, 0.0870981514453888, 0.09274431318044662]]}, "grad__stats": {"min": -0.3216015100479126, "max": 0.22048109769821167, "mean": -2.9802322831784522e-09, "variance": 0.0018569064559414983, "nobs": 1280, "histogram_bins": 35, "histogram": [[1, 1, 1, 1, 2, 3, 2, 1, 3, 6, 2, 5, 3, 7, 2, 8, 10, 14, 20, 79, 608, 347, 77, 29, 9, 8, 6, 4, 7, 3, 2, 4, 2, 1, 2], [-0.3216015100479126, -0.30611342191696167, -0.29062536358833313, -0.2751372754573822, -0.25964921712875366, -0.24416114389896393, -0.228673055768013, -0.21318498253822327, -0.19769690930843353, -0.1822088360786438, -0.16672076284885406, -0.15123268961906433, -0.1357446163892746, -0.12025654315948486, -0.10476846992969513, -0.0892803892493248, -0.07379231601953506, -0.05830424278974533, -0.0428161695599556, -0.027328094467520714, -0.011840020306408405, 0.003648054553195834, 0.019136128947138786, 0.03462420403957367, 0.0501122772693634, 0.06560035049915314, 0.08108842372894287, 0.0965765044093132, 0.11206457763910294, 0.12755264341831207, 0.143040731549263, 0.15852880477905273, 0.17401687800884247, 0.1895049512386322, 0.20499302446842194, 0.22048109769821167]]}, "first_delta__stats": {"min": -0.026773642748594284, "max": 0.008151061832904816, "mean": -0.0018765886779874563, "variance": 2.1008771000197157e-05, "nobs": 1280, "histogram_bins": 35, "histogram": [[2, 0, 0, 0, 1, 0, 3, 2, 5, 3, 1, 5, 5, 15, 19, 11, 18, 20, 31, 35, 31, 46, 57, 68, 106, 106, 292, 119, 102, 80, 49, 32, 10, 3, 3], [-0.026773642748594284, -0.025775793939828873, -0.02477794513106346, -0.02378009632229805, -0.02278224751353264, -0.021784398704767227, -0.020786549896001816, -0.019788701087236404, -0.018790852278470993, -0.01779300533235073, -0.01679515652358532, -0.015797307714819908, -0.014799457974731922, -0.01380160916596651, -0.012803761288523674, -0.011805912479758263, -0.010808063670992851, -0.00981021486222744, -0.008812366053462029, -0.007814517244696617, -0.006816668901592493, -0.005818820092827082, -0.00482097128406167, -0.0038231227081269026, -0.002825273899361491, -0.0018274252070114017, -0.0008295765146613121, 0.00016827222134452313, 0.001166120870038867, 0.0021639696788042784, 0.003161818254739046, 0.0041596670635044575, 0.005157515872269869, 0.006155364215373993, 0.007153213024139404, 0.008151061832904816]]}}, "shape": [10, 128]}, "fc2.bias": {"id": "fc2.bias", "data_group_type": "PARAM", "type": "Parameter", "value": {"tensor": [0.048796944320201874, 0.04066164046525955, -0.02360669896006584, 0.024223797023296356, 0.05679555609822273, 0.035819653421640396, -0.046003203839063644, 0.02304030768573284, -0.0810389444231987, 0.027721982449293137], "grad": [-0.0010950941359624267, -0.006508748512715101, 0.004329679533839226, 0.0020550237968564034, 0.025138409808278084, 0.0029933834448456764, 0.0006173719302751124, 0.005076384637504816, 0.004011494107544422, -0.03661792352795601], "first_delta": [-0.0020597167313098907, 0.0006471499800682068, -6.403960287570953e-05, -0.001109166070818901, -0.0011850632727146149, 0.00042564794421195984, -0.002086471766233444, 0.0016712769865989685, -0.0020031332969665527, -6.773136556148529e-05], "tensor__stats": {"min": -0.0810389444231987, "max": 0.05679555609822273, "mean": 0.01064110267907381, "variance": 0.0020597779657691717, "nobs": 10, "histogram_bins": 5, "histogram": [[1, 1, 1, 3, 4], [-0.0810389444231987, -0.05347204580903053, -0.025905143469572067, 0.0016617558430880308, 0.029228655621409416, 0.05679555609822273]]}, "grad__stats": {"min": -0.03661792352795601, "max": 0.025138409808278084, "mean": -1.862645149230957e-09, "variance": 0.00023228302597999573, "nobs": 10, "histogram_bins": 5, "histogram": [[1, 0, 2, 6, 1], [-0.03661792352795601, -0.02426665648818016, -0.011915390379726887, 0.0004358764854259789, 0.012787142768502235, 0.025138409808278084]]}, "first_delta__stats": {"min": -0.002086471766233444, "max": 0.0016712769865989685, "mean": -0.000583124696277082, "variance": 1.693828494353511e-06, "nobs": 10, "histogram_bins": 5, "histogram": [[3, 2, 2, 2, 1], [-0.002086471766233444, -0.001334922038950026, -0.0005833722534589469, 0.00016817748837638646, 0.0009197272593155503, 0.0016712769865989685]]}}, "shape": [10]}, "input.1": {"id": "input.1", "data_group_type": "INPUT", "type": "Tensor", "value": {"tensor": "NOT SERIALIZED, Too large 7840", "tensor__stats": {"min": -0.4242129623889923, "max": 2.821486711502075, "mean": 0.02414720505475998, "variance": 1.0644348859786987, "nobs": 7840, "histogram_bins": 88, "histogram": [[6333, 10, 17, 17, 11, 8, 11, 9, 11, 11, 11, 3, 8, 6, 11, 8, 20, 8, 7, 18, 5, 8, 19, 6, 12, 12, 11, 11, 17, 11, 3, 3, 5, 8, 10, 9, 3, 2, 6, 12, 13, 5, 2, 6, 30, 5, 11, 7, 6, 8, 1, 7, 19, 8, 5, 5, 2, 16, 9, 6, 11, 7, 7, 4, 9, 29, 13, 31, 5, 8, 2, 6, 4, 11, 9, 6, 12, 17, 4, 8, 21, 6, 10, 9, 14, 14, 202, 479], [-0.4242129623889923, -0.387330025434494, -0.35044705867767334, -0.31356412172317505, -0.27668115496635437, -0.23979820311069489, -0.2029152512550354, -0.16603229939937592, -0.12914936244487762, -0.09226640313863754, -0.055383455008268356, -0.01850050315260887, 0.018382446840405464, 0.0552653968334198, 0.09214834868907928, 0.12903130054473877, 0.16591425240039825, 0.20279720425605774, 0.23968015611171722, 0.2765631079673767, 0.313446044921875, 0.3503290116786957, 0.38721194863319397, 0.42409491539001465, 0.46097785234451294, 0.4978608191013336, 0.5347437858581543, 0.5716267228126526, 0.6085096597671509, 0.6453925967216492, 0.6822755336761475, 0.7191585302352905, 0.7560414671897888, 0.7929244041442871, 0.8298073410987854, 0.8666903376579285, 0.9035732746124268, 0.940456211566925, 0.9773391485214233, 1.0142221450805664, 1.05110502243042, 1.087988018989563, 1.124871015548706, 1.1617538928985596, 1.1986368894577026, 1.2355197668075562, 1.2724027633666992, 1.3092857599258423, 1.3461686372756958, 1.3830516338348389, 1.419934630393982, 1.4568175077438354, 1.4937005043029785, 1.530583381652832, 1.567466378211975, 1.6043493747711182, 1.6412322521209717, 1.6781152486801147, 1.7149982452392578, 1.7518811225891113, 1.7887641191482544, 1.825646996498108, 1.862529993057251, 1.899412989616394, 1.9362958669662476, 1.9731788635253906, 2.010061740875244, 2.0469448566436768, 2.0838277339935303, 2.120710611343384, 2.1575934886932373, 2.19447660446167, 2.2313594818115234, 2.268242359161377, 2.3051254749298096, 2.342008352279663, 2.3788912296295166, 2.415774345397949, 2.4526572227478027, 2.4895401000976562, 2.526423215866089, 2.5633060932159424, 2.600188970565796, 2.6370718479156494, 2.673954963684082, 2.7108378410339355, 2.747720718383789, 2.7846038341522217, 2.821486711502075]]}}, "shape": [10, 1, 28, 28]}, "output.1": {"id": "output.1", "data_group_type": "OUTPUT", "type": "Tensor", "value": {"tensor": [[-10.323833465576172, -11.429347038269043, -10.398175239562988, -0.0005646541831083596, -13.35621452331543, -7.752665042877197, -14.651996612548828, -11.047834396362305, -10.42453670501709, -11.253726959228516], [-6.771779537200928, -4.0992631912231445, -4.994131088256836, -5.747251510620117, -10.541228294372559, -7.850218296051025, -9.09523868560791, -10.69493579864502, -0.02891726978123188, -8.28439712524414], [-12.474879264831543, -11.611395835876465, -11.773252487182617, -7.529441833496094, -10.360041618347168, -12.252328872680664, -16.200777053833008, -0.0035841530188918114, -8.853897094726562, -5.863707065582275], [-6.701771259307861, -6.828580379486084, -11.796642303466797, -5.84791898727417, -1.6738334894180298, -2.9268712997436523, -7.775618076324463, -4.136871814727783, -5.30942964553833, -0.3114734888076782], [-7.567211151123047, -11.897069931030273, -9.052591323852539, -6.582434177398682, -2.7762744426727295, -6.543734073638916, -8.735082626342773, -3.3218026161193848, -6.076770782470703, -0.1101263090968132], [-0.020665334537625313, -15.436038970947266, -10.093676567077637, -7.404798984527588, -10.587020874023438, -5.583076477050781, -10.807766914367676, -13.211987495422363, -4.1392340660095215, -9.71956729888916], [-7.760700225830078, -0.027616208419203758, -6.134406089782715, -5.742991924285889, -8.985214233398438, -6.077304840087891, -5.712954044342041, -7.974036693572998, -4.22536039352417, -7.191234111785889], [-8.68502426147461, -0.05714743211865425, -3.401902914047241, -5.583126068115234, -6.777523994445801, -8.058195114135742, -6.179633140563965, -6.26993465423584, -4.453701496124268, -6.683789253234863], [-5.120382308959961, -13.786914825439453, -6.642265796661377, -5.212466716766357, -8.344128608703613, -0.032797981053590775, -9.470703125, -12.41910457611084, -3.9814891815185547, -7.483630180358887], [-12.17541217803955, -13.987076759338379, -0.0004659997357521206, -9.279656410217285, -15.651263236999512, -14.5772066116333, -11.629846572875977, -18.95922088623047, -7.93803596496582, -15.4041109085083]], "tensor__stats": {"min": -18.95922088623047, "max": -0.0004659997357521206, "mean": -7.767235279083252, "variance": 17.81280517578125, "nobs": 100, "histogram_bins": 10, "histogram": [[1, 4, 5, 11, 12, 17, 23, 12, 4, 11], [-18.95922088623047, -17.063344955444336, -15.16746997833252, -13.271594047546387, -11.37571907043457, -9.479843139648438, -7.583968162536621, -5.688092231750488, -3.7922170162200928, -1.8963414430618286, -0.0004659997357521206]]}}, "shape": [10, 10]}}, "graph": {"nodes": [{"data": {"id": "input.1", "label": "INPUT", "component_ids": ["input.1"]}}, {"data": {"id": 9, "label": "Conv", "component_ids": ["conv1.weight", "conv1.bias"]}}, {"data": {"id": 10, "label": "Relu", "component_ids": []}}, {"data": {"id": 11, "label": "Conv", "component_ids": ["conv2.weight", "conv2.bias"]}}, {"data": {"id": 12, "label": "Relu", "component_ids": []}}, {"data": {"id": 13, "label": "MaxPool", "component_ids": []}}, {"data": {"id": 14, "label": "Flatten", "component_ids": []}}, {"data": {"id": 15, "label": "Gemm", "component_ids": ["fc1.weight", "fc1.bias"]}}, {"data": {"id": 16, "label": "Relu", "component_ids": []}}, {"data": {"id": 17, "label": "Gemm", "component_ids": ["fc2.weight", "fc2.bias"]}}, {"data": {"id": 18, "label": "LogSoftmax", "component_ids": []}}, {"data": {"id": "output.1", "label": "OUTPUT", "component_ids": ["output.1"]}}], "edges": [{"data": {"id": "input.1_9", "source": "input.1", "target": 9}}, {"data": {"id": "9_10", "source": 9, "target": 10}}, {"data": {"id": "10_11", "source": 10, "target": 11}}, {"data": {"id": "11_12", "source": 11, "target": 12}}, {"data": {"id": "12_13", "source": 12, "target": 13}}, {"data": {"id": "13_14", "source": 13, "target": 14}}, {"data": {"id": "14_15", "source": 14, "target": 15}}, {"data": {"id": "15_16", "source": 15, "target": 16}}, {"data": {"id": "16_17", "source": 16, "target": 17}}, {"data": {"id": "17_18", "source": 17, "target": 18}}, {"data": {"id": "18_output.1", "source": "18", "target": "output.1"}}]}}