{"id": "0_500", "meta": {"time": 1638574436.2825136, "refresh_model_graph": false}, "step_info": {"epoch": 0, "iter": 500}, "additional_info": {"pred": {"type": "Tensor", "value": [[7], [3], [9], [6], [1], [8], [1], [0], [9], [8]]}, "loss": {"type": "Tensor", "value": 0.2186385691165924}, "class_label": {"type": "Tensor", "value": [7, 3, 4, 6, 1, 8, 1, 0, 9, 8]}, "test_acc": {"type": "float", "value": 88.1}}, "graph_id": [0, 0], "data": {"conv1.weight": {"id": "conv1.weight", "data_group_type": "PARAM", "type": "Parameter", "value": {"tensor": "NOT SERIALIZED, Too large 288", "grad": "NOT SERIALIZED, Too large 288", "first_delta": "NOT SERIALIZED, Too large 288", "tensor__stats": {"min": -0.33288705348968506, "max": 0.36416980624198914, "mean": 0.015336234122514725, "variance": 0.03986639901995659, "nobs": 288, "histogram_bins": 16, "histogram": [[24, 14, 24, 12, 12, 20, 11, 22, 14, 29, 13, 28, 19, 13, 17, 16], [-0.33288705348968506, -0.28932100534439087, -0.24575494229793549, -0.2021888941526413, -0.1586228311061859, -0.11505678296089172, -0.07149073481559753, -0.0279246773570776, 0.01564137637615204, 0.059207431972026825, 0.10277348756790161, 0.1463395357131958, 0.18990558385849, 0.23347164690494537, 0.27703770995140076, 0.32060375809669495, 0.36416980624198914]]}, "grad__stats": {"min": -0.030811822041869164, "max": 0.007130077574402094, "mean": -0.005434608086943626, "variance": 7.41446201573126e-05, "nobs": 288, "histogram_bins": 16, "histogram": [[5, 5, 4, 8, 7, 8, 10, 15, 13, 18, 28, 35, 29, 60, 39, 4], [-0.030811822041869164, -0.028440453112125397, -0.02606908418238163, -0.023697715252637863, -0.021326346322894096, -0.01895497925579548, -0.016583610326051712, -0.014212241396307945, -0.011840872466564178, -0.009469503536820412, -0.007098134607076645, -0.004726766142994165, -0.0023553972132503986, 1.5971396351233125e-05, 0.0023873401805758476, 0.004758708644658327, 0.007130077574402094]]}, "first_delta__stats": {"min": -0.007906146347522736, "max": 0.050332218408584595, "mean": 0.012841705232858658, "variance": 0.0001964846160262823, "nobs": 288, "histogram_bins": 16, "histogram": [[17, 50, 27, 26, 21, 24, 16, 20, 30, 13, 14, 7, 11, 5, 5, 2], [-0.007906146347522736, -0.0042662485502660275, -0.0006263507530093193, 0.003013547044247389, 0.006653444841504097, 0.010293342173099518, 0.013933240436017513, 0.01757313869893551, 0.02121303603053093, 0.02485293336212635, 0.02849283069372177, 0.03213272988796234, 0.03577262908220291, 0.03941252455115318, 0.04305242374539375, 0.046692319214344025, 0.050332218408584595]]}}, "shape": [32, 1, 3, 3]}, "conv1.bias": {"id": "conv1.bias", "data_group_type": "PARAM", "type": "Parameter", "value": {"tensor": [0.05226388946175575, 0.34290987253189087, -0.01846839301288128, -0.15294529497623444, -0.2896007299423218, 0.00023170530039351434, 0.13039357960224152, 0.02421710267663002, 0.09430552273988724, 0.12708039581775665, 0.1957521289587021, 0.30583515763282776, 0.053554948419332504, -0.23228637874126434, 0.037573110312223434, -0.10971923172473907, 0.19874368607997894, 0.12623929977416992, 0.11681821942329407, 0.15800419449806213, -0.2534172534942627, -0.09792981296777725, 0.22187544405460358, -0.15505285561084747, 0.11912806332111359, 0.26231133937835693, 0.2767881155014038, -0.2450762689113617, 0.1565336436033249, -0.009763117879629135, 0.10934271663427353, 0.31137436628341675], "grad": [0.0012923687463626266, -0.005283620208501816, -0.006639366969466209, -0.0018416284583508968, -0.0052428836934268475, -0.0002724482910707593, -0.004081748425960541, -0.004024863708764315, -0.005898244213312864, -0.0065502687357366085, -0.0025561521761119366, -0.007886822335422039, -0.005305218975991011, -0.0003410980280023068, -0.004309380892664194, -0.0008674922864884138, 0.0014446784043684602, -0.0034445009659975767, -0.008793621324002743, 0.0004761359596159309, -0.0067697614431381226, -0.00275215320289135, -0.0005722386995330453, 0.000221952679567039, -0.0014006434939801693, -0.010384486056864262, -0.00611903378739953, 0.0028818855062127113, -0.0015646051615476608, -0.003957495559006929, -0.002580407075583935, -0.0028029396198689938], "first_delta": [0.016175780445337296, 0.015575021505355835, 0.004494614899158478, 0.02070198953151703, 0.027356445789337158, -0.0024172442499548197, 0.008134476840496063, 0.015425854362547398, 0.003734193742275238, 0.007459908723831177, 0.007315889000892639, 0.01767602562904358, 0.027594661340117455, 0.009472131729125977, 0.005740571767091751, 0.005300968885421753, 0.007724747061729431, 0.006280221045017242, 0.001364976167678833, 0.005299076437950134, 0.035033226013183594, 0.017744168639183044, 0.010142728686332703, 0.0026473701000213623, 0.0042295753955841064, 0.02769330143928528, 0.028112053871154785, 0.004810333251953125, 0.014020845293998718, 0.0036693457514047623, 0.011827290058135986, 0.010729789733886719], "tensor__stats": {"min": -0.2896007299423218, "max": 0.34290987253189087, "mean": 0.05803178995847702, "variance": 0.030942721292376518, "nobs": 32, "histogram_bins": 5, "histogram": [[4, 4, 7, 11, 6], [-0.2896007299423218, -0.16309860348701477, -0.03659648820757866, 0.08990563452243805, 0.21640774607658386, 0.34290987253189087]]}, "grad__stats": {"min": -0.010384486056864262, "max": 0.0028818855062127113, "mean": -0.003310190746560693, "variance": 1.0139397090824787e-05, "nobs": 32, "histogram_bins": 5, "histogram": [[3, 8, 9, 8, 4], [-0.010384486056864262, -0.0077312118373811245, -0.005077937617897987, -0.0024246631655842066, 0.00022861119941808283, 0.0028818855062127113]]}, "first_delta__stats": {"min": -0.0024172442499548197, "max": 0.035033226013183594, "mean": 0.011908447369933128, "variance": 8.598767453804612e-05, "nobs": 32, "histogram_bins": 5, "histogram": [[8, 12, 6, 2, 4], [-0.0024172442499548197, 0.005072849802672863, 0.012562943622469902, 0.020053038373589516, 0.02754313126206398, 0.035033226013183594]]}}, "shape": [32]}, "conv2.weight": {"id": "conv2.weight", "data_group_type": "PARAM", "type": "Parameter", "value": {"tensor": "NOT SERIALIZED, Too large 18432", "grad": "NOT SERIALIZED, Too large 18432", "first_delta": "NOT SERIALIZED, Too large 18432", "tensor__stats": {"min": -0.06449253857135773, "max": 0.08079823851585388, "mean": 0.003730317810550332, "variance": 0.001198075944557786, "nobs": 18432, "histogram_bins": 100, "histogram": [[2, 6, 16, 47, 92, 124, 156, 167, 171, 201, 212, 200, 204, 212, 212, 209, 255, 205, 220, 218, 222, 218, 235, 238, 238, 243, 232, 209, 224, 198, 218, 195, 236, 221, 217, 225, 218, 274, 221, 210, 234, 230, 231, 225, 219, 235, 241, 222, 200, 216, 232, 214, 214, 230, 230, 220, 237, 223, 233, 239, 254, 230, 209, 246, 255, 208, 202, 227, 238, 229, 229, 236, 245, 215, 215, 245, 212, 196, 212, 215, 236, 224, 224, 230, 187, 143, 131, 80, 77, 64, 43, 42, 36, 18, 19, 5, 5, 2, 0, 2], [-0.06449253857135773, -0.063039630651474, -0.06158672273159027, -0.06013381481170654, -0.058680906891822815, -0.05722799897193909, -0.05577509105205536, -0.05432218313217163, -0.0528692752122879, -0.051416367292404175, -0.04996345937252045, -0.04851055145263672, -0.04705764353275299, -0.04560473933815956, -0.04415183141827583, -0.042698923498392105, -0.04124601557850838, -0.03979310765862465, -0.03834019973874092, -0.03688729181885719, -0.035434383898973465, -0.03398147597908974, -0.03252856805920601, -0.03107566013932228, -0.029622752219438553, -0.028169844299554825, -0.026716936379671097, -0.02526402845978737, -0.02381112053990364, -0.022358212620019913, -0.020905304700136185, -0.019452396780252457, -0.017999490723013878, -0.01654658280313015, -0.015093673951923847, -0.013640766963362694, -0.012187859043478966, -0.010734951123595238, -0.00928204320371151, -0.007829135283827782, -0.006376227829605341, -0.004923319909721613, -0.0034704122226685286, -0.002017504535615444, -0.0005645966739393771, 0.0008883111295290291, 0.0023412189912050962, 0.0037941266782581806, 0.005247034598141909, 0.006699942052364349, 0.008152849972248077, 0.009605757892131805, 0.011058665812015533, 0.012511573731899261, 0.013964480720460415, 0.015417388640344143, 0.016870297491550446, 0.018323203548789024, 0.019776111468672752, 0.02122901938855648, 0.02268192730844021, 0.024134835228323936, 0.025587743148207664, 0.027040651068091393, 0.02849355898797512, 0.02994646690785885, 0.03139937296509743, 0.032852280884981155, 0.03430518880486488, 0.03575809672474861, 0.03721100464463234, 0.03866391256451607, 0.040116820484399796, 0.041569728404283524, 0.04302263632416725, 0.04447554424405098, 0.04592845216393471, 0.047381360083818436, 0.048834268003702164, 0.05028717592358589, 0.05174008384346962, 0.05319299176335335, 0.054645899683237076, 0.056098807603120804, 0.05755171552300453, 0.05900462344288826, 0.06045753136277199, 0.061910439282655716, 0.06336334347724915, 0.06481625139713287, 0.0662691593170166, 0.06772206723690033, 0.06917497515678406, 0.07062788307666779, 0.07208079099655151, 0.07353369891643524, 0.07498660683631897, 0.0764395147562027, 0.07789242267608643, 0.07934533059597015, 0.08079823851585388]]}, "grad__stats": {"min": -0.018660007044672966, "max": 0.013230658136308193, "mean": -0.000646332569885999, "variance": 6.415549705707235e-06, "nobs": 18432, "histogram_bins": 100, "histogram": [[1, 0, 0, 0, 0, 0, 1, 1, 1, 1, 2, 1, 1, 1, 2, 2, 4, 5, 7, 1, 7, 11, 12, 16, 15, 16, 15, 21, 24, 19, 30, 24, 32, 43, 43, 50, 65, 65, 83, 85, 96, 110, 146, 141, 210, 192, 222, 278, 312, 350, 447, 498, 580, 681, 791, 945, 1252, 1641, 2290, 1667, 1198, 787, 632, 468, 346, 271, 202, 167, 131, 112, 90, 67, 65, 58, 50, 32, 36, 21, 20, 21, 22, 19, 8, 6, 8, 5, 4, 6, 5, 4, 5, 2, 3, 1, 0, 1, 1, 0, 0, 2], [-0.018660007044672966, -0.018341099843382835, -0.018022194504737854, -0.017703287303447723, -0.017384380102157593, -0.017065472900867462, -0.01674656756222248, -0.01642766036093235, -0.01610875315964222, -0.015789847820997238, -0.015470940619707108, -0.015152033418416977, -0.014833127148449421, -0.014514220878481865, -0.014195313677191734, -0.013876407407224178, -0.013557500205934048, -0.013238593935966492, -0.012919687665998936, -0.012600780464708805, -0.012281874194741249, -0.011962966993451118, -0.011644060723483562, -0.011325154453516006, -0.011006247252225876, -0.01068734098225832, -0.01036843378096819, -0.010049527511000633, -0.009730621241033077, -0.009411714039742947, -0.00909280776977539, -0.00877390056848526, -0.008454994298517704, -0.008136087097227573, -0.007817180827260017, -0.007498274091631174, -0.007179367356002331, -0.006860461086034775, -0.0065415543504059315, -0.006222647614777088, -0.005903740879148245, -0.0055848341435194016, -0.0052659278735518456, -0.004947021137923002, -0.004628114402294159, -0.004309207666665316, -0.003990300931036472, -0.0036713944282382727, -0.0033524876926094294, -0.0030335811898112297, -0.0027146744541823864, -0.002395767718553543, -0.0020768612157553434, -0.0017579544801265001, -0.0014390478609129786, -0.0011201412416994572, -0.0008012345642782748, -0.0004823278868570924, -0.00016342123853974044, 0.0001554854097776115, 0.00047439205809496343, 0.0007932987064123154, 0.0011122053256258368, 0.0014311120612546802, 0.0017500186804682016, 0.002068925416097045, 0.0023878319188952446, 0.002706738654524088, 0.003025645390152931, 0.003344551892951131, 0.003663458628579974, 0.003982365131378174, 0.004301271867007017, 0.0046201786026358604, 0.004939085338264704, 0.00525799160823226, 0.005576898343861103, 0.005895805079489946, 0.00621471181511879, 0.006533618550747633, 0.006852525286376476, 0.007171431556344032, 0.007490338291972876, 0.007809245027601719, 0.008128151297569275, 0.008447058498859406, 0.008765964768826962, 0.009084871970117092, 0.009403778240084648, 0.009722684510052204, 0.010041591711342335, 0.01036049798130989, 0.010679405182600021, 0.010998311452567577, 0.011317218653857708, 0.011636124923825264, 0.01195503119379282, 0.01227393839508295, 0.012592844665050507, 0.012911751866340637, 0.013230658136308193]]}, "first_delta__stats": {"min": -0.007868673652410507, "max": 0.02786380425095558, "mean": 0.0036317945923656225, "variance": 2.414695336483419e-05, "nobs": 18432, "histogram_bins": 100, "histogram": [[3, 1, 5, 11, 13, 26, 28, 45, 88, 84, 108, 121, 141, 169, 193, 237, 261, 292, 385, 510, 665, 855, 1004, 796, 698, 633, 640, 596, 571, 585, 548, 492, 448, 439, 439, 367, 399, 334, 313, 275, 285, 290, 274, 248, 248, 251, 241, 193, 218, 178, 171, 156, 165, 161, 158, 127, 130, 109, 117, 93, 78, 91, 64, 72, 62, 46, 34, 28, 40, 40, 31, 24, 28, 25, 15, 19, 10, 10, 13, 9, 11, 5, 9, 4, 3, 4, 2, 2, 6, 3, 5, 2, 2, 1, 0, 0, 2, 0, 0, 1], [-0.007868673652410507, -0.007511348929256201, -0.007154024206101894, -0.006796699482947588, -0.0064393747597932816, -0.006082049570977688, -0.005724724847823381, -0.005367400124669075, -0.005010075401514769, -0.004652750678360462, -0.004295425955206156, -0.003938101232051849, -0.0035807762760668993, -0.003223451552912593, -0.0028661268297582865, -0.0025088018737733364, -0.00215147715061903, -0.0017941524274647236, -0.0014368275878950953, -0.001079502864740789, -0.0007221780833788216, -0.0003648533020168543, -7.528513833676698e-06, 0.00034979626070708036, 0.0007071210420690477, 0.001064445823431015, 0.0014217705465853214, 0.0017790953861549497, 0.002136420225724578, 0.0024937449488788843, 0.0028510696720331907, 0.003208394395187497, 0.003565719351172447, 0.003923044074326754, 0.00428036879748106, 0.0046376935206353664, 0.004995018243789673, 0.005352342966943979, 0.005709668155759573, 0.006066992878913879, 0.006424317602068186, 0.006781642325222492, 0.007138967048376799, 0.007496291771531105, 0.007853616960346699, 0.008210941217839718, 0.008568266406655312, 0.00892559066414833, 0.009282915852963924, 0.009640240110456944, 0.009997565299272537, 0.010354890488088131, 0.01071221474558115, 0.011069539934396744, 0.011426864191889763, 0.011784189380705357, 0.012141513638198376, 0.01249883882701397, 0.012856163084506989, 0.013213488273322582, 0.013570813462138176, 0.013928137719631195, 0.014285462908446789, 0.014642787165939808, 0.015000112354755402, 0.01535743661224842, 0.01571476086974144, 0.016072086989879608, 0.016429411247372627, 0.016786735504865646, 0.017144061625003815, 0.017501385882496834, 0.017858710139989853, 0.018216034397482872, 0.01857336051762104, 0.01893068477511406, 0.01928800903260708, 0.019645335152745247, 0.020002659410238266, 0.020359983667731285, 0.020717307925224304, 0.021074634045362473, 0.02143195830285549, 0.02178928256034851, 0.02214660868048668, 0.022503932937979698, 0.022861257195472717, 0.023218581452965736, 0.023575907573103905, 0.023933231830596924, 0.024290556088089943, 0.024647880345582962, 0.02500520646572113, 0.02536253072321415, 0.02571985498070717, 0.026077181100845337, 0.026434505358338356, 0.026791829615831375, 0.027149153873324394, 0.027506479993462563, 0.02786380425095558]]}}, "shape": [64, 32, 3, 3]}, "conv2.bias": {"id": "conv2.bias", "data_group_type": "PARAM", "type": "Parameter", "value": {"tensor": [-0.03605959191918373, 0.05968719720840454, -0.003807325614616275, 0.003761003026738763, -0.004591138567775488, -0.007262466009706259, 0.028689298778772354, 0.010902577079832554, -0.02169797569513321, 0.008801623247563839, 0.0041655488312244415, -0.03635881096124649, 0.028143541887402534, 0.04186965525150299, -0.0206612478941679, -0.04597198963165283, 0.0035830060951411724, -0.048822931945323944, 0.05901157110929489, -0.04558809846639633, 0.049571409821510315, -0.02599693275988102, -0.00088540866272524, -0.0010140292579308152, 0.045018672943115234, 0.03701932728290558, -0.05061883106827736, -0.03789130970835686, 0.05893958359956741, 0.067984439432621, 0.008742733858525753, -0.02274763397872448, 0.006283841095864773, 0.05239545926451683, -0.045733336359262466, -0.035453662276268005, 0.005662992130964994, 0.028769193217158318, 0.033871933817863464, -0.02007598988711834, -0.019733654335141182, 0.05885865166783333, -0.04196978732943535, -0.023042796179652214, 0.04522830247879028, 0.037611719220876694, -0.02843359485268593, 0.00912393070757389, -0.02769358456134796, -0.010844596661627293, 0.04719723016023636, -0.041540175676345825, 0.020531658083200455, -0.03354647383093834, 0.008976471610367298, 0.05262270197272301, 0.059874482452869415, 0.05298388749361038, -0.03446614369750023, -0.015394467860460281, -0.008208829909563065, 0.042122311890125275, 0.025184495374560356, 0.049929987639188766], "grad": [-0.0015948344953358173, 0.0005411833990365267, -0.003133130958303809, -7.911512511782348e-05, 0.0006562505150213838, 0.00016173525364138186, 0.0011346811661496758, -0.003475212724879384, -0.0011903715785592794, -0.00559463445097208, 0.0031931293196976185, -0.001362467184662819, -0.005468534305691719, -0.006643953267484903, -0.0011708945967257023, 0.0021711899898946285, -0.0005778445047326386, -0.00040545803494751453, -0.0003664761607069522, -0.0013111559674143791, 0.0012575596338137984, 0.001382960006594658, -0.0016475556185469031, -0.0005738179315812886, -0.010752635076642036, -0.005643008276820183, 0.0025310516357421875, 0.003863339778035879, -0.0033377772197127342, 0.0019352214876562357, 0.004100244026631117, 0.002682229271158576, -0.00017703896446619183, -0.003131357254460454, -0.0009987542871385813, -0.0012387302704155445, -0.002099797362461686, -0.00010549071885179728, -0.0007571026217192411, 0.0068678599782288074, 0.00039556421688757837, -0.003865424543619156, -0.0013509164564311504, 0.0014366965042427182, -0.0030623257625848055, -0.0024639710318297148, 0.0015316164353862405, -0.0004531409067567438, 0.002565637230873108, -0.0017977135721594095, -0.007097780704498291, -0.0029007182456552982, -0.0019383826293051243, -0.0020286841318011284, 0.0027276386972516775, 0.00031189961009658873, -0.0024481862783432007, -0.001567581668496132, -0.0033309434074908495, -0.0036044472362846136, 0.004609060939401388, -0.0014763278886675835, -0.005236612632870674, 0.0008247381774708629], "first_delta": [0.0057552531361579895, 0.003973651677370071, 0.002066554268822074, 0.0013013340067118406, 0.0030245091766119003, 0.004510891158133745, 0.012634946033358574, 0.003132348880171776, 0.006609344854950905, 0.00633136834949255, 0.0020466370042413473, 0.004184160381555557, 0.0033785663545131683, 0.007185123860836029, 0.0017729643732309341, 0.008179988712072372, 0.003199308179318905, 0.00953754410147667, 0.002592865377664566, 0.004861988127231598, 0.007008515298366547, 0.0027146246284246445, 0.0021499793510884047, 0.004093009978532791, 0.005833763629198074, 0.004167418926954269, 0.0029113180935382843, 0.005557425320148468, 0.004123710095882416, 0.011820357292890549, 0.010242086835205555, 0.004727602005004883, 0.0020877360366284847, 0.002074137330055237, 0.005085267126560211, 0.0068927183747291565, 0.00325134233571589, 0.004590319469571114, 0.007517797872424126, 0.0036211535334587097, 0.004559803754091263, 0.0024564601480960846, 0.010168321430683136, 0.011841168627142906, 0.0026342906057834625, 0.006397228688001633, 0.013503216207027435, 0.0025648484006524086, 0.0036930330097675323, 0.00826175045222044, 0.004643060266971588, 0.009229440242052078, 0.0027805231511592865, 0.0012258142232894897, 0.004940032958984375, 0.00393812358379364, 0.0046423859894275665, 0.007909581065177917, 0.005192980170249939, 0.004049461334943771, 0.007349096238613129, 0.005851477384567261, 0.0025016162544488907, 0.013663467019796371], "tensor__stats": {"min": -0.05061883106827736, "max": 0.067984439432621, "mean": 0.005578244104981422, "variance": 0.0012559945462271571, "nobs": 64, "histogram_bins": 8, "histogram": [[10, 9, 7, 9, 6, 7, 10, 6], [-0.05061883106827736, -0.035793423652648926, -0.020968012511730194, -0.0061426046304404736, 0.008682804182171822, 0.023508213460445404, 0.03833362087607384, 0.05315903201699257, 0.067984439432621]]}, "grad__stats": {"min": -0.010752635076642036, "max": 0.0068678599782288074, "mean": -0.000946544052567333, "variance": 9.209758900396992e-06, "nobs": 64, "histogram_bins": 8, "histogram": [[1, 2, 4, 13, 23, 12, 8, 1], [-0.010752635076642036, -0.008550073020160198, -0.006347511429339647, -0.004144949372857809, -0.0019423875492066145, 0.000260174332652241, 0.0024627363309264183, 0.004665297921746969, 0.0068678599782288074]]}, "first_delta__stats": {"min": 0.0012258142232894897, "max": 0.013663467019796371, "mean": 0.005324169062077999, "variance": 9.513199984212406e-06, "nobs": 64, "histogram_bins": 8, "histogram": [[14, 16, 14, 7, 4, 4, 2, 3], [0.0012258142232894897, 0.00278052082285285, 0.00433522742241621, 0.00588993402197957, 0.007444640621542931, 0.008999347686767578, 0.010554053820669651, 0.012108759954571724, 0.013663467019796371]]}}, "shape": [64]}, "fc1.weight": {"id": "fc1.weight", "data_group_type": "PARAM", "type": "Parameter", "value": {"tensor": "NOT SERIALIZED, Too large 1179648", "grad": "NOT SERIALIZED, Too large 1179648", "first_delta": "NOT SERIALIZED, Too large 1179648", "tensor__stats": {"min": -0.015644848346710205, "max": 0.01742214523255825, "mean": 0.00022714624356012791, "variance": 3.728066440089606e-05, "nobs": 1179648, "histogram_bins": 100, "histogram": [[2, 2, 8, 18, 35, 43, 83, 139, 237, 393, 585, 838, 1331, 1993, 3195, 6362, 11221, 13377, 14981, 15937, 16866, 17567, 17822, 18185, 18248, 18866, 18279, 18539, 18572, 18901, 18848, 18734, 18865, 18859, 18544, 18977, 18634, 18894, 18517, 18818, 18912, 18843, 18861, 18616, 18655, 18587, 18668, 18755, 18703, 18881, 18811, 18589, 18642, 18643, 18565, 18401, 18818, 18627, 18751, 18670, 18899, 18725, 18778, 18654, 19007, 18586, 18617, 18600, 18599, 18826, 18500, 18490, 18427, 17945, 17711, 17390, 16655, 15493, 12419, 7560, 5257, 3705, 2651, 1857, 1269, 884, 636, 437, 261, 172, 140, 75, 45, 31, 14, 5, 7, 5, 2, 1], [-0.015644848346710205, -0.015314178541302681, -0.014983508735895157, -0.014652838930487633, -0.014322168193757534, -0.01399149838835001, -0.013660828582942486, -0.013330158777534962, -0.012999488972127438, -0.012668819166719913, -0.01233814936131239, -0.01200747862458229, -0.011676808819174767, -0.011346139013767242, -0.011015469208359718, -0.010684799402952194, -0.01035412959754467, -0.010023459792137146, -0.009692789055407047, -0.009362119249999523, -0.009031449444591999, -0.008700779639184475, -0.00837010983377695, -0.008039440028369427, -0.007708769757300615, -0.007378099951893091, -0.007047430146485567, -0.006716759875416756, -0.006386090070009232, -0.0060554202646017075, -0.005724750459194183, -0.005394080188125372, -0.005063410382717848, -0.004732740577310324, -0.004402070306241512, -0.004071400500833988, -0.003740730695426464, -0.0034100606571882963, -0.003079390851780772, -0.0027487208135426044, -0.0024180510081350803, -0.0020873809698969126, -0.0017567110480740666, -0.0014260411262512207, -0.0010953712044283748, -0.0007647012243978679, -0.000434031302575022, -0.00010336136620026082, 0.00022730857017450035, 0.0005579785211011767, 0.0008886484429240227, 0.0012193183647468686, 0.0015499882865697145, 0.0018806582083925605, 0.0022113281302154064, 0.002541998168453574, 0.0028726679738610983, 0.003203338012099266, 0.00353400781750679, 0.003864677855744958, 0.004195347893983126, 0.00452601769939065, 0.004856687504798174, 0.005187357775866985, 0.005518027581274509, 0.0058486973866820335, 0.006179367192089558, 0.006510037463158369, 0.006840707268565893, 0.007171377073973417, 0.007502047345042229, 0.007832717150449753, 0.008163386955857277, 0.008494056761264801, 0.008824726566672325, 0.00915539637207985, 0.009486067108809948, 0.009816736914217472, 0.010147406719624996, 0.01047807652503252, 0.010808746330440044, 0.011139416135847569, 0.011470085941255093, 0.011800756677985191, 0.012131426483392715, 0.01246209628880024, 0.012792766094207764, 0.013123435899615288, 0.013454105705022812, 0.013784775510430336, 0.014115446247160435, 0.014446116052567959, 0.014776785857975483, 0.015107455663383007, 0.015438125468790531, 0.01576879620552063, 0.016099466010928154, 0.016430135816335678, 0.016760805621743202, 0.017091475427150726, 0.01742214523255825]]}, "grad__stats": {"min": -0.051936905831098557, "max": 0.043732140213251114, "mean": -0.0002067916066152975, "variance": 1.3454591680783778e-05, "nobs": 1179648, "histogram_bins": 100, "histogram": [[2, 1, 5, 3, 3, 5, 7, 9, 10, 20, 20, 21, 24, 41, 35, 37, 58, 63, 69, 92, 78, 90, 116, 163, 156, 181, 224, 256, 345, 371, 432, 560, 630, 750, 858, 940, 1109, 1235, 1549, 1831, 2033, 2358, 2878, 3570, 4238, 5122, 6541, 8301, 10960, 14614, 20535, 31743, 62183, 165832, 609251, 91932, 39593, 22073, 14638, 10276, 7321, 5513, 4279, 3421, 2813, 2357, 1958, 1578, 1481, 1214, 1081, 851, 742, 644, 597, 488, 395, 342, 254, 240, 197, 180, 117, 97, 94, 78, 55, 43, 26, 27, 27, 19, 13, 10, 11, 2, 8, 3, 1, 1], [-0.051936905831098557, -0.05098021402955055, -0.05002352595329285, -0.04906683415174484, -0.04811014235019684, -0.04715345427393913, -0.04619676247239113, -0.04524007439613342, -0.04428338259458542, -0.043326690793037415, -0.04237000271677971, -0.041413310915231705, -0.0404566191136837, -0.039499931037425995, -0.03854323923587799, -0.03758654743432999, -0.03662985935807228, -0.03567316755652428, -0.03471647575497627, -0.03375978767871857, -0.03280309587717056, -0.03184640780091286, -0.030889715999364853, -0.029933026060461998, -0.028976334258913994, -0.02801964432001114, -0.027062954381108284, -0.02610626257956028, -0.025149572640657425, -0.02419288270175457, -0.023236192762851715, -0.02227950096130371, -0.021322811022400856, -0.020366121083498, -0.019409429281949997, -0.018452739343047142, -0.017496049404144287, -0.016539359465241432, -0.015582668595016003, -0.014625977724790573, -0.013669287785887718, -0.012712596915662289, -0.011755906045436859, -0.010799216106534004, -0.009842525236308575, -0.00888583529740572, -0.00792914442718029, -0.006972454022616148, -0.006015763618052006, -0.0050590732134878635, -0.004102382808923721, -0.003145692404359579, -0.002189001999795437, -0.0012323114788159728, -0.00027562095783650875, 0.0006810695049352944, 0.0016377599677070975, 0.0025944504886865616, 0.003551140893250704, 0.004507831297814846, 0.005464521702378988, 0.0064212121069431305, 0.007377902511507273, 0.008334592916071415, 0.009291283786296844, 0.0102479737251997, 0.011204664595425129, 0.012161355465650558, 0.013118045404553413, 0.014074736274778843, 0.015031426213681698, 0.015988117083907127, 0.016944807022809982, 0.017901496961712837, 0.01885818876326084, 0.019814878702163696, 0.02077156864106655, 0.021728260442614555, 0.02268495038151741, 0.023641640320420265, 0.02459833025932312, 0.025555022060871124, 0.02651171199977398, 0.027468401938676834, 0.028425093740224838, 0.029381783679127693, 0.030338473618030548, 0.03129516541957855, 0.03225185349583626, 0.03320854529738426, 0.034165237098932266, 0.03512192517518997, 0.036078616976737976, 0.03703530877828598, 0.037991996854543686, 0.03894868865609169, 0.039905376732349396, 0.0408620685338974, 0.041818760335445404, 0.04277544841170311, 0.043732140213251114]]}, "first_delta__stats": {"min": -0.0072420015931129456, "max": 0.007874800823628902, "mean": 0.00022928010730538517, "variance": 1.1150276577609475e-06, "nobs": 1179648, "histogram_bins": 100, "histogram": [[2, 0, 0, 3, 2, 4, 9, 7, 11, 6, 12, 10, 26, 33, 39, 60, 75, 110, 157, 209, 261, 313, 378, 539, 656, 844, 1044, 1251, 1487, 1893, 2293, 2772, 3495, 4331, 5069, 6225, 7445, 9017, 10989, 12992, 15575, 18801, 22791, 28176, 35926, 50530, 87025, 244778, 104024, 71896, 62327, 54209, 46478, 39454, 33648, 28509, 24392, 20743, 17761, 15155, 12718, 10870, 9209, 7946, 6803, 5761, 4899, 4205, 3505, 2901, 2534, 2088, 1736, 1434, 1234, 1081, 858, 688, 549, 486, 391, 312, 239, 209, 186, 127, 119, 82, 48, 53, 38, 23, 14, 12, 6, 6, 5, 2, 2, 2], [-0.0072420015931129456, -0.007090833503752947, -0.006939665414392948, -0.0067884973250329494, -0.006637329701334238, -0.006486161611974239, -0.006334993522614241, -0.006183825433254242, -0.006032657343894243, -0.0058814892545342445, -0.005730321165174246, -0.0055791535414755344, -0.005427985452115536, -0.005276817362755537, -0.005125649273395538, -0.00497448118403554, -0.004823313094675541, -0.004672145005315542, -0.004520977381616831, -0.004369809292256832, -0.004218641202896833, -0.004067473113536835, -0.003916305024176836, -0.0037651369348168373, -0.0036139690782874823, -0.0034628009889274836, -0.003311632899567485, -0.00316046504303813, -0.003009296953678131, -0.0028581288643181324, -0.0027069607749581337, -0.0025557929184287786, -0.00240462482906878, -0.0022534567397087812, -0.002102288883179426, -0.0019511207938194275, -0.0017999527044594288, -0.001648784731514752, -0.0014976166421547532, -0.0013464486692100763, -0.0011952805798500776, -0.0010441126069054008, -0.000892944575753063, -0.0007417765446007252, -0.0005906085134483874, -0.00043944051139988005, -0.00028827248024754226, -0.0001371044636471197, 1.4063566595723387e-05, 0.00016523158410564065, 0.00031639961525797844, 0.00046756764641031623, 0.000618735677562654, 0.0007699037087149918, 0.0009210717398673296, 0.0010722397128120065, 0.0012234078021720052, 0.001374575775116682, 0.0015257438644766808, 0.0016769118374213576, 0.0018280798103660345, 0.001979247899726033, 0.002130415989086032, 0.002281583845615387, 0.0024327519349753857, 0.0025839200243353844, 0.002735088113695383, 0.002886255970224738, 0.003037424059584737, 0.0031885921489447355, 0.0033397600054740906, 0.0034909280948340893, 0.003642096184194088, 0.0037932642735540867, 0.003944432362914085, 0.004095599986612797, 0.0042467680759727955, 0.004397936165332794, 0.004549104254692793, 0.004700272344052792, 0.00485144043341279, 0.005002608522772789, 0.005153776612132788, 0.005304944235831499, 0.005456112325191498, 0.0056072804145514965, 0.005758448503911495, 0.005909616593271494, 0.006060784682631493, 0.006211952771991491, 0.006363120395690203, 0.006514288485050201, 0.0066654565744102, 0.006816624663770199, 0.0069677927531301975, 0.007118960842490196, 0.007270128931850195, 0.007421296555548906, 0.007572464644908905, 0.007723632734268904, 0.007874800823628902]]}}, "shape": [128, 9216]}, "fc1.bias": {"id": "fc1.bias", "data_group_type": "PARAM", "type": "Parameter", "value": {"tensor": [-0.005599749740213156, 0.01060517504811287, -0.0028135988395661116, -0.0015426801983267069, 8.791087566351052e-06, 0.004627723712474108, 0.0005011108005419374, -0.004978892393410206, 0.0002940836129710078, 0.0010959341889247298, 0.006352727767080069, 0.004239541012793779, 0.009643296711146832, 0.007739813067018986, -0.0012150448746979237, -0.004093907307833433, 0.007770377676934004, 0.00830080732703209, -0.005816739052534103, -0.0026823757216334343, -0.010011768899857998, 0.0029555759392678738, 0.002794796135276556, -0.002236313885077834, 0.00379043142311275, -0.002230016514658928, -0.005587576888501644, -0.008836655877530575, 0.007648947183042765, 0.0013377233408391476, -0.00956214964389801, 0.011481110006570816, 0.0006067693466320634, -0.003918250557035208, 0.0026179892010986805, -0.009939074516296387, 5.479486571857706e-05, -0.001863308367319405, -0.005254518240690231, 0.010651860386133194, 0.0014209537766873837, -0.005633738357573748, -0.007628356106579304, 0.008441739715635777, -0.0049163782969117165, -0.0032786785159260035, 0.007521943189203739, 0.009601232595741749, 0.0041751922108232975, -0.0009766669245436788, 0.003966865595430136, 0.001778812031261623, 0.009114779531955719, -0.007373136468231678, 0.0022757744882255793, -0.0003964632051065564, -0.008374540135264397, 0.0084456168115139, 0.0008612105739302933, 0.0007120507652871311, -7.102500967448577e-05, 0.0017587080365046859, -0.0051062507554888725, 0.004830591846257448, 0.006278160493820906, -0.008150136098265648, 0.0076445648446679115, 0.00971504207700491, -0.005427875090390444, 0.007961446419358253, 0.00669433269649744, 0.007185861933976412, 0.0032148368190973997, -0.008832181803882122, 0.006826704367995262, 0.008041181601583958, -0.00010152443428523839, -0.0071995737962424755, -0.0005815108306705952, -0.007685123011469841, 0.0031682823318988085, -0.003915735054761171, 0.004399008117616177, 0.00012058763240929693, -0.007882651872932911, -0.006541305221617222, 0.009828485548496246, 0.0018881126306951046, 0.002733222208917141, 0.004678749479353428, 0.002174341818317771, 0.003394471248611808, -0.006483830977231264, 0.007053193636238575, -0.003518707351759076, 0.0014896491775289178, -0.0016675625229254365, -0.009890132583677769, -0.000933536677621305, -0.0035240454599261284, -0.003261448349803686, 0.0063773263245821, -0.00593906082212925, -0.0015509681543335319, -0.00047942640958353877, -0.0012313952902331948, 0.0003488411311991513, -0.00260765478014946, -0.0031264391727745533, -0.0057238806039094925, 0.006960869766771793, 0.004765823017805815, -0.008166233077645302, -0.010111282579600811, -0.0028434291016310453, 0.009923900477588177, -0.0032511090394109488, -0.002268100855872035, -0.009676105342805386, 0.0038939889054745436, 0.005423075053840876, 0.004474191926419735, -0.002623404609039426, -0.00751633383333683, -0.006108516827225685, 0.011136905290186405, -0.002838680287823081, -0.002906977431848645], "grad": [0.0007588925072923303, -0.003487564390525222, -0.0005584184546023607, 0.006554331164807081, -0.004924898501485586, -0.0013393322005867958, -0.002657433971762657, -0.003685001516714692, 0.0037125712260603905, 0.0, -0.004450791049748659, 0.003958642017096281, 0.0, -0.004199780989438295, 0.00027957482961937785, 0.001400774926878512, -0.0013269097544252872, 0.004772618412971497, 0.00352101749740541, -0.0042847092263400555, 0.0, 0.0, -0.0028306888416409492, 0.001308640232309699, 0.0002451991895213723, -0.004069304093718529, 0.002431747503578663, -0.0016011849511414766, -0.001707893330603838, -0.0011948973406106234, 0.0023525096476078033, -0.0008419670630246401, -0.0024898804258555174, -0.003403292503207922, -0.0037016915157437325, 0.0, -0.0003806701279245317, -0.0015388434985652566, 0.0023933181073516607, 0.000875273603014648, -0.001284262863919139, 0.0036589009687304497, 0.004455863032490015, 0.0002882583357859403, -0.0020218484569340944, 0.0002616176789160818, 0.0, 0.0032403317745774984, 0.0038779806345701218, 0.005075208377093077, 0.0, -0.00044174864888191223, 0.000333320873323828, 0.0006709995213896036, -0.0001721346052363515, -0.0010812176624312997, 0.00358799216337502, 0.0, 0.0005558938719332218, 0.005024431273341179, 0.001900587580166757, -0.0031053151469677687, -0.006825712043792009, -0.0009257792844437063, 0.0, -0.006652740761637688, -0.005353758577257395, 0.0011853822506964207, 0.0, 0.0018492682138457894, -0.0041926028206944466, 0.0, -0.0030750054866075516, -0.00554262101650238, -0.0023477505892515182, -0.001402521040290594, -0.004812137223780155, -0.0025833838153630495, -0.0004895941819995642, 0.006142129190266132, 0.0008030918543227017, -0.0028092593420296907, -0.0016679724212735891, -0.005684091709554195, -0.0016702275024726987, 0.0014557160902768373, -0.0005594766698777676, -0.003917203284800053, 0.0, -0.0027432963252067566, 0.004931775853037834, 0.001841162797063589, 0.0, 0.004722386598587036, 0.0, -0.002404093509539962, 0.0027884291484951973, 0.0, 0.000592909287661314, -0.0010516727343201637, -0.0031098148319870234, 0.002015534322708845, 0.0, -0.007251059170812368, 0.00010713493975345045, -0.005332113243639469, -0.0005112513317726552, -0.005257244687527418, 0.0, 0.0060054161585867405, -0.0014935031067579985, 0.0004792777472175658, 0.0, -0.00189269392285496, 0.0, -0.0019011461408808827, 0.0013491755817085505, 0.005276018287986517, 0.0010197034571319818, 0.005402972921729088, 0.0029026037082076073, -0.004652415402233601, -0.008236908353865147, -0.0005423451657406986, 0.002931136405095458, 0.0007497716578654945, 0.0, -0.00025102822110056877], "first_delta": [-0.00017094239592552185, 0.0023248279467225075, 0.0006840962450951338, 0.0001768107758834958, 0.00015430217899847776, 0.0006715012714266777, -0.00020023470278829336, -0.0005266065709292889, 0.002385105472058058, -0.0001996621722355485, -0.0002015293575823307, 0.000138202216476202, -0.0004530036821961403, 0.0006583230569958687, 0.0016097223851829767, 0.0008240458555519581, 0.0008644764311611652, 0.0002856943756341934, 0.00028332462534308434, 0.002467532642185688, -8.303672075271606e-06, -0.0003983117640018463, 0.0006339240353554487, 0.00206822925247252, -0.0005275227595120668, 0.0016903500072658062, 0.0021020593121647835, -0.0008552884683012962, 0.0007051685824990273, -1.7497222870588303e-07, 0.0005632229149341583, 0.0012210020795464516, 3.9164209738373756e-05, -0.0005100308917462826, -0.00010067690163850784, -0.00037126708775758743, 0.0013078496558591723, 0.0015252603916451335, 0.0009492188692092896, 0.0008832039311528206, 0.0008375943871214986, 0.001693106722086668, 0.0013750744983553886, 0.0009493138641119003, 0.0003616129979491234, 0.0018614709842950106, -9.262468665838242e-05, 0.0020992057397961617, -0.0004485948011279106, 0.0008994799572974443, -0.0002906098961830139, 0.0006728055886924267, 0.00048741046339273453, 0.0012488802894949913, 0.0009013608796522021, 0.0003573890426196158, 0.0005042459815740585, -0.0003162156790494919, 0.0006136699812486768, 0.0005165351321920753, 0.0006696509080938995, 0.00024849141482263803, 0.0013594850897789001, 0.0008594919927418232, -7.611839100718498e-05, 0.001139969564974308, 0.0009885365143418312, 0.0009990660473704338, -0.00045695947483181953, 0.0002980222925543785, 0.00014141900464892387, -0.0002865293063223362, -0.0004202679265290499, 0.0002821311354637146, -7.892865687608719e-05, -0.0005361903458833694, -0.0003855889954138547, 0.002307064365595579, 0.0018617829773575068, 0.0006262408569455147, 0.0002714481670409441, 0.0006592604331672192, 0.0015616021119058132, 0.0006150280823931098, 0.0009593768045306206, 0.0006612022407352924, 6.0383230447769165e-05, 0.001232875045388937, -0.00028784293681383133, 4.00301069021225e-05, -0.0002553423400968313, -0.0009412092622369528, -0.00017865514382719994, 0.0006085182540118694, -0.00010375468991696835, 0.0007902283687144518, 0.001421040971763432, -0.00048157665878534317, 0.0007778083672747016, 0.0007828893139958382, 0.0009242631494998932, 0.0009116483852267265, -0.0004214649088680744, 0.0004558110376819968, -0.0003352365456521511, 0.001986369024962187, -0.00048615288687869906, 0.0014529279433190823, -0.00018856837414205074, 0.000283136498183012, 0.0006765569560229778, -8.869869634509087e-05, -0.00015573110431432724, -0.0003918176516890526, -8.319760672748089e-05, 0.0008105188608169556, -0.000273330369964242, -0.0006251595914363861, 0.0006413822993636131, 0.0007192443590611219, 0.0016538770869374275, 0.0003295205533504486, 0.00197564042173326, 0.0007446184754371643, 0.001276772003620863, 0.0008041877299547195, -4.2837345972657204e-05, 0.0008407901041209698], "tensor__stats": {"min": -0.010111282579600811, "max": 0.011481110006570816, "mean": 0.00024465835303999484, "variance": 3.379983900231309e-05, "nobs": 128, "histogram_bins": 11, "histogram": [[11, 8, 12, 17, 13, 15, 12, 12, 9, 10, 9], [-0.010111282579600811, -0.008148337714374065, -0.00618539284914732, -0.0042224484495818615, -0.0022595033515244722, -0.00029655869002453983, 0.0016663861460983753, 0.0036293307784944773, 0.0055922758765518665, 0.007555220276117325, 0.00951816514134407, 0.011481110006570816]]}, "grad__stats": {"min": -0.008236908353865147, "max": 0.006554331164807081, "mean": -0.00037403605529107153, "variance": 9.209894415107556e-06, "nobs": 128, "histogram_bins": 11, "histogram": [[2, 3, 9, 11, 16, 19, 35, 12, 8, 8, 5], [-0.008236908353865147, -0.006892250385135412, -0.0055475919507443905, -0.004202933982014656, -0.002858275780454278, -0.0015136176953092217, -0.00016895952285267413, 0.0011756985913962126, 0.0025203567929565907, 0.0038650149945169687, 0.005209673196077347, 0.006554331164807081]]}, "first_delta__stats": {"min": -0.0009412092622369528, "max": 0.002467532642185688, "mean": 0.0005316665628924966, "variance": 6.176027795845584e-07, "nobs": 128, "histogram_bins": 11, "histogram": [[2, 17, 21, 16, 8, 31, 8, 9, 5, 7, 4], [-0.0009412092622369528, -0.0006313236081041396, -0.00032143801217898726, -1.155237896455219e-05, 0.00029833323787897825, 0.0006082188920117915, 0.0009181044879369438, 0.001227990142069757, 0.0015378757379949093, 0.0018477613339200616, 0.002157646929845214, 0.002467532642185688]]}}, "shape": [128]}, "fc2.weight": {"id": "fc2.weight", "data_group_type": "PARAM", "type": "Parameter", "value": {"tensor": "NOT SERIALIZED, Too large 1280", "grad": "NOT SERIALIZED, Too large 1280", "first_delta": "NOT SERIALIZED, Too large 1280", "tensor__stats": {"min": -0.10365037620067596, "max": 0.09252621233463287, "mean": -0.001960196066647768, "variance": 0.002897197613492608, "nobs": 1280, "histogram_bins": 35, "histogram": [[5, 17, 29, 41, 39, 44, 37, 35, 32, 42, 42, 39, 40, 43, 33, 35, 41, 46, 46, 33, 30, 37, 40, 41, 25, 40, 50, 39, 32, 39, 39, 47, 35, 44, 23], [-0.10365037620067596, -0.09804533421993256, -0.09244028478860855, -0.08683524280786514, -0.08123019337654114, -0.07562515139579773, -0.07002010196447372, -0.06441505998373032, -0.05881001427769661, -0.0532049685716629, -0.047599922865629196, -0.04199487715959549, -0.03638983145356178, -0.030784785747528076, -0.02517974004149437, -0.019574696198105812, -0.01396964956074953, -0.008364604786038399, -0.0027595593128353357, 0.0028454861603677273, 0.008450531400740147, 0.014055577106773853, 0.019660621881484985, 0.025265667587518692, 0.0308707132935524, 0.036475758999586105, 0.04208080470561981, 0.04768585041165352, 0.053290896117687225, 0.05889594182372093, 0.06450098752975464, 0.07010602951049805, 0.07571107894182205, 0.08131612092256546, 0.08692117035388947, 0.09252621233463287]]}, "grad__stats": {"min": -0.47065868973731995, "max": 0.38662582635879517, "mean": -2.9802322831784522e-09, "variance": 0.005290774628520012, "nobs": 1280, "histogram_bins": 35, "histogram": [[1, 2, 2, 2, 3, 1, 0, 5, 5, 3, 2, 1, 8, 7, 11, 22, 36, 74, 175, 679, 88, 46, 35, 21, 13, 9, 6, 7, 3, 3, 1, 3, 2, 2, 2], [-0.47065868973731995, -0.4461648464202881, -0.4216710031032562, -0.39717715978622437, -0.3726833164691925, -0.34818947315216064, -0.3236956298351288, -0.2992017865180969, -0.27470794320106506, -0.2502140998840332, -0.22572025656700134, -0.20122641324996948, -0.17673256993293762, -0.15223872661590576, -0.1277448832988739, -0.10325103998184204, -0.07875719666481018, -0.05426335334777832, -0.02976951003074646, -0.0052756667137146, 0.01921817660331726, 0.04371201992034912, 0.06820586323738098, 0.09269970655441284, 0.1171935498714447, 0.14168739318847656, 0.16618123650550842, 0.19067507982254028, 0.21516892313957214, 0.239662766456604, 0.26415660977363586, 0.2886504530906677, 0.3131442964076996, 0.33763813972473145, 0.3621319830417633, 0.38662582635879517]]}, "first_delta__stats": {"min": -0.024975914508104324, "max": 0.007229849696159363, "mean": -0.0015639964258298278, "variance": 1.8058764908346348e-05, "nobs": 1280, "histogram_bins": 35, "histogram": [[2, 0, 0, 0, 1, 0, 4, 1, 4, 3, 2, 4, 3, 11, 19, 11, 21, 11, 29, 30, 33, 42, 46, 57, 77, 110, 160, 263, 110, 95, 69, 36, 16, 6, 4], [-0.024975914508104324, -0.02405574917793274, -0.023135585710406303, -0.02221542038023472, -0.021295255050063133, -0.020375091582536697, -0.019454926252365112, -0.018534760922193527, -0.01761459745466709, -0.016694432124495506, -0.01577426679432392, -0.014854103326797485, -0.0139339379966259, -0.01301377359777689, -0.01209360919892788, -0.011173443868756294, -0.010253279469907284, -0.009333115071058273, -0.008412949740886688, -0.007492785342037678, -0.00657262047752738, -0.0056524560786783695, -0.004732291214168072, -0.0038121265824884176, -0.0028919619508087635, -0.0019717973191291094, -0.0010516325710341334, -0.00013146783749107271, 0.0007886968669481575, 0.0017088615568354726, 0.0026290263049304485, 0.0035491909366101027, 0.004469355568289757, 0.0053895204328000546, 0.006309684831649065, 0.007229849696159363]]}}, "shape": [10, 128]}, "fc2.bias": {"id": "fc2.bias", "data_group_type": "PARAM", "type": "Parameter", "value": {"tensor": [0.04909476265311241, 0.040824878960847855, -0.02345438487827778, 0.024517647922039032, 0.057147786021232605, 0.035761214792728424, -0.045446284115314484, 0.022832417860627174, -0.08023452013731003, 0.027976058423519135], "grad": [0.0008041069377213717, -0.0030060503631830215, 0.007428257260471582, -0.0035663472954183817, -0.052884429693222046, 0.02212962880730629, 0.0013239001855254173, -0.0066248285584151745, -0.008604781702160835, 0.04300052672624588], "first_delta": [-0.001761898398399353, 0.0008103884756565094, 8.827447891235352e-05, -0.0008153151720762253, -0.0008328333497047424, 0.0003672093152999878, -0.0015295520424842834, 0.0014633871614933014, -0.0011987090110778809, 0.00018634460866451263], "tensor__stats": {"min": -0.08023452013731003, "max": 0.057147786021232605, "mean": 0.010901957750320435, "variance": 0.002043479587882757, "nobs": 10, "histogram_bins": 5, "histogram": [[1, 1, 1, 3, 4], [-0.08023452013731003, -0.05275806039571762, -0.025281596928834915, 0.002194863511249423, 0.02967132441699505, 0.057147786021232605]]}, "grad__stats": {"min": -0.052884429693222046, "max": 0.04300052672624588, "mean": -1.4901161415892261e-09, "variance": 0.000592532567679882, "nobs": 10, "histogram_bins": 5, "histogram": [[1, 0, 6, 2, 1], [-0.052884429693222046, -0.03370743989944458, -0.01453044731169939, 0.004646544344723225, 0.023823535069823265, 0.04300052672624588]]}, "first_delta__stats": {"min": -0.001761898398399353, "max": 0.0014633871614933014, "mean": -0.00032227038173004985, "variance": 1.1306752867312753e-06, "nobs": 10, "histogram_bins": 5, "histogram": [[3, 2, 1, 3, 1], [-0.001761898398399353, -0.0011168413329869509, -0.00047178418026305735, 0.00017327294335700572, 0.0008183300378732383, 0.0014633871614933014]]}}, "shape": [10]}, "input.1": {"id": "input.1", "data_group_type": "INPUT", "type": "Tensor", "value": {"tensor": "NOT SERIALIZED, Too large 7840", "tensor__stats": {"min": -0.4242129623889923, "max": 2.821486711502075, "mean": -0.002651903545483947, "variance": 0.9910362958908081, "nobs": 7840, "histogram_bins": 88, "histogram": [[6367, 21, 18, 13, 12, 8, 20, 21, 8, 10, 13, 11, 6, 5, 17, 2, 6, 17, 7, 8, 9, 18, 2, 10, 11, 7, 8, 3, 17, 12, 8, 9, 8, 10, 5, 8, 11, 5, 9, 5, 24, 12, 14, 11, 12, 2, 5, 12, 4, 7, 5, 5, 16, 10, 6, 6, 14, 4, 2, 5, 14, 6, 3, 13, 12, 11, 12, 9, 16, 5, 23, 11, 14, 26, 11, 8, 16, 15, 9, 14, 24, 21, 13, 21, 9, 22, 84, 457], [-0.4242129623889923, -0.387330025434494, -0.35044705867767334, -0.31356412172317505, -0.27668115496635437, -0.23979820311069489, -0.2029152512550354, -0.16603229939937592, -0.12914936244487762, -0.09226640313863754, -0.055383455008268356, -0.01850050315260887, 0.018382446840405464, 0.0552653968334198, 0.09214834868907928, 0.12903130054473877, 0.16591425240039825, 0.20279720425605774, 0.23968015611171722, 0.2765631079673767, 0.313446044921875, 0.3503290116786957, 0.38721194863319397, 0.42409491539001465, 0.46097785234451294, 0.4978608191013336, 0.5347437858581543, 0.5716267228126526, 0.6085096597671509, 0.6453925967216492, 0.6822755336761475, 0.7191585302352905, 0.7560414671897888, 0.7929244041442871, 0.8298073410987854, 0.8666903376579285, 0.9035732746124268, 0.940456211566925, 0.9773391485214233, 1.0142221450805664, 1.05110502243042, 1.087988018989563, 1.124871015548706, 1.1617538928985596, 1.1986368894577026, 1.2355197668075562, 1.2724027633666992, 1.3092857599258423, 1.3461686372756958, 1.3830516338348389, 1.419934630393982, 1.4568175077438354, 1.4937005043029785, 1.530583381652832, 1.567466378211975, 1.6043493747711182, 1.6412322521209717, 1.6781152486801147, 1.7149982452392578, 1.7518811225891113, 1.7887641191482544, 1.825646996498108, 1.862529993057251, 1.899412989616394, 1.9362958669662476, 1.9731788635253906, 2.010061740875244, 2.0469448566436768, 2.0838277339935303, 2.120710611343384, 2.1575934886932373, 2.19447660446167, 2.2313594818115234, 2.268242359161377, 2.3051254749298096, 2.342008352279663, 2.3788912296295166, 2.415774345397949, 2.4526572227478027, 2.4895401000976562, 2.526423215866089, 2.5633060932159424, 2.600188970565796, 2.6370718479156494, 2.673954963684082, 2.7108378410339355, 2.747720718383789, 2.7846038341522217, 2.821486711502075]]}}, "shape": [10, 1, 28, 28]}, "output.1": {"id": "output.1", "data_group_type": "OUTPUT", "type": "Tensor", "value": {"tensor": [[-6.085203170776367, -8.378571510314941, -3.418384552001953, -5.729733943939209, -4.872769355773926, -6.513631343841553, -4.74623966217041, -0.13660390675067902, -4.026822090148926, -2.9278011322021484], [-5.994022369384766, -6.537241458892822, -5.550076007843018, -0.09510178118944168, -9.670519828796387, -3.5684852600097656, -10.727084159851074, -7.325249671936035, -2.972538471221924, -5.887140274047852], [-7.448146343231201, -9.193143844604492, -8.44726276397705, -5.420459270477295, -1.3715054988861084, -3.4400320053100586, -7.300531387329102, -3.017953395843506, -3.330395221710205, -0.4723544418811798], [-7.804854393005371, -10.19161605834961, -5.100881576538086, -10.6065092086792, -7.069790363311768, -7.225759983062744, -0.009729228913784027, -9.918622970581055, -8.452112197875977, -6.660890102386475], [-8.275559425354004, -0.02263787016272545, -5.5564141273498535, -5.92114782333374, -8.158860206604004, -6.439890384674072, -5.00390100479126, -7.438684940338135, -5.238468170166016, -6.818639755249023], [-5.225093841552734, -7.770374298095703, -5.185178756713867, -4.710395812988281, -7.832123756408691, -2.553658962249756, -8.40708065032959, -9.795097351074219, -0.10699248313903809, -5.954816818237305], [-9.15993881225586, -0.010993625037372112, -6.650810241699219, -6.468271732330322, -9.864418029785156, -7.801033973693848, -6.332509517669678, -8.554585456848145, -5.267756938934326, -7.832408905029297], [-0.015778925269842148, -16.550329208374023, -10.616900444030762, -9.53048324584961, -11.32417106628418, -4.196017265319824, -8.243061065673828, -10.312594413757324, -8.723536491394043, -10.374188423156738], [-6.766388893127441, -7.898741722106934, -6.525899887084961, -6.088038444519043, -1.572829246520996, -4.130598545074463, -5.619390487670898, -4.515974044799805, -4.320645332336426, -0.2965743839740753], [-4.5058274269104, -7.3451714515686035, -3.9591033458709717, -3.44889760017395, -7.321871280670166, -3.038799285888672, -6.972660064697266, -10.623881340026855, -0.12046783417463303, -6.551087856292725]], "tensor__stats": {"min": -16.550329208374023, "max": -0.009729228913784027, "mean": -6.035134792327881, "variance": 9.709648132324219, "nobs": 100, "histogram_bins": 10, "histogram": [[1, 0, 0, 8, 13, 22, 24, 15, 5, 12], [-16.550329208374023, -14.896268844604492, -13.242209434509277, -11.588149070739746, -9.934089660644531, -8.280029296875, -6.625969409942627, -4.971909046173096, -3.3178491592407227, -1.6637892723083496, -0.009729228913784027]]}}, "shape": [10, 10]}}, "graph": {"nodes": [{"data": {"id": "input.1", "label": "INPUT", "component_ids": ["input.1"]}}, {"data": {"id": 9, "label": "Conv", "component_ids": ["conv1.weight", "conv1.bias"]}}, {"data": {"id": 10, "label": "Relu", "component_ids": []}}, {"data": {"id": 11, "label": "Conv", "component_ids": ["conv2.weight", "conv2.bias"]}}, {"data": {"id": 12, "label": "Relu", "component_ids": []}}, {"data": {"id": 13, "label": "MaxPool", "component_ids": []}}, {"data": {"id": 14, "label": "Flatten", "component_ids": []}}, {"data": {"id": 15, "label": "Gemm", "component_ids": ["fc1.weight", "fc1.bias"]}}, {"data": {"id": 16, "label": "Relu", "component_ids": []}}, {"data": {"id": 17, "label": "Gemm", "component_ids": ["fc2.weight", "fc2.bias"]}}, {"data": {"id": 18, "label": "LogSoftmax", "component_ids": []}}, {"data": {"id": "output.1", "label": "OUTPUT", "component_ids": ["output.1"]}}], "edges": [{"data": {"id": "input.1_9", "source": "input.1", "target": 9}}, {"data": {"id": "9_10", "source": 9, "target": 10}}, {"data": {"id": "10_11", "source": 10, "target": 11}}, {"data": {"id": "11_12", "source": 11, "target": 12}}, {"data": {"id": "12_13", "source": 12, "target": 13}}, {"data": {"id": "13_14", "source": 13, "target": 14}}, {"data": {"id": "14_15", "source": 14, "target": 15}}, {"data": {"id": "15_16", "source": 15, "target": 16}}, {"data": {"id": "16_17", "source": 16, "target": 17}}, {"data": {"id": "17_18", "source": 17, "target": 18}}, {"data": {"id": "18_output.1", "source": "18", "target": "output.1"}}]}}