{"id": "0_2000", "meta": {"time": 1638574565.5254526, "refresh_model_graph": false}, "step_info": {"epoch": 0, "iter": 2000}, "additional_info": {"pred": {"type": "Tensor", "value": [[5], [9], [7], [3], [7], [6], [5], [2], [4], [3]]}, "loss": {"type": "Tensor", "value": 0.13978251814842224}, "class_label": {"type": "Tensor", "value": [5, 9, 7, 3, 7, 6, 5, 2, 4, 3]}, "test_acc": {"type": "float", "value": 91.66}}, "graph_id": [0, 0], "data": {"conv1.weight": {"id": "conv1.weight", "data_group_type": "PARAM", "type": "Parameter", "value": {"tensor": "NOT SERIALIZED, Too large 288", "grad": "NOT SERIALIZED, Too large 288", "first_delta": "NOT SERIALIZED, Too large 288", "tensor__stats": {"min": -0.33484914898872375, "max": 0.37087947130203247, "mean": 0.019236531108617783, "variance": 0.040901027619838715, "nobs": 288, "histogram_bins": 16, "histogram": [[24, 13, 23, 12, 14, 19, 12, 19, 16, 27, 15, 26, 24, 10, 19, 15], [-0.33484914898872375, -0.29074111580848694, -0.24663306772708893, -0.2025250345468521, -0.1584169864654541, -0.11430895328521729, -0.07020092010498047, -0.026092877611517906, 0.018015161156654358, 0.06212320178747177, 0.10623124241828918, 0.150339275598526, 0.19444730877876282, 0.23855535686016083, 0.28266340494155884, 0.32677143812179565, 0.37087947130203247]]}, "grad__stats": {"min": -0.03527122735977173, "max": 0.01446891762316227, "mean": -0.004440910182893276, "variance": 9.847182809608057e-05, "nobs": 288, "histogram_bins": 16, "histogram": [[2, 5, 5, 8, 8, 8, 14, 28, 19, 15, 28, 61, 63, 14, 6, 4], [-0.03527122735977173, -0.03216246888041496, -0.029053708538413048, -0.025944950059056282, -0.022836191579699516, -0.0197274312376976, -0.016618672758340836, -0.01350991427898407, -0.01040115486830473, -0.007292395923286676, -0.004183636978268623, -0.0010748776840046048, 0.00203388137742877, 0.005142640322446823, 0.008251399733126163, 0.01136015821248293, 0.01446891762316227]]}, "first_delta__stats": {"min": -0.014335021376609802, "max": 0.06257462501525879, "mean": 0.016742004081606865, "variance": 0.0003290427557658404, "nobs": 288, "histogram_bins": 16, "histogram": [[4, 40, 28, 22, 22, 22, 25, 21, 24, 24, 18, 13, 11, 6, 5, 3], [-0.014335021376609802, -0.009528168477118015, -0.004721315577626228, 8.553732186555862e-05, 0.004892390221357346, 0.009699243120849133, 0.01450609602034092, 0.019312947988510132, 0.024119801819324493, 0.028926655650138855, 0.03373350948095322, 0.03854035958647728, 0.04334721341729164, 0.048154067248106, 0.052960917353630066, 0.05776777118444443, 0.06257462501525879]]}}, "shape": [32, 1, 3, 3]}, "conv1.bias": {"id": "conv1.bias", "data_group_type": "PARAM", "type": "Parameter", "value": {"tensor": [0.06029292568564415, 0.3485155999660492, -0.01653260551393032, -0.14313311874866486, -0.2782975137233734, 0.0014392683515325189, 0.13731741905212402, 0.03080807439982891, 0.09624137729406357, 0.12868475914001465, 0.19823139905929565, 0.3142368793487549, 0.06236778199672699, -0.2263658046722412, 0.04103872552514076, -0.10473477095365524, 0.2011110484600067, 0.1294190138578415, 0.11869384348392487, 0.15943759679794312, -0.24453991651535034, -0.08828215301036835, 0.22496779263019562, -0.15035021305084229, 0.12142150104045868, 0.2693954110145569, 0.28491339087486267, -0.2421823889017105, 0.16126513481140137, -0.006020893808454275, 0.11707844585180283, 0.32011568546295166], "grad": [-0.0005548122571781278, -0.010598168708384037, -0.006530482321977615, -0.007054638583213091, -0.004197979811578989, -0.000259964115684852, 0.003815656527876854, -0.011473543010652065, -0.010345985181629658, -0.009195329621434212, -0.0013468542601913214, -0.013382515870034695, -0.012916205450892448, -0.0066629936918616295, -0.006320803426206112, -0.0005776315811090171, 0.0012773391790688038, -0.0014110638294368982, -0.005682226270437241, -0.0059729935601353645, -0.01049400120973587, 0.002423654543235898, -0.004730327520519495, -0.000513192848302424, 0.0009764610440470278, -0.007904324680566788, -0.006021430250257254, -0.0022860097233206034, -0.0010994491167366505, -0.006754524074494839, -0.005839318037033081, -0.008635420352220535], "first_delta": [0.024204816669225693, 0.02118074893951416, 0.006430402398109436, 0.03051416575908661, 0.03865966200828552, -0.0012096812715753913, 0.01505831629037857, 0.022016827017068863, 0.005670048296451569, 0.009064272046089172, 0.009795159101486206, 0.026077747344970703, 0.03640749305486679, 0.015392705798149109, 0.009206186980009079, 0.010285429656505585, 0.010092109441757202, 0.009459935128688812, 0.0032406002283096313, 0.006732478737831116, 0.04391056299209595, 0.02739182859659195, 0.013235077261924744, 0.00735001266002655, 0.006523013114929199, 0.03477737307548523, 0.03623732924461365, 0.007704213261604309, 0.018752336502075195, 0.007411569822579622, 0.019563019275665283, 0.01947110891342163], "tensor__stats": {"min": -0.2782975137233734, "max": 0.3485155999660492, "mean": 0.0633298009634018, "variance": 0.030751727521419525, "nobs": 32, "histogram_bins": 5, "histogram": [[4, 4, 8, 10, 6], [-0.2782975137233734, -0.15293489396572113, -0.0275722686201334, 0.09779035300016403, 0.2231529802083969, 0.3485155999660492]]}, "grad__stats": {"min": -0.013382515870034695, "max": 0.003815656527876854, "mean": -0.005008408799767494, "variance": 2.1319123334251344e-05, "nobs": 32, "histogram_bins": 5, "histogram": [[6, 7, 7, 8, 4], [-0.013382515870034695, -0.009942881762981415, -0.00650324672460556, -0.0030636123847216368, 0.00037602204247377813, 0.003815656527876854]]}, "first_delta__stats": {"min": -0.0012096812715753913, "max": 0.04391056299209595, "mean": 0.01720646396279335, "variance": 0.00013972644228488207, "nobs": 32, "histogram_bins": 5, "histogram": [[9, 9, 6, 4, 4], [-0.0012096812715753913, 0.007814367301762104, 0.01683841645717621, 0.02586246468126774, 0.03488651290535927, 0.04391056299209595]]}}, "shape": [32]}, "conv2.weight": {"id": "conv2.weight", "data_group_type": "PARAM", "type": "Parameter", "value": {"tensor": "NOT SERIALIZED, Too large 18432", "grad": "NOT SERIALIZED, Too large 18432", "first_delta": "NOT SERIALIZED, Too large 18432", "tensor__stats": {"min": -0.07136742770671844, "max": 0.08768543601036072, "mean": 0.004586661234498024, "variance": 0.001239317120052874, "nobs": 18432, "histogram_bins": 100, "histogram": [[1, 1, 5, 6, 10, 25, 42, 71, 112, 122, 161, 167, 177, 202, 214, 233, 187, 227, 218, 236, 239, 255, 257, 230, 228, 248, 259, 256, 238, 253, 241, 246, 226, 238, 242, 233, 233, 211, 275, 252, 270, 265, 245, 247, 259, 233, 249, 238, 236, 230, 214, 253, 254, 248, 249, 243, 234, 265, 252, 262, 246, 248, 270, 255, 235, 244, 267, 250, 236, 227, 244, 232, 286, 240, 235, 230, 243, 237, 240, 213, 207, 203, 160, 155, 116, 97, 82, 66, 57, 50, 42, 30, 29, 16, 13, 2, 2, 2, 0, 2], [-0.07136742770671844, -0.06977690011262894, -0.06818637251853943, -0.06659584492444992, -0.06500530987977982, -0.06341478228569031, -0.0618242546916008, -0.06023372709751129, -0.05864319950342178, -0.05705266818404198, -0.05546214058995247, -0.05387161299586296, -0.05228108540177345, -0.050690554082393646, -0.04910002648830414, -0.04750949889421463, -0.04591897130012512, -0.044328439980745316, -0.04273791238665581, -0.0411473847925663, -0.03955685347318649, -0.037966325879096985, -0.03637579828500748, -0.03478527069091797, -0.03319473937153816, -0.031604211777448654, -0.030013682320713997, -0.02842315472662449, -0.02683262526988983, -0.025242097675800323, -0.023651568219065666, -0.022061040624976158, -0.0204705111682415, -0.018879983574151993, -0.017289454117417336, -0.015698924660682678, -0.01410839706659317, -0.012517868541181087, -0.01092733908444643, -0.009336810559034348, -0.007746282033622265, -0.006155753508210182, -0.0045652249827980995, -0.002974696224555373, -0.0013841676991432905, 0.00020636097178794444, 0.0017968895845115185, 0.003387418342754245, 0.004977947100996971, 0.006568475626409054, 0.008159004151821136, 0.00974953267723322, 0.011340061202645302, 0.012930589728057384, 0.014521118253469467, 0.016111647710204124, 0.017702175304293633, 0.01929270476102829, 0.020883232355117798, 0.022473761811852455, 0.024064291268587112, 0.02565481886267662, 0.027245348319411278, 0.028835875913500786, 0.030426405370235443, 0.03201693296432495, 0.03360746055841446, 0.035197991877794266, 0.036788519471883774, 0.03837904706597328, 0.03996957838535309, 0.041560105979442596, 0.043150633573532104, 0.04474116116762161, 0.04633169248700142, 0.04792222008109093, 0.049512747675180435, 0.05110327899456024, 0.05269380658864975, 0.05428433418273926, 0.055874861776828766, 0.05746539309620857, 0.05905592069029808, 0.06064644828438759, 0.062236979603767395, 0.0638275071978569, 0.06541803479194641, 0.06700856238603592, 0.06859908998012543, 0.07018961757421494, 0.07178015261888504, 0.07337068021297455, 0.07496120780706406, 0.07655173540115356, 0.07814226299524307, 0.07973279058933258, 0.08132331818342209, 0.0829138532280922, 0.0845043808221817, 0.08609490841627121, 0.08768543601036072]]}, "grad__stats": {"min": -0.016558025032281876, "max": 0.017665931954979897, "mean": -0.00029514325433410704, "variance": 1.0765162187453825e-05, "nobs": 18432, "histogram_bins": 100, "histogram": [[1, 2, 4, 7, 5, 2, 5, 10, 12, 6, 8, 13, 14, 19, 11, 41, 26, 26, 27, 30, 45, 37, 37, 48, 55, 49, 59, 64, 70, 72, 102, 118, 106, 136, 161, 170, 182, 208, 285, 333, 360, 443, 517, 635, 826, 987, 1279, 1688, 1879, 1446, 1009, 736, 637, 473, 371, 331, 320, 244, 176, 179, 175, 144, 123, 104, 71, 77, 71, 56, 51, 36, 40, 37, 36, 23, 28, 30, 13, 25, 19, 13, 14, 15, 13, 15, 5, 6, 12, 2, 8, 6, 6, 3, 3, 4, 2, 2, 1, 0, 0, 1], [-0.016558025032281876, -0.016215786337852478, -0.01587354578077793, -0.015531306155025959, -0.015189066529273987, -0.014846826903522015, -0.014504587277770042, -0.01416234765201807, -0.013820108026266098, -0.0134778693318367, -0.013135629706084728, -0.012793390080332756, -0.012451150454580784, -0.012108910828828812, -0.01176667120307684, -0.011424431577324867, -0.011082191951572895, -0.010739952325820923, -0.01039771270006895, -0.010055473074316978, -0.009713233448565006, -0.009370993822813034, -0.009028754197061062, -0.00868651457130909, -0.008344274945557117, -0.008002035319805145, -0.00765979615971446, -0.007317556533962488, -0.006975316908210516, -0.006633077282458544, -0.006290838122367859, -0.005948598496615887, -0.0056063588708639145, -0.005264119245111942, -0.00492187961935997, -0.004579639993607998, -0.004237400367856026, -0.003895160974934697, -0.003552921349182725, -0.0032106817234307528, -0.002868442330509424, -0.002526202704757452, -0.00218396307900548, -0.0018417235696688294, -0.0014994839439168572, -0.0011572444345802069, -0.0008150048088282347, -0.0004727652412839234, -0.0001305256737396121, 0.00021171389380469918, 0.0005539534613490105, 0.0008961930288933218, 0.001238432596437633, 0.0015806722221896052, 0.0019229117315262556, 0.002265151357278228, 0.0026073909830302, 0.0029496303759515285, 0.0032918700017035007, 0.003634109627455473, 0.003976349253207445, 0.004318588878959417, 0.0046608285047113895, 0.005003067664802074, 0.005345307290554047, 0.005687546916306019, 0.006029786542057991, 0.006372026167809963, 0.006714265793561935, 0.007056505419313908, 0.00739874504506588, 0.007740984205156565, 0.008083224296569824, 0.008425463922321796, 0.008767703548073769, 0.009109942242503166, 0.009452181868255138, 0.00979442149400711, 0.010136661119759083, 0.010478900745511055, 0.010821140371263027, 0.011163379997015, 0.011505619622766972, 0.011847859248518944, 0.012190098874270916, 0.012532338500022888, 0.01287457812577486, 0.013216817751526833, 0.013559057377278805, 0.013901297003030777, 0.01424353662878275, 0.014585776254534721, 0.014928014948964119, 0.015270254574716091, 0.015612494200468063, 0.01595473475754261, 0.016296973451972008, 0.016639214009046555, 0.016981452703475952, 0.0173236932605505, 0.017665931954979897]]}, "first_delta__stats": {"min": -0.014705128967761993, "max": 0.034804318100214005, "mean": 0.0044881380163133144, "variance": 4.99181987834163e-05, "nobs": 18432, "histogram_bins": 100, "histogram": [[4, 1, 1, 5, 5, 6, 7, 12, 22, 25, 33, 46, 60, 74, 99, 119, 124, 152, 170, 230, 245, 260, 331, 370, 389, 433, 506, 522, 628, 712, 682, 639, 564, 537, 474, 489, 478, 481, 467, 436, 427, 446, 435, 412, 353, 329, 316, 316, 319, 304, 298, 278, 231, 232, 244, 191, 214, 181, 190, 180, 166, 143, 159, 144, 135, 121, 112, 98, 78, 72, 55, 50, 59, 42, 43, 26, 34, 31, 18, 18, 11, 11, 12, 11, 13, 4, 2, 4, 8, 7, 4, 1, 2, 1, 0, 1, 0, 0, 1, 1], [-0.014705128967761993, -0.014210034161806107, -0.013714940287172794, -0.013219845481216908, -0.01272475067526102, -0.012229656800627708, -0.011734561994671822, -0.01123946812003851, -0.010744373314082623, -0.010249278508126736, -0.009754184633493423, -0.009259089827537537, -0.00876399502158165, -0.008268901146948338, -0.007773806340992451, -0.007278712000697851, -0.006783617660403252, -0.006288522854447365, -0.005793428514152765, -0.005298334173858166, -0.004803239367902279, -0.004308145027607679, -0.00381305068731308, -0.0033179561141878366, -0.002822861773893237, -0.002327767200767994, -0.0018326727440580726, -0.0013375782873481512, -0.0008424837724305689, -0.0003473893157206476, 0.00014770515554118901, 0.0006427995976991951, 0.0011378941126167774, 0.0016329885693266988, 0.00212808302603662, 0.0026231775991618633, 0.003118271939456463, 0.003613366512581706, 0.004108461085706949, 0.004603555426001549, 0.005098649766296148, 0.005593744106590748, 0.006088838912546635, 0.006583933252841234, 0.007079027593135834, 0.007574122399091721, 0.008069216273725033, 0.00856431107968092, 0.009059405885636806, 0.009554499760270119, 0.010049594566226006, 0.010544689372181892, 0.011039783246815205, 0.011534878052771091, 0.012029972858726978, 0.01252506673336029, 0.013020161539316177, 0.01351525541394949, 0.014010350219905376, 0.014505445025861263, 0.015000538900494576, 0.015495633706450462, 0.01599072851240635, 0.016485823318362236, 0.016980916261672974, 0.01747601106762886, 0.017971105873584747, 0.018466200679540634, 0.01896129548549652, 0.019456390291452408, 0.019951483234763145, 0.020446578040719032, 0.02094167284667492, 0.021436767652630806, 0.021931862458586693, 0.02242695540189743, 0.022922050207853317, 0.023417145013809204, 0.02391223981976509, 0.024407334625720978, 0.024902429431676865, 0.025397522374987602, 0.02589261718094349, 0.026387711986899376, 0.026882806792855263, 0.02737790159881115, 0.027872996404767036, 0.028368089348077774, 0.02886318415403366, 0.029358278959989548, 0.029853373765945435, 0.03034846857190132, 0.03084356151521206, 0.031338658183813095, 0.03183375298976898, 0.03232884407043457, 0.03282393887639046, 0.033319033682346344, 0.03381412848830223, 0.03430922329425812, 0.034804318100214005]]}}, "shape": [64, 32, 3, 3]}, "conv2.bias": {"id": "conv2.bias", "data_group_type": "PARAM", "type": "Parameter", "value": {"tensor": [-0.03364787995815277, 0.059167105704545975, -0.005233519710600376, 0.0053130690939724445, -0.004385603591799736, -0.006330555770546198, 0.03324607387185097, 0.011101406067609787, -0.021058497950434685, 0.010922274552285671, 0.005388255696743727, -0.033938709646463394, 0.027420541271567345, 0.04382103309035301, -0.021106185391545296, -0.043581146746873856, 0.002708675106987357, -0.04552871733903885, 0.05850209295749664, -0.044174838811159134, 0.050406958907842636, -0.02559802308678627, -0.0021261987276375294, -0.0013923074584454298, 0.04601587355136871, 0.03816283494234085, -0.05030563846230507, -0.0360802561044693, 0.060154370963573456, 0.07162191718816757, 0.009175876155495644, -0.022427909076213837, 0.009657041169703007, 0.05351945757865906, -0.04190240800380707, -0.033776599913835526, 0.00537048140540719, 0.03081146627664566, 0.037276364862918854, -0.018283400684595108, -0.020249487832188606, 0.05906456336379051, -0.03871973976492882, -0.020869700238108635, 0.04729651287198067, 0.0408920980989933, -0.023817438632249832, 0.012806554324924946, -0.027383582666516304, -0.010131056420505047, 0.0482250414788723, -0.03976087272167206, 0.01912883296608925, -0.03417617455124855, 0.010399880819022655, 0.056140292435884476, 0.06218773499131203, 0.05602630227804184, -0.03336437791585922, -0.013493417762219906, -0.00608080206438899, 0.04412347823381424, 0.024227218702435493, 0.05337829887866974], "grad": [-0.002185377525165677, 0.00224309042096138, -0.004365357104688883, -0.0003319650422781706, 0.0013374144909903407, -0.0022352763917297125, -0.0028677107766270638, -0.0019642063416540623, -5.0560429372126237e-05, -0.002474449807778001, 0.006446113344281912, -0.004611543845385313, -0.0013058853801339865, -0.008141307160258293, 0.0016062308568507433, -0.00021031901997048408, -0.004900630563497543, -0.0014804081292822957, -0.004869988653808832, 0.0022703378926962614, 0.009966620244085789, -0.002509696874767542, 6.355172081384808e-05, 0.007362997625023127, -0.0062457057647407055, -0.0031415752600878477, -0.00024671992287039757, -0.002178794238716364, -0.005173297133296728, -0.0018661912763491273, 0.001753555261529982, -0.006253293249756098, -0.0005177006241865456, 0.0024201651103794575, -0.0008811879670247436, 0.0016655599465593696, -0.00486756581813097, -0.0030483331065624952, -0.00038897700142115355, 0.000642190279904753, 0.005189112853258848, 0.004735448397696018, -0.003214871510863304, -0.003545235376805067, 0.0007514945464208722, -0.0015653915470466018, 0.0011587431654334068, 0.005000128410756588, 0.0009198530460707843, -0.0034797845873981714, -0.003895350033417344, 0.0011742551578208804, -0.004927575122565031, 0.004832204896956682, 0.00446915440261364, -0.0027045654132962227, 0.003464306704699993, -0.003944439347833395, 0.0029543221462517977, -0.005132931750267744, -0.005188286304473877, -0.006736289244145155, -0.006053413730114698, -0.005437267478555441], "first_delta": [0.00816696509718895, 0.003453560173511505, 0.0006403601728379726, 0.0028534000739455223, 0.003230044152587652, 0.005442801397293806, 0.017191721126437187, 0.003331177867949009, 0.007248822599649429, 0.008452019654214382, 0.0032693438697606325, 0.0066042616963386536, 0.0026555657386779785, 0.00913650169968605, 0.0013280268758535385, 0.010570831596851349, 0.0023249771911650896, 0.012831758707761765, 0.0020833872258663177, 0.006275247782468796, 0.007844064384698868, 0.003113534301519394, 0.0009091892279684544, 0.0037147316616028547, 0.006830964237451553, 0.005310926586389542, 0.0032245106995105743, 0.007368478924036026, 0.005338497459888458, 0.015457835048437119, 0.010675229132175446, 0.005047326907515526, 0.005460936110466719, 0.003198135644197464, 0.00891619548201561, 0.008569780737161636, 0.002958831610158086, 0.006632592529058456, 0.010922228917479515, 0.005413742735981941, 0.0040439702570438385, 0.0026623718440532684, 0.013418368995189667, 0.014014264568686485, 0.0047025009989738464, 0.00967760756611824, 0.01811937242746353, 0.006247472018003464, 0.00400303490459919, 0.008975290693342686, 0.005670871585607529, 0.011008743196725845, 0.0013776980340480804, 0.0005961135029792786, 0.006363442167639732, 0.007455714046955109, 0.006955638527870178, 0.010951995849609375, 0.0062947459518909454, 0.005950511433184147, 0.009477123618125916, 0.007852643728256226, 0.001544339582324028, 0.017111778259277344], "tensor__stats": {"min": -0.05030563846230507, "max": 0.07162191718816757, "mean": 0.006948983296751976, "variance": 0.0012595163425430655, "nobs": 64, "histogram_bins": 8, "histogram": [[8, 13, 6, 10, 5, 6, 10, 6], [-0.05030563846230507, -0.0350646935403347, -0.019823748618364334, -0.004582805093377829, 0.010658139362931252, 0.02589908428490162, 0.04114002734422684, 0.056380972266197205, 0.07162191718816757]]}, "grad__stats": {"min": -0.008141307160258293, "max": 0.009966620244085789, "mean": -0.0009798839455470443, "variance": 1.4561732314177789e-05, "nobs": 64, "histogram_bins": 8, "histogram": [[5, 12, 16, 11, 11, 6, 2, 1], [-0.008141307160258293, -0.005877816118299961, -0.0036143253091722727, -0.0013508343836292624, 0.0009126565419137478, 0.00317614758387208, 0.005439638160169125, 0.007703129202127457, 0.009966620244085789]]}, "first_delta__stats": {"min": 0.0005961135029792786, "max": 0.01811937242746353, "mean": 0.006694908253848553, "variance": 1.760842314979527e-05, "nobs": 64, "histogram_bins": 8, "histogram": [[10, 13, 16, 11, 7, 2, 2, 3], [0.0005961135029792786, 0.00278652086853981, 0.004976928234100342, 0.007167335599660873, 0.009357742965221405, 0.011548150330781937, 0.013738557696342468, 0.015928965061903, 0.01811937242746353]]}}, "shape": [64]}, "fc1.weight": {"id": "fc1.weight", "data_group_type": "PARAM", "type": "Parameter", "value": {"tensor": "NOT SERIALIZED, Too large 1179648", "grad": "NOT SERIALIZED, Too large 1179648", "first_delta": "NOT SERIALIZED, Too large 1179648", "tensor__stats": {"min": -0.019832629710435867, "max": 0.02029145322740078, "mean": 0.0002489861217327416, "variance": 3.8312471588142216e-05, "nobs": 1179648, "histogram_bins": 100, "histogram": [[2, 1, 1, 1, 6, 6, 2, 5, 17, 24, 32, 71, 93, 165, 248, 357, 513, 816, 1049, 1796, 2600, 3873, 5905, 10530, 14202, 16475, 17931, 19377, 20242, 21106, 21600, 22069, 22174, 22302, 22431, 22681, 22713, 22962, 22839, 22689, 22875, 22800, 22627, 22728, 22526, 22890, 22591, 22666, 22759, 22733, 22738, 22511, 22677, 22833, 22480, 22640, 22632, 22745, 22619, 22723, 22861, 22884, 22856, 22468, 22437, 22376, 22727, 22294, 22199, 21942, 21410, 20747, 20030, 18636, 16689, 11726, 8283, 6175, 4491, 3227, 2351, 1594, 1123, 851, 554, 351, 243, 141, 111, 70, 43, 30, 8, 8, 7, 2, 0, 3, 0, 1], [-0.019832629710435867, -0.01943138800561428, -0.019030148163437843, -0.018628906458616257, -0.01822766661643982, -0.017826424911618233, -0.017425185069441795, -0.01702394336462021, -0.01662270352244377, -0.016221461817622185, -0.015820221975445747, -0.01541898027062416, -0.015017739497125149, -0.014616498723626137, -0.014215257950127125, -0.013814017176628113, -0.0134127764031291, -0.013011535629630089, -0.012610294856131077, -0.012209054082632065, -0.011807813309133053, -0.01140657253563404, -0.011005331762135029, -0.010604090988636017, -0.010202850215137005, -0.009801609441637993, -0.009400367736816406, -0.008999126963317394, -0.008597886189818382, -0.00819664541631937, -0.007795404642820358, -0.007394163869321346, -0.006992923095822334, -0.006591682322323322, -0.00619044154882431, -0.005789200775325298, -0.005387960001826286, -0.004986719228327274, -0.004585477989166975, -0.004184237215667963, -0.003782996442168951, -0.003381755668669939, -0.002980514895170927, -0.002579274121671915, -0.0021780331153422594, -0.0017767923418432474, -0.0013755515683442354, -0.0009743107366375625, -0.0005730699049308896, -0.0001718290732242167, 0.0002294117584824562, 0.0006306525901891291, 0.001031893421895802, 0.001433134195394814, 0.0018343750853091478, 0.00223561585880816, 0.002636856632307172, 0.0030380976386368275, 0.0034393384121358395, 0.0038405791856348515, 0.0042418199591338634, 0.0046430607326328754, 0.0050443015061318874, 0.005445542745292187, 0.005846783518791199, 0.006248024292290211, 0.006649265065789223, 0.007050505839288235, 0.007451746612787247, 0.007852987386286259, 0.00825422815978527, 0.008655468933284283, 0.009056709706783295, 0.009457950480282307, 0.009859191253781319, 0.010260432958602905, 0.010661673732101917, 0.01106291450560093, 0.011464155279099941, 0.011865396052598953, 0.012266636826097965, 0.012667877599596977, 0.01306911837309599, 0.013470359146595001, 0.013871599920094013, 0.014272840693593025, 0.014674081467092037, 0.01507532224059105, 0.015476563014090061, 0.015877803787589073, 0.01627904549241066, 0.016680285334587097, 0.017081527039408684, 0.01748276688158512, 0.017884008586406708, 0.018285248428583145, 0.018686490133404732, 0.01908772997558117, 0.019488971680402756, 0.019890211522579193, 0.02029145322740078]]}, "grad__stats": {"min": -0.06939822435379028, "max": 0.07007371634244919, "mean": -0.00013261537242215127, "variance": 2.803638381010387e-05, "nobs": 1179648, "histogram_bins": 100, "histogram": [[1, 1, 3, 3, 7, 3, 7, 8, 8, 10, 9, 12, 16, 15, 24, 35, 43, 50, 68, 77, 106, 150, 177, 222, 283, 352, 397, 508, 563, 662, 830, 1040, 1173, 1379, 1599, 1921, 2313, 2868, 3241, 3886, 4750, 6006, 7565, 9426, 12281, 17095, 24929, 40282, 86054, 643183, 141539, 49561, 27718, 19107, 13851, 10418, 8075, 6278, 4884, 3899, 3173, 2618, 2174, 1742, 1475, 1160, 956, 802, 679, 593, 542, 452, 388, 324, 273, 229, 198, 155, 138, 100, 94, 74, 62, 49, 40, 36, 32, 24, 25, 30, 11, 11, 3, 3, 5, 4, 1, 1, 0, 1], [-0.06939822435379028, -0.06800350546836853, -0.06660878658294678, -0.06521406769752502, -0.06381934881210327, -0.06242462620139122, -0.06102990731596947, -0.059635188430547714, -0.05824046954512596, -0.05684575065970421, -0.055451031774282455, -0.054056309163570404, -0.05266159027814865, -0.0512668713927269, -0.049872152507305145, -0.04847743362188339, -0.04708271473646164, -0.045687995851039886, -0.044293273240327835, -0.04289855435490608, -0.04150383546948433, -0.040109116584062576, -0.03871439769864082, -0.03731967881321907, -0.03592495992779732, -0.034530237317085266, -0.03313551843166351, -0.03174079954624176, -0.030346080660820007, -0.028951361775398254, -0.0275566428899765, -0.0261619221419096, -0.024767203256487846, -0.023372484371066093, -0.02197776362299919, -0.02058304473757744, -0.019188325852155685, -0.017793606966733932, -0.01639888621866703, -0.015004167333245277, -0.013609448447823524, -0.012214728631079197, -0.01082000881433487, -0.009425289928913116, -0.008030570112168789, -0.006635851226747036, -0.0052411314100027084, -0.003846412291750312, -0.002451692707836628, -0.0010569733567535877, 0.0003377459943294525, 0.0017324653454124928, 0.003127184696495533, 0.004521904047578573, 0.0059166233986616135, 0.007311343215405941, 0.008706062100827694, 0.010100781917572021, 0.011495500802993774, 0.012890220619738102, 0.01428494043648243, 0.015679659321904182, 0.017074378207325935, 0.018469098955392838, 0.01986381784081459, 0.021258536726236343, 0.022653255611658096, 0.024047976359725, 0.02544269524514675, 0.026837414130568504, 0.028232134878635406, 0.02962685376405716, 0.031021572649478912, 0.032416291534900665, 0.03381101042032242, 0.03520572930574417, 0.03660045191645622, 0.037995170801877975, 0.03938988968729973, 0.04078460857272148, 0.042179327458143234, 0.04357404634356499, 0.04496876522898674, 0.04636348783969879, 0.047758206725120544, 0.0491529256105423, 0.05054764449596405, 0.0519423633813858, 0.053337082266807556, 0.05473180115222931, 0.05612652376294136, 0.05752124264836311, 0.058915961533784866, 0.06031068041920662, 0.06170539930462837, 0.06310012191534042, 0.06449484080076218, 0.06588955968618393, 0.06728427857160568, 0.06867899745702744, 0.07007371634244919]]}, "first_delta__stats": {"min": -0.013734203763306141, "max": 0.012592008337378502, "mean": 0.00025111983995884657, "variance": 2.1322427983250236e-06, "nobs": 1179648, "histogram_bins": 100, "histogram": [[1, 1, 1, 1, 0, 0, 1, 0, 1, 1, 0, 2, 4, 1, 3, 8, 10, 10, 21, 15, 14, 26, 31, 37, 55, 86, 94, 140, 186, 258, 368, 503, 653, 878, 1166, 1533, 1963, 2560, 3198, 4229, 5380, 7033, 9194, 12144, 15267, 19944, 25889, 33723, 42708, 55620, 79402, 167379, 181394, 89275, 74657, 63878, 53711, 43845, 36190, 29364, 23853, 19196, 15248, 12141, 9653, 7762, 6145, 4966, 3754, 2999, 2364, 1829, 1408, 1134, 828, 636, 484, 323, 262, 172, 128, 99, 65, 41, 36, 20, 12, 11, 5, 4, 5, 1, 3, 1, 1, 0, 1, 0, 1, 1], [-0.013734203763306141, -0.013470941223204136, -0.013207679614424706, -0.0129444170743227, -0.01268115546554327, -0.012417892925441265, -0.012154631316661835, -0.01189136877655983, -0.0116281071677804, -0.011364844627678394, -0.011101583018898964, -0.010838320478796959, -0.010575057938694954, -0.010311796329915524, -0.010048533789813519, -0.009785272181034088, -0.009522009640932083, -0.009258748032152653, -0.008995485492050648, -0.008732223883271217, -0.008468961343169212, -0.008205698803067207, -0.007942437194287777, -0.007679175119847059, -0.0074159130454063416, -0.0071526505053043365, -0.006889388430863619, -0.006626126356422901, -0.0063628642819821835, -0.006099602207541466, -0.005836340133100748, -0.00557307805866003, -0.005309815984219313, -0.005046553909778595, -0.004783291835337877, -0.00452002976089716, -0.004256767220795155, -0.003993505146354437, -0.003730243071913719, -0.0034669809974730015, -0.0032037189230322838, -0.002940456848591566, -0.0026771947741508484, -0.002413932466879487, -0.0021506703924387693, -0.0018874083179980516, -0.001624146243557334, -0.0013608840527012944, -0.0010976219782605767, -0.0008343598456121981, -0.0005710977129638195, -0.0003078355803154409, -4.4573469494935125e-05, 0.00021868865587748587, 0.000481950759422034, 0.0007452128920704126, 0.0010084749665111303, 0.0012717371573671699, 0.0015349992318078876, 0.001798261422663927, 0.0020615234971046448, 0.0023247855715453625, 0.00258804764598608, 0.0028513099532574415, 0.0031145720276981592, 0.003377834102138877, 0.0036410961765795946, 0.0039043582510203123, 0.004167620558291674, 0.004430882632732391, 0.004694144707173109, 0.004957406781613827, 0.0052206688560545444, 0.005483930930495262, 0.00574719300493598, 0.0060104550793766975, 0.0062737176194787025, 0.00653697969391942, 0.006800241768360138, 0.007063503842800856, 0.007326765917241573, 0.007590027991682291, 0.007853290066123009, 0.008116552606225014, 0.008379814215004444, 0.008643076755106449, 0.00890633836388588, 0.009169600903987885, 0.009432862512767315, 0.00969612505286932, 0.00995938666164875, 0.010222649201750755, 0.01048591174185276, 0.01074917335063219, 0.011012435890734196, 0.011275697499513626, 0.011538960039615631, 0.011802221648395061, 0.012065484188497066, 0.012328745797276497, 0.012592008337378502]]}}, "shape": [128, 9216]}, "fc1.bias": {"id": "fc1.bias", "data_group_type": "PARAM", "type": "Parameter", "value": {"tensor": [-0.005563885439187288, 0.010833486914634705, -0.002646544948220253, -0.002361159073188901, -0.0002681325131561607, 0.004604026675224304, 7.082111551426351e-05, -0.005924042314291, 0.001327424542978406, 0.001057776273228228, 0.0056997244246304035, 0.00380151579156518, 0.009599506855010986, 0.007650334853678942, -0.00122373818885535, -0.004052681382745504, 0.00815256405621767, 0.008235091343522072, -0.005960116162896156, -0.0019861438777297735, -0.009738435037434101, 0.002956848591566086, 0.0024807793088257313, -0.0008602408925071359, 0.002798187080770731, -0.0011507113231346011, -0.00500659691169858, -0.009789891541004181, 0.007775646634399891, 0.0002972288057208061, -0.009024246595799923, 0.012168198823928833, -0.0002816843625623733, -0.0047628446482121944, 0.0019461195915937424, -0.01000717468559742, 0.00010349670628784224, -0.0007423602510243654, -0.005266768392175436, 0.011126688681542873, 0.0018550942186266184, -0.005587239749729633, -0.007394603453576565, 0.008744304068386555, -0.004685058258473873, -0.0030541890300810337, 0.007971168495714664, 0.010967916809022427, 0.004449253901839256, -0.000917737721465528, 0.003936000168323517, 0.001733930897898972, 0.008737740106880665, -0.006982311140745878, 0.0015412503853440285, -0.0005345209501683712, -0.009106356650590897, 0.008812610059976578, 0.0009318643133156002, 0.0002856173668988049, 0.00015274518227670342, 0.0009319328819401562, -0.004768440965563059, 0.004593388177454472, 0.0062648821622133255, -0.009140134789049625, 0.007836778648197651, 0.010329999960958958, -0.005468711722642183, 0.008125782012939453, 0.006488877348601818, 0.007268941029906273, 0.002373694209381938, -0.00849548913538456, 0.006191658321768045, 0.007565537001937628, -0.0012351400218904018, -0.007262016646564007, 0.0003864715399686247, -0.007701966445893049, 0.0031868801452219486, -0.003681567730382085, 0.005277902819216251, 0.0001821469923015684, -0.007509563583880663, -0.005885242018848658, 0.009532785974442959, 0.0020503292325884104, 0.0027155003044754267, 0.005074945744127035, 0.00197979505173862, 0.0030796064529567957, -0.006438331212848425, 0.007545071188360453, -0.003505377797409892, 0.002248588250949979, -0.0012344758724793792, -0.009927589446306229, -0.0016135828336700797, -0.003942354582250118, -0.002322083106264472, 0.0065074497833848, -0.0059795258566737175, -0.0016089880373328924, -0.0006622684304602444, -0.00022889903630129993, -0.000993344932794571, -0.0020193997770547867, -0.0031713766511529684, -0.005712957587093115, 0.006968806963413954, 0.004663958214223385, -0.008214238099753857, -0.010343683883547783, -0.0028106761164963245, 0.010507823899388313, -0.003533727955073118, -0.0025886804796755314, -0.010460076853632927, 0.0046773916110396385, 0.005837604403495789, 0.00423569418489933, -0.002079977188259363, -0.007583382539451122, -0.005831039510667324, 0.01172688789665699, -0.0031044373754411936, -0.002905379980802536], "grad": [0.0074140033684670925, 0.0015514385886490345, 0.005092170089483261, -0.0018696176121011376, -0.002037336817011237, -0.00508422777056694, -0.0014477798249572515, 0.003536229720339179, 0.0015567223308607936, 0.0, -0.0021589735988527536, 0.0005811128066852689, 0.0, -0.0009276432683691382, -0.002153965411707759, -0.00016570743173360825, -0.0015433913795277476, -0.0004282386798877269, -0.0009989162208512425, -0.004792987834662199, 0.002090123714879155, 0.0, 0.0014566660393029451, -0.0005714686121791601, 0.0009317794465459883, -0.000756945984903723, -0.001076623098924756, 0.0019633122719824314, -0.0024265777319669724, 0.0007430195109918714, -0.0006264598341658711, 0.0006778395036235452, -0.002949400572106242, 0.00021475170797202736, 0.0029464189428836107, 0.0, -0.0057251001708209515, 0.0008907365845516324, -0.0001684626331552863, 0.0062186880968511105, -0.009874662384390831, 0.0017389169661328197, 0.007067779544740915, -0.0015529667725786567, 0.0023290934041142464, -0.0013086310354992747, 0.000554397061932832, -0.0018114768899977207, -0.0036707757972180843, 0.004687842912971973, 0.0, -0.005578865762799978, -0.004256725311279297, 0.002721067750826478, -0.0020487585570663214, -0.0004873908474110067, 0.003448868403211236, -0.006239361595362425, -0.0033472711220383644, 0.0025053529534488916, -0.00029718707082793117, -0.003032585373148322, 0.0004657055251300335, 0.007348033599555492, 0.0, 0.0015338545199483633, 0.0024655319284647703, -0.0009631548309698701, 0.0, -0.00720659364014864, -0.0014683222398161888, 4.475663899938809e-06, 0.003200150327757001, -0.0030516930855810642, 0.0013795864069834352, 0.0016226965235546231, -0.00017142834258265793, 0.0016178847290575504, -0.001137223676778376, -0.0017350296257063746, 0.008273615501821041, 0.00015180723858065903, 0.00018842844292521477, -0.0016006664372980595, 0.0032335740979760885, 0.004852593876421452, -0.00037994925514794886, -0.0004564465780276805, 0.0, -0.0012902946909889579, -0.002135960850864649, -0.0009028445929288864, 0.0, 0.0020964937284588814, 0.0, 0.0019907569512724876, 0.0009750226745381951, 0.0, -0.0016963918460533023, -0.005546968430280685, 0.0011289329268038273, -0.00036410600296221673, 0.0, -0.002285369671881199, -1.6210333342314698e-05, -0.00708216754719615, 0.00454771239310503, -0.004063713364303112, 0.0, 0.00692034000530839, 0.0008853874751366675, 0.003176080761477351, 0.0, -0.0005204727058298886, 0.002492654835805297, 0.0029169912450015545, -0.0027450115885585546, -0.0007034249720163643, -0.0005507866153493524, -0.0014605863252654672, -0.0017542445566505194, -0.0038708625361323357, 0.001081797294318676, -0.006301150191575289, -0.0009406209574081004, 0.003304212586954236, 0.0018421165877953172, -0.00434817373752594], "first_delta": [-0.0001350780948996544, 0.002553139813244343, 0.0008511501364409924, -0.0006416680989786983, -0.0001226214226335287, 0.0006478042341768742, -0.0006305243587121367, -0.0014717564918100834, 0.003418446285650134, -0.00023782008793205023, -0.0008545327000319958, -0.00029982300475239754, -0.0004967935383319855, 0.0005688448436558247, 0.0016010290710255504, 0.0008652717806398869, 0.0012466628104448318, 0.00021997839212417603, 0.00013994751498103142, 0.003163764486089349, 0.0002650301903486252, -0.00039703911170363426, 0.000319907208904624, 0.00344430236145854, -0.001519767101854086, 0.002769655082374811, 0.002683039288967848, -0.0018085241317749023, 0.0008318680338561535, -0.0010406695073470473, 0.0011011259630322456, 0.0019080908969044685, -0.0008492894703522325, -0.0013546249829232693, -0.000772546511143446, -0.00043936725705862045, 0.0013565515400841832, 0.002646208507940173, 0.0009369687177240849, 0.0013580322265625, 0.0012717348290607333, 0.0017396053299307823, 0.0016088271513581276, 0.0012518782168626785, 0.0005929330363869667, 0.0020859604701399803, 0.0003566006198525429, 0.0034658899530768394, -0.00017453311011195183, 0.0009584091603755951, -0.0003214753232896328, 0.0006279244553297758, 0.00011037103831768036, 0.001639705616980791, 0.00016683677677065134, 0.000219331297557801, -0.0002275705337524414, 5.077756941318512e-05, 0.0006843237206339836, 9.010170469991863e-05, 0.0008934210636653006, -0.0005782837397418916, 0.0016972948797047138, 0.0006222883239388466, -8.939672261476517e-05, 0.0001499708741903305, 0.0011807503178715706, 0.001614023931324482, -0.000497796107083559, 0.00046235788613557816, -6.403634324669838e-05, -0.00020345021039247513, -0.0012614105362445116, 0.000618823803961277, -0.0007139747031033039, -0.0010118349455296993, -0.0015192045830190182, 0.002244621515274048, 0.002829765435308218, 0.0006093974225223064, 0.00029004598036408424, 0.0008934277575463057, 0.002440496813505888, 0.0006765874568372965, 0.0013324650935828686, 0.0013172654435038567, -0.00023531634360551834, 0.0013950916472822428, -0.0003055648412555456, 0.00043622637167572975, -0.0004498891066759825, -0.001256074057891965, -0.00013315537944436073, 0.001100395806133747, -9.042513556778431e-05, 0.0015491674421355128, 0.0018541276222094893, -0.0005190335214138031, 9.776221122592688e-05, 0.0003645801916718483, 0.0018636283930391073, 0.0010417718440294266, -0.00046192994341254234, 0.00039779115468263626, -0.0005180785665288568, 0.0029888651333749294, -0.0018283389508724213, 0.0020411829464137554, -0.00023350585252046585, 0.00029405951499938965, 0.0006844941526651382, -0.00019056349992752075, -0.00020373612642288208, -0.0006242189556360245, -5.0444621592760086e-05, 0.0013944422826170921, -0.0005559492856264114, -0.0009457392152398825, -0.00014258921146392822, 0.0015026470646262169, 0.0020684064365923405, 9.102281183004379e-05, 0.002519067842513323, 0.0006775697693228722, 0.001554249320179224, 0.0013941703364253044, -0.00030859443359076977, 0.000842387555167079], "tensor__stats": {"min": -0.010460076853632927, "max": 0.012168198823928833, "mean": 0.0002681135665625334, "variance": 3.466268753982149e-05, "nobs": 128, "histogram_bins": 11, "histogram": [[10, 8, 14, 14, 18, 14, 13, 10, 12, 8, 7], [-0.010460076853632927, -0.008402961306273937, -0.006345844827592373, -0.004288728814572096, -0.0022316130343824625, -0.00017449700681027025, 0.0018826189916580915, 0.003939734771847725, 0.005996850784868002, 0.008053966797888279, 0.010111083276569843, 0.012168198823928833]]}, "grad__stats": {"min": -0.009874662384390831, "max": 0.008273615501821041, "mean": -0.00012149676331318915, "variance": 9.38880748435622e-06, "nobs": 128, "histogram_bins": 11, "histogram": [[1, 2, 6, 7, 16, 46, 21, 17, 5, 2, 5], [-0.009874662384390831, -0.008224818855524063, -0.006574975326657295, -0.004925132263451815, -0.003275288501754403, -0.0016254452057182789, 2.4398281311732717e-05, 0.001674241735599935, 0.003324085148051381, 0.004973928444087505, 0.006623771972954273, 0.008273615501821041]]}, "first_delta__stats": {"min": -0.0018283389508724213, "max": 0.0034658899530768394, "mean": 0.0005551217473112047, "variance": 1.4079763559493585e-06, "nobs": 128, "histogram_bins": 11, "histogram": [[6, 5, 17, 23, 17, 19, 14, 11, 5, 6, 5], [-0.0018283389508724213, -0.0013470454141497612, -0.0008657518774271011, -0.00038445834070444107, 9.6835196018219e-05, 0.0005781287327408791, 0.0010594222694635391, 0.0015407158061861992, 0.0020220093429088593, 0.0025033028796315193, 0.0029845964163541794, 0.0034658899530768394]]}}, "shape": [128]}, "fc2.weight": {"id": "fc2.weight", "data_group_type": "PARAM", "type": "Parameter", "value": {"tensor": "NOT SERIALIZED, Too large 1280", "grad": "NOT SERIALIZED, Too large 1280", "first_delta": "NOT SERIALIZED, Too large 1280", "tensor__stats": {"min": -0.10649709403514862, "max": 0.09385188668966293, "mean": -0.002763710217550397, "variance": 0.002968674525618553, "nobs": 1280, "histogram_bins": 35, "histogram": [[8, 12, 25, 48, 38, 38, 39, 36, 35, 36, 44, 39, 45, 42, 33, 33, 42, 46, 47, 30, 35, 36, 42, 40, 28, 42, 45, 40, 33, 42, 39, 46, 37, 45, 14], [-0.10649709403514862, -0.10077283531427383, -0.09504858404397964, -0.08932432532310486, -0.08360006660223007, -0.07787580788135529, -0.0721515566110611, -0.06642729789018631, -0.06070304289460182, -0.054978784173727036, -0.04925452917814255, -0.04353027045726776, -0.03780601546168327, -0.03208175674080849, -0.026357501745224, -0.020633244886994362, -0.0149089889600873, -0.009184732101857662, -0.0034604754764586687, 0.002263781148940325, 0.007988037541508675, 0.013712294399738312, 0.01943655125796795, 0.025160808116197586, 0.030885064974427223, 0.03660932183265686, 0.04233357682824135, 0.048057835549116135, 0.05378209054470062, 0.05950634554028511, 0.0652306005358696, 0.07095485925674438, 0.07667911797761917, 0.08240337669849396, 0.08812762796878815, 0.09385188668966293]]}, "grad__stats": {"min": -0.5793123841285706, "max": 0.4485250413417816, "mean": 1.415610295651959e-08, "variance": 0.009132123552262783, "nobs": 1280, "histogram_bins": 35, "histogram": [[3, 1, 1, 1, 1, 3, 1, 4, 3, 6, 12, 10, 6, 13, 6, 24, 18, 24, 65, 686, 183, 64, 45, 23, 18, 19, 13, 9, 7, 3, 1, 1, 2, 0, 4], [-0.5793123841285706, -0.549945592880249, -0.5205788016319275, -0.49121204018592834, -0.4618452489376068, -0.4324784576892853, -0.40311169624328613, -0.3737449049949646, -0.34437811374664307, -0.31501132249832153, -0.2856445610523224, -0.25627776980400085, -0.22691097855567932, -0.19754420220851898, -0.16817741096019745, -0.1388106346130371, -0.10944384336471558, -0.08007705956697464, -0.050710279494524, -0.021343495696783066, 0.008023287169635296, 0.03739007189869881, 0.06675685197114944, 0.09612363576889038, 0.12549042701721191, 0.15485720336437225, 0.1842239946126938, 0.21359077095985413, 0.24295756220817566, 0.2723243534564972, 0.30169111490249634, 0.33105790615081787, 0.3604246973991394, 0.38979148864746094, 0.4191582500934601, 0.4485250413417816]]}, "first_delta__stats": {"min": -0.02905305102467537, "max": 0.009258635342121124, "mean": -0.0023675106931477785, "variance": 2.5437075237277895e-05, "nobs": 1280, "histogram_bins": 35, "histogram": [[2, 0, 0, 0, 0, 2, 2, 4, 3, 4, 1, 7, 8, 17, 17, 14, 18, 33, 27, 41, 37, 56, 72, 90, 99, 126, 265, 108, 101, 63, 34, 17, 7, 3, 2], [-0.02905305102467537, -0.027958432212471962, -0.026863811537623405, -0.025769192725419998, -0.02467457205057144, -0.023579953238368034, -0.022485332563519478, -0.02139071375131607, -0.020296094939112663, -0.019201474264264107, -0.0181068554520607, -0.017012234777212143, -0.015917615965008736, -0.014822996221482754, -0.013728376477956772, -0.01263375673443079, -0.011539136990904808, -0.010444517247378826, -0.009349898435175419, -0.008255278691649437, -0.007160658948123455, -0.006066039204597473, -0.004971419461071491, -0.003876799950376153, -0.0027821804396808147, -0.0016875608125701547, -0.0005929411272518337, 0.0005016784416511655, 0.0015962980687618256, 0.002690917579457164, 0.0037855373229831457, 0.004880156833678484, 0.005974776577204466, 0.007069396320730448, 0.008164015598595142, 0.009258635342121124]]}}, "shape": [10, 128]}, "fc2.bias": {"id": "fc2.bias", "data_group_type": "PARAM", "type": "Parameter", "value": {"tensor": [0.04816105589270592, 0.04061344638466835, -0.02410794422030449, 0.023652829229831696, 0.056346114724874496, 0.03591864928603172, -0.04660116136074066, 0.023210246115922928, -0.08212496340274811, 0.027654919773340225], "grad": [0.00013446412049233913, 0.001525054918602109, 0.00451902998611331, -0.04128892347216606, 0.010604673996567726, 0.022019127383828163, -0.0016972265439108014, -0.021296411752700806, 0.026872314512729645, -0.0013920601923018694], "first_delta": [-0.002695605158805847, 0.000598955899477005, -0.000565284863114357, -0.0016801338642835617, -0.001634504646062851, 0.0005246438086032867, -0.0026844292879104614, 0.0018412154167890549, -0.0030891522765159607, -0.00013479404151439667], "tensor__stats": {"min": -0.08212496340274811, "max": 0.056346114724874496, "mean": 0.010272319428622723, "variance": 0.0020821227226406336, "nobs": 10, "histogram_bins": 5, "histogram": [[1, 1, 1, 3, 4], [-0.08212496340274811, -0.054430749267339706, -0.026736531406641006, 0.0009576834854669869, 0.028651898726820946, 0.056346114724874496]]}, "grad__stats": {"min": -0.04128892347216606, "max": 0.026872314512729645, "mean": 4.353933213963046e-09, "variance": 0.000389479857403785, "nobs": 10, "histogram_bins": 5, "histogram": [[1, 1, 2, 4, 2], [-0.04128892347216606, -0.02765667624771595, -0.014024428091943264, -0.0003921806928701699, 0.013240067288279533, 0.026872314512729645]]}, "first_delta__stats": {"min": -0.0030891522765159607, "max": 0.0018412154167890549, "mean": -0.0009519088780507445, "variance": 2.7566943572310265e-06, "nobs": 10, "histogram_bins": 5, "histogram": [[3, 2, 2, 2, 1], [-0.0030891522765159607, -0.0021030786447227, -0.0011170052457600832, -0.0001309316576225683, 0.0008551419014111161, 0.0018412154167890549]]}}, "shape": [10]}, "input.1": {"id": "input.1", "data_group_type": "INPUT", "type": "Tensor", "value": {"tensor": "NOT SERIALIZED, Too large 7840", "tensor__stats": {"min": -0.4242129623889923, "max": 2.821486711502075, "mean": 0.020289767533540726, "variance": 1.0430203676223755, "nobs": 7840, "histogram_bins": 88, "histogram": [[6284, 13, 16, 25, 20, 17, 17, 7, 23, 7, 11, 13, 11, 13, 1, 20, 6, 19, 13, 5, 7, 24, 15, 7, 9, 11, 7, 7, 13, 3, 4, 4, 5, 6, 10, 9, 7, 7, 13, 3, 13, 16, 9, 7, 9, 12, 7, 9, 5, 15, 6, 9, 5, 11, 7, 17, 12, 9, 3, 10, 8, 11, 10, 9, 14, 10, 10, 11, 7, 8, 15, 14, 8, 7, 12, 12, 15, 12, 12, 10, 21, 13, 12, 26, 18, 16, 152, 464], [-0.4242129623889923, -0.387330025434494, -0.35044705867767334, -0.31356412172317505, -0.27668115496635437, -0.23979820311069489, -0.2029152512550354, -0.16603229939937592, -0.12914936244487762, -0.09226640313863754, -0.055383455008268356, -0.01850050315260887, 0.018382446840405464, 0.0552653968334198, 0.09214834868907928, 0.12903130054473877, 0.16591425240039825, 0.20279720425605774, 0.23968015611171722, 0.2765631079673767, 0.313446044921875, 0.3503290116786957, 0.38721194863319397, 0.42409491539001465, 0.46097785234451294, 0.4978608191013336, 0.5347437858581543, 0.5716267228126526, 0.6085096597671509, 0.6453925967216492, 0.6822755336761475, 0.7191585302352905, 0.7560414671897888, 0.7929244041442871, 0.8298073410987854, 0.8666903376579285, 0.9035732746124268, 0.940456211566925, 0.9773391485214233, 1.0142221450805664, 1.05110502243042, 1.087988018989563, 1.124871015548706, 1.1617538928985596, 1.1986368894577026, 1.2355197668075562, 1.2724027633666992, 1.3092857599258423, 1.3461686372756958, 1.3830516338348389, 1.419934630393982, 1.4568175077438354, 1.4937005043029785, 1.530583381652832, 1.567466378211975, 1.6043493747711182, 1.6412322521209717, 1.6781152486801147, 1.7149982452392578, 1.7518811225891113, 1.7887641191482544, 1.825646996498108, 1.862529993057251, 1.899412989616394, 1.9362958669662476, 1.9731788635253906, 2.010061740875244, 2.0469448566436768, 2.0838277339935303, 2.120710611343384, 2.1575934886932373, 2.19447660446167, 2.2313594818115234, 2.268242359161377, 2.3051254749298096, 2.342008352279663, 2.3788912296295166, 2.415774345397949, 2.4526572227478027, 2.4895401000976562, 2.526423215866089, 2.5633060932159424, 2.600188970565796, 2.6370718479156494, 2.673954963684082, 2.7108378410339355, 2.747720718383789, 2.7846038341522217, 2.821486711502075]]}}, "shape": [10, 1, 28, 28]}, "output.1": {"id": "output.1", "data_group_type": "OUTPUT", "type": "Tensor", "value": {"tensor": [[-8.844427108764648, -18.012956619262695, -13.695025444030762, -9.230167388916016, -10.929795265197754, -0.0005589353386312723, -9.76913833618164, -19.40347671508789, -8.435781478881836, -10.662888526916504], [-13.959246635437012, -11.470159530639648, -6.999088287353516, -7.757683753967285, -2.298924207687378, -8.237100601196289, -9.183944702148438, -5.290622711181641, -5.638099193572998, -0.11730226874351501], [-9.479424476623535, -4.248249530792236, -13.115334510803223, -7.245935440063477, -4.065304279327393, -4.8934006690979, -12.305821418762207, -0.2430189847946167, -2.2658534049987793, -2.627443313598633], [-8.206475257873535, -9.137887954711914, -7.138547420501709, -0.6306878924369812, -12.81240463256836, -0.7836353182792664, -9.427477836608887, -13.198722839355469, -4.6327972412109375, -10.00943374633789], [-12.194780349731445, -11.204168319702148, -10.378478050231934, -8.401763916015625, -11.772486686706543, -11.379912376403809, -15.740201950073242, -0.00301276333630085, -8.157205581665039, -6.020677089691162], [-13.545631408691406, -12.116884231567383, -4.076785564422607, -9.95732307434082, -4.453005790710449, -5.2451701164245605, -0.03714393451809883, -14.853836059570312, -5.987801551818848, -10.790380477905273], [-7.51923131942749, -8.947813987731934, -4.334874629974365, -3.006643056869507, -3.2453436851501465, -0.29335734248161316, -6.165371894836426, -9.64049243927002, -1.9559326171875, -4.772734642028809], [-14.869773864746094, -7.280767440795898, -0.006906209979206324, -5.211526393890381, -15.13045597076416, -13.432966232299805, -10.728924751281738, -14.673576354980469, -7.241919994354248, -16.317974090576172], [-8.114261627197266, -12.27994441986084, -3.899808168411255, -8.612897872924805, -0.06411760300397873, -5.642415523529053, -4.06736946105957, -7.292055130004883, -5.03574800491333, -4.303210258483887], [-13.228903770446777, -13.864611625671387, -10.787127494812012, -0.0017191881779581308, -15.503457069396973, -6.400200366973877, -16.747159957885742, -15.12299633026123, -10.350899696350098, -14.132774353027344]], "tensor__stats": {"min": -19.40347671508789, "max": -0.0005589353386312723, "mean": -8.229491233825684, "variance": 23.0565128326416, "nobs": 100, "histogram_bins": 10, "histogram": [[2, 3, 10, 11, 13, 15, 12, 17, 6, 11], [-19.40347671508789, -17.463184356689453, -15.522892951965332, -13.582601547241211, -11.642309188842773, -9.702017784118652, -7.761725902557373, -5.821434497833252, -3.8811423778533936, -1.9408507347106934, -0.0005589353386312723]]}}, "shape": [10, 10]}}, "graph": {"nodes": [{"data": {"id": "input.1", "label": "INPUT", "component_ids": ["input.1"]}}, {"data": {"id": 9, "label": "Conv", "component_ids": ["conv1.weight", "conv1.bias"]}}, {"data": {"id": 10, "label": "Relu", "component_ids": []}}, {"data": {"id": 11, "label": "Conv", "component_ids": ["conv2.weight", "conv2.bias"]}}, {"data": {"id": 12, "label": "Relu", "component_ids": []}}, {"data": {"id": 13, "label": "MaxPool", "component_ids": []}}, {"data": {"id": 14, "label": "Flatten", "component_ids": []}}, {"data": {"id": 15, "label": "Gemm", "component_ids": ["fc1.weight", "fc1.bias"]}}, {"data": {"id": 16, "label": "Relu", "component_ids": []}}, {"data": {"id": 17, "label": "Gemm", "component_ids": ["fc2.weight", "fc2.bias"]}}, {"data": {"id": 18, "label": "LogSoftmax", "component_ids": []}}, {"data": {"id": "output.1", "label": "OUTPUT", "component_ids": ["output.1"]}}], "edges": [{"data": {"id": "input.1_9", "source": "input.1", "target": 9}}, {"data": {"id": "9_10", "source": 9, "target": 10}}, {"data": {"id": "10_11", "source": 10, "target": 11}}, {"data": {"id": "11_12", "source": 11, "target": 12}}, {"data": {"id": "12_13", "source": 12, "target": 13}}, {"data": {"id": "13_14", "source": 13, "target": 14}}, {"data": {"id": "14_15", "source": 14, "target": 15}}, {"data": {"id": "15_16", "source": 15, "target": 16}}, {"data": {"id": "16_17", "source": 16, "target": 17}}, {"data": {"id": "17_18", "source": 17, "target": 18}}, {"data": {"id": "18_output.1", "source": "18", "target": "output.1"}}]}}