{"id": "0_1100", "meta": {"time": 1638574487.41727, "refresh_model_graph": false}, "step_info": {"epoch": 0, "iter": 1100}, "additional_info": {"pred": {"type": "Tensor", "value": [[6], [9], [3], [0], [1], [4], [2], [7], [4], [4]]}, "loss": {"type": "Tensor", "value": 0.0408245250582695}, "class_label": {"type": "Tensor", "value": [6, 9, 3, 0, 1, 4, 2, 7, 4, 4]}, "test_acc": {"type": "float", "value": 90.02}}, "graph_id": [0, 0], "data": {"conv1.weight": {"id": "conv1.weight", "data_group_type": "PARAM", "type": "Parameter", "value": {"tensor": "NOT SERIALIZED, Too large 288", "grad": "NOT SERIALIZED, Too large 288", "first_delta": "NOT SERIALIZED, Too large 288", "tensor__stats": {"min": -0.33387717604637146, "max": 0.3684561550617218, "mean": 0.017833607271313667, "variance": 0.040427763015031815, "nobs": 288, "histogram_bins": 16, "histogram": [[24, 13, 24, 11, 14, 19, 12, 20, 16, 26, 15, 27, 23, 11, 19, 14], [-0.33387717604637146, -0.28998133540153503, -0.2460855096578598, -0.20218968391418457, -0.15829384326934814, -0.11439801007509232, -0.07050217688083649, -0.026606343686580658, 0.01728948950767517, 0.061185322701931, 0.10508115589618683, 0.14897698163986206, 0.1928728222846985, 0.2367686629295349, 0.28066450357437134, 0.3245603144168854, 0.3684561550617218]]}, "grad__stats": {"min": -0.016333548352122307, "max": 0.0014470715541392565, "mean": -0.0043462300673127174, "variance": 2.0617664631572552e-05, "nobs": 288, "histogram_bins": 16, "histogram": [[2, 7, 7, 11, 8, 9, 8, 18, 20, 21, 24, 20, 25, 21, 35, 52], [-0.016333548352122307, -0.015222259797155857, -0.014110971242189407, -0.012999681755900383, -0.011888393200933933, -0.010777104645967484, -0.009665816091001034, -0.008554527536034584, -0.007443238515406847, -0.00633194949477911, -0.00522066093981266, -0.0041093723848462105, -0.0029980833642184734, -0.0018867946928367019, -0.0007755059050396085, 0.000335782824549824, 0.0014470715541392565]]}, "first_delta__stats": {"min": -0.01051417738199234, "max": 0.05819910764694214, "mean": 0.01533908024430275, "variance": 0.0002709627151489258, "nobs": 288, "histogram_bins": 16, "histogram": [[7, 47, 31, 22, 19, 27, 20, 26, 21, 18, 17, 10, 13, 2, 6, 2], [-0.01051417738199234, -0.006219597067683935, -0.0019250167533755302, 0.0023695635609328747, 0.00666414387524128, 0.010958723723888397, 0.01525330450385809, 0.01954788528382778, 0.0238424651324749, 0.028137044981122017, 0.032431624829769135, 0.0367262065410614, 0.04102078825235367, 0.04531536623835564, 0.0496099479496479, 0.05390452593564987, 0.05819910764694214]]}}, "shape": [32, 1, 3, 3]}, "conv1.bias": {"id": "conv1.bias", "data_group_type": "PARAM", "type": "Parameter", "value": {"tensor": [0.0566009022295475, 0.34644195437431335, -0.017457017675042152, -0.14701038599014282, -0.2829820513725281, 0.0008811604930087924, 0.13386695086956024, 0.028598394244909286, 0.09528964757919312, 0.12818680703639984, 0.19718992710113525, 0.3109678328037262, 0.0589892752468586, -0.22883883118629456, 0.0392877459526062, -0.10752476006746292, 0.20033085346221924, 0.12803895771503448, 0.11745299398899078, 0.15950851142406464, -0.24780519306659698, -0.0925600454211235, 0.22382688522338867, -0.1529800295829773, 0.12051388621330261, 0.26680952310562134, 0.2817756235599518, -0.24384954571723938, 0.15955480933189392, -0.007788355927914381, 0.1137409657239914, 0.3161901533603668], "grad": [-0.00015997342416085303, -0.003453846089541912, -0.0024141729809343815, -0.002248588018119335, -0.0029353327117860317, 0.00012915943807456642, -0.0011632648529484868, -0.0029572532512247562, -0.002100739860907197, -0.0028369028586894274, -0.0027751459274441004, -0.0035328222438693047, -0.00354348705150187, -0.0018330685561522841, -0.002183345379307866, -0.001142794033512473, -0.003339192131534219, -0.0010698277037590742, -0.0028961359057575464, -0.00035437720362097025, -0.0024015691597014666, -0.0009135024738498032, -0.001031253021210432, -0.00031048437813296914, -0.001957885455340147, -0.004006017465144396, -0.002288371790200472, 1.9569222786230966e-05, -0.0006156262825243175, -0.0015696365153416991, -0.0035575958900153637, -0.0029411192517727613], "first_delta": [0.020512793213129044, 0.01910710334777832, 0.005505990236997604, 0.026636898517608643, 0.03397512435913086, -0.0017677891300991178, 0.011607848107814789, 0.01980714499950409, 0.004718318581581116, 0.008566319942474365, 0.008753687143325806, 0.022808700799942017, 0.033028990030288696, 0.012919679284095764, 0.007455207407474518, 0.0074954405426979065, 0.009311914443969727, 0.008079878985881805, 0.0019997507333755493, 0.006803393363952637, 0.040645286440849304, 0.023113936185836792, 0.012094169855117798, 0.0047201961278915405, 0.005615398287773132, 0.03219148516654968, 0.03309956192970276, 0.0060370564460754395, 0.01704201102256775, 0.005644107703119516, 0.01622553914785385, 0.015545576810836792], "tensor__stats": {"min": -0.2829820513725281, "max": 0.34644195437431335, "mean": 0.061101481318473816, "variance": 0.03086400404572487, "nobs": 32, "histogram_bins": 5, "histogram": [[4, 4, 7, 11, 6], [-0.2829820513725281, -0.1570972502231598, -0.031212449073791504, 0.09467235207557678, 0.22055715322494507, 0.34644195437431335]]}, "grad__stats": {"min": -0.004006017465144396, "max": 0.00012915943807456642, "mean": -0.002012019045650959, "variance": 1.43541819852544e-06, "nobs": 32, "histogram_bins": 5, "histogram": [[6, 8, 7, 5, 6], [-0.004006017465144396, -0.003178982064127922, -0.0023519466631114483, -0.0015249113785102963, -0.0006978759192861617, 0.00012915943807456642]]}, "first_delta__stats": {"min": -0.0017677891300991178, "max": 0.040645286440849304, "mean": 0.01497814804315567, "variance": 0.00011862760584335774, "nobs": 32, "histogram_bins": 5, "histogram": [[8, 10, 8, 1, 5], [-0.0017677891300991178, 0.006714825984090567, 0.01519744098186493, 0.023680055513978004, 0.03216267004609108, 0.040645286440849304]]}}, "shape": [32]}, "conv2.weight": {"id": "conv2.weight", "data_group_type": "PARAM", "type": "Parameter", "value": {"tensor": "NOT SERIALIZED, Too large 18432", "grad": "NOT SERIALIZED, Too large 18432", "first_delta": "NOT SERIALIZED, Too large 18432", "tensor__stats": {"min": -0.06763502955436707, "max": 0.08558423072099686, "mean": 0.004325404297560453, "variance": 0.001219292520545423, "nobs": 18432, "histogram_bins": 100, "histogram": [[1, 1, 9, 18, 31, 55, 108, 133, 153, 171, 199, 179, 222, 215, 205, 217, 218, 218, 238, 239, 242, 225, 230, 247, 240, 252, 243, 233, 235, 234, 215, 236, 209, 238, 232, 236, 222, 253, 268, 223, 241, 262, 242, 229, 212, 264, 242, 231, 231, 203, 226, 258, 219, 248, 233, 229, 256, 237, 256, 251, 225, 262, 247, 255, 218, 221, 251, 261, 227, 226, 238, 233, 256, 255, 235, 205, 237, 207, 251, 217, 220, 217, 191, 157, 122, 108, 69, 72, 55, 49, 38, 35, 22, 15, 12, 4, 2, 2, 0, 2], [-0.06763502955436707, -0.06610284000635147, -0.06457064300775528, -0.06303845345973969, -0.06150626018643379, -0.0599740669131279, -0.058441873639822006, -0.05690968036651611, -0.05537748709321022, -0.053845297545194626, -0.05231310427188873, -0.05078091099858284, -0.04924871772527695, -0.047716524451971054, -0.04618433490395546, -0.04465214163064957, -0.043119948357343674, -0.04158775508403778, -0.04005556181073189, -0.038523368537425995, -0.0369911789894104, -0.03545898571610451, -0.033926792442798615, -0.03239459916949272, -0.030862407758831978, -0.029330214485526085, -0.027798021212220192, -0.026265829801559448, -0.024733636528253555, -0.023201443254947662, -0.02166925184428692, -0.020137058570981026, -0.018604867160320282, -0.01707267388701439, -0.015540480613708496, -0.014008288271725178, -0.01247609592974186, -0.010943903587758541, -0.009411710314452648, -0.00787951797246933, -0.0063473256304860115, -0.004815132822841406, -0.003282940248027444, -0.001750747673213482, -0.000218555040191859, 0.0013136375928297639, 0.0028458302840590477, 0.004378022626042366, 0.005910215433686972, 0.00744240777567029, 0.008974600583314896, 0.010506792925298214, 0.012038986198604107, 0.013571178540587425, 0.015103370882570744, 0.016635563224554062, 0.018167756497859955, 0.0196999479085207, 0.02123214118182659, 0.022764334455132484, 0.024296525865793228, 0.02582871913909912, 0.027360912412405014, 0.028893103823065758, 0.03042529709637165, 0.031957488507032394, 0.03348968178033829, 0.03502187505364418, 0.03655406832695007, 0.038086261600255966, 0.03961845114827156, 0.041150644421577454, 0.04268283769488335, 0.04421503096818924, 0.04574722424149513, 0.047279417514801025, 0.04881160706281662, 0.05034380033612251, 0.051875993609428406, 0.0534081868827343, 0.05494038015604019, 0.056472569704055786, 0.05800476297736168, 0.05953695625066757, 0.061069149523973465, 0.06260134279727936, 0.06413353234529495, 0.06566572934389114, 0.06719791889190674, 0.06873010843992233, 0.07026230543851852, 0.07179449498653412, 0.07332669198513031, 0.0748588815331459, 0.0763910785317421, 0.07792326807975769, 0.07945545762777328, 0.08098765462636948, 0.08251984417438507, 0.08405204117298126, 0.08558423072099686]]}, "grad__stats": {"min": -0.005967447999864817, "max": 0.002427710685878992, "mean": -0.0005208679940551519, "variance": 8.736703307477001e-07, "nobs": 18432, "histogram_bins": 100, "histogram": [[1, 1, 1, 1, 1, 1, 0, 3, 4, 3, 2, 0, 2, 7, 8, 5, 13, 11, 16, 11, 16, 22, 21, 24, 28, 19, 15, 34, 35, 27, 27, 39, 37, 52, 42, 61, 49, 59, 62, 66, 80, 81, 75, 108, 109, 100, 141, 113, 126, 117, 144, 165, 163, 170, 199, 221, 240, 293, 317, 364, 366, 427, 459, 535, 594, 649, 715, 884, 1043, 1296, 1669, 1656, 1164, 847, 598, 409, 237, 178, 142, 114, 60, 50, 38, 36, 33, 14, 18, 8, 15, 5, 10, 3, 1, 1, 1, 2, 0, 0, 1, 2], [-0.005967447999864817, -0.005883496254682541, -0.005799544975161552, -0.005715593229979277, -0.005631641484797001, -0.005547690205276012, -0.005463738460093737, -0.005379786714911461, -0.005295835435390472, -0.005211883690208197, -0.005127931945025921, -0.005043980665504932, -0.004960028920322657, -0.004876077175140381, -0.004792125895619392, -0.004708174150437117, -0.004624222405254841, -0.004540271125733852, -0.004456319380551577, -0.004372367635369301, -0.004288416355848312, -0.004204464610666037, -0.004120512865483761, -0.004036561585962772, -0.003952609840780497, -0.0038686583284288645, -0.0037847068160772324, -0.0037007550708949566, -0.0036168035585433245, -0.0035328520461916924, -0.0034489003010094166, -0.0033649487886577845, -0.0032809972763061523, -0.0031970455311238766, -0.0031130940187722445, -0.0030291425064206123, -0.0029451907612383366, -0.0028612392488867044, -0.0027772877365350723, -0.00269333622418344, -0.0026093844790011644, -0.0025254329666495323, -0.0024414814542979, -0.0023575297091156244, -0.0022735781967639923, -0.00218962668441236, -0.0021056749392300844, -0.0020217234268784523, -0.0019377717981114984, -0.0018538202857598662, -0.0017698686569929123, -0.0016859170282259583, -0.0016019655158743262, -0.0015180138871073723, -0.0014340622583404183, -0.0013501107459887862, -0.0012661591172218323, -0.0011822076048702002, -0.0010982559761032462, -0.0010143043473362923, -0.0009303527767769992, -0.0008464012062177062, -0.0007624496356584132, -0.0006784980068914592, -0.0005945464363321662, -0.0005105948657728732, -0.0004266432661097497, -0.0003426916664466262, -0.00025874009588733315, -0.0001747885107761249, -9.083691838895902e-05, -6.8853328230034094e-06, 7.70662518334575e-05, 0.00016101784422062337, 0.0002449694147799164, 0.0003289210144430399, 0.0004128726141061634, 0.0004968242137692869, 0.0005807757843285799, 0.0006647273548878729, 0.000748678925447166, 0.0008326305542141199, 0.0009165821247734129, 0.001000533695332706, 0.00108448532409966, 0.001168436836451292, 0.001252388465218246, 0.0013363400939852, 0.001420291606336832, 0.001504243235103786, 0.00158819486387074, 0.001672146376222372, 0.001756098004989326, 0.00184004963375628, 0.001924001146107912, 0.002007952658459544, 0.00209190440364182, 0.002175855915993452, 0.002259807428345084, 0.00234375917352736, 0.002427710685878992]]}, "first_delta__stats": {"min": -0.010184548795223236, "max": 0.03222985938191414, "mean": 0.004226881545037031, "variance": 3.734025449375622e-05, "nobs": 18432, "histogram_bins": 100, "histogram": [[2, 2, 4, 6, 8, 17, 25, 53, 58, 97, 115, 120, 113, 150, 195, 216, 263, 289, 324, 407, 467, 563, 604, 723, 813, 713, 629, 597, 566, 513, 510, 564, 478, 464, 483, 438, 409, 404, 372, 334, 300, 303, 284, 257, 262, 273, 267, 214, 218, 205, 205, 214, 157, 184, 150, 165, 153, 149, 130, 122, 121, 107, 105, 94, 91, 66, 70, 45, 38, 36, 35, 43, 36, 22, 28, 26, 24, 21, 13, 7, 8, 11, 10, 11, 7, 5, 3, 3, 6, 7, 4, 2, 2, 2, 0, 0, 1, 1, 0, 1], [-0.010184548795223236, -0.00976040493696928, -0.009336261078715324, -0.008912116289138794, -0.008487972430884838, -0.008063828572630882, -0.007639684248715639, -0.007215540390461683, -0.00679139606654644, -0.006367252208292484, -0.005943107884377241, -0.005518964026123285, -0.005094819702208042, -0.004670675843954086, -0.004246531520038843, -0.0038223876617848873, -0.003398243570700288, -0.0029740994796156883, -0.002549955388531089, -0.0021258112974464893, -0.0017016672063618898, -0.0012775231152772903, -0.0008533790241926908, -0.0004292349040042609, -5.090832928544842e-06, 0.00041905324906110764, 0.0008431973401457071, 0.0012673414312303066, 0.0016914855223149061, 0.0021156296133995056, 0.002539773704484105, 0.0029639177955687046, 0.003388061886653304, 0.0038122059777379036, 0.0042363498359918594, 0.004660494159907103, 0.005084638018161058, 0.005508782342076302, 0.005932926200330257, 0.0063570705242455006, 0.006781214382499456, 0.0072053587064146996, 0.007629502564668655, 0.008053646422922611, 0.008477791212499142, 0.008901935070753098, 0.009326078929007053, 0.00975022278726101, 0.01017436757683754, 0.010598511435091496, 0.011022655293345451, 0.011446799151599407, 0.011870943009853363, 0.012295087799429893, 0.01271923165768385, 0.013143375515937805, 0.013567519374191761, 0.013991664163768291, 0.014415808022022247, 0.014839951880276203, 0.015264095738530159, 0.01568824052810669, 0.01611238345503807, 0.0165365282446146, 0.01696067303419113, 0.017384815961122513, 0.017808960750699043, 0.018233105540275574, 0.018657248467206955, 0.019081393256783485, 0.019505536183714867, 0.019929680973291397, 0.020353825762867928, 0.02077796868979931, 0.02120211347937584, 0.02162625640630722, 0.02205040119588375, 0.02247454598546028, 0.022898688912391663, 0.023322833701968193, 0.023746978491544724, 0.024171121418476105, 0.024595266208052635, 0.025019409134984016, 0.025443553924560547, 0.025867698714137077, 0.02629184164106846, 0.02671598643064499, 0.02714013122022152, 0.0275642741471529, 0.02798841893672943, 0.028412561863660812, 0.028836706653237343, 0.029260851442813873, 0.029684994369745255, 0.030109139159321785, 0.030533283948898315, 0.030957426875829697, 0.03138156980276108, 0.03180571645498276, 0.03222985938191414]]}}, "shape": [64, 32, 3, 3]}, "conv2.bias": {"id": "conv2.bias", "data_group_type": "PARAM", "type": "Parameter", "value": {"tensor": [-0.03473374620079994, 0.05977369099855423, -0.004211222752928734, 0.004482618998736143, -0.004199110437184572, -0.006706176325678825, 0.031261201947927475, 0.011100822128355503, -0.02129667066037655, 0.009842735715210438, 0.005090997088700533, -0.03488166257739067, 0.027858246117830276, 0.04303312674164772, -0.02059805579483509, -0.04457811266183853, 0.0033218832686543465, -0.04708593338727951, 0.05911385640501976, -0.0446026511490345, 0.05020745471119881, -0.02565375342965126, -0.001204820116981864, -0.0006617493345402181, 0.04549501836299896, 0.03763093799352646, -0.05014916509389877, -0.036666687577962875, 0.059464745223522186, 0.07021351158618927, 0.009440658614039421, -0.022378509864211082, 0.008363381028175354, 0.053436603397130966, -0.043767049908638, -0.0345040038228035, 0.005812434013932943, 0.030495017766952515, 0.03566744551062584, -0.018908897414803505, -0.019496876746416092, 0.05902944132685661, -0.03971599414944649, -0.021545402705669403, 0.04651134833693504, 0.03940819576382637, -0.025532353669404984, 0.011162985116243362, -0.02719872258603573, -0.010243511758744717, 0.04780195280909538, -0.04029103368520737, 0.020025791600346565, -0.03352215513586998, 0.009749392047524452, 0.05467971786856651, 0.06124257296323776, 0.054686691612005234, -0.03380034491419792, -0.014388802461326122, -0.00696246512234211, 0.04326200857758522, 0.024809133261442184, 0.05190538242459297], "grad": [-0.000771758146584034, -0.0002407538704574108, -0.0007503851666115224, -0.00022285408340394497, -0.0016494562150910497, -0.000806016381829977, -0.0005348959239199758, -0.002155298599973321, -9.648298873798922e-05, -0.002161013660952449, 0.0004132445028517395, -0.0008994408999569714, -0.0021825588773936033, -0.0029462927486747503, -0.0012433225056156516, 0.0006148784304969013, -0.0009115514694713056, -9.821947605814785e-05, -0.0005617936258204281, 5.590281216427684e-05, 0.00043345976155251265, -0.0017263181507587433, -0.0007960924995131791, 0.0009621895733289421, -0.003318719333037734, -0.00240300758741796, 0.0006911003729328513, 0.0011090514017269015, -0.0022071474231779575, 0.00021933906828053296, 0.0007988607394509017, 0.0002885622379835695, 3.076382927247323e-05, -0.0012790542095899582, -0.00018844411533791572, -0.00043886134517379105, -0.0004345823253970593, -0.0010601390386000276, -0.0002919094986282289, 0.0005583479651249945, 0.00026342840283177793, -0.0014051729813218117, -0.0002924803411588073, -0.0001367689110338688, -0.00095669663278386, -0.0009526329231448472, -9.522370237391442e-05, -0.00010785553604364395, -0.0009021831792779267, -0.00043721264228224754, -0.0020524116698652506, -0.0002971061912830919, -0.0010134431067854166, -0.0012759038945659995, 0.0005605181795544922, -4.169105523033068e-06, -0.0011576341930776834, 6.244207907002419e-05, -0.0010120111983269453, -0.0020483743865042925, 0.00031632508034817874, -0.0014064435381442308, -0.0010846772929653525, -0.0006533929263241589], "first_delta": [0.0070810988545417786, 0.00406014546751976, 0.001662657130509615, 0.002022949978709221, 0.003416537307202816, 0.005067180842161179, 0.015206849202513695, 0.003330593928694725, 0.007010649889707565, 0.007372480817139149, 0.0029720852617174387, 0.005661308765411377, 0.0030932705849409103, 0.008348595350980759, 0.0018361564725637436, 0.009573865681886673, 0.002938185352832079, 0.011274542659521103, 0.002695150673389435, 0.0058474354445934296, 0.0076445601880550385, 0.0030578039586544037, 0.0018305678386241198, 0.0044452897273004055, 0.006310109049081802, 0.0047790296375751495, 0.00338098406791687, 0.00678204745054245, 0.004648871719837189, 0.014049429446458817, 0.010940011590719223, 0.00509672611951828, 0.004167275968939066, 0.0031152814626693726, 0.007051553577184677, 0.007842376828193665, 0.003400784218683839, 0.006316144019365311, 0.0093133095651865, 0.004788246005773544, 0.004796581342816353, 0.0026272498071193695, 0.012422114610671997, 0.013338562101125717, 0.003917336463928223, 0.00819370523095131, 0.01640445739030838, 0.00460390280932188, 0.004187894985079765, 0.008862835355103016, 0.005247782915830612, 0.010478582233190536, 0.002274656668305397, 0.0012501329183578491, 0.005712953396141529, 0.005995139479637146, 0.006010476499795914, 0.00961238518357277, 0.005858778953552246, 0.0050551267340779305, 0.008595461025834084, 0.006991174072027206, 0.002126254141330719, 0.015638861805200577], "tensor__stats": {"min": -0.05014916509389877, "max": 0.07021351158618927, "mean": 0.006498365662992001, "variance": 0.001255734940059483, "nobs": 64, "histogram_bins": 8, "histogram": [[8, 12, 6, 12, 4, 6, 10, 6], [-0.05014916509389877, -0.03510383144021034, -0.020058495923876762, -0.005013161338865757, 0.010032173246145248, 0.02507750689983368, 0.04012284427881241, 0.05516817793250084, 0.07021351158618927]]}, "grad__stats": {"min": -0.003318719333037734, "max": 0.0011090514017269015, "mean": -0.0006607773248106241, "variance": 9.327317229690379e-07, "nobs": 64, "histogram_bins": 8, "histogram": [[2, 1, 7, 7, 15, 16, 9, 7], [-0.003318719333037734, -0.0027652480639517307, -0.0022117765620350838, -0.0016583052929490805, -0.0011048340238630772, -0.000551362638361752, 2.1087180357426405e-06, 0.0005555800744332373, 0.0011090514017269015]]}, "first_delta__stats": {"min": 0.0012501329183578491, "max": 0.01640445739030838, "mean": 0.006244289688766003, "variance": 1.321613399341004e-05, "nobs": 64, "histogram_bins": 8, "histogram": [[14, 14, 13, 10, 5, 3, 2, 3], [0.0012501329183578491, 0.0031444234773516655, 0.005038714036345482, 0.006933004595339298, 0.008827295154333115, 0.010721585713326931, 0.012615876272320747, 0.014510166831314564, 0.01640445739030838]]}}, "shape": [64]}, "fc1.weight": {"id": "fc1.weight", "data_group_type": "PARAM", "type": "Parameter", "value": {"tensor": "NOT SERIALIZED, Too large 1179648", "grad": "NOT SERIALIZED, Too large 1179648", "first_delta": "NOT SERIALIZED, Too large 1179648", "tensor__stats": {"min": -0.017665153369307518, "max": 0.01843944936990738, "mean": 0.00024280291108880192, "variance": 3.775155346374959e-05, "nobs": 1179648, "histogram_bins": 100, "histogram": [[1, 1, 0, 3, 6, 5, 19, 30, 49, 85, 145, 205, 310, 471, 721, 1035, 1585, 2413, 3594, 6082, 11096, 13847, 15536, 16853, 17997, 18689, 19149, 19563, 19996, 20329, 19920, 20214, 20316, 20639, 20520, 20433, 20614, 20406, 20445, 20648, 20443, 20371, 20651, 20512, 20494, 20323, 20303, 20219, 20745, 20221, 20504, 20516, 20508, 20344, 20276, 20334, 20211, 20428, 20444, 20378, 20574, 20476, 20598, 20688, 20301, 20411, 20146, 20276, 20311, 20236, 20043, 19949, 19736, 18942, 18563, 17637, 16364, 13067, 8121, 6065, 4401, 3213, 2251, 1568, 1065, 861, 563, 363, 239, 164, 99, 65, 40, 28, 13, 7, 3, 3, 1, 2], [-0.017665153369307518, -0.017304107546806335, -0.016943061724305153, -0.01658201590180397, -0.016220970079302788, -0.015859922394156456, -0.015498877502977848, -0.015137830749154091, -0.014776784926652908, -0.014415739104151726, -0.014054693281650543, -0.01369364745914936, -0.013332600705325603, -0.012971554882824421, -0.012610509060323238, -0.012249463237822056, -0.011888416483998299, -0.011527370661497116, -0.011166324838995934, -0.010805279016494751, -0.010444233193993568, -0.010083186440169811, -0.009722140617668629, -0.009361094795167446, -0.009000048972666264, -0.008639002218842506, -0.008277956396341324, -0.007916910573840141, -0.007555864751338959, -0.007194818463176489, -0.006833772640675306, -0.0064727263525128365, -0.006111680530011654, -0.005750634241849184, -0.0053895884193480015, -0.005028542596846819, -0.004667496308684349, -0.0043064504861831665, -0.003945404198020697, -0.003584358375519514, -0.003223312320187688, -0.0028622662648558617, -0.0025012202095240355, -0.0021401741541922092, -0.0017791282152757049, -0.0014180821599438787, -0.0010570361046120524, -0.0006959901074878871, -0.00033494405215606093, 2.6101972252945416e-05, 0.00038714800029993057, 0.0007481940556317568, 0.001109240110963583, 0.0014702860498800874, 0.0018313321052119136, 0.002192378044128418, 0.002553424099460244, 0.0029144701547920704, 0.0032755162101238966, 0.003636562265455723, 0.003997608087956905, 0.004358654376119375, 0.004719700198620558, 0.005080746486783028, 0.00544179230928421, 0.00580283859744668, 0.006163884419947863, 0.006524930242449045, 0.006885976530611515, 0.007247022353112698, 0.0076080686412751675, 0.007969114929437637, 0.00833016075193882, 0.008691206574440002, 0.009052252396941185, 0.009413298219442368, 0.009774344973266125, 0.010135390795767307, 0.01049643661826849, 0.010857482440769672, 0.01121852919459343, 0.011579575017094612, 0.011940620839595795, 0.012301666662096977, 0.01266271248459816, 0.013023759238421917, 0.0133848050609231, 0.013745850883424282, 0.014106896705925465, 0.014467943459749222, 0.014828989282250404, 0.015190035104751587, 0.01555108092725277, 0.015912126749753952, 0.016273172572255135, 0.016634218394756317, 0.01699526607990265, 0.01735631190240383, 0.017717357724905014, 0.018078403547406197, 0.01843944936990738]]}, "grad__stats": {"min": -0.015519938431680202, "max": 0.01656380109488964, "mean": -6.893788668094203e-05, "variance": 1.1762889471356175e-06, "nobs": 1179648, "histogram_bins": 100, "histogram": [[1, 1, 1, 4, 3, 7, 13, 11, 12, 14, 19, 26, 16, 35, 47, 32, 59, 64, 77, 93, 132, 161, 190, 225, 304, 372, 415, 492, 584, 718, 827, 1075, 1253, 1566, 1850, 2204, 2587, 3255, 4006, 4884, 6175, 7766, 9963, 13414, 18086, 27315, 48876, 146015, 683612, 84553, 31409, 18266, 12067, 8846, 6707, 5361, 4308, 3547, 2867, 2373, 1852, 1641, 1361, 1101, 884, 687, 579, 486, 325, 307, 241, 213, 188, 144, 98, 91, 74, 65, 31, 28, 8, 5, 9, 13, 11, 8, 5, 3, 5, 3, 2, 5, 2, 7, 2, 2, 0, 0, 0, 1], [-0.015519938431680202, -0.015199100598692894, -0.01487826369702816, -0.014557425864040852, -0.014236588962376118, -0.01391575112938881, -0.013594914227724075, -0.013274076394736767, -0.012953239493072033, -0.012632401660084724, -0.01231156475841999, -0.011990726925432682, -0.011669890023767948, -0.01134905219078064, -0.011028215289115906, -0.010707377456128597, -0.010386540554463863, -0.010065702721476555, -0.009744864888489246, -0.009424027986824512, -0.009103190153837204, -0.00878235325217247, -0.008461515419185162, -0.008140678517520428, -0.00781984068453312, -0.007499003782868385, -0.007178165949881077, -0.006857328582555056, -0.006536491215229034, -0.006215653847903013, -0.005894816480576992, -0.005573979113250971, -0.00525314174592495, -0.0049323043785989285, -0.004611467011272907, -0.004290629643946886, -0.003969792276620865, -0.0036489549092948437, -0.003328117309138179, -0.0030072799418121576, -0.0026864425744861364, -0.0023656052071601152, -0.002044767839834094, -0.0017239304725080729, -0.0014030929887667298, -0.0010822556214407086, -0.0007614182541146874, -0.0004405808576848358, -0.00011974346125498414, 0.0002010939351748675, 0.0005219313316047192, 0.0008427686989307404, 0.0011636060662567616, 0.0014844435499981046, 0.0018052809173241258, 0.002126118401065469, 0.00244695576839149, 0.002767793135717511, 0.0030886305030435324, 0.0034094678703695536, 0.0037303052376955748, 0.00405114283785224, 0.004371980205178261, 0.004692817572504282, 0.005013654939830303, 0.005334492307156324, 0.005655329674482346, 0.005976167041808367, 0.006297004409134388, 0.006617841776460409, 0.00693867914378643, 0.0072595165111124516, 0.007580353878438473, 0.007901191711425781, 0.008222028613090515, 0.008542866446077824, 0.008863703347742558, 0.009184541180729866, 0.0095053780823946, 0.009826215915381908, 0.010147052817046642, 0.01046789065003395, 0.010788727551698685, 0.011109565384685993, 0.011430403217673302, 0.011751240119338036, 0.012072077952325344, 0.012392914853990078, 0.012713752686977386, 0.01303458958864212, 0.013355427421629429, 0.013676264323294163, 0.013997102156281471, 0.014317939057946205, 0.014638776890933514, 0.014959613792598248, 0.015280451625585556, 0.01560128852725029, 0.015922125428915024, 0.016242964193224907, 0.01656380109488964]]}, "first_delta__stats": {"min": -0.010054138489067554, "max": 0.009866508655250072, "mean": 0.0002449368475936353, "variance": 1.5785816458446789e-06, "nobs": 1179648, "histogram_bins": 100, "histogram": [[2, 0, 1, 1, 0, 1, 0, 0, 3, 1, 3, 2, 10, 9, 15, 21, 23, 18, 29, 32, 43, 63, 97, 175, 216, 280, 386, 482, 618, 844, 1029, 1329, 1651, 1961, 2471, 3164, 3823, 4911, 6151, 7905, 9755, 11916, 14692, 18274, 22375, 28429, 35439, 45157, 65714, 121911, 222381, 89427, 72829, 61375, 53234, 44936, 37710, 31957, 26464, 22319, 18513, 15369, 12788, 10745, 8736, 7343, 6041, 4940, 4171, 3340, 2822, 2245, 1707, 1473, 1185, 926, 770, 594, 423, 351, 276, 200, 196, 138, 100, 51, 47, 31, 19, 15, 9, 6, 4, 3, 3, 1, 0, 0, 1, 2], [-0.010054138489067554, -0.009854932315647602, -0.009655725210905075, -0.009456519037485123, -0.00925731286406517, -0.009058105759322643, -0.008858899585902691, -0.008659693412482738, -0.008460486307740211, -0.008261280134320259, -0.008062073960900307, -0.00786286685615778, -0.007663660682737827, -0.007464454509317875, -0.007265247870236635, -0.0070660412311553955, -0.006866835057735443, -0.006667628418654203, -0.006468421779572964, -0.006269215606153011, -0.006070008967071772, -0.005870802793651819, -0.0056715961545705795, -0.00547238951548934, -0.0052731833420693874, -0.005073976702988148, -0.004874770063906908, -0.004675563890486956, -0.004476357251405716, -0.004277150612324476, -0.004077944438904524, -0.003878737799823284, -0.003679531393572688, -0.003480324987322092, -0.0032811183482408524, -0.0030819119419902563, -0.0028827055357396603, -0.002683499129489064, -0.0024842924904078245, -0.0022850860841572285, -0.0020858796779066324, -0.0018866731552407146, -0.0016874666325747967, -0.0014882602263242006, -0.0012890537036582828, -0.0010898472974076867, -0.0008906407747417688, -0.0006914343102835119, -0.0004922278458252549, -0.00029302138136699796, -9.3814916908741e-05, 0.00010539155482547358, 0.0003045980120077729, 0.0005038044764660299, 0.0007030109409242868, 0.0009022174635902047, 0.0011014238698408008, 0.0013006303925067186, 0.0014998367987573147, 0.0016990433214232326, 0.0018982498440891504, 0.0020974562503397465, 0.0022966626565903425, 0.0024958692956715822, 0.0026950757019221783, 0.0028942821081727743, 0.0030934885144233704, 0.00329269515350461, 0.003491901559755206, 0.003691107966005802, 0.003890314605087042, 0.004089520778506994, 0.004288727417588234, 0.004487934056669474, 0.004687140230089426, 0.004886346869170666, 0.0050855535082519054, 0.005284759681671858, 0.0054839663207530975, 0.005683172959834337, 0.00588237913325429, 0.006081585772335529, 0.006280791945755482, 0.006479998584836721, 0.006679205223917961, 0.0068784113973379135, 0.007077618036419153, 0.007276824675500393, 0.007476030848920345, 0.007675237488001585, 0.007874444127082825, 0.008073650300502777, 0.00827285647392273, 0.008472063578665257, 0.008671269752085209, 0.008870475925505161, 0.009069683030247688, 0.00926888920366764, 0.009468095377087593, 0.00966730248183012, 0.009866508655250072]]}}, "shape": [128, 9216]}, "fc1.bias": {"id": "fc1.bias", "data_group_type": "PARAM", "type": "Parameter", "value": {"tensor": [-0.005589886102825403, 0.010494326241314411, -0.002790833357721567, -0.0020206838380545378, -8.104817243292928e-05, 0.00481388159096241, 0.0002491803315933794, -0.005463709123432636, 0.0008120752172544599, 0.0010963210370391607, 0.005982573609799147, 0.003967192955315113, 0.009599506855010986, 0.007750695571303368, -0.0012006073957309127, -0.004058200400322676, 0.007989682257175446, 0.008221541531383991, -0.005978201050311327, -0.002534752245992422, -0.009735051542520523, 0.002931690774857998, 0.002504529897123575, -0.0014680890599265695, 0.0033226467203348875, -0.0015749441226944327, -0.005195433273911476, -0.009271763265132904, 0.007838825695216656, 0.0007940223440527916, -0.009272699244320393, 0.011981900781393051, 0.00022570631699636579, -0.00426834961399436, 0.0022840192541480064, -0.00996335968375206, 6.30193535471335e-05, -0.0011976148234680295, -0.005107855889946222, 0.010822081007063389, 0.0018287935527041554, -0.005692888982594013, -0.0075250412337481976, 0.008730106055736542, -0.004781952127814293, -0.0034331236965954304, 0.007873031310737133, 0.01037913840264082, 0.004396593198180199, -0.0011316213058307767, 0.003966865595430136, 0.001754569704644382, 0.008878229185938835, -0.007297875825315714, 0.001935441861860454, -0.0005218479782342911, -0.00886224303394556, 0.00845045130699873, 0.0009259710204787552, 0.00033907362376339734, 0.0001919996866490692, 0.001441345433704555, -0.005018383264541626, 0.004619176499545574, 0.0062648821622133255, -0.008569170720875263, 0.008120551705360413, 0.010224869474768639, -0.005457197781652212, 0.00812025461345911, 0.006661894265562296, 0.007322313264012337, 0.002907468704506755, -0.00860813818871975, 0.00659424252808094, 0.0076948534697294235, -0.0005974721279926598, -0.007317835930734873, -0.0002865974383894354, -0.007464108057320118, 0.003065846161916852, -0.0038484639953821898, 0.005125422962009907, 0.00016414074343629181, -0.0076112509705126286, -0.006239290814846754, 0.009708799421787262, 0.001898304559290409, 0.002720433520153165, 0.005062878131866455, 0.002132776193320751, 0.0032907696440815926, -0.00648059556260705, 0.007304389029741287, -0.003534219926223159, 0.001965152332559228, -0.0015538334846496582, -0.0098982909694314, -0.0013668249594047666, -0.0037145644892007113, -0.0026466811541467905, 0.0064454274252057076, -0.0059519619680941105, -0.0016507036052644253, -0.0007112274179235101, -0.0005411821184679866, -0.0004835628787986934, -0.0021400756668299437, -0.0031264391727745533, -0.005791076924651861, 0.0069978865794837475, 0.004691578913480043, -0.008186140097677708, -0.010130801238119602, -0.002846969524398446, 0.010284624062478542, -0.003439426887780428, -0.0025299217086285353, -0.010245069861412048, 0.004492681473493576, 0.0056449249386787415, 0.004511508159339428, -0.002427751198410988, -0.007614735048264265, -0.006196293979883194, 0.011354655958712101, -0.002777715912088752, -0.003017989220097661], "grad": [-2.619883161969483e-05, -0.001129865413531661, -0.0008448058506473899, 0.0016036112792789936, -0.0010438667377457023, -0.0006111944676376879, 0.00016959106142167002, -0.0009826169116422534, 0.0013288924237713218, 0.0, -0.000506998912896961, 0.000781086680945009, 0.0, -0.0003417108964640647, -0.0005341323558241129, 9.935864363797009e-05, 0.0006927720387466252, 0.0007949011051096022, 8.859028457663953e-05, -0.0004664917360059917, 0.00017384791863150895, 0.0, -0.0005352229345589876, 0.000352086586644873, 8.237850852310658e-05, -0.0007583331316709518, 0.0003217734629288316, -0.00018102639296557754, -0.0007137185893952847, 0.00012493810208979994, -0.0001716000697342679, -0.0004471024440135807, -8.763361256569624e-05, -0.001005836296826601, -0.0006671485607512295, 0.0, -0.00011548552720341831, 0.00013312778901308775, 0.0009476211853325367, -0.000756419263780117, 0.0006430268986150622, 0.00025196498609147966, -0.00036771921440958977, 0.00035496833152137697, -0.00013565781409852207, 0.0001245492312591523, 0.000815023435279727, 0.0008227692451328039, 0.00029643718153238297, 0.0015865378081798553, 0.0, -0.00042398186633363366, 0.0012274350738152862, -0.0005317708710208535, 0.0004945978289470077, -0.0006332619814202189, 0.00026364438235759735, 0.0, 0.00014749853289686143, 0.0013604093110188842, 0.0002972219081129879, -0.00015461951261386275, -0.0011827073758468032, -0.0004618551174644381, 0.0, -0.0013408125378191471, -0.000915051787160337, -0.0004221100243739784, 0.0, 0.0001867527316790074, -0.0011857267236337066, -1.0864616797334747e-06, -0.0002736331953201443, -0.0004904985544271767, -0.0001496867771493271, -0.0003386683820281178, -0.0004371713730506599, -0.0013355135452002287, -3.425278919166885e-05, 0.0006600608467124403, -0.00032348657259717584, -0.001796120312064886, -0.0004837240558117628, -0.000492275576107204, -0.000585234840400517, 0.0010335564147680998, -1.934301690198481e-05, -0.00021391491463873535, 0.0, -0.001209262409247458, 0.0006246117991395295, 0.0009165846277028322, 0.0, 0.000895631848834455, 0.0, -0.0009163701324723661, 0.0009697935311123729, 0.0, 0.000548591953702271, 2.412175035715336e-06, -0.0005809207214042544, -6.97077193763107e-05, 0.0, -0.0012208381667733192, 0.0, -0.0009418455301783979, -0.00044992208131588995, -0.0008245007484219968, 0.0, 0.0010864583309739828, -0.0010884877992793918, 0.0002965250168927014, 0.0, -0.0002088628534693271, 0.0, -0.001001792959868908, -0.00030718051129952073, 0.0013936895411461592, -0.0004875186423305422, 0.0006414165254682302, 0.0012275931658223271, -0.0014658555155619979, -0.002183180069550872, -1.7048907466232777e-05, -5.660179886035621e-05, -0.0004382948682177812, 0.0003394139348529279, 0.0002295187587151304], "first_delta": [-0.00016107875853776932, 0.0022139791399240494, 0.0007068617269396782, -0.0003011928638443351, 6.446291808970273e-05, 0.0008576591499149799, -0.00045216517173685133, -0.0010114233009517193, 0.002903096843510866, -0.0001992753241211176, -0.0005716835148632526, -0.0001341458410024643, -0.0004967935383319855, 0.0006692055612802505, 0.0016241598641499877, 0.0008597527630627155, 0.001083781011402607, 0.00020642857998609543, 0.00012186262756586075, 0.0026151561178267, 0.0002684136852622032, -0.0004221969284117222, 0.0003436577972024679, 0.0028364541940391064, -0.0009953074622899294, 0.0023454222828149796, 0.0024942029267549515, -0.0012903958559036255, 0.0008950470946729183, -0.0005438759690150619, 0.000852673314511776, 0.0017217928543686867, -0.00034189881989732385, -0.0008601299487054348, -0.0004346468485891819, -0.00039555225521326065, 0.0013160741655156016, 0.002190954051911831, 0.0010958812199532986, 0.0010534245520830154, 0.0012454341631382704, 0.0016339560970664024, 0.0014783893711864948, 0.0012376802042126656, 0.0004960391670465469, 0.0017070258036255836, 0.00025846343487501144, 0.0028771115466952324, -0.00022719381377100945, 0.0007445255760103464, -0.0002906098961830139, 0.0006485632620751858, 0.0002508601173758507, 0.0013241409324109554, 0.000561028253287077, 0.00023200426949188113, 1.6543082892894745e-05, -0.00031138118356466293, 0.0006784304277971387, 0.00014355796156451106, 0.0009326755534857512, -6.887118797749281e-05, 0.0014473525807261467, 0.0006480766460299492, -8.939672261476517e-05, 0.0007209349423646927, 0.0014645233750343323, 0.001508893445134163, -0.0004862821660935879, 0.0004568304866552353, 0.00010898057371377945, -0.00015007797628641129, -0.0007276360411196947, 0.0005061747506260872, -0.0003113904967904091, -0.0008825184777379036, -0.0008815366891212761, 0.002188802231103182, 0.002156696282327175, 0.0008472558110952377, 0.00016901199705898762, 0.0007265314925462008, 0.0022880169562995434, 0.000658581149764359, 0.001230777706950903, 0.0009632166475057602, -5.930289626121521e-05, 0.0012430669739842415, -0.0003006316255778074, 0.0004241587594151497, -0.0002969079650938511, -0.001044910866767168, -0.00017541972920298576, 0.0008597136475145817, -0.00011926726438105106, 0.001265731523744762, 0.0015347700100392103, -0.0004897350445389748, 0.00034452008549124, 0.0005923702847212553, 0.0015390303451567888, 0.0009797494858503342, -0.00043436605483293533, 0.0003560755867511034, -0.0005670375539921224, 0.0026765819638967514, -0.0013185569550842047, 0.0019205070566385984, -0.00018856837414205074, 0.0002159401774406433, 0.000713573768734932, -0.0001629428006708622, -0.0001756381243467331, -0.0004113363102078438, -8.673802949488163e-05, 0.0011712424457073212, -0.00046164821833372116, -0.0008869804441928864, 7.241778075695038e-05, 0.0013179369270801544, 0.0018757269717752934, 0.0003668367862701416, 0.002171293832361698, 0.0006462172605097294, 0.0011889948509633541, 0.0010219383984804153, 1.812702976167202e-05, 0.000729778315871954], "tensor__stats": {"min": -0.010245069861412048, "max": 0.011981900781393051, "mean": 0.00026709455414675176, "variance": 3.4383167076157406e-05, "nobs": 128, "histogram_bins": 11, "histogram": [[10, 9, 13, 15, 16, 14, 12, 11, 12, 9, 7], [-0.010245069861412048, -0.008224436081945896, -0.006203802302479744, -0.004183168988674879, -0.0021625349763780832, -0.000141901386086829, 0.0018787323497235775, 0.003899365896359086, 0.005919999908655882, 0.007940633222460747, 0.009961267001926899, 0.011981900781393051]]}, "grad__stats": {"min": -0.002183180069550872, "max": 0.0016036112792789936, "mean": -9.915791451931e-05, "variance": 4.925501002617239e-07, "nobs": 128, "histogram_bins": 11, "histogram": [[1, 1, 7, 11, 17, 20, 37, 12, 10, 7, 5], [-0.002183180069550872, -0.0018389263423159719, -0.00149467249866575, -0.00115041877143085, -0.00080616504419595, -0.0004619112878572196, -0.0001176575169665739, 0.00022659623937215656, 0.0005708499811589718, 0.0009151037666015327, 0.0012593575520440936, 0.0016036112792789936]]}, "first_delta__stats": {"min": -0.0013185569550842047, "max": 0.002903096843510866, "mean": 0.0005541027057915926, "variance": 9.59761678132054e-07, "nobs": 128, "histogram_bins": 11, "histogram": [[5, 7, 23, 19, 14, 21, 14, 10, 2, 8, 5], [-0.0013185569550842047, -0.0009347702725790441, -0.0005509835318662226, -0.00016719683480914682, 0.0002165898767998442, 0.00060037657385692, 0.0009841632563620806, 0.001367949997074902, 0.0017517367377877235, 0.002135523362085223, 0.0025193102192133665, 0.002903096843510866]]}}, "shape": [128]}, "fc2.weight": {"id": "fc2.weight", "data_group_type": "PARAM", "type": "Parameter", "value": {"tensor": "NOT SERIALIZED, Too large 1280", "grad": "NOT SERIALIZED, Too large 1280", "first_delta": "NOT SERIALIZED, Too large 1280", "tensor__stats": {"min": -0.1051238477230072, "max": 0.09278863668441772, "mean": -0.002329285955056548, "variance": 0.002930743619799614, "nobs": 1280, "histogram_bins": 35, "histogram": [[6, 15, 26, 46, 39, 38, 38, 37, 31, 42, 42, 38, 43, 45, 31, 32, 42, 47, 47, 30, 32, 38, 39, 41, 28, 38, 51, 40, 27, 42, 42, 45, 38, 42, 22], [-0.1051238477230072, -0.09946920722723007, -0.09381455928087234, -0.08815991878509521, -0.08250527828931808, -0.07685063779354095, -0.07119598984718323, -0.0655413493514061, -0.05988670885562897, -0.05423206463456154, -0.04857742413878441, -0.04292277991771698, -0.03726813942193985, -0.03161349520087242, -0.02595885470509529, -0.020304212346673012, -0.014649569056928158, -0.008994926698505878, -0.003340284340083599, 0.0023143580183386803, 0.00796900037676096, 0.013623642735183239, 0.019278286024928093, 0.024932928383350372, 0.03058757074177265, 0.03624221310019493, 0.04189685359597206, 0.04755149781703949, 0.05320613831281662, 0.05886078253388405, 0.06451542675495148, 0.07017006725072861, 0.07582470774650574, 0.08147934824228287, 0.0871339961886406, 0.09278863668441772]]}, "grad__stats": {"min": -0.13647231459617615, "max": 0.053338922560214996, "mean": -1.862645149230957e-09, "variance": 0.00035981141263619065, "nobs": 1280, "histogram_bins": 35, "histogram": [[2, 2, 0, 1, 2, 0, 2, 3, 2, 5, 2, 3, 3, 3, 3, 9, 6, 3, 8, 9, 8, 6, 21, 51, 139, 606, 197, 80, 36, 20, 23, 6, 7, 9, 3], [-0.13647231459617615, -0.13104914128780365, -0.12562595307826996, -0.12020277976989746, -0.11477959901094437, -0.10935642570257187, -0.10393324494361877, -0.09851006418466568, -0.09308689087629318, -0.08766371011734009, -0.082240529358387, -0.0768173560500145, -0.0713941752910614, -0.0659709945321083, -0.06054782122373581, -0.055124640464782715, -0.04970146343111992, -0.04427828639745712, -0.03885510563850403, -0.03343192860484123, -0.028008749708533287, -0.02258557267487049, -0.017162393778562546, -0.011739215813577175, -0.0063160378485918045, -0.0008928594761528075, 0.004530318547040224, 0.009953496977686882, 0.015376674942672253, 0.020799852907657623, 0.02622303180396557, 0.031646210700273514, 0.03706938773393631, 0.042492564767599106, 0.0479157455265522, 0.053338922560214996]]}, "first_delta__stats": {"min": -0.026981648057699203, "max": 0.008195385336875916, "mean": -0.0019330866634845734, "variance": 2.1534297047764994e-05, "nobs": 1280, "histogram_bins": 35, "histogram": [[2, 0, 0, 0, 1, 0, 3, 2, 5, 3, 1, 5, 6, 16, 18, 11, 17, 21, 32, 34, 29, 48, 59, 68, 110, 109, 282, 117, 105, 82, 47, 32, 9, 3, 3], [-0.026981648057699203, -0.02597659081220627, -0.024971531704068184, -0.02396647445857525, -0.022961415350437164, -0.02195635810494423, -0.020951298996806145, -0.01994624175131321, -0.018941182643175125, -0.01793612539768219, -0.016931066289544106, -0.01592600904405117, -0.01492095086723566, -0.01391589269042015, -0.012910834513604641, -0.011905776336789131, -0.010900718159973621, -0.009895659983158112, -0.008890602737665176, -0.007885544560849667, -0.0068804859183728695, -0.005875428207218647, -0.004870370030403137, -0.0038653118535876274, -0.0028602536767721176, -0.0018551956163719296, -0.0008501375559717417, 0.0001549205626361072, 0.001159978681243956, 0.002165036741644144, 0.003170094918459654, 0.004175153095275164, 0.0051802112720906734, 0.006185268983244896, 0.007190327160060406, 0.008195385336875916]]}}, "shape": [10, 128]}, "fc2.bias": {"id": "fc2.bias", "data_group_type": "PARAM", "type": "Parameter", "value": {"tensor": [0.04872201010584831, 0.04056963324546814, -0.0236799418926239, 0.02422884851694107, 0.05673788860440254, 0.03588007390499115, -0.04612899199128151, 0.023157725110650063, -0.08122239261865616, 0.02773861400783062], "grad": [0.001045083743520081, 0.0012566643999889493, -0.0013664595317095518, 0.00011264928616583347, -0.012824974954128265, 0.0021928632631897926, -7.601194374728948e-05, 0.002261224202811718, 0.002565417205914855, 0.004833545070141554], "first_delta": [-0.002134650945663452, 0.0005551427602767944, -0.00013728253543376923, -0.0011041145771741867, -0.0012427307665348053, 0.0004860684275627136, -0.002212259918451309, 0.0017886944115161896, -0.0021865814924240112, -5.1099807024002075e-05], "tensor__stats": {"min": -0.08122239261865616, "max": 0.05673788860440254, "mean": 0.010600347071886063, "variance": 0.002064563799649477, "nobs": 10, "histogram_bins": 5, "histogram": [[1, 1, 1, 3, 4], [-0.08122239261865616, -0.05363033711910248, -0.02603827975690365, 0.0015537760918959975, 0.02914583310484886, 0.05673788860440254]]}, "grad__stats": {"min": -0.012824974954128265, "max": 0.004833545070141554, "mean": 1.396983917434369e-10, "variance": 2.321148531336803e-05, "nobs": 10, "histogram_bins": 5, "histogram": [[1, 0, 0, 5, 4], [-0.012824974954128265, -0.009293271228671074, -0.005761567037552595, -0.0022298628464341164, 0.0013018411118537188, 0.004833545070141554]]}, "first_delta__stats": {"min": -0.002212259918451309, "max": 0.0017886944115161896, "mean": -0.0006238814676180482, "variance": 1.8742739484878257e-06, "nobs": 10, "histogram_bins": 5, "histogram": [[3, 2, 2, 2, 1], [-0.002212259918451309, -0.0014120690757408738, -0.0006118781748227775, 0.0001883126824395731, 0.0009885035688057542, 0.0017886944115161896]]}}, "shape": [10]}, "input.1": {"id": "input.1", "data_group_type": "INPUT", "type": "Tensor", "value": {"tensor": "NOT SERIALIZED, Too large 7840", "tensor__stats": {"min": -0.4242129623889923, "max": 2.821486711502075, "mean": 0.04146019369363785, "variance": 1.1194807291030884, "nobs": 7840, "histogram_bins": 88, "histogram": [[6281, 17, 18, 8, 30, 17, 10, 18, 16, 8, 16, 21, 4, 3, 12, 7, 6, 11, 10, 13, 13, 11, 8, 10, 7, 9, 5, 4, 13, 6, 6, 5, 7, 9, 6, 8, 7, 6, 4, 3, 13, 6, 9, 13, 14, 8, 5, 8, 6, 0, 7, 14, 2, 7, 2, 4, 5, 16, 18, 5, 5, 6, 3, 7, 15, 6, 7, 15, 2, 10, 7, 4, 13, 9, 11, 8, 16, 10, 9, 20, 9, 17, 15, 13, 30, 12, 194, 532], [-0.4242129623889923, -0.387330025434494, -0.35044705867767334, -0.31356412172317505, -0.27668115496635437, -0.23979820311069489, -0.2029152512550354, -0.16603229939937592, -0.12914936244487762, -0.09226640313863754, -0.055383455008268356, -0.01850050315260887, 0.018382446840405464, 0.0552653968334198, 0.09214834868907928, 0.12903130054473877, 0.16591425240039825, 0.20279720425605774, 0.23968015611171722, 0.2765631079673767, 0.313446044921875, 0.3503290116786957, 0.38721194863319397, 0.42409491539001465, 0.46097785234451294, 0.4978608191013336, 0.5347437858581543, 0.5716267228126526, 0.6085096597671509, 0.6453925967216492, 0.6822755336761475, 0.7191585302352905, 0.7560414671897888, 0.7929244041442871, 0.8298073410987854, 0.8666903376579285, 0.9035732746124268, 0.940456211566925, 0.9773391485214233, 1.0142221450805664, 1.05110502243042, 1.087988018989563, 1.124871015548706, 1.1617538928985596, 1.1986368894577026, 1.2355197668075562, 1.2724027633666992, 1.3092857599258423, 1.3461686372756958, 1.3830516338348389, 1.419934630393982, 1.4568175077438354, 1.4937005043029785, 1.530583381652832, 1.567466378211975, 1.6043493747711182, 1.6412322521209717, 1.6781152486801147, 1.7149982452392578, 1.7518811225891113, 1.7887641191482544, 1.825646996498108, 1.862529993057251, 1.899412989616394, 1.9362958669662476, 1.9731788635253906, 2.010061740875244, 2.0469448566436768, 2.0838277339935303, 2.120710611343384, 2.1575934886932373, 2.19447660446167, 2.2313594818115234, 2.268242359161377, 2.3051254749298096, 2.342008352279663, 2.3788912296295166, 2.415774345397949, 2.4526572227478027, 2.4895401000976562, 2.526423215866089, 2.5633060932159424, 2.600188970565796, 2.6370718479156494, 2.673954963684082, 2.7108378410339355, 2.747720718383789, 2.7846038341522217, 2.821486711502075]]}}, "shape": [10, 1, 28, 28]}, "output.1": {"id": "output.1", "data_group_type": "OUTPUT", "type": "Tensor", "value": {"tensor": [[-10.073139190673828, -14.512003898620605, -6.525149822235107, -11.431156158447266, -6.394359588623047, -8.740042686462402, -0.0036902204155921936, -13.26908016204834, -8.540889739990234, -8.905304908752441], [-9.81396198272705, -12.403881072998047, -13.553662300109863, -6.410885810852051, -3.8748059272766113, -6.697059631347656, -12.21850872039795, -2.484437942504883, -6.555944442749023, -0.11484469473361969], [-11.218512535095215, -4.425266265869141, -4.727877140045166, -0.024531498551368713, -9.586814880371094, -6.401468753814697, -7.707352638244629, -9.913207054138184, -6.780218601226807, -10.111645698547363], [-0.0008993871742859483, -19.761110305786133, -11.458168983459473, -11.105937004089355, -16.3377742767334, -7.7125325202941895, -7.844407558441162, -18.22894287109375, -10.2881498336792, -16.686084747314453], [-11.1705904006958, -0.0038023332599550486, -8.351057052612305, -6.695219039916992, -9.355672836303711, -8.860957145690918, -7.660217761993408, -8.490052223205566, -6.665913105010986, -8.951775550842285], [-9.594463348388672, -17.51458740234375, -14.696041107177734, -14.329089164733887, -0.03744356706738472, -5.722164630889893, -9.889120101928711, -6.986652851104736, -5.829539775848389, -3.5235280990600586], [-7.3622965812683105, -5.45745325088501, -0.02470991760492325, -4.613592147827148, -10.395862579345703, -8.531517028808594, -6.966510772705078, -11.239347457885742, -4.779183387756348, -12.173611640930176], [-4.559109687805176, -9.17696475982666, -9.211288452148438, -4.384655952453613, -7.270365238189697, -5.445226669311523, -9.915304183959961, -0.07651593536138535, -6.173084259033203, -3.1379165649414062], [-10.823972702026367, -18.262449264526367, -9.568533897399902, -11.853678703308105, -0.0011269653914496303, -15.322346687316895, -7.535336494445801, -10.326021194458008, -10.17436695098877, -7.765072345733643], [-10.372838973999023, -10.910184860229492, -11.250267028808594, -9.684199333190918, -0.12068075686693192, -4.556468963623047, -10.455721855163574, -4.450313568115234, -4.812398433685303, -2.486179828643799]], "tensor__stats": {"min": -19.761110305786133, "max": -0.0008993871742859483, "mean": -8.187984466552734, "variance": 19.83370590209961, "nobs": 100, "histogram_bins": 10, "histogram": [[3, 3, 4, 5, 21, 16, 20, 13, 5, 10], [-19.761110305786133, -17.78508949279785, -15.809067726135254, -13.833046913146973, -11.857026100158691, -9.88100528717041, -7.9049835205078125, -5.928962707519531, -3.952941656112671, -1.976920485496521, -0.0008993871742859483]]}}, "shape": [10, 10]}}, "graph": {"nodes": [{"data": {"id": "input.1", "label": "INPUT", "component_ids": ["input.1"]}}, {"data": {"id": 9, "label": "Conv", "component_ids": ["conv1.weight", "conv1.bias"]}}, {"data": {"id": 10, "label": "Relu", "component_ids": []}}, {"data": {"id": 11, "label": "Conv", "component_ids": ["conv2.weight", "conv2.bias"]}}, {"data": {"id": 12, "label": "Relu", "component_ids": []}}, {"data": {"id": 13, "label": "MaxPool", "component_ids": []}}, {"data": {"id": 14, "label": "Flatten", "component_ids": []}}, {"data": {"id": 15, "label": "Gemm", "component_ids": ["fc1.weight", "fc1.bias"]}}, {"data": {"id": 16, "label": "Relu", "component_ids": []}}, {"data": {"id": 17, "label": "Gemm", "component_ids": ["fc2.weight", "fc2.bias"]}}, {"data": {"id": 18, "label": "LogSoftmax", "component_ids": []}}, {"data": {"id": "output.1", "label": "OUTPUT", "component_ids": ["output.1"]}}], "edges": [{"data": {"id": "input.1_9", "source": "input.1", "target": 9}}, {"data": {"id": "9_10", "source": 9, "target": 10}}, {"data": {"id": "10_11", "source": 10, "target": 11}}, {"data": {"id": "11_12", "source": 11, "target": 12}}, {"data": {"id": "12_13", "source": 12, "target": 13}}, {"data": {"id": "13_14", "source": 13, "target": 14}}, {"data": {"id": "14_15", "source": 14, "target": 15}}, {"data": {"id": "15_16", "source": 15, "target": 16}}, {"data": {"id": "16_17", "source": 16, "target": 17}}, {"data": {"id": "17_18", "source": 17, "target": 18}}, {"data": {"id": "18_output.1", "source": "18", "target": "output.1"}}]}}