{"id": "0_1600", "meta": {"time": 1638574531.4230962, "refresh_model_graph": false}, "step_info": {"epoch": 0, "iter": 1600}, "additional_info": {"pred": {"type": "Tensor", "value": [[8], [2], [6], [8], [7], [9], [9], [2], [9], [4]]}, "loss": {"type": "Tensor", "value": 0.22903171181678772}, "class_label": {"type": "Tensor", "value": [8, 2, 6, 3, 7, 9, 9, 2, 9, 4]}, "test_acc": {"type": "float", "value": 91.25}}, "graph_id": [0, 0], "data": {"conv1.weight": {"id": "conv1.weight", "data_group_type": "PARAM", "type": "Parameter", "value": {"tensor": "NOT SERIALIZED, Too large 288", "grad": "NOT SERIALIZED, Too large 288", "first_delta": "NOT SERIALIZED, Too large 288", "tensor__stats": {"min": -0.33441033959388733, "max": 0.36956551671028137, "mean": 0.01847478374838829, "variance": 0.04066038131713867, "nobs": 288, "histogram_bins": 16, "histogram": [[24, 13, 23, 12, 14, 19, 12, 19, 15, 28, 15, 27, 23, 11, 18, 15], [-0.33441033959388733, -0.2904118597507477, -0.24641335010528564, -0.202414870262146, -0.15841637551784515, -0.11441788077354431, -0.07041939347982407, -0.026420902460813522, 0.01757758855819702, 0.061576079577207565, 0.10557457059621811, 0.14957305788993835, 0.1935715526342392, 0.23757004737854004, 0.2815685272216797, 0.3255670368671417, 0.36956551671028137]]}, "grad__stats": {"min": -0.032296452671289444, "max": 0.039182864129543304, "mean": 0.0006912118988111615, "variance": 0.00010919640772044659, "nobs": 288, "histogram_bins": 16, "histogram": [[6, 5, 4, 12, 12, 17, 35, 73, 77, 26, 13, 1, 3, 1, 2, 1], [-0.032296452671289444, -0.027828995138406754, -0.023361537605524063, -0.018894080072641373, -0.014426623471081257, -0.009959165938198566, -0.005491708870977163, -0.0010242515709251165, 0.0034432057291269302, 0.00791066326200962, 0.012378120794892311, 0.016845578327775, 0.021313033998012543, 0.025780491530895233, 0.030247949063777924, 0.034715406596660614, 0.039182864129543304]]}, "first_delta__stats": {"min": -0.012655049562454224, "max": 0.06030719727277756, "mean": 0.015980252996087074, "variance": 0.00029825311503373086, "nobs": 288, "histogram_bins": 16, "histogram": [[5, 46, 25, 22, 24, 17, 28, 28, 18, 22, 19, 10, 12, 4, 6, 2], [-0.012655049562454224, -0.00809490866959095, -0.003534768708050251, 0.0010253717191517353, 0.005585512146353722, 0.010145653039216995, 0.014705793000757694, 0.019265932962298393, 0.023826073855161667, 0.02838621474802494, 0.032946355640888214, 0.03750649467110634, 0.04206663370132446, 0.046626776456832886, 0.05118691548705101, 0.05574705824255943, 0.06030719727277756]]}}, "shape": [32, 1, 3, 3]}, "conv1.bias": {"id": "conv1.bias", "data_group_type": "PARAM", "type": "Parameter", "value": {"tensor": [0.05881500244140625, 0.34709081053733826, -0.01695444993674755, -0.14535248279571533, -0.2803788483142853, 0.0010344337206333876, 0.13570056855678558, 0.029234109446406364, 0.09580505639314651, 0.128169983625412, 0.19763965904712677, 0.312449187040329, 0.060335226356983185, -0.2277301698923111, 0.0402078740298748, -0.10615620762109756, 0.20068097114562988, 0.1286851018667221, 0.11806846410036087, 0.1593184471130371, -0.2460978776216507, -0.0905725285410881, 0.2243085354566574, -0.15157827734947205, 0.12096565961837769, 0.26806703209877014, 0.28344956040382385, -0.24290817975997925, 0.16055306792259216, -0.0067587848752737045, 0.1153307557106018, 0.3178701102733612], "grad": [0.007601100951433182, -0.011954893358051777, -0.03229375556111336, 5.200967279961333e-05, 0.00450209341943264, -0.00669416319578886, 0.011568965390324593, -0.004996852949261665, -0.028988458216190338, -0.011169340461492538, -0.021219071000814438, 0.006270444020628929, -0.001852195942774415, 0.0012181324418634176, -0.016563966870307922, -0.0019741125870496035, -0.022169772535562515, -0.011890888214111328, -0.014700287953019142, -0.006930193863809109, 0.01113525964319706, 0.006921571213752031, -0.011715005151927471, 0.00046666417620144784, -0.011420846916735172, 0.009628115221858025, 0.013035797514021397, 0.0008445202838629484, 0.014811773784458637, -0.013631092384457588, 0.00022496677411254495, 0.0009265937260352075], "first_delta": [0.022726893424987793, 0.019755959510803223, 0.006008557975292206, 0.028294801712036133, 0.03657832741737366, -0.0016145159024745226, 0.01344146579504013, 0.020442862063646317, 0.005233727395534515, 0.008549496531486511, 0.009203419089317322, 0.0242900550365448, 0.034374937415122986, 0.014028340578079224, 0.008375335484743118, 0.008863992989063263, 0.009662032127380371, 0.008726023137569427, 0.002615220844745636, 0.00661332905292511, 0.04235260188579559, 0.025101453065872192, 0.012575820088386536, 0.0061219483613967896, 0.006067171692848206, 0.033448994159698486, 0.03477349877357483, 0.006978422403335571, 0.01804026961326599, 0.006673678755760193, 0.017815329134464264, 0.017225533723831177], "tensor__stats": {"min": -0.2803788483142853, "max": 0.34709081053733826, "mean": 0.06216537207365036, "variance": 0.030789101496338844, "nobs": 32, "histogram_bins": 5, "histogram": [[4, 4, 8, 10, 6], [-0.2803788483142853, -0.1548849195241928, -0.029390985146164894, 0.09610294550657272, 0.2215968817472458, 0.34709081053733826]]}, "grad__stats": {"min": -0.03229375556111336, "max": 0.014811773784458637, "mean": -0.004404902923852205, "variance": 0.00014808608102612197, "nobs": 32, "histogram_bins": 5, "histogram": [[2, 5, 8, 9, 8], [-0.03229375556111336, -0.022872649133205414, -0.013451543636620045, -0.004030438140034676, 0.005390667822211981, 0.014811773784458637]]}, "first_delta__stats": {"min": -0.0016145159024745226, "max": 0.04235260188579559, "mean": 0.016042031347751617, "variance": 0.00012861558934673667, "nobs": 32, "histogram_bins": 5, "histogram": [[9, 9, 7, 3, 4], [-0.0016145159024745226, 0.007178907748311758, 0.015972331166267395, 0.024765754118561745, 0.033559177070856094, 0.04235260188579559]]}}, "shape": [32]}, "conv2.weight": {"id": "conv2.weight", "data_group_type": "PARAM", "type": "Parameter", "value": {"tensor": "NOT SERIALIZED, Too large 18432", "grad": "NOT SERIALIZED, Too large 18432", "first_delta": "NOT SERIALIZED, Too large 18432", "tensor__stats": {"min": -0.06982572376728058, "max": 0.08613617718219757, "mean": 0.00440374668687582, "variance": 0.001229522400535643, "nobs": 18432, "histogram_bins": 100, "histogram": [[1, 1, 5, 7, 15, 38, 53, 110, 121, 146, 159, 197, 178, 225, 221, 195, 229, 227, 182, 256, 257, 241, 244, 218, 244, 248, 253, 252, 233, 236, 233, 252, 214, 229, 246, 219, 240, 224, 262, 248, 258, 247, 253, 247, 238, 240, 234, 239, 236, 227, 218, 234, 260, 240, 243, 233, 236, 256, 246, 261, 239, 248, 267, 237, 242, 241, 241, 274, 220, 230, 240, 221, 253, 292, 213, 236, 220, 236, 234, 241, 190, 216, 184, 173, 114, 117, 87, 57, 60, 57, 42, 36, 30, 14, 14, 4, 3, 2, 0, 2], [-0.06982572376728058, -0.06826610118150711, -0.06670648604631424, -0.06514686346054077, -0.0635872483253479, -0.06202762946486473, -0.06046801060438156, -0.05890839174389839, -0.05734877288341522, -0.05578915402293205, -0.05422953516244888, -0.052669916301965714, -0.051110297441482544, -0.049550674855709076, -0.047991055995225906, -0.04643143713474274, -0.04487181827425957, -0.0433121994137764, -0.04175258055329323, -0.04019296169281006, -0.03863334283232689, -0.03707372397184372, -0.03551410511136055, -0.03395448625087738, -0.03239486739039421, -0.03083524852991104, -0.02927562966942787, -0.027716010808944702, -0.026156391948461533, -0.024596773087978363, -0.023037154227495193, -0.021477535367012024, -0.019917914643883705, -0.018358295783400536, -0.016798676922917366, -0.015239058062434196, -0.013679439201951027, -0.012119820341467857, -0.010560201480984688, -0.009000582620501518, -0.007440963294357061, -0.005881344433873892, -0.004321725573390722, -0.0027621062472462654, -0.0012024873867630959, 0.00035713164834305644, 0.0019167506834492087, 0.0034763696603477, 0.00503598852083087, 0.0065956078469753265, 0.008155226707458496, 0.009714845567941666, 0.011274464428424835, 0.012834083288908005, 0.014393703080713749, 0.015953321009874344, 0.017512939870357513, 0.019072560593485832, 0.020632179453969002, 0.02219179831445217, 0.02375141717493534, 0.02531103603541851, 0.02687065489590168, 0.02843027375638485, 0.02998989261686802, 0.03154951333999634, 0.03310913220047951, 0.03466875106096268, 0.03622836992144585, 0.037787988781929016, 0.039347607642412186, 0.040907226502895355, 0.042466845363378525, 0.044026464223861694, 0.045586083084344864, 0.04714570194482803, 0.0487053208053112, 0.05026493966579437, 0.05182455852627754, 0.05338417738676071, 0.05494379624724388, 0.05650341510772705, 0.05806303396821022, 0.05962265282869339, 0.06118227168917656, 0.06274189054965973, 0.0643015131354332, 0.06586112827062607, 0.06742075085639954, 0.06898036599159241, 0.07053998857736588, 0.07209960371255875, 0.07365922629833221, 0.07521884143352509, 0.07677846401929855, 0.07833807915449142, 0.07989770174026489, 0.08145731687545776, 0.08301693946123123, 0.0845765545964241, 0.08613617718219757]]}, "grad__stats": {"min": -0.03208794444799423, "max": 0.025363361462950706, "mean": -0.0005110896308906376, "variance": 2.2160600565257482e-05, "nobs": 18432, "histogram_bins": 100, "histogram": [[2, 2, 0, 2, 0, 2, 3, 0, 2, 0, 3, 1, 2, 1, 3, 3, 3, 4, 1, 1, 1, 7, 6, 5, 16, 7, 9, 12, 15, 22, 25, 19, 47, 36, 50, 51, 76, 76, 69, 119, 137, 164, 196, 191, 241, 298, 356, 427, 451, 520, 614, 741, 766, 1027, 1350, 2206, 1915, 1336, 944, 711, 510, 431, 352, 268, 218, 166, 159, 140, 100, 98, 81, 73, 74, 43, 49, 40, 48, 31, 26, 32, 32, 30, 15, 20, 11, 21, 12, 13, 4, 8, 8, 8, 4, 2, 3, 1, 2, 2, 0, 3], [-0.03208794444799423, -0.031513430178165436, -0.03093891777098179, -0.03036440536379814, -0.029789892956614494, -0.029215378686785698, -0.02864086627960205, -0.028066353872418404, -0.027491839602589607, -0.02691732719540596, -0.026342812925577164, -0.025768300518393517, -0.02519378811120987, -0.024619273841381073, -0.024044761434197426, -0.02347024902701378, -0.022895734757184982, -0.022321222350001335, -0.021746709942817688, -0.02117219567298889, -0.020597683265805244, -0.020023170858621597, -0.0194486565887928, -0.018874144181609154, -0.018299631774425507, -0.01772511750459671, -0.017150605097413063, -0.016576092690229416, -0.01600157842040062, -0.015427066013216972, -0.01485255267471075, -0.014278039336204529, -0.013703526929020882, -0.01312901359051466, -0.012554500252008438, -0.011979987844824791, -0.01140547450631857, -0.010830961167812347, -0.010256447829306126, -0.009681935422122478, -0.009107422083616257, -0.008532908745110035, -0.007958396337926388, -0.007383882999420166, -0.006809369660913944, -0.00623485678806901, -0.005660343915224075, -0.0050858305767178535, -0.004511317703872919, -0.003936804365366697, -0.003362291492521763, -0.0027877783868461847, -0.0022132652811706066, -0.0016387522919103503, -0.001064239302650094, -0.0004897261969745159, 8.478686504531652e-05, 0.0006592998979613185, 0.0012338130036368966, 0.001808325992897153, 0.002382839098572731, 0.002957352204248309, 0.0035318653099238873, 0.004106378182768822, 0.0046808915212750435, 0.005255404394119978, 0.005829917266964912, 0.006404430605471134, 0.006978943478316069, 0.00755345681682229, 0.008127969689667225, 0.008702483028173447, 0.009276995435357094, 0.009851508773863316, 0.010426022112369537, 0.011000534519553185, 0.011575047858059406, 0.012149561196565628, 0.01272407453507185, 0.013298586942255497, 0.013873100280761719, 0.01444761361926794, 0.015022126026451588, 0.01559663936495781, 0.016171151772141457, 0.016745666041970253, 0.0173201784491539, 0.017894690856337547, 0.018469205126166344, 0.01904371753334999, 0.019618229940533638, 0.020192744210362434, 0.02076725661754608, 0.021341770887374878, 0.021916283294558525, 0.022490795701742172, 0.02306530997157097, 0.023639822378754616, 0.024214334785938263, 0.02478884905576706, 0.025363361462950706]]}, "first_delta__stats": {"min": -0.012817859649658203, "max": 0.03310014680027962, "mean": 0.004305223934352398, "variance": 4.360924503998831e-05, "nobs": 18432, "histogram_bins": 100, "histogram": [[2, 0, 3, 5, 4, 6, 9, 21, 24, 35, 47, 74, 87, 111, 125, 126, 156, 191, 225, 259, 303, 351, 345, 468, 466, 542, 601, 707, 736, 681, 583, 530, 505, 478, 516, 500, 474, 445, 424, 451, 440, 405, 344, 355, 317, 295, 292, 304, 294, 251, 272, 231, 218, 188, 206, 188, 171, 201, 169, 167, 152, 135, 123, 132, 128, 96, 93, 90, 66, 60, 45, 53, 40, 49, 31, 28, 28, 31, 18, 18, 11, 8, 10, 12, 9, 9, 2, 3, 7, 9, 2, 4, 1, 2, 0, 1, 0, 0, 1, 1], [-0.012817859649658203, -0.012358679436147213, -0.011899499222636223, -0.011440319009125233, -0.010981139726936817, -0.010521959513425827, -0.010062779299914837, -0.009603599086403847, -0.009144418872892857, -0.008685238659381866, -0.008226059377193451, -0.007766879163682461, -0.007307698950171471, -0.0068485187366604805, -0.00638933852314949, -0.0059301587752997875, -0.005470978561788797, -0.005011798348277807, -0.004552618600428104, -0.004093438386917114, -0.0036342584062367678, -0.0031750781927257776, -0.002715898212045431, -0.0022567182313650846, -0.0017975381342694163, -0.001338358037173748, -0.0008791779982857406, -0.0004199979011900723, 3.918215588782914e-05, 0.0004983622347936034, 0.0009575422736816108, 0.0014167223125696182, 0.0018759024096652865, 0.002335082506760955, 0.0027942624874413013, 0.0032534427009522915, 0.003712622681632638, 0.0041718026623129845, 0.004630982875823975, 0.005090163089334965, 0.005549342837184668, 0.006008523050695658, 0.006467703264206648, 0.006926883012056351, 0.007386063225567341, 0.007845243439078331, 0.008304423652589321, 0.008763602934777737, 0.009222783148288727, 0.009681963361799717, 0.010141143575310707, 0.010600323788821697, 0.011059504002332687, 0.011518684215843678, 0.011977863498032093, 0.012437043711543083, 0.012896223925054073, 0.013355404138565063, 0.013814584352076054, 0.014273764565587044, 0.01473294384777546, 0.01519212406128645, 0.01565130427479744, 0.016110483556985855, 0.01656966470181942, 0.017028843984007835, 0.0174880251288414, 0.017947204411029816, 0.01840638555586338, 0.018865564838051796, 0.01932474412024021, 0.019783925265073776, 0.020243104547262192, 0.020702285692095757, 0.021161464974284172, 0.021620646119117737, 0.022079825401306152, 0.022539004683494568, 0.022998185828328133, 0.023457365110516548, 0.023916546255350113, 0.02437572553753853, 0.024834904819726944, 0.02529408596456051, 0.025753265246748924, 0.02621244639158249, 0.026671625673770905, 0.02713080681860447, 0.027589986100792885, 0.0280491653829813, 0.028508346527814865, 0.02896752581000328, 0.029426706954836845, 0.02988588623702526, 0.030345065519213676, 0.03080424666404724, 0.03126342594623566, 0.03172260522842407, 0.032181788235902786, 0.0326409675180912, 0.03310014680027962]]}}, "shape": [64, 32, 3, 3]}, "conv2.bias": {"id": "conv2.bias", "data_group_type": "PARAM", "type": "Parameter", "value": {"tensor": [-0.03417753428220749, 0.059531260281801224, -0.004982767626643181, 0.00504094734787941, -0.004304304253309965, -0.00664706202223897, 0.03233392909169197, 0.01103181578218937, -0.02131430245935917, 0.0102466382086277, 0.0052282679826021194, -0.03445686772465706, 0.027283279225230217, 0.043395765125751495, -0.020901542156934738, -0.04397128149867058, 0.0027397561352699995, -0.04614488035440445, 0.05882841348648071, -0.04437195882201195, 0.05038946121931076, -0.025615178048610687, -0.001739684259518981, -0.0009230643045157194, 0.045724306255578995, 0.03784826025366783, -0.050196222960948944, -0.03626151382923126, 0.05981358885765076, 0.070951908826828, 0.009322263300418854, -0.022424492985010147, 0.009091699495911598, 0.053328655660152435, -0.043149277567863464, -0.0343904048204422, 0.005362107418477535, 0.030422689393162727, 0.03629561886191368, -0.018444417044520378, -0.019815417006611824, 0.058963343501091, -0.03948015347123146, -0.02140877954661846, 0.04667089134454727, 0.03994428366422653, -0.024576460942626, 0.01194612868130207, -0.02738540805876255, -0.010274345986545086, 0.04796229675412178, -0.04019753262400627, 0.019377760589122772, -0.0338609404861927, 0.010349967516958714, 0.05526913329958916, 0.061482276767492294, 0.0550897940993309, -0.03351353108882904, -0.013965720310807228, -0.0068221986293792725, 0.04366337135434151, 0.024321721866726875, 0.0524592362344265], "grad": [-0.01626667007803917, -0.012817866168916225, -0.004744021687656641, -0.0018713840981945395, -0.011924775317311287, 0.0038413971196860075, -0.0002621599705889821, -0.015789709985256195, 0.005563052371144295, -0.012272102758288383, 0.010865294374525547, -0.015119808726012707, -0.003358052112162113, -0.02225891873240471, -0.006958033423870802, 0.007075697183609009, -0.013595550321042538, 0.006701371632516384, -0.013379327952861786, 0.004920115228742361, 0.018035978078842163, -0.021728184074163437, -0.006980624049901962, 0.010215675458312035, -0.017640478909015656, -0.023583637550473213, 0.0013685740996152163, 0.005146247800439596, -0.01391000859439373, 0.00222566700540483, 0.004581931978464127, -0.01633247174322605, 0.005231091286987066, 0.007591732777655125, 0.009742471389472485, 0.005406935699284077, -0.014888237230479717, -0.002186301862820983, 0.0027611348778009415, -0.0034562472719699144, 0.00014874170301482081, -0.0013831468531861901, 0.001236268668435514, 0.0033539978321641684, 0.004771733190864325, 0.0008267471566796303, 0.0064301444217562675, 0.004119064658880234, -0.0036811414174735546, 0.002986425533890724, -0.016837961971759796, 0.008169615641236305, -0.01141344290226698, -0.010004277341067791, 0.007235989905893803, -0.006048247683793306, 0.002463024575263262, -0.000779983471147716, -0.006483116652816534, -0.027680516242980957, -0.0006498380098491907, -0.0165686197578907, -0.009554983116686344, 0.001121561974287033], "first_delta": [0.007637310773134232, 0.003817714750766754, 0.0008911122567951679, 0.0025812783278524876, 0.003311343491077423, 0.005126295145601034, 0.01627957634627819, 0.003261587582528591, 0.006993018090724945, 0.007776383310556412, 0.0031093561556190252, 0.006086103618144989, 0.002518303692340851, 0.008711233735084534, 0.001532670110464096, 0.010180696845054626, 0.002356058219447732, 0.012215595692396164, 0.0024097077548503876, 0.006078127771615982, 0.007826566696166992, 0.003096379339694977, 0.0012957036960870028, 0.004183975048363209, 0.006539396941661835, 0.004996351897716522, 0.0033339262008666992, 0.007187221199274063, 0.004997715353965759, 0.01478782668709755, 0.010821616277098656, 0.005050742998719215, 0.00489559443667531, 0.0030073337256908417, 0.007669325917959213, 0.007955975830554962, 0.0029504576232284307, 0.006243815645575523, 0.009941482916474342, 0.005252726376056671, 0.004478041082620621, 0.0025611519813537598, 0.012657955288887024, 0.013475185260176659, 0.004076879471540451, 0.008729793131351471, 0.017360350117087364, 0.0053870463743805885, 0.004001209512352943, 0.008832001127302647, 0.00540812686085701, 0.010572083294391632, 0.001626625657081604, 0.0009113475680351257, 0.00631352886557579, 0.00658455491065979, 0.0062501803040504456, 0.010015487670898438, 0.006145592778921127, 0.005478208884596825, 0.00873572751879692, 0.007392536848783493, 0.0016388427466154099, 0.016192715615034103], "tensor__stats": {"min": -0.050196222960948944, "max": 0.070951908826828, "mean": 0.006656149867922068, "variance": 0.0012560102622956038, "nobs": 64, "histogram_bins": 8, "histogram": [[8, 12, 7, 11, 4, 6, 10, 6], [-0.050196222960948944, -0.03505270555615425, -0.019909190014004707, -0.004765673540532589, 0.01037784293293953, 0.025521360337734222, 0.04066487401723862, 0.05580839142203331, 0.070951908826828]]}, "grad__stats": {"min": -0.027680516242980957, "max": 0.018035978078842163, "mean": -0.0035667524207383394, "variance": 0.00010114194446941838, "nobs": 64, "histogram_bins": 8, "histogram": [[3, 6, 10, 6, 12, 18, 8, 1], [-0.027680516242980957, -0.021965954452753067, -0.016251392662525177, -0.010536830872297287, -0.004822269082069397, 0.000892292708158493, 0.006606854498386383, 0.012321416288614273, 0.018035978078842163]]}, "first_delta__stats": {"min": 0.0008911122567951679, "max": 0.017360350117087364, "mean": 0.006402074825018644, "variance": 1.5307565263356082e-05, "nobs": 64, "histogram_bins": 8, "histogram": [[11, 15, 15, 11, 5, 2, 2, 3], [0.0008911122567951679, 0.0029497670475393534, 0.005008421838283539, 0.007067076396197081, 0.009125730954110622, 0.011184385977685452, 0.01324304100126028, 0.015301695093512535, 0.017360350117087364]]}}, "shape": [64]}, "fc1.weight": {"id": "fc1.weight", "data_group_type": "PARAM", "type": "Parameter", "value": {"tensor": "NOT SERIALIZED, Too large 1179648", "grad": "NOT SERIALIZED, Too large 1179648", "first_delta": "NOT SERIALIZED, Too large 1179648", "tensor__stats": {"min": -0.01871173456311226, "max": 0.01933416724205017, "mean": 0.00024171842960640788, "variance": 3.8051071896916255e-05, "nobs": 1179648, "histogram_bins": 100, "histogram": [[2, 1, 0, 3, 7, 5, 7, 18, 26, 44, 82, 121, 185, 284, 397, 660, 908, 1349, 2065, 3185, 4530, 8096, 12594, 15119, 16674, 18260, 18803, 19665, 20370, 20872, 20983, 21140, 21253, 21503, 21441, 21662, 21488, 21816, 21479, 21594, 21708, 21545, 21510, 21410, 21703, 21522, 21472, 21386, 21652, 21519, 21552, 21440, 21629, 21458, 21443, 21466, 21203, 21743, 21582, 21406, 21741, 21562, 21713, 21372, 21534, 21312, 21214, 21455, 21109, 21174, 20929, 20330, 19988, 19232, 17853, 16467, 12186, 8263, 5982, 4525, 3179, 2329, 1583, 1135, 830, 569, 364, 234, 160, 110, 76, 34, 28, 14, 11, 0, 7, 1, 1, 2], [-0.01871173456311226, -0.01833127625286579, -0.017950816079974174, -0.017570357769727707, -0.01718989759683609, -0.016809439286589622, -0.016428980976343155, -0.016048520803451538, -0.01566806249320507, -0.015287603251636028, -0.014907144010066986, -0.014526685699820518, -0.014146226458251476, -0.013765767216682434, -0.013385307975113392, -0.013004849664866924, -0.012624390423297882, -0.01224393118172884, -0.011863471940159798, -0.01148301362991333, -0.011102554388344288, -0.010722095146775246, -0.010341635905206203, -0.009961177594959736, -0.009580718353390694, -0.009200259111821651, -0.00881979987025261, -0.008439340628683567, -0.0080588823184371, -0.007678423076868057, -0.007297963835299015, -0.00691750505939126, -0.006537045817822218, -0.006156587041914463, -0.005776127800345421, -0.005395669024437666, -0.005015209782868624, -0.004634751006960869, -0.004254291765391827, -0.003873832756653428, -0.0034933737479150295, -0.003112914739176631, -0.0027324557304382324, -0.002351996721699834, -0.0019715377129614353, -0.0015910787042230368, -0.0012106196954846382, -0.0008301606867462397, -0.00044970170711167157, -6.924267654540017e-05, 0.000311216339468956, 0.0006916753482073545, 0.001072134356945753, 0.0014525933656841516, 0.0018330523744225502, 0.0022135113831609488, 0.0025939703918993473, 0.002974429400637746, 0.0033548884093761444, 0.003735347418114543, 0.0041158064268529415, 0.004496265668421984, 0.004876724444329739, 0.005257183685898781, 0.005637642461806536, 0.006018101703375578, 0.006398560479283333, 0.006779019720852375, 0.00715947849676013, 0.007539937738329172, 0.007920396514236927, 0.00830085575580597, 0.008681314997375011, 0.009061773307621479, 0.009442232549190521, 0.009822691790759563, 0.010203151032328606, 0.010583610273897648, 0.010964068584144115, 0.011344527825713158, 0.0117249870672822, 0.012105446308851242, 0.01248590461909771, 0.012866363860666752, 0.013246823102235794, 0.013627282343804836, 0.014007740654051304, 0.014388199895620346, 0.014768659137189388, 0.01514911837875843, 0.015529576689004898, 0.015910036861896515, 0.016290495172142982, 0.01667095348238945, 0.017051413655281067, 0.017431871965527534, 0.017812330275774002, 0.01819279044866562, 0.018573248758912086, 0.018953708931803703, 0.01933416724205017]]}, "grad__stats": {"min": -0.10036268085241318, "max": 0.10760471969842911, "mean": -0.00017269086674787104, "variance": 6.416877295123413e-05, "nobs": 1179648, "histogram_bins": 100, "histogram": [[4, 6, 12, 10, 16, 14, 38, 39, 50, 48, 59, 64, 64, 88, 96, 125, 170, 167, 193, 251, 266, 307, 369, 353, 472, 530, 611, 716, 780, 855, 1047, 1124, 1288, 1541, 1708, 2059, 2417, 2868, 3359, 4173, 5128, 6612, 8520, 11269, 15560, 24112, 45899, 138595, 733514, 60110, 23258, 14635, 10870, 8523, 6870, 5839, 4890, 4094, 3622, 3020, 2575, 2128, 1877, 1573, 1443, 1158, 873, 817, 644, 547, 449, 454, 343, 256, 216, 177, 152, 135, 88, 74, 72, 45, 42, 33, 22, 19, 11, 19, 16, 15, 19, 16, 10, 8, 8, 4, 4, 5, 2, 2], [-0.10036268085241318, -0.09828300774097443, -0.09620333462953568, -0.09412366151809692, -0.09204398840665817, -0.08996430784463882, -0.08788463473320007, -0.08580496162176132, -0.08372528851032257, -0.08164561539888382, -0.07956594228744507, -0.07748626917600632, -0.07540659606456757, -0.07332691550254822, -0.07124724239110947, -0.06916756927967072, -0.06708789616823196, -0.06500822305679321, -0.06292854994535446, -0.06084887310862541, -0.05876919999718666, -0.05668952688574791, -0.05460985377430916, -0.05253017693758011, -0.05045050382614136, -0.048370830714702606, -0.046291157603263855, -0.044211484491825104, -0.042131807655096054, -0.0400521345436573, -0.03797246143221855, -0.0358927883207798, -0.03381311148405075, -0.031733438372612, -0.02965376526117325, -0.027574090287089348, -0.025494417175650597, -0.023414742201566696, -0.021335069090127945, -0.019255394116044044, -0.017175721004605293, -0.015096046961843967, -0.013016372919082642, -0.010936698876321316, -0.00885702483355999, -0.006777350790798664, -0.004697676748037338, -0.0026180027052760124, -0.0005383286043070257, 0.0015413453802466393, 0.003621019423007965, 0.005700693465769291, 0.007780367508530617, 0.009860041551291943, 0.011939715594053268, 0.014019389636814594, 0.01609906367957592, 0.01817873679101467, 0.020258411765098572, 0.022338084876537323, 0.024417759850621223, 0.026497432962059975, 0.028577107936143875, 0.030656781047582626, 0.03273645415902138, 0.03481613099575043, 0.03689580410718918, 0.03897547721862793, 0.04105515033006668, 0.04313482716679573, 0.04521450027823448, 0.04729417338967323, 0.049373846501111984, 0.051453523337841034, 0.053533196449279785, 0.055612869560718536, 0.05769254267215729, 0.05977221578359604, 0.06185189262032509, 0.06393156200647354, 0.06601124256849289, 0.06809091567993164, 0.07017058879137039, 0.07225026190280914, 0.0743299350142479, 0.07640960812568665, 0.0784892812371254, 0.08056895434856415, 0.0826486349105835, 0.08472830802202225, 0.086807981133461, 0.08888765424489975, 0.0909673273563385, 0.09304700046777725, 0.095126673579216, 0.09720634669065475, 0.0992860272526741, 0.10136570036411285, 0.1034453734755516, 0.10552504658699036, 0.10760471969842911]]}, "first_delta__stats": {"min": -0.012433377094566822, "max": 0.01142176240682602, "mean": 0.0002438522787997499, "variance": 1.8754415123112267e-06, "nobs": 1179648, "histogram_bins": 100, "histogram": [[1, 1, 0, 2, 0, 0, 0, 2, 0, 0, 1, 0, 1, 3, 8, 8, 9, 19, 12, 18, 20, 14, 32, 43, 72, 96, 142, 170, 230, 318, 448, 567, 811, 1036, 1306, 1699, 2148, 2759, 3611, 4385, 5896, 7535, 10015, 12356, 15625, 20210, 25648, 33128, 41917, 54495, 79763, 177005, 172206, 87118, 72632, 62237, 51992, 42737, 35648, 29236, 23952, 19279, 15764, 12781, 10315, 8415, 6750, 5422, 4291, 3413, 2704, 2103, 1619, 1291, 1016, 807, 572, 490, 325, 243, 203, 153, 111, 75, 54, 24, 31, 19, 12, 3, 5, 4, 6, 2, 0, 0, 1, 0, 1, 1], [-0.012433377094566822, -0.01219482533633709, -0.011956274509429932, -0.011717722751200199, -0.011479171924293041, -0.011240620166063309, -0.011002068407833576, -0.010763517580926418, -0.010524965822696686, -0.010286414995789528, -0.010047863237559795, -0.009809311479330063, -0.009570760652422905, -0.009332208894193172, -0.00909365713596344, -0.008855106309056282, -0.00861655455082655, -0.008378003723919392, -0.008139451965689659, -0.007900900207459927, -0.007662349380552769, -0.007423797622323036, -0.007185246329754591, -0.006946695037186146, -0.006708143744617701, -0.006469592452049255, -0.006231040693819523, -0.005992489401251078, -0.0057539381086826324, -0.005515386816114187, -0.005276835057884455, -0.0050382837653160095, -0.004799732472747564, -0.004561181180179119, -0.004322629887610674, -0.004084078129380941, -0.003845526836812496, -0.003606975544244051, -0.003368424018844962, -0.003129872726276517, -0.002891321200877428, -0.002652769908308983, -0.0024142186157405376, -0.002175667090341449, -0.0019371156813576818, -0.0016985642723739147, -0.0014600129798054695, -0.0012214615708217025, -0.0009829101618379354, -0.0007443587528541684, -0.0005058073438704014, -0.00026725593488663435, -2.870455318770837e-05, 0.00020984683942515403, 0.00044839823385700583, 0.0006869496428407729, 0.0009255010518245399, 0.001164052402600646, 0.001402603811584413, 0.00164115522056818, 0.0018797066295519471, 0.002118258038535714, 0.0023568093311041594, 0.002595360856503248, 0.0028339121490716934, 0.0030724636744707823, 0.0033110149670392275, 0.0035495662596076727, 0.0037881177850067616, 0.004026669077575207, 0.004265220370143652, 0.0045037721283733845, 0.00474232342094183, 0.004980874713510275, 0.00521942600607872, 0.005457977764308453, 0.005696529056876898, 0.005935080349445343, 0.006173631642013788, 0.006412182934582233, 0.006650734692811966, 0.006889285985380411, 0.007127837277948856, 0.0073663885705173016, 0.007604939863085747, 0.00784349162131548, 0.008082042448222637, 0.00832059420645237, 0.008559145964682102, 0.00879769679158926, 0.009036248549818993, 0.009274800308048725, 0.009513351134955883, 0.009751902893185616, 0.009990453720092773, 0.010229005478322506, 0.010467557236552238, 0.010706108063459396, 0.010944659821689129, 0.011183210648596287, 0.01142176240682602]]}}, "shape": [128, 9216]}, "fc1.bias": {"id": "fc1.bias", "data_group_type": "PARAM", "type": "Parameter", "value": {"tensor": [-0.005691608414053917, 0.010853562504053116, -0.0026897310744971037, -0.002078330609947443, -0.00036195944994688034, 0.004693909082561731, 0.00020737198065035045, -0.0056952256709337234, 0.0012682353844866157, 0.0010657774982973933, 0.005905005615204573, 0.003983835689723492, 0.009599506855010986, 0.007659565657377243, -0.0013494276208803058, -0.004178857430815697, 0.008019926957786083, 0.008324849419295788, -0.005935750436037779, -0.0023317427840083838, -0.00978398509323597, 0.0029561782721430063, 0.002451245440170169, -0.001250796252861619, 0.002995559945702553, -0.0012818665709346533, -0.004990816116333008, -0.009680395014584064, 0.007840698584914207, 0.0004628879250958562, -0.009016291238367558, 0.011996728368103504, -0.00030984869226813316, -0.00467503210529685, 0.0021512967068701982, -0.009987403638660908, 7.241762068588287e-05, -0.00100716482847929, -0.005078737158328295, 0.010926068760454655, 0.0017754806904122233, -0.005602410528808832, -0.00741614168509841, 0.008533432148396969, -0.004773154854774475, -0.003480037674307823, 0.007820786908268929, 0.010873506776988506, 0.004489349201321602, -0.0010524222161620855, 0.003966120537370443, 0.00180920772254467, 0.00848598312586546, -0.0070580788888037205, 0.0017550711054354906, -0.0004028645344078541, -0.008851587772369385, 0.008849234320223331, 0.0009490398806519806, 0.00027408517780713737, 0.0002892323536798358, 0.0009664849494583905, -0.005097889341413975, 0.004582505207508802, 0.0062648821622133255, -0.008802344091236591, 0.007844544015824795, 0.01038186065852642, -0.005468711722642183, 0.008176404982805252, 0.0066168480552732944, 0.00720010744407773, 0.0023416278418153524, -0.008674363605678082, 0.006445384118705988, 0.00765146454796195, -0.0010889925761148334, -0.007170306984335184, 5.442882684292272e-05, -0.007612874731421471, 0.003094145329669118, -0.003966945689171553, 0.005256964359432459, 7.440437912009656e-05, -0.007615719921886921, -0.006245501805096865, 0.009571907110512257, 0.0020159634295850992, 0.002808217890560627, 0.005078146234154701, 0.002184954471886158, 0.003108702367171645, -0.006373018026351929, 0.007444774266332388, -0.003528280183672905, 0.0020207033958286047, -0.0013913237489759922, -0.009917916730046272, -0.0015615547308698297, -0.003806563327088952, -0.0024705231189727783, 0.006425036583095789, -0.005978480912744999, -0.0017733656568452716, -0.000724866462405771, -0.00023006511037237942, -0.0008143747108988464, -0.002003640867769718, -0.0031146130058914423, -0.005744151771068573, 0.006942447274923325, 0.004673035349696875, -0.008213919587433338, -0.010223465971648693, -0.0028544082306325436, 0.010185722261667252, -0.0034641234669834375, -0.0026612502988427877, -0.01045261975377798, 0.004578133579343557, 0.005920811090618372, 0.004465613979846239, -0.00242940173484385, -0.007678816094994545, -0.006030947435647249, 0.011550339870154858, -0.0029150613117963076, -0.0029900867957621813], "grad": [0.008935348130762577, -0.0023017381317913532, 0.007512153126299381, 0.004424750804901123, -0.006408988498151302, -0.015093432739377022, -0.002021586988121271, 0.002875717356801033, 0.009707286022603512, 0.0, -0.00477247778326273, 0.005449622869491577, 0.0, -0.002030842239037156, -0.005395207088440657, -0.0018886548932641745, 0.0035850044805556536, -0.0010533579625189304, -0.0037614782340824604, -0.0018274711910635233, 0.0024050807114690542, 0.0, 0.00618555024266243, -0.0034983637742698193, 0.005600083153694868, -0.00288748019374907, -0.00562179135158658, 0.005565205123275518, -0.005023791454732418, 0.007522844709455967, -0.0064625609666109085, -0.0017384772654622793, 0.003474349156022072, -0.0033851522020995617, 0.0025409278459846973, 0.0, -0.008806372061371803, 0.00038701086305081844, -0.0010879787150770426, 0.0014402236556634307, -0.010785017162561417, 0.0010000658221542835, 0.0042900159023702145, -0.0017190419603139162, 0.008135292679071426, 0.0032813367433845997, 0.005670526064932346, -0.0009024266619235277, -0.008448864333331585, 0.010916214436292648, 0.0, -0.011349540203809738, 0.005701626650989056, 0.002695902716368437, -0.001163673703558743, -0.002014780417084694, 0.006261971779167652, -9.677264461060986e-05, -0.00013321539154276252, 0.008886092342436314, -0.0026463852263987064, -0.005408729426562786, -0.005084982607513666, 0.01045943982899189, 0.0, -0.001471832161769271, 0.0008849236182868481, -0.007644350174814463, 0.0, -0.011908336542546749, -0.00729787815362215, 0.0, 0.005871475208550692, 0.0, 0.008992328308522701, -0.001467644120566547, 0.005035626236349344, 0.0007500770734623075, 0.00017503974959254265, -0.008587276563048363, 0.011791162192821503, -0.0035788745153695345, -0.002190592000260949, 0.001940433168783784, -0.0019133522873744369, 0.007861040532588959, 6.382280844263732e-05, 0.0019576256163418293, 0.0, -0.013226265087723732, -0.0018828269094228745, 0.004071398638188839, 0.0, 0.0011312104761600494, 0.0, -0.002726905746385455, 0.005073442589491606, 0.0, 0.0004220106638967991, -0.01014201994985342, -0.0018850520718842745, -0.0013113453751429915, 0.0, -0.00540587492287159, -2.8229445888428017e-05, -0.014956219121813774, 0.009145071730017662, -0.006305883638560772, 0.0, 0.01647571660578251, -0.010000121779739857, 0.008216078393161297, 0.0, -0.0025710160844027996, 0.0, -0.0036407439038157463, -0.004209066275507212, 0.008491665124893188, -0.0014902864350005984, -0.002222372218966484, 0.007135177496820688, -0.011978328227996826, -0.004167824052274227, -0.006920485757291317, -0.002960037440061569, 0.00488861370831728, 6.027866402291693e-05, -0.0016757410485297441], "first_delta": [-0.00026280106976628304, 0.002573215402662754, 0.0008079640101641417, -0.0003588396357372403, -0.00021644835942424834, 0.0007376866415143013, -0.0004939734935760498, -0.0012429398484528065, 0.0033592572435736656, -0.000229818862862885, -0.0006492515094578266, -0.0001175031065940857, -0.0004967935383319855, 0.000578075647354126, 0.0014753396390005946, 0.0007390957325696945, 0.0011140257120132446, 0.000309736467897892, 0.00016431324183940887, 0.0028181655798107386, 0.00021948013454675674, -0.00039770943112671375, 0.0002903733402490616, 0.003053746884688735, -0.001322394236922264, 0.002638499950990081, 0.00269882008433342, -0.001699027605354786, 0.00089691998437047, -0.0008750103879719973, 0.001109081320464611, 0.0017366204410791397, -0.0008774538291618228, -0.001266812440007925, -0.0005673693958669901, -0.00041959621012210846, 0.001325472490862012, 0.0023814039304852486, 0.0011249999515712261, 0.0011574123054742813, 0.0011921213008463383, 0.0017244345508515835, 0.0015872889198362827, 0.0010410062968730927, 0.0005048364400863647, 0.0016601118259131908, 0.00020621903240680695, 0.003371479921042919, -0.00013443781062960625, 0.0008237246656790376, -0.0002913549542427063, 0.0007032012799754739, -0.00014138594269752502, 0.0015639378689229488, 0.0003806574968621135, 0.00035098771331831813, 2.7198344469070435e-05, 8.740182965993881e-05, 0.0007014992879703641, 7.85695156082511e-05, 0.0010299081914126873, -0.0005437316722236574, 0.001367846503853798, 0.0006114053539931774, -8.939672261476517e-05, 0.00048776157200336456, 0.0011885156854987144, 0.0016658846288919449, -0.000497796107083559, 0.0005129808560013771, 6.393436342477798e-05, -0.00027228379622101784, -0.0012934769038110971, 0.0004399493336677551, -0.0004602489061653614, -0.0009259073995053768, -0.0013730571372434497, 0.0023363311775028706, 0.002497722627595067, 0.000698489136993885, 0.00019731116481125355, 0.0006080497987568378, 0.0024195583537220955, 0.0005688448436558247, 0.0012263087555766106, 0.0009570056572556496, -0.00019619520753622055, 0.0013607258442789316, -0.0002128472551703453, 0.00043942686170339584, -0.0002447296865284443, -0.0012269781436771154, -6.784219294786453e-05, 0.0010000988841056824, -0.0001133275218307972, 0.0013212825870141387, 0.0016972797457128763, -0.0005093608051538467, 0.00014979031402617693, 0.0005003714468330145, 0.001715188380330801, 0.0009593586437404156, -0.0004608849994838238, 0.0002334135351702571, -0.0005806765984743834, 0.002987699117511511, -0.0016493687871843576, 0.002056941855698824, -0.00017674220725893974, 0.0002628653310239315, 0.000658134464174509, -0.000181486364454031, -0.00020341761410236359, -0.0005040010437369347, -9.417673572897911e-05, 0.0010723406448960304, -0.00048634479753673077, -0.0010183090344071388, -0.00013513211160898209, 0.0014033890329301357, 0.002151613123714924, 0.00032094260677695274, 0.002169643295928836, 0.0005821362137794495, 0.0013543413951992989, 0.001217622309923172, -0.00011921836994588375, 0.0007576807402074337], "tensor__stats": {"min": -0.01045261975377798, "max": 0.011996728368103504, "mean": 0.0002510121848899871, "variance": 3.458600622252561e-05, "nobs": 128, "histogram_bins": 11, "histogram": [[10, 8, 14, 15, 16, 14, 12, 10, 14, 8, 7], [-0.01045261975377798, -0.00841176975518465, -0.006370920222252607, -0.004330070223659277, -0.0022892204578965902, -0.00024837060482241213, 0.001792479190044105, 0.0038333290722221136, 0.0058741788379848, 0.007915028370916843, 0.009955878369510174, 0.011996728368103504]]}, "grad__stats": {"min": -0.015093432739377022, "max": 0.01647571660578251, "mean": -0.0002753401640802622, "variance": 3.3189182431669906e-05, "nobs": 128, "histogram_bins": 11, "histogram": [[3, 6, 6, 14, 30, 32, 11, 14, 9, 2, 1], [-0.015093432739377022, -0.012223510071635246, -0.00935358740389347, -0.006483664736151695, -0.0036137420684099197, -0.0007438194006681442, 0.0021261032670736313, 0.004996025934815407, 0.007865948602557182, 0.010735871270298958, 0.013605793938040733, 0.01647571660578251]]}, "first_delta__stats": {"min": -0.001699027605354786, "max": 0.003371479921042919, "mean": 0.0005380204529501498, "variance": 1.2216756886118674e-06, "nobs": 128, "histogram_bins": 11, "histogram": [[7, 5, 15, 24, 21, 17, 16, 8, 6, 5, 4], [-0.001699027605354786, -0.0012380724074319005, -0.0007771171513013542, -0.0003161619242746383, 0.0001447933173039928, 0.0006057485588826239, 0.0010667038150131702, 0.0015276590129360557, 0.001988614210858941, 0.0024495695251971483, 0.002910524606704712, 0.003371479921042919]]}}, "shape": [128]}, "fc2.weight": {"id": "fc2.weight", "data_group_type": "PARAM", "type": "Parameter", "value": {"tensor": "NOT SERIALIZED, Too large 1280", "grad": "NOT SERIALIZED, Too large 1280", "first_delta": "NOT SERIALIZED, Too large 1280", "tensor__stats": {"min": -0.10612661391496658, "max": 0.09333918988704681, "mean": -0.002586514223366976, "variance": 0.002951909089460969, "nobs": 1280, "histogram_bins": 35, "histogram": [[8, 12, 25, 49, 34, 40, 39, 36, 34, 38, 44, 36, 47, 42, 33, 32, 42, 48, 45, 31, 34, 37, 41, 37, 30, 43, 46, 39, 30, 43, 42, 45, 37, 42, 19], [-0.10612661391496658, -0.10042759031057358, -0.09472856670618057, -0.08902954310178757, -0.08333051949739456, -0.07763149589300156, -0.07193247973918915, -0.06623345613479614, -0.06053442880511284, -0.05483540892601013, -0.049136385321617126, -0.04343736171722412, -0.037738338112831116, -0.03203931450843811, -0.026340292766690254, -0.02064126916229725, -0.014942246489226818, -0.009243223816156387, -0.0035442004445940256, 0.002154822461307049, 0.00785384513437748, 0.013552868738770485, 0.01925189048051834, 0.024950914084911346, 0.030649937689304352, 0.03634896129369736, 0.04204798489809036, 0.04774700477719307, 0.053446028381586075, 0.05914505198597908, 0.06484407186508179, 0.07054309546947479, 0.0762421190738678, 0.0819411426782608, 0.08764016628265381, 0.09333918988704681]]}, "grad__stats": {"min": -1.1004358530044556, "max": 1.1438472270965576, "mean": 5.9604645663569045e-09, "variance": 0.02365649677813053, "nobs": 1280, "histogram_bins": 35, "histogram": [[1, 1, 0, 1, 1, 1, 1, 2, 3, 8, 8, 15, 11, 15, 31, 50, 124, 852, 69, 22, 9, 7, 15, 7, 7, 10, 1, 2, 2, 0, 1, 1, 1, 0, 1], [-1.1004358530044556, -1.036313533782959, -0.9721910953521729, -0.9080687165260315, -0.8439463376998901, -0.7798239588737488, -0.7157016396522522, -0.6515792608261108, -0.5874568819999695, -0.5233345031738281, -0.45921212434768677, -0.3950897455215454, -0.33096736669540405, -0.2668449878692627, -0.20272262394428253, -0.13860024511814117, -0.07447787374258041, -0.01035549957305193, 0.053766872733831406, 0.11788924783468246, 0.18201161921024323, 0.24613399803638458, 0.31025636196136475, 0.3743787407875061, 0.43850111961364746, 0.5026234984397888, 0.5667458772659302, 0.6308682560920715, 0.6949906349182129, 0.7591130137443542, 0.8232353329658508, 0.8873577117919922, 0.9514800906181335, 1.015602469444275, 1.079724907875061, 1.1438472270965576]]}, "first_delta__stats": {"min": -0.028462205082178116, "max": 0.008745938539505005, "mean": -0.002190314931795001, "variance": 2.3851740479585715e-05, "nobs": 1280, "histogram_bins": 35, "histogram": [[2, 0, 0, 0, 0, 2, 2, 3, 4, 3, 2, 5, 6, 15, 18, 14, 13, 31, 30, 40, 29, 48, 65, 80, 103, 118, 273, 124, 103, 74, 33, 24, 10, 3, 3], [-0.028462205082178116, -0.02739911526441574, -0.026336025446653366, -0.02527293562889099, -0.024209845811128616, -0.02314675599336624, -0.022083666175603867, -0.02102057635784149, -0.019957486540079117, -0.018894396722316742, -0.017831306904554367, -0.016768217086791992, -0.015705127269029617, -0.014642037451267242, -0.013578947633504868, -0.012515857815742493, -0.011452767997980118, -0.010389678180217743, -0.009326588362455368, -0.008263498544692993, -0.007200408726930618, -0.006137318909168243, -0.0050742290914058685, -0.004011139273643494, -0.0029480494558811188, -0.001884959638118744, -0.000821869820356369, 0.00024121999740600586, 0.0013043098151683807, 0.0023673996329307556, 0.0034304894506931305, 0.004493579268455505, 0.00555666908621788, 0.006619758903980255, 0.00768284872174263, 0.008745938539505005]]}}, "shape": [10, 128]}, "fc2.bias": {"id": "fc2.bias", "data_group_type": "PARAM", "type": "Parameter", "value": {"tensor": [0.04824718460440636, 0.04059137776494026, -0.023932063952088356, 0.024007340893149376, 0.05645623803138733, 0.03592778742313385, -0.04653020203113556, 0.02321297489106655, -0.08178789168596268, 0.02782674878835678], "grad": [0.0001958974462468177, 0.0021781723480671644, 0.0006017314735800028, -0.07688376307487488, -0.02956727333366871, 0.010880720801651478, -0.012514238245785236, 0.006066040601581335, 0.08405733853578568, 0.014985380694270134], "first_delta": [-0.0026094764471054077, 0.0005768872797489166, -0.0003894045948982239, -0.0013256222009658813, -0.0015243813395500183, 0.0005337819457054138, -0.002613469958305359, 0.0018439441919326782, -0.00275208055973053, 3.703497350215912e-05], "tensor__stats": {"min": -0.08178789168596268, "max": 0.05645623803138733, "mean": 0.010401951149106026, "variance": 0.002076460514217615, "nobs": 10, "histogram_bins": 5, "histogram": [[1, 1, 1, 3, 4], [-0.08178789168596268, -0.054139066487550735, -0.026490239426493645, 0.0011585861211642623, 0.028807412832975388, 0.05645623803138733]]}, "grad__stats": {"min": -0.07688376307487488, "max": 0.08405733853578568, "mean": 5.587935669737476e-10, "variance": 0.0015991636319085956, "nobs": 10, "histogram_bins": 5, "histogram": [[1, 2, 6, 0, 1], [-0.07688376307487488, -0.04469554126262665, -0.012507322244346142, 0.019680898636579514, 0.051869116723537445, 0.08405733853578568]]}, "first_delta__stats": {"min": -0.00275208055973053, "max": 0.0018439441919326782, "mean": -0.0008222786709666252, "variance": 2.5226656816812465e-06, "nobs": 10, "histogram_bins": 5, "histogram": [[3, 2, 1, 3, 1], [-0.00275208055973053, -0.001832875655964017, -0.0009136706357821822, 5.534291176445549e-06, 0.0009247392299585044, 0.0018439441919326782]]}}, "shape": [10]}, "input.1": {"id": "input.1", "data_group_type": "INPUT", "type": "Tensor", "value": {"tensor": "NOT SERIALIZED, Too large 7840", "tensor__stats": {"min": -0.4242129623889923, "max": 2.821486711502075, "mean": 0.02760038711130619, "variance": 1.0664899349212646, "nobs": 7840, "histogram_bins": 88, "histogram": [[6298, 21, 11, 14, 14, 13, 9, 16, 19, 11, 14, 7, 9, 12, 11, 5, 12, 10, 11, 6, 17, 7, 8, 9, 5, 9, 12, 11, 12, 6, 7, 9, 10, 15, 8, 4, 11, 8, 6, 7, 10, 9, 9, 10, 8, 8, 7, 12, 4, 3, 5, 17, 18, 10, 13, 12, 8, 7, 5, 8, 6, 7, 5, 8, 11, 18, 8, 7, 6, 8, 13, 12, 16, 15, 7, 8, 8, 17, 16, 12, 11, 13, 10, 15, 22, 21, 264, 389], [-0.4242129623889923, -0.387330025434494, -0.35044705867767334, -0.31356412172317505, -0.27668115496635437, -0.23979820311069489, -0.2029152512550354, -0.16603229939937592, -0.12914936244487762, -0.09226640313863754, -0.055383455008268356, -0.01850050315260887, 0.018382446840405464, 0.0552653968334198, 0.09214834868907928, 0.12903130054473877, 0.16591425240039825, 0.20279720425605774, 0.23968015611171722, 0.2765631079673767, 0.313446044921875, 0.3503290116786957, 0.38721194863319397, 0.42409491539001465, 0.46097785234451294, 0.4978608191013336, 0.5347437858581543, 0.5716267228126526, 0.6085096597671509, 0.6453925967216492, 0.6822755336761475, 0.7191585302352905, 0.7560414671897888, 0.7929244041442871, 0.8298073410987854, 0.8666903376579285, 0.9035732746124268, 0.940456211566925, 0.9773391485214233, 1.0142221450805664, 1.05110502243042, 1.087988018989563, 1.124871015548706, 1.1617538928985596, 1.1986368894577026, 1.2355197668075562, 1.2724027633666992, 1.3092857599258423, 1.3461686372756958, 1.3830516338348389, 1.419934630393982, 1.4568175077438354, 1.4937005043029785, 1.530583381652832, 1.567466378211975, 1.6043493747711182, 1.6412322521209717, 1.6781152486801147, 1.7149982452392578, 1.7518811225891113, 1.7887641191482544, 1.825646996498108, 1.862529993057251, 1.899412989616394, 1.9362958669662476, 1.9731788635253906, 2.010061740875244, 2.0469448566436768, 2.0838277339935303, 2.120710611343384, 2.1575934886932373, 2.19447660446167, 2.2313594818115234, 2.268242359161377, 2.3051254749298096, 2.342008352279663, 2.3788912296295166, 2.415774345397949, 2.4526572227478027, 2.4895401000976562, 2.526423215866089, 2.5633060932159424, 2.600188970565796, 2.6370718479156494, 2.673954963684082, 2.7108378410339355, 2.747720718383789, 2.7846038341522217, 2.821486711502075]]}}, "shape": [10, 1, 28, 28]}, "output.1": {"id": "output.1", "data_group_type": "OUTPUT", "type": "Tensor", "value": {"tensor": [[-11.89890193939209, -12.977696418762207, -8.660340309143066, -8.98150634765625, -11.947731971740723, -7.789732933044434, -13.621569633483887, -12.532268524169922, -0.001430560601875186, -7.2698211669921875], [-15.035844802856445, -8.953425407409668, -0.004903553053736687, -5.468305587768555, -18.542922973632812, -10.116157531738281, -7.754766941070557, -19.081071853637695, -9.505020141601562, -19.141738891601562], [-6.486969470977783, -4.953304290771484, -4.762210845947266, -4.443020343780518, -5.86186408996582, -2.6850497722625732, -0.1381172388792038, -11.106451034545898, -3.62247371673584, -6.067112922668457], [-8.15947437286377, -4.4237213134765625, -5.7597527503967285, -1.602735161781311, -8.39479923248291, -4.041038513183594, -11.39841365814209, -4.834954261779785, -0.34641778469085693, -2.9908032417297363], [-10.663531303405762, -12.464280128479004, -6.972496509552002, -7.300732135772705, -11.175049781799316, -12.745781898498535, -12.474634170532227, -0.006214698310941458, -10.4872407913208, -5.4020891189575195], [-10.420413970947266, -8.485308647155762, -11.454230308532715, -4.679882526397705, -4.625259876251221, -5.810409069061279, -11.147220611572266, -3.955293893814087, -5.278945446014404, -0.04770984128117561], [-9.725991249084473, -16.3436222076416, -6.992728233337402, -9.082144737243652, -4.143157005310059, -8.561545372009277, -9.702675819396973, -5.877686500549316, -8.475274085998535, -0.020434217527508736], [-14.533280372619629, -13.986693382263184, -0.0033295690082013607, -9.023847579956055, -16.77458381652832, -11.08443832397461, -5.749612808227539, -23.199684143066406, -12.769625663757324, -20.370540618896484], [-10.77822208404541, -6.439499378204346, -10.092556953430176, -6.762047290802002, -5.728610038757324, -5.39103364944458, -11.217803001403809, -4.201784610748291, -3.206186056137085, -0.0684056505560875], [-11.679797172546387, -7.14085578918457, -7.699235916137695, -6.046275615692139, -0.3970366418361664, -4.213616847991943, -8.852030754089355, -3.8182132244110107, -2.778252363204956, -1.491564393043518]], "tensor__stats": {"min": -23.199684143066406, "max": -0.001430560601875186, "mean": -7.913845062255859, "variance": 24.449209213256836, "nobs": 100, "histogram_bins": 10, "histogram": [[1, 3, 3, 3, 10, 16, 19, 19, 14, 12], [-23.199684143066406, -20.879858016967773, -18.560033798217773, -16.24020767211914, -13.920382499694824, -11.600557327270508, -9.280732154846191, -6.960906505584717, -4.6410813331604, -2.321255922317505, -0.001430560601875186]]}}, "shape": [10, 10]}}, "graph": {"nodes": [{"data": {"id": "input.1", "label": "INPUT", "component_ids": ["input.1"]}}, {"data": {"id": 9, "label": "Conv", "component_ids": ["conv1.weight", "conv1.bias"]}}, {"data": {"id": 10, "label": "Relu", "component_ids": []}}, {"data": {"id": 11, "label": "Conv", "component_ids": ["conv2.weight", "conv2.bias"]}}, {"data": {"id": 12, "label": "Relu", "component_ids": []}}, {"data": {"id": 13, "label": "MaxPool", "component_ids": []}}, {"data": {"id": 14, "label": "Flatten", "component_ids": []}}, {"data": {"id": 15, "label": "Gemm", "component_ids": ["fc1.weight", "fc1.bias"]}}, {"data": {"id": 16, "label": "Relu", "component_ids": []}}, {"data": {"id": 17, "label": "Gemm", "component_ids": ["fc2.weight", "fc2.bias"]}}, {"data": {"id": 18, "label": "LogSoftmax", "component_ids": []}}, {"data": {"id": "output.1", "label": "OUTPUT", "component_ids": ["output.1"]}}], "edges": [{"data": {"id": "input.1_9", "source": "input.1", "target": 9}}, {"data": {"id": "9_10", "source": 9, "target": 10}}, {"data": {"id": "10_11", "source": 10, "target": 11}}, {"data": {"id": "11_12", "source": 11, "target": 12}}, {"data": {"id": "12_13", "source": 12, "target": 13}}, {"data": {"id": "13_14", "source": 13, "target": 14}}, {"data": {"id": "14_15", "source": 14, "target": 15}}, {"data": {"id": "15_16", "source": 15, "target": 16}}, {"data": {"id": "16_17", "source": 16, "target": 17}}, {"data": {"id": "17_18", "source": 17, "target": 18}}, {"data": {"id": "18_output.1", "source": "18", "target": "output.1"}}]}}