{"id": "0_1900", "meta": {"time": 1638574557.2188423, "refresh_model_graph": false}, "step_info": {"epoch": 0, "iter": 1900}, "additional_info": {"pred": {"type": "Tensor", "value": [[8], [5], [6], [7], [0], [1], [0], [9], [0], [0]]}, "loss": {"type": "Tensor", "value": 0.22522976994514465}, "class_label": {"type": "Tensor", "value": [8, 5, 6, 7, 0, 8, 0, 9, 0, 0]}, "test_acc": {"type": "float", "value": 91.96}}, "graph_id": [0, 0], "data": {"conv1.weight": {"id": "conv1.weight", "data_group_type": "PARAM", "type": "Parameter", "value": {"tensor": "NOT SERIALIZED, Too large 288", "grad": "NOT SERIALIZED, Too large 288", "first_delta": "NOT SERIALIZED, Too large 288", "tensor__stats": {"min": -0.3346906900405884, "max": 0.37081870436668396, "mean": 0.01906733028590679, "variance": 0.04085063561797142, "nobs": 288, "histogram_bins": 16, "histogram": [[24, 13, 23, 12, 14, 19, 12, 19, 16, 27, 15, 26, 24, 11, 18, 15], [-0.3346906900405884, -0.2905963659286499, -0.24650201201438904, -0.20240767300128937, -0.1583133339881897, -0.11421900242567062, -0.07012467086315155, -0.02603032998740673, 0.01806400716304779, 0.06215834617614746, 0.10625268518924713, 0.1503470242023468, 0.19444134831428528, 0.23853568732738495, 0.2826300263404846, 0.3267243802547455, 0.37081870436668396]]}, "grad__stats": {"min": -0.040619879961013794, "max": 0.029653340578079224, "mean": -0.010148297995328903, "variance": 0.00017975112132262439, "nobs": 288, "histogram_bins": 16, "histogram": [[6, 10, 13, 32, 15, 27, 41, 28, 39, 38, 18, 5, 7, 6, 1, 2], [-0.040619879961013794, -0.03622780367732048, -0.03183572739362717, -0.027443651109933853, -0.02305157482624054, -0.018659498542547226, -0.014267422258853912, -0.009875345975160599, -0.005483269691467285, -0.0010911934077739716, 0.003300882875919342, 0.007692959159612656, 0.01208503544330597, 0.016477111726999283, 0.020869188010692596, 0.02526126429438591, 0.029653340578079224]]}, "first_delta__stats": {"min": -0.014046713709831238, "max": 0.06215441972017288, "mean": 0.016572801396250725, "variance": 0.000321898958645761, "nobs": 288, "histogram_bins": 16, "histogram": [[4, 41, 29, 20, 23, 22, 25, 23, 22, 24, 17, 13, 11, 6, 6, 2], [-0.014046713709831238, -0.009284142404794693, -0.004521572031080723, 0.00024099880829453468, 0.005003569647669792, 0.009766140952706337, 0.014528711326420307, 0.019291281700134277, 0.024053853005170822, 0.028816424310207367, 0.03357899561524391, 0.03834156692028046, 0.0431041345000267, 0.04786670580506325, 0.05262927711009979, 0.05739184841513634, 0.06215441972017288]]}}, "shape": [32, 1, 3, 3]}, "conv1.bias": {"id": "conv1.bias", "data_group_type": "PARAM", "type": "Parameter", "value": {"tensor": [0.05993228778243065, 0.3482794463634491, -0.01670912280678749, -0.14355579018592834, -0.2787078619003296, 0.0013376330025494099, 0.13691742718219757, 0.030650975182652473, 0.09608405083417892, 0.12865988910198212, 0.19806531071662903, 0.31395208835601807, 0.062041208148002625, -0.2265278846025467, 0.040801968425512314, -0.10501009225845337, 0.20102277398109436, 0.12921443581581116, 0.11845933645963669, 0.15944229066371918, -0.24477307498455048, -0.08893191069364548, 0.22470031678676605, -0.15050974488258362, 0.12127941846847534, 0.2692022919654846, 0.2847275137901306, -0.24211372435092926, 0.16115492582321167, -0.0061511998064816, 0.11691317707300186, 0.3197120726108551], "grad": [-0.023863891139626503, 0.010000262409448624, 0.0713055282831192, -0.002245943294838071, -0.02014933153986931, 0.010720568709075451, -0.030703362077474594, -0.00013193405175115913, 0.06128698214888573, 0.030950969085097313, 0.035223763436079025, -0.01731838844716549, -0.0021426575258374214, -0.0026412513107061386, 0.042425770312547684, 0.002523140050470829, 0.018235407769680023, 0.02173900417983532, 0.0455624982714653, -0.01750948466360569, -0.022662831470370293, -0.012420040555298328, 0.02187044359743595, -0.0021645836532115936, 0.02326536551117897, -0.025747250765562057, -0.037695225328207016, -0.0015152223641052842, -0.036107178777456284, 0.027373801916837692, -0.00652600172907114, -0.013650907203555107], "first_delta": [0.023844178766012192, 0.020944595336914062, 0.006253885105252266, 0.03009149432182312, 0.038249313831329346, -0.0013113166205585003, 0.014658324420452118, 0.021859727799892426, 0.005512721836566925, 0.00903940200805664, 0.00962907075881958, 0.025792956352233887, 0.036080919206142426, 0.015230625867843628, 0.00896942988038063, 0.010010108351707458, 0.010003834962844849, 0.009255357086658478, 0.003006093204021454, 0.006737172603607178, 0.04367740452289581, 0.02674207091331482, 0.012967601418495178, 0.007190480828285217, 0.006380930542945862, 0.034584254026412964, 0.03605145215988159, 0.007772877812385559, 0.018642127513885498, 0.007281263824552298, 0.01939775049686432, 0.019067496061325073], "tensor__stats": {"min": -0.2787078619003296, "max": 0.3482794463634491, "mean": 0.06311126053333282, "variance": 0.030755212530493736, "nobs": 32, "histogram_bins": 5, "histogram": [[4, 4, 8, 10, 6], [-0.2787078619003296, -0.1533104032278061, -0.027912938967347145, 0.0974845215678215, 0.2228819876909256, 0.3482794463634491]]}, "grad__stats": {"min": -0.037695225328207016, "max": 0.0713055282831192, "mean": 0.004602750763297081, "variance": 0.0007698455592617393, "nobs": 32, "histogram_bins": 5, "histogram": [[9, 10, 7, 4, 2], [-0.037695225328207016, -0.015895074233412743, 0.005905075930058956, 0.027705226093530655, 0.04950537905097008, 0.0713055282831192]]}, "first_delta__stats": {"min": -0.0013113166205585003, "max": 0.04367740452289581, "mean": 0.01698792539536953, "variance": 0.00013803679030388594, "nobs": 32, "histogram_bins": 5, "histogram": [[8, 10, 6, 4, 4], [-0.0013113166205585003, 0.007686427794396877, 0.016684172675013542, 0.025681916624307632, 0.034679658710956573, 0.04367740452289581]]}}, "shape": [32]}, "conv2.weight": {"id": "conv2.weight", "data_group_type": "PARAM", "type": "Parameter", "value": {"tensor": "NOT SERIALIZED, Too large 18432", "grad": "NOT SERIALIZED, Too large 18432", "first_delta": "NOT SERIALIZED, Too large 18432", "tensor__stats": {"min": -0.07100987434387207, "max": 0.08730028569698334, "mean": 0.0045462241396307945, "variance": 0.0012371500488370657, "nobs": 18432, "histogram_bins": 100, "histogram": [[1, 1, 5, 6, 12, 27, 43, 82, 108, 130, 170, 166, 181, 204, 215, 228, 193, 226, 211, 248, 233, 257, 244, 241, 229, 255, 259, 248, 234, 253, 234, 242, 233, 231, 246, 236, 217, 228, 262, 260, 260, 263, 245, 237, 273, 229, 243, 242, 231, 233, 210, 247, 260, 244, 255, 243, 225, 267, 248, 264, 248, 238, 273, 256, 233, 248, 253, 261, 233, 222, 238, 231, 292, 248, 222, 237, 226, 247, 242, 217, 201, 203, 169, 162, 114, 99, 86, 61, 60, 57, 38, 33, 28, 16, 14, 2, 2, 2, 0, 2], [-0.07100987434387207, -0.0694267749786377, -0.06784366816282272, -0.06626056879758835, -0.06467746943235397, -0.063094362616539, -0.061511263251304626, -0.05992816388607025, -0.05834506079554558, -0.0567619614303112, -0.05517885833978653, -0.053595755249261856, -0.05201265588402748, -0.05042955279350281, -0.04884645342826843, -0.04726335033774376, -0.045680247247219086, -0.04409714788198471, -0.04251404479146004, -0.04093094542622566, -0.03934784233570099, -0.037764739245176315, -0.03618163987994194, -0.03459853678941727, -0.03301543742418289, -0.03143233433365822, -0.029849233105778694, -0.02826613187789917, -0.026683028787374496, -0.025099927559494972, -0.023516826331615448, -0.021933725103735924, -0.0203506238758564, -0.018767520785331726, -0.017184419557452202, -0.015601318329572678, -0.014018217101693153, -0.012435114942491055, -0.01085201371461153, -0.009268911555409431, -0.007685810327529907, -0.006102708633989096, -0.004519606940448284, -0.0029365054797381163, -0.0013534039026126266, 0.00022969767451286316, 0.0018127992516383529, 0.0033959008287638426, 0.0049790022894740105, 0.006562103983014822, 0.008145205676555634, 0.009728306904435158, 0.011311409063637257, 0.01289451029151678, 0.01447761245071888, 0.016060713678598404, 0.017643814906477928, 0.019226916134357452, 0.020810019224882126, 0.02239312045276165, 0.023976221680641174, 0.0255593229085207, 0.027142424136400223, 0.028725527226924896, 0.03030862845480442, 0.031891729682683945, 0.03347483277320862, 0.03505793213844299, 0.03664103522896767, 0.03822413459420204, 0.039807237684726715, 0.04139034077525139, 0.042973440140485764, 0.04455654323101044, 0.04613964259624481, 0.047722745686769485, 0.04930584877729416, 0.050888948142528534, 0.05247205123305321, 0.05405515059828758, 0.055638253688812256, 0.05722135677933693, 0.058804456144571304, 0.06038755923509598, 0.06197065860033035, 0.06355376541614532, 0.0651368647813797, 0.06671996414661407, 0.06830306351184845, 0.06988617032766342, 0.0714692696928978, 0.07305236905813217, 0.07463547587394714, 0.07621857523918152, 0.0778016746044159, 0.07938477396965027, 0.08096788078546524, 0.08255098015069962, 0.08413407951593399, 0.08571718633174896, 0.08730028569698334]]}, "grad__stats": {"min": -0.03742315247654915, "max": 0.08140156418085098, "mean": 0.0002342340158065781, "variance": 6.319981184788048e-05, "nobs": 18432, "histogram_bins": 100, "histogram": [[4, 0, 3, 3, 5, 7, 6, 9, 9, 17, 8, 10, 24, 27, 29, 50, 73, 81, 118, 137, 162, 173, 214, 263, 366, 480, 584, 799, 1145, 1561, 2129, 2906, 1403, 1003, 824, 674, 575, 424, 374, 289, 256, 191, 146, 159, 106, 89, 64, 69, 72, 51, 31, 31, 29, 22, 14, 15, 16, 7, 11, 6, 9, 4, 9, 6, 1, 2, 3, 0, 1, 1, 2, 2, 1, 4, 1, 3, 0, 2, 1, 2, 4, 1, 0, 1, 2, 1, 0, 3, 2, 0, 2, 0, 1, 3, 3, 1, 0, 0, 0, 1], [-0.03742315247654915, -0.03623490408062935, -0.03504665940999985, -0.03385841101408005, -0.03267016261816025, -0.031481917947530746, -0.030293669551610947, -0.029105423018336296, -0.027917174622416496, -0.026728928089141846, -0.025540681555867195, -0.024352433159947395, -0.023164186626672745, -0.021975940093398094, -0.020787691697478294, -0.019599445164203644, -0.018411198630928993, -0.017222950235009193, -0.016034703701734543, -0.014846456237137318, -0.013658208772540092, -0.012469962239265442, -0.011281714774668217, -0.010093467310070992, -0.008905220776796341, -0.007716973312199116, -0.006528726313263178, -0.005340478848665953, -0.004152231849730015, -0.0029639846179634333, -0.0017757375026121736, -0.0005874903290532529, 0.0006007568445056677, 0.0017890040762722492, 0.002977251075208187, 0.004165498539805412, 0.00535374553874135, 0.006541992537677288, 0.007730240002274513, 0.008918487466871738, 0.010106734000146389, 0.011294981464743614, 0.01248322892934084, 0.01367147546261549, 0.014859722927212715, 0.016047969460487366, 0.017236217856407166, 0.018424464389681816, 0.019612710922956467, 0.020800959318876266, 0.021989205852150917, 0.023177452385425568, 0.024365700781345367, 0.025553947314620018, 0.02674219384789467, 0.02793044224381447, 0.02911868877708912, 0.03030693531036377, 0.03149518370628357, 0.03268343210220337, 0.03387167677283287, 0.03505992516875267, 0.03624817356467247, 0.03743641823530197, 0.03862466663122177, 0.03981291502714157, 0.04100115969777107, 0.04218940809369087, 0.04337765648961067, 0.04456590116024017, 0.04575414955615997, 0.04694239795207977, 0.048130642622709274, 0.049318891018629074, 0.050507139414548874, 0.051695384085178375, 0.052883632481098175, 0.054071880877017975, 0.055260125547647476, 0.056448373943567276, 0.057636622339487076, 0.05882486701011658, 0.06001311540603638, 0.06120136380195618, 0.06238960847258568, 0.06357785314321518, 0.06476610153913498, 0.06595434993505478, 0.06714259833097458, 0.06833084672689438, 0.06951909512281418, 0.07070733606815338, 0.07189558446407318, 0.07308383285999298, 0.07427208125591278, 0.07546032965183258, 0.07664857804775238, 0.07783681899309158, 0.07902506738901138, 0.08021331578493118, 0.08140156418085098]]}, "first_delta__stats": {"min": -0.0141676627099514, "max": 0.034419167786836624, "mean": 0.004447701387107372, "variance": 4.850065670325421e-05, "nobs": 18432, "histogram_bins": 100, "histogram": [[3, 1, 3, 4, 4, 6, 11, 13, 27, 24, 42, 48, 68, 83, 123, 105, 151, 148, 185, 250, 255, 298, 342, 386, 399, 485, 532, 587, 664, 701, 663, 592, 554, 492, 501, 471, 491, 457, 459, 429, 433, 432, 424, 387, 350, 315, 307, 323, 304, 305, 275, 243, 251, 219, 225, 189, 192, 194, 195, 169, 152, 152, 145, 134, 136, 116, 103, 102, 73, 76, 49, 53, 47, 46, 41, 24, 38, 27, 17, 17, 11, 11, 11, 14, 10, 5, 3, 3, 8, 7, 4, 2, 2, 1, 0, 1, 0, 0, 1, 1], [-0.0141676627099514, -0.01368179451674223, -0.013195926323533058, -0.012710058130323887, -0.012224189937114716, -0.01173832081258297, -0.011252452619373798, -0.010766584426164627, -0.010280716232955456, -0.009794848039746284, -0.009308979846537113, -0.008823111653327942, -0.00833724346011877, -0.007851374335587025, -0.007365506608039141, -0.006879637949168682, -0.006393769755959511, -0.0059079015627503395, -0.005422033369541168, -0.00493616471067071, -0.004450296517461538, -0.003964428324252367, -0.003478559898212552, -0.0029926917050033808, -0.002506823278963566, -0.0020209550857543945, -0.0015350867761299014, -0.0010492184665054083, -0.0005633501568809152, -7.748186908429489e-05, 0.0004083864332642406, 0.0008942547719925642, 0.0013801230816170573, 0.0018659913912415504, 0.0023518595844507217, 0.0028377280104905367, 0.003323596203699708, 0.003809464629739523, 0.004295332822948694, 0.0047812010161578655, 0.005267069675028324, 0.005752937868237495, 0.006238806061446667, 0.006724674254655838, 0.007210542913526297, 0.007696411106735468, 0.008182279765605927, 0.008668147958815098, 0.009154016152024269, 0.00963988434523344, 0.010125752538442612, 0.010611620731651783, 0.011097488924860954, 0.011583357118070126, 0.012069225311279297, 0.012555094435811043, 0.013040962629020214, 0.013526830822229385, 0.014012699015438557, 0.014498567208647728, 0.0149844354018569, 0.01547030359506607, 0.015956172719597816, 0.016442039981484413, 0.01692790910601616, 0.017413776367902756, 0.0178996454924345, 0.018385514616966248, 0.018871381878852844, 0.01935725100338459, 0.019843118265271187, 0.020328987389802933, 0.02081485465168953, 0.021300723776221275, 0.021786591038107872, 0.022272460162639618, 0.022758329287171364, 0.02324419654905796, 0.023730065673589706, 0.024215932935476303, 0.02470180206000805, 0.025187669321894646, 0.02567353844642639, 0.02615940570831299, 0.026645274832844734, 0.02713114395737648, 0.027617011219263077, 0.028102880343794823, 0.02858874760568142, 0.029074616730213165, 0.029560483992099762, 0.030046353116631508, 0.030532222241163254, 0.03101808950304985, 0.03150395676493645, 0.03198982775211334, 0.03247569501399994, 0.032961562275886536, 0.03344742953777313, 0.03393330052495003, 0.034419167786836624]]}}, "shape": [64, 32, 3, 3]}, "conv2.bias": {"id": "conv2.bias", "data_group_type": "PARAM", "type": "Parameter", "value": {"tensor": [-0.03379445895552635, 0.059127725660800934, -0.0050749522633850574, 0.005244552623480558, -0.004282699432224035, -0.006230006460100412, 0.033045727759599686, 0.010995656251907349, -0.02109554409980774, 0.010756832547485828, 0.005310178268700838, -0.03406946733593941, 0.02736068330705166, 0.04370281472802162, -0.021102942526340485, -0.0437130331993103, 0.002690932946279645, -0.04571196064352989, 0.05861648544669151, -0.04416951164603233, 0.05033806711435318, -0.025624485686421394, -0.002070546615868807, -0.0013853671262040734, 0.04594244062900543, 0.037993088364601135, -0.050162557512521744, -0.03617454320192337, 0.06008581444621086, 0.07156828045845032, 0.009271481074392796, -0.022512909024953842, 0.009581430815160275, 0.053541842848062515, -0.042175669223070145, -0.033858854323625565, 0.005305360071361065, 0.03080223686993122, 0.037230487912893295, -0.018360663205385208, -0.020288171246647835, 0.05899420008063316, -0.038647476583719254, -0.02087109535932541, 0.04713264852762222, 0.04070810228586197, -0.02399674616754055, 0.012404236942529678, -0.027375148609280586, -0.010078313760459423, 0.048060789704322815, -0.03979647904634476, 0.019312813878059387, -0.03419298306107521, 0.010321107693016529, 0.056084226816892624, 0.06202113255858421, 0.055928103625774384, -0.03348337486386299, -0.013691242784261703, -0.006213892251253128, 0.04400809109210968, 0.02430502139031887, 0.05324551463127136], "grad": [0.03495121747255325, 0.016682807356119156, 0.01751950941979885, -0.010383117944002151, 0.004997397307306528, -0.005573946982622147, -0.00847168080508709, 0.02666294388473034, -0.009987733326852322, 0.030285967513918877, -0.011766898445785046, 0.03265808895230293, 0.008851042948663235, 0.04945537447929382, 0.013078170828521252, -0.012600626796483994, 0.017742550000548363, -0.01754841022193432, 0.008268071338534355, -0.009483625181019306, -0.01511299703270197, 0.024841908365488052, 0.007647443097084761, -0.016909100115299225, 0.06915001571178436, 0.054289285093545914, -0.009889788925647736, -0.004327201750129461, 0.04240087792277336, -0.011242810636758804, -0.007617334369570017, 0.03106539510190487, -0.006107614375650883, -0.002728754421696067, -0.0065074884332716465, -0.009704695083200932, 0.02014327421784401, -0.008384868502616882, -0.006618198938667774, -0.0073933410458266735, -0.0031318252440541983, 0.02238120697438717, -0.0031557236798107624, -0.008600345812737942, -0.012711668387055397, -0.007980622351169586, -0.011792818084359169, -0.002069736598059535, 0.0002338605117984116, -0.004856887273490429, 0.039567507803440094, -0.014698020182549953, 0.009095639921724796, 0.002166155492886901, -0.01664988324046135, 0.0008780130301602185, -0.009942803531885147, -0.00010902476060437039, 0.03020051121711731, 0.05627356842160225, -0.007898383773863316, 0.03721660375595093, 0.01777513697743416, -0.012134618125855923], "first_delta": [0.008020386099815369, 0.0034141801297664642, 0.0007989276200532913, 0.002784883603453636, 0.003332948312163353, 0.005543350707739592, 0.016991375014185905, 0.0032254280522465706, 0.007211776450276375, 0.00828657764941454, 0.003191266441717744, 0.00647350400686264, 0.0025957077741622925, 0.00901828333735466, 0.0013312697410583496, 0.010438945144414902, 0.0023072350304573774, 0.012648515403270721, 0.0021977797150611877, 0.006280574947595596, 0.007775172591209412, 0.0030870717018842697, 0.0009648413397371769, 0.003721672110259533, 0.006757531315088272, 0.005141180008649826, 0.0033675916492938995, 0.007274191826581955, 0.005269940942525864, 0.015404198318719864, 0.010770834051072598, 0.00496232695877552, 0.0053853257559239864, 0.0032205209136009216, 0.008642934262752533, 0.008487526327371597, 0.0028937102761119604, 0.006623363122344017, 0.010876351967453957, 0.005336480215191841, 0.00400528684258461, 0.00259200856089592, 0.013490632176399231, 0.014012869447469711, 0.004538636654615402, 0.009493611752986908, 0.017940064892172813, 0.005845154635608196, 0.0040114689618349075, 0.00902803335338831, 0.005506619811058044, 0.010973136872053146, 0.001561678946018219, 0.0005793049931526184, 0.006284669041633606, 0.007399648427963257, 0.0067890360951423645, 0.010853797197341919, 0.0061757490038871765, 0.005752686411142349, 0.009344033896923065, 0.007737256586551666, 0.001622142270207405, 0.016978994011878967], "tensor__stats": {"min": -0.050162557512521744, "max": 0.07156828045845032, "mean": 0.006888016127049923, "variance": 0.0012588943354785442, "nobs": 64, "histogram_bins": 8, "histogram": [[8, 13, 6, 10, 5, 6, 10, 6], [-0.050162557512521744, -0.03494620323181152, -0.019729848951101303, -0.004513493273407221, 0.010702861472964287, 0.025919215753674507, 0.04113557189702988, 0.0563519261777401, 0.07156828045845032]]}, "grad__stats": {"min": -0.01754841022193432, "max": 0.06915001571178436, "mean": 0.006443546153604984, "variance": 0.0004430806147865951, "nobs": 64, "histogram_bins": 8, "histogram": [[24, 14, 6, 7, 6, 3, 3, 1], [-0.01754841022193432, -0.00671110674738884, 0.004126196261495352, 0.014963499270379543, 0.025800801813602448, 0.036638107150793076, 0.047475408762693405, 0.05831271409988403, 0.06915001571178436]]}, "first_delta__stats": {"min": 0.0005793049931526184, "max": 0.017940064892172813, "mean": 0.006633940618485212, "variance": 1.727425114950165e-05, "nobs": 64, "histogram_bins": 8, "histogram": [[10, 13, 16, 11, 7, 2, 2, 3], [0.0005793049931526184, 0.002749399980530143, 0.004919494967907667, 0.007089589722454548, 0.009259684942662716, 0.011429780162870884, 0.013599874451756477, 0.015769969671964645, 0.017940064892172813]]}}, "shape": [64]}, "fc1.weight": {"id": "fc1.weight", "data_group_type": "PARAM", "type": "Parameter", "value": {"tensor": "NOT SERIALIZED, Too large 1179648", "grad": "NOT SERIALIZED, Too large 1179648", "first_delta": "NOT SERIALIZED, Too large 1179648", "tensor__stats": {"min": -0.019776737317442894, "max": 0.020072273910045624, "mean": 0.00025057728635147214, "variance": 3.8248854252742603e-05, "nobs": 1179648, "histogram_bins": 100, "histogram": [[2, 0, 1, 2, 2, 8, 4, 3, 11, 23, 29, 65, 102, 144, 234, 336, 493, 788, 1014, 1708, 2560, 3747, 5679, 10252, 14091, 16298, 17929, 19223, 20105, 20927, 21437, 22052, 21954, 22102, 22294, 22535, 22477, 22803, 22778, 22530, 22605, 22747, 22483, 22594, 22450, 22616, 22512, 22470, 22615, 22723, 22435, 22428, 22475, 22569, 22502, 22449, 22290, 22811, 22457, 22475, 22688, 22655, 22804, 22299, 22555, 22053, 22519, 22283, 22045, 21962, 21593, 20714, 20337, 19206, 17378, 13982, 9284, 6736, 5077, 3585, 2621, 1830, 1260, 934, 634, 404, 283, 157, 135, 67, 47, 35, 15, 7, 9, 3, 0, 2, 1, 1], [-0.019776737317442894, -0.01937824673950672, -0.018979758024215698, -0.018581267446279526, -0.018182776868343353, -0.01778428629040718, -0.01738579571247101, -0.016987306997179985, -0.016588816419243813, -0.01619032584130764, -0.015791837126016617, -0.015393346548080444, -0.014994855970144272, -0.0145963653922081, -0.014197875745594501, -0.013799386098980904, -0.013400895521044731, -0.013002404943108559, -0.01260391529649496, -0.012205425649881363, -0.01180693507194519, -0.011408444494009018, -0.01100995484739542, -0.010611465200781822, -0.01021297462284565, -0.009814484044909477, -0.00941599439829588, -0.009017504751682281, -0.008619014173746109, -0.008220523595809937, -0.007822033949196339, -0.0074235438369214535, -0.007025053724646568, -0.006626563612371683, -0.006228073500096798, -0.005829583387821913, -0.005431093275547028, -0.005032603163272142, -0.004634113050997257, -0.004235622938722372, -0.003837132826447487, -0.0034386427141726017, -0.0030401526018977165, -0.0026416624896228313, -0.002243172377347946, -0.001844682265073061, -0.0014461921527981758, -0.0010477020405232906, -0.0006492119282484055, -0.0002507218159735203, 0.0001477682963013649, 0.0005462584085762501, 0.0009447485208511353, 0.0013432386331260204, 0.0017417287454009056, 0.002140218857675791, 0.002538708969950676, 0.002937199082225561, 0.0033356891945004463, 0.0037341793067753315, 0.004132669419050217, 0.004531159531325102, 0.004929649643599987, 0.005328139755874872, 0.005726629868149757, 0.0061251199804246426, 0.006523610092699528, 0.006922100204974413, 0.007320590317249298, 0.007719080429524183, 0.008117570541799068, 0.008516060188412666, 0.008914550766348839, 0.009313041344285011, 0.00971153099089861, 0.010110020637512207, 0.01050851121544838, 0.010907001793384552, 0.01130549143999815, 0.011703981086611748, 0.01210247166454792, 0.012500962242484093, 0.01289945188909769, 0.013297941535711288, 0.013696432113647461, 0.014094922691583633, 0.014493412338197231, 0.01489190198481083, 0.015290392562747002, 0.015688883140683174, 0.016087371855974197, 0.01648586243391037, 0.016884353011846542, 0.017282843589782715, 0.017681334167718887, 0.01807982288300991, 0.018478313460946083, 0.018876804038882256, 0.01927529275417328, 0.01967378333210945, 0.020072273910045624]]}, "grad__stats": {"min": -0.09297359734773636, "max": 0.10902530699968338, "mean": -8.717310265637934e-05, "variance": 6.492073589470237e-05, "nobs": 1179648, "histogram_bins": 100, "histogram": [[4, 3, 8, 17, 24, 47, 51, 68, 69, 110, 80, 112, 111, 121, 156, 204, 252, 312, 361, 352, 426, 509, 522, 636, 726, 874, 1008, 1156, 1264, 1376, 1538, 1775, 1979, 2148, 2609, 2908, 3367, 3893, 4817, 5623, 7023, 8702, 11524, 20198, 49312, 264926, 637045, 48770, 21474, 12932, 9448, 7198, 5797, 4556, 3819, 3271, 2797, 2475, 2174, 1873, 1740, 1507, 1350, 1123, 988, 831, 715, 687, 632, 505, 392, 340, 311, 233, 191, 144, 163, 149, 152, 129, 87, 80, 64, 42, 27, 18, 12, 14, 7, 12, 12, 13, 11, 10, 6, 7, 5, 4, 3, 2], [-0.09297359734773636, -0.09095361083745956, -0.08893361687660217, -0.08691363036632538, -0.08489364385604858, -0.08287364989519119, -0.0808536633849144, -0.0788336768746376, -0.07681368291378021, -0.07479369640350342, -0.07277370989322662, -0.07075371593236923, -0.06873372942209244, -0.06671374291181564, -0.06469374895095825, -0.06267376244068146, -0.060653772205114365, -0.05863378196954727, -0.05661379545927048, -0.054593805223703384, -0.05257381498813629, -0.0505538284778595, -0.048533838242292404, -0.04651384800672531, -0.04449386149644852, -0.042473871260881424, -0.04045388102531433, -0.03843389451503754, -0.036413904279470444, -0.03439391404390335, -0.032373927533626556, -0.030353937298059464, -0.02833394706249237, -0.026313958689570427, -0.024293970316648483, -0.02227398008108139, -0.020253991708159447, -0.018234003335237503, -0.01621401309967041, -0.014194024726748466, -0.012174035422503948, -0.01015404611825943, -0.008134057745337486, -0.006114068441092968, -0.004094079602509737, -0.0020740902982652187, -5.410134690464474e-05, 0.001965887611731887, 0.0039858766831457615, 0.00600586598739028, 0.00802585482597351, 0.010045844130218029, 0.012065832503139973, 0.014085821807384491, 0.016105810180306435, 0.018125800415873528, 0.02014578878879547, 0.022165779024362564, 0.024185767397284508, 0.02620575577020645, 0.028225746005773544, 0.030245734378695488, 0.03226572275161743, 0.034285712987184525, 0.03630570322275162, 0.03832568973302841, 0.040345679968595505, 0.0423656702041626, 0.04438565671443939, 0.046405646950006485, 0.04842563718557358, 0.05044562369585037, 0.052465613931417465, 0.05448560416698456, 0.05650559067726135, 0.058525580912828445, 0.06054557114839554, 0.06256555765867233, 0.06458555161952972, 0.06660553812980652, 0.06862552464008331, 0.0706455186009407, 0.0726655051112175, 0.0746854916214943, 0.07670548558235168, 0.07872547209262848, 0.08074545860290527, 0.08276545256376266, 0.08478543907403946, 0.08680542558431625, 0.08882541954517365, 0.09084540605545044, 0.09286539256572723, 0.09488538652658463, 0.09690537303686142, 0.09892535954713821, 0.1009453535079956, 0.1029653400182724, 0.1049853265285492, 0.10700532048940659, 0.10902530699968338]]}, "first_delta__stats": {"min": -0.013674954883754253, "max": 0.012606393545866013, "mean": 0.0002527110045775771, "variance": 2.070499476758414e-06, "nobs": 1179648, "histogram_bins": 100, "histogram": [[1, 1, 1, 1, 0, 0, 1, 0, 1, 1, 0, 2, 2, 2, 2, 7, 11, 5, 18, 19, 9, 28, 25, 38, 51, 71, 88, 131, 187, 240, 366, 469, 647, 831, 1169, 1497, 1941, 2468, 3192, 4176, 5436, 7116, 9492, 12282, 15613, 20374, 26290, 34564, 44070, 57675, 83864, 200144, 150959, 88659, 74254, 62530, 52506, 42659, 35142, 28305, 22998, 18473, 14531, 11555, 9173, 7424, 5921, 4601, 3509, 2886, 2097, 1703, 1382, 960, 740, 609, 398, 299, 222, 160, 117, 78, 59, 34, 27, 19, 16, 3, 5, 5, 3, 4, 0, 1, 0, 0, 1, 1, 0, 1], [-0.013674954883754253, -0.013412141241133213, -0.013149327598512173, -0.012886514887213707, -0.012623701244592667, -0.012360887601971626, -0.012098073959350586, -0.011835260316729546, -0.011572446674108505, -0.01130963396281004, -0.011046820320189, -0.010784006677567959, -0.010521193034946918, -0.010258379392325878, -0.009995565749704838, -0.009732753038406372, -0.009469939395785332, -0.009207125753164291, -0.008944312110543251, -0.00868149846792221, -0.00841868482530117, -0.008155872114002705, -0.007893058471381664, -0.007630244828760624, -0.007367431186139584, -0.007104617543518543, -0.00684180436655879, -0.00657899072393775, -0.006316177546977997, -0.0060533639043569565, -0.005790550261735916, -0.005527737084776163, -0.005264923442155123, -0.005002109799534082, -0.004739296622574329, -0.004476482979953289, -0.004213669337332249, -0.003950856160372496, -0.0036880425177514553, -0.0034252291079610586, -0.0031624154653400183, -0.0028996020555496216, -0.002636788645759225, -0.0023739750031381845, -0.002111161593347788, -0.0018483480671420693, -0.0015855346573516726, -0.0013227211311459541, -0.0010599076049402356, -0.000797094136942178, -0.0005342806689441204, -0.00027146717184223235, -8.653700206195936e-06, 0.0002541597932577133, 0.0005169732612557709, 0.0007797867292538285, 0.001042600255459547, 0.0013054136652499437, 0.0015682271914556623, 0.0018310407176613808, 0.0020938541274517775, 0.002356667770072818, 0.0026194811798632145, 0.002882294589653611, 0.003145107999444008, 0.0034079216420650482, 0.003670735051855445, 0.003933548461645842, 0.004196362104266882, 0.004459175746887922, 0.004721988923847675, 0.004984802566468716, 0.005247616209089756, 0.005510429386049509, 0.005773243028670549, 0.006036056205630302, 0.006298869848251343, 0.006561683490872383, 0.006824496667832136, 0.0070873103104531765, 0.007350123953074217, 0.00761293713003397, 0.00787575077265501, 0.00813856441527605, 0.008401378057897091, 0.008664191700518131, 0.008927004411816597, 0.009189818054437637, 0.009452631697058678, 0.009715445339679718, 0.009978258982300758, 0.010241072624921799, 0.010503885336220264, 0.010766698978841305, 0.011029512621462345, 0.011292326264083385, 0.011555139906704426, 0.011817953549325466, 0.012080766260623932, 0.012343579903244972, 0.012606393545866013]]}}, "shape": [128, 9216]}, "fc1.bias": {"id": "fc1.bias", "data_group_type": "PARAM", "type": "Parameter", "value": {"tensor": [-0.00569966621696949, 0.010790039785206318, -0.002594525460153818, -0.002307266229763627, -0.00014361855573952198, 0.004606899339705706, -8.376799087272957e-05, -0.005902835167944431, 0.0011933631030842662, 0.001057776273228228, 0.005787992849946022, 0.003759093815460801, 0.009599506855010986, 0.007626594975590706, -0.0011035490315407515, -0.0038268370553851128, 0.007982653565704823, 0.008197714574635029, -0.00590723380446434, -0.00207813223823905, -0.009704159572720528, 0.0029561782721430063, 0.002544847782701254, -0.000996652990579605, 0.0028329736087471247, -0.0011841343948617578, -0.0048754094168543816, -0.009707114659249783, 0.007886420004069805, 0.00017616472905501723, -0.008991657756268978, 0.012197121977806091, -0.00028839337755925953, -0.004678985569626093, 0.001870657317340374, -0.01000717468559742, 0.00033599650487303734, -0.0009177095489576459, -0.005371428560465574, 0.011025335639715195, 0.0018995843129232526, -0.005584725644439459, -0.007462836802005768, 0.008707446046173573, -0.004752418491989374, -0.0030923152808099985, 0.007952907122671604, 0.010897270403802395, 0.004597019869834185, -0.0011390253202989697, 0.003965457435697317, 0.0018844965379685163, 0.008639049716293812, -0.006955760531127453, 0.0015605795197188854, -0.0004399922618176788, -0.009037872776389122, 0.008902848698198795, 0.0010584305273368955, 0.0002228148514404893, 8.942234126152471e-05, 0.0010882716160267591, -0.004921250510960817, 0.004461210686713457, 0.0062648821622133255, -0.009031000547111034, 0.007756887469440699, 0.010351111181080341, -0.005468711722642183, 0.008294220082461834, 0.006491425447165966, 0.00732367392629385, 0.00232325098477304, -0.00850978959351778, 0.0063273790292441845, 0.0075627947226166725, -0.00123405153863132, -0.007207159884274006, 0.00029184320010244846, -0.007710217498242855, 0.0030716971959918737, -0.003708945121616125, 0.005154200363904238, 0.0002440700336592272, -0.0075891767628490925, -0.006050644908100367, 0.009657271206378937, 0.0019466634839773178, 0.002729959785938263, 0.005060760769993067, 0.0021319997031241655, 0.0030375642236322165, -0.006398448254913092, 0.007462496869266033, -0.003497862024232745, 0.0021677922923117876, -0.0013895072042942047, -0.009927589446306229, -0.0016300247516483068, -0.0038547134026885033, -0.0023839310742914677, 0.006468054838478565, -0.0059795258566737175, -0.0016269442858174443, -0.0006575361476279795, -0.00020532603957690299, -0.0007956341141834855, -0.001951719867065549, -0.0031713766511529684, -0.0058220261707901955, 0.006956683471798897, 0.004519791807979345, -0.008214238099753857, -0.010471616871654987, -0.002812756225466728, 0.010542177595198154, -0.003550330875441432, -0.0025457798037678003, -0.010370895266532898, 0.004739123862236738, 0.005871675442904234, 0.004327504895627499, -0.0021746486891061068, -0.007462310139089823, -0.005833656992763281, 0.011762943118810654, -0.0030170828104019165, -0.0027618834283202887], "grad": [-0.010510156862437725, 0.008047056384384632, -0.009853032417595387, -0.0041792551055550575, -6.44132451270707e-05, 0.007159307599067688, -0.0012508513173088431, -0.01282956451177597, -0.001557310577481985, 0.0, 0.0002780376235023141, -0.01083414163440466, 0.0, 0.0023545713629573584, 0.006175236310809851, 0.001160496729426086, 0.0014654011465609074, -0.004553117789328098, -0.0029579363763332367, 0.009724363684654236, -0.00045326308463700116, 0.0, -0.008593728765845299, 0.015850739553570747, -0.006514947395771742, 0.003214533207938075, 0.011254792101681232, -0.00916712824255228, -0.00016805595078039914, -0.0024966304190456867, 0.0008901897817850113, -0.0006076811114326119, -6.137724267318845e-05, -0.00851509254425764, -0.005860594566911459, 0.0, 0.010890211910009384, 0.007524105720221996, 0.0026065639685839415, -0.0033596300054341555, 0.011412112042307854, 0.002642702544108033, 0.005337870214134455, -0.0006536172004416585, -0.007266252767294645, 0.007493417244404554, -2.6943656848743558e-05, 0.005023357458412647, -0.0009210500866174698, -7.024522346910089e-06, 0.0, 0.007807145826518536, 0.004067841451615095, -0.004279907792806625, 0.004634176846593618, -0.005896512884646654, -0.006831059232354164, -4.453373549040407e-05, -0.0006512859836220741, -0.001424090820364654, -0.007585071958601475, 0.004714134614914656, 0.007791200187057257, -0.004825776908546686, 0.0, 0.0013502377551048994, -0.00047218406689353287, 0.0004718110430985689, 0.0, 0.002718242583796382, 0.0, 0.0011154873063787818, -0.013379337266087532, -7.082291995175183e-05, -0.003642798401415348, -0.0015083219623193145, -0.003914115019142628, 0.006133417598903179, 0.011537037789821625, 0.00021438156545627862, -0.006949663162231445, -0.0020730651449412107, 0.0019615909550338984, 0.001324971904978156, -0.0006881998851895332, 0.0003482797183096409, -0.00012838179827667773, 0.0020434751641005278, 0.0, 0.000465826946310699, -0.009853745810687542, -0.012995912693440914, 0.0, 0.002488586585968733, 0.0, -0.00028782192384824157, 0.0004173342604190111, 0.0, 0.002941031474620104, 0.007228274829685688, 0.0060419789515435696, -0.0006159098702482879, 0.0, 0.00019359542056918144, 0.0, 0.011688231490552425, -0.012688745744526386, 0.005097388289868832, 0.0, -0.012063401751220226, 0.002351591596379876, -0.00956572126597166, 0.0, -0.000192230028915219, 0.0, 0.0016086455434560776, -0.002615462290123105, -0.012697088532149792, -0.004092629998922348, 0.00196250481531024, -0.0009733540937304497, -0.003759956918656826, 0.010903581976890564, 0.0043990155681967735, 0.00964546762406826, -0.0056306347250938416, -0.0006026996416039765, 0.003280460834503174], "first_delta": [-0.00027085887268185616, 0.002509692683815956, 0.0009031696245074272, -0.0005877752555534244, 1.8925347831100225e-06, 0.0006506768986582756, -0.0007851134869270027, -0.0014505493454635143, 0.003284384962171316, -0.00023782008793205023, -0.0007662642747163773, -0.00034224498085677624, -0.0004967935383319855, 0.0005451049655675888, 0.001721218228340149, 0.0010911161080002785, 0.001076752319931984, 0.00018260162323713303, 0.00019282987341284752, 0.0030717761255800724, 0.00029930565506219864, -0.00039770943112671375, 0.0003839756827801466, 0.003307890146970749, -0.0014849805738776922, 0.002736232243478298, 0.002814226783812046, -0.001725747250020504, 0.0009426414035260677, -0.0011617336422204971, 0.0011337148025631905, 0.0019370140507817268, -0.0008559984853491187, -0.0012707659043371677, -0.0008480087853968143, -0.00043936725705862045, 0.0015890513313934207, 0.0024708593264222145, 0.0008323085494339466, 0.0012566791847348213, 0.0013162249233573675, 0.0017421194352209568, 0.0015405938029289246, 0.0012150201946496964, 0.0005255728028714657, 0.0020478342194110155, 0.0003383392468094826, 0.0033952435478568077, -2.6767142117023468e-05, 0.0007371215615421534, -0.0002920180559158325, 0.0007784900953993201, 1.1680647730827332e-05, 0.0016662562265992165, 0.0001861659111455083, 0.0003138599859084934, -0.0001590866595506668, 0.00014101620763540268, 0.0008108899346552789, 2.7299189241603017e-05, 0.0008300982299260795, -0.0004219450056552887, 0.0015444853343069553, 0.0004901108331978321, -8.939672261476517e-05, 0.0002591051161289215, 0.0011008591391146183, 0.0016351351514458656, -0.000497796107083559, 0.000630795955657959, -6.148824468255043e-05, -0.00014871731400489807, -0.0013118537608534098, 0.0006045233458280563, -0.0005782539956271648, -0.0010145772248506546, -0.0015181160997599363, 0.0022994782775640488, 0.0027351370081305504, 0.0006011463701725006, 0.00017486303113400936, 0.0008660503663122654, 0.0023167943581938744, 0.0007385104545392096, 0.001252851914614439, 0.0011518625542521477, -0.0001108311116695404, 0.0012914258986711502, -0.00029110535979270935, 0.0004220413975417614, -0.00029768445529043674, -0.0012981162872165442, -9.327242150902748e-05, 0.0010178214870393276, -8.29093623906374e-05, 0.0014683714834973216, 0.0016990962903946638, -0.0005190335214138031, 8.132029324769974e-05, 0.0004522213712334633, 0.0018017804250121117, 0.0010023768991231918, -0.00046192994341254234, 0.00037983490619808435, -0.0005133462836965919, 0.0030124380718916655, -0.0016306281322613358, 0.002108862856402993, -0.00023350585252046585, 0.00018499093130230904, 0.0006723706610500813, -0.0003347299061715603, -0.00020373612642288208, -0.0007521519437432289, -5.252473056316376e-05, 0.0014287959784269333, -0.0005725522059947252, -0.0009028385393321514, -5.340762436389923e-05, 0.0015643793158233166, 0.002102477476000786, 0.00018283352255821228, 0.0024243963416665792, 0.0007986421696841717, 0.0015516318380832672, 0.001430225558578968, -0.0002212398685514927, 0.0009858841076493263], "tensor__stats": {"min": -0.010471616871654987, "max": 0.012197121977806091, "mean": 0.0002689104003366083, "variance": 3.462937456788495e-05, "nobs": 128, "histogram_bins": 11, "histogram": [[10, 8, 14, 14, 17, 15, 12, 11, 13, 7, 7], [-0.010471616871654987, -0.008410822600126266, -0.006350027862936258, -0.0042892335914075375, -0.002228439087048173, -0.0001676446700002998, 0.0018931498052552342, 0.003953944426029921, 0.0060147386975586414, 0.00807553343474865, 0.01013632770627737, 0.012197121977806091]]}, "grad__stats": {"min": -0.013379337266087532, "max": 0.015850739553570747, "mean": -0.00013133772881701589, "variance": 3.330847175675444e-05, "nobs": 128, "histogram_bins": 11, "histogram": [[7, 7, 8, 10, 21, 43, 12, 10, 3, 6, 1], [-0.013379337266087532, -0.010722057893872261, -0.008064777590334415, -0.0054074982181191444, -0.002750218380242586, -9.293870971305296e-05, 0.002564341062679887, 0.0052216206677258015, 0.00787890050560236, 0.01053617987781763, 0.013193460181355476, 0.015850739553570747]]}, "first_delta__stats": {"min": -0.001725747250020504, "max": 0.0033952435478568077, "mean": 0.00055591861018911, "variance": 1.356365714855201e-06, "nobs": 128, "histogram_bins": 11, "histogram": [[8, 5, 16, 22, 19, 17, 13, 12, 6, 5, 5], [-0.001725747250020504, -0.0012602026108652353, -0.0007946580299176276, -0.0003291133907623589, 0.0001364312192890793, 0.0006019758293405175, 0.0010675204684957862, 0.0015330651076510549, 0.0019986096303910017, 0.0024641542695462704, 0.002929698908701539, 0.0033952435478568077]]}}, "shape": [128]}, "fc2.weight": {"id": "fc2.weight", "data_group_type": "PARAM", "type": "Parameter", "value": {"tensor": "NOT SERIALIZED, Too large 1280", "grad": "NOT SERIALIZED, Too large 1280", "first_delta": "NOT SERIALIZED, Too large 1280", "tensor__stats": {"min": -0.10642526298761368, "max": 0.0935935527086258, "mean": -0.0027193459682166576, "variance": 0.0029646577313542366, "nobs": 1280, "histogram_bins": 35, "histogram": [[8, 12, 25, 47, 38, 39, 38, 37, 34, 36, 44, 39, 46, 42, 33, 32, 43, 46, 45, 32, 35, 35, 41, 37, 30, 44, 46, 39, 32, 43, 40, 45, 38, 41, 18], [-0.10642526298761368, -0.1007104367017746, -0.09499561786651611, -0.08928079158067703, -0.08356597274541855, -0.07785114645957947, -0.07213632017374039, -0.0664215013384819, -0.06070667505264282, -0.05499185249209404, -0.04927702993154526, -0.043562207370996475, -0.03784738481044769, -0.03213255852460861, -0.02641773596405983, -0.020702913403511047, -0.01498808991163969, -0.009273266419768333, -0.0035584433935582638, 0.0021563798654824495, 0.007871203124523163, 0.01358602661639452, 0.019300850108265877, 0.02501567266881466, 0.03073049709200859, 0.03644531965255737, 0.042160142213106155, 0.04787496477365494, 0.05358979105949402, 0.0593046136200428, 0.06501943618059158, 0.07073426246643066, 0.07644908130168915, 0.08216390758752823, 0.08787872642278671, 0.0935935527086258]]}, "grad__stats": {"min": -0.9355980157852173, "max": 0.8716418743133545, "mean": -1.1920929132713809e-08, "variance": 0.023123905062675476, "nobs": 1280, "histogram_bins": 35, "histogram": [[1, 1, 0, 3, 2, 1, 2, 8, 5, 6, 9, 9, 16, 8, 19, 19, 34, 160, 806, 62, 23, 15, 12, 16, 8, 8, 6, 7, 6, 1, 0, 4, 1, 1, 1], [-0.9355980157852173, -0.8839625716209412, -0.8323271870613098, -0.7806917428970337, -0.7290562987327576, -0.6774209141731262, -0.6257854700088501, -0.574150025844574, -0.5225146412849426, -0.4708791971206665, -0.4192437529563904, -0.36760833859443665, -0.3159729242324829, -0.2643374800682068, -0.21270206570625305, -0.16106663644313812, -0.1094312071800232, -0.05779578164219856, -0.006160357967019081, 0.0454750657081604, 0.09711049497127533, 0.14874592423439026, 0.200381338596344, 0.2520167827606201, 0.30365219712257385, 0.3552876114845276, 0.4069230556488037, 0.45855847001075745, 0.5101938843727112, 0.5618293285369873, 0.6134647727012634, 0.6651001572608948, 0.7167356014251709, 0.768371045589447, 0.8200064301490784, 0.8716418743133545]]}, "first_delta__stats": {"min": -0.028927307575941086, "max": 0.009000301361083984, "mean": -0.0023231464438140392, "variance": 2.5029155949596316e-05, "nobs": 1280, "histogram_bins": 35, "histogram": [[2, 0, 0, 0, 0, 2, 2, 4, 3, 3, 1, 6, 9, 15, 17, 16, 17, 27, 31, 41, 31, 56, 70, 77, 109, 116, 268, 119, 99, 69, 36, 19, 9, 3, 3], [-0.028927307575941086, -0.027843661606311798, -0.02676001563668251, -0.025676369667053223, -0.024592723697423935, -0.023509077727794647, -0.02242543175816536, -0.021341785788536072, -0.020258139818906784, -0.019174493849277496, -0.01809084787964821, -0.01700720191001892, -0.015923555940389633, -0.014839909970760345, -0.013756264001131058, -0.01267261803150177, -0.011588972061872482, -0.010505326092243195, -0.009421680122613907, -0.00833803415298462, -0.007254388183355331, -0.006170742213726044, -0.005087096244096756, -0.004003450274467468, -0.0029198043048381805, -0.0018361583352088928, -0.0007525123655796051, 0.0003311336040496826, 0.0014147795736789703, 0.002498425543308258, 0.0035820715129375458, 0.0046657174825668335, 0.005749363452196121, 0.006833009421825409, 0.007916655391454697, 0.009000301361083984]]}}, "shape": [10, 128]}, "fc2.bias": {"id": "fc2.bias", "data_group_type": "PARAM", "type": "Parameter", "value": {"tensor": [0.04823186621069908, 0.040552761405706406, -0.02391575463116169, 0.02380232885479927, 0.05638580024242401, 0.035791605710983276, -0.04660240188241005, 0.02321099303662777, -0.0821378231048584, 0.02774987183511257], "grad": [-0.005066386424005032, 0.08005484193563461, 0.00710600521415472, 0.0063135866075754166, 0.0021741860546171665, -0.0019026062218472362, -0.00033114332472905517, 0.023236753419041634, -0.08480647206306458, -0.02677878923714161], "first_delta": [-0.002624794840812683, 0.0005382709205150604, -0.0003730952739715576, -0.0015306342393159866, -0.0015948191285133362, 0.0003976002335548401, -0.0026856698095798492, 0.0018419623374938965, -0.0031020119786262512, -3.984197974205017e-05], "tensor__stats": {"min": -0.0821378231048584, "max": 0.05638580024242401, "mean": 0.010306925512850285, "variance": 0.00208162609487772, "nobs": 10, "histogram_bins": 5, "histogram": [[1, 1, 1, 3, 4], [-0.0821378231048584, -0.054433099925518036, -0.026728373020887375, 0.0009763509151525795, 0.0286810752004385, 0.05638580024242401]]}, "grad__stats": {"min": -0.08480647206306458, "max": 0.08005484193563461, "mean": -2.421438605182402e-09, "variance": 0.0016647162847220898, "nobs": 10, "histogram_bins": 5, "histogram": [[1, 1, 6, 1, 1], [-0.08480647206306458, -0.05183421075344086, -0.01886194571852684, 0.014110316522419453, 0.047082580626010895, 0.08005484193563461]]}, "first_delta__stats": {"min": -0.0031020119786262512, "max": 0.0018419623374938965, "mean": -0.0009173033758997917, "variance": 2.686457492018235e-06, "nobs": 10, "histogram_bins": 5, "histogram": [[3, 2, 1, 3, 1], [-0.0031020119786262512, -0.0021132170222699642, -0.0011244222987443209, -0.00013562738604377955, 0.0008531674975529313, 0.0018419623374938965]]}}, "shape": [10]}, "input.1": {"id": "input.1", "data_group_type": "INPUT", "type": "Tensor", "value": {"tensor": "NOT SERIALIZED, Too large 7840", "tensor__stats": {"min": -0.4242129623889923, "max": 2.821486711502075, "mean": 0.025017397478222847, "variance": 1.041641116142273, "nobs": 7840, "histogram_bins": 88, "histogram": [[6232, 19, 24, 26, 16, 10, 18, 18, 14, 9, 22, 24, 18, 17, 13, 11, 8, 11, 13, 4, 8, 10, 6, 7, 16, 9, 7, 11, 7, 4, 7, 14, 5, 9, 19, 9, 11, 14, 12, 5, 9, 9, 7, 6, 14, 4, 12, 12, 5, 7, 10, 13, 5, 17, 6, 7, 7, 5, 6, 10, 9, 7, 10, 7, 9, 8, 20, 11, 14, 9, 10, 12, 18, 20, 17, 10, 24, 9, 12, 13, 27, 21, 21, 30, 27, 25, 34, 518], [-0.4242129623889923, -0.387330025434494, -0.35044705867767334, -0.31356412172317505, -0.27668115496635437, -0.23979820311069489, -0.2029152512550354, -0.16603229939937592, -0.12914936244487762, -0.09226640313863754, -0.055383455008268356, -0.01850050315260887, 0.018382446840405464, 0.0552653968334198, 0.09214834868907928, 0.12903130054473877, 0.16591425240039825, 0.20279720425605774, 0.23968015611171722, 0.2765631079673767, 0.313446044921875, 0.3503290116786957, 0.38721194863319397, 0.42409491539001465, 0.46097785234451294, 0.4978608191013336, 0.5347437858581543, 0.5716267228126526, 0.6085096597671509, 0.6453925967216492, 0.6822755336761475, 0.7191585302352905, 0.7560414671897888, 0.7929244041442871, 0.8298073410987854, 0.8666903376579285, 0.9035732746124268, 0.940456211566925, 0.9773391485214233, 1.0142221450805664, 1.05110502243042, 1.087988018989563, 1.124871015548706, 1.1617538928985596, 1.1986368894577026, 1.2355197668075562, 1.2724027633666992, 1.3092857599258423, 1.3461686372756958, 1.3830516338348389, 1.419934630393982, 1.4568175077438354, 1.4937005043029785, 1.530583381652832, 1.567466378211975, 1.6043493747711182, 1.6412322521209717, 1.6781152486801147, 1.7149982452392578, 1.7518811225891113, 1.7887641191482544, 1.825646996498108, 1.862529993057251, 1.899412989616394, 1.9362958669662476, 1.9731788635253906, 2.010061740875244, 2.0469448566436768, 2.0838277339935303, 2.120710611343384, 2.1575934886932373, 2.19447660446167, 2.2313594818115234, 2.268242359161377, 2.3051254749298096, 2.342008352279663, 2.3788912296295166, 2.415774345397949, 2.4526572227478027, 2.4895401000976562, 2.526423215866089, 2.5633060932159424, 2.600188970565796, 2.6370718479156494, 2.673954963684082, 2.7108378410339355, 2.747720718383789, 2.7846038341522217, 2.821486711502075]]}}, "shape": [10, 1, 28, 28]}, "output.1": {"id": "output.1", "data_group_type": "OUTPUT", "type": "Tensor", "value": {"tensor": [[-9.670418739318848, -7.515903472900391, -3.1853532791137695, -6.930747985839844, -11.147799491882324, -9.44778823852539, -10.517181396484375, -7.117401599884033, -0.0459103062748909, -6.915177345275879], [-6.013304233551025, -6.507260322570801, -6.575194358825684, -3.7116341590881348, -7.348705768585205, -0.034898266196250916, -7.829347610473633, -6.666581630706787, -6.903957366943359, -6.7189483642578125], [-6.997010707855225, -11.650217056274414, -4.7708001136779785, -8.62087345123291, -5.768562316894531, -10.01302719116211, -0.014999697916209698, -8.885453224182129, -6.258212566375732, -9.332630157470703], [-8.882022857666016, -9.580218315124512, -13.48831844329834, -10.147638320922852, -5.247495174407959, -6.043033599853516, -12.414299964904785, -0.012766418978571892, -7.519623756408691, -5.45958948135376], [-0.008162236772477627, -21.027318954467773, -8.127870559692383, -11.05469799041748, -9.213157653808594, -8.292834281921387, -4.964513301849365, -11.632185935974121, -9.027121543884277, -7.936143398284912], [-6.509427547454834, -0.2331331968307495, -4.383659362792969, -4.033450603485107, -8.845012664794922, -7.995415210723877, -9.87396240234375, -5.886844158172607, -1.760032296180725, -6.9886474609375], [-0.005966945551335812, -15.770903587341309, -5.648256301879883, -7.6714863777160645, -16.37075424194336, -6.983109951019287, -7.691192626953125, -14.93100643157959, -7.461695194244385, -15.786468505859375], [-8.684978485107422, -5.054765224456787, -6.76873254776001, -5.861824035644531, -4.477599143981934, -7.579185962677002, -9.783502578735352, -1.4293526411056519, -4.064480304718018, -0.3272644579410553], [-0.014263934455811977, -16.6270809173584, -6.681506156921387, -7.269014358520508, -6.964630126953125, -5.105783462524414, -6.489110469818115, -7.627010822296143, -7.0912299156188965, -6.046484470367432], [-0.02803335338830948, -11.951362609863281, -6.789608001708984, -4.150033950805664, -8.80594539642334, -5.363397121429443, -6.174737930297852, -9.262689590454102, -5.948975563049316, -6.786738872528076]], "tensor__stats": {"min": -21.027318954467773, "max": -0.005966945551335812, "mean": -7.1723408699035645, "variance": 15.329818725585938, "nobs": 100, "histogram_bins": 10, "histogram": [[1, 0, 5, 1, 7, 17, 33, 19, 5, 12], [-21.027318954467773, -18.92518424987793, -16.823047637939453, -14.72091293334961, -12.618778228759766, -10.516642570495605, -8.414507865905762, -6.31237268447876, -4.210237503051758, -2.1081020832061768, -0.005966945551335812]]}}, "shape": [10, 10]}}, "graph": {"nodes": [{"data": {"id": "input.1", "label": "INPUT", "component_ids": ["input.1"]}}, {"data": {"id": 9, "label": "Conv", "component_ids": ["conv1.weight", "conv1.bias"]}}, {"data": {"id": 10, "label": "Relu", "component_ids": []}}, {"data": {"id": 11, "label": "Conv", "component_ids": ["conv2.weight", "conv2.bias"]}}, {"data": {"id": 12, "label": "Relu", "component_ids": []}}, {"data": {"id": 13, "label": "MaxPool", "component_ids": []}}, {"data": {"id": 14, "label": "Flatten", "component_ids": []}}, {"data": {"id": 15, "label": "Gemm", "component_ids": ["fc1.weight", "fc1.bias"]}}, {"data": {"id": 16, "label": "Relu", "component_ids": []}}, {"data": {"id": 17, "label": "Gemm", "component_ids": ["fc2.weight", "fc2.bias"]}}, {"data": {"id": 18, "label": "LogSoftmax", "component_ids": []}}, {"data": {"id": "output.1", "label": "OUTPUT", "component_ids": ["output.1"]}}], "edges": [{"data": {"id": "input.1_9", "source": "input.1", "target": 9}}, {"data": {"id": "9_10", "source": 9, "target": 10}}, {"data": {"id": "10_11", "source": 10, "target": 11}}, {"data": {"id": "11_12", "source": 11, "target": 12}}, {"data": {"id": "12_13", "source": 12, "target": 13}}, {"data": {"id": "13_14", "source": 13, "target": 14}}, {"data": {"id": "14_15", "source": 14, "target": 15}}, {"data": {"id": "15_16", "source": 15, "target": 16}}, {"data": {"id": "16_17", "source": 16, "target": 17}}, {"data": {"id": "17_18", "source": 17, "target": 18}}, {"data": {"id": "18_output.1", "source": "18", "target": "output.1"}}]}}