{"id": "0_2100", "meta": {"time": 1638574573.7671766, "refresh_model_graph": false}, "step_info": {"epoch": 0, "iter": 2100}, "additional_info": {"pred": {"type": "Tensor", "value": [[7], [3], [1], [6], [6], [5], [2], [8], [6], [2]]}, "loss": {"type": "Tensor", "value": 0.24258652329444885}, "class_label": {"type": "Tensor", "value": [7, 3, 1, 6, 6, 5, 2, 3, 6, 2]}, "test_acc": {"type": "float", "value": 91.52}}, "graph_id": [0, 0], "data": {"conv1.weight": {"id": "conv1.weight", "data_group_type": "PARAM", "type": "Parameter", "value": {"tensor": "NOT SERIALIZED, Too large 288", "grad": "NOT SERIALIZED, Too large 288", "first_delta": "NOT SERIALIZED, Too large 288", "tensor__stats": {"min": -0.3349231481552124, "max": 0.3706546425819397, "mean": 0.019128985702991486, "variance": 0.04091722145676613, "nobs": 288, "histogram_bins": 16, "histogram": [[24, 13, 23, 12, 14, 19, 12, 19, 16, 27, 15, 26, 24, 10, 19, 15], [-0.3349231481552124, -0.2908245325088501, -0.2467259168624878, -0.20262731611728668, -0.15852870047092438, -0.11443008482456207, -0.07033147662878036, -0.02623286470770836, 0.017865747213363647, 0.061964359134435654, 0.10606297105550766, 0.15016157925128937, 0.19426019489765167, 0.23835881054401398, 0.2824574112892151, 0.3265560269355774, 0.3706546425819397]]}, "grad__stats": {"min": -0.03685341775417328, "max": 0.04523701220750809, "mean": 0.0035318422596901655, "variance": 0.00018842467397917062, "nobs": 288, "histogram_bins": 16, "histogram": [[8, 4, 2, 12, 11, 16, 36, 51, 52, 41, 29, 14, 7, 2, 1, 2], [-0.03685341775417328, -0.031722765415906906, -0.026592113077640533, -0.02146146260201931, -0.016330810263752937, -0.011200157925486565, -0.006069506518542767, -0.0009388546459376812, 0.004191797226667404, 0.009322449564933777, 0.014453100971877575, 0.019583752378821373, 0.024714404717087746, 0.02984505705535412, 0.03497570753097534, 0.040106359869241714, 0.04523701220750809]]}, "first_delta__stats": {"min": -0.01489219069480896, "max": 0.062434613704681396, "mean": 0.016634460538625717, "variance": 0.0003303968405816704, "nobs": 288, "histogram_bins": 16, "histogram": [[4, 37, 29, 23, 23, 22, 23, 22, 22, 25, 20, 12, 12, 6, 5, 3], [-0.01489219069480896, -0.010059265419840813, -0.005226340144872665, -0.00039341486990451813, 0.004439510405063629, 0.009272435680031776, 0.014105360954999924, 0.01893828622996807, 0.023771211504936218, 0.028604136779904366, 0.03343706205487251, 0.03826998919248581, 0.04310291260480881, 0.047935836017131805, 0.0527687631547451, 0.0576016902923584, 0.062434613704681396]]}}, "shape": [32, 1, 3, 3]}, "conv1.bias": {"id": "conv1.bias", "data_group_type": "PARAM", "type": "Parameter", "value": {"tensor": [0.060113776475191116, 0.3483699560165405, -0.0164408627897501, -0.14308971166610718, -0.2783800959587097, 0.0015330809401348233, 0.13724547624588013, 0.03079475834965706, 0.09630974382162094, 0.128551185131073, 0.19826559722423553, 0.3141292333602905, 0.06233130395412445, -0.2264414131641388, 0.04118213802576065, -0.10462728142738342, 0.20112521946430206, 0.12951679527759552, 0.11882252991199493, 0.15934479236602783, -0.2446902096271515, -0.08850756287574768, 0.22505559027194977, -0.15021781623363495, 0.12135683000087738, 0.26917049288749695, 0.2847152054309845, -0.2421574592590332, 0.1610492616891861, -0.00590908620506525, 0.11692386865615845, 0.3200761675834656], "grad": [0.0016713057411834598, -0.015984317287802696, -0.04592549055814743, -0.0026064796838909388, -0.0037571326829493046, -0.01535959355533123, -0.0026119062677025795, -0.012129350565373898, -0.03566110134124756, -0.011403689160943031, -0.0324387289583683, -0.0017329632537439466, -0.002535145729780197, 0.002266243565827608, -0.025164145976305008, -0.0065179611556231976, -0.041018545627593994, -0.018366457894444466, -0.02037583850324154, -0.009205209091305733, 0.000860203814227134, 0.0004239790141582489, -0.024970639497041702, 0.00017334935546386987, -0.018017316237092018, 0.012107555754482746, 0.003609434701502323, -0.0009696287452243268, 0.012693733908236027, -0.015426188707351685, 0.01061725988984108, -0.0024902422446757555], "first_delta": [0.02402566745877266, 0.021035104990005493, 0.006522145122289658, 0.030557572841644287, 0.03857707977294922, -0.0011158686829730868, 0.014986373484134674, 0.02200350910425186, 0.005738414824008942, 0.008930698037147522, 0.009829357266426086, 0.025970101356506348, 0.03637101501226425, 0.015317097306251526, 0.009349599480628967, 0.010392919182777405, 0.010106280446052551, 0.00955771654844284, 0.0033692866563796997, 0.0066396743059158325, 0.0437602698802948, 0.027166418731212616, 0.013322874903678894, 0.007482409477233887, 0.0064583420753479, 0.03455245494842529, 0.036039143800735474, 0.007729142904281616, 0.018536463379859924, 0.007523377425968647, 0.019408442080020905, 0.019431591033935547], "tensor__stats": {"min": -0.2783800959587097, "max": 0.3483699560165405, "mean": 0.06329754739999771, "variance": 0.030742455273866653, "nobs": 32, "histogram_bins": 5, "histogram": [[4, 4, 8, 10, 6], [-0.2783800959587097, -0.15303008258342743, -0.02768007479608059, 0.09766993671655655, 0.22301994264125824, 0.3483699560165405]]}, "grad__stats": {"min": -0.04592549055814743, "max": 0.012693733908236027, "mean": -0.01000765711069107, "variance": 0.0002214540436398238, "nobs": 32, "histogram_bins": 5, "histogram": [[3, 3, 8, 12, 6], [-0.04592549055814743, -0.034201644361019135, -0.022477800026535988, -0.010753955692052841, 0.000969888991676271, 0.012693733908236027]]}, "first_delta__stats": {"min": -0.0011158686829730868, "max": 0.0437602698802948, "mean": 0.017174208536744118, "variance": 0.0001379460736643523, "nobs": 32, "histogram_bins": 5, "histogram": [[9, 9, 6, 4, 4], [-0.0011158686829730868, 0.007859358564019203, 0.01683458685874939, 0.025809815153479576, 0.03478504344820976, 0.0437602698802948]]}}, "shape": [32]}, "conv2.weight": {"id": "conv2.weight", "data_group_type": "PARAM", "type": "Parameter", "value": {"tensor": "NOT SERIALIZED, Too large 18432", "grad": "NOT SERIALIZED, Too large 18432", "first_delta": "NOT SERIALIZED, Too large 18432", "tensor__stats": {"min": -0.07194887846708298, "max": 0.08748279511928558, "mean": 0.004521941766142845, "variance": 0.0012401515850797296, "nobs": 18432, "histogram_bins": 100, "histogram": [[1, 1, 5, 5, 7, 22, 35, 60, 109, 122, 138, 162, 185, 198, 214, 221, 204, 214, 212, 233, 249, 245, 257, 232, 236, 251, 256, 239, 260, 236, 253, 248, 238, 231, 244, 238, 208, 232, 271, 242, 258, 283, 246, 244, 254, 251, 231, 253, 237, 227, 231, 237, 254, 243, 251, 246, 237, 259, 252, 259, 254, 251, 269, 247, 249, 245, 246, 277, 227, 236, 235, 238, 275, 259, 213, 248, 226, 246, 242, 219, 192, 217, 181, 144, 119, 105, 88, 66, 51, 60, 39, 35, 28, 18, 12, 2, 2, 2, 0, 2], [-0.07194887846708298, -0.07035455852746964, -0.06876024603843689, -0.06716592609882355, -0.0655716136097908, -0.06397729367017746, -0.062382977455854416, -0.06078866124153137, -0.05919434502720833, -0.057600028812885284, -0.05600571259856224, -0.0544113926589489, -0.052817076444625854, -0.05122276023030281, -0.04962844401597977, -0.04803412780165672, -0.04643981158733368, -0.044845495373010635, -0.04325117543339729, -0.04165685921907425, -0.040062543004751205, -0.03846822679042816, -0.03687391057610512, -0.035279594361782074, -0.03368527814745903, -0.032090961933135986, -0.030496643856167793, -0.0289023257791996, -0.027308009564876556, -0.025713693350553513, -0.02411937713623047, -0.022525059059262276, -0.020930742844939232, -0.019336426630616188, -0.017742108553647995, -0.01614779233932495, -0.014553476125001907, -0.012959158979356289, -0.011364842765033245, -0.009770525619387627, -0.008176209405064583, -0.006581892259418964, -0.004987575579434633, -0.003393258899450302, -0.0017989421030506492, -0.0002046253503067419, 0.001389691373333335, 0.002984008053317666, 0.004578324966132641, 0.006172641646116972, 0.007766958326101303, 0.009361275471746922, 0.010955591686069965, 0.012549908831715584, 0.014144225046038628, 0.01573854126036167, 0.017332859337329865, 0.01892717555165291, 0.020521491765975952, 0.022115809842944145, 0.02371012605726719, 0.025304442271590233, 0.026898758485913277, 0.02849307656288147, 0.030087392777204514, 0.03168170899152756, 0.0332760252058506, 0.034870341420173645, 0.03646466135978699, 0.03805897757411003, 0.039653293788433075, 0.04124761000275612, 0.04284192621707916, 0.044436242431402206, 0.04603055864572525, 0.04762487858533859, 0.049219194799661636, 0.05081351101398468, 0.052407827228307724, 0.05400214344263077, 0.05559645965695381, 0.057190775871276855, 0.0587850920855999, 0.06037941202521324, 0.061973728239536285, 0.06356804072856903, 0.06516236066818237, 0.06675668060779572, 0.06835099309682846, 0.0699453130364418, 0.07153962552547455, 0.07313394546508789, 0.07472825795412064, 0.07632257789373398, 0.07791689783334732, 0.07951121032238007, 0.08110553026199341, 0.08269984275102615, 0.0842941626906395, 0.08588847517967224, 0.08748279511928558]]}, "grad__stats": {"min": -0.043397948145866394, "max": 0.046355534344911575, "mean": -0.00044610988697968423, "variance": 5.090829654363915e-05, "nobs": 18432, "histogram_bins": 100, "histogram": [[2, 0, 0, 0, 0, 0, 3, 0, 0, 1, 2, 4, 1, 3, 4, 5, 5, 9, 5, 13, 19, 14, 25, 26, 29, 29, 32, 42, 42, 51, 58, 87, 95, 137, 138, 167, 183, 237, 296, 323, 419, 467, 595, 655, 817, 1009, 1347, 1827, 2457, 1613, 988, 670, 524, 369, 333, 306, 268, 199, 205, 170, 163, 103, 113, 95, 76, 69, 62, 53, 51, 53, 37, 35, 23, 28, 30, 24, 11, 6, 9, 5, 3, 7, 3, 6, 0, 4, 3, 6, 2, 1, 4, 3, 3, 2, 3, 2, 6, 1, 1, 1], [-0.043397948145866394, -0.042500413954257965, -0.041602879762649536, -0.04070534184575081, -0.03980780765414238, -0.03891027346253395, -0.03801273927092552, -0.03711520507931709, -0.036217670887708664, -0.035320132970809937, -0.03442259877920151, -0.03352506458759308, -0.03262753039598465, -0.03172999620437622, -0.030832460150122643, -0.029934925958514214, -0.029037391766905785, -0.028139855712652206, -0.027242321521043777, -0.02634478732943535, -0.02544725127518177, -0.02454971708357334, -0.023652182891964912, -0.022754646837711334, -0.021857112646102905, -0.020959578454494476, -0.020062042400240898, -0.01916450820863247, -0.01826697215437889, -0.017369437962770462, -0.016471903771162033, -0.01557436864823103, -0.014676833525300026, -0.013779299333691597, -0.012881764210760593, -0.01198422908782959, -0.011086694896221161, -0.010189159773290157, -0.009291624650359154, -0.00839408952742815, -0.007496555335819721, -0.006599020212888718, -0.005701485555619001, -0.004803950898349285, -0.0039064157754182816, -0.0030088811181485653, -0.0021113462280482054, -0.0012138113379478455, -0.00031627656426280737, 0.0005812582676298916, 0.0014787930995225906, 0.0023763279896229506, 0.003273862646892667, 0.004171397536993027, 0.005068932194262743, 0.005966467317193747, 0.006864001974463463, 0.007761537097394466, 0.008659071289002895, 0.009556606411933899, 0.010454141534864902, 0.011351675726473331, 0.012249210849404335, 0.013146745972335339, 0.014044281095266342, 0.014941815286874771, 0.0158393494784832, 0.016736885532736778, 0.017634419724345207, 0.018531953915953636, 0.019429489970207214, 0.020327024161815643, 0.021224558353424072, 0.02212209440767765, 0.02301962859928608, 0.023917164653539658, 0.024814698845148087, 0.025712233036756516, 0.026609769091010094, 0.027507303282618523, 0.02840483747422695, 0.02930237352848053, 0.03019990772008896, 0.031097441911697388, 0.03199497610330582, 0.032892510294914246, 0.03379004821181297, 0.0346875824034214, 0.03558511659502983, 0.03648265078663826, 0.03738018497824669, 0.03827771916985512, 0.039175257086753845, 0.040072791278362274, 0.0409703254699707, 0.04186785966157913, 0.04276539385318756, 0.04366292804479599, 0.04456046596169472, 0.045458000153303146, 0.046355534344911575]]}, "first_delta__stats": {"min": -0.01534590870141983, "max": 0.03460167720913887, "mean": 0.004423419013619423, "variance": 5.027110819355585e-05, "nobs": 18432, "histogram_bins": 100, "histogram": [[3, 1, 2, 4, 7, 5, 5, 7, 20, 20, 30, 32, 45, 66, 69, 101, 119, 136, 143, 193, 241, 234, 272, 326, 373, 395, 442, 488, 579, 619, 702, 660, 645, 555, 521, 492, 481, 485, 461, 456, 453, 423, 424, 449, 419, 360, 341, 317, 297, 344, 294, 308, 262, 248, 233, 223, 198, 214, 192, 176, 168, 173, 150, 158, 141, 130, 129, 105, 74, 93, 62, 54, 53, 48, 42, 39, 30, 34, 24, 17, 10, 16, 11, 10, 9, 8, 4, 3, 9, 7, 4, 1, 2, 1, 0, 1, 0, 0, 1, 1], [-0.01534590870141983, -0.014846432954072952, -0.014346957206726074, -0.013847481459379196, -0.013348005712032318, -0.012848529033362865, -0.012349053286015987, -0.01184957753866911, -0.011350101791322231, -0.010850626043975353, -0.010351150296628475, -0.009851674549281597, -0.009352198801934719, -0.008852722123265266, -0.008353246375918388, -0.00785377062857151, -0.007354294881224632, -0.006854819133877754, -0.006355343386530876, -0.005855867173522711, -0.005356391426175833, -0.004856915678828955, -0.004357439931482077, -0.003857963951304555, -0.0033584879711270332, -0.002859012223780155, -0.002359536476433277, -0.0018600604962557554, -0.0013605846324935555, -0.0008611087687313557, -0.00036163293407298625, 0.00013784292968921363, 0.0006373187643475831, 0.0011367946863174438, 0.0016362705500796437, 0.0021357464138418436, 0.0026352221611887217, 0.0031346981413662434, 0.0036341738887131214, 0.0041336496360599995, 0.004633125849068165, 0.005132601596415043, 0.005632077343761921, 0.006131553091108799, 0.006631029304116964, 0.007130505051463842, 0.0076299807988107204, 0.008129457011818886, 0.008628932759165764, 0.009128408506512642, 0.00962788425385952, 0.010127360001206398, 0.010626835748553276, 0.011126311495900154, 0.011625787243247032, 0.012125263921916485, 0.012624739669263363, 0.013124215416610241, 0.013623691163957119, 0.014123166911303997, 0.014622642658650875, 0.015122118405997753, 0.015621594153344631, 0.016121070832014084, 0.016620546579360962, 0.01712002232670784, 0.017619498074054718, 0.018118973821401596, 0.018618449568748474, 0.019117925316095352, 0.01961740106344223, 0.02011687681078911, 0.020616352558135986, 0.021115828305482864, 0.021615304052829742, 0.02211477980017662, 0.022614257410168648, 0.023113733157515526, 0.023613208904862404, 0.024112684652209282, 0.02461216039955616, 0.025111636146903038, 0.025611111894249916, 0.026110587641596794, 0.026610063388943672, 0.02710953913629055, 0.02760901488363743, 0.028108490630984306, 0.028607966378331184, 0.029107442125678062, 0.02960691787302494, 0.03010639362037182, 0.030605871230363846, 0.031105346977710724, 0.0316048227250576, 0.03210429847240448, 0.03260377421975136, 0.033103249967098236, 0.033602725714445114, 0.03410220146179199, 0.03460167720913887]]}}, "shape": [64, 32, 3, 3]}, "conv2.bias": {"id": "conv2.bias", "data_group_type": "PARAM", "type": "Parameter", "value": {"tensor": [-0.033587392419576645, 0.05910539999604225, -0.005342687480151653, 0.00519015546888113, -0.004388789646327496, -0.006480067502707243, 0.033243656158447266, 0.011063921265304089, -0.021220622584223747, 0.011026989668607712, 0.0052869245409965515, -0.033823855221271515, 0.027282746508717537, 0.04386056587100029, -0.021275464445352554, -0.04354461282491684, 0.0025761500000953674, -0.04559866338968277, 0.05855691805481911, -0.0444079227745533, 0.05009014531970024, -0.025547826662659645, -0.002240146975964308, -0.0016005205688998103, 0.045968059450387955, 0.038199808448553085, -0.0502060241997242, -0.03609440475702286, 0.06019539758563042, 0.07156927138566971, 0.00911844801157713, -0.022423772141337395, 0.009573254734277725, 0.05340643227100372, -0.04196354001760483, -0.0339200422167778, 0.005276267416775227, 0.030458400025963783, 0.037163738161325455, -0.018199976533651352, -0.02058311365544796, 0.05891072377562523, -0.03879309818148613, -0.020964255556464195, 0.04717725142836571, 0.04077228903770447, -0.023946627974510193, 0.012665965594351292, -0.027369443327188492, -0.010303208604454994, 0.04820924252271652, -0.039932407438755035, 0.019175106659531593, -0.034352872520685196, 0.010416598990559578, 0.056272491812705994, 0.06209423020482063, 0.056008946150541306, -0.0334014967083931, -0.013402224518358707, -0.0061724064871668816, 0.04417410492897034, 0.024071039631962776, 0.053313396871089935], "grad": [-0.02307787910103798, -0.02189718559384346, -0.007937291637063026, -0.001051257480867207, -0.014551530592143536, 0.011185454204678535, -0.0024754302576184273, -0.020256558433175087, 0.00791214406490326, -0.01774483360350132, 0.011245619505643845, -0.020779239013791084, 0.00014307533274404705, -0.03297828137874603, -0.007895438000559807, -0.0002828017168212682, -0.012939409352838993, 0.0037097132299095392, -0.01595337502658367, 0.006874185986816883, 0.024277573451399803, -0.027764292433857918, -0.011119266040623188, 0.005227374844253063, -0.0259969774633646, -0.03611043840646744, 0.0021408202592283487, -0.008279455825686455, -0.015121490694582462, 0.000813233433291316, -0.00465281680226326, -0.03166773170232773, 0.001328738289885223, 0.006319066509604454, 0.008262960240244865, 0.010973584838211536, -0.02145412005484104, -0.0030324270483106375, 0.00348900118842721, -0.007158111780881882, 0.0018711637239903212, -0.003453400917351246, -0.0003322247648611665, 0.00299393804743886, 0.005790500435978174, 0.00494007533416152, 0.010644195601344109, 0.006906171794980764, -0.01022836659103632, 0.007603638339787722, -0.027104929089546204, 0.008488787338137627, -0.00882020778954029, -0.008637623861432076, 0.005542032886296511, -0.005453808233141899, 0.004231351427733898, -0.005262625403702259, -0.016405591741204262, -0.039110347628593445, -0.005544863175600767, -0.02296505868434906, -0.006122392602264881, 0.00348079320974648], "first_delta": [0.008227452635765076, 0.003391854465007782, 0.0005311924032866955, 0.002730486448854208, 0.0032268580980598927, 0.005293289665132761, 0.017189303413033485, 0.0032936930656433105, 0.007086697965860367, 0.008556734770536423, 0.0031680127140134573, 0.006719116121530533, 0.0025177709758281708, 0.009176034480333328, 0.00115874782204628, 0.010607365518808365, 0.0021924520842731, 0.012761812657117844, 0.0021382123231887817, 0.006042163819074631, 0.007527250796556473, 0.003163730725646019, 0.000795240979641676, 0.0035065184347331524, 0.006783150136470795, 0.005347900092601776, 0.003324124962091446, 0.007354330271482468, 0.005379524081945419, 0.015405189245939255, 0.010617800988256931, 0.005051463842391968, 0.005377149675041437, 0.0030851103365421295, 0.00885506346821785, 0.00842633843421936, 0.002864617621526122, 0.006279526278376579, 0.010809602215886116, 0.005497166886925697, 0.003710344433784485, 0.0025085322558879852, 0.013345010578632355, 0.013919709250330925, 0.004583239555358887, 0.009557798504829407, 0.01799018308520317, 0.00610688328742981, 0.004017174243927002, 0.008803138509392738, 0.005655072629451752, 0.010837208479642868, 0.0014239717274904251, 0.00041941553354263306, 0.006380160339176655, 0.007587913423776627, 0.006862133741378784, 0.010934639722108841, 0.006257627159357071, 0.006041704677045345, 0.009385519661009312, 0.007903270423412323, 0.0013881605118513107, 0.01704687625169754], "tensor__stats": {"min": -0.0502060241997242, "max": 0.07156927138566971, "mean": 0.006881040055304766, "variance": 0.0012596773449331522, "nobs": 64, "histogram_bins": 8, "histogram": [[8, 13, 6, 10, 5, 6, 10, 6], [-0.0502060241997242, -0.03498411178588867, -0.019762199372053146, -0.004540288355201483, 0.010681623592972755, 0.02590353600680828, 0.04112544655799866, 0.05634735897183418, 0.07156927138566971]]}, "grad__stats": {"min": -0.039110347628593445, "max": 0.024277573451399803, "mean": -0.006019123364239931, "variance": 0.0001831474364735186, "nobs": 64, "histogram_bins": 8, "histogram": [[4, 3, 9, 10, 13, 19, 5, 1], [-0.039110347628593445, -0.03118685819208622, -0.023263366892933846, -0.01533987745642662, -0.007416387088596821, 0.0005071030464023352, 0.008430592715740204, 0.016354084014892578, 0.024277573451399803]]}, "first_delta__stats": {"min": 0.00041941553354263306, "max": 0.01799018308520317, "mean": 0.006626964546740055, "variance": 1.767200774338562e-05, "nobs": 64, "histogram_bins": 8, "histogram": [[10, 13, 16, 11, 7, 2, 2, 3], [0.00041941553354263306, 0.0026157614775002003, 0.0048121074214577675, 0.007008453365415335, 0.009204799309372902, 0.011401144787669182, 0.013597491197288036, 0.01579383760690689, 0.01799018308520317]]}}, "shape": [64]}, "fc1.weight": {"id": "fc1.weight", "data_group_type": "PARAM", "type": "Parameter", "value": {"tensor": "NOT SERIALIZED, Too large 1179648", "grad": "NOT SERIALIZED, Too large 1179648", "first_delta": "NOT SERIALIZED, Too large 1179648", "tensor__stats": {"min": -0.020331701263785362, "max": 0.020538685843348503, "mean": 0.00024558985023759305, "variance": 3.835344614344649e-05, "nobs": 1179648, "histogram_bins": 100, "histogram": [[1, 1, 1, 2, 2, 7, 5, 1, 5, 17, 31, 34, 78, 105, 182, 261, 389, 559, 840, 1192, 1944, 2964, 4259, 6621, 11835, 15177, 17066, 18777, 19851, 21012, 21614, 22220, 22435, 22652, 22867, 22874, 23099, 23111, 23608, 23112, 23125, 23301, 23135, 23135, 23048, 22973, 23345, 22958, 23273, 23194, 23042, 23031, 22946, 23137, 23124, 23012, 23011, 23295, 22951, 23070, 23374, 23266, 23181, 22977, 22871, 22716, 23062, 22869, 22444, 22414, 21762, 21057, 20125, 18752, 16518, 11108, 7955, 5936, 4368, 3056, 2166, 1501, 1048, 784, 507, 324, 209, 137, 93, 56, 47, 20, 6, 10, 7, 1, 0, 3, 0, 1], [-0.020331701263785362, -0.019922997802495956, -0.01951429434120655, -0.019105589017271996, -0.01869688555598259, -0.018288182094693184, -0.017879478633403778, -0.017470773309469223, -0.017062069848179817, -0.01665336638689041, -0.016244662925601006, -0.0158359594643116, -0.01542725507169962, -0.015018550679087639, -0.014609847217798233, -0.014201142825186253, -0.013792439363896847, -0.013383735902607441, -0.01297503150999546, -0.012566328048706055, -0.012157623656094074, -0.011748920194804668, -0.011340215802192688, -0.010931512340903282, -0.010522807948291302, -0.010114104487001896, -0.00970540102571249, -0.00929669663310051, -0.008887993171811104, -0.008479288779199123, -0.008070585317909718, -0.007661881390959024, -0.007253177464008331, -0.006844473537057638, -0.006435769610106945, -0.006027065683156252, -0.005618361756205559, -0.005209657829254866, -0.00480095436796546, -0.004392250441014767, -0.0039835465140640736, -0.0035748425871133804, -0.0031661386601626873, -0.002757434733211994, -0.0023487310390919447, -0.0019400271121412516, -0.0015313231851905584, -0.0011226193746551871, -0.000713915447704494, -0.0003052115789614618, 0.00010349228978157043, 0.0005121961585246027, 0.0009209000272676349, 0.001329603954218328, 0.0017383077647536993, 0.0021470116917043924, 0.0025557156186550856, 0.002964419312775135, 0.003373123239725828, 0.0037818271666765213, 0.004190531093627214, 0.0045992350205779076, 0.005007938947528601, 0.0054166424088180065, 0.0058253463357687, 0.006234050262719393, 0.006642754189670086, 0.007051458116620779, 0.007460162043571472, 0.007868865504860878, 0.008277569897472858, 0.008686273358762264, 0.009094977751374245, 0.00950368121266365, 0.009912385605275631, 0.010321089066565037, 0.010729792527854443, 0.011138496920466423, 0.011547200381755829, 0.01195590477436781, 0.012364608235657215, 0.012773312628269196, 0.013182016089558601, 0.013590720482170582, 0.013999423943459988, 0.014408127404749393, 0.014816831797361374, 0.01522553525865078, 0.015634238719940186, 0.01604294404387474, 0.016451647505164146, 0.016860350966453552, 0.017269054427742958, 0.017677757889032364, 0.01808646321296692, 0.018495166674256325, 0.01890387013554573, 0.019312573596835136, 0.01972127892076969, 0.020129982382059097, 0.020538685843348503]]}, "grad__stats": {"min": -0.12862512469291687, "max": 0.11362085491418839, "mean": -9.319755190517753e-05, "variance": 0.00010469780681887642, "nobs": 1179648, "histogram_bins": 100, "histogram": [[2, 0, 6, 4, 3, 5, 10, 11, 17, 14, 21, 26, 29, 32, 28, 35, 43, 50, 51, 74, 93, 111, 154, 171, 204, 221, 287, 312, 344, 446, 509, 603, 724, 873, 1023, 1220, 1439, 1597, 1918, 2386, 2852, 3402, 4136, 4822, 5962, 7607, 9394, 11639, 15022, 20355, 30633, 56949, 196175, 604676, 65495, 29691, 18887, 13618, 10196, 8103, 6496, 5401, 4672, 4006, 3416, 3057, 2667, 2408, 2007, 1676, 1395, 1196, 1049, 915, 781, 606, 522, 479, 380, 359, 252, 161, 162, 128, 127, 93, 81, 82, 71, 66, 47, 53, 36, 30, 16, 17, 14, 8, 2, 4], [-0.12862512469291687, -0.12620265781879425, -0.12378020584583282, -0.1213577464222908, -0.11893528699874878, -0.11651282757520676, -0.11409036815166473, -0.11166790872812271, -0.10924544930458069, -0.10682298988103867, -0.10440053045749664, -0.10197806358337402, -0.099555604159832, -0.09713314473628998, -0.09471068531274796, -0.09228822588920593, -0.08986576646566391, -0.08744330704212189, -0.08502084761857986, -0.08259838819503784, -0.08017592877149582, -0.0777534693479538, -0.07533100992441177, -0.07290855050086975, -0.07048609107732773, -0.0680636316537857, -0.06564117223024368, -0.06321871280670166, -0.06079624965786934, -0.058373790234327316, -0.055951330810785294, -0.05352887138724327, -0.05110641196370125, -0.048683952540159225, -0.0462614931166172, -0.04383902996778488, -0.04141657054424286, -0.038994111120700836, -0.036571651697158813, -0.03414919227361679, -0.03172673285007477, -0.029304273426532745, -0.026881814002990723, -0.02445935271680355, -0.022036893293261528, -0.019614433869719505, -0.017191974446177483, -0.014769514091312885, -0.012347054667770863, -0.009924594312906265, -0.0075021348893642426, -0.0050796750001609325, -0.002657215343788266, -0.00023475549824070185, 0.00218770420178771, 0.00461016409099102, 0.00703262398019433, 0.00945508386939764, 0.011877543292939663, 0.01430000364780426, 0.016722463071346283, 0.019144922494888306, 0.02156738191843033, 0.0239898432046175, 0.026412302628159523, 0.028834762051701546, 0.03125722333788872, 0.03367968276143074, 0.03610214218497276, 0.038524601608514786, 0.04094706103205681, 0.04336952045559883, 0.045791979879140854, 0.04821443930268288, 0.0506368987262249, 0.05305936187505722, 0.05548182129859924, 0.057904280722141266, 0.06032674014568329, 0.06274919956922531, 0.06517165899276733, 0.06759411841630936, 0.07001657783985138, 0.0724390372633934, 0.07486149668693542, 0.07728395611047745, 0.07970641553401947, 0.08212887495756149, 0.08455133438110352, 0.08697379380464554, 0.08939625322818756, 0.09181872010231018, 0.0942411795258522, 0.09666363894939423, 0.09908609837293625, 0.10150855779647827, 0.1039310172200203, 0.10635347664356232, 0.10877593606710434, 0.11119839549064636, 0.11362085491418839]]}, "first_delta__stats": {"min": -0.014230930246412754, "max": 0.01292466651648283, "mean": 0.0002477235975675285, "variance": 2.17203614738537e-06, "nobs": 1179648, "histogram_bins": 100, "histogram": [[2, 0, 2, 0, 0, 0, 1, 0, 2, 0, 2, 1, 2, 1, 5, 6, 9, 8, 18, 16, 13, 18, 24, 41, 43, 69, 81, 112, 157, 234, 275, 429, 570, 749, 1016, 1336, 1691, 2284, 2875, 3756, 4853, 6453, 8419, 11139, 14268, 18814, 24331, 31795, 40894, 52876, 72274, 132938, 215463, 95550, 79237, 67222, 56211, 46200, 37783, 30437, 24600, 19569, 15817, 12366, 9599, 7803, 6106, 4924, 3743, 2861, 2281, 1749, 1341, 1046, 750, 582, 432, 302, 237, 149, 117, 76, 62, 36, 32, 21, 10, 11, 4, 4, 4, 2, 2, 1, 1, 0, 1, 0, 1, 1], [-0.014230930246412754, -0.013959374278783798, -0.013687818311154842, -0.013416262343525887, -0.01314470637589693, -0.012873150408267975, -0.012601594440639019, -0.012330038473010063, -0.012058482505381107, -0.011786926537752151, -0.011515370570123196, -0.01124381460249424, -0.010972258634865284, -0.010700702667236328, -0.010429146699607372, -0.010157590731978416, -0.00988603476434946, -0.009614478796720505, -0.009342922829091549, -0.009071366861462593, -0.008799810893833637, -0.008528254926204681, -0.008256698958575726, -0.00798514299094677, -0.007713587023317814, -0.007442031055688858, -0.007170475088059902, -0.006898919120430946, -0.0066273631528019905, -0.006355807185173035, -0.006084251217544079, -0.005812695249915123, -0.005541139282286167, -0.005269583314657211, -0.0049980273470282555, -0.0047264713793993, -0.004454915411770344, -0.004183359444141388, -0.003911803476512432, -0.0036402475088834763, -0.0033686915412545204, -0.0030971355736255646, -0.0028255796059966087, -0.002554023638367653, -0.002282467670738697, -0.002010911703109741, -0.0017393557354807854, -0.0014677997678518295, -0.0011962438002228737, -0.0009246878325939178, -0.000653131864964962, -0.00038157589733600616, -0.00011001992970705032, 0.00016153603792190552, 0.00043309200555086136, 0.0007046479731798172, 0.000976203940808773, 0.0012477599084377289, 0.0015193158760666847, 0.0017908718436956406, 0.0020624278113245964, 0.0023339837789535522, 0.002605539746582508, 0.002877095714211464, 0.0031486516818404198, 0.0034202076494693756, 0.0036917636170983315, 0.003963319584727287, 0.004234875552356243, 0.004506431519985199, 0.004777987487614155, 0.005049543455243111, 0.0053210994228720665, 0.005592655390501022, 0.005864211358129978, 0.006135767325758934, 0.00640732329338789, 0.006678879261016846, 0.0069504352286458015, 0.007221991196274757, 0.007493547163903713, 0.007765103131532669, 0.008036659099161625, 0.00830821506679058, 0.008579771034419537, 0.008851327002048492, 0.009122882969677448, 0.009394438937306404, 0.00966599490493536, 0.009937550872564316, 0.010209106840193272, 0.010480662807822227, 0.010752218775451183, 0.01102377474308014, 0.011295330710709095, 0.01156688667833805, 0.011838442645967007, 0.012109998613595963, 0.012381554581224918, 0.012653110548853874, 0.01292466651648283]]}}, "shape": [128, 9216]}, "fc1.bias": {"id": "fc1.bias", "data_group_type": "PARAM", "type": "Parameter", "value": {"tensor": [-0.005769822280853987, 0.01079284492880106, -0.0027158481534570456, -0.0023271969985216856, -0.00022384877956937999, 0.004752693232148886, 6.791657506255433e-05, -0.005997977685183287, 0.0012051592348143458, 0.001057776273228228, 0.005768470000475645, 0.00376513646915555, 0.009599506855010986, 0.0076068490743637085, -0.0011543483706191182, -0.004032543394714594, 0.008110827766358852, 0.008307569660246372, -0.005831734277307987, -0.001864251564256847, -0.009855627082288265, 0.002956848591566086, 0.0024666462559252977, -0.0009106578654609621, 0.0028215441852808, -0.001147739589214325, -0.0049065775237977505, -0.009876872412860394, 0.007800456136465073, 0.00021762844698969275, -0.008892247453331947, 0.0121433325111866, -0.00035463323001749814, -0.004718930460512638, 0.0019606309942901134, -0.01000717468559742, 0.000159161863848567, -0.0007818834856152534, -0.0053120944648981094, 0.011108669452369213, 0.0017714594723656774, -0.005485762841999531, -0.007442515343427658, 0.008778545074164867, -0.004794212523847818, -0.003088242607191205, 0.007883398793637753, 0.010914741083979607, 0.004605433903634548, -0.0009605077211745083, 0.003936000168323517, 0.0019277253886684775, 0.008539282716810703, -0.0069635589607059956, 0.0016120867803692818, -0.00041318146395497024, -0.00908687524497509, 0.008860004134476185, 0.0008824231917969882, 0.00020269273954909295, 4.405396612128243e-05, 0.0009697970817796886, -0.004774761851876974, 0.004545086529105902, 0.0062648821622133255, -0.009054250083863735, 0.007661029230803251, 0.010366596281528473, -0.005468711722642183, 0.008298349566757679, 0.006408874876797199, 0.007280784193426371, 0.0022431104443967342, -0.008288377895951271, 0.006132766138762236, 0.007562865503132343, -0.0012980105821043253, -0.007225964684039354, 0.0003138482279609889, -0.007551532704383135, 0.0030419090762734413, -0.0038117030635476112, 0.005226810462772846, 8.813467138679698e-05, -0.0074591063894331455, -0.00620293989777565, 0.009609435684978962, 0.002014813246205449, 0.002763224532827735, 0.005172073841094971, 0.002032495802268386, 0.0029814133886247873, -0.006393286865204573, 0.007480986882001162, -0.0035153510980308056, 0.002183177974075079, -0.0012762011028826237, -0.009927589446306229, -0.0015373275382444263, -0.003934270702302456, -0.002351578092202544, 0.0064981672912836075, -0.005983113776892424, -0.0016138912178575993, -0.0007027668762020767, -8.601925219409168e-05, -0.0011266008950769901, -0.0019514149753376842, -0.0031713766511529684, -0.005863468628376722, 0.00710600009188056, 0.0044997562654316425, -0.008214238099753857, -0.010380973108112812, -0.0028541479259729385, 0.010462947189807892, -0.0036622851621359587, -0.0026328328531235456, -0.010614241473376751, 0.00472176494076848, 0.005779659375548363, 0.00421361718326807, -0.002354351105168462, -0.007679073605686426, -0.00573490746319294, 0.01173262670636177, -0.003033469198271632, -0.0027720334473997355], "grad": [0.011239157989621162, 0.0031910748220980167, 0.010908409021794796, 0.0030060536228120327, -0.003446547780185938, -0.014502044767141342, -0.0004918978665955365, 0.010127484798431396, 0.0010708833578974009, 0.0, -0.003956832457333803, 0.003995466977357864, 0.0, -0.00600046431645751, -3.932716208510101e-05, -0.001237737131305039, -0.004527331795543432, 0.0001979391963686794, 0.00029242091113701463, -0.005944129545241594, 0.002599341794848442, 0.0, 0.008107680827379227, -0.0069563318975269794, 0.0091620571911335, -0.008375752717256546, -0.004516057204455137, 0.010182377882301807, -0.0026726946234703064, 0.004195036366581917, -0.004722279496490955, 0.0018999024759978056, 0.00030804146081209183, 0.0008549411431886256, 0.0019237981177866459, 0.0, -0.008350172080099583, -0.005582952871918678, -0.007417576853185892, 0.010162537917494774, -0.009220280684530735, 0.006222506985068321, 0.008122093044221401, -0.004232439678162336, 0.007374550681561232, 0.00010754025424830616, -0.0031510437838733196, -0.00678127771243453, -0.00683293491601944, 0.009727665223181248, 0.0, -0.0075464555993676186, 0.0009927633218467236, 0.006544141098856926, -0.003148093353956938, -0.0002096021780744195, 0.010995909571647644, 0.0030219415202736855, -0.003452687757089734, 0.008770780637860298, -0.00647151842713356, -0.00568078039214015, -0.0010716270189732313, 0.013402500189840794, 0.0, 0.0006150997360236943, -0.005615565460175276, -0.004551272839307785, 0.0, -0.012538271956145763, 8.167156011040788e-06, -0.009987824596464634, 0.008706184104084969, -0.0028037969022989273, 0.009744797833263874, 0.0020880040246993303, 0.008569173514842987, 0.0031933241989463568, -0.0014547544997185469, -0.007610687054693699, 0.016048196703195572, 0.0005605885526165366, -0.0022213326301425695, -0.0036982351448386908, 0.004173970781266689, 0.0005617707502096891, 0.00021160190226510167, 0.0001445841626264155, 0.0, -0.01139762345701456, -0.002738585462793708, -0.0017551567871123552, 0.0, 0.0017114478396251798, 0.0, -6.518137524835765e-05, 0.0025065781082957983, 0.0, -0.0009753634803928435, -0.010579222813248634, -0.005131999496370554, -0.0026180013082921505, 0.0, -0.005614851135760546, 0.0, -0.019140664488077164, 0.016940351575613022, -0.011128424666821957, 0.0, 0.01682163216173649, -0.002553023863583803, 0.0053831664845347404, 0.0, -0.0046940091997385025, 0.0, 0.003418554784730077, -0.0023613590747117996, 0.006811121944338083, 0.00019747589249163866, -0.004577979911118746, -0.0005023820558562875, 0.0018301925156265497, -0.0010474452283233404, -0.0033680801279842854, -0.001105381059460342, 0.00807883683592081, 0.0009001773432828486, -0.0023274091072380543], "first_delta": [-0.00034101493656635284, 0.002512497827410698, 0.0007818469312041998, -0.0006077060243114829, -7.833768904674798e-05, 0.0007964707911014557, -0.0006334289209917188, -0.0015456918627023697, 0.003296181093901396, -0.00023782008793205023, -0.0007857871241867542, -0.00033620232716202736, -0.0004967935383319855, 0.0005253590643405914, 0.0016704188892617822, 0.0008854097686707973, 0.0012049265205860138, 0.0002924567088484764, 0.0002683294005692005, 0.0032856566831469536, 0.00014783814549446106, -0.00039703911170363426, 0.00030577415600419044, 0.003393885213881731, -0.001496409997344017, 0.002772626932710409, 0.002783058676868677, -0.001895505003631115, 0.0008566775359213352, -0.001120269880630076, 0.0012331251055002213, 0.0018832245841622353, -0.0009222383378073573, -0.001310710795223713, -0.0007580351084470749, -0.00043936725705862045, 0.0014122166903689504, 0.002606685273349285, 0.0008916426450014114, 0.0013400129973888397, 0.0011881000827997923, 0.0018410822376608849, 0.0015609152615070343, 0.0012861192226409912, 0.00048377877101302147, 0.002051906893029809, 0.00026883091777563095, 0.0034127142280340195, -1.8353108316659927e-05, 0.0009156391606666148, -0.0003214753232896328, 0.0008217189460992813, -8.808635175228119e-05, 0.0016584577970206738, 0.00023767317179590464, 0.00034067078377120197, -0.00020808912813663483, 9.81716439127922e-05, 0.0006348825991153717, 7.177077350206673e-06, 0.000784729840233922, -0.0005404195399023592, 0.0016909739933907986, 0.0005739866755902767, -8.939672261476517e-05, 0.0002358555793762207, 0.001005000900477171, 0.0016506202518939972, -0.000497796107083559, 0.000634925439953804, -0.00014403881505131721, -0.0001916070468723774, -0.0013919943012297153, 0.0008259350433945656, -0.0007728668861091137, -0.0010145064443349838, -0.0015820751432329416, 0.0022806734777987003, 0.0027571420650929213, 0.0007598311640322208, 0.00014507491141557693, 0.0007632924243807793, 0.002389404457062483, 0.000582575099542737, 0.001382922288030386, 0.0009995675645768642, -0.00015866663306951523, 0.0013595756608992815, -0.00025784061290323734, 0.0005333544686436653, -0.0003971883561462164, -0.0013542671222239733, -8.81110318005085e-05, 0.001036311499774456, -0.00010039843618869781, 0.001483757165260613, 0.0018124023918062449, -0.0005190335214138031, 0.00017401750665158033, 0.00037266407161951065, 0.0018341334071010351, 0.001032489351928234, -0.0004655178636312485, 0.0003928879741579294, -0.000558577012270689, 0.0031317449174821377, -0.0019615949131548405, 0.002109167631715536, -0.00023350585252046585, 0.00014354847371578217, 0.0008216872811317444, -0.0003547654487192631, -0.00020373612642288208, -0.0006615081802010536, -9.391643106937408e-05, 0.0013495655730366707, -0.0006845064926892519, -0.0009898915886878967, -0.00029675383120775223, 0.0015470203943550587, 0.0020104614086449146, 6.894581019878387e-05, 0.002244693925604224, 0.0005818787030875683, 0.0016503813676536083, 0.001399909146130085, -0.00023762625642120838, 0.0009757340885698795], "tensor__stats": {"min": -0.010614241473376751, "max": 0.0121433325111866, "mean": 0.0002567616757005453, "variance": 3.4667096770135686e-05, "nobs": 128, "histogram_bins": 11, "histogram": [[9, 8, 15, 14, 16, 15, 13, 11, 12, 8, 7], [-0.010614241473376751, -0.008545370772480965, -0.006476500537246466, -0.004407630302011967, -0.0023387600667774677, -0.000269889656919986, 0.0017989807529374957, 0.0038678511045873165, 0.0059367213398218155, 0.008005592040717602, 0.010074461810290813, 0.0121433325111866]]}, "grad__stats": {"min": -0.019140664488077164, "max": 0.016940351575613022, "mean": -2.1646599634550512e-05, "variance": 3.954188650823198e-05, "nobs": 128, "histogram_bins": 11, "histogram": [[1, 1, 5, 10, 22, 43, 19, 7, 13, 4, 3], [-0.019140664488077164, -0.015860572457313538, -0.012580479495227337, -0.00930038746446371, -0.006020294968038797, -0.0027402027044445276, 0.0005398897337727249, 0.0038199820555746555, 0.007100074551999569, 0.010380166582763195, 0.013660259544849396, 0.016940351575613022]]}, "first_delta__stats": {"min": -0.0019615949131548405, "max": 0.0034127142280340195, "mean": 0.0005437697982415557, "variance": 1.4252988194130012e-06, "nobs": 128, "histogram_bins": 11, "histogram": [[5, 6, 13, 25, 16, 20, 15, 12, 6, 5, 5], [-0.0019615949131548405, -0.001473021344281733, -0.0009844477754086256, -0.0004958742647431791, -7.3006799539143685e-06, 0.0004812728730030358, 0.0009698464418761432, 0.0014584199525415897, 0.0019469935214146972, 0.0024355670902878046, 0.002924140775576234, 0.0034127142280340195]]}}, "shape": [128]}, "fc2.weight": {"id": "fc2.weight", "data_group_type": "PARAM", "type": "Parameter", "value": {"tensor": "NOT SERIALIZED, Too large 1280", "grad": "NOT SERIALIZED, Too large 1280", "first_delta": "NOT SERIALIZED, Too large 1280", "tensor__stats": {"min": -0.10656272619962692, "max": 0.0937831848859787, "mean": -0.002813191618770361, "variance": 0.0029711155220866203, "nobs": 1280, "histogram_bins": 35, "histogram": [[8, 12, 25, 48, 38, 38, 39, 36, 35, 36, 45, 39, 45, 41, 33, 34, 41, 46, 47, 30, 35, 36, 43, 39, 27, 42, 46, 40, 31, 45, 38, 46, 37, 45, 14], [-0.10656272619962692, -0.1008385568857193, -0.09511438757181168, -0.08939021825790405, -0.08366604894399643, -0.0779418796300888, -0.07221771031618118, -0.06649354100227356, -0.060769375413656235, -0.05504520609974861, -0.04932103678584099, -0.043596867471933365, -0.03787269815802574, -0.03214852884411812, -0.026424361392855644, -0.02070019207894802, -0.014976023696362972, -0.009251855313777924, -0.003527686232700944, 0.002196482615545392, 0.007920651696622372, 0.01364482007920742, 0.019368989393115044, 0.025093158707022667, 0.03081732802093029, 0.036541495472192764, 0.04226566478610039, 0.04798983410000801, 0.053714003413915634, 0.05943817272782326, 0.06516233831644058, 0.0708865076303482, 0.07661067694425583, 0.08233484625816345, 0.08805901557207108, 0.0937831848859787]]}, "grad__stats": {"min": -1.420030951499939, "max": 0.9828868508338928, "mean": 8.940697071579962e-09, "variance": 0.048973508179187775, "nobs": 1280, "histogram_bins": 35, "histogram": [[1, 1, 2, 1, 2, 4, 1, 4, 4, 4, 8, 4, 10, 12, 6, 8, 14, 19, 26, 31, 702, 230, 79, 24, 16, 15, 17, 10, 9, 4, 6, 1, 2, 2, 1], [-1.420030951499939, -1.3513761758804321, -1.2827214002609253, -1.2140666246414185, -1.145411729812622, -1.0767569541931152, -1.0081021785736084, -0.9394474029541016, -0.87079256772995, -0.8021377921104431, -0.7334830164909363, -0.6648282408714294, -0.5961734056472778, -0.527518630027771, -0.4588638246059418, -0.39020904898643494, -0.3215542435646057, -0.2528994381427765, -0.18424464762210846, -0.11558985710144043, -0.0469350628554821, 0.021719729527831078, 0.09037452191114426, 0.15902931988239288, 0.2276841104030609, 0.29633891582489014, 0.364993691444397, 0.4336484968662262, 0.5023033022880554, 0.5709580779075623, 0.6396128535270691, 0.7082676887512207, 0.7769224643707275, 0.8455772399902344, 0.914232075214386, 0.9828868508338928]]}, "first_delta__stats": {"min": -0.02913333848118782, "max": 0.00918993353843689, "mean": -0.0024169920943677425, "variance": 2.5672137780929916e-05, "nobs": 1280, "histogram_bins": 35, "histogram": [[2, 0, 0, 0, 0, 2, 2, 4, 3, 4, 1, 5, 11, 16, 17, 14, 21, 31, 26, 41, 34, 58, 73, 89, 101, 123, 263, 109, 97, 67, 37, 15, 8, 4, 2], [-0.02913333848118782, -0.02803838811814785, -0.02694343775510788, -0.02584848739206791, -0.02475353516638279, -0.02365858480334282, -0.02256363444030285, -0.02146868407726288, -0.020373733714222908, -0.019278783351182938, -0.018183832988142967, -0.017088880762457848, -0.015993930399417877, -0.014898980036377907, -0.013804029673337936, -0.012709079310297966, -0.011614128015935421, -0.01051917765289545, -0.00942422728985548, -0.00832927692681551, -0.007234326098114252, -0.006139375269412994, -0.005044424440711737, -0.003949474077671766, -0.0028545234818011522, -0.0017595727695152164, -0.0006646221154369414, 0.0004303285095375031, 0.0015252791345119476, 0.0026202297303825617, 0.0037151803262531757, 0.0048101311549544334, 0.005905081517994404, 0.0070000323466956615, 0.00809498317539692, 0.00918993353843689]]}}, "shape": [10, 128]}, "fc2.bias": {"id": "fc2.bias", "data_group_type": "PARAM", "type": "Parameter", "value": {"tensor": [0.04801769182085991, 0.04060383141040802, -0.024119479581713676, 0.02371959015727043, 0.05627121031284332, 0.035825226455926895, -0.046600013971328735, 0.02317946031689644, -0.08229085057973862, 0.027680542320013046], "grad": [0.00503602484241128, -0.0002943339932244271, 0.014803808182477951, -0.09686721116304398, 0.0007466271053999662, 0.0009614988230168819, 0.010648783296346664, -0.04107723385095596, 0.06537194550037384, 0.04067011550068855], "first_delta": [-0.0028389692306518555, 0.0005893409252166748, -0.0005768202245235443, -0.0016133729368448257, -0.0017094090580940247, 0.00043122097849845886, -0.002683281898498535, 0.0018104296177625656, -0.0032550394535064697, -0.00010917149484157562], "tensor__stats": {"min": -0.08229085057973862, "max": 0.05627121031284332, "mean": 0.010228720493614674, "variance": 0.00208324589766562, "nobs": 10, "histogram_bins": 5, "histogram": [[1, 1, 1, 3, 4], [-0.08229085057973862, -0.05457843840122223, -0.02686602622270584, 0.0008463859558105469, 0.028558798134326935, 0.05627121031284332]]}, "grad__stats": {"min": -0.09686721116304398, "max": 0.06537194550037384, "mean": 1.862645149230957e-09, "variance": 0.001928625046275556, "nobs": 10, "histogram_bins": 5, "histogram": [[1, 1, 1, 5, 2], [-0.09686721116304398, -0.06441938132047653, -0.03197154775261879, 0.00047628284664824605, 0.032924115657806396, 0.06537194550037384]]}, "first_delta__stats": {"min": -0.0032550394535064697, "max": 0.0018104296177625656, "mean": -0.0009955072309821844, "variance": 2.847255927918013e-06, "nobs": 10, "histogram_bins": 5, "histogram": [[3, 2, 1, 3, 1], [-0.0032550394535064697, -0.002241945592686534, -0.00122885184828192, -0.00021575801656581461, 0.0007973358151502907, 0.0018104296177625656]]}}, "shape": [10]}, "input.1": {"id": "input.1", "data_group_type": "INPUT", "type": "Tensor", "value": {"tensor": "NOT SERIALIZED, Too large 7840", "tensor__stats": {"min": -0.4242129623889923, "max": 2.821486711502075, "mean": -0.010160590521991253, "variance": 0.9721233248710632, "nobs": 7840, "histogram_bins": 88, "histogram": [[6380, 16, 8, 21, 19, 10, 14, 7, 14, 4, 24, 12, 10, 10, 12, 15, 12, 14, 8, 13, 7, 9, 3, 16, 2, 5, 8, 12, 10, 9, 5, 9, 10, 5, 9, 10, 5, 7, 13, 15, 14, 3, 8, 9, 9, 12, 9, 10, 15, 10, 6, 13, 9, 14, 6, 14, 8, 8, 18, 9, 5, 9, 9, 14, 9, 7, 12, 8, 9, 10, 6, 11, 12, 4, 6, 13, 8, 19, 12, 16, 19, 6, 19, 18, 17, 27, 79, 460], [-0.4242129623889923, -0.387330025434494, -0.35044705867767334, -0.31356412172317505, -0.27668115496635437, -0.23979820311069489, -0.2029152512550354, -0.16603229939937592, -0.12914936244487762, -0.09226640313863754, -0.055383455008268356, -0.01850050315260887, 0.018382446840405464, 0.0552653968334198, 0.09214834868907928, 0.12903130054473877, 0.16591425240039825, 0.20279720425605774, 0.23968015611171722, 0.2765631079673767, 0.313446044921875, 0.3503290116786957, 0.38721194863319397, 0.42409491539001465, 0.46097785234451294, 0.4978608191013336, 0.5347437858581543, 0.5716267228126526, 0.6085096597671509, 0.6453925967216492, 0.6822755336761475, 0.7191585302352905, 0.7560414671897888, 0.7929244041442871, 0.8298073410987854, 0.8666903376579285, 0.9035732746124268, 0.940456211566925, 0.9773391485214233, 1.0142221450805664, 1.05110502243042, 1.087988018989563, 1.124871015548706, 1.1617538928985596, 1.1986368894577026, 1.2355197668075562, 1.2724027633666992, 1.3092857599258423, 1.3461686372756958, 1.3830516338348389, 1.419934630393982, 1.4568175077438354, 1.4937005043029785, 1.530583381652832, 1.567466378211975, 1.6043493747711182, 1.6412322521209717, 1.6781152486801147, 1.7149982452392578, 1.7518811225891113, 1.7887641191482544, 1.825646996498108, 1.862529993057251, 1.899412989616394, 1.9362958669662476, 1.9731788635253906, 2.010061740875244, 2.0469448566436768, 2.0838277339935303, 2.120710611343384, 2.1575934886932373, 2.19447660446167, 2.2313594818115234, 2.268242359161377, 2.3051254749298096, 2.342008352279663, 2.3788912296295166, 2.415774345397949, 2.4526572227478027, 2.4895401000976562, 2.526423215866089, 2.5633060932159424, 2.600188970565796, 2.6370718479156494, 2.673954963684082, 2.7108378410339355, 2.747720718383789, 2.7846038341522217, 2.821486711502075]]}}, "shape": [10, 1, 28, 28]}, "output.1": {"id": "output.1", "data_group_type": "OUTPUT", "type": "Tensor", "value": {"tensor": [[-9.86812973022461, -7.4251813888549805, -10.134310722351074, -7.383443355560303, -6.796069145202637, -7.796037673950195, -10.71640682220459, -0.5299844145774841, -5.467605113983154, -0.9055885672569275], [-4.785892963409424, -8.375614166259766, -2.6621594429016113, -0.3008061945438385, -9.794127464294434, -2.100429058074951, -6.629110336303711, -10.879688262939453, -2.880707263946533, -6.496021270751953], [-9.413456916809082, -0.0118672801181674, -6.034253120422363, -5.875498294830322, -8.537060737609863, -8.099883079528809, -6.326752662658691, -7.54665470123291, -5.753319263458252, -7.551412105560303], [-10.824816703796387, -16.036542892456055, -8.834308624267578, -13.549558639526367, -9.328083992004395, -9.473776817321777, -0.00034171465085819364, -17.255084991455078, -13.54546070098877, -11.7799072265625], [-13.885763168334961, -8.114195823669434, -6.986752033233643, -9.252885818481445, -9.589977264404297, -11.208562850952148, -0.001965021248906851, -15.469803810119629, -7.6107354164123535, -9.630576133728027], [-4.005087375640869, -4.926805019378662, -4.742944240570068, -4.408023834228516, -9.112690925598145, -0.1740408092737198, -2.5354599952697754, -14.217364311218262, -3.3806304931640625, -11.451053619384766], [-7.511471271514893, -10.637913703918457, -0.021150050684809685, -4.767982006072998, -6.481544017791748, -10.098861694335938, -4.626346111297607, -9.683879852294922, -7.787586688995361, -10.84089469909668], [-3.815155267715454, -9.20837116241455, -2.1443064212799072, -1.322065830230713, -11.488996505737305, -3.166156530380249, -4.670276165008545, -14.054420471191406, -0.6114467978477478, -10.778173446655273], [-6.996927738189697, -7.946002960205078, -4.660883903503418, -8.227320671081543, -7.355001926422119, -5.5464982986450195, -0.023180104792118073, -12.780693054199219, -4.929051876068115, -8.854379653930664], [-8.867633819580078, -16.60100746154785, -0.04046403616666794, -9.851357460021973, -5.613677024841309, -10.24319839477539, -3.5002670288085938, -21.050981521606445, -5.20395040512085, -9.257868766784668]], "tensor__stats": {"min": -21.050981521606445, "max": -0.00034171465085819364, "mean": -7.396780014038086, "variance": 18.800321578979492, "nobs": 100, "histogram_bins": 10, "histogram": [[1, 1, 3, 6, 10, 20, 21, 16, 9, 13], [-21.050981521606445, -18.9459171295166, -16.840852737426758, -14.73578929901123, -12.630725860595703, -10.52566146850586, -8.420598030090332, -6.315533638000488, -4.210469722747803, -2.105405807495117, -0.00034171465085819364]]}}, "shape": [10, 10]}}, "graph": {"nodes": [{"data": {"id": "input.1", "label": "INPUT", "component_ids": ["input.1"]}}, {"data": {"id": 9, "label": "Conv", "component_ids": ["conv1.weight", "conv1.bias"]}}, {"data": {"id": 10, "label": "Relu", "component_ids": []}}, {"data": {"id": 11, "label": "Conv", "component_ids": ["conv2.weight", "conv2.bias"]}}, {"data": {"id": 12, "label": "Relu", "component_ids": []}}, {"data": {"id": 13, "label": "MaxPool", "component_ids": []}}, {"data": {"id": 14, "label": "Flatten", "component_ids": []}}, {"data": {"id": 15, "label": "Gemm", "component_ids": ["fc1.weight", "fc1.bias"]}}, {"data": {"id": 16, "label": "Relu", "component_ids": []}}, {"data": {"id": 17, "label": "Gemm", "component_ids": ["fc2.weight", "fc2.bias"]}}, {"data": {"id": 18, "label": "LogSoftmax", "component_ids": []}}, {"data": {"id": "output.1", "label": "OUTPUT", "component_ids": ["output.1"]}}], "edges": [{"data": {"id": "input.1_9", "source": "input.1", "target": 9}}, {"data": {"id": "9_10", "source": 9, "target": 10}}, {"data": {"id": "10_11", "source": 10, "target": 11}}, {"data": {"id": "11_12", "source": 11, "target": 12}}, {"data": {"id": "12_13", "source": 12, "target": 13}}, {"data": {"id": "13_14", "source": 13, "target": 14}}, {"data": {"id": "14_15", "source": 14, "target": 15}}, {"data": {"id": "15_16", "source": 15, "target": 16}}, {"data": {"id": "16_17", "source": 16, "target": 17}}, {"data": {"id": "17_18", "source": 17, "target": 18}}, {"data": {"id": "18_output.1", "source": "18", "target": "output.1"}}]}}