{"id": "0_700", "meta": {"time": 1638574453.3487298, "refresh_model_graph": false}, "step_info": {"epoch": 0, "iter": 700}, "additional_info": {"pred": {"type": "Tensor", "value": [[8], [7], [4], [0], [0], [2], [3], [1], [6], [9]]}, "loss": {"type": "Tensor", "value": 0.6353425979614258}, "class_label": {"type": "Tensor", "value": [8, 7, 4, 0, 0, 2, 9, 1, 6, 4]}, "test_acc": {"type": "float", "value": 89.25}}, "graph_id": [0, 0], "data": {"conv1.weight": {"id": "conv1.weight", "data_group_type": "PARAM", "type": "Parameter", "value": {"tensor": "NOT SERIALIZED, Too large 288", "grad": "NOT SERIALIZED, Too large 288", "first_delta": "NOT SERIALIZED, Too large 288", "tensor__stats": {"min": -0.3333263099193573, "max": 0.36657482385635376, "mean": 0.016648821532726288, "variance": 0.040138062089681625, "nobs": 288, "histogram_bins": 16, "histogram": [[24, 13, 24, 13, 12, 19, 12, 20, 16, 27, 15, 27, 21, 12, 19, 14], [-0.3333263099193573, -0.2895824909210205, -0.24583867192268372, -0.20209485292434692, -0.15835103392601013, -0.11460720747709274, -0.07086338102817535, -0.02711956389248371, 0.01662425696849823, 0.06036807596683502, 0.10411189496517181, 0.1478557139635086, 0.1915995478630066, 0.23534336686134338, 0.2790871858596802, 0.32283100485801697, 0.36657482385635376]]}, "grad__stats": {"min": -0.06279993057250977, "max": 0.03805968910455704, "mean": -0.0025666942819952965, "variance": 0.00026334714493714273, "nobs": 288, "histogram_bins": 16, "histogram": [[3, 3, 4, 2, 5, 4, 17, 15, 34, 81, 46, 29, 29, 11, 1, 4], [-0.06279993057250977, -0.05649620294570923, -0.05019247904419899, -0.04388875141739845, -0.037585027515888214, -0.03128129988908768, -0.02497757226228714, -0.018673846498131752, -0.012370120733976364, -0.006066394504159689, 0.00023733172565698624, 0.006541057955473661, 0.012844784185290337, 0.019148509949445724, 0.02545223757624626, 0.0317559614777565, 0.03805968910455704]]}, "first_delta__stats": {"min": -0.008919499814510345, "max": 0.05466306954622269, "mean": 0.014154295437037945, "variance": 0.00023365656670648605, "nobs": 288, "histogram_bins": 16, "histogram": [[16, 47, 31, 22, 16, 31, 16, 21, 28, 15, 13, 9, 12, 4, 5, 2], [-0.008919499814510345, -0.004945589229464531, -0.0009716786444187164, 0.003002231940627098, 0.006976142525672913, 0.010950053110718727, 0.014923963695764542, 0.018897874280810356, 0.02287178486585617, 0.026845695450901985, 0.0308196060359478, 0.03479351848363876, 0.03876742720603943, 0.042741335928440094, 0.04671524837613106, 0.05068916082382202, 0.05466306954622269]]}}, "shape": [32, 1, 3, 3]}, "conv1.bias": {"id": "conv1.bias", "data_group_type": "PARAM", "type": "Parameter", "value": {"tensor": [0.0544251911342144, 0.3447844982147217, -0.018012328073382378, -0.1500222235918045, -0.28643542528152466, 0.0006589752738364041, 0.1316758692264557, 0.026690391823649406, 0.09475260972976685, 0.1277957409620285, 0.1965627819299698, 0.30841776728630066, 0.056637298315763474, -0.23067955672740936, 0.03837138041853905, -0.108963742852211, 0.19960784912109375, 0.12723006308078766, 0.11704729497432709, 0.15891548991203308, -0.2504256069660187, -0.09546401351690292, 0.2228725701570511, -0.15460556745529175, 0.11985103040933609, 0.26471444964408875, 0.27946123480796814, -0.24464187026023865, 0.1581866592168808, -0.008886423893272877, 0.11150190979242325, 0.3139038383960724], "grad": [0.00928144808858633, 0.02058509737253189, 0.018560322001576424, 0.003652051789686084, 0.007792704273015261, 0.01611790806055069, 0.01467211451381445, 0.0020208172500133514, 0.018968386575579643, 0.008523075841367245, 0.02611878141760826, -0.006164702121168375, 0.0018187117530032992, 0.0053494274616241455, 0.0059982892125844955, -0.0004266363102942705, 0.031628504395484924, 0.01086578331887722, 0.00121200957801193, 0.03019072487950325, 0.0035275444388389587, 0.0054881637915968895, 0.015611774288117886, -0.0014340345514938235, 0.008409279398620129, -0.010325212962925434, 0.013490637764334679, 0.0009579971083439887, 0.006227109581232071, 0.0005589636275544763, 0.005945725832134485, 0.0025686933659017086], "first_delta": [0.018337082117795944, 0.017449647188186646, 0.004950679838657379, 0.02362506091594696, 0.030521750450134277, -0.001989974407479167, 0.009416766464710236, 0.01789914444088936, 0.004181280732154846, 0.008175253868103027, 0.00812654197216034, 0.02025863528251648, 0.030677011236548424, 0.011078953742980957, 0.006538841873407364, 0.006056457757949829, 0.008588910102844238, 0.007270984351634979, 0.001594051718711853, 0.0062103718519210815, 0.03802487254142761, 0.020209968090057373, 0.011139854788780212, 0.0030946582555770874, 0.00495254248380661, 0.03009641170501709, 0.030785173177719116, 0.005244731903076172, 0.015673860907554626, 0.004546039737761021, 0.013986483216285706, 0.013259261846542358], "tensor__stats": {"min": -0.28643542528152466, "max": 0.3447844982147217, "mean": 0.05956025421619415, "variance": 0.03093309886753559, "nobs": 32, "histogram_bins": 5, "histogram": [[4, 4, 7, 11, 6], [-0.28643542528152466, -0.16019144654273987, -0.03394745662808418, 0.0922965258359909, 0.2185405194759369, 0.3447844982147217]]}, "grad__stats": {"min": -0.010325212962925434, "max": 0.031628504395484924, "mean": 0.008680983446538448, "variance": 9.605824743630365e-05, "nobs": 32, "histogram_bins": 5, "histogram": [[2, 15, 7, 5, 3], [-0.010325212962925434, -0.0019344694446772337, 0.006456274073570967, 0.01484701782464981, 0.023237761110067368, 0.031628504395484924]]}, "first_delta__stats": {"min": -0.001989974407479167, "max": 0.03802487254142761, "mean": 0.013436916284263134, "variance": 0.00010301503061782569, "nobs": 32, "histogram_bins": 5, "histogram": [[8, 12, 6, 1, 5], [-0.001989974407479167, 0.006012994796037674, 0.014015964232385159, 0.022018933668732643, 0.030021904036402702, 0.03802487254142761]]}}, "shape": [32]}, "conv2.weight": {"id": "conv2.weight", "data_group_type": "PARAM", "type": "Parameter", "value": {"tensor": "NOT SERIALIZED, Too large 18432", "grad": "NOT SERIALIZED, Too large 18432", "first_delta": "NOT SERIALIZED, Too large 18432", "tensor__stats": {"min": -0.06575855612754822, "max": 0.08326955139636993, "mean": 0.004078686702996492, "variance": 0.0012076360872015357, "nobs": 18432, "histogram_bins": 100, "histogram": [[1, 3, 16, 28, 50, 102, 138, 148, 176, 182, 204, 206, 206, 213, 213, 206, 233, 236, 222, 226, 225, 220, 249, 248, 229, 241, 239, 226, 229, 204, 234, 207, 201, 265, 207, 233, 210, 284, 239, 210, 234, 248, 223, 233, 221, 255, 238, 223, 214, 200, 241, 227, 228, 242, 218, 234, 243, 232, 246, 230, 264, 224, 243, 250, 235, 192, 234, 259, 213, 249, 216, 256, 233, 231, 254, 201, 211, 224, 202, 243, 237, 204, 243, 177, 146, 128, 91, 68, 69, 42, 47, 37, 28, 15, 16, 4, 3, 2, 0, 2], [-0.06575855612754822, -0.06426827609539032, -0.06277799606323242, -0.061287712305784225, -0.05979743227362633, -0.05830715224146843, -0.05681686848402023, -0.055326588451862335, -0.05383630841970444, -0.05234602466225624, -0.05085574463009834, -0.049365464597940445, -0.04787518456578255, -0.04638490080833435, -0.04489462077617645, -0.043404340744018555, -0.04191406071186066, -0.04042377695441246, -0.03893349692225456, -0.037443216890096664, -0.03595293313264847, -0.03446265310049057, -0.03297237306833267, -0.031482093036174774, -0.029991811141371727, -0.02850152924656868, -0.027011247351765633, -0.025520967319607735, -0.024030685424804688, -0.02254040539264679, -0.021050123497843742, -0.019559843465685844, -0.018069561570882797, -0.0165792815387249, -0.015088999643921852, -0.01359871868044138, -0.012108437716960907, -0.010618156753480434, -0.009127874858677387, -0.007637594360858202, -0.006147312931716442, -0.0046570319682359695, -0.003166751004755497, -0.0016764699248597026, -0.00018618881586007774, 0.0013040922349318862, 0.0027943733148276806, 0.004284654278308153, 0.005774935707449913, 0.007265216670930386, 0.008755497634410858, 0.01024577859789133, 0.011736059561371803, 0.013226340524852276, 0.014716621488332748, 0.016206903383135796, 0.017697183415293694, 0.01918746531009674, 0.02067774534225464, 0.022168027237057686, 0.023658309131860733, 0.02514858916401863, 0.026638871058821678, 0.028129151090979576, 0.029619432985782623, 0.03110971301794052, 0.03259999305009842, 0.034090276807546616, 0.035580556839704514, 0.03707083687186241, 0.03856112062931061, 0.040051400661468506, 0.041541680693626404, 0.0430319607257843, 0.0445222444832325, 0.046012524515390396, 0.047502804547548294, 0.04899308830499649, 0.05048336833715439, 0.051973648369312286, 0.053463928401470184, 0.05495421215891838, 0.05644449219107628, 0.05793477222323418, 0.05942505598068237, 0.06091533601284027, 0.06240561604499817, 0.06389589607715607, 0.06538617610931396, 0.06687645614147186, 0.06836674362421036, 0.06985702365636826, 0.07134730368852615, 0.07283758372068405, 0.07432786375284195, 0.07581814378499985, 0.07730842381715775, 0.07879871129989624, 0.08028899133205414, 0.08177927136421204, 0.08326955139636993]]}, "grad__stats": {"min": -0.04289919137954712, "max": 0.03237041085958481, "mean": 0.0011548426700755954, "variance": 4.376281503937207e-05, "nobs": 18432, "histogram_bins": 100, "histogram": [[2, 1, 1, 2, 2, 3, 5, 2, 0, 1, 3, 3, 0, 3, 1, 3, 3, 5, 2, 3, 2, 4, 6, 7, 12, 7, 14, 13, 11, 20, 28, 18, 26, 35, 44, 36, 50, 63, 55, 76, 60, 110, 87, 98, 135, 155, 171, 179, 228, 221, 307, 346, 438, 495, 727, 1008, 1608, 1980, 1601, 1180, 926, 797, 692, 616, 538, 480, 376, 330, 312, 215, 219, 179, 160, 132, 110, 96, 81, 78, 60, 51, 43, 40, 37, 25, 19, 22, 13, 15, 10, 5, 8, 6, 8, 8, 7, 6, 2, 2, 1, 1], [-0.04289919137954712, -0.04214649647474289, -0.04139379784464836, -0.04064110293984413, -0.0398884080350399, -0.039135709404945374, -0.038383014500141144, -0.037630319595336914, -0.036877624690532684, -0.036124926060438156, -0.035372231155633926, -0.0346195362508297, -0.03386683762073517, -0.03311414271593094, -0.03236144781112671, -0.03160875290632248, -0.03085605427622795, -0.03010335937142372, -0.029350662603974342, -0.028597967699170113, -0.027845270931720734, -0.027092574164271355, -0.026339879259467125, -0.025587182492017746, -0.024834487587213516, -0.024081790819764137, -0.02332909405231476, -0.02257639914751053, -0.02182370238006115, -0.02107100747525692, -0.02031831070780754, -0.019565613940358162, -0.018812919035553932, -0.018060222268104553, -0.017307527363300323, -0.016554830595850945, -0.015802133828401566, -0.015049438923597336, -0.014296742156147957, -0.013544046320021152, -0.012791350483894348, -0.012038654647767544, -0.01128595881164074, -0.01053326204419136, -0.009780566208064556, -0.009027870371937752, -0.008275174535810947, -0.007522478234022856, -0.006769782397896051, -0.00601708609610796, -0.005264390259981155, -0.004511694423854351, -0.0037589981220662594, -0.003006302285939455, -0.002253606216982007, -0.001500910148024559, -0.0007482141372747719, 4.481896667130059e-06, 0.0007571779424324632, 0.0015098738949745893, 0.0022625699639320374, 0.0030152660328894854, 0.0037679621018469334, 0.004520657937973738, 0.005273354239761829, 0.006026050075888634, 0.006778745912015438, 0.00753144221380353, 0.008284138515591621, 0.009036834351718426, 0.00978953018784523, 0.010542226023972034, 0.011294921860098839, 0.012047618627548218, 0.012800314463675022, 0.013553010299801826, 0.01430570613592863, 0.015058401972055435, 0.015811098739504814, 0.016563793644309044, 0.017316490411758423, 0.018069187179207802, 0.01882188208401203, 0.01957457885146141, 0.02032727375626564, 0.02107997052371502, 0.021832667291164398, 0.022585362195968628, 0.023338058963418007, 0.024090753868222237, 0.024843450635671616, 0.025596147403120995, 0.026348842307925224, 0.027101539075374603, 0.027854233980178833, 0.028606930747628212, 0.02935962751507759, 0.03011232241988182, 0.0308650191873312, 0.03161771595478058, 0.03237041085958481]]}, "first_delta__stats": {"min": -0.008403629064559937, "max": 0.03011089190840721, "mean": 0.003980163484811783, "variance": 3.0132196116028354e-05, "nobs": 18432, "histogram_bins": 100, "histogram": [[6, 3, 10, 11, 18, 26, 52, 70, 89, 120, 103, 145, 157, 200, 217, 267, 282, 336, 452, 568, 676, 841, 868, 700, 671, 638, 593, 545, 566, 489, 564, 476, 459, 449, 394, 377, 392, 326, 300, 294, 270, 252, 288, 240, 253, 242, 222, 229, 183, 184, 173, 160, 150, 169, 151, 146, 138, 124, 101, 104, 96, 95, 86, 77, 61, 62, 39, 33, 30, 35, 41, 31, 32, 20, 22, 19, 17, 14, 10, 14, 7, 10, 9, 6, 6, 2, 0, 8, 4, 5, 5, 1, 2, 1, 0, 1, 0, 1, 0, 1], [-0.008403629064559937, -0.00801848340779543, -0.0076333386823534966, -0.0072481934912502766, -0.006863048300147057, -0.006477903109043837, -0.006092757917940617, -0.005707612726837397, -0.005322467535734177, -0.004937322344630957, -0.004552177153527737, -0.004167031962424517, -0.003781886538490653, -0.003396741347387433, -0.003011596156284213, -0.002626450965180993, -0.002241305774077773, -0.0018561604665592313, -0.0014710152754560113, -0.0010858700843527913, -0.0007007248932495713, -0.0003155796730425209, 6.956554716452956e-05, 0.00045471076737158, 0.0008398559875786304, 0.0012250011786818504, 0.0016101463697850704, 0.0019952915608882904, 0.0023804367519915104, 0.0027655819430947304, 0.0031507271341979504, 0.0035358723253011703, 0.00392101751640439, 0.00430616270750761, 0.00469130789861083, 0.00507645308971405, 0.00546159828081727, 0.00584674347192049, 0.0062318891286849976, 0.0066170343197882175, 0.0070021795108914375, 0.0073873247019946575, 0.0077724698930978775, 0.00815761461853981, 0.008542760275304317, 0.00892790500074625, 0.009313050657510757, 0.00969819538295269, 0.010083341039717197, 0.01046848576515913, 0.010853631421923637, 0.011238777078688145, 0.011623921804130077, 0.012009067460894585, 0.012394212186336517, 0.012779357843101025, 0.013164502568542957, 0.013549648225307465, 0.013934792950749397, 0.014319938607513905, 0.014705083332955837, 0.015090228989720345, 0.015475373715162277, 0.01586051844060421, 0.016245665028691292, 0.016630809754133224, 0.017015954479575157, 0.01740109920501709, 0.017786245793104172, 0.018171390518546104, 0.018556535243988037, 0.01894167996942997, 0.01932682655751705, 0.019711971282958984, 0.020097116008400917, 0.02048226073384285, 0.02086740732192993, 0.021252552047371864, 0.021637696772813797, 0.02202284336090088, 0.02240798808634281, 0.022793132811784744, 0.023178277537226677, 0.02356342412531376, 0.02394856885075569, 0.024333713576197624, 0.024718858301639557, 0.02510400488972664, 0.02548914961516857, 0.025874294340610504, 0.026259439066052437, 0.02664458565413952, 0.02702973037958145, 0.027414875105023384, 0.027800019830465317, 0.0281851664185524, 0.02857031114399433, 0.028955455869436264, 0.029340600594878197, 0.02972574718296528, 0.03011089190840721]]}}, "shape": [64, 32, 3, 3]}, "conv2.bias": {"id": "conv2.bias", "data_group_type": "PARAM", "type": "Parameter", "value": {"tensor": [-0.03535011410713196, 0.05993029847741127, -0.0040056779980659485, 0.003772572847083211, -0.004305987618863583, -0.007022518664598465, 0.0300216693431139, 0.011104979552328587, -0.02134355902671814, 0.00937460083514452, 0.0046568638645112514, -0.035582926124334335, 0.028139207512140274, 0.042559921741485596, -0.020527029410004616, -0.04511592164635658, 0.0035191401839256287, -0.04790261387825012, 0.05920064076781273, -0.04512394592165947, 0.05009503662586212, -0.025701284408569336, -0.0009033981477841735, -0.0007375853601843119, 0.0452558770775795, 0.03740708529949188, -0.050485122948884964, -0.03732505440711975, 0.05920066311955452, 0.06926487386226654, 0.009292524307966232, -0.02256525680422783, 0.007405002135783434, 0.053023308515548706, -0.04486566409468651, -0.03485342860221863, 0.005845316685736179, 0.02967553772032261, 0.034705232828855515, -0.01946292258799076, -0.019333546981215477, 0.05897810310125351, -0.040721770375967026, -0.022145546972751617, 0.045936793088912964, 0.0386810265481472, -0.026782279834151268, 0.009813725017011166, -0.02725929580628872, -0.0104404641315341, 0.04758196324110031, -0.040871404111385345, 0.020369624719023705, -0.033306848257780075, 0.009396086446940899, 0.05365697667002678, 0.06075694411993027, 0.05366557091474533, -0.0340818352997303, -0.01487016398459673, -0.007658795453608036, 0.04270302876830101, 0.02509153261780739, 0.05088980123400688], "grad": [0.01373524684458971, 0.01924869976937771, -0.0020008727442473173, 0.007856900803744793, 0.011618434451520443, -0.013886717148125172, 0.0062892320565879345, 0.011816595681011677, -0.003125122981145978, -0.005597843322902918, -0.0063865757547318935, 0.009355699643492699, -0.005825814791023731, 0.017610523849725723, 0.009897146373987198, 0.015140081755816936, 0.01621275022625923, 0.005049092695116997, 0.01802181825041771, 0.0030280572827905416, -0.007887370884418488, 0.01888641156256199, 0.017712054774165154, 0.006995873525738716, -0.014690236188471317, 0.029649583622813225, 0.004699431359767914, 0.014376211911439896, -0.0035517767537385225, 0.0013924374943599105, 0.020893791690468788, 0.033709507435560226, -0.0024555367417633533, -0.014137402176856995, -0.002680410398170352, -0.010120296850800514, 0.023003824055194855, 0.009336228482425213, -0.0009064648766070604, 0.01024844404309988, 0.006498177535831928, -0.003083301242440939, -0.0003150911652483046, 0.0037519815377891064, -7.514737080782652e-05, -0.0011907408479601145, -0.0026565748266875744, -0.004752924665808678, 0.011845499277114868, -0.003396383486688137, 0.00990395899862051, -0.010866118595004082, 0.012345496565103531, 0.016431106254458427, 0.006539190653711557, 0.002090075518935919, -0.006840853951871395, 0.009274980053305626, 0.011303924024105072, 0.017752325162291527, 0.00954404566437006, 0.009039534255862236, -4.6379747800529e-05, 0.0064872149378061295], "first_delta": [0.006464730948209763, 0.0042167529463768005, 0.0018682018853724003, 0.0013129038270562887, 0.0033096601255238056, 0.004750838503241539, 0.013967316597700119, 0.0033347513526678085, 0.006963761523365974, 0.006904345937073231, 0.0025379520375281572, 0.004960045218467712, 0.003374231979250908, 0.007875390350818634, 0.0019071828573942184, 0.009036056697368622, 0.003135442268103361, 0.010457862168550491, 0.0027819350361824036, 0.00532614067196846, 0.007532142102718353, 0.003010272979736328, 0.0021319896914064884, 0.004369453527033329, 0.006070967763662338, 0.004555176943540573, 0.0030450262129306793, 0.006123680621385574, 0.004384789615869522, 0.013100791722536087, 0.010791877284646034, 0.0049099791795015335, 0.003208897076547146, 0.0027019865810871124, 0.005952939391136169, 0.007492952048778534, 0.003433666890487075, 0.005496663972735405, 0.008351096883416176, 0.0042342208325862885, 0.004959911108016968, 0.002575911581516266, 0.011416338384151459, 0.012738417834043503, 0.003342781215906143, 0.0074665360152721405, 0.015154531225562096, 0.0032546427100896835, 0.004127321764826775, 0.008665882982313633, 0.005027793347835541, 0.009898211807012558, 0.0026184897869825363, 0.001465439796447754, 0.005359647795557976, 0.004972398281097412, 0.005524847656488419, 0.008591264486312866, 0.005577288568019867, 0.0045737652108073235, 0.007899130694568157, 0.006432194262742996, 0.002408653497695923, 0.014623280614614487], "tensor__stats": {"min": -0.050485122948884964, "max": 0.06926487386226654, "mean": 0.006098742596805096, "variance": 0.0012560025788843632, "nobs": 64, "histogram_bins": 8, "histogram": [[9, 10, 7, 11, 4, 7, 10, 6], [-0.050485122948884964, -0.03551637381315231, -0.020547624677419662, -0.00557887414470315, 0.009389875456690788, 0.02435862459242344, 0.03932737559080124, 0.05429612472653389, 0.06926487386226654]]}, "grad__stats": {"min": -0.014690236188471317, "max": 0.033709507435560226, "mean": 0.00565805658698082, "variance": 0.00011113526852568612, "nobs": 64, "histogram_bins": 8, "histogram": [[5, 12, 10, 13, 12, 9, 1, 2], [-0.014690236188471317, -0.008640267886221409, -0.0025903002824634314, 0.0034596677869558334, 0.009509636089205742, 0.015559603460133076, 0.02160957083106041, 0.027659539133310318, 0.033709507435560226]]}, "first_delta__stats": {"min": 0.0013129038270562887, "max": 0.015154531225562096, "mean": 0.005844668485224247, "variance": 1.1304622603347525e-05, "nobs": 64, "histogram_bins": 8, "histogram": [[12, 17, 15, 7, 5, 3, 2, 3], [0.0013129038270562887, 0.003043107222765684, 0.004773310851305723, 0.006503514014184475, 0.008233717642724514, 0.009963921271264553, 0.011694123968482018, 0.013424327597022057, 0.015154531225562096]]}}, "shape": [64]}, "fc1.weight": {"id": "fc1.weight", "data_group_type": "PARAM", "type": "Parameter", "value": {"tensor": "NOT SERIALIZED, Too large 1179648", "grad": "NOT SERIALIZED, Too large 1179648", "first_delta": "NOT SERIALIZED, Too large 1179648", "tensor__stats": {"min": -0.016603929921984673, "max": 0.01787591725587845, "mean": 0.00023631694784853607, "variance": 3.7475045246537775e-05, "nobs": 1179648, "histogram_bins": 100, "histogram": [[1, 0, 2, 3, 10, 18, 41, 58, 106, 190, 265, 413, 614, 941, 1476, 2097, 3374, 6020, 11179, 13541, 15362, 16322, 17381, 18186, 18471, 18827, 19051, 19423, 19107, 19295, 19529, 19515, 19815, 19532, 19665, 19394, 19598, 19588, 19594, 19530, 19535, 19685, 19704, 19544, 19555, 19170, 19421, 19577, 19453, 19653, 19614, 19549, 19449, 19355, 19622, 19289, 19090, 19666, 19677, 19252, 19769, 19434, 19752, 19583, 19574, 19466, 19389, 19415, 19378, 19385, 19330, 19226, 18999, 18501, 18144, 17681, 16650, 15290, 10154, 6770, 4892, 3475, 2446, 1754, 1177, 889, 622, 392, 259, 173, 108, 74, 44, 25, 15, 9, 4, 2, 3, 1], [-0.016603929921984673, -0.01625913195312023, -0.01591433212161064, -0.0155695341527462, -0.01522473618388176, -0.014879937283694744, -0.014535139314830303, -0.014190340414643288, -0.013845542445778847, -0.013500743545591831, -0.01315594557672739, -0.012811146676540375, -0.012466348707675934, -0.012121549807488918, -0.011776750907301903, -0.011431952938437462, -0.011087154038250446, -0.010742356069386005, -0.01039755716919899, -0.010052759200334549, -0.009707960300147533, -0.009363162331283092, -0.009018363431096077, -0.008673565462231636, -0.00832876656204462, -0.007983967661857605, -0.007639169692993164, -0.007294371258467436, -0.006949572823941708, -0.006604774389415979, -0.006259975954890251, -0.005915177520364523, -0.005570378620177507, -0.005225580185651779, -0.004880781751126051, -0.004535983316600323, -0.0041911848820745945, -0.0038463864475488663, -0.003501588013023138, -0.00315678957849741, -0.0028119911439716816, -0.0024671924766153097, -0.0021223940420895815, -0.0017775956075638533, -0.001432797173038125, -0.0010879987385123968, -0.0007432002457790077, -0.00039840175304561853, -5.360327486414462e-05, 0.0002911952033173293, 0.000635993666946888, 0.0009807921014726162, 0.0013255906524136662, 0.0016703890869393945, 0.0020151876378804445, 0.0023599860724061728, 0.002704784506931901, 0.003049582941457629, 0.0033943813759833574, 0.0037391798105090857, 0.0040839784778654575, 0.004428776912391186, 0.004773575346916914, 0.005118373781442642, 0.0054631722159683704, 0.005807970650494099, 0.006152769085019827, 0.006497567519545555, 0.006842365954071283, 0.007187164854258299, 0.007531963288784027, 0.007876761257648468, 0.008221560157835484, 0.008566358126699924, 0.00891115702688694, 0.009255954995751381, 0.009600753895938396, 0.009945552796125412, 0.010290350764989853, 0.010635149665176868, 0.01097994763404131, 0.011324746534228325, 0.011669544503092766, 0.012014343403279781, 0.012359141372144222, 0.012703940272331238, 0.013048738241195679, 0.013393537141382694, 0.01373833604156971, 0.01408313401043415, 0.014427932910621166, 0.014772730879485607, 0.015117529779672623, 0.015462327748537064, 0.015807125717401505, 0.016151925548911095, 0.016496723517775536, 0.016841521486639977, 0.017186319455504417, 0.017531119287014008, 0.01787591725587845]]}, "grad__stats": {"min": -0.11597497761249542, "max": 0.13298651576042175, "mean": -5.189302100916393e-05, "variance": 0.00011176976113347337, "nobs": 1179648, "histogram_bins": 100, "histogram": [[4, 7, 10, 12, 9, 24, 28, 23, 35, 42, 38, 63, 68, 91, 100, 119, 166, 203, 262, 301, 352, 426, 482, 559, 673, 845, 924, 1092, 1335, 1497, 1707, 1973, 2303, 2675, 3149, 3632, 4281, 4816, 5764, 7095, 8741, 11687, 16033, 25082, 47266, 109105, 616674, 133013, 50285, 26882, 17707, 12868, 9896, 7958, 6462, 5352, 4217, 3475, 2866, 2529, 2099, 1771, 1523, 1291, 1173, 914, 746, 650, 592, 519, 412, 384, 302, 268, 215, 189, 158, 164, 146, 126, 107, 96, 94, 72, 65, 61, 40, 39, 30, 34, 20, 21, 15, 11, 2, 8, 3, 4, 0, 1], [-0.11597497761249542, -0.11348536610603333, -0.11099574714899063, -0.10850613564252853, -0.10601651668548584, -0.10352690517902374, -0.10103728622198105, -0.09854767471551895, -0.09605805575847626, -0.09356844425201416, -0.09107882529497147, -0.08858921378850937, -0.08609959483146667, -0.08360998332500458, -0.08112037181854248, -0.07863075286149979, -0.07614114135503769, -0.073651522397995, -0.0711619108915329, -0.0686722919344902, -0.0661826804280281, -0.06369306147098541, -0.061203449964523315, -0.05871383473277092, -0.056224219501018524, -0.05373460426926613, -0.05124498903751373, -0.04875537380576134, -0.04626575857400894, -0.043776143342256546, -0.04128652811050415, -0.038796912878751755, -0.03630730137228966, -0.03381768614053726, -0.031328070908784866, -0.02883845567703247, -0.026348840445280075, -0.02385922521352768, -0.021369609981775284, -0.018879994750022888, -0.016390379518270493, -0.013900765217840672, -0.011411149986088276, -0.008921535685658455, -0.006431920453906059, -0.003942305687814951, -0.001452690688893199, 0.001036924310028553, 0.003526539308950305, 0.006016154307872057, 0.008505769073963165, 0.010995384305715561, 0.013484998606145382, 0.015974614769220352, 0.0184642281383276, 0.020953843370079994, 0.02344345860183239, 0.025933073833584785, 0.02842268906533718, 0.030912304297089577, 0.03340191766619682, 0.03589153289794922, 0.038381148129701614, 0.04087076336145401, 0.043360378593206406, 0.0458499938249588, 0.0483396090567112, 0.05082922428846359, 0.05331883952021599, 0.055808451026678085, 0.05829806625843048, 0.06078768149018288, 0.06327729672193527, 0.06576691567897797, 0.06825652718544006, 0.07074613869190216, 0.07323575764894485, 0.07572536915540695, 0.07821498811244965, 0.08070459961891174, 0.08319421857595444, 0.08568383008241653, 0.08817344903945923, 0.09066306054592133, 0.09315267950296402, 0.09564229100942612, 0.09813190996646881, 0.10062152147293091, 0.103111132979393, 0.1056007519364357, 0.1080903634428978, 0.11057998239994049, 0.11306959390640259, 0.11555921286344528, 0.11804882436990738, 0.12053844332695007, 0.12302805483341217, 0.12551766633987427, 0.12800729274749756, 0.13049690425395966, 0.13298651576042175]]}, "first_delta__stats": {"min": -0.0076374756172299385, "max": 0.008342485874891281, "mean": 0.00023845081159379333, "variance": 1.3065188113614568e-06, "nobs": 1179648, "histogram_bins": 100, "histogram": [[1, 3, 2, 4, 3, 3, 5, 15, 11, 13, 13, 25, 29, 31, 47, 73, 84, 130, 192, 249, 301, 401, 495, 624, 791, 975, 1129, 1437, 1732, 2117, 2553, 3151, 3759, 4674, 5650, 6826, 8321, 9776, 11749, 14056, 16921, 20271, 24584, 29801, 38334, 53419, 92447, 236013, 92072, 70335, 60572, 52481, 46010, 39291, 33470, 28545, 24668, 20837, 18044, 15070, 13054, 11055, 9432, 7923, 6931, 5997, 5019, 4263, 3615, 3095, 2548, 2050, 1794, 1560, 1266, 1038, 835, 710, 567, 495, 362, 328, 205, 191, 148, 139, 108, 88, 62, 39, 29, 22, 16, 5, 5, 10, 2, 4, 0, 3], [-0.0076374756172299385, -0.0074776760302484035, -0.007317876443266869, -0.007158076856285334, -0.006998277269303799, -0.006838477682322264, -0.006678678095340729, -0.006518878508359194, -0.006359078921377659, -0.006199278868734837, -0.006039479281753302, -0.005879679694771767, -0.005719880107790232, -0.005560080520808697, -0.005400280933827162, -0.005240481346845627, -0.005080681759864092, -0.004920882172882557, -0.004761082585901022, -0.004601282998919487, -0.004441483411937952, -0.004281683824956417, -0.004121884237974882, -0.003962084650993347, -0.0038022848311811686, -0.0036424852441996336, -0.0034826856572180986, -0.0033228860702365637, -0.0031630864832550287, -0.0030032868962734938, -0.002843487076461315, -0.00268368748947978, -0.0025238879024982452, -0.0023640883155167103, -0.0022042887285351753, -0.0020444891415536404, -0.0018846894381567836, -0.0017248898511752486, -0.0015650902641937137, -0.0014052906772121787, -0.001245490973815322, -0.001085691386833787, -0.000925891799852252, -0.0007660921546630561, -0.0006062925676815212, -0.00044649295159615576, -0.00028669333551079035, -0.00012689371942542493, 3.290590029791929e-05, 0.0001927055127453059, 0.0003525051288306713, 0.0005123047158122063, 0.0006721043610014021, 0.0008319039479829371, 0.000991703593172133, 0.001151503180153668, 0.0013113027671352029, 0.0014711024705320597, 0.0016309020575135946, 0.0017907016444951296, 0.0019505012314766645, 0.0021103008184581995, 0.0022701004054397345, 0.002429900225251913, 0.002589699812233448, 0.002749499399214983, 0.002909298986196518, 0.003069098573178053, 0.003228898160159588, 0.003388697747141123, 0.0035484973341226578, 0.0037082971539348364, 0.0038680967409163713, 0.004027896095067263, 0.004187695682048798, 0.00434749573469162, 0.004507295321673155, 0.00466709490865469, 0.004826894495636225, 0.00498669408261776, 0.005146493669599295, 0.00530629325658083, 0.005466092843562365, 0.0056258924305438995, 0.0057856920175254345, 0.0059454916045069695, 0.006105291191488504, 0.006265090778470039, 0.006424890365451574, 0.006584689952433109, 0.006744489539414644, 0.006904289126396179, 0.0070640891790390015, 0.007223888766020536, 0.007383688353002071, 0.007543487939983606, 0.007703287526965141, 0.007863086648285389, 0.008022886700928211, 0.008182685822248459, 0.008342485874891281]]}}, "shape": [128, 9216]}, "fc1.bias": {"id": "fc1.bias", "data_group_type": "PARAM", "type": "Parameter", "value": {"tensor": [-0.005335771944373846, 0.01049511693418026, -0.0027229664847254753, -0.0018401006236672401, 3.402423089937656e-06, 0.004556788131594658, 0.00014638097491115332, -0.005142395384609699, 0.0004738432471640408, 0.0010959341889247298, 0.006330424454063177, 0.004054873716086149, 0.009633342735469341, 0.007823921740055084, -0.0012988047674298286, -0.004087627865374088, 0.0077634225599467754, 0.008254346437752247, -0.005946106277406216, -0.0027431570924818516, -0.009940228424966335, 0.002937373472377658, 0.00260938610881567, -0.0019776246044784784, 0.0036771215964108706, -0.0018767793662846088, -0.005436027888208628, -0.009003104642033577, 0.00785711221396923, 0.0009336184593848884, -0.009365820325911045, 0.011805234476923943, 0.0003280420496594161, -0.003937838599085808, 0.002616585697978735, -0.00993435364216566, -0.00016153593605849892, -0.001575747155584395, -0.0051803202368319035, 0.010899579152464867, 0.0014770032139495015, -0.005798385012894869, -0.007728098426014185, 0.008504826575517654, -0.004858853295445442, -0.0035188081674277782, 0.007598914671689272, 0.009935085661709309, 0.004317509010434151, -0.0011144932359457016, 0.003966865595430136, 0.0016903785290196538, 0.008908480405807495, -0.007418482564389706, 0.002056826138868928, -0.0004516910994425416, -0.008659143932163715, 0.008470065891742706, 0.0009229368879459798, 0.0004626962181646377, 0.00020108121680095792, 0.0016006578225642443, -0.005018065683543682, 0.00477941008284688, 0.0062648821622133255, -0.008329623378813267, 0.00799251627177, 0.010064469650387764, -0.005457197781652212, 0.007943140342831612, 0.006858127191662788, 0.007227878086268902, 0.0032139229588210583, -0.008675230666995049, 0.006819636560976505, 0.007897444069385529, -0.0003267377323936671, -0.007323582656681538, -0.0004633691278286278, -0.007644928991794586, 0.0032055573537945747, -0.0037074610590934753, 0.004811192862689495, 8.395977056352422e-05, -0.007599367760121822, -0.006371939089149237, 0.009830702096223831, 0.001841690856963396, 0.0027324261609464884, 0.005092927720397711, 0.0022160133812576532, 0.0034341777209192514, -0.0065008969977498055, 0.0072642359882593155, -0.003523023333400488, 0.0019356186967343092, -0.0017101278062909842, -0.009891942143440247, -0.0012771255569532514, -0.0036314765457063913, -0.002899773884564638, 0.006394329015165567, -0.005942243151366711, -0.0013878580648452044, -0.0004337915452197194, -0.0008882099064067006, 4.842368798563257e-05, -0.0024457196705043316, -0.0031264391727745533, -0.005775248631834984, 0.007184070069342852, 0.004819176159799099, -0.008186140097677708, -0.010032830759882927, -0.0028434291016310453, 0.01023699901998043, -0.003385077230632305, -0.0025248785968869925, -0.009894860908389091, 0.004242108203470707, 0.005368642508983612, 0.004726258106529713, -0.0024765373673290014, -0.007617827504873276, -0.006221282295882702, 0.011230051517486572, -0.0027557602152228355, -0.0031868768855929375], "grad": [-0.008901353925466537, -0.0048026456497609615, -0.0201412346214056, 0.005222823470830917, -0.004755402449518442, 0.013589496724307537, -0.0006791256018914282, -0.01755717024207115, 0.007319879252463579, 0.0, 0.004300395026803017, 0.0020277132280170918, 0.0, 0.005762782413512468, -0.009898759424686432, -0.0057381330989301205, 0.009786561131477356, 0.010054728016257286, 0.0025221537798643112, -0.0025910749100148678, 0.000192795749171637, 0.0, -0.0164725910872221, 0.011217782273888588, -0.012383684515953064, 0.005537235178053379, 0.005440986715257168, -0.015904022380709648, -0.003434994723647833, -0.0025232986081391573, 0.009107849560678005, -0.006505489349365234, 6.373909127432853e-05, -0.006047435104846954, -0.0016711726784706116, 0.0, 0.004106601234525442, 0.009824140928685665, 0.023393433541059494, -0.01217937096953392, 0.018178371712565422, -0.004785733297467232, -0.010079153813421726, 0.005269709508866072, -0.01260037999600172, -0.012206118553876877, 0.00036612350959330797, 0.013637842610478401, 0.012724872678518295, -0.00021567195653915405, 0.0, 0.010706862434744835, -0.00022633373737335205, -0.01078807283192873, 0.00855671800673008, -0.002571410033851862, -0.010266710072755814, 0.0, 0.008476024493575096, -0.0022311066277325153, 0.01683957874774933, 0.004157151561230421, -0.009777946397662163, -0.017377257347106934, 0.0, -0.008747023530304432, -0.00037946272641420364, 0.005608738400042057, 0.0, 0.015875108540058136, 0.003926745615899563, 0.0, -0.011638373136520386, -0.00029322924092411995, -0.011096276342868805, -0.0009174281731247902, -0.015186984091997147, -0.013509798794984818, -0.0032523679547011852, 0.022894177585840225, -0.020727967843413353, -0.0025391755625605583, 0.0012486535124480724, -0.004896066151559353, -0.00654150266200304, 0.002430468564853072, -0.00040543731302022934, -0.003024098929017782, 1.9137498384225182e-05, 0.014436977915465832, 0.008255483582615852, 0.009626295417547226, 0.0, 0.006953480653464794, 0.0, -0.003892486449331045, 0.004745251499116421, 0.0, 0.005374902859330177, 0.018446706235408783, 0.00392242381349206, 0.004838426131755114, 0.0, 0.004012312740087509, -0.0013902827631682158, 0.017225051298737526, -0.016997622326016426, 0.005068059079349041, 0.0, -0.013259765692055225, 0.003196439240127802, -0.002882559085264802, 0.0, 0.0044694337993860245, 0.0, -0.0068096257746219635, -0.002949020592495799, -0.003268023021519184, -0.006120511330664158, 0.007333778776228428, 0.0035860054194927216, 0.006660257000476122, -0.01227266900241375, 0.00894444715231657, 0.003778023412451148, -0.013954970054328442, 0.0, -0.002425395417958498], "first_delta": [9.303539991378784e-05, 0.002214769832789898, 0.00077472859993577, -0.00012060964945703745, 0.00014891351747792214, 0.0006005656905472279, -0.0005549645284190774, -0.0006901095621287823, 0.002564864931628108, -0.0001996621722355485, -0.00022383267059922218, -4.6465080231428146e-05, -0.0004629576578736305, 0.0007424317300319672, 0.0015259624924510717, 0.000830325298011303, 0.0008575213141739368, 0.00023923348635435104, 0.00015395740047097206, 0.0024067512713372707, 6.323680281639099e-05, -0.0004165142308920622, 0.0004485140088945627, 0.0023269185330718756, -0.0006408325862139463, 0.0020435871556401253, 0.0022536083124578, -0.0010217372328042984, 0.0009133336134254932, -0.00040427985368296504, 0.0007595522329211235, 0.001545126549899578, -0.00023956308723427355, -0.0005296189337968826, -0.00010208040475845337, -0.00036654621362686157, 0.0010915189050137997, 0.0018128216033801436, 0.0010234168730676174, 0.0011309226974844933, 0.0008936438243836164, 0.0015284600667655468, 0.0012753321789205074, 0.0010124007239937782, 0.00041913799941539764, 0.0016213413327932358, -1.5653204172849655e-05, 0.0024330588057637215, -0.0003062780015170574, 0.0007616536458954215, -0.0002906098961830139, 0.0005843720864504576, 0.00028111133724451065, 0.0012035341933369637, 0.0006824125302955508, 0.0003021611482836306, 0.00021964218467473984, -0.00029176659882068634, 0.0006753962952643633, 0.0002671805559657514, 0.0009417571127414703, 9.044120088219643e-05, 0.0014476701617240906, 0.000808310229331255, -8.939672261476517e-05, 0.0009604822844266891, 0.0013364879414439201, 0.0013484936207532883, -0.0004862821660935879, 0.00027971621602773666, 0.0003052134998142719, -0.0002445131540298462, -0.0004211817868053913, 0.0004390822723507881, -8.599646389484406e-05, -0.0006799278780817986, -0.0006108023226261139, 0.002183055505156517, 0.001979924738407135, 0.0006664348766207695, 0.00030872318893671036, 0.0008675344288349152, 0.0019737868569791317, 0.0005784002132713795, 0.0012426609173417091, 0.0008305683732032776, 6.2599778175354e-05, 0.0011864532716572285, -0.0002886389847844839, 0.0004542083479464054, -0.00021367077715694904, -0.0009015027899295092, -0.00019572116434574127, 0.0008195606060326099, -0.00010807067155838013, 0.0012361978879198432, 0.0013784756883978844, -0.00048338621854782104, 0.0004342194879427552, 0.0006754582282155752, 0.0012859376147389412, 0.000928651075810194, -0.0004246472381055355, 0.0006189211271703243, -0.00028960168128833175, 0.002329554408788681, -0.0007865703082643449, 0.0016148630529642105, -0.00018856837414205074, 0.00023176847025752068, 0.0008997572585940361, -3.534555435180664e-05, -0.0001756381243467331, -0.0003133658319711685, -8.319760672748089e-05, 0.0011236174032092094, -0.0004072985611855984, -0.0008819373324513435, 0.0004226267337799072, 0.0010673636570572853, 0.001599444542080164, 0.0005815867334604263, 0.0021225076634436846, 0.0006431248039007187, 0.0011640065349638462, 0.0008973339572548866, 4.008272662758827e-05, 0.0005608906503766775], "tensor__stats": {"min": -0.010032830759882927, "max": 0.011805234476923943, "mean": 0.00026279696612618864, "variance": 3.424546594033018e-05, "nobs": 128, "histogram_bins": 11, "histogram": [[11, 9, 12, 16, 15, 15, 11, 11, 11, 9, 8], [-0.010032830759882927, -0.008047551847994328, -0.0060622734017670155, -0.004076994955539703, -0.002091716043651104, -0.00010643747373251244, 0.0018788411980494857, 0.0038641197606921196, 0.005849398672580719, 0.007834677584469318, 0.009819955565035343, 0.011805234476923943]]}, "grad__stats": {"min": -0.020727967843413353, "max": 0.023393433541059494, "mean": -0.00010492061846889555, "variance": 7.99604385974817e-05, "nobs": 128, "histogram_bins": 11, "histogram": [[5, 6, 14, 10, 17, 31, 23, 11, 4, 5, 2], [-0.020727967843413353, -0.016716931015253067, -0.012705895118415356, -0.00869485829025507, -0.004683821927756071, -0.0006727853906340897, 0.00333825103007257, 0.007349287625402212, 0.01136032398790121, 0.015371360816061497, 0.019382396712899208, 0.023393433541059494]]}, "first_delta__stats": {"min": -0.0010217372328042984, "max": 0.002564864931628108, "mean": 0.0005498052341863513, "variance": 7.222998306133377e-07, "nobs": 128, "histogram_bins": 11, "histogram": [[4, 14, 22, 15, 14, 21, 13, 9, 4, 6, 6], [-0.0010217372328042984, -0.0006956824799999595, -0.000369627756299451, -4.357300713309087e-05, 0.00028248174930922687, 0.0006085364730097353, 0.0009345912258140743, 0.0012606459204107523, 0.0015867006732150912, 0.0019127554260194302, 0.002238810295239091, 0.002564864931628108]]}}, "shape": [128]}, "fc2.weight": {"id": "fc2.weight", "data_group_type": "PARAM", "type": "Parameter", "value": {"tensor": "NOT SERIALIZED, Too large 1280", "grad": "NOT SERIALIZED, Too large 1280", "first_delta": "NOT SERIALIZED, Too large 1280", "tensor__stats": {"min": -0.10430891811847687, "max": 0.09261896461248398, "mean": -0.0021001584827899933, "variance": 0.0029115970246493816, "nobs": 1280, "histogram_bins": 35, "histogram": [[5, 17, 27, 43, 40, 39, 38, 36, 32, 43, 40, 39, 44, 42, 33, 34, 40, 47, 46, 31, 32, 37, 39, 42, 26, 39, 50, 41, 28, 40, 41, 47, 38, 40, 24], [-0.10430891811847687, -0.09868240356445312, -0.09305589646100998, -0.08742938190698624, -0.08180287480354309, -0.07617636024951935, -0.0705498531460762, -0.06492333859205246, -0.059296831488609314, -0.05367032065987587, -0.048043809831142426, -0.04241729900240898, -0.03679078817367554, -0.031164275482296944, -0.0255377646535635, -0.019911253824830055, -0.014284742996096611, -0.008658232167363167, -0.0030317213386297226, 0.0025947897229343653, 0.008221300318837166, 0.01384781114757061, 0.019474321976304054, 0.0251008328050375, 0.030727343633770943, 0.036353856325149536, 0.04198036715388298, 0.047606877982616425, 0.05323338881134987, 0.05885989964008331, 0.06448640674352646, 0.0701129212975502, 0.07573942840099335, 0.08136594295501709, 0.08699245005846024, 0.09261896461248398]]}, "grad__stats": {"min": -0.7203764915466309, "max": 1.217666745185852, "mean": 1.4901161415892261e-09, "variance": 0.038814179599285126, "nobs": 1280, "histogram_bins": 35, "histogram": [[3, 2, 2, 2, 8, 5, 21, 36, 31, 55, 71, 109, 229, 434, 83, 52, 40, 19, 9, 15, 7, 10, 10, 7, 3, 5, 2, 2, 0, 1, 2, 0, 2, 0, 3], [-0.7203764915466309, -0.6650038361549377, -0.6096311807632446, -0.5542585253715515, -0.498885840177536, -0.4435131847858429, -0.3881404995918274, -0.3327678442001343, -0.27739518880844116, -0.22202251851558685, -0.16664984822273254, -0.11127718538045883, -0.05590452626347542, -0.0005318607436493039, 0.054840803146362305, 0.11021346598863602, 0.16558612883090973, 0.22095879912376404, 0.27633145451545715, 0.33170410990715027, 0.38707679510116577, 0.4424494504928589, 0.497822105884552, 0.5531947612762451, 0.6085674166679382, 0.6639401316642761, 0.7193127870559692, 0.7746854424476624, 0.8300580978393555, 0.8854307532310486, 0.9408034086227417, 0.9961760640144348, 1.051548719406128, 1.1069214344024658, 1.1622940301895142, 1.217666745185852]]}, "first_delta__stats": {"min": -0.025753069669008255, "max": 0.0077323466539382935, "mean": -0.0017039589583873749, "variance": 1.950469049916137e-05, "nobs": 1280, "histogram_bins": 35, "histogram": [[2, 0, 0, 0, 1, 0, 4, 1, 4, 4, 1, 5, 3, 15, 18, 11, 20, 15, 28, 34, 37, 41, 58, 61, 86, 112, 295, 126, 104, 85, 60, 30, 12, 4, 3], [-0.025753069669008255, -0.024796344339847565, -0.023839617148041725, -0.022882891818881035, -0.021926164627075195, -0.020969439297914505, -0.020012712106108665, -0.019055986776947975, -0.018099259585142136, -0.017142534255981445, -0.016185807064175606, -0.015229081735014915, -0.01427235547453165, -0.013315629214048386, -0.01235890295356512, -0.011402176693081856, -0.01044545043259859, -0.009488724172115326, -0.008531998842954636, -0.007575272116810083, -0.0066185458563268185, -0.005661820061504841, -0.004705093801021576, -0.003748367540538311, -0.002791641280055046, -0.001834915135987103, -0.0008781889919191599, 7.853721035644412e-05, 0.0010352634126320481, 0.0019919895566999912, 0.002948715817183256, 0.0039054418448358774, 0.004862168338149786, 0.005818894132971764, 0.0067756203934550285, 0.0077323466539382935]]}}, "shape": [10, 128]}, "fc2.bias": {"id": "fc2.bias", "data_group_type": "PARAM", "type": "Parameter", "value": {"tensor": [0.04904448986053467, 0.04068751260638237, -0.023554887622594833, 0.024411281570792198, 0.05714327096939087, 0.03594302013516426, -0.04577603563666344, 0.02290964499115944, -0.080682173371315, 0.027794303372502327], "grad": [-0.011218151077628136, 0.00037514884024858475, -0.04225302115082741, 0.14166629314422607, -0.07749355584383011, 0.053535789251327515, -0.003627131227403879, 0.029694434255361557, -0.057158853858709335, -0.033520929515361786], "first_delta": [-0.0018121711909770966, 0.0006730221211910248, -1.2228265404701233e-05, -0.0009216815233230591, -0.0008373484015464783, 0.0005490146577358246, -0.0018593035638332367, 0.001540614292025566, -0.0016463622450828552, 4.589557647705078e-06], "tensor__stats": {"min": -0.080682173371315, "max": 0.05714327096939087, "mean": 0.010792042128741741, "variance": 0.0020562871359288692, "nobs": 10, "histogram_bins": 5, "histogram": [[1, 1, 1, 3, 4], [-0.080682173371315, -0.05311708524823189, -0.025551995262503624, 0.002013093326240778, 0.029578182846307755, 0.05714327096939087]]}, "grad__stats": {"min": -0.07749355584383011, "max": 0.14166629314422607, "mean": 2.607703164514419e-09, "variance": 0.004015297628939152, "nobs": 10, "histogram_bins": 5, "histogram": [[3, 4, 2, 0, 1], [-0.07749355584383011, -0.03366158530116081, 0.010170383378863335, 0.05400235205888748, 0.09783432632684708, 0.14166629314422607]]}, "first_delta__stats": {"min": -0.0018593035638332367, "max": 0.001540614292025566, "mean": -0.00043218545033596456, "variance": 1.362480816169409e-06, "nobs": 10, "histogram_bins": 5, "histogram": [[3, 2, 2, 2, 1], [-0.0018593035638332367, -0.0011793200392276049, -0.0004993363982066512, 0.00018064715550281107, 0.0008606307092122734, 0.001540614292025566]]}}, "shape": [10]}, "input.1": {"id": "input.1", "data_group_type": "INPUT", "type": "Tensor", "value": {"tensor": "NOT SERIALIZED, Too large 7840", "tensor__stats": {"min": -0.4242129623889923, "max": 2.821486711502075, "mean": 0.04303661361336708, "variance": 1.1083168983459473, "nobs": 7840, "histogram_bins": 88, "histogram": [[6243, 19, 24, 24, 13, 12, 11, 15, 18, 13, 7, 11, 17, 10, 10, 16, 12, 9, 12, 7, 14, 11, 12, 11, 11, 7, 5, 7, 9, 5, 11, 9, 4, 6, 10, 13, 3, 5, 10, 9, 9, 8, 4, 5, 26, 6, 6, 14, 10, 4, 6, 4, 5, 9, 4, 12, 4, 10, 7, 5, 9, 8, 7, 10, 5, 8, 10, 21, 6, 11, 8, 14, 7, 11, 16, 5, 14, 16, 12, 15, 19, 12, 19, 10, 18, 13, 106, 597], [-0.4242129623889923, -0.387330025434494, -0.35044705867767334, -0.31356412172317505, -0.27668115496635437, -0.23979820311069489, -0.2029152512550354, -0.16603229939937592, -0.12914936244487762, -0.09226640313863754, -0.055383455008268356, -0.01850050315260887, 0.018382446840405464, 0.0552653968334198, 0.09214834868907928, 0.12903130054473877, 0.16591425240039825, 0.20279720425605774, 0.23968015611171722, 0.2765631079673767, 0.313446044921875, 0.3503290116786957, 0.38721194863319397, 0.42409491539001465, 0.46097785234451294, 0.4978608191013336, 0.5347437858581543, 0.5716267228126526, 0.6085096597671509, 0.6453925967216492, 0.6822755336761475, 0.7191585302352905, 0.7560414671897888, 0.7929244041442871, 0.8298073410987854, 0.8666903376579285, 0.9035732746124268, 0.940456211566925, 0.9773391485214233, 1.0142221450805664, 1.05110502243042, 1.087988018989563, 1.124871015548706, 1.1617538928985596, 1.1986368894577026, 1.2355197668075562, 1.2724027633666992, 1.3092857599258423, 1.3461686372756958, 1.3830516338348389, 1.419934630393982, 1.4568175077438354, 1.4937005043029785, 1.530583381652832, 1.567466378211975, 1.6043493747711182, 1.6412322521209717, 1.6781152486801147, 1.7149982452392578, 1.7518811225891113, 1.7887641191482544, 1.825646996498108, 1.862529993057251, 1.899412989616394, 1.9362958669662476, 1.9731788635253906, 2.010061740875244, 2.0469448566436768, 2.0838277339935303, 2.120710611343384, 2.1575934886932373, 2.19447660446167, 2.2313594818115234, 2.268242359161377, 2.3051254749298096, 2.342008352279663, 2.3788912296295166, 2.415774345397949, 2.4526572227478027, 2.4895401000976562, 2.526423215866089, 2.5633060932159424, 2.600188970565796, 2.6370718479156494, 2.673954963684082, 2.7108378410339355, 2.747720718383789, 2.7846038341522217, 2.821486711502075]]}}, "shape": [10, 1, 28, 28]}, "output.1": {"id": "output.1", "data_group_type": "OUTPUT", "type": "Tensor", "value": {"tensor": [[-7.296364784240723, -3.8489460945129395, -3.362016201019287, -1.3619458675384521, -3.4904398918151855, -1.2385960817337036, -4.897232532501221, -6.528797626495361, -1.103141188621521, -3.6435465812683105], [-9.7234525680542, -16.035476684570312, -15.944201469421387, -10.757641792297363, -10.65494155883789, -12.300094604492188, -13.770543098449707, -0.0005906267906539142, -11.649434089660645, -7.660278797149658], [-6.402692794799805, -12.26704216003418, -4.8438191413879395, -6.835263729095459, -0.02949766255915165, -7.235231876373291, -5.340866565704346, -5.604674339294434, -7.346264362335205, -4.754271984100342], [-0.11969903856515884, -16.572784423828125, -10.65473747253418, -7.079748153686523, -10.369551658630371, -2.1934971809387207, -10.445385932922363, -11.631460189819336, -8.018879890441895, -10.709811210632324], [-0.02029498480260372, -15.280681610107422, -7.728309631347656, -5.890688896179199, -9.138298988342285, -4.918334007263184, -8.753483772277832, -8.221495628356934, -4.785120487213135, -7.284211158752441], [-4.143737316131592, -8.95612621307373, -0.7159510850906372, -0.8227826356887817, -11.007067680358887, -5.699207305908203, -5.099785327911377, -3.2673048973083496, -4.829895973205566, -7.575102806091309], [-6.262097358703613, -6.3462724685668945, -7.648764133453369, -0.34790125489234924, -5.915441989898682, -2.247551202774048, -7.764391899108887, -2.6468000411987305, -3.194620132446289, -2.6728549003601074], [-9.130470275878906, -0.01982913725078106, -4.6886067390441895, -6.064975261688232, -9.323175430297852, -8.324749946594238, -6.501883506774902, -7.89187479019165, -5.191822052001953, -8.354000091552734], [-12.489935874938965, -18.11332893371582, -3.3309264183044434, -11.977203369140625, -3.847668170928955, -10.589466094970703, -0.05886685848236084, -16.03807258605957, -10.787235260009766, -10.712510108947754], [-7.720252990722656, -8.538369178771973, -8.109853744506836, -4.816878318786621, -1.6127002239227295, -4.090517044067383, -7.760674476623535, -1.6996078491210938, -3.420492649078369, -0.5815859436988831]], "tensor__stats": {"min": -18.11332893371582, "max": -0.0005906267906539142, "mean": -6.746949672698975, "variance": 17.94624137878418, "nobs": 100, "histogram_bins": 10, "histogram": [[2, 4, 1, 7, 13, 19, 13, 16, 10, 15], [-18.11332893371582, -16.30205535888672, -14.4907808303833, -12.6795072555542, -10.868233680725098, -9.056960105895996, -7.245686054229736, -5.434412002563477, -3.623138189315796, -1.8118644952774048, -0.0005906267906539142]]}}, "shape": [10, 10]}}, "graph": {"nodes": [{"data": {"id": "input.1", "label": "INPUT", "component_ids": ["input.1"]}}, {"data": {"id": 9, "label": "Conv", "component_ids": ["conv1.weight", "conv1.bias"]}}, {"data": {"id": 10, "label": "Relu", "component_ids": []}}, {"data": {"id": 11, "label": "Conv", "component_ids": ["conv2.weight", "conv2.bias"]}}, {"data": {"id": 12, "label": "Relu", "component_ids": []}}, {"data": {"id": 13, "label": "MaxPool", "component_ids": []}}, {"data": {"id": 14, "label": "Flatten", "component_ids": []}}, {"data": {"id": 15, "label": "Gemm", "component_ids": ["fc1.weight", "fc1.bias"]}}, {"data": {"id": 16, "label": "Relu", "component_ids": []}}, {"data": {"id": 17, "label": "Gemm", "component_ids": ["fc2.weight", "fc2.bias"]}}, {"data": {"id": 18, "label": "LogSoftmax", "component_ids": []}}, {"data": {"id": "output.1", "label": "OUTPUT", "component_ids": ["output.1"]}}], "edges": [{"data": {"id": "input.1_9", "source": "input.1", "target": 9}}, {"data": {"id": "9_10", "source": 9, "target": 10}}, {"data": {"id": "10_11", "source": 10, "target": 11}}, {"data": {"id": "11_12", "source": 11, "target": 12}}, {"data": {"id": "12_13", "source": 12, "target": 13}}, {"data": {"id": "13_14", "source": 13, "target": 14}}, {"data": {"id": "14_15", "source": 14, "target": 15}}, {"data": {"id": "15_16", "source": 15, "target": 16}}, {"data": {"id": "16_17", "source": 16, "target": 17}}, {"data": {"id": "17_18", "source": 17, "target": 18}}, {"data": {"id": "18_output.1", "source": "18", "target": "output.1"}}]}}